2 0.0 0.0 0.0 0.0 0.0 0.0 0.0 
2 10.0 -10.0 0.0 0.0 0.0 0.0 0.0 
2 2.936981174345566 -1.7974983844358925 0.0 0.0 0.0 0.0 -1.1394827899096711 
2 10.0 -9.999999999999991 0.0 0.0 0.0 0.0 0.0 
2 3.8024850382929802 0.0 -2.0046207514855907 -1.7978642868074064 0.0 0.0 0.0 
2 10.0 -10.0 0.0 0.0 0.0 0.0 0.0 
2 0.0 0.0 0.0 0.0 0.0 0.0 0.0 
2 0.0 0.0 0.0 0.0 0.0 0.0 0.0 
2 0.0 0.0 0.0 0.0 0.0 0.0 0.0 
2 10.0 -9.999999999999988 0.0 0.0 0.0 0.0 0.0 
2 10.0 -9.999999999999995 0.0 0.0 0.0 0.0 0.0 
2 0.0 0.0 0.0 0.0 0.0 0.0 0.0 
2 0.0 0.0 0.0 0.0 0.0 0.0 0.0 
2 10.0 0.0 0.0 0.0 -10.000000000000005 0.0 0.0 
2 10.0 -9.999999999999996 0.0 0.0 0.0 0.0 0.0 
2 10.0 0.0 0.0 -4.1638606669207 0.0 0.0 -5.8361393330792835 
2 10.0 0.0 0.0 -9.999999999999995 0.0 0.0 0.0 
2 0.0 0.0 0.0 0.0 0.0 0.0 0.0 
2 0.0 0.0 0.0 0.0 0.0 0.0 0.0 
2 0.0 0.0 0.0 0.0 0.0 0.0 0.0 
2 10.0 0.0 0.0 -9.999999999999996 0.0 0.0 0.0 
2 0.0 0.0 0.0 0.0 0.0 0.0 0.0 
2 10.0 0.0 0.0 0.0 -3.7426794523297904 0.0 -6.257320547670199 
2 10.0 0.0 0.0 -9.999999999999998 0.0 0.0 0.0 
2 10.0 0.0 0.0 0.0 -10.00000000000002 0.0 0.0 
2 0.0 0.0 0.0 0.0 0.0 0.0 0.0 
2 10.0 0.0 0.0 0.0 0.0 -9.999999999999993 0.0 
2 10.0 0.0 -9.999999999999995 0.0 0.0 0.0 0.0 
2 10.0 -10.000000000000012 0.0 0.0 0.0 0.0 0.0 
2 10.0 -1.963920715991992 -6.8967964277020135 -0.018746268852571715 0.0 -0.7937743706835374 -0.3267622167698818 
2 10.0 -9.999999999999988 0.0 0.0 0.0 0.0 0.0 
2 10.0 -2.2935731105831803 0.0 0.0 -7.706426889416789 0.0 0.0 
2 10.0 0.0 0.0 -9.999999999999993 0.0 0.0 0.0 
2 10.0 -2.705001492469995 0.0 -7.294998507529983 0.0 0.0 0.0 
2 10.0 0.0 0.0 0.0 0.0 -9.999999999999995 0.0 
2 0.0 0.0 0.0 0.0 0.0 0.0 0.0 
2 0.0 0.0 0.0 0.0 0.0 0.0 0.0 
2 0.0 0.0 0.0 0.0 0.0 0.0 0.0 
2 10.0 -10.000000000000009 0.0 0.0 0.0 0.0 0.0 
2 2.8121594666765914 0.0 0.0 0.0 0.0 -2.812159466676575 0.0 
2 7.253164502918407 0.0 0.0 0.0 -2.9569645847546098 -1.379281948740321 -2.9169179694234812 
2 10.0 0.0 -10.000000000000009 0.0 0.0 0.0 0.0 
2 10.0 0.0 -9.999999999999996 0.0 0.0 0.0 0.0 
2 0.031480589844735785 0.0 0.0 0.0 0.0 -0.031480589844735785 0.0 
2 10.0 0.0 -10.00000000000001 0.0 0.0 0.0 0.0 
2 0.0 0.0 0.0 0.0 0.0 0.0 0.0 
2 0.0 0.0 0.0 0.0 0.0 0.0 0.0 
2 10.0 0.0 -10.0 0.0 0.0 0.0 0.0 
2 10.0 0.0 0.0 -10.000000000000002 0.0 0.0 0.0 
2 10.0 -10.000000000000012 0.0 0.0 0.0 0.0 0.0 
2 -1.169836088829299E-15 0.0 0.0 0.0 0.0 0.0 0.0 
2 10.0 0.0 0.0 0.0 0.0 -10.000000000000002 0.0 
2 0.0 0.0 0.0 0.0 0.0 0.0 0.0 
2 0.0 0.0 0.0 0.0 0.0 0.0 0.0 
2 5.584097550012738 0.0 0.0 -5.584097550012738 0.0 0.0 0.0 
2 7.875658503183658 -1.423853763943643 0.0 -1.0007551942505786 -2.5937128900273847 -1.1875129413000556 -1.6698237136619904 
2 10.0 0.0 -10.000000000000005 0.0 0.0 0.0 0.0 
2 10.0 0.0 -0.06887294934861286 -0.0024472341043415362 -9.928679816547056 0.0 0.0 
2 -1.8144843107471703E-15 0.0 0.0 0.0 0.0 0.0 0.0 
2 3.7555976808065488 -2.3293345833498176 0.0 0.0 0.0 0.0 -1.4262630974567323 
2 10.0 0.0 -9.999999999999993 0.0 0.0 0.0 0.0 
2 10.0 -9.999999999999998 0.0 0.0 0.0 0.0 0.0 
2 10.0 0.0 -2.1128387637564336 0.0 -7.887161236243555 0.0 0.0 
2 1.165969842506947 -0.10963903618922223 -0.18110560339862944 -0.20247762951792336 -0.23529784834246703 -0.19771802602986246 -0.23973169902884225 
2 10.0 0.0 -9.999999999999991 0.0 0.0 0.0 0.0 
2 10.0 -9.999999999999988 0.0 0.0 0.0 0.0 0.0 
0 0.0 0.5922442870115673 0.0 -0.5922442870115698 0.0 0.0 0.0 
0 0.0 10.0 0.0 0.0 -8.05348678004732 -1.946513219952675 0.0 
0 0.0 10.0 -10.000000000000002 0.0 0.0 0.0 0.0 
0 0.0 7.743603302329022 -1.3195369481709782 0.0 -4.708830538088683 0.0 -1.7152358160693635 
0 0.0 0.0 0.0 0.0 0.0 0.0 0.0 
0 0.0 0.0 0.0 0.0 0.0 0.0 0.0 
0 0.0 10.0 -8.497252252044584 0.0 -1.5027477479554188 0.0 0.0 
0 0.0 10.0 0.0 0.0 0.0 -9.61853060799076 -0.38146939200922625 
0 0.0 10.0 0.0 0.0 -10.000000000000002 0.0 0.0 
0 0.0 0.0 0.0 0.0 0.0 0.0 0.0 
0 0.0 10.0 -9.999999999999982 0.0 0.0 0.0 0.0 
0 -10.000000000000009 10.0 0.0 0.0 0.0 0.0 0.0 
0 -0.13838669242423757 2.224656933741767 -0.39137987796336543 -0.867507459977392 -0.2773881681432012 -0.4363153946346725 -0.11367934059890114 
0 0.0 0.3660244111922533 -0.3660244111922533 0.0 0.0 0.0 0.0 
0 0.0 0.0 0.0 0.0 0.0 0.0 0.0 
0 0.0 10.0 0.0 0.0 0.0 -10.000000000000016 0.0 
0 0.0 10.0 -7.7397579754608365 0.0 -2.260242024539151 0.0 0.0 
0 0.0 0.0 0.0 0.0 0.0 0.0 0.0 
0 0.0 0.0 0.0 0.0 0.0 0.0 0.0 
0 0.0 0.9601951436180847 0.0 0.0 -0.545975210130813 0.0 -0.4142199334872682 
0 -0.1478815327336164 0.8942050489690613 -0.14033961171995565 -0.1658864419578893 -0.12575998973059138 -0.13909772602406978 -0.17523974680293677 
0 0.0 6.935959033250644E-15 0.0 0.0 0.0 0.0 0.0 
0 0.0 0.0 0.0 0.0 0.0 0.0 0.0 
0 0.0 0.0 0.0 0.0 0.0 0.0 0.0 
0 0.0 0.0 0.0 0.0 0.0 0.0 0.0 
0 0.0 0.0 0.0 0.0 0.0 0.0 0.0 
0 0.0 0.0 0.0 0.0 0.0 0.0 0.0 
0 -0.04085741195171964 0.4572156834918857 -0.055548853255766556 -0.13263907188227358 -0.04587525945738293 -0.07590692778930816 -0.10638815915543502 
0 -10.00000000000001 10.0 0.0 0.0 0.0 0.0 0.0 
0 0.0 0.0 0.0 0.0 0.0 0.0 0.0 
0 0.0 10.0 0.0 -10.000000000000005 0.0 0.0 0.0 
0 0.0 10.0 0.0 0.0 0.0 -10.000000000000007 0.0 
0 0.0 8.013342540725783E-16 0.0 0.0 0.0 0.0 0.0 
0 -10.000000000000007 10.0 0.0 0.0 0.0 0.0 0.0 
0 0.0 0.6675528225123496 0.0 0.0 0.0 0.0 -0.6675528225123613 
0 -10.000000000000016 10.0 0.0 0.0 0.0 0.0 0.0 
0 -3.1975943786131005 8.066308207619759 0.0 0.0 0.0 0.0 -4.868713829006637 
0 0.0 10.0 -0.1457691848446098 -9.854230815155379 0.0 0.0 0.0 
0 -0.2006735482992957 1.2192950475535222 -0.19197659092892855 -0.216238005326242 -0.19128246943085625 -0.1914235395983784 -0.2277008939698202 
0 0.0 0.0 0.0 0.0 0.0 0.0 0.0 
0 0.0 0.013033584556603663 0.0 0.0 -0.013033584556603663 0.0 0.0 
0 -5.072410089900598 7.674780691946053 -1.562509722530027 -0.2783522161525305 0.0 0.0 -0.7615086633629042 
0 -0.46167426107383847 2.7964553473272704 -0.4504004199531298 -0.494396251114775 -0.3858579148704324 -0.4484907139646922 -0.5556357863503982 
0 -4.414263678472166 5.845298663554741 0.0 0.0 0.0 0.0 -1.431034985082575 
0 0.0 10.0 0.0 0.0 0.0 -9.999999999999993 0.0 
0 0.0 10.0 0.0 -10.000000000000012 0.0 0.0 0.0 
0 0.0 0.0 0.0 0.0 0.0 0.0 0.0 
0 0.0 0.0 0.0 0.0 0.0 0.0 0.0 
0 0.0 3.238910451214592 0.0 -0.4838121996861935 -2.755098251528403 0.0 0.0 
0 -4.410251146367196 10.0 -0.8277677801052298 -1.1828838711288234 -1.3301709730965563 -1.1340088761400333 -1.114917353162145 
0 0.0 10.0 -5.400044946774099 0.0 0.0 -4.599955053225936 0.0 
0 0.0 6.779558051680158 0.0 0.0 0.0 -5.325880954152267 -1.4536770975278872 
0 0.0 0.0 0.0 0.0 0.0 0.0 0.0 
0 0.0 10.0 -4.477567686733177 0.0 0.0 -5.522432313266868 0.0 
0 0.0 10.0 0.0 0.0 -10.000000000000005 0.0 0.0 
0 0.0 10.0 -10.000000000000012 0.0 0.0 0.0 0.0 
0 0.0 0.0 0.0 0.0 0.0 0.0 0.0 
0 -10.00000000000001 10.0 0.0 0.0 0.0 0.0 0.0 
0 0.0 0.0 0.0 0.0 0.0 0.0 0.0 
0 0.0 0.0 0.0 0.0 0.0 0.0 0.0 
0 -2.2016364358912557 6.720944868807661 0.0 -2.283194306580911 0.0 0.0 -2.2361141263355098 
0 0.0 0.0 0.0 0.0 0.0 0.0 0.0 
0 -9.758615380340466 10.0 0.0 0.0 0.0 0.0 -0.2413846196595442 
0 0.0 10.0 0.0 0.0 -9.99999999999998 0.0 0.0 
0 0.0 10.0 -9.999999999999991 0.0 0.0 0.0 0.0 
0 0.0 0.6664025291075862 0.0 0.0 0.0 -0.6664025291075913 0.0 
0 0.0 0.0 0.0 0.0 0.0 0.0 0.0 
0 -8.220297295358865 10.0 0.0 0.0 0.0 0.0 -1.7797027046411442 
0 0.0 4.289196737113959 -0.634330540556448 -3.654866196557499 0.0 0.0 0.0 
0 0.0 10.0 0.0 0.0 0.0 -10.0 0.0 
0 0.0 10.0 -10.0 0.0 0.0 0.0 0.0 
0 0.0 7.084854590808587 0.0 0.0 0.0 -7.084854590808587 0.0 
0 -0.06327734960890452 0.23124193509510374 -0.04101583777659837 -0.00146579412199101 -0.05666767784061713 -0.03229814075394392 -0.03651713499304901 
0 0.0 10.0 0.0 0.0 0.0 -9.99999999999998 0.0 
0 0.0 10.0 -10.000000000000018 0.0 0.0 0.0 0.0 
0 0.0 10.0 0.0 0.0 0.0 0.0 -10.000000000000007 
0 -9.57457731092696 9.986830067057376 0.0 0.0 0.0 0.0 -0.4122527561304362 
0 0.0 0.0 0.0 0.0 0.0 0.0 0.0 
0 0.0 10.0 0.0 -2.8931126814416706 -0.7079869248042965 -2.640169188107359 -3.758731205646657 
0 0.0 0.0 0.0 0.0 0.0 0.0 0.0 
0 0.0 0.0 0.0 0.0 0.0 0.0 0.0 
0 0.0 0.0 0.0 0.0 0.0 0.0 0.0 
0 0.0 10.0 0.0 -1.3396648743083475 0.0 0.0 -8.660335125691718 
0 0.0 10.0 0.0 0.0 0.0 -10.000000000000002 0.0 
0 0.0 10.0 0.0 0.0 0.0 -10.0 0.0 
0 0.0 0.0 0.0 0.0 0.0 0.0 0.0 
0 0.0 0.0 0.0 0.0 0.0 0.0 0.0 
0 0.0 6.00588788555018 -1.336726782879256 0.0 0.0 0.0 -4.669161102670898 
0 0.0 0.0 0.0 0.0 0.0 0.0 0.0 
0 0.0 0.0 0.0 0.0 0.0 0.0 0.0 
0 0.0 10.0 -9.52503796392747 0.0 0.0 -0.47496203607252807 0.0 
0 -10.000000000000046 10.0 0.0 0.0 0.0 0.0 0.0 
0 0.0 0.0 0.0 0.0 0.0 0.0 0.0 
0 0.0 0.0 0.0 0.0 0.0 0.0 0.0 
0 0.0 0.0 0.0 0.0 0.0 0.0 0.0 
0 0.0 10.0 0.0 0.0 0.0 -9.999999999999996 0.0 
0 0.0 10.0 0.0 0.0 0.0 -9.999999999999996 0.0 
0 0.0 0.0 0.0 0.0 0.0 0.0 0.0 
0 0.0 0.0 0.0 0.0 0.0 0.0 0.0 
0 0.0 10.0 0.0 -0.904373104194422 -3.741908756882535 0.0 -5.353718138923037 
0 -1.8228198682744934 1.966800434687738 0.0 -0.07148927543303664 -0.07249129098020966 0.0 0.0 
0 -1.093581615291208 1.093581615291205 0.0 0.0 0.0 0.0 0.0 
0 0.0 0.0 0.0 0.0 0.0 0.0 0.0 
0 0.0 3.4283636457157556 -0.1427742731826946 -0.0388251117799813 -0.7566153151250431 -2.1934086451144035 -0.29674030051363254 
0 0.0 10.0 0.0 0.0 0.0 -10.0 0.0 
0 0.0 5.1026766163835084 -5.1026766163835084 0.0 0.0 0.0 0.0 
0 0.0 3.1825287719340257E-15 0.0 0.0 0.0 0.0 0.0 
0 -1.9180821167217925 8.686915742555916 -2.364574249004902 0.0 -0.23234241668411695 0.0 -4.171916960145119 
0 0.0 0.0 0.0 0.0 0.0 0.0 0.0 
0 0.0 0.0 0.0 0.0 0.0 0.0 0.0 
0 0.0 0.0 0.0 0.0 0.0 0.0 0.0 
0 -0.06717549751403709 10.0 0.0 -4.203528085054805 -4.631175214641265 0.0 -1.0981212027898917 
0 0.0 5.7355050088072345E-15 0.0 0.0 0.0 0.0 0.0 
0 0.0 0.0 0.0 0.0 0.0 0.0 0.0 
0 0.0 10.0 0.0 0.0 0.0 -9.999999999999996 0.0 
0 0.0 0.0 0.0 0.0 0.0 0.0 0.0 
0 -0.8883038866097592 7.190821098412501 -1.3354116291463665 0.0 -3.9574441314557074 -1.0096614512006705 0.0 
0 0.0 0.0 0.0 0.0 0.0 0.0 0.0 
0 -0.5757056351560266 10.0 0.0 0.0 -9.424294364843979 0.0 0.0 
0 0.0 10.0 -9.999999999999993 0.0 0.0 0.0 0.0 
0 0.0 -1.7796798620859575E-15 0.0 0.0 0.0 0.0 0.0 
0 0.0 0.928799897275567 -0.12756094105311064 -0.6629105577050847 0.0 -0.13832839851737172 0.0 
0 -1.0230604213602261 1.025594758235016 0.0 -0.0025343368747881316 0.0 0.0 0.0 
0 0.0 10.0 0.0 0.0 0.0 0.0 -10.000000000000002 
0 0.0 0.0 0.0 0.0 0.0 0.0 0.0 
0 0.0 0.0 0.0 0.0 0.0 0.0 0.0 
0 0.0 2.9357075682728535 0.0 -1.4861717849678098 0.0 0.0 -1.4495357833050495 
0 0.0 10.0 0.0 0.0 0.0 -10.000000000000004 0.0 
0 0.0 10.0 0.0 0.0 0.0 -9.999999999999991 0.0 
0 0.0 10.0 0.0 0.0 -10.0 0.0 0.0 
0 0.0 10.0 0.0 -10.000000000000004 0.0 0.0 0.0 
0 0.0 0.0 0.0 0.0 0.0 0.0 0.0 
0 -0.10433299679306653 0.6866280757519337 -0.09839636050083832 -0.1303610153980487 -0.10521415506093183 -0.10588395978060763 -0.14243958821844235 
0 -0.017421206206314023 0.11970070097349837 -0.0161772655024232 -0.023638770717779135 -0.020251561633063277 -0.016900160268763842 -0.025311736645154848 
0 0.0 0.0 0.0 0.0 0.0 0.0 0.0 
0 0.0 0.0 0.0 0.0 0.0 0.0 0.0 
0 0.0 0.0 0.0 0.0 0.0 0.0 0.0 
0 0.0 0.0 0.0 0.0 0.0 0.0 0.0 
0 -0.7539036168524559 2.5693818701710245 -0.7042277737108542 -0.26338414615059214 -0.423153550457341 -0.32773094992656093 -0.09698183307321205 
0 0.0 0.0 0.0 0.0 0.0 0.0 0.0 
0 0.0 0.0 0.0 0.0 0.0 0.0 0.0 
0 0.0 10.0 0.0 0.0 -10.000000000000007 0.0 0.0 
0 -0.1479324548993808 0.894394830065369 -0.14008449001990406 -0.1659158955732196 -0.12558630954074196 -0.1394487087787858 -0.17542697125333626 
0 0.0 10.0 0.0 0.0 -9.999999999999998 0.0 0.0 
0 0.0 0.0 0.0 0.0 0.0 0.0 0.0 
0 0.0 10.0 -3.0220566422536224 0.0 -2.3213217205613277 0.0 -4.656621637184995 
0 0.0 10.0 0.0 -10.000000000000009 0.0 0.0 0.0 
0 0.0 6.337414698862167 -2.0156894875096234 -0.36889635836842494 0.0 0.0 -3.9528288529841253 
0 0.0 8.300789796900776 -3.0514598589283106 0.0 -2.5449345414842934 -2.7043953964881684 0.0 
0 0.0 10.0 0.0 0.0 -9.999999999999996 0.0 0.0 
0 0.0 0.0 0.0 0.0 0.0 0.0 0.0 
0 -10.000000000000002 10.0 0.0 0.0 0.0 0.0 0.0 
0 0.0 0.0 0.0 0.0 0.0 0.0 0.0 
0 0.0 0.0018004226408977076 -0.0014677294499426449 -3.233195781604681E-4 0.0 -9.373612794196913E-6 0.0 
0 -2.353488208831407 8.567812283820786 0.0 -1.331545886342919 -3.516419550071516 -0.9714168290739135 -0.39494180950102187 
0 0.0 -7.376154381032199E-16 0.0 0.0 0.0 0.0 0.0 
0 0.0 10.0 0.0 0.0 -10.000000000000002 0.0 0.0 
0 0.0 10.0 0.0 0.0 -1.6407724395018546 -8.359227560498141 0.0 
0 0.0 0.0 0.0 0.0 0.0 0.0 0.0 
0 -2.6822539968443424 10.0 0.0 -1.896300154155971 -2.432083421516865 -2.262388804211074 -0.7269736232717601 
0 0.0 0.0 0.0 0.0 0.0 0.0 0.0 
0 0.0 10.0 0.0 0.0 -9.999999999999995 0.0 0.0 
0 0.0 10.0 0.0 0.0 -9.999999999999993 0.0 0.0 
0 0.0 0.0 0.0 0.0 0.0 0.0 0.0 
0 -0.244154856614958 1.3541589468729356 -0.24272799934686695 -0.34868843919012277 -0.177288425522553 0.0 -0.3412992261984335 
0 0.0 10.0 0.0 0.0 0.0 -10.00000000000002 0.0 
0 0.0 1.1764126950897513E-15 0.0 0.0 0.0 0.0 0.0 
0 0.0 10.0 0.0 0.0 0.0 -9.999999999999996 0.0 
0 0.0 0.0 0.0 0.0 0.0 0.0 0.0 
0 0.0 10.0 0.0 -10.0 0.0 0.0 0.0 
0 -1.5560107042996654 10.0 0.0 0.0 -8.44398929570033 0.0 0.0 
0 -0.8353672246984906 2.3082991531769923 -0.873907588539442 0.0 -0.558241160830845 -0.04078317910821828 0.0 
0 -0.36205884003113625 2.52432251597822 -0.424060176794441 -0.431397331619187 -0.4016949900112365 -0.4255008107415739 -0.4796103667806447 
0 0.0 10.0 0.0 0.0 0.0 -9.999999999999998 0.0 
0 0.0 6.052881574248109 -0.37770585112078003 -2.1646248993375443 -1.9655155322298343 -1.5450352915599797 0.0 
0 0.0 10.0 -0.9340790762872682 0.0 -5.0249776411061156 0.0 -4.040943282606631 
0 -0.2962220323782493 1.787292121883507 -0.28324779215683654 -0.31298875349853084 -0.28366214138014323 -0.28261414975776367 -0.3285572527119826 
0 0.0 10.0 0.0 0.0 -6.98873327988383 -1.8451825522495497 -1.1660841678666254 
0 0.0 10.0 0.0 0.0 -9.999999999999996 0.0 0.0 
0 0.0 10.0 -2.0095630521687657 -1.878837013168278 -0.9615782605035827 -2.7502132476498473 -2.399808426509514 
0 -0.5735872627266123 1.2037908147742278 -0.07413296092641462 0.0 0.0 -0.5560705911212008 0.0 
0 0.0 1.8047473870826283 0.0 0.0 0.0 0.0 -1.804747387082619 
0 0.0 0.0 0.0 0.0 0.0 0.0 0.0 
0 0.0 10.0 0.0 0.0 -10.000000000000004 0.0 0.0 
0 -3.201354728522411 10.0 0.0 0.0 -6.798645271477586 0.0 0.0 
0 -1.4564771040851348 6.815010189843117 -0.8877190905484671 -1.1882691109995178 -1.106837556221115 -0.9900492183342253 -1.1856581096546481 
0 0.0 0.0 0.0 0.0 0.0 0.0 0.0 
0 -0.5677173881484597 3.9406333402491263 -0.8149118847041911 -0.6093340467790006 -0.6745805566043666 -0.6753460014087366 -0.5987434626043693 
0 0.0 0.0 0.0 0.0 0.0 0.0 0.0 
0 0.0 0.0 0.0 0.0 0.0 0.0 0.0 
0 0.0 0.0 0.0 0.0 0.0 0.0 0.0 
0 -0.14795159929678628 0.8942283624573103 -0.1399365224845666 -0.16598480677046804 -0.1258083803670173 -0.13924085340438824 -0.1753062001340842 
0 0.0 6.029975909427456 -6.029975909427457 0.0 0.0 0.0 0.0 
0 0.0 2.664046499592898 -2.664046499592897 0.0 0.0 0.0 0.0 
0 0.0 0.0 0.0 0.0 0.0 0.0 0.0 
0 -10.000000000000009 10.0 0.0 0.0 0.0 0.0 0.0 
0 -1.8299988943198403E-6 10.0 0.0 -1.910498480224952E-6 -4.007188006140981E-7 -9.999994614657776 -1.2441260486109436E-6 
0 0.0 0.0 0.0 0.0 0.0 0.0 0.0 
0 -0.8267770074125472 1.5974264724762723 0.0 -0.7706494650637251 0.0 0.0 0.0 
0 0.0 0.0 0.0 0.0 0.0 0.0 0.0 
0 0.0 0.0 0.0 0.0 0.0 0.0 0.0 
0 -4.307835529308223 10.0 0.0 0.0 -5.692164470691778 0.0 0.0 
0 -0.3427495395770817 2.0390196310601874 -0.32933948672877705 -0.3718945805609028 -0.27705227275863975 -0.32499206471008296 -0.39299168672470425 
0 -5.288860253791521 7.428747211653152 0.0 0.0 0.0 0.0 -2.1398869578616315 
0 -0.14797580129177618 0.8943130511474591 -0.1402088229592768 -0.16582286724730974 -0.1254808280720232 -0.13919143422316235 -0.17563329735391267 
0 -0.38409057139645336 10.0 -6.566143213905561 -0.5039624402568023 -0.6905736438824907 -1.0632878325875652 -0.7919422979711266 
0 -0.1479818975392349 0.8941314052373519 -0.14012979371542852 -0.16576746907986842 -0.1254635742259539 -0.13926954972047054 -0.17551912095639585 
0 0.0 0.0 0.0 0.0 0.0 0.0 0.0 
0 -0.14829791983151674 0.8939137609133884 -0.14011071152600071 -0.1658199775007195 -0.1252374970940024 -0.1392297358761087 -0.17521791908503842 
0 0.0 0.0 0.0 0.0 0.0 0.0 0.0 
0 0.0 0.0 0.0 0.0 0.0 0.0 0.0 
0 0.0 10.0 0.0 -3.640730541242118 -6.359269458757879 0.0 0.0 
0 -10.000000000000016 10.0 0.0 0.0 0.0 0.0 0.0 
0 0.0 0.0 0.0 0.0 0.0 0.0 0.0 
0 -0.10067196346093925 0.6903250014293886 -0.10980299678910467 -0.13714499345266404 -0.09635462393613493 -0.1054523391531758 -0.14089808463736686 
0 -0.148064260785428 0.8943525446126492 -0.14046068281572524 -0.1657833592680636 -0.12517074097933178 -0.13950604507582798 -0.17536745568827306 
0 0.0 0.0 0.0 0.0 0.0 0.0 0.0 
0 -5.710855777241103 10.0 0.0 0.0 0.0 0.0 -4.289144222758875 
0 -0.4394692140882852 2.9144756676620065 -1.7838185745672195 -0.032460925525945754 -0.002855367203158299 -0.08222529506819612 -0.5736462912092017 
0 0.0 0.0 0.0 0.0 0.0 0.0 0.0 
0 0.0 0.006559953880184174 -0.0023201646395726774 0.0 -0.002364138522665103 -0.0015240971943353428 -3.515535236104548E-4 
0 0.0 10.0 0.0 0.0 -10.000000000000002 0.0 0.0 
0 0.0 0.0 0.0 0.0 0.0 0.0 0.0 
0 -1.0261241861017236 6.815903032183982 -1.0948290994364984 -1.150187043381534 -1.1266786276576986 -1.1433542078948147 -1.2747298677117243 
0 -9.999999999999998 10.0 0.0 0.0 0.0 0.0 0.0 
0 0.0 0.0 0.0 0.0 0.0 0.0 0.0 
0 -1.2370492793228998 4.653279453955665 -0.5152324884635833 -1.7166561736986852 -0.39845815639352244 0.0 -0.7858833560769739 
0 0.0 10.0 0.0 0.0 -10.000000000000002 0.0 0.0 
0 0.0 0.0 0.0 0.0 0.0 0.0 0.0 
0 0.0 0.0 0.0 0.0 0.0 0.0 0.0 
0 0.0 10.0 0.0 0.0 -7.362603993922529 -2.637396006077481 0.0 
0 0.0 10.0 0.0 -9.999999999999998 0.0 0.0 0.0 
0 0.0 0.0 0.0 0.0 0.0 0.0 0.0 
0 -0.24073932361665706 1.4348481627189758 -0.22695834355102162 -0.263731788081888 -0.19721593857967493 -0.2267815561146896 -0.2794212127750452 
0 0.0 10.0 0.0 0.0 -10.000000000000005 0.0 0.0 
0 0.0 0.0 0.0 0.0 0.0 0.0 0.0 
0 0.0 0.0 0.0 0.0 0.0 0.0 0.0 
0 0.0 0.0 0.0 0.0 0.0 0.0 0.0 
0 0.0 3.7591358469722973 -3.7591358469722973 0.0 0.0 0.0 0.0 
0 0.0 0.0 0.0 0.0 0.0 0.0 0.0 
0 -0.10579046829242966 0.6728984168783744 -0.09661136427929237 -0.13240057439283465 -0.09622330568772615 -0.10260020572346065 -0.13927249850263262 
0 0.0 0.014799468564996837 -0.006807974809963083 -0.0012078469519500046 -0.00612573533138453 -7.089248180130594E-5 -5.87018989897118E-4 
0 0.0 0.0 0.0 0.0 0.0 0.0 0.0 
0 -9.999999999999993 10.0 0.0 0.0 0.0 0.0 0.0 
0 0.0 0.0 0.0 0.0 0.0 0.0 0.0 
0 0.0 10.0 0.0 0.0 0.0 -10.0 0.0 
0 0.0 0.0 0.0 0.0 0.0 0.0 0.0 
0 0.0 7.516793149719754 -3.0240814305955372 -3.5366305551735584 0.0 0.0 -0.9560811639506712 
0 0.0 0.3279200351342545 0.0 -0.3106199802873834 0.0 -0.017300054846871773 0.0 
0 -1.326107308326186 3.7490077219284688 0.0 -2.4229004136022816 0.0 0.0 0.0 
0 0.0 0.0 0.0 0.0 0.0 0.0 0.0 
0 0.0 0.0 0.0 0.0 0.0 0.0 0.0 
0 0.0 0.0 0.0 0.0 0.0 0.0 0.0 
0 -0.1480209148825346 0.8943370923615882 -0.14022051441809227 -0.16590807868232968 -0.12557299900378432 -0.1393623437443328 -0.17525224163051517 
0 0.0 0.0 0.0 0.0 0.0 0.0 0.0 
0 -0.848245758438302 0.915358046835634 0.0 0.0 -0.06711228839733203 0.0 0.0 
0 0.0 0.0 0.0 0.0 0.0 0.0 0.0 
0 0.0 5.082903207675309E-15 0.0 0.0 0.0 0.0 0.0 
0 0.0 0.3370734612090144 0.0 0.0 -0.33707346120901605 0.0 0.0 
0 -0.147956985038319 0.8943664798329364 -0.13999304630424295 -0.16593564221043342 -0.12559774321344352 -0.13941746603351357 -0.17546559703298364 
0 -0.1480208422142357 0.8941995611109969 -0.14051363219194216 -0.16575141260295126 -0.12516599356992106 -0.13944479877024749 -0.17530288176169914 
0 -0.1480065066421929 0.8943059369753361 -0.1402173273222047 -0.16586968610767014 -0.12575932439908322 -0.1392673901359077 -0.17518570236827707 
0 0.0 0.0 0.0 0.0 0.0 0.0 0.0 
0 0.0 -8.915577708615466E-15 0.0 0.0 0.0 0.0 0.0 
0 0.0 0.0 0.0 0.0 0.0 0.0 0.0 
0 0.0 10.0 0.0 -6.887122503244036 0.0 -1.890026840791207 -1.222850655964751 
0 -0.1479244091558291 0.8942837496671022 -0.1402250858228928 -0.16589252758224715 -0.12550158645888215 -0.13935776400116195 -0.17538237664608838 
5 0.0 -10.000000000000027 10.0 0.0 0.0 0.0 0.0 
5 -10.00000000000001 0.0 10.0 0.0 0.0 0.0 0.0 
5 0.0 0.0 0.0 0.0 0.0 0.0 0.0 
5 0.0 0.0 7.3501885299397065 -7.350188529939704 0.0 0.0 0.0 
5 0.0 -3.6979409079760246 10.0 0.0 -5.442199345269928 -0.8598597467540954 0.0 
5 0.0 0.0 0.0 0.0 0.0 0.0 0.0 
5 0.0 0.0 0.0 0.0 0.0 0.0 0.0 
5 -8.784033089971285 0.0 10.0 0.0 -1.2159669100287147 0.0 0.0 
5 0.0 0.0 0.0 0.0 0.0 0.0 0.0 
5 0.0 -2.2320113205910297 9.274762747394051 0.0 -0.15993190360581994 -2.863174168684161 -4.019645354513006 
5 0.0 0.0 0.0 0.0 0.0 0.0 0.0 
5 0.0 0.0 0.0 0.0 0.0 0.0 0.0 
5 0.0 0.0 10.0 -9.999999999999995 0.0 0.0 0.0 
5 0.0 -9.999999999999995 10.0 0.0 0.0 0.0 0.0 
5 -10.000000000000002 0.0 10.0 0.0 0.0 0.0 0.0 
5 -2.9464839497153847 0.0 10.0 0.0 -4.754274064558215 -2.299241985726322 0.0 
5 -1.0838758277742186 0.0 10.0 -2.213091523355044 -1.834920258580745 -1.9174153619508656 -2.9506970283390963 
5 0.0 0.0 0.0 0.0 0.0 0.0 0.0 
5 0.0 0.0 0.0 0.0 0.0 0.0 0.0 
5 0.0 0.0 0.0 0.0 0.0 0.0 0.0 
5 0.0 0.0 10.0 -9.999999999999975 0.0 0.0 0.0 
5 0.0 0.0 0.0 0.0 0.0 0.0 0.0 
5 0.0 0.0 0.0 0.0 0.0 0.0 0.0 
5 -9.999999999999995 0.0 10.0 0.0 0.0 0.0 0.0 
5 -10.000000000000002 0.0 10.0 0.0 0.0 0.0 0.0 
5 0.0 0.0 0.0 0.0 0.0 0.0 0.0 
5 0.0 0.0 10.0 0.0 0.0 0.0 -9.999999999999977 
5 0.0 0.0 0.0 0.0 0.0 0.0 0.0 
5 0.0 0.0 10.0 0.0 0.0 -10.000000000000012 0.0 
5 0.0 0.0 0.0 0.0 0.0 0.0 0.0 
5 -3.9095948904652196 -4.178618363740654 10.0 -0.5069672526032105 -1.404819493190915 0.0 0.0 
5 -9.999999999999993 0.0 10.0 0.0 0.0 0.0 0.0 
5 -10.0 0.0 10.0 0.0 0.0 0.0 0.0 
5 0.0 0.0 0.0 0.0 0.0 0.0 0.0 
5 0.0 0.0 0.0 0.0 0.0 0.0 0.0 
5 0.0 0.0 0.0 0.0 0.0 0.0 0.0 
5 0.0 0.0 10.0 0.0 -5.121772289952458 -1.4084328443867926 -3.4697948656607225 
5 0.0 0.0 0.0 0.0 0.0 0.0 0.0 
5 0.0 0.0 0.0 0.0 0.0 0.0 0.0 
5 0.0 0.0 0.0 0.0 0.0 0.0 0.0 
5 0.0 0.0 0.0 0.0 0.0 0.0 0.0 
5 0.0 0.0 10.0 0.0 0.0 0.0 -9.99999999999999 
5 0.0 0.0 3.306410470887704E-15 0.0 0.0 0.0 0.0 
5 0.0 0.0 0.15644236712247583 0.0 0.0 -0.15644236712247359 0.0 
5 0.0 0.0 7.15007665115623 0.0 0.0 -4.517266120853104 -2.6328105303031264 
5 -6.672538910844604 0.0 10.0 0.0 -0.3879828461122482 0.0 -2.939478243043158 
5 -2.26672316940073 -0.4613415863621381 9.267171826243914 -2.2544137150789663 -1.594465278521212 -2.6902280768807385 0.0 
5 0.0 0.0 0.0 0.0 0.0 0.0 0.0 
5 0.0 0.0 0.0 0.0 0.0 0.0 0.0 
5 0.0 0.0 10.0 -10.00000000000001 0.0 0.0 0.0 
5 0.0 0.0 0.35768192771465773 0.0 0.0 -0.35768192771465773 0.0 
5 0.0 0.0 10.0 0.0 -7.484151702423138 0.0 -2.5158482975768837 
5 0.0 0.0 0.0 0.0 0.0 0.0 0.0 
5 0.0 0.0 0.0 0.0 0.0 0.0 0.0 
5 0.0 0.0 0.0 0.0 0.0 0.0 0.0 
5 0.0 0.0 0.0 0.0 0.0 0.0 0.0 
5 0.0 0.0 1.3383415329851748E-15 0.0 0.0 0.0 0.0 
5 -0.18969198127834594 -0.14916699046312848 1.099660877661657 -0.1983002188522794 -0.19217429473683845 -0.19328430296995291 -0.1770430893611104 
5 0.0 -9.999999999999998 10.0 0.0 0.0 0.0 0.0 
5 0.0 -10.000000000000027 10.0 0.0 0.0 0.0 0.0 
5 0.0 -10.000000000000007 10.0 0.0 0.0 0.0 0.0 
5 -1.0432317471347545 0.0 10.0 -3.345642213833654 -1.543505518807922 -3.901799713708628 -0.16582080651508965 
5 0.0 0.0 -1.0421587705617066E-15 0.0 0.0 0.0 0.0 
5 0.0 0.0 0.0 0.0 0.0 0.0 0.0 
5 0.0 0.0 0.0 0.0 0.0 0.0 0.0 
5 0.0 0.0 10.0 0.0 0.0 -0.27025709261986786 -9.729742907380137 
5 0.0 0.0 0.0 0.0 0.0 0.0 0.0 
5 0.0 0.0 0.0 0.0 0.0 0.0 0.0 
5 -10.0 0.0 10.0 0.0 0.0 0.0 0.0 
5 0.0 -10.000000000000002 10.0 0.0 0.0 0.0 0.0 
5 0.0 0.0 0.0 0.0 0.0 0.0 0.0 
5 0.0 0.0 10.0 -0.46073419383486774 0.0 0.0 -9.539265806165131 
5 0.0 -9.999999999999993 10.0 0.0 0.0 0.0 0.0 
5 0.0 0.0 0.0 0.0 0.0 0.0 0.0 
5 0.0 0.0 0.0 0.0 0.0 0.0 0.0 
5 -2.4806675611765514 0.0 3.1441973783928217 0.0 -0.6635298172162659 0.0 0.0 
5 0.0 0.0 0.0 0.0 0.0 0.0 0.0 
5 0.0 0.0 10.0 0.0 -9.999999999999996 0.0 0.0 
5 0.0 0.0 0.0 0.0 0.0 0.0 0.0 
5 -5.186602893146028 0.0 5.186602893146062 0.0 0.0 0.0 0.0 
5 -3.2383284238949224 -0.1130894928422736 5.763800397337882 -0.5357682141946487 -0.5343488627729818 -0.31213018847378343 -1.0301352151592789 
5 0.0 0.0 0.0 0.0 0.0 0.0 0.0 
5 0.0 0.0 0.0 0.0 0.0 0.0 0.0 
5 0.0 0.0 0.0 0.0 0.0 0.0 0.0 
5 0.0 0.0 0.0 0.0 0.0 0.0 0.0 
5 0.0 0.0 0.0 0.0 0.0 0.0 0.0 
5 0.0 0.0 0.0 0.0 0.0 0.0 0.0 
5 0.0 0.0 0.0 0.0 0.0 0.0 0.0 
5 0.0 0.0 0.0 0.0 0.0 0.0 0.0 
5 0.0 0.0 7.641906784160383E-15 0.0 0.0 0.0 0.0 
5 0.0 0.0 0.0 0.0 0.0 0.0 0.0 
5 0.0 0.0 0.19375978229885055 0.0 -0.0066883887019291806 -0.18707139359691952 0.0 
5 0.0 -0.9056499265737876 0.9056499265737866 0.0 0.0 0.0 0.0 
5 0.0 -1.7127317628157535 10.0 -8.287268237184248 0.0 0.0 0.0 
5 0.0 -10.0 10.0 0.0 0.0 0.0 0.0 
5 0.0 -6.369982855801844 7.680117564075646 -0.49802469109495895 0.0 0.0 -0.812110017178825 
5 0.0 0.0 0.0 0.0 0.0 0.0 0.0 
5 0.0 0.0 -1.0574913990925862E-15 0.0 0.0 0.0 0.0 
5 0.0 0.0 0.34841416110493084 0.0 0.0 0.0 -0.3484141611049154 
5 0.0 0.0 0.0 0.0 0.0 0.0 0.0 
5 0.0 0.0 10.0 -10.000000000000004 0.0 0.0 0.0 
5 0.0 0.0 10.0 -9.788501054359461 0.0 -0.2114989456405495 0.0 
5 0.0 0.0 0.0 0.0 0.0 0.0 0.0 
5 0.0 0.0 0.0 0.0 0.0 0.0 0.0 
5 0.0 0.0 0.0 0.0 0.0 0.0 0.0 
5 0.0 0.0 7.171023509529916E-15 0.0 0.0 0.0 0.0 
5 0.0 0.0 10.0 0.0 0.0 -6.69244971546749 -3.3075502845325326 
5 0.0 0.0 0.0 0.0 0.0 0.0 0.0 
5 0.0 0.0 1.8366755683716371 0.0 -1.8366755683716371 0.0 0.0 
5 0.0 0.0 0.0 0.0 0.0 0.0 0.0 
5 -0.1892493145565727 -0.1491683036291803 1.098991319992839 -0.19788300100964654 -0.19237644248397362 -0.19355435993197767 -0.1767598983814883 
5 0.0 0.0 0.0 0.0 0.0 0.0 0.0 
5 0.0 0.0 10.0 -4.077992571691014 -5.922007428308947 0.0 0.0 
5 0.0 0.0 0.0 0.0 0.0 0.0 0.0 
5 0.0 0.0 0.0 0.0 0.0 0.0 0.0 
5 0.0 -9.999999999999995 10.0 0.0 0.0 0.0 0.0 
5 0.0 0.0 8.880218568605905 0.0 0.0 -8.880218568605892 0.0 
5 0.0 -0.4078900875578531 2.7842116257868477 -0.637464860151062 -0.6760379193490068 -0.9294902134340153 -0.1333285452949041 
5 0.0 0.0 0.0 0.0 0.0 0.0 0.0 
5 0.0 -10.000000000000016 10.0 0.0 0.0 0.0 0.0 
5 -0.1896744550420306 -0.1491851815367996 1.0995746468900844 -0.1978817257925974 -0.1923252742187114 -0.19319117017677834 -0.1773168401231671 
5 -0.138967831294425 0.0 0.9106080120409037 -0.2700381534339639 -0.17592139999460757 -0.14729318068946526 -0.17838744662844302 
5 0.0 0.0 0.0 0.0 0.0 0.0 0.0 
5 0.0 -9.999999999999996 10.0 0.0 0.0 0.0 0.0 
5 0.0 -9.999999999999995 10.0 0.0 0.0 0.0 0.0 
5 0.0 0.0 0.0 0.0 0.0 0.0 0.0 
5 0.0 0.0 3.233985384677409E-16 0.0 0.0 0.0 0.0 
5 -3.353394489179703 0.0 3.7395776294613112 0.0 -0.38618314028161227 0.0 0.0 
6 0.0 0.0 0.0 10.0 -10.0 0.0 0.0 
6 -1.82525666784196 -3.4977125881844975 0.0 9.404550773165173 -2.917211095141195 -1.1643704219975295 0.0 
6 0.0 -10.000000000000004 0.0 10.0 0.0 0.0 0.0 
6 0.0 0.0 0.0 0.0 0.0 0.0 0.0 
6 0.0 -4.054694654118765 0.0 10.0 -5.945305345881266 0.0 0.0 
6 -0.2956058556000987 0.0 0.0 10.0 -9.261860254851568 0.0 -0.4425338895483206 
6 0.0 0.0 0.0 10.0 -10.0 0.0 0.0 
6 0.0 0.0 0.0 5.45478933300031 -2.5350500451579663 -2.9197392878423405 0.0 
6 -0.5081193467765461 -0.05100509672367647 -0.9738231421850053 2.5514747714377846 0.0 -0.4529821716077866 -0.5655450141447611 
6 0.0 0.0 0.0 10.0 0.0 0.0 -9.999999999999988 
6 -10.000000000000055 0.0 0.0 10.0 0.0 0.0 0.0 
6 -9.999999999999963 0.0 0.0 10.0 0.0 0.0 0.0 
6 0.0 0.0 0.0 10.0 0.0 0.0 -9.999999999999993 
6 -0.6454650243035681 -0.9226205356823869 -1.60712009183359 5.095195547333694 0.0 -0.6458093729069081 -1.274180522607255 
6 0.0 0.0 0.0 0.0 0.0 0.0 0.0 
6 0.0 0.0 0.0 0.0 0.0 0.0 0.0 
6 0.0 0.0 -0.7099702842609447 0.7099702842609447 0.0 0.0 0.0 
6 0.0 0.0 0.0 0.0 0.0 0.0 0.0 
6 0.0 0.0 -10.000000000000002 10.0 0.0 0.0 0.0 
6 0.0 -10.000000000000007 0.0 10.0 0.0 0.0 0.0 
6 0.0 0.0 -3.7337710336179963 10.0 -3.148079947922499 -3.118149018459506 0.0 
6 0.0 0.0 0.0 10.0 -10.000000000000004 0.0 0.0 
6 -1.6031786008721982 -2.6907227402194525 -1.190447226438539 7.607089967222379 -1.3397506578972556 -0.7829907417949381 0.0 
6 0.0 -0.7824298241499781 0.0 0.7824298241499761 0.0 0.0 0.0 
6 0.0 0.0 0.0 0.0 0.0 0.0 0.0 
6 -10.000000000000014 0.0 0.0 10.0 0.0 0.0 0.0 
6 0.0 0.0 0.0 0.0 0.0 0.0 0.0 
6 0.0 -9.999999999999993 0.0 10.0 0.0 0.0 0.0 
6 0.0 0.0 0.0 10.0 0.0 0.0 -9.999999999999998 
6 0.0 0.0 0.0 10.0 0.0 0.0 -9.999999999999998 
6 0.0 0.0 0.0 2.953194058790092E-15 0.0 0.0 0.0 
6 0.0 0.0 0.0 10.0 -4.989688192275503 0.0 -5.010311807724503 
6 0.0 -9.58318420381594 -0.12251618768247624 10.0 -0.2942996085015962 0.0 0.0 
6 -6.940269180826849 -0.10722802282524292 0.0 8.82791674716028 -1.2767143043279408 -0.10961026617222136 -0.394094973008013 
6 0.0 -8.525567875731463 -1.032821744929419 10.0 -0.3474367313149421 0.0 -0.09417364802418396 
6 0.0 0.0 0.0 6.208492090148052 0.0 -0.5355573221394735 -5.672934768008582 
6 -2.185394273846703 0.0 -5.387108224860633 9.859068831455014 0.0 -1.1925966946296696 -1.0939696381180066 
6 0.0 -0.36964131388621324 0.0 0.36964131388621324 0.0 0.0 0.0 
6 0.0 0.0 0.0 0.0 0.0 0.0 0.0 
6 0.0 0.0 0.0 7.944113667783931E-16 0.0 0.0 0.0 
6 0.0 0.0 0.0 10.0 0.0 0.0 -10.0 
6 0.0 -0.7724459525679455 -0.4502325994647477 10.0 -7.257423262166401 0.0 -1.5198981858009022 
6 0.0 0.0 0.0 0.0 0.0 0.0 0.0 
6 0.0 0.0 0.0 0.9721713069047072 -0.7985278191928854 0.0 -0.17364348771181617 
6 -10.000000000000009 0.0 0.0 10.0 0.0 0.0 0.0 
6 -0.24509641384633873 0.0 0.0 10.0 -7.3118300097819375 -2.443073576371719 0.0 
6 -1.8998530834826317 0.0 -1.6421731632981713 5.820345217642 0.0 -2.2783189708611973 0.0 
6 0.0 0.0 0.0 0.0 0.0 0.0 0.0 
6 0.0 -1.2069115124042982 -4.307076770948207 10.0 0.0 0.0 -4.486011716647498 
6 -4.1721763927207345 -2.079321255184529 0.0 10.0 0.0 0.0 -3.7485023520947474 
6 -3.880779263340128 0.0 0.0 8.616389789822215 0.0 -4.735610526482081 0.0 
6 0.0 0.0 0.0 0.0 0.0 0.0 0.0 
6 0.0 0.0 0.0 0.0 0.0 0.0 0.0 
6 0.0 -10.000000000000005 0.0 10.0 0.0 0.0 0.0 
6 0.0 0.0 0.0 10.0 0.0 -9.999999999999998 0.0 
6 0.0 0.0 0.0 0.0 0.0 0.0 0.0 
6 0.0 0.0 0.0 0.0 0.0 0.0 0.0 
6 0.0 0.0 0.0 0.0 0.0 0.0 0.0 
6 0.0 0.0 0.0 3.2144748950061873E-15 0.0 0.0 0.0 
6 -0.2838633110410749 -0.2563501791034159 -0.28204902425317135 1.7470467902358233 -0.32056510018875395 -0.3286900366879945 -0.27552913896141007 
6 0.0 0.0 -2.4468325458414264 10.0 0.0 0.0 -7.553167454158571 
6 0.0 0.0 0.0 1.166194882445004E-15 0.0 0.0 0.0 
6 0.0 0.0 0.0 0.5612644429959079 0.0 -0.5612644429959072 0.0 
6 0.0 0.0 0.0 0.0 0.0 0.0 0.0 
6 0.0 -5.215566536916532 0.0 10.0 0.0 -4.7844334630834755 0.0 
6 0.0 0.0 -10.0 10.0 0.0 0.0 0.0 
6 0.0 0.0 0.0 10.0 -10.000000000000002 0.0 0.0 
6 -1.864269336054509 -1.749931321514741 0.0 10.0 -1.5230962309847846 -2.4234585701365834 -2.4392445413093817 
6 0.0 0.0 0.0 10.0 0.0 -10.0 0.0 
6 -0.04035916318279409 -0.023564978753193425 -0.030555933007590554 0.20286365445071353 -0.03716158735625718 -0.03305640723266415 -0.03816558491821401 
6 0.0 0.0 -6.219631092881588 10.0 0.0 0.0 -3.7803689071184112 
6 0.0 0.0 0.0 10.0 0.0 -4.024582776354948 -5.9754172236450485 
6 0.0 0.0 0.0 10.0 0.0 0.0 -10.000000000000018 
6 0.0 0.0 0.0 0.7340193901991332 -0.7340193901991363 0.0 0.0 
6 0.0 0.0 0.0 0.0 0.0 0.0 0.0 
6 0.0 0.0 0.0 10.0 0.0 -10.000000000000005 0.0 
6 0.0 0.0 0.0 9.404530861443643 -9.404530861443643 0.0 0.0 
6 -0.7371907038682224 -0.23042537270138583 -0.826268573131273 3.2401159050570616 -0.44101073034775073 0.0 -1.0052205250084252 
6 -9.999999999999996 0.0 0.0 10.0 0.0 0.0 0.0 
4 0.0 0.0 0.0 0.0 0.0 0.0 0.0 
4 0.0 0.0 -1.57290906923341 -0.02095517063342272 3.740756354592375 -2.1468921147255258 0.0 
4 0.0 0.0 0.0 0.0 0.0 0.0 0.0 
4 -10.0 0.0 0.0 0.0 10.0 0.0 0.0 
4 0.0 -10.000000000000007 0.0 0.0 10.0 0.0 0.0 
4 0.0 0.0 0.0 0.0 10.0 0.0 -10.000000000000014 
4 0.0 0.0 0.0 0.0 3.344142794423373 -3.3441427944233793 0.0 
4 0.0 0.0 0.0 0.0 0.0 0.0 0.0 
4 -6.695081894182978 0.0 0.0 0.0 10.0 0.0 -3.3049181058170296 
4 -1.8229269808371806 0.0 0.0 0.0 10.0 -8.17707301916282 0.0 
4 -4.2159516521729605 -0.4302402439141101 0.0 0.0 4.6461918960870685 0.0 0.0 
4 0.0 -7.962668357463957 0.0 0.0 10.0 0.0 -2.0373316425360395 
4 0.0 -9.337395481649333 -0.6626045183506669 0.0 10.0 0.0 0.0 
4 0.0 0.0 0.0 -9.999999999999995 10.0 0.0 0.0 
4 0.0 0.0 0.0 -10.00000000000002 10.0 0.0 0.0 
4 0.0 0.0 0.0 -9.999999999999993 10.0 0.0 0.0 
4 -2.3079327718854956 -0.06551533798507887 -1.8575388184210524 -2.658998274169065 10.0 -1.8743372364570947 -1.2356775610822484 
4 0.0 0.0 0.0 -9.999999999999979 10.0 0.0 0.0 
4 -1.5156130372587564 -1.9554322301619504 -0.3981199979925414 0.0 5.544165077824124 -0.5649102466814149 -1.110089565729464 
4 0.0 -9.999999999999995 0.0 0.0 10.0 0.0 0.0 
4 -0.8949987968436814 0.0 -3.447864148115554 0.0 4.342862944959217 0.0 0.0 
4 0.0 0.0 0.0 0.0 0.0 0.0 0.0 
4 0.0 -10.000000000000005 0.0 0.0 10.0 0.0 0.0 
4 0.0 -10.000000000000002 0.0 0.0 10.0 0.0 0.0 
4 0.0 0.0 0.0 0.0 0.0 0.0 0.0 
4 -0.09175139558728335 -0.5011608663538718 -0.10189290405108418 -2.585796067919108 3.514448058840867 -0.23384682492952147 0.0 
4 0.0 0.0 0.0 0.0 -3.976212817770606E-15 0.0 0.0 
4 0.0 0.0 0.0 0.0 0.0 0.0 0.0 
4 0.0 0.0 0.0 0.0 10.0 0.0 -10.000000000000007 
4 0.0 0.0 0.0 0.0 10.0 -10.0 0.0 
4 0.0 -10.000000000000002 0.0 0.0 10.0 0.0 0.0 
4 -1.9633073758766995 -2.8950206525545967 -2.4483575797569443 -1.1232222589559548 10.0 -0.773981829756027 -0.7961103030997778 
4 0.0 0.0 0.0 0.0 10.0 0.0 -10.000000000000021 
4 -9.999999999999996 0.0 0.0 0.0 10.0 0.0 0.0 
4 0.0 0.0 0.0 -9.027510923052496 10.0 0.0 -0.9724890769475053 
4 0.0 -7.796285508224119 0.0 0.0 10.0 -2.203714491775882 0.0 
4 0.0 -10.000000000000007 0.0 0.0 10.0 0.0 0.0 
4 0.0 0.0 0.0 0.0 0.0 0.0 0.0 
4 0.0 0.0 -9.999999999999998 0.0 10.0 0.0 0.0 
4 0.0 -10.0 0.0 0.0 10.0 0.0 0.0 
4 0.0 0.0 0.0 -10.000000000000002 10.0 0.0 0.0 
4 0.0 0.0 0.0 0.0 0.0 0.0 0.0 
4 0.0 0.0 0.0 0.0 10.0 0.0 -10.000000000000002 
4 -0.20481615718407523 0.0 0.0 -0.3626538691780164 0.5674700263620917 0.0 0.0 
4 0.0 0.0 0.0 0.0 10.0 0.0 -10.000000000000005 
4 0.0 0.0 0.0 -10.000000000000002 10.0 0.0 0.0 
4 0.0 -5.447535915190617 0.0 0.0 10.0 -4.552464084809446 0.0 
4 -0.33515528929872196 0.0 0.0 -0.7267561858195936 1.26804411867258 -0.20613264355426347 0.0 
4 0.0 -9.999999999999998 0.0 0.0 10.0 0.0 0.0 
4 0.0 -10.000000000000002 0.0 0.0 10.0 0.0 0.0 
4 0.0 0.0 0.0 0.0 10.0 0.0 -9.999999999999996 
4 0.0 0.0 0.0 0.0 0.0 0.0 0.0 
4 0.0 0.0 0.0 0.0 0.0 0.0 0.0 
4 0.0 0.0 0.0 0.0 0.0 0.0 0.0 
4 0.0 0.0 0.0 0.0 0.0 0.0 0.0 
4 0.0 0.0 0.0 0.0 0.0 0.0 0.0 
4 0.0 -10.000000000000009 0.0 0.0 10.0 0.0 0.0 
4 0.0 -10.000000000000004 0.0 0.0 10.0 0.0 0.0 
4 0.0 0.0 0.0 0.0 0.0 0.0 0.0 
4 0.0 0.0 -9.999999999999961 0.0 10.0 0.0 0.0 
4 0.0 -7.771695174802474 -0.08194445341794676 0.0 10.0 -2.1463603717795707 0.0 
4 0.0 -1.0157797272896092 0.0 -1.2967111050459408 10.0 -2.5305929594100767 -5.156916208254384 
4 0.0 0.0 0.0 0.0 0.0 0.0 0.0 
4 0.0 0.0 0.0 0.0 10.0 0.0 -10.000000000000005 
4 -9.999999999999995 0.0 0.0 0.0 10.0 0.0 0.0 
4 0.0 -10.00000000000001 0.0 0.0 10.0 0.0 0.0 
4 0.0 -2.7942747789138287 -3.4938701257526743 -0.4881428881952409 9.620439280094313 -2.8441514872325535 0.0 
4 0.0 0.0 0.0 0.0 0.0 0.0 0.0 
4 0.0 0.0 0.0 0.0 -1.7159596904125916E-15 0.0 0.0 
4 0.0 0.0 0.0 0.0 -9.755573149824286E-16 0.0 0.0 
4 0.0 0.0 0.0 0.0 0.0 0.0 0.0 
4 0.0 -10.000000000000002 0.0 0.0 10.0 0.0 0.0 
4 -0.4492723532171817 -0.16843892972297325 -0.7816933676139161 -2.7775678492909135 9.529567776139782 -1.2029039682078722 -4.1496913080869176 
4 0.0 0.0 0.0 0.0 10.0 0.0 -10.000000000000007 
4 0.0 0.0 0.0 0.0 3.770434026342293 0.0 -3.770434026342297 
4 0.0 -1.2162312092413126 0.0 -8.783768790758689 10.0 0.0 0.0 
4 0.0 -6.497903411101713 -1.3329161948512385 0.0 10.0 0.0 -2.169180394047044 
4 0.0 0.0 0.0 0.0 4.900492221725539 -4.900492221725539 0.0 
4 -10.000000000000002 0.0 0.0 0.0 10.0 0.0 0.0 
4 0.0 0.0 0.0 -10.0 10.0 0.0 0.0 
4 0.0 0.0 0.0 -2.4165219930936814 10.0 0.0 -7.583478006906327 
4 0.0 0.0 -0.5597815933916174 0.0 10.0 -6.4869971259900705 -2.9532212806183487 
4 0.0 -9.999999999999998 0.0 0.0 10.0 0.0 0.0 
4 0.0 -10.0 0.0 0.0 10.0 0.0 0.0 
4 0.0 0.0 0.0 0.0 0.12947429809974909 -0.12947429809974909 0.0 
4 0.0 -9.999999999999991 0.0 0.0 10.0 0.0 0.0 
4 0.0 -9.999999999999996 0.0 0.0 10.0 0.0 0.0 
4 0.0 -0.021775742755449717 -0.3518264307831384 0.0 10.0 -9.6263978264614 0.0 
4 0.0 0.0 -5.314259683893554 0.0 10.0 0.0 -4.685740316106442 
4 0.0 0.0 0.0 0.0 0.0 0.0 0.0 
4 0.0 -9.999999999999984 0.0 0.0 10.0 0.0 0.0 
4 -0.9318230911054763 -0.4086495972745296 -0.8016384910348665 -0.8748996831277277 4.798100267028054 -0.8945841757283993 -0.8865052287570507 
4 -0.7789998594005482 0.0 -0.06113742552717381 -8.131505856234373 9.529467241541482 -0.5578241003793846 0.0 
4 -0.708758141408488 -1.2861909219234735 -0.48850957069910406 -0.8248050729576407 4.972228782653848 -0.7909307182592225 -0.8730343574059151 
4 0.0 0.0 0.0 0.0 0.0 0.0 0.0 
3 0.0 0.0 0.0 0.0 0.0 0.0 0.0 
3 0.0 0.0 0.0 0.0 0.0 0.0 0.0 
3 -0.4214092882547933 0.0 -0.41547620571224964 0.0 0.0 1.4077035398731774 -0.5708180459061374 
3 0.0 0.0 0.0 0.0 0.0 0.0 0.0 
3 0.0 0.0 0.0 0.0 0.0 0.0 0.0 
3 -0.583938592951927 -4.6571304411097705 -2.0746271274766093 0.0 -0.2022441925601369 10.0 -2.482059645901574 
3 0.0 0.0 0.0 0.0 0.0 0.0 0.0 
3 0.0 0.0 0.0 0.0 0.0 0.0 0.0 
3 0.0 0.0 0.0 0.0 0.0 0.0 0.0 
3 0.0 0.0 0.0 0.0 0.0 10.0 -10.000000000000034 
3 0.0 0.0 0.0 0.0 -10.000000000000002 10.0 0.0 
3 0.0 -10.000000000000002 0.0 0.0 0.0 10.0 0.0 
3 0.0 0.0 0.0 0.0 0.0 0.0 0.0 
3 -0.394991687325177 -0.2857990036465723 -0.383510249946212 -0.3494011222987941 -0.3038704694648822 2.0945310532856176 -0.37695852060397933 
3 -0.3764925436544689 0.0 -3.3486276995877367 0.0 0.0 5.560557327576924 -1.8354370843347303 
3 0.0 -5.798719264599963 -1.5452242145732318 -1.8812747661976095 0.0 10.0 -0.7747817546291985 
3 0.0 0.0 0.0 0.0 0.0 -2.3702019754169254E-15 0.0 
3 0.0 -10.000000000000002 0.0 0.0 0.0 10.0 0.0 
3 0.0 0.0 0.0 0.0 0.0 0.0 0.0 
3 -2.20590953392661 0.0 -1.1109836637435861 -3.4032816351745936 -1.5472642229418345 10.0 -1.7325609442133834 
3 0.0 0.0 0.0 0.0 0.0 2.753615319820915E-15 0.0 
3 0.0 0.0 0.0 0.0 0.0 0.0 0.0 
3 0.0 -9.999999999999998 0.0 0.0 0.0 10.0 0.0 
3 0.0 0.0 0.0 0.0 0.0 0.0 0.0 
3 0.0 -2.1878169352145163 0.0 -7.41907899992716 0.0 10.0 -0.3931040648583243 
3 0.0 0.0 0.0 0.0 0.0 0.0 0.0 
3 0.0 0.0 0.0 0.0 0.0 0.0 0.0 
3 0.0 -9.999999999999995 0.0 0.0 0.0 10.0 0.0 
3 -1.5335985353225556 0.0 0.0 -2.127852085640472 0.0 3.661450620963029 0.0 
3 0.0 0.0 0.0 0.0 0.0 2.9959394607503614E-15 0.0 
3 0.0 0.0 0.0 0.0 0.0 0.0 0.0 
3 0.0 0.0 0.0 -0.7478787701990202 0.0 0.7478787701990202 0.0 
3 0.0 0.0 0.0 0.0 0.0 0.0 0.0 
3 0.0 -10.000000000000005 0.0 0.0 0.0 10.0 0.0 
3 0.0 -2.550923296880584 -1.2697510662409794 0.0 -5.1501893744834595 8.970863737605026 0.0 
3 0.0 -0.9569231105208954 0.0 -6.250507777862751 -1.679875528913154 8.887306417296802 0.0 
3 -0.6665165754755642 -4.592259476421559 -0.9489121459240348 0.0 0.0 6.778991163557132 -0.5713029657359656 
3 0.0 0.0 0.0 0.0 0.0 0.0 0.0 
3 0.0 -10.000000000000007 0.0 0.0 0.0 10.0 0.0 
3 0.0 0.0 0.0 0.0 0.0 0.0 0.0 
3 0.0 0.0 0.0 0.0 0.0 0.0 0.0 
3 0.0 -9.999999999999998 0.0 0.0 0.0 10.0 0.0 
3 0.0 0.0 0.0 0.0 0.0 0.0 0.0 
3 0.0 0.0 0.0 0.0 0.0 0.0 0.0 
3 0.0 0.0 0.0 0.0 0.0 -2.5445069575110726E-15 0.0 
3 -9.999999999999998 0.0 0.0 0.0 0.0 10.0 0.0 
3 0.0 0.0 0.0 0.0 0.0 -4.283133136545896E-15 0.0 
3 0.0 0.0 0.0 0.0 0.0 3.5932639605014714E-15 0.0 
3 0.0 0.0 0.0 0.0 -9.999999999999995 10.0 0.0 
3 -3.2557494755918097 -2.6034023357535405 -4.140848188654644 0.0 0.0 10.0 0.0 
3 -0.4209778665414778 -0.302346217639954 -0.4148459905144021 -0.3592124999896109 -0.38278695801850615 2.2920847496754284 -0.4119152169714745 
3 0.0 0.0 0.0 0.0 -10.0 10.0 0.0 
3 0.0 0.0 0.0 0.0 -9.999999999999996 10.0 0.0 
3 0.0 0.0 0.0 0.0 0.0 0.0 0.0 
3 0.0 0.0 0.0 0.0 0.0 0.0 0.0 
3 0.0 0.0 0.0 0.0 0.0 0.0 0.0 
3 -0.4090418728414969 -0.21377683204340264 -0.40185973525600027 -0.39415982687181583 -0.4096325012031537 2.247864887169903 -0.41939411895404377 
3 0.0 -0.030686087118345407 0.0 -3.466031354175622 0.0 10.0 -6.503282558706028 
3 0.0 -9.999999999999995 0.0 0.0 0.0 10.0 0.0 
3 0.0 -3.908078092203445 0.0 0.0 0.0 3.908078092203445 0.0 
3 0.0 0.0 0.0 0.0 0.0 0.0 0.0 
3 0.0 0.0 0.0 0.0 -9.999999999999998 10.0 0.0 
3 0.0 0.0 0.0 0.0 0.0 0.0 0.0 
3 0.0 0.0 0.0 0.0 0.0 0.0 0.0 
3 -0.6188575333946251 -7.195446534693072 -0.7602202061797935 -0.12267590120995456 -0.5826176378902191 10.0 -0.7201821866323357 
3 0.0 0.0 0.0 0.0 0.0 0.0 0.0 
3 0.0 -4.356247978088554 0.0 0.0 0.0 4.356247978088554 0.0 
3 0.0 -9.999999999999991 0.0 0.0 0.0 10.0 0.0 
3 -0.5322628956266379 -0.548486603486745 -0.5510661427192554 -0.4167307497900164 -0.4904593296303918 3.0671099416147123 -0.5281042203616593 
3 0.0 0.0 0.0 0.0 0.0 0.0 0.0 
3 -1.3377396997221287 -3.9839287585349616 -1.1030382174410625 -1.640996512054622 -0.8158393104169794 9.215487998093813 -0.3339454999240658 
3 -0.21043901669408369 -0.15409282954896436 -0.2060608946251928 -0.18604712067195767 -0.19488974747498264 1.1617169030902201 -0.21018729407503706 
3 0.0 0.0 0.0 0.0 -9.999999999999991 10.0 0.0 
3 0.0 0.0 -7.255701887259658 0.0 0.0 9.874936812731844 -2.6192349254722207 
3 0.0 0.0 0.0 0.0 0.0 6.941129717439142E-16 0.0 
3 0.0 0.0 0.0 0.0 0.0 0.0 0.0 
3 0.0 0.0 0.0 0.0 -9.999999999999998 10.0 0.0 
3 0.0 -2.4359968670070007 0.0 -3.5579342187367744 -4.006068914256231 10.0 0.0 
3 0.0 0.0 0.0 -8.337844548574868 -1.6621554514251184 10.0 0.0 
3 0.0 -1.4317777851404077 0.0 0.0 0.0 1.4317777851404072 0.0 
3 -1.1894008829157732 -3.8271993973847303 -0.8584142355415605 -1.7022534717217979 -1.1792835263869381 9.790150953622852 -1.0335994396720534 
3 -0.21715827140833296 0.0 0.0 -1.1458657671776653 -0.784607740594117 2.578058291070661 -0.4304265118905471 
3 -0.3172015688574174 -0.2452871477905149 -0.31607625806144013 -0.2827947044638261 -0.29668240748716385 1.776272676649294 -0.31823058998893083 
3 0.0 0.0 0.0 0.0 0.0 0.0 0.0 
3 0.0 0.0 0.0 0.0 0.0 -3.1399640856851646E-15 0.0 
3 -7.606936542399128 0.0 0.0 0.0 0.0 7.606936542399123 0.0 
3 -0.5563329565007533 -0.4540249579341788 -0.5694094846830903 -0.49239670414924885 -0.5213440629822111 3.1445409454878464 -0.5510327792383625 
3 -0.4308000433010015 -0.34338937566550143 -0.4352880788947781 -0.3839258742559802 -0.4043242120850887 2.428374108931548 -0.43064652472920145 
3 0.0 -0.030294322109343498 0.0 0.0 0.0 0.030294322109342603 0.0 
3 0.0 -9.999999999999991 0.0 0.0 0.0 10.0 0.0 
3 0.0 0.0 0.0 0.0 0.0 0.0 0.0 
3 -6.312208695310793 0.0 0.0 -3.6877913046892057 0.0 10.0 0.0 
3 -0.19100301365944666 -0.09842533950490348 -0.17455134898857524 -0.16738272525713452 -0.1739003133831441 0.9987092283281069 -0.19344648753490337 
3 0.0 0.0 0.0 0.0 0.0 -8.670582774114832E-16 0.0 
3 0.0 0.0 0.0 0.0 0.0 0.0 0.0 
3 0.0 0.0 0.0 0.0 0.0 0.0 0.0 
3 -0.6761199796330583 0.0 -0.5816383483443456 0.0 0.0 2.218944161952936 -0.961185833975532 
3 0.0 0.0 0.0 0.0 0.0 0.0 0.0 
3 0.0 0.0 0.0 0.0 -10.000000000000002 10.0 0.0 
3 -0.3233884082572149 -0.10950768810181075 -0.31447955140306466 -0.2853185356920539 -0.29502581462732513 1.650014195910951 -0.3222941978294823 
3 0.0 0.0 0.0 0.0 0.0 0.0 0.0 
3 0.0 -1.3511410877394407 -1.2585651365801396 0.0 0.0 4.605563958908229 -1.9958577345886592 
3 -1.5171388009255846 -2.2350405905626176 -1.209873359417349 -0.6455061655847805 -0.17228427109464903 6.53977457358939 -0.759931386004406 
3 0.0 0.0 0.0 0.0 0.0 0.0 0.0 
3 -0.8364826225801318 -0.3628694571831312 -0.8918990160045305 -0.2056885244938725 -0.4531723268696586 3.093540489424307 -0.3434285422929823 
3 0.0 0.0 0.0 0.0 0.0 0.0 0.0 
3 0.0 -9.99999999999999 0.0 0.0 0.0 10.0 0.0 
3 -0.7045766127229927 -0.5376948813767544 -0.6917935165843119 -0.5902628713136824 -0.656665111125234 3.8412617930928783 -0.6602687999699036 
3 0.0 0.0 0.0 0.0 0.0 1.0373433968335954 -1.0373433968335921 
3 -1.9345236980627272 0.0 0.0 -4.692672131777279 -3.3728041701599865 10.0 0.0 
3 -0.33575360226061657 -1.8829923921966847 -0.16521731848723534 -0.621143005370256 -1.0123438327083314 4.822735577572947 -0.8052854265498249 
3 0.0 0.0 0.0 0.0 0.0 0.0 0.0 
3 -10.000000000000002 0.0 0.0 0.0 0.0 10.0 0.0 
3 -10.0 0.0 0.0 0.0 0.0 10.0 0.0 
3 0.0 0.0 0.0 0.0 -2.482037715884657 10.0 -7.517962284115347 
3 0.0 0.0 0.0 0.0 0.0 0.0 0.0 
3 0.0 0.0 0.0 0.0 0.0 0.0 0.0 
3 -0.08656817368971567 0.0 0.0 0.0 0.0 0.08656817368971567 0.0 
3 -0.47069207549756104 -0.3192474065861802 -0.293765134683497 0.0 0.0 1.3455416322853884 -0.2618370155181525 
3 -1.6352163599370795E-6 -9.999993279794062 0.0 -3.204657039324207E-6 -8.178171068374452E-7 10.0 -1.0625154302863453E-6 
3 0.0 0.0 0.0 0.0 0.0 0.0 0.0 
3 0.0 0.0 0.0 0.0 0.0 0.0 0.0 
3 -0.5758741171414734 0.0 0.0 -2.6323826875648315 0.0 3.208256804706309 0.0 
3 0.0 0.0 -10.000000000000004 0.0 0.0 10.0 0.0 
3 0.0 0.0 0.0 0.0 0.0 5.146284035114244E-15 0.0 
3 -1.0324438770328785 -1.0511540932804553 -1.051953206203397 -1.560633932760747 -1.2177077799128357 6.801208114520215 -0.8873152253299064 
3 0.0 -9.999999999999998 0.0 0.0 0.0 10.0 0.0 
3 0.0 -0.0022051745140487912 0.0 -5.122056741246222E-4 -3.791668785421243E-4 0.0030965470667153393 0.0 
3 0.0 0.0 0.0 0.0 -10.000000000000005 10.0 0.0 
3 0.0 0.0 0.0 0.0 0.0 1.1858118099660775E-15 0.0 
1 0.0 0.0 0.0 0.0 0.0 0.0 0.0 
1 0.0 0.0 0.0 0.0 -9.999999999999979 0.0 10.0 
1 0.0 0.0 0.0 0.0 -10.0 0.0 10.0 
1 -1.717490388606083 -1.4586908586583753 -1.428843828843155 -1.3016039897600327 -1.346836337468914 -1.5655103289028693 8.81897573223944 
1 0.0 0.0 0.0 0.0 0.0 0.0 0.0 
1 0.0 0.0 0.0 0.0 0.0 0.0 0.0 
1 0.0 -3.8283373025211045 0.0 0.0 -6.1716626974789195 0.0 10.0 
1 0.0 0.0 0.0 0.0 0.0 0.0 0.0 
1 0.0 0.0 0.0 0.0 0.0 -4.71350919880657 4.71350919880657 
1 0.0 0.0 0.0 0.0 -10.0 0.0 10.0 
1 0.0 0.0 0.0 0.0 0.0 0.0 0.0 
1 0.0 0.0 0.0 0.0 0.0 0.0 0.0 
1 0.0 0.0 0.0 0.0 0.0 0.0 0.0 
1 0.0 0.0 0.0 0.0 0.0 0.0 -9.51700070497034E-16 
1 0.0 0.0 0.0 0.0 -10.000000000000002 0.0 10.0 
1 0.0 0.0 0.0 -9.999999999999998 0.0 0.0 10.0 
1 0.0 0.0 0.0 0.0 0.0 -0.1607827858689763 0.1607827858689763 
1 -0.3793443441860658 -0.25630912845099496 -0.2871698772375068 -0.28964845992242483 -0.259907309259634 -0.3303940019942916 1.8027731210509192 
1 0.0 0.0 0.0 -3.5864921506396388 -6.413507849360355 0.0 10.0 
1 0.0 0.0 0.0 0.0 0.0 0.0 0.0 
1 -0.7111959717520899 0.0 -4.391102431999715 0.0 0.0 -1.1003012031333415 6.202599606885153 
1 0.0 0.0 0.0 0.0 0.0 0.0 3.0048419508778596E-15 
1 0.0 -10.000000000000002 0.0 0.0 0.0 0.0 10.0 
1 0.0 0.0 0.0 0.0 0.0 0.0 0.0 
1 0.0 0.0 0.0 0.0 -10.0 0.0 10.0 
1 0.0 0.0 0.0 0.0 0.0 0.0 0.0 
1 0.0 -10.000000000000009 0.0 0.0 0.0 0.0 10.0 
1 -5.065422049687317 0.0 0.0 -4.934577950312693 0.0 0.0 10.0 
1 0.0 0.0 0.0 0.0 -10.0 0.0 10.0 
1 0.0 0.0 0.0 0.0 -9.999999999999996 0.0 10.0 
1 0.0 -10.000000000000007 0.0 0.0 0.0 0.0 10.0 
1 0.0 0.0 0.0 -10.0 0.0 0.0 10.0 
1 0.0 0.0 0.0 0.0 0.0 0.0 0.0 
1 0.0 0.0 0.0 0.0 0.0 0.0 0.0 
1 -3.6566064144026384 -1.9392690710091998 -0.7902610130327179 -2.869000040391565 0.0 -0.7448634611638947 10.0 
1 0.0 0.0 0.0 0.0 0.0 0.0 3.5294766467030424E-15 
1 -5.35200931279333 -0.31036435171704757 -3.751756209032218 0.0 0.0 -0.5858701264573952 10.0 
1 0.0 0.0 0.0 0.0 0.0 0.0 0.0 
1 0.0 0.0 0.0 0.0 0.0 0.0 7.13414966736825E-15 
1 -1.0627084565159837 -0.5159317504685721 -0.8594821695748948 -0.857802926923889 -0.8004127108087392 -0.9567888827333507 5.053126897025431 
1 0.0 -7.918856427521332 0.0 0.0 -2.081143572478659 0.0 10.0 
1 0.0 0.0 0.0 0.0 -6.482667240881688 -3.517332759118312 10.0 
1 -1.4794841030338248 -2.1952080897647486 -1.3337887693026127 -1.3585570413891055 -1.3101313750635764 -1.2738702968609714 8.95103967541484 
1 -0.2494633656684609 -0.15960020811778802 -0.18375711219852775 -0.19181885285628678 -0.1690830463621378 -0.2137005383692865 1.1674231235724875 
1 0.0 0.0 0.0 -9.999999999999996 0.0 0.0 10.0 
1 0.0 -0.040067010962458696 0.0 0.0 -2.885948122449954 -7.073984866587525 10.0 
1 0.0 0.0 0.0 0.0 0.0 0.0 0.0 
1 0.0 0.0 0.0 0.0 -9.999999999999998 0.0 10.0 
1 0.0 0.0 0.0 0.0 0.0 0.0 0.0 
1 0.0 0.0 0.0 -10.0 0.0 0.0 10.0 
1 0.0 0.0 0.0 0.0 0.0 0.0 0.0 
1 0.0 0.0 0.0 -10.000000000000016 0.0 0.0 10.0 
1 0.0 0.0 0.0 0.0 0.0 0.0 0.0 
1 0.0 0.0 0.0 0.0 -9.999999999999998 0.0 10.0 
1 0.0 0.0 0.0 0.0 0.0 0.0 0.0 
1 0.0 0.0 0.0 -9.999999999999993 0.0 0.0 10.0 
1 0.0 0.0 -10.0 0.0 0.0 0.0 10.0 
1 0.0 0.0 -3.969205107730003 -6.030794892269996 0.0 0.0 10.0 
1 -0.24947736867714165 -0.15947980981820478 -0.18373044405567077 -0.1918579031845666 -0.16917358769918453 -0.21371648569459148 1.1674355991293592 
1 0.0 0.0 0.0 0.0 0.0 0.0 0.0 
1 0.0 0.0 0.0 0.0 0.0 0.0 0.0 
1 0.0 -0.11766543133918245 0.0 0.0 0.0 0.0 0.11766543133918085 
