0 10.0 0.0 0.0 0.0 -10.0 0.0 0.0 
0 10.0 -2.768581976524741 -4.683770205652709 0.0 -1.9044153298359932 0.0 -0.6432324879865576 
0 10.0 0.0 0.0 0.0 0.0 0.0 -10.000000000000002 
0 0.0 0.0 0.0 0.0 0.0 0.0 0.0 
0 10.0 0.0 0.0 0.0 -7.506525667412163 -2.4934743325878417 0.0 
0 10.0 -2.7404167038782505 0.0 0.0 -0.6978586631780193 -0.6759964969672612 -5.8857281359764615 
0 2.000356744231092E-15 0.0 0.0 0.0 0.0 0.0 0.0 
0 10.0 -1.327165974064876 -2.694833354717618 0.0 -1.8826432685754275 -1.4136842708444122 -2.6816731317977074 
0 0.0 0.0 0.0 0.0 0.0 0.0 0.0 
0 0.0 0.0 0.0 0.0 0.0 0.0 0.0 
0 -6.934689637950448E-15 0.0 0.0 0.0 0.0 0.0 0.0 
0 10.0 0.0 -9.999999999999995 0.0 0.0 0.0 0.0 
0 10.0 0.0 0.0 -9.999999999999986 0.0 0.0 0.0 
0 10.0 0.0 0.0 -9.999999999999995 0.0 0.0 0.0 
0 10.0 0.0 0.0 0.0 0.0 -10.000000000000007 0.0 
0 1.3988129193265721 -0.24576511944862942 -0.2225102222796398 -0.23072109155825932 -0.22863097958796771 -0.24564463471366146 -0.2255408717384166 
0 1.5704781771610745 -0.13244437979760154 -0.12348336672088547 -0.31146939459669226 -0.17349948302406096 -0.4818123130943803 -0.347769239927451 
0 10.0 0.0 -10.00000000000002 0.0 0.0 0.0 0.0 
0 10.0 0.0 0.0 0.0 0.0 -10.000000000000007 0.0 
0 0.7837695836477996 -0.7837695836478034 0.0 0.0 0.0 0.0 0.0 
0 10.0 -1.6858811664077864 -1.0355604221012666 -3.9742218901141357 -1.203788770917306 -1.420687319145572 -0.6798604313139619 
0 10.0 -2.4657205610346864 0.0 0.0 -1.9944238663014635 0.0 -5.539855572663859 
0 9.396392572785041 -1.508570291388998 -1.4795487469667807 -0.7645579558813874 -1.343472850029743 -1.6036989313492294 -2.696543797168888 
0 3.384057739341602 -1.4267568610876966 0.0 0.0 -0.7569073525085865 -0.40831424362694735 -0.792079282118367 
0 10.0 0.0 -2.471983289596715 -1.215973795613727 0.0 -4.065890335701939 -2.246152579087636 
0 0.0 0.0 0.0 0.0 0.0 0.0 0.0 
0 10.0 0.0 0.0 -10.000000000000004 0.0 0.0 0.0 
0 10.0 -2.962701169539144 -5.09094862638296 -0.6156464347501782 -0.5581275250556785 0.0 -0.7725762442720672 
0 10.0 -3.033141969380235 -1.9904058207742432 0.0 -3.15394919814888 0.0 -1.822503011696686 
0 10.0 0.0 -10.000000000000009 0.0 0.0 0.0 0.0 
0 10.0 -4.010132686992086 0.0 0.0 -2.4374824005517017 -2.526809105625274 -1.0255758068309495 
0 -1.3862423292127983E-14 0.0 0.0 0.0 0.0 0.0 0.0 
0 10.0 0.0 -9.999999999999998 0.0 0.0 0.0 0.0 
0 8.574805653979988 0.0 0.0 0.0 -3.4647375570462215 -5.110068096933767 0.0 
0 10.0 0.0 0.0 -10.000000000000004 0.0 0.0 0.0 
0 0.0 0.0 0.0 0.0 0.0 0.0 0.0 
0 5.945633180506794 0.0 0.0 0.0 0.0 0.0 -5.945633180506798 
0 8.794691634788533 -1.1644049263597667 -1.8622189182842013 -3.28516996641378 0.0 -2.4828978237307906 0.0 
0 -1.888008829859913E-15 0.0 0.0 0.0 0.0 0.0 0.0 
0 9.160558226824874 -1.5445829273165876 -1.0829478198232574 -2.29167956020869 -1.4887377604258722 -1.6395229546883225 -1.1130872043621596 
0 3.708527125299359 0.0 -0.5841228703779369 -2.3286050714083855 -0.18267918975154424 -0.2508268606464263 -0.3622931331150646 
0 3.8005007940609707 0.0 0.0 -1.0273060902580948 -1.1875581446254075 -0.441176430386244 -1.1444601287912282 
0 10.0 -0.006578601875127003 -9.993421398124896 0.0 0.0 0.0 0.0 
0 10.0 -2.4722568222772248 0.0 -3.9093591663591765 -0.8428221953842687 -2.7755618159793376 0.0 
0 6.752429995117987 -1.1043494252699646 -1.3502354442023614 -0.39946614672953573 -1.2853252716993129 -1.381706315839197 -1.2313473913776185 
0 10.0 -1.9368919108031293 -1.0734256179730117 -0.9139713333589142 -2.079833731206411 -1.875035019838427 -2.120842386820106 
0 8.8395491772797 -1.5593923217584214 -1.8585929436214779 -1.8817909284273346 -1.28116212661554 -0.16219915019079598 -2.0964117066661263 
0 8.31987550643923 -1.2276662972779175 0.0 -0.04433787654909729 -1.596683046236265 -3.2173136410336145 -2.2338746453423326 
0 1.9314704136505159 -0.5855052055074692 -0.23377152797323314 -0.009973908900931304 -0.685208704792853 -0.08596888443340803 -0.3310421820426198 
0 2.756124231506068 -0.09079832371682009 -0.696363003050393 -0.7097521363819862 -0.31036705817045235 -0.3655403905444822 -0.5833033196419303 
0 0.0 0.0 0.0 0.0 0.0 0.0 0.0 
0 10.0 0.0 0.0 0.0 -9.999999999999991 0.0 0.0 
0 10.0 0.0 0.0 -10.000000000000004 0.0 0.0 0.0 
0 1.189339701978589 -0.25063379501840954 -0.13020522914566024 -0.2949025521180514 -0.17781101608000766 -0.33578710961645863 0.0 
0 10.0 0.0 0.0 -0.3869498339200948 -9.613050166079908 0.0 0.0 
0 6.57613541658183E-16 0.0 0.0 0.0 0.0 0.0 0.0 
0 10.0 0.0 0.0 0.0 -10.0 0.0 0.0 
0 2.7094284450525508 -0.565817991947007 0.0 -2.143610453105529 0.0 0.0 0.0 
0 10.0 0.0 -4.473403528583248 0.0 -5.526596471416834 0.0 0.0 
0 3.1174023732774505 0.0 -0.9705295940058764 -1.0564873696169634 -0.21016298573257253 -0.2517252904160305 -0.6284971335059988 
0 3.016486919638847 -0.5241632376771291 -0.4838227525004977 -0.5013102069823318 -0.4890025118231637 -0.5233608432057626 -0.4948273674499558 
0 10.0 -4.9594473923733045 0.0 0.0 -3.428694137424194 0.0 -1.6118584702024876 
0 4.0615041556224645 -2.2476637115645106 -0.44775771055524205 -0.3839891565947931 -0.4704255084626248 -0.17835979735499816 -0.3333082710903105 
0 10.0 0.0 0.0 -3.1062439380233933 0.0 -6.893756061976608 0.0 
0 10.0 -1.7351899114767 0.0 -3.317632168549355 -1.983081154340544 -2.767253415924271 -0.19684334970910267 
0 1.1133109253288143 -0.19831912503510427 -0.17679381877896339 -0.18383932224463836 -0.17223282492559014 -0.2016750510763647 -0.1804507832681526 
0 5.956830622364707 -0.8714302394426324 -0.8669725525872392 -0.9051591313302728 -0.8558648904647401 -1.0071243961181402 -1.4502794124216831 
0 0.0 0.0 0.0 0.0 0.0 0.0 0.0 
0 2.4727982755848616 -0.432062879257654 -0.39743222902436287 -0.4144910874473107 -0.3780637571991822 -0.43750347718463434 -0.4132448454717107 
0 10.0 0.0 0.0 -9.104990375138728 0.0 -0.8950096248612698 0.0 
0 10.0 -1.1009529102929798 0.0 0.0 -2.4888796537376723 0.0 -6.410167435969374 
0 10.0 -1.4018552910566267 0.0 0.0 -8.261775600015744 0.0 -0.3363691089276339 
0 1.816339353332593 -0.47144434857195167 -0.4255831493189162 -0.2490131687795834 -0.34917075262190306 -0.12037637447918571 -0.20075155956104893 
0 1.1132972612930323 -0.1981998999964736 -0.17631269680127626 -0.18398040233730698 -0.17221426234883574 -0.2012581335895041 -0.18133186621963593 
0 10.0 -2.637339107911497 -1.6539854872555328 0.0 0.0 -2.749539123157338 -2.959136281675624 
0 10.0 0.0 0.0 -9.576801256443934 0.0 -0.4231987435560553 0.0 
0 7.948491721197305 -1.4090559117803494 -1.2125577572204098 -1.3152257462342525 -1.3144923719184187 -1.3567284364013108 -1.340431497642566 
0 8.035396264547433 -5.089342571957629 0.0 0.0 -2.9460536925898335 0.0 0.0 
0 10.0 -4.355470894625587 -4.352326402579436 0.0 0.0 0.0 -1.2922027027949805 
0 7.802070380180263 0.0 -1.595891241834906 -1.4900496311419642 -1.5122711211511393 0.0 -3.203858386052246 
0 1.8559557235005552E-4 0.0 0.0 0.0 0.0 0.0 -1.8559557235085043E-4 
0 0.9390749559844506 -0.17228790281249268 -0.14570547606753523 -0.1505912466350698 -0.14682906820090763 -0.17807590785062394 -0.1455853544178229 
0 10.0 0.0 0.0 -9.999999999999993 0.0 0.0 0.0 
0 1.7217184392114333 -0.24948645946426554 -0.6992334977237725 0.0 -0.3177025128921945 0.0 -0.45529596913120224 
0 2.5966489544391598 -0.20397305576713468 0.0 -0.24928807112767995 0.0 -1.1681070761742456 -0.9752807513701024 
0 4.035196187877459 -0.7322950398579913 -0.6518462285258567 -0.5737151823763187 -0.6906541869612017 -0.728636017947481 -0.6580495322086112 
0 0.004375733474648514 0.0 0.0 0.0 0.0 0.0 -0.004375733474649702 
0 0.44251828986894265 0.0 0.0 -0.20365089697509658 0.0 -0.14599339278695195 -0.09287400010689828 
0 1.113632803782875 -0.19833222533771713 -0.17604504424436254 -0.18374962221446506 -0.17231467948420628 -0.2016287136527066 -0.18156251884941738 
0 2.7825799843766896 -0.6619450460938063 -0.4245423992673423 -0.2750913780945248 -0.7278362282756208 -0.6931649326453878 0.0 
0 10.0 -0.31711587077928405 -9.06451085443731 0.0 0.0 -0.6183732747834226 0.0 
6 0.0 10.0 0.0 0.0 -10.000000000000004 0.0 0.0 
6 -0.44707997330108223 6.003340479402379 -1.8583502524160236 -0.7672728385705591 -2.3819722025951373 -0.5486652125195777 0.0 
6 0.0 10.0 0.0 0.0 0.0 -10.000000000000018 0.0 
6 0.0 10.0 0.0 0.0 0.0 -9.999999999999977 0.0 
6 0.0 0.0 0.0 0.0 0.0 0.0 0.0 
6 -1.3412302654924213 10.0 0.0 -1.6376263582309174 0.0 0.0 -7.02114337627667 
6 -0.7154783024115072 10.0 0.0 0.0 -9.284521697588495 0.0 0.0 
6 0.0 -5.961726913005663E-16 0.0 0.0 0.0 0.0 0.0 
6 0.0 10.0 0.0 -9.999999999999973 0.0 0.0 0.0 
6 0.0 10.0 0.0 0.0 -0.5429066451348846 -9.457093354865131 0.0 
6 -1.0313750588276918 1.5572330397799252 -0.11169481677333576 -0.32899288631754037 0.0 -0.08517027786134847 0.0 
6 0.0 8.34359920004241 -1.2818282929023972 -4.353165412603842 0.0 -0.7070118773091287 -2.0015936172270425 
6 -3.7422551898156913 10.0 -1.598282138801688 -0.05469682819449648 -1.973080054609034 -0.051214018577305224 -2.5804717700017843 
6 -5.096865642943319 10.0 0.0 0.0 -4.903134357056677 0.0 0.0 
6 0.0 6.691002444092181 -2.9951582884801127 -1.6688536456506493 -2.0269905099614256 0.0 0.0 
6 -0.09719422107222178 1.4281758702506744 -0.2718003641766277 -0.25592929239248247 -0.30241688238818193 -0.12388621065945248 -0.3769488995617076 
6 -1.3922709927192927 10.0 0.0 0.0 0.0 -8.607729007280712 0.0 
6 -4.511525588020719 10.0 -5.488474411979277 0.0 0.0 0.0 0.0 
6 0.0 0.0 0.0 0.0 0.0 0.0 0.0 
6 -2.8503316622083053 10.0 0.0 -4.903513943179675 0.0 -2.2461543946120575 0.0 
6 -1.025116777839748 10.0 -0.3694171681930158 0.0 -0.033659794860793 0.0 -8.571806259106443 
6 0.0 10.0 -9.999999999999995 0.0 0.0 0.0 0.0 
6 -0.15634864993061157 10.0 0.0 -0.42947443702018123 0.0 -9.414176913049214 0.0 
3 0.0 0.0 0.0 0.0 0.0 0.0 0.0 
3 0.0 0.0 1.9776838589892533E-15 0.0 0.0 0.0 0.0 
3 -5.714522128379407 0.0 10.0 -3.188349359684235 -0.9148608259275972 -0.16028721694947842 -0.021980469059278255 
3 0.0 -0.1843573011820342 1.1350958814612158 -0.28322149911333766 -0.13589197080721804 -0.28386765847052214 -0.24775745188810477 
3 0.0 0.0 10.0 0.0 -10.000000000000004 0.0 0.0 
3 -0.2965424678559154 -0.43161559904764163 2.4804966887809816 -0.4982666836575965 -0.4234741747744239 -0.37897706135693127 -0.4516207020884749 
3 -5.218269620933846 -1.3712430667907944 10.0 -0.09595206513453286 -2.357662118695076 -0.04037742821000457 -0.9164957002357363 
3 -9.999999999999995 0.0 10.0 0.0 0.0 0.0 0.0 
3 0.0 0.0 0.0 0.0 0.0 0.0 0.0 
3 0.0 0.0 0.0 0.0 0.0 0.0 0.0 
3 0.0 0.0 0.0 0.0 0.0 0.0 0.0 
3 0.0 -0.9198957362630198 2.5836673955510903 -0.37697279207504747 0.0 -1.2867988672130262 0.0 
3 -0.6118913482136494 -9.048122663783168 10.0 0.0 -0.17005590685803534 0.0 -0.16993008114514963 
3 -4.96449214918653 -4.4616693703204415 10.0 0.0 -0.5738384804930278 0.0 0.0 
3 0.0 0.0 0.0 0.0 0.0 0.0 0.0 
3 0.0 -1.1033865493103907 6.34828311764242 -1.7936590763768667 -1.2308783370345182 -0.2310743245119652 -1.9892848304086561 
3 -9.999999999999993 0.0 10.0 0.0 0.0 0.0 0.0 
3 -1.6050208228102176 -1.423658329375102 10.0 -1.8496912032135053 -2.444042658221123 -0.9720949366688215 -1.7054920497112511 
3 -2.51073764925488 0.0 4.4302998058313925 0.0 0.0 -1.9195621565765024 0.0 
3 -1.8395152541220239 -1.4125324043732481 10.0 -2.2064302893461236 -1.959883832199856 -1.7734072174247038 -0.8082310025340594 
3 -0.18113160195648814 0.0 0.18113160195648856 0.0 0.0 0.0 0.0 
3 -2.806215939111345 0.0 10.0 0.0 -7.193784060888649 0.0 0.0 
3 -2.46284306473395 -3.6445933636256256 10.0 0.0 0.0 -3.474300033174104 -0.4182635384663308 
3 -0.2711314176816861 -3.165945726075012 10.0 -0.31226623248405333 -0.03308791034669194 -3.166331491198599 -3.0512372222139224 
3 -0.007452610051698377 -0.4937106985788061 2.4006863379038146 -0.4708706065725985 -0.4876724684094994 -0.4670523159321562 -0.47392763835905627 
3 0.0 0.0 0.0 0.0 0.0 0.0 0.0 
3 0.0 -0.7107970262064295 5.640905949196713 -1.9252145903686055 0.0 -1.7286854648151977 -1.2762088678064853 
3 -0.9094322515152279 -0.880361182328921 6.023101404609406 -1.2319542043060885 -0.8455450859059416 -1.1552497273051365 -1.0005589532481 
3 0.0 -1.7708388877685899 5.776433297214458 -2.1926678781980287 -0.3668483261227033 -1.0689594433722758 -0.3771187617528576 
3 -3.0431152112834794 -1.8844440959290352 10.0 0.0 -1.94529967075461 -3.1271410220328657 0.0 
3 0.0 -0.5008365321463054 2.003207051149923 -0.3423854161532123 -0.3357399803565438 -0.786604255080591 -0.03764086741327117 
3 -0.2614618027475198 -0.3449850889752406 1.899119437481547 -0.3164665899459314 -0.337368217411853 -0.3247230289208686 -0.31411470948013254 
3 -1.379321039403161 -1.9244144522963715 9.502349819779296 -1.188267251058031 -2.159236663832593 -1.3429389995772227 -1.5081714136119198 
3 0.0 0.0 10.0 -9.222566239666483 0.0 -0.7774337603335201 0.0 
3 -0.3630619477397402 -0.4662222373953254 2.591582659163705 -0.4318910414633991 -0.45843567128327734 -0.43962071491574745 -0.43235104636621474 
3 -0.6107127878612881 0.0 10.0 -6.787506558814345 0.0 -2.6017806533243606 0.0 
3 0.0 -0.42323682196284773 2.784960813275748 -0.9483091651189689 -0.3441337148123646 0.0 -1.0692811113815657 
3 -0.24596553625194348 0.0 0.8531184498434626 -0.1862316660492952 -6.699370561374155E-4 -0.407826702385944 -0.012424608100145304 
3 0.0 -2.219637531194855 8.470199840842687 -1.42967082529026 -1.5986269448261243 -1.060083166821923 -2.162181372709514 
3 0.0 -1.7092628456041223 8.854864843357444 -0.08561940084984325 -4.489768347920358 -0.6128983721081227 -1.9573158768750014 
3 -0.5244919526175782 0.0 1.3381790766443393 0.0 0.0 0.0 -0.8136871240267558 
3 -0.8265281793260696 -1.0246827938444611 5.742260585529283 -0.9453477541283284 -1.0109912663694367 -0.9887464667414481 -0.9459641251195334 
3 -0.5197132174404205 -0.6918113101019099 3.929327886049425 -0.6822515290809845 -0.6845152605294612 -0.6659546889272154 -0.6850818799694336 
3 0.0 -0.11585887546222588 10.0 -3.1737735040477224 -1.5296944519868383 -1.158035249131802 -4.022637919371403 
3 -7.631911847261858 -0.9138008006573719 10.0 0.0 0.0 -1.454287352080796 0.0 
2 -0.8111269664621675 0.0 0.0 0.9021807080492338 0.0 -0.0910537415870652 0.0 
2 0.0 0.0 0.0 0.0 0.0 0.0 0.0 
2 0.0 -8.132868932870934 -1.7739218652830693 10.0 0.0 0.0 -0.09320920184596083 
2 -9.999999999999984 0.0 0.0 10.0 0.0 0.0 0.0 
2 0.0 0.0 0.0 10.0 -10.000000000000007 0.0 0.0 
2 0.0 -6.566529187442754 -0.34782052815454034 10.0 0.0 -3.0856502844027114 0.0 
2 0.0 -2.690896163076207 0.0 2.690896163076207 0.0 0.0 0.0 
2 0.0 0.0 0.0 0.0 0.0 0.0 0.0 
2 -8.484504250634316 0.0 0.0 10.0 -1.515495749365688 0.0 0.0 
2 -9.999999999999986 0.0 0.0 10.0 0.0 0.0 0.0 
2 -2.1076889884676797 -0.8913573905519997 -0.5307716501209827 10.0 -1.5839760156226361 -0.1261784188651808 -4.760027536371519 
2 -10.000000000000014 0.0 0.0 10.0 0.0 0.0 0.0 
2 0.0 0.0 0.0 10.0 -10.000000000000018 0.0 0.0 
2 0.0 -3.6745478766962125 0.0 10.0 -6.325452123303775 0.0 0.0 
2 0.0 0.0 0.0 10.0 0.0 0.0 -9.999999999999993 
2 0.0 -4.891886982254207 -5.108113017745807 10.0 0.0 0.0 0.0 
2 0.0 0.0 0.0 10.0 0.0 0.0 -9.999999999999995 
2 -4.227664726009646 0.0 -5.772335273990347 10.0 0.0 0.0 0.0 
2 -0.11046577784089959 -0.9777494181366788 -0.36204311633195313 4.0032684220756805 -1.0422517017207862 -1.079795479825931 -0.43096292821943083 
2 0.0 0.0 -9.999999999999991 10.0 0.0 0.0 0.0 
2 -10.000000000000004 0.0 0.0 10.0 0.0 0.0 0.0 
2 0.0 -6.855145772852483 0.0 10.0 0.0 -1.2611438108177475 -1.8837104163297755 
2 -0.4547806612783122 -0.6594252257949714 -0.8315401461128765 3.1968907644591216 -0.08117787413494346 -1.1699668571380106 0.0 
2 -9.999999999999996 0.0 0.0 10.0 0.0 0.0 0.0 
2 0.0 0.0 0.0 10.0 0.0 -9.99999999999999 0.0 
2 0.0 0.0 0.0 10.0 0.0 0.0 -9.999999999999988 
4 0.0 0.0 0.0 0.0 1.9345475443634498E-16 0.0 0.0 
4 -5.78821860909521 0.0 -4.211781390904776 0.0 10.0 0.0 0.0 
4 -1.4502661724263062 -4.177417891194614 -3.968000751217418 -0.40431518516167847 10.0 0.0 0.0 
4 0.0 0.0 0.0 -8.003505921657018 10.0 -1.9964940783429819 0.0 
4 -7.139229876763167 0.0 0.0 -0.20784002974484733 10.0 -1.0897424551063375 -1.563187638385644 
4 -6.615507149262394 -2.762275792135277 0.0 -0.6222170586023403 10.0 0.0 0.0 
4 -1.179027706083776 -1.7132138526433738 -1.9922721033411366 -1.7644091843513623 10.0 -1.54563520505547 -1.8054419485248605 
4 -3.1597813138865463 0.0 -1.657574283934872 -5.182644402178564 10.0 0.0 0.0 
4 -3.422540811800666 0.0 -0.06433155421252709 0.0 10.0 -6.513127633986806 0.0 
4 -9.999999999999995 0.0 0.0 0.0 10.0 0.0 0.0 
4 0.0 0.0 0.0 0.0 0.0 0.0 0.0 
4 -0.17929073247635163 -3.083937817808894 -0.3059712752908569 -0.427687546481797 4.1934393559245775 0.0 -0.19655198386667946 
4 -3.9381553851775655 -2.5134763849363484 0.0 -0.6605172610693635 10.0 -1.2658843999975564 -1.6219665688191989 
4 0.0 -0.05343892447702428 0.0 0.0 10.0 -9.946561075522968 0.0 
4 0.0 -3.7492552869366316 0.0 0.0 10.0 -6.162152868772566 -0.08859184429080519 
4 -1.0615951936735453 -0.26399842187857453 -1.2733677764817153 -1.5661618511613313 5.022110660149701 0.0 -0.8569874169545235 
4 0.0 -0.829292357864887 -0.4459323315042629 -0.4635924589451666 1.7433147897902277 0.0 -0.004497641475909707 
4 0.0 -9.999999999999998 0.0 0.0 10.0 0.0 0.0 
4 -10.000000000000012 0.0 0.0 0.0 10.0 0.0 0.0 
4 0.0 0.0 0.0 0.0 1.5742854198248737E-15 0.0 0.0 
4 -0.18104581373435785 -0.5291064657602987 -0.4876619604823319 -0.754439408039488 3.061481937872314 -0.6477755032920174 -0.4614527865638202 
4 -6.021941123623758 0.0 -2.770560178656974 -1.2074986977192614 10.0 0.0 0.0 
4 0.0 -0.5263039174186465 0.0 -0.1272512703699293 0.6535551877885795 0.0 0.0 
4 0.0 0.0 0.0 0.0 0.0 0.0 0.0 
4 -5.967117063559548 -1.0706956475511213 0.0 0.0 10.0 -2.9621872888893295 0.0 
4 0.0 0.0 -7.216599452242728 0.0 10.0 -2.783400547757281 0.0 
4 0.0 -0.0558278279912513 0.0 -3.2146015829765555 10.0 -1.440996681958522 -5.2885739070736895 
4 0.0 0.0 0.0 0.0 10.0 -7.97418900128182 -2.0258109987181845 
4 -10.000000000000002 0.0 0.0 0.0 10.0 0.0 0.0 
4 -0.8817344028265796 -5.2588282829642035 -0.6996044706086442 -2.0904134231969036 10.0 0.0 -1.0694194204036767 
4 -0.8428901700630604 -0.785082146441901 -0.816658402394019 -1.0924111954977092 5.1155073260378785 -0.908371271656113 -0.6700941399850782 
1 0.0 0.0 0.0 0.0 -9.99999999999998 10.0 0.0 
1 0.0 0.0 0.0 -2.20018262949174 -7.799817370508259 10.0 0.0 
1 -1.2402214545603896 -1.4101048408063876 -1.373977831479979 -1.7545682353622218 -1.3283911292401707 8.563372986839227 -1.4561094953900813 
1 0.0 0.0 0.0 0.0 0.0 -1.3525018738817229E-15 0.0 
1 0.0 -0.4282983005363815 0.0 -1.0451094450887584 0.0 1.849954627536958 -0.37654688191181945 
1 -1.8613937616372171 -0.6205871686485309 -1.3469422196658947 -0.29030498170661073 -1.8754595565254604 6.538595153311471 -0.5439074651277496 
1 0.0 0.0 0.0 0.0 -10.000000000000002 10.0 0.0 
1 0.0 0.0 -2.852280210087908 -4.631325863371493 -0.573589289982502 10.0 -1.9428046365580667 
1 0.0 -9.999999999999998 0.0 0.0 0.0 10.0 0.0 
1 -1.4173139316853753 0.0 0.0 0.0 -7.139878317853105 10.0 -1.4428077504615069 
1 -2.987461941856981 -3.4909771277161075 -3.4519607270094492 0.0 0.0 10.0 -0.06960020341746302 
1 -0.04282655495311499 -0.33938349686744934 -0.3217225636736692 -0.5730007185610122 0.0 1.9502919339839184 -0.6733585999286837 
1 -4.818336518493562 0.0 -3.9439933895250485 0.0 0.0 10.0 -1.2376700919813992 
1 -0.17395450641188298 -0.1916313857844639 -0.20442725711201054 -0.2581912323160333 -0.21827420073347878 1.2449161296592879 -0.19843754730141872 
1 0.0 -10.0 0.0 0.0 0.0 10.0 0.0 
1 0.0 0.0 0.0 0.0 -8.069444533195655 10.0 -1.9305554668043698 
1 0.0 -0.9649754829566523 -1.8372756671225108 0.0 -4.03944331098843 10.0 -3.1583055389324044 
1 -1.4705451095713618 -0.9869942484979649 -0.13440818286808076 -1.6045308636419007 -0.5872290476894656 5.839923690577171 -1.0562162383083953 
1 -1.9372932629059205 -5.455515852459946 -1.9311495314144942 0.0 0.0 10.0 -0.6760413532196237 
1 -8.705532709192454 -0.7589346000734726 -0.5196027471609643 0.0 0.0 10.0 -0.01592994357313831 
1 0.0 -6.2111505979915425 0.0 0.0 0.0 10.0 -3.788849402008459 
1 -0.17495310479660892 -0.19137236081819325 -0.20394065343411258 -0.25824762754857095 -0.21838121108020267 1.2447348104165137 -0.19783985273882523 
1 -0.7695865462088567 -0.8376491469765912 -0.868231272690508 -1.0100839824139982 -0.8973908693671494 5.226184067227168 -0.8432422495700537 
5 0.0 -4.650835798986273 0.0 -5.349164201013708 0.0 0.0 10.0 
5 -10.000000000000004 0.0 0.0 0.0 0.0 0.0 10.0 
5 -1.3429977418505248 -1.002573796329027 -3.5857046337047267 0.0 -4.0687238281157265 0.0 10.0 
5 0.0 -9.99999999999997 0.0 0.0 0.0 0.0 10.0 
5 -6.115708679486817 -0.0022879760028676724 -0.4600141086689355 0.0 -1.1756426573369676 -2.24634657850429 10.0 
5 0.0 -0.17445294687990293 -3.0593868855637996 -6.002837693388856 -0.763322474167418 0.0 10.0 
5 0.0 0.0 0.0 -10.000000000000009 0.0 0.0 10.0 
5 0.0 0.0 0.0 -0.9124849880391563 0.0 -0.48470271920034974 1.3971877072395076 
5 0.0 0.0 0.0 0.0 0.0 0.0 0.0 
5 0.0 0.0 0.0 -10.000000000000002 0.0 0.0 10.0 
5 0.0 0.0 0.0 0.0 0.0 0.0 0.0 
5 0.0 0.0 0.0 -0.27677445477978574 0.0 0.0 0.27677445477977275 
5 0.0 0.0 -1.9257047996056988 0.0 -0.813916609357159 -2.0171127522214745 4.756734161184326 
5 -0.3738502688037696 -1.5546370334719641 -3.4675567166090913 -2.2936832148785866 -2.3102727662366545 0.0 10.0 
5 0.0 -1.1292315108309465 -6.3855926842356325 0.0 -1.574132152306144 -0.9110436526272417 10.0 
5 0.0 -2.3769857707353546 -4.130827582926795 -1.3523921817901197 -2.139794464547761 0.0 10.0 
5 0.0 -4.60441354314575 0.0 0.0 -5.395586456854248 0.0 10.0 
5 0.0 0.0 0.0 0.0 0.0 0.0 0.0 
5 -5.706031175682338 0.0 0.0 -1.5087283601503148 -2.7852404641673534 0.0 10.0 
5 0.0 0.0 0.0 0.0 0.0 -10.000000000000005 10.0 
5 0.0 -3.0119754241357506 0.0 0.0 0.0 -6.988024575864236 10.0 
5 0.0 0.0 0.0 0.0 0.0 0.0 0.0 
5 -0.42129847017616945 0.0 0.0 0.0 0.0 -9.578701529823807 10.0 
5 0.0 0.0 0.0 0.0 0.0 0.0 0.0 
5 0.0 -0.6874310017400946 0.0 -2.0210434385913256 0.0 -1.7604429854534895 4.468917425784911 
5 0.0 -0.2106753669556817 -1.9531149375538779 -0.389874813110476 -0.4659361928608761 0.0 3.0196013104808825 
5 0.0 0.0 -0.7220686308902377 -3.043637689757295 0.0 0.0 3.7657063206475265 
5 0.0 0.0 -2.7568813575260225 0.0 -7.243118642473976 0.0 10.0 
5 0.0 -4.604212696542711 -0.8273505077842699 0.0 -2.133941239232902 -2.434495556440109 10.0 
5 0.0 0.0 0.0 0.0 0.0 0.0 0.0 
5 -0.7723533713609566 -0.26785321536624895 -0.21169506346788877 -0.1785932035755882 -0.25775696961151584 -0.24023253649391993 1.9284843598761165 
5 0.0 -10.000000000000004 0.0 0.0 0.0 0.0 10.0 
5 0.0 0.0 0.0 -2.822605787933328 0.0 0.0 2.8226057879333357 
5 -0.634723952604791 0.0 0.0 -1.9101731855713575 -0.46055020119405715 -2.3531902726493 5.358637612019495 
5 0.0 -1.0826490512416422 -0.8776473504236414 -1.8079517322221947 -2.803452887154452 -3.4282989789580456 10.0 
5 0.0 -9.638472367842716 -0.3615276321572952 0.0 0.0 0.0 10.0 
5 -0.18475949311414966 -0.23639233770328047 -0.20432694616454303 -0.21049771812286594 -0.21583124064765435 -0.19327510994195332 1.2450828456944494 
5 0.0 0.0 0.0 0.0 0.0 0.0 0.0 
5 -5.440208268849595 0.0 -2.402278370456938 0.0 -2.1575133606934704 0.0 10.0 
5 -8.142267291654203 0.0 -1.8577327083458122 0.0 0.0 0.0 10.0 
5 -0.1847619663590027 -0.23689217350476766 -0.20345739897291595 -0.21040769734042636 -0.21562011481986998 -0.19298893309206938 1.2441282840890524 
5 -10.000000000000012 0.0 0.0 0.0 0.0 0.0 10.0 
5 -0.11798008296542238 -0.18406527248741889 -0.015858815874393025 -0.1428539245775925 -0.11967306174618769 -0.039420397807694234 0.6198515554587091 
