7	0	0.13072517582457607	-0.03578096702315652	-0.05536634350932189	0.08877800788073983	0.02246087512199366	-0.07970545346812608	0.05324886164317842	-0.054449809365834156	-0.015839437952730052	-0.18832831492636454	-6.801846959704795E-4	0.1364106975091576	0.14538381192794544	-0.10550608212016899	-0.048094643531031586	-0.028090819395309084	-0.10525982556304617	-0.012007721030880894	0.018432529203283622	0.052508757445490516	-0.10628451320450051	0.05053699378909997	-0.057383856235715916	0.055258842107930355	0.03885067563096129	-0.005634996082012655	-0.024230129557346016	0.04564583486831026	-0.034151680731207966	0.0034285714271403904	-0.002439655147507027	-0.15455413898396111	0.028138999337753195	-0.0016218414898452015	0.05239728842345021	0.05559329011876537	-0.07928522475659947	-0.05984471384792804	0.14072087164998798	-0.006498138920728376	-0.01380851764367241	-0.021464112268145586	0.05704970913240373	-0.08291760318672078	-0.08192083095067777	-0.0660028101682712	-0.09774752987220867	0.035878445163408865	-0.12528071393326978	0.03696691765818897	-0.11182792913108996	0.10758846946060821	0.007069079770854081	-0.028833237177247086	-0.035645696834079095	-0.05877554875446978	0.012077617624571945	-0.03326132539160448	-0.09013039193426099	0.025384604700275346	-0.01897412142845651	-0.025750328574794878	0.12628137337861858	-0.05923570311449814	0.07372464098546808	-0.021001544091988646	-0.09139150496735464	0.0389971395313416	0.025730921926703794	0.058250929114150016	0.09455379703698717	0.026501270180086148	-0.10967349138763562	0.0280208883662473	0.025560161710131653	-0.20451838479009274	0.028409932229285537	0.009170016451319749	0.01741235485033672	-0.05982283846492082	0.10369406404955935	-0.17770956238778163	-0.028881010108165968	-0.06120281311190771	0.07599575784097357	-0.08767064546992374	0.02682576826472487	-0.01870531746065019	0.0020358589802153314	0.012548514526403879	-0.010023124937023564	0.08717372057120984	0.006900644709140775	-0.13304120591753138	-0.04157010977282195	-0.007156456728067581	0.059964693166828495	0.023265645810328507	0.006199034879048272	-0.06534337924052835	0.012393148528964053	0.06646523960399571	0.038275180479461365	0.023720375414226166	-0.040308240606673276	-0.08800824669117112	-0.13898192314625019	0.011002516501489224	-0.0351286311931254	-0.034352829977647915	-0.10456570130986054	0.02560674135780165	0.02512427626021977	-0.06336352828291152	-0.0641629899310015	-0.08147487092247573	0.0528374441535042	0.027652358749407704	-0.027207589853436954	0.0014206770557707161	0.060319571293846325	-0.042092233591595064	-0.0218016500963927	-0.11736928553906989	0.033733117809655135	0.006083580382087367	0.13640162848826295	0.03470253897610409	0.038557627859791915	-0.031857236500989435	-0.03139252131217382	-0.060642034493928985	0.10319361415172687	0.09497192444340276	0.05424846831706298	0.014099070077384571	-0.09124450833589624	-7.97147799205565E-4	-0.0656011598973926	0.0454048112670071	-0.10003894898900736	-0.06917544325010476	0.014030478463820443	0.04404690496007445	-0.00334456512049577	-0.03192581759699188	0.12684838065142018	0.04958190579992811	-0.08647191757521921	0.052448928906601744	0.04277946823343764	-0.034030372166953975	-0.06788337406145976	0.04724556943839919	-0.0646030526978944	0.06766410067633365	0.04766035873502169	-0.03768959685806565	-0.03330935892480387	-0.09390485933863432	-0.016752137578754846	-0.025846169560132585	3.593446080780551E-4	-0.1391208485404961	-0.017062473431641894	-0.01118438434961132	0.08035992922903201	-0.0915716940270286	-0.1143059961627679	-0.04676281145198903	-0.08821035069391978	-0.05692098465836382	-0.06652561509684345	-0.0076106530120000565	-0.031427067216123414	0.10970997770138313	-0.029302219245128887	-0.05158963192850435	-0.047990548195017343	-0.011697616082675534	0.06960824314142958	-0.005214296434021153	-0.007337571097370753	-0.041366185076295955	-0.04782792083029665	-0.07998243552639232	0.017990721907909114	0.06488624044998131	0.24921739854622285	-0.00806638408982523	0.09417212822912566	-0.048952582215565685	0.16364455805095054	0.107569882962917	0.06371696312215396	-0.02292024599568637	-0.03940279620506395	0.10635517285149107	-0.0574704979197395	-0.019829328510096927	
11	5	-0.019929111318025442	-0.011059285874948255	-0.014874730875150791	0.04637297328073577	0.024856586292900943	0.1245349900450654	-0.04820432198223899	0.06792977581056724	-0.019251039700712146	0.035992861249480854	-0.01086809929989447	-0.08027043707755117	0.026445878069346333	0.0760771482676997	0.02647286400304067	-0.04092444709650202	0.04898356765432645	0.03832571060889928	-0.06024923224647059	-0.06393179459843575	0.11857286414450355	0.018822279215327527	0.01320853560270843	-0.05903084616871686	-0.005921696640447195	0.1027555633959695	0.01914165264457722	-0.06973894209852097	0.039000400415464494	-0.0038460783225110714	-0.07798959446615146	0.11525513905777225	0.02005064022706637	-0.014901282384116804	-0.12701996704497845	-0.023541228640931985	0.013966501755074424	0.03945249981834403	-0.09462026889548432	-0.024206842218268552	0.06675263324656344	0.08301472801994218	0.005585485277360951	0.0911438230373185	0.025532071453221235	-0.010804204359013263	0.17169956130585892	0.024161922263721748	0.058232509375277436	-0.013925735309783485	0.11976801276322475	0.020124249927221248	0.010775515383365287	0.0226663379644678	-0.040410088457121254	0.06214908428278735	-0.12046251571538823	-0.02880468827567564	0.01716692066552178	0.057677413184723775	0.05010816363748418	0.05205082820747468	-0.08266396149172513	0.06509044333933654	-0.00810393479328521	0.0825183863876229	0.09025560977060726	-0.011308367759777036	-0.07464843862128512	-0.029506037952273845	0.030650223007065193	-0.0496896250487259	0.05373784890359572	0.005744873840304375	-0.058980788274389205	0.2268403433718142	-0.056306095037104736	-9.58853378126735E-4	0.02305851701959328	-0.014511018057388546	-0.02576166235792766	0.1347005381521882	0.023671196266701146	0.05220854077913872	0.019244005094560798	0.07063542574564588	0.024421685522056025	0.08706374338376524	-0.010734180061884162	-0.06478100391676643	0.050352551753109015	-0.047413238889507554	-0.018995206241991146	0.1658941936202	-0.014682608059470996	0.006043091544612743	-0.01802513210428901	0.04815807381987267	0.04329327998724304	0.06449124538631958	-0.05488423342226905	-0.10115539612096122	-0.05001595699946646	-0.008588204357672487	-0.05474698259628738	0.09882947711902575	0.04761988306383	-0.038118151482941	0.04083149922519296	0.03435888193111324	0.025932538314261164	-0.14646646008501082	-0.05640818949686702	0.012725792756098232	0.12069672169380097	0.09297891625735612	-0.05736354186946879	-0.06750648492742947	0.03559010002938017	0.05192522313707254	-0.04665408531714989	0.0037296873682222736	0.053557946763094	0.21787869239636534	-0.11072145102982889	-0.1065557163357287	-0.12008353127889494	-0.015516566350121065	-0.010422125868013386	-0.046372103465822705	-0.017650181980326043	0.08020295303149247	-0.13985518825444596	-0.08193317561377915	-0.05875229616891418	-0.09826066946217735	0.09453073176479038	0.02092822503893765	0.004505442854109509	-0.06391156384559346	0.03303015727672285	0.048097762827045594	0.02600561785069141	-0.014673709050158917	-0.002919885454487241	0.19665702000282667	-0.04950183197663948	0.04370123514008084	0.13469995893069742	0.035506371595361436	-0.0036046029580523767	0.06224248564395845	0.08612806983571118	-3.1158488301149677E-4	0.05696593823159432	-0.05579930563337523	-0.08793516063816156	-0.014304416691917501	0.056512969953152706	0.11586949115820151	0.0194165130883281	0.012743539628783246	0.012431623866181634	0.11438967225053659	-0.054741720319396295	0.01600440931475511	-0.06068012437258765	0.014816337589457457	0.13447441017118641	0.035633158544821436	-0.016916113488994244	0.10039014876979874	0.08235608037906544	-0.02211994409813448	-0.032612656420551056	-0.06511997721984296	0.04094012439078098	0.031150554294456203	0.11210420169610169	0.07887716540787207	0.0618602327009423	-0.006617722710230829	0.05500389864921844	0.04062101395270979	0.0716008979376753	0.05640408933944515	-0.05343237977501754	0.0014261820595690214	-0.1558563482410911	0.0082120728227508	-0.01951351126312639	-0.021133099968862087	-0.1937040839238011	-0.19257818585739248	-0.025594021503936425	0.048111989331124524	0.03847490197697796	-0.1090355696377191	-0.014441355632378482	0.07375253038910702	
13	6	0.16194550460504425	-0.05660766151371731	-0.03328697083508557	0.09507701306833663	-0.07347667569500388	0.03974553735134337	0.14837803746675826	-0.021023026075893677	-0.12905825064329052	-0.1578562566782643	-0.0560385058277943	0.05784726762482608	0.08724111137646029	-0.09823088131114216	0.048076445584228536	-0.028782684448717392	0.02337805905612599	-0.039799629424460886	0.19011543047129736	-0.0348711397404339	-0.0035866765863128173	-0.022169377575385764	-0.013777338895318994	0.02288767357970031	0.05163111072197347	0.12061725206396569	-0.030629525283713106	-0.01684576733444683	-0.023856341675333147	0.045252862760668935	0.02239578786024055	-0.05652642351285653	-0.07026493874067162	-0.08319957378242458	-0.11074347051542602	-0.07427947111990396	-0.07988781950304227	5.230276517346035E-4	-0.06701572209349152	-0.1032844720228204	0.08521302056741137	0.05445524937113769	-0.018393944978605904	0.006110942345415093	0.001980694997344152	0.0504598258527419	-0.05936666746113566	-0.03996939373016353	-0.13544081207748737	0.00465675982368992	-0.04354096653781497	-0.007957812388820049	-0.05793097337717142	-0.08725491453562853	-0.03482821302493574	-0.0704493634431333	-0.017172640294575218	-0.0675542016483988	-0.0790721795721539	0.10768462573529804	0.025906722277704478	0.031977426096926435	-0.06406573699460609	0.02659519853998168	0.014370448286578935	-0.11613620830771118	-0.042462555151045994	-0.008060277129024004	0.03971874995083963	0.08294341988597798	0.10179918063638026	-0.019609401994492747	-0.11078279182150473	0.011188011635477725	-0.1025957425352892	-0.058637199740185025	0.029185431518857035	0.04536649774905951	0.09948005955389107	-0.06161070356159209	0.0019711619871076802	0.03348723798364994	-0.24008529306988236	-0.006651082598078134	0.02141106427734488	-0.016546024068783746	0.066385361821141	-0.03685350336416913	0.007500623110029939	-0.03069160654266196	0.050879154152108766	0.06872068422603199	-0.06857651585690576	-0.06368894610611157	-0.1498174530231554	-0.08136873243404334	-0.008347711983350551	0.036869956424385286	-0.009959033992974597	0.07020417225748275	-0.09055968372593318	-0.06781121162811204	0.06502000018944734	0.005209215799213069	-0.16078782822923748	-0.0709776266741743	0.011076510502967518	0.08147025228508187	-0.0018374338608285906	-0.08030238911852147	-0.07659850575386702	-0.03231400727773535	-0.06434996703701987	-0.011792468494253389	0.00942463520847373	-0.05728314366307511	0.109277847863395	-0.040489920269620665	-0.05669034250103101	0.003751346107616251	0.07927358139913343	-0.15669464975465539	-0.08228923495177047	0.005722971988975072	-0.05931440578486178	-0.049519717203873125	0.021538546652702283	-0.04343150326237004	0.001608307604038589	-0.002139597137381063	-0.10686889380492445	-0.006099758756328036	-0.04960177505974647	0.0171534265655494	-0.03201390759588032	-0.024753730900814175	-0.07656123921896672	0.06481525669844515	-0.06136892897380349	0.0841582649822948	0.05972884163204163	0.008393861950524887	0.0014113862307205017	0.040566316574126814	-0.07633221324121642	0.04935393116860008	0.038601862121152755	0.05142953890779584	-0.029836727632804042	0.012207290255080275	0.019411498095070454	0.020817182169278556	0.1138949351866532	0.04097742842461101	-0.09814712076923994	-0.041275697937606125	0.060776794628929716	-0.09520488609824664	-0.0467835064979326	0.10276103315833285	0.11369736111721586	-0.03677677711996555	-0.06593756149113156	-0.07735313082406335	-0.04545560820427484	-0.060415054632482736	0.033413175031516085	-0.07479774919901763	-0.011529702250745167	0.025719764497135974	-0.1330761714516901	-0.05241473417626872	0.001550677381080173	-0.05377409668736612	0.12290779458622683	0.012692000757570357	-0.04753309683769076	0.03204047537588415	-0.00988654891268873	0.11461297580817151	0.018601719742524912	0.1392956857790642	0.06613304305206985	0.021528664140790764	-0.01010393984001801	-0.008798854409653036	-0.025325092309180033	-0.004542385952050176	0.018515339665468745	0.10218908439988698	-0.007507044243682017	-0.019704915742016986	0.06626894473271314	-0.0714535588253593	0.10572616161759656	0.11273786582550774	-0.02467111880561822	-0.10748042901789107	0.17510924950208595	-0.11477220588437217	
14	0	0.11406764085307906	-4.6198847301569143E-4	-0.024493558510589722	0.11126508000397071	0.06379023075107115	-0.1042595269730969	0.08471892191989505	-0.05128012866954557	0.03538329126857199	-0.09136258109783947	-0.025339388688944867	0.14445600897913818	0.11813457693008504	-0.08992794850912576	-0.06872990925394958	-0.013687389627210651	-0.07719076591851746	0.003535138946577812	0.0067598939301221714	0.09712585507070741	-0.11093809985372896	0.019990223638009345	-0.030882651437348366	0.08300849568742609	0.09034636476247644	-0.05187188499533255	0.03612544272347881	-0.019481000313561	-0.032402882865425045	-0.03971156741057904	0.0673222324944061	-0.1376969299973534	-0.011522608080699997	0.014213314066549026	0.11106748914585948	0.03671423533722603	-0.04654375596428626	-0.021534998019374516	0.16300709686081696	-0.003074101291004458	-9.370311139678774E-4	-0.002958017605707685	0.012044235414367365	-0.05918068633277673	-0.052596380090191464	-0.05027001298695053	-0.10182313452505146	0.013512346528105002	-0.09324008760186718	-0.032233965166545	-0.09847030069520368	0.072877244639688	0.03001453720993069	0.03314572303999628	-0.06464312359011166	-0.06578988550008437	0.034804947605959376	-0.08745351189600434	-0.018589718088124423	-0.05128668593226182	-0.00511318945601542	-0.021448390951566972	0.042048791239500345	-0.014992068202206763	0.0025013682685045132	-0.014244658400012055	-0.048885138599376564	0.03625911409366985	0.048286814572509565	0.036472100472778046	0.01984187947262466	0.056141986031530415	-0.11277285944571126	-0.03472958323518893	0.047723200165383395	-0.23156838467984378	0.0055035150736391855	0.03781573651719166	0.04677406543829072	-0.021370122832360155	0.11036670834019827	-0.21395278912261895	-0.010890399050378799	-0.05251868140445752	0.044370298086582584	-0.09004874612128133	0.10668237642416653	-0.02750723233977771	0.00483557899912246	0.0375593062733021	-0.0345572405589148	0.08167824047706941	0.07338367506875693	-0.1282216523901216	-0.0301124872327227	0.022677960928304663	0.057277110285513126	0.02405032492518425	-0.03116115576604633	-0.005163082040992651	0.007327982147245676	0.03452146728506398	-0.012913956865978784	-0.022258155046309715	-0.05384922728010285	-0.07152949006716998	-0.08982548896249898	-5.60115633063681E-4	0.006269461093055195	0.01403563840590504	-0.038318689625488886	0.019336650311612684	0.022015399012938162	-0.06147670569922937	-0.14997333605320903	-0.03746849665569652	0.08814717344272378	0.06196057664169378	-0.0493462990626154	0.01996847804233727	0.06014515945255317	0.04831030847973305	0.03421907652374375	-0.14067771559607742	0.051277981699398074	0.009621036673089686	0.15620882688520107	0.040057339614292906	0.10286711980930963	-0.01618979309255232	0.004046969221070604	-0.045675108793589755	0.1557680812256404	0.08509653787148783	0.0592324401844086	0.09501709889792359	-0.07369838440596492	-0.049657231053250095	-0.04777207238494266	0.06885884129164503	-0.10312821981936653	-0.0986456783809957	0.06406048159198596	0.03703290341125774	0.07428814151449122	-0.14401844929092902	0.10904792990701023	-0.06705002602110377	-0.1141542355129247	0.031649161545014716	0.007817929333720105	-0.06291077493758036	-0.04936193259513493	0.06503857290801424	-0.09777519597723015	-0.0017998823208506944	0.10766887009529337	0.004914154974000277	0.0040975404487927775	-0.0677686554790784	-0.03215114171556218	0.006178415213074521	0.05096044260949967	-0.08288813211619489	0.026182077624823774	0.041345727327079015	0.04262668850191399	-0.0303005142244001	-0.11430291651270319	-0.023130889908052676	0.019037866191004917	-0.05886619211222448	-0.07938956441672679	0.05293319131166845	-0.023192680291119552	0.11607407535951723	-0.06121145756691749	-0.04858823090838872	-0.05229580113708802	-0.030013963171577118	0.028860591894314832	0.02267915669303915	-0.0010850222027988272	-0.048067149563414964	-0.08299832804616075	-0.08942999606512367	0.0528816432066632	0.08393772072767322	0.18900003007712154	0.018438707198923043	0.0777511809330744	-0.03872577179496485	0.1109379606479221	0.11068443295197646	0.036978147430098376	0.015428020249596027	0.015981059312964677	0.11209836078967038	-0.11219975406758331	0.001583691307078655	
15	0	0.01992911131802556	0.011059285874948246	0.014874730875150725	-0.04637297328073565	-0.02485658629290087	-0.12453499004506534	0.04820432198223901	-0.06792977581056722	0.019251039700712073	-0.03599286124948099	0.010868099299894456	0.08027043707755123	-0.026445878069346184	-0.07607714826769972	-0.026472864003040678	0.04092444709650197	-0.04898356765432649	-0.03832571060889922	0.06024923224647058	0.06393179459843575	-0.11857286414450353	-0.01882227921532746	-0.013208535602708463	0.05903084616871686	0.005921696640447236	-0.10275556339596938	-0.019141652644577217	0.06973894209852093	-0.03900040041546446	0.003846078322511075	0.07798959446615138	-0.11525513905777224	-0.020050640227066326	0.014901282384116766	0.12701996704497837	0.023541228640932006	-0.013966501755074481	-0.039452499818344054	0.09462026889548432	0.0242068422182685	-0.06675263324656339	-0.08301472801994211	-0.005585485277360901	-0.09114382303731847	-0.025532071453221283	0.01080420435901321	-0.17169956130585887	-0.024161922263721713	-0.05823250937527749	0.013925735309783487	-0.11976801276322474	-0.02012424992722111	-0.010775515383365263	-0.022666337964467837	0.040410088457121164	-0.062149084282787335	0.12046251571538814	0.02880468827567558	-0.01716692066552181	-0.057677413184723685	-0.05010816363748414	-0.05205082820747464	0.08266396149172513	-0.06509044333933649	0.008103934793285278	-0.08251838638762282	-0.09025560977060722	0.011308367759777041	0.07464843862128506	0.02950603795227387	-0.030650223007065092	0.04968962504872591	-0.05373784890359576	-0.005744873840304369	0.058980788274389157	-0.2268403433718141	0.056306095037104716	9.588533781267538E-4	-0.02305851701959323	0.014511018057388476	0.025761662357927706	-0.1347005381521882	-0.02367119626670116	-0.0522085407791387	-0.019244005094560732	-0.0706354257456459	-0.024421685522055932	-0.08706374338376521	0.01073418006188412	0.06478100391676639	-0.05035255175310898	0.047413238889507575	0.01899520624199114	-0.16589419362019991	0.01468260805947093	-0.0060430915446127356	0.018025132104289042	-0.048158073819872596	-0.04329327998724301	-0.06449124538631955	0.054884233422269016	0.10115539612096115	0.05001595699946645	0.008588204357672517	0.05474698259628727	-0.09882947711902572	-0.04761988306383004	0.03811815148294098	-0.04083149922519295	-0.03435888193111325	-0.02593253831426121	0.14646646008501074	0.05640818949686698	-0.012725792756098276	-0.12069672169380093	-0.09297891625735608	0.057363541869468786	0.06750648492742943	-0.03559010002938016	-0.051925223137072485	0.04665408531714988	-0.003729687368222299	-0.05355794676309396	-0.21787869239636518	0.11072145102982879	0.10655571633572863	0.12008353127889494	0.015516566350121089	0.010422125868013467	0.04637210346582262	0.017650181980325995	-0.08020295303149243	0.1398551882544459	0.08193317561377915	0.05875229616891416	0.09826066946217728	-0.09453073176479038	-0.020928225038937636	-0.004505442854109559	0.06391156384559342	-0.033030157276722885	-0.0480977628270456	-0.02600561785069135	0.014673709050158946	0.0029198854544872617	-0.1966570200028265	0.049501831976639536	-0.04370123514008077	-0.1346999589306974	-0.03550637159536137	0.0036046029580523863	-0.062242485643958415	-0.08612806983571115	3.115848830115221E-4	-0.056965938231594335	0.055799305633375214	0.08793516063816154	0.014304416691917421	-0.05651296995315268	-0.11586949115820146	-0.019416513088328074	-0.012743539628783274	-0.01243162386618161	-0.11438967225053659	0.054741720319396225	-0.016004409314755122	0.06068012437258763	-0.014816337589457504	-0.1344744101711864	-0.03563315854482146	0.01691611348899414	-0.10039014876979864	-0.0823560803790654	0.022119944098134465	0.032612656420551014	0.06511997721984299	-0.040940124390781006	-0.03115055429445623	-0.11210420169610162	-0.07887716540787197	-0.06186023270094218	0.006617722710230835	-0.05500389864921835	-0.04062101395270979	-0.07160089793767527	-0.05640408933944516	0.0534323797750175	-0.0014261820595689715	0.15585634824109112	-0.008212072822750792	0.019513511263126438	0.021133099968862017	0.19370408392380103	0.19257818585739236	0.02559402150393647	-0.04811198933112447	-0.03847490197697795	0.10903556963771904	0.014441355632378436	-0.07375253038910695	
21	2	-0.09465524036634718	-0.003563904515281582	0.03515876146677609	-0.04478383683170032	-0.07746980908408388	0.1644699814083372	-0.0611271342804149	0.04150119858663303	-0.08148368147501497	0.14252693775696357	0.0596117751776163	-0.10843240439739918	-0.07013171595179106	0.06573543004584805	0.027856599089930597	-8.399413159103883E-4	0.09273374091315328	0.0718307610492547	0.06252833287505723	-0.03582321480386426	0.06815790074557473	-0.05509113007703093	0.04677922401650246	-0.05567616529889458	-0.03204488881186252	0.08552203858843145	-0.052553871796484554	-0.03781906578516108	0.001740142266069131	-9.064903787108742E-4	-0.04771641325114884	0.13007559414129055	-0.04689796079311251	0.03126126350769091	-0.11720189612430928	-0.09246110447570645	-0.024815606088983273	0.02526103972708605	-0.11765848889542953	-0.09303913015250094	0.09335492030987302	-6.259163960480107E-4	-0.011107184650258697	0.05939865101080573	0.06935956753097515	0.11278964048084927	0.06435415330496753	0.014750207046527733	-0.04312034128592572	0.022307957698967738	0.015947884101867555	-0.11284625857745934	-0.01798406816609069	0.004823038176742835	-0.04894969967905499	0.04855603232798086	-0.06136614998842822	0.010944133537459688	0.056419454025187034	0.02043616856750735	0.019101198325510552	0.09046219663172328	-0.07863132636871822	0.05412186996410984	-0.058585864536219334	-0.01029082036292545	0.028580767941628213	0.0625394113933076	-0.07553099439766386	-0.09964911763476746	-0.08005668584464813	-0.07041537326569915	0.04735036823436695	0.02419800717528481	-0.10456413088417493	0.16895282087789096	0.011912052607100938	-0.00134405430988107	-0.0013593627762341896	0.01733209635532833	-0.057953608006075165	0.16306922389612372	-0.0067670358057309995	0.03516669694516121	-0.002505293671151062	0.06721756919435531	-0.02673555366547248	0.04714340131959111	-0.022096608526949748	0.0054920697841312005	0.06251277244207726	-0.11490996977012251	-0.004928445809746228	0.22927817011397875	-0.02011524081163219	-0.014180337641171754	0.007668366924036657	-0.03480899908210316	-0.055040338539431286	0.05988951283558725	-0.0029899434928730684	-0.0505433159610603	-0.06108970753403855	0.03416136037109297	0.0753390773561274	0.10238819841461297	0.06724279392161985	-0.07167695222173262	0.0201994700088192	-0.028510251640817302	0.05999236694051792	-0.05654159404150461	0.015836557093653954	0.11979455252912655	0.06991780293973511	0.01605911115663481	-0.10931057626265984	-0.038971020199304235	0.054022404605406256	0.08381678753496372	-0.03958153991181157	-0.061302191861662934	-0.004422249115719209	0.1268063359758659	-0.06924731154933264	-0.019996522715380226	-0.09374093410989205	-0.032270342468980986	-0.12958302574043754	0.016195927357872317	-0.02235898918310455	0.06180856142761046	-0.14801403188239695	-0.05622763474926054	-0.047279343070917634	-0.07409238613194341	0.08654781327180747	0.03241629905859689	0.020179127899227527	0.004642763161459096	0.07187548679442367	0.022264134508657864	-0.016295643828832303	-0.004823713454031266	-0.05439675553075124	0.11065898041473474	-0.04710298895597493	-0.003695684446151468	0.1585144789621549	-0.02134744172250722	-0.06141384913475651	0.013087946231907222	0.12895631891241946	0.028640874250054793	0.11656517916373998	-0.0029015421066843276	-0.023622782866808623	0.021963728711467925	0.019281626429650894	0.07470371947096095	0.019708083997422653	-0.016424395123974922	-0.06426625246524045	0.12426893680115261	-0.01183066578137807	0.021881238900272295	-0.0307557047646065	0.06647958207904107	0.12585236711015244	0.04825535632808615	0.0383847163025471	0.04843584486591885	0.06703601939877757	0.015014031377971594	0.07447948826272764	-0.1411281533000338	0.02026116238956411	0.04914510233194843	-1.476951615849114E-5	0.09090751644783648	-0.006515579213550758	0.03362334938588596	-0.0076394366446558195	0.08211060847778756	0.018296105654881076	0.07012939679365643	-0.04432722579006058	-0.10423316507009321	-0.22499679121134838	0.10009255044201022	-0.056752681732165994	-0.010378929751842066	-0.14339721559099433	-0.14293965256070507	-0.04014927709647207	-0.03612236145242857	0.043612194704360466	-0.05467820105107409	0.0522287947059846	-0.05304022894415715	
27	3	-0.018267979220909548	0.012797119589953682	-0.020144670556429763	-0.1448686778563235	-0.014826767631521609	-0.07947775615292377	-0.05193886056440934	-0.02515157181462802	-0.0720154257930356	-0.054708459177185045	0.021974873162253366	-0.03337613651664046	-0.026460429217804823	0.006790741430779772	0.06417090255724961	0.03122864311533679	-0.05168394801373354	-0.03826431951488539	-0.022246734372581695	-0.0705791542245782	0.017299900120569898	0.01831063887688985	-0.08210752217772305	-0.04067699164136846	-0.12653365430209687	0.0036025886950794422	-0.11981533973865151	0.0878898154630915	0.09725942549730088	0.1050002045226567	-0.08145862549870518	0.018320467719915027	0.10694921130488176	-0.024498422791190248	-0.036197748535226844	0.0793474053337118	0.023032522529149165	-0.07400486633421108	-0.051987625233975564	0.04833583663777188	-0.1500469573557109	-0.06129152009014609	0.05743516909210473	-0.07634932253044134	-0.02047363857157252	-0.0805846933767167	-0.021256493226117203	-0.01553607975183046	0.1375054821087233	0.045265238045053766	0.031880740744845926	0.028231340180282925	-0.01204620367176232	-0.14505275452958086	0.17122822223185688	0.06206989803571369	0.05573708483079323	0.16555261081752304	-0.047147876131294904	0.09581013983489171	-0.05390683975865043	-0.0707047813807054	0.10390632949851697	-0.07500207418627841	0.11085014634306264	-0.008196078084960088	0.0036863243481933773	-0.12874802797949525	-7.523285468033263E-4	0.052886750435325355	0.057331384707341906	0.03180933197057248	0.07722509642937146	0.012601208523430893	0.01195813945411375	0.06007604664991122	0.04136520053822625	-0.07420101438459421	-0.11590430589042121	-0.025270893816544397	-0.09726750399098687	0.07297271073833504	0.023049137148529752	-0.039801511237442154	-0.06079971276463149	0.038889352941603325	-0.1263033322200148	-0.07855531942957861	-0.05917950403382248	8.456851403312124E-4	-0.004535713856697753	0.03054308149279347	-0.07126548702217712	-0.08525927406173057	0.06911014308204139	-0.05620019425269921	-0.0700907129401129	-0.008624579918267289	0.050913004256566564	-0.10231862737068437	0.07874249254089923	0.09833820403345128	0.1368642545303278	0.09823069258118902	-0.016039735511882793	0.012949104469016698	0.005334829767402953	-0.004484258556477592	-0.06874865199660123	-0.03534139565770766	-0.012734408206121834	0.09015755203421906	0.003970095821477091	-0.02874370944723769	0.2103080632373744	-0.00443158512812361	0.008358170233141698	-0.030651867882292287	0.023130244983332986	-0.13210564052408477	-0.08465690228380778	-0.01556645229449693	-0.07897939238171613	-0.019383522297701496	0.018051658037441028	0.021469134213841737	-0.04636729988443901	0.027375975416656807	-0.04904942503682064	-0.032162709890767006	0.02459030229470756	-0.008871105543068483	-0.03126544666466235	-0.009205365376983084	0.004012977401939471	-0.05621068168164599	-0.04601573518690082	0.058932481709974296	0.05150676875760198	-0.13969106533556952	0.03467247946992498	0.0906261384821826	-0.1263582779031587	0.021731927002665866	-0.053833403301918194	0.08253501535852413	-0.08467501772114165	0.14769008675743855	-0.03804847045086276	-0.0418989514255284	0.03608541089707649	0.061035734632934116	-0.10115001160799826	-0.1594154015223736	0.05622076010799953	0.08246063137534117	-0.1263119499827467	-0.040525635822952676	-0.0996577120102997	-0.03316803248393396	0.04245633239110696	-0.09643284477162771	-0.04967028005355632	-0.04425417306631262	-0.02725177024033376	-0.09303767748950703	0.006837612595564791	-0.08016800775948939	0.04647137590690845	-0.05851709093054781	-0.13493927973030334	0.03222404174533358	0.07729525666156824	-0.0456959234298347	-0.04662612654138636	-0.01689883573556587	0.048464556586044455	0.03913587159078915	0.03598716137018207	-0.07224895890238742	0.0040649457481321555	-0.05572310860537502	-0.04545958637911934	0.013706971438585866	0.10537258165893118	0.021428400358533203	-0.05187166953537621	-0.03641915750750943	0.031140610714399428	-0.13347881738944659	-0.031331291651833106	-0.02789119152848105	0.12062255917190848	0.06343929819580484	-0.01823118769590822	-0.0397607032542474	-0.10415839483444994	-0.019387980331492072	0.13886723224758574	0.059740561983388826	
30	6	0.08413008649565283	-0.06729243540137288	0.004973626262347352	0.05712101106773307	-0.09835850146469051	0.07973736228570931	0.1339330375132107	0.03892299638771481	-0.06362531472487208	-0.02866158128974844	-0.07633252056364354	-0.008901024681477566	0.0055063617739035675	-0.040284877715903875	0.06604018163704214	-0.03873223632906814	0.09438624752577371	-0.06394617225501335	0.15423365265219507	-0.06938203830188412	0.058260679453532395	-0.06659801862458518	0.02983760737498709	-0.004974757000142336	0.05838137649907867	0.09971345929840351	0.001322447913460881	-0.041673057954080085	-0.029784661809326	0.018518654378767912	0.05508598562145814	0.027582457264238452	-0.11331153141087914	-0.05308948306747177	-0.129172175970892	-0.10631143389681776	-0.03810232302880274	0.06415655406190861	-0.1516196562482829	-0.08037683043754068	0.10941200530542976	0.09635059332753641	-0.07328636016838043	0.028906839894980864	0.07620095200326986	0.08176671858841089	0.015980700295786857	-0.053654081836326556	-0.0688493066142076	-0.029924058152681128	0.02683958812898969	-0.09952111249392032	-0.06225065452197113	-0.010305956740687823	-0.015593500042901862	-0.052815703423267746	-0.04455994424686102	-0.07049510134122736	-0.041619319411478256	0.07173221322356026	0.03588619592161051	0.02543738726271325	-0.14225624655222513	0.06048501106994504	-0.07007092429247617	-0.12535530046283092	-0.0045746761608495	-0.01472723719292918	0.043345024499770256	0.049427354621332596	0.06038136073555083	-0.053582493209308864	-0.038712141297360524	-0.009856068592224671	-0.10298413363114482	0.03377145410221503	-0.026006765287181665	0.05313204128934529	0.10321422238325671	-0.02475863344792269	-0.0365918047600785	0.07965307941185401	-0.2168223899859443	0.02206417955786194	-0.012525308094985558	0.021081872771897	0.06633765466416845	0.0017284687618479067	0.031789397945445295	-0.04567460226568592	0.051993623149878605	0.03326374225951542	-0.046771065940767395	-0.019086502525479488	-0.12796035182322946	-0.08422058950315106	-0.031217758436739063	0.03427957561154815	-0.01322692016108024	0.12157727759961211	-0.12045272712544897	-0.12257675656623107	0.007203025047634176	-0.053141954707357275	-0.13572405612484234	-0.03872007610123586	0.06457854928916487	0.08906692000894921	0.023820366066691617	-0.025163658784825033	-0.027721132751590237	-0.08381555477138751	-0.08620748960874414	0.036979337286298763	0.01315213711386734	-0.004001276821022741	0.10236334837096228	-0.03558489339196201	-0.07211456835519764	-0.004575893352151434	0.07323706655700958	-0.10011607315852623	-0.055253594710347756	0.07407980621522595	-0.09184055340447089	-0.06267861911896142	-0.06350487773582697	-0.07378837844241178	-0.04130533329620606	0.03422874847622642	-0.08081401108774958	0.0010860876588889782	-0.09228341995894453	-0.03497204683204023	-0.05863460179386795	0.004204272726201343	-0.002662799110396091	0.05637155858241201	-0.011719403022744676	0.08612826816794344	0.07247035000206531	0.0291427823279608	-0.0029761722820708858	0.00856438006040001	-0.07089113106001979	0.038679773095849815	-0.022722243018887586	-0.020070309076893892	0.039363208966845316	-0.013428711560688658	0.011063184064500136	0.03158731871989255	0.188847915302568	0.04873929046970009	-0.07708875716209432	-0.09627284049574755	0.042656362416294086	-0.0452347344296918	-0.023571968122142965	0.15182544806244805	0.10644174012352287	0.01512652240209756	-0.0629106883527933	0.012520790082275472	-0.027054307900671423	-0.0073694716760998626	-0.00132556160032173	-0.029191859201010213	0.033361479425882454	0.08304417471875966	-0.04891908565383843	-0.06099511121828554	0.010136885363129811	-0.04338186444600561	0.11728004183099039	-0.02149339113144198	-0.008220074957549107	0.07988984669753793	0.007507870336386981	0.11411796179163464	-0.00855501857161116	0.1524749504310292	0.03974741810314616	0.04592756514466234	-0.008325553763981756	0.02736681692559213	-0.03320978093582603	-0.018240366487038532	-0.10414600659354335	0.1202858505283325	-0.03265920495904893	0.010765858577182747	-0.056003735775366686	-0.1255968585783114	0.06885166232238035	0.12982597281416983	0.013363454663565935	-0.16726418051273473	0.16350105832480055	-0.11018854248717902	
38	5	0.0	0.0	0.0	0.0	0.0	0.0	0.0	0.0	0.0	0.0	0.0	0.0	0.0	0.0	0.0	0.0	0.0	0.0	0.0	0.0	0.0	0.0	0.0	0.0	0.0	0.0	0.0	0.0	0.0	0.0	0.0	0.0	0.0	0.0	0.0	0.0	0.0	0.0	0.0	0.0	0.0	0.0	0.0	0.0	0.0	0.0	0.0	0.0	0.0	0.0	0.0	0.0	0.0	0.0	0.0	0.0	0.0	0.0	0.0	0.0	0.0	0.0	0.0	0.0	0.0	0.0	0.0	0.0	0.0	0.0	0.0	0.0	0.0	0.0	0.0	0.0	0.0	0.0	0.0	0.0	0.0	0.0	0.0	0.0	0.0	0.0	0.0	0.0	0.0	0.0	0.0	0.0	0.0	0.0	0.0	0.0	0.0	0.0	0.0	0.0	0.0	0.0	0.0	0.0	0.0	0.0	0.0	0.0	0.0	0.0	0.0	0.0	0.0	0.0	0.0	0.0	0.0	0.0	0.0	0.0	0.0	0.0	0.0	0.0	0.0	0.0	0.0	0.0	0.0	0.0	0.0	0.0	0.0	0.0	0.0	0.0	0.0	0.0	0.0	0.0	0.0	0.0	0.0	0.0	0.0	0.0	0.0	0.0	0.0	0.0	0.0	0.0	0.0	0.0	0.0	0.0	0.0	0.0	0.0	0.0	0.0	0.0	0.0	0.0	0.0	0.0	0.0	0.0	0.0	0.0	0.0	0.0	0.0	0.0	0.0	0.0	0.0	0.0	0.0	0.0	0.0	0.0	0.0	0.0	0.0	0.0	0.0	0.0	0.0	0.0	0.0	0.0	0.0	0.0	0.0	0.0	0.0	0.0	0.0	0.0	
39	2	-0.04757207373080398	0.011985709559737653	0.09496340194937956	-0.015014236317267301	-0.04759778532431554	-0.028507108827834512	-0.03836616140513753	0.028260408791606174	-0.10702019690623155	0.08284606365982092	0.09510050611951473	0.04832209290706377	-0.006089871689736067	-0.008483183020702549	0.010565768103111276	0.059325179223581985	0.07001744972192399	0.027507947066675247	-0.03933908597345344	0.057929174341452665	-0.013357740474174283	-0.09801779302587324	-0.04652731305787003	0.013282983106060959	0.13322815788044737	0.09449878914549958	-0.1455860915084909	-0.0941028497039295	0.057341403751259665	-0.022972745020390792	0.10001123947799395	0.03858509805831461	-0.07858488268039393	0.16341397766755442	-0.010201221401533003	0.014191820923699137	-0.12267426146420797	0.05209986835487563	0.012860451878461899	-0.11873613491024702	0.07288388788761047	-0.004994152144033425	-0.014623787610115466	-0.06403921136938269	0.05375091785762897	0.04452890776860965	-0.06951250484044715	0.04949001246391939	-0.10822774915337686	0.04394925716136502	-0.05542433779239693	-0.0655739138128188	0.045806844148880727	-0.06243219512332976	-0.07390790986037303	6.756526874500984E-6	0.021986727175233093	0.05539163522847599	0.07249205278732078	0.02155858486458594	0.06611230520829971	0.043800413647365255	-0.017806865447665313	0.005580126462345476	-0.020495219436468648	-0.0627025405730798	-0.003368238498035766	0.14235866301816485	-0.07264670367477871	-0.15619371056173292	-0.04491129148316558	-0.004535679114193863	0.04635200678204389	-0.04402184584937247	-0.09077218739661712	-0.006013421984008222	0.03310820493913085	0.10129684289187663	-0.011879391815267561	-0.02922271353726623	-0.02609806513956532	0.04585401567348125	0.01874888259037978	-0.038991532810575116	0.0043300226386745215	0.01787514478733909	0.07981774796944115	0.026874330526928385	-0.16756852484352763	0.1560925849374695	0.09376847585037633	-0.06988906597716489	0.09055542550189688	0.039599002461738336	-0.10460718952820239	-0.07421647831768921	0.12033406397034019	-0.018946629036859116	-0.0512806043232203	0.08108190407996764	0.02677716287992223	-0.022362002784672187	-0.09866890614122079	0.13070126383887684	0.035293439543723173	0.0015295850694833375	-0.030518272813289626	-0.06721077768585361	-0.010600081124780395	0.008861808566305097	-0.03776891330603853	0.02935551682515651	0.003011298064141263	0.07501134057782181	0.041225239625339444	-0.06876215836788081	-0.1002009174962947	0.08868803833300962	0.016379128667343316	0.03829303441216264	-0.017790741349584735	0.0635396164473421	0.03518438297560824	-0.008955672376062583	-0.02243365061647528	0.04545146738187558	0.019341209187763025	0.02466402169665501	-0.21014856631176151	-0.0500267558821563	0.027846303942636437	-0.011740862577174913	-0.00622245205709798	0.08731431757398626	-2.0931364585481163E-5	0.0031021251370785662	0.020937961748472983	-0.0022096622993548394	0.032648848879599845	0.018583745610164043	-0.03056584062048714	-0.00945108113386525	-0.07880818603340187	0.05829638347799477	0.020306432848313384	0.06777735127069567	0.05078651537154028	-0.07789848375607852	0.022171344275728668	-0.09628742849963097	-0.0821983285449786	0.05500356280004444	0.15848577922982046	0.10824492820454422	0.08204593868069007	0.060337408191331716	0.02911801185177965	0.027614157663463028	-0.1163291748732199	-0.07583514408311184	0.03562779086436247	-0.045838034572550805	-0.09720823383113865	0.1534021277400249	-0.035753289722156655	0.11832162510488943	0.05564922843640337	0.02303762956161923	0.059442994720065014	0.05735084140983093	0.03530330080321567	-0.041696782377109255	0.06545133710485956	0.052735032674722626	-0.03330611172355177	0.017435182602531626	-0.02244224491994326	0.13919082393447404	-0.07455833135211401	0.06429500192220843	0.030800554955271942	0.11435232374132843	-0.11291620286028324	0.13264918122029354	-0.0666141070749549	0.04096339659374436	-0.13483209268040908	-0.1345990792179588	0.005104316597398072	0.11359485557474484	0.04567068164419929	-0.193128050133953	0.015386950233978725	-0.09118692642933994	-0.04687420393944299	-0.0249225624613024	0.05192524945803971	0.06246151625630813	-0.012431758542307745	-0.049009014166553164	
40	4	-0.0943637322632386	-0.0038122758025569575	0.04724478725040983	0.022216547178144884	0.05296384967195173	-0.007161935892162919	0.021407388037002012	0.06200783711561538	0.19457403927961076	0.16097245476001576	-0.0578857848253737	0.002938819584891528	-0.07694408851263211	0.026527553032593378	-0.054824896825238216	-0.013049244673653143	0.050409122310369175	-0.008252620841471162	-0.09973792389378718	0.03255723224261441	0.008806727618385607	-0.06259933249683447	0.055983591148032544	0.027886818144375387	0.11024980861813706	-0.10082504074845255	0.1421912729948512	-0.07142522834162639	-0.0730648022176362	-0.10775919248912409	0.13923430657863484	0.0011947201234871019	-0.10259082937128039	0.03406866630366037	0.09483472783154206	-0.01647626270581433	0.06174597522535454	0.08122904193046857	0.00947570845022651	0.07216031973533182	0.05213753646948737	0.07628842302757942	-0.11504010772783185	0.04359687222136399	0.058730976032724994	0.04431545573243995	0.06251709087629585	-0.008796295469745828	0.01636256755522056	-0.07578355978596142	0.027579768392006678	-0.052366997318058	0.044827292210032774	0.14254495270680304	-0.06452813917941869	-0.014715733430254589	-0.007500534961348273	-0.08039144428072115	0.047370758196840314	-0.1344582103351473	0.032497566677966216	-0.016787831670410078	-0.09548698958926523	0.03669094560244681	-0.16825710789406584	0.03399573933348489	0.025031101492572812	0.055240914784761626	0.01893488487719631	-0.04606948411874126	-0.09049838455715985	-0.0030427732167514023	0.023118676433812182	-0.06636695054277808	0.08639642197653498	-0.03400160242701497	-0.0777660163262384	0.061081446956584635	0.022284270048013175	0.06638984005322404	0.04202746001826118	-0.09019816749198625	0.06422670903729992	0.040753550120686585	0.005649335759790992	-0.008142282482308577	0.09074707625586043	0.03719861690057502	0.08603903790853676	0.0016897281772900472	-0.04728454690843615	-0.04046624844204937	0.09238294583677338	-0.012825282011902427	0.02830285852173625	0.06338453997703378	0.002975096950968328	-0.002485457401685808	0.012161274835196223	0.0760881401534484	-0.056452599368071454	-0.07120242318748717	-0.13999202647654566	-0.14019615725885076	0.04591086742165082	-0.005865468149415679	0.008828556529847468	0.03439459165541619	0.03487868092522857	0.10202301281700943	0.05637178594250591	-0.05621712920467388	-0.028303667461875504	0.005980861283575024	-0.19584340762214336	0.033674482396139564	-0.0035413117911748094	0.056119072216531736	-0.06568759230366399	0.023186036895603432	0.03324817658840489	0.15127640571242706	0.09702630204251603	0.019609863325086987	-0.001662315984511556	0.023490291593555146	0.016334165234277304	-0.03501427192066683	0.01806649816495701	0.052454989988760956	0.061562058633855686	-0.031125350499897668	0.05140150671109689	-0.0054064456707537244	0.02704142276142579	0.12081665675573504	0.0968984178365438	-0.08176265429297147	0.006056163895865077	0.07963629076342577	-0.025192012558495427	-0.049892735747486774	0.07364636758494889	-0.033663376339925534	0.07914040921299238	-0.14003188329669958	0.005724073629101738	-0.18498872214324352	-8.84943062527395E-4	0.0051889880932132525	-0.018559080619079342	-0.029326072399292715	0.03477907927318153	0.10607227537770846	-0.04314573694418901	-0.10718871313251876	0.035909509664952315	0.12009944275668455	0.08353249472133177	-0.017528761382440538	-0.08506987848905206	0.12824957408881243	0.08472439990324293	0.07494898900060744	0.0516081432458036	0.09873808780933357	-0.026027892852870733	0.09833004455051729	-0.04967216437285439	0.052984637383391264	0.1981533581956818	-0.0502615621879984	-0.06246202298106619	0.05051614838171261	-0.04625798557447958	0.04517387463010254	0.005167551976971869	0.003704481112302055	-0.02145707599553083	-0.021557789577564174	-0.04643800628313981	-0.00997337597582849	-0.00882102655942686	-0.009904901915071297	-0.0947670554141341	-0.01327802575741896	0.050407228190763056	0.03658009275711781	-0.034605722160857354	0.023209702154773235	0.030274043110603988	0.06011185389244066	-0.1414195075667026	-0.02092045371124534	-0.04732966094243201	0.057547457284482816	0.09724432539144899	0.0019041959019500364	-0.17091917250477	0.021282301487163393	
59	0	0.0	0.0	0.0	0.0	0.0	0.0	0.0	0.0	0.0	0.0	0.0	0.0	0.0	0.0	0.0	0.0	0.0	0.0	0.0	0.0	0.0	0.0	0.0	0.0	0.0	0.0	0.0	0.0	0.0	0.0	0.0	0.0	0.0	0.0	0.0	0.0	0.0	0.0	0.0	0.0	0.0	0.0	0.0	0.0	0.0	0.0	0.0	0.0	0.0	0.0	0.0	0.0	0.0	0.0	0.0	0.0	0.0	0.0	0.0	0.0	0.0	0.0	0.0	0.0	0.0	0.0	0.0	0.0	0.0	0.0	0.0	0.0	0.0	0.0	0.0	0.0	0.0	0.0	0.0	0.0	0.0	0.0	0.0	0.0	0.0	0.0	0.0	0.0	0.0	0.0	0.0	0.0	0.0	0.0	0.0	0.0	0.0	0.0	0.0	0.0	0.0	0.0	0.0	0.0	0.0	0.0	0.0	0.0	0.0	0.0	0.0	0.0	0.0	0.0	0.0	0.0	0.0	0.0	0.0	0.0	0.0	0.0	0.0	0.0	0.0	0.0	0.0	0.0	0.0	0.0	0.0	0.0	0.0	0.0	0.0	0.0	0.0	0.0	0.0	0.0	0.0	0.0	0.0	0.0	0.0	0.0	0.0	0.0	0.0	0.0	0.0	0.0	0.0	0.0	0.0	0.0	0.0	0.0	0.0	0.0	0.0	0.0	0.0	0.0	0.0	0.0	0.0	0.0	0.0	0.0	0.0	0.0	0.0	0.0	0.0	0.0	0.0	0.0	0.0	0.0	0.0	0.0	0.0	0.0	0.0	0.0	0.0	0.0	0.0	0.0	0.0	0.0	0.0	0.0	0.0	0.0	0.0	0.0	0.0	0.0	
62	3	-0.001708675531662306	-0.008914840407967122	0.02663180365808964	0.09455443979765862	-0.006791268065384561	0.07596140400275644	0.030184381165625343	0.012292428798864346	-0.004546114752416805	0.12787332046615388	0.03441969120996665	0.039555702562888255	0.03761859537065114	-0.009321792937344411	-0.06456692782301879	-0.024526009212815544	0.04006726001927902	0.08779282015629225	0.06204363776260354	0.09567982683399243	-0.04748764049391278	-0.0594943871592434	0.0420355775113981	0.04254044210409156	0.10348616438575096	0.009783728135590626	0.015409074997705677	-0.0917923381718334	-0.06007805093655033	-0.08054371888095285	0.052567291238087684	0.0037432556291508976	-0.09688197051457285	0.08315752492663737	0.02044108966138204	-0.08258256991306391	-0.07538242865368414	0.03706655939535677	0.059853768827164054	-0.10675629543017177	0.1352521603296222	0.007841054089455466	-0.02094144296850289	0.005747989161136424	0.04314310256363663	0.08921251982716502	-0.030553836613857965	0.04014960999344545	-0.16245740594153726	-0.03892274241673793	-0.08329539137821801	-0.08515467731595311	0.023667403539484155	0.10621322596831168	-0.16165425200272657	-0.025950918493852875	-0.03621494484865856	-0.12776973218099	0.07213639433230838	-0.08754939998189863	0.016893586936070903	0.08527529009713533	-0.0829242861008295	0.07458988872173028	-0.12277383255699141	-0.030268877570390436	-0.013953298389547118	0.1411950855677145	-0.027069978831506327	-0.09696546498804018	-0.10527092604030375	-0.02740852808867064	-0.07152098904554036	-0.03231193698056359	-0.05699494576850416	-0.08645976419854062	-0.004327465925621356	0.06110935797192787	0.07254731313720468	0.011564684850848803	0.07582014738453181	-0.0949358991283934	0.0018729535039124147	-0.01608728993219923	0.04665818091824995	-0.03024238988109335	0.12775835430669827	0.04949086394130087	-0.006217180593717079	0.05119642348153218	0.026724276855644682	-0.05226027482176881	0.12978508568769284	0.14028838596528517	-0.055408931108095194	0.027046721490998397	0.09311090036291336	-0.012663113987743625	-0.12542930357862989	0.09389688869614829	-1.2701085077871602E-4	-0.04451630438414741	-0.1414534765484522	-0.026415922163790354	0.049206557178974215	0.04371696974152568	-0.019603481625802294	-0.09611068843637598	0.05475630540262773	0.02184441029595751	0.047281216582836905	-0.0724376242841865	0.04992830521367742	0.09363185356031017	-0.14838993196764863	-0.006903439047426844	-0.027763229277661634	0.054293473188381985	-0.002670405034127159	0.14493606698975417	0.03463926423349486	0.03217187681177812	0.07078840983765272	-0.012770272768036536	-0.019878444042204343	-0.011552250302856976	0.07388475625441368	0.0035106841988023613	-0.03456787573117236	0.017142535075511982	-0.005979454853944397	0.017725483981800627	0.030002496501345056	0.0275208282423473	0.016931377060702624	0.06733480734146186	0.04682924104816544	-0.044390189166017585	-0.021631445491633147	0.11136978615414607	-0.061641498911535114	-0.11649382908883517	0.0837043302833739	0.022918155110598658	0.05146134895197661	-0.08571505937669144	0.07949061633181215	-0.15315008301160724	0.06975862228768902	0.008105913862046161	-0.07011801118044586	-0.07947204645242514	0.12990750773634105	0.145989195066322	0.01637452081906219	-0.032824637079795126	0.12427947982194051	0.06500819863593787	0.06001433797496634	0.016649972852751313	-0.039555474200478065	0.0227773626709138	0.003633249226720374	0.08892889575150355	0.04057790657546014	0.12165503825553933	-0.0013483346360800173	0.07587392230780944	0.005426999556743324	0.056537311198237176	0.1406073578074006	-0.030676481419127058	-0.03248098093110817	0.1110497116771884	0.05797708704151458	-0.02972603062290436	-0.047184018109116745	0.010717158924171714	-0.07374711803608842	0.07081011015495096	0.013322904345531883	0.07594272601397475	-0.029376049444389946	0.04193043787643318	-0.1066548895731768	-0.02320653142979816	0.024052774104065127	-0.011826472944897215	-0.06435719668976572	0.1733435360911472	0.03434014899758875	-0.051790125521493376	-0.09286750588217409	-0.04213991278006132	-0.015504043152437412	-0.029524319719952948	0.10473262246769487	0.0821905828163668	-0.13145464279769728	-0.06672113531164314	
67	3	-0.01718178563828726	0.026105668611699544	-0.02320460162434437	-0.10051047343449256	0.0026029265910639298	-0.052615779840239484	-0.0806901663527103	-0.02805179265847243	-0.06874415532934408	-0.12654674117487508	0.03221986920348387	-0.03898157551190725	-0.027813436245788036	0.014704337604864627	0.05786002137480455	0.04971744092004244	-0.046845194444858095	-0.03550024161712975	-0.05106388994072856	-0.0634631722161066	0.03053146523799089	0.06289336217528359	-0.058808578219909584	-0.04390547636448159	-0.10520787543825588	0.03186176412206443	-0.07211123762646031	0.08562891894279318	0.07097369965373572	0.09092345144154	-0.08847491948060139	-7.473682489476274E-5	0.11249596882439616	-0.054245445093639405	-0.031872809990920695	0.08200794913561833	0.031477630557404934	-0.06282136976847859	-0.030616448171237383	0.05497753996429276	-0.1165173338121026	-0.055765444382833956	0.061327426583937236	-0.0041938577836785245	-0.06869264613557702	-0.06554892792357103	-0.0027935472319850522	-0.005819315240661801	0.10072066849046443	0.08267755944385956	0.046446416678000875	0.0984995755053967	-0.011588267442542443	-0.16014758097816442	0.11802224925041534	0.04331509698797578	0.045141283784775194	0.1518652102040151	-0.0520040474215178	0.10213189404926716	-0.014275519556408002	-0.04053671287277406	0.11316207002054085	-0.07425794668989871	0.15677149666013662	0.04478069050607129	0.005396542596302231	-0.0843845646237426	-0.025951622250576487	0.044684314604371514	0.08037567958156192	0.022966238931426085	0.06266907940040631	0.05076085353361369	0.019246250530366157	0.09465164314101575	0.0541541818617639	-0.05640034972835425	-0.09168380146333094	-0.0286325156924254	-0.07728984879727652	0.13222823559595595	0.021767402545842023	0.007033776872205874	-0.02713318992395454	0.03628406951468812	-0.13936484322665613	-0.04321842188078087	-0.04863811933601963	-0.014983633399897204	0.005148649633272102	0.005946262256600265	-0.11891941301054867	-0.06038822038463116	0.03667160228914116	-0.024494329765161	-0.04812024812642517	-0.00928933779405576	0.09946260684908971	-0.1091134861966755	0.04400849803692849	0.06764394449980378	0.13104738199383204	0.10137399000734633	0.004672077396809167	-0.01848226138670704	0.004148977766011612	0.04053418213448642	-0.06487927675309585	-0.056863038930496546	-0.05842977288257458	0.09997700069162739	-0.015217878652964154	-0.06505863661917867	0.1756411054185638	-0.030972419993716065	-0.05615562653634235	-0.04830063911104512	0.055670003005391704	-0.0968793794502036	-0.06204142621947325	-0.06452221959383558	-0.07182219001759711	0.012301300313209475	0.029119374651499268	0.034794808778667675	-0.04984249741139866	0.014643293039906385	-0.023094870336592507	-0.044778147561362475	-0.0024437118341860786	0.0024556806169511534	-0.04835477816102128	-0.001295840471238354	-0.011992968446007723	-0.1154160941102143	-0.04933895451920987	0.052727174244051773	0.005799743276855816	-0.12326079996140729	0.06894382862994364	0.10833711912779195	-0.09679354486717417	-0.007371972939518824	-0.06306014176540371	0.14492188271497103	-0.04614420877086056	0.184879363336902	-0.05244558952138151	-0.016303557065092195	0.04092687658697755	0.08243380980974237	-0.12585141425425203	-0.12782699199640782	0.04219456594842224	0.09217594093793705	-0.1280873937539003	-0.0790029116059562	-0.07204893589965528	-0.05117485081466494	0.03704346058848117	-0.06571350605524347	-0.034955076025159924	-0.06799317141640446	-0.055992674999470866	-0.12922695050344857	0.012846193593370296	-0.06279867152723433	0.015781708245579444	-0.07593005349787421	-0.15679940060513523	0.0564133964072609	0.06331028781390319	-0.09846677102591563	-0.045725392186799024	-0.004443780464772602	0.029085311021432636	-0.009299626213354976	0.04893114640669293	-0.039771280541243806	-0.0020631120950785333	-0.07978890364184271	0.015765397300580113	-0.012007408754411092	0.10282735772411368	0.037753484000121164	-0.05361504654266644	-0.04077170865170632	0.07091996626658964	-0.14049839495338062	-0.029415713744236936	9.016336458159178E-4	0.11509910537375335	0.021959994520428693	0.007644700281661744	-0.028208157871156526	-0.10571243624548167	-0.02823109960214555	0.12625452874547222	0.04531296378587151	
72	0	0.0	0.0	0.0	0.0	0.0	0.0	0.0	0.0	0.0	0.0	0.0	0.0	0.0	0.0	0.0	0.0	0.0	0.0	0.0	0.0	0.0	0.0	0.0	0.0	0.0	0.0	0.0	0.0	0.0	0.0	0.0	0.0	0.0	0.0	0.0	0.0	0.0	0.0	0.0	0.0	0.0	0.0	0.0	0.0	0.0	0.0	0.0	0.0	0.0	0.0	0.0	0.0	0.0	0.0	0.0	0.0	0.0	0.0	0.0	0.0	0.0	0.0	0.0	0.0	0.0	0.0	0.0	0.0	0.0	0.0	0.0	0.0	0.0	0.0	0.0	0.0	0.0	0.0	0.0	0.0	0.0	0.0	0.0	0.0	0.0	0.0	0.0	0.0	0.0	0.0	0.0	0.0	0.0	0.0	0.0	0.0	0.0	0.0	0.0	0.0	0.0	0.0	0.0	0.0	0.0	0.0	0.0	0.0	0.0	0.0	0.0	0.0	0.0	0.0	0.0	0.0	0.0	0.0	0.0	0.0	0.0	0.0	0.0	0.0	0.0	0.0	0.0	0.0	0.0	0.0	0.0	0.0	0.0	0.0	0.0	0.0	0.0	0.0	0.0	0.0	0.0	0.0	0.0	0.0	0.0	0.0	0.0	0.0	0.0	0.0	0.0	0.0	0.0	0.0	0.0	0.0	0.0	0.0	0.0	0.0	0.0	0.0	0.0	0.0	0.0	0.0	0.0	0.0	0.0	0.0	0.0	0.0	0.0	0.0	0.0	0.0	0.0	0.0	0.0	0.0	0.0	0.0	0.0	0.0	0.0	0.0	0.0	0.0	0.0	0.0	0.0	0.0	0.0	0.0	0.0	0.0	0.0	0.0	0.0	0.0	
73	2	-0.0946552403663472	-0.003563904515281571	0.035158761466776094	-0.04478383683170034	-0.07746980908408387	0.16446998140833724	-0.06112713428041495	0.04150119858663302	-0.081483681475015	0.1425269377569636	0.05961177517761632	-0.10843240439739918	-0.07013171595179106	0.06573543004584806	0.027856599089930583	-8.399413159103796E-4	0.09273374091315327	0.07183076104925476	0.06252833287505723	-0.03582321480386424	0.06815790074557472	-0.055091130077030925	0.04677922401650247	-0.055676165298894596	-0.03204488881186253	0.08552203858843145	-0.052553871796484575	-0.03781906578516108	0.0017401422660691332	-9.064903787108806E-4	-0.04771641325114886	0.13007559414129055	-0.0468979607931125	0.03126126350769093	-0.1172018961243093	-0.09246110447570645	-0.02481560608898329	0.025261039727086036	-0.11765848889542951	-0.09303913015250097	0.09335492030987304	-6.259163960480351E-4	-0.011107184650258688	0.059398651010805735	0.06935956753097515	0.11278964048084929	0.06435415330496752	0.01475020704652775	-0.04312034128592575	0.022307957698967748	0.015947884101867538	-0.11284625857745932	-0.01798406816609068	0.004823038176742834	-0.04894969967905502	0.04855603232798087	-0.06136614998842824	0.010944133537459693	0.056419454025187055	0.020436168567507334	0.01910119832551055	0.09046219663172331	-0.07863132636871821	0.05412186996410984	-0.05858586453621932	-0.010290820362925428	0.02858076794162821	0.06253941139330764	-0.07553099439766389	-0.0996491176347675	-0.08005668584464817	-0.07041537326569916	0.04735036823436695	0.02419800717528482	-0.10456413088417495	0.16895282087789096	0.011912052607100949	-0.0013440543098810734	-0.0013593627762342022	0.017332096355328334	-0.05795360800607516	0.16306922389612372	-0.006767035805730966	0.035166696945161204	-0.0025052936711510506	0.06721756919435531	-0.026735553665472485	0.04714340131959112	-0.02209660852694977	0.005492069784131221	0.06251277244207727	-0.11490996977012252	-0.004928445809746206	0.22927817011397883	-0.02011524081163218	-0.014180337641171742	0.007668366924036678	-0.03480899908210317	-0.055040338539431306	0.05988951283558724	-0.0029899434928730333	-0.050543315961060285	-0.06108970753403857	0.034161360371093	0.07533907735612744	0.10238819841461298	0.06724279392161983	-0.07167695222173266	0.020199470008819203	-0.028510251640817306	0.059992366940517926	-0.05654159404150461	0.015836557093653985	0.11979455252912656	0.06991780293973512	0.016059111156634803	-0.10931057626265989	-0.03897102019930423	0.054022404605406284	0.08381678753496374	-0.03958153991181159	-0.061302191861662934	-0.004422249115719199	0.1268063359758659	-0.06924731154933263	-0.019996522715380216	-0.09374093410989204	-0.03227034246898098	-0.12958302574043754	0.01619592735787231	-0.02235898918310454	0.06180856142761046	-0.14801403188239695	-0.056227634749260534	-0.047279343070917614	-0.07409238613194342	0.0865478132718075	0.03241629905859689	0.02017912789922753	0.004642763161459092	0.07187548679442365	0.022264134508657846	-0.016295643828832296	-0.004823713454031259	-0.05439675553075124	0.11065898041473475	-0.04710298895597492	-0.0036956844461514694	0.15851447896215495	-0.02134744172250722	-0.06141384913475653	0.013087946231907208	0.12895631891241946	0.028640874250054803	0.11656517916374004	-0.002901542106684304	-0.02362278286680862	0.02196372871146794	0.0192816264296509	0.07470371947096094	0.019708083997422635	-0.016424395123974932	-0.06426625246524047	0.12426893680115264	-0.011830665781378065	0.021881238900272302	-0.030755704764606494	0.06647958207904109	0.12585236711015246	0.04825535632808614	0.03838471630254711	0.04843584486591887	0.06703601939877758	0.015014031377971613	0.07447948826272766	-0.14112815330003384	0.020261162389564106	0.04914510233194843	-1.4769516158503224E-5	0.09090751644783648	-0.006515579213550752	0.03362334938588596	-0.007639436644655832	0.08211060847778757	0.018296105654881073	0.07012939679365643	-0.04432722579006058	-0.10423316507009323	-0.2249967912113484	0.10009255044201024	-0.05675268173216599	-0.010378929751842089	-0.14339721559099433	-0.14293965256070507	-0.04014927709647209	-0.03612236145242861	0.04361219470436048	-0.054678201051074064	0.05222879470598457	-0.05304022894415714	
78	4	-0.1446398770911575	-0.004195414072400937	0.04631440678236514	-0.09743824469906558	-0.04860615025086157	0.09845643432627792	-0.07133940436999965	0.08071089779893074	0.051988835028924235	0.1824462622519589	9.451159313931962E-4	-0.14481560410208758	-0.14145047903931446	0.10963054405499761	0.043855099501566436	-0.0031773898443803756	0.10069129375804155	-0.011486753190703834	-0.04494520702806734	-0.07750300956861286	0.11281681206729954	-0.04591567381662031	0.0617291589612729	-0.07126716833001384	-0.0518899904036583	-0.0036160657250978215	0.017642700873603142	-0.00993021297146739	0.008580778069843477	-0.009140956103267884	-0.01568612503730047	0.1540905082430466	-0.025649523588887075	0.022686139149434074	-0.06708291692669469	-0.04825046011278719	0.07033997330473359	0.0649388199626349	-0.15418100764518808	0.028612039535558288	0.01906936959192786	0.032240571983480376	-0.05173049645369275	0.05660086347299376	0.09303852732997658	0.05506504852948064	0.12950445247540443	-0.014919550956195517	0.1157359019325049	-0.016300877736609643	0.11533983687411181	-0.12103837300336438	-0.015862501044063587	0.0661013501831748	0.04803802256147303	0.058124672088652296	-0.04620319363230704	0.041682468109835176	0.05180516374890457	-0.018932957785929117	0.006465006120724739	0.008542092206570472	-0.0883629289117915	0.0394998542381267	-0.08208590685120204	0.013396287498006084	0.06307265185740585	-0.02232619719784325	-0.02725438767362574	-0.05684396889597184	-0.06276674230227983	-0.06071231706401125	0.12802599475426588	0.0014820956013513315	-0.01752165897020412	0.21082657006132505	-0.05431394206642903	-0.02128884903170844	-0.027767468466208166	0.052173166925987155	-0.0884685556913271	0.14884509956524725	0.04905134005462921	0.05577548220250929	-0.05229181898892626	0.08174937602692928	-0.06284011545478578	0.0539013000620189	0.025794550306460585	-0.03538841394710752	0.012655479662122065	-0.08422651071656327	-0.01242610346872106	0.12796320242474846	0.05261356634689489	-0.0010255092815096066	-0.05102470440307989	-0.0199744298750967	0.008686423585360516	0.04176928058460506	-0.02157440682495272	-0.06056414844321657	-0.052980635540124485	-0.045435015775033255	0.07004766562242264	0.07979871435853579	0.09545262639248754	-0.0063546539374061345	0.022837719582269607	0.046597471692457725	0.07742880554481607	-0.058656950363191726	-0.020281608135469607	0.08098228212202682	0.07500953800218386	0.07549400081757932	-0.06408448575098434	-0.029029828031937793	0.020128468622368754	-0.008919728856029555	-0.0442981718280329	0.0335170395878482	0.014507938987172408	0.13748055905568599	-0.05175067943068394	-0.015577182869424977	-0.15860730759292546	-0.04502708208910491	-0.08623511745546322	0.044158631349727015	0.028083505155542587	0.03539263558255223	-0.11869327210469353	-0.09732154727049329	-0.05185676177892161	-0.0234899307522909	0.11468551845735139	0.011796264489164082	0.07167228096221326	-0.03864235429193299	0.061148575904190504	0.06446205116356213	-0.029738414899805544	-0.0529721915403103	-0.027894795997552853	0.05877126459522789	-0.11505164645133	-0.033725756238015166	0.1320844613541494	-0.03451900018770319	-0.015187484802329253	0.03346437320696952	0.08092829809243518	-0.02985441867259712	0.08150920525978042	-0.046745169689199804	-0.07499949596028882	0.05258631959777849	0.03281468844591799	0.0755141605029842	-0.004072502487809732	0.04732838273730841	-0.014765974398006249	0.12924073504336658	0.010021548200994398	0.029738776255276354	-0.05998363123267373	0.06792192343806702	0.10281940094017031	0.05981821972526075	0.08170091609254607	0.03273026169723444	0.04678495971842371	-0.01020968938745509	0.0031289041269513705	-0.10088405003453031	0.07052822181126962	0.05740238164398335	0.044117486837091414	0.007569237042303169	-0.04126402590807877	-0.016588326597658336	-0.023729005301487038	0.042179792600899296	0.04592718573853386	0.07830159805560336	-0.02486223409350915	-0.05316459718986665	-0.22048472705614036	0.0016048648477438136	-0.06537454294594584	0.05648945999893713	-0.18136782100667706	-0.10044348928472577	-0.06197784014110356	-0.006922496283449117	0.030764898838974784	-0.10092498780690731	0.028090417225003897	0.012280783374705832	
80	0	0.06360122848191302	0.009520418466396416	-0.004672077242500584	-5.065610827202585E-4	-0.0012393658741315613	-0.12465950934643816	0.05917062876925651	-0.07655813444212893	-0.003435450634962737	-0.08817087376178849	0.007567433152177399	0.10790202347984683	0.028985290922394158	-0.09251589425162672	-0.03412641539202166	0.030968747563075195	-0.06977824689648537	-0.024245960116536677	0.05809828301869543	0.07293280676870514	-0.12443304258190409	0.001823272654043601	-0.030907109536039905	0.06721244621935035	0.022570951051912532	-0.0734161429783575	-0.020057819550977133	0.053697368876788734	-0.03088564287169807	0.005754736967900833	0.06251522189268352	-0.13613799844019192	-0.005851739748365794	0.0036573887841335356	0.11540538991240845	0.03405706996101375	-0.034160672697976846	-0.050420135287693145	0.12140136526937226	0.008052670354288369	-0.05513183122282758	-0.07100701706525213	0.013422298954287799	-0.08577411325936067	-0.050116672993279536	-0.011364116465122103	-0.16871408980122962	-0.012338331966649891	-0.08130681533580635	0.015613113340391201	-0.1259482420705825	0.02675672899029507	-0.00210913424562877	-0.03897965521136965	0.013093510733700714	-0.06491240909320148	0.10333071899419378	0.0069862652547625845	-0.02995609096118203	-0.03546203149207459	-0.03831643507843364	-0.04102526455476114	0.09014580797064621	-0.06081797352866202	0.03386138277296394	-0.06441681037137693	-0.08681716461286983	0.01589416754450179	0.06343654050837629	0.04052109717936202	-6.980622604026342E-4	0.05693195340415397	-0.08217085169402952	-0.005023196647457961	0.04898810439841618	-0.23652456072298977	0.059131148665707046	0.00830659754570256	-0.0074101099448764226	-0.007315196723636468	0.048779763209194235	-0.14867902294927687	-0.03346751705175798	-0.05702381903179334	0.0037303131243792763	-0.07910265290586127	0.004023018131217584	-0.08142000338739519	-0.0015007108508307031	0.05948467908927968	-0.04077658837298642	0.06320683334886126	0.018390653544380704	-0.16468183596747357	-0.007369099318568171	-0.004230038339621164	0.030730998147587826	-0.02798385411270164	-0.034101704977887545	-0.06087410315293029	0.04717939810614167	0.09394413694353972	0.05405418606113378	0.0218574623120098	0.01569823390343065	-0.09915177512859423	-0.06727976816137046	0.0299286393665765	-0.037457108320758235	-0.04032485623179135	-0.04544334819136152	0.12636631258826453	0.047603891118774874	-0.037034857110096644	-0.11299406223751263	-0.09316936183545814	0.06343346186450194	0.05933707988650741	-0.032846701629570645	-0.03501253011092008	0.04888719370543563	-0.01324279539505697	-0.04345943875128838	-0.20504517025266294	0.09802136587007629	0.08276047336435133	0.14116433912172904	0.026762527877278272	0.03662425826721688	0.018352142392543087	0.003624648058314676	-0.07048925954740423	0.1423110831699206	0.0929038715737397	0.06037417096251506	0.0796072801808384	-0.10760637953775139	-0.019393978728436574	-0.027408254287916163	0.059324810493369656	-0.045195719284493965	-0.056761382626910384	-0.00903071196486374	0.028761778374804314	0.012019968740219218	-0.16270196663994188	0.07517357854266388	-0.02059971551362293	-0.1430762730601544	-0.01433555815742651	0.00779852591663082	-0.056206958436530244	-0.08991012305148675	0.01054512132562525	-0.06915905229918985	0.0564557275760482	0.08922104587147295	-0.0073735811479690464	-0.05260871897908639	-0.11024835250635408	-0.012708830612961382	-0.025259173748995226	-0.003968787752189277	-0.12658126979712472	0.0361988847459709	-0.021234569201191912	0.06460596884636292	-0.03397264010521095	-0.13265034574971157	-0.046069041277208615	-0.015376907600573642	-0.0842242475182767	-0.07559228434435789	0.019600345123898598	0.021842807478645917	0.08223265120607944	-0.0536437350861001	-0.04166114695387261	-0.09636416453205456	-0.060063883002478176	-0.03069864007266248	0.010593056721490685	-0.03228584658882719	-0.04364740882219778	-0.06774466770206916	-0.06755491488478815	0.046805692724805864	0.017044002974642494	0.18879084112365901	-0.006731868349836037	0.03677389270793512	-0.004508292632984904	0.2024531280354029	0.17393660548893372	0.03946647705594165	-0.03238816402958534	-0.038307623282281135	0.113664918088558	5.019574968905349E-4	-0.057335545018394884	
84	3	-0.02618056300940411	0.012500977599850104	0.04591651307670997	0.10569343456651942	9.110578246675023E-4	0.05669123651464527	0.011708863961183757	0.029183918223453068	0.017276046608826735	0.09658220485121465	0.03482487229956123	0.03723188961279304	0.003475296644913427	0.002516985129175166	-0.06758846933919166	-0.012574685546567708	0.05836498678270781	0.06971169383053516	0.037152797873096735	0.09594315321075776	-0.051917450693356244	-0.042631627672688896	0.0495811466018849	0.03523798333442306	0.12895421419363218	0.011961820682554638	0.04702791557717427	-0.09700552269339234	-0.07341308621426455	-0.08341975660679074	0.07048826862097544	-0.009434013923170718	-0.0956064779039056	0.0878508695530649	0.046250916511022026	-0.08841285133691118	-0.06319034889217132	0.06072986353646302	0.07072465982026134	-0.08846328311998565	0.1435332399773972	0.013657247465892319	-0.02230319687467881	0.03134214299130205	0.027017138229898333	0.09257459972738499	-0.021099070972101813	0.046800054485637066	-0.1668557450440297	-0.011708428941412361	-0.07483900696685189	-0.07262012326683145	0.019180285196252162	0.10206734032174535	-0.168582755380248	-0.037667719962746364	-0.024265317056876762	-0.12259358043666028	0.0806267894947072	-0.09876606776274402	0.040071295228938576	0.07527916348716293	-0.07292932400069632	0.06439964326028126	-0.09786465313996341	0.005055020326410684	-0.018067633416322105	0.16580380886370605	-0.0315651251396231	-0.10435062357548866	-0.10665062717804502	-0.03763005744128811	-0.045475217680582845	-0.012189471806181181	-0.029504374504691067	-0.07477197628887403	0.013370765590638545	0.08324291903237599	0.0996121868413089	0.01870156388245098	0.06606857105417843	-0.06361239340048755	0.006660442184482506	0.0028967993175790076	0.061575902410474774	-0.020556869078515467	0.12214839258340363	0.07332655806201104	-0.0011667984596726566	0.04968389630608061	0.023414686276640527	-0.06262649702177346	0.11794978970570726	0.14098017967566784	-0.058166725234691685	0.033885871623081494	0.09910251408197687	-0.017862180470909123	-0.08891235641900669	0.08846739121887183	-0.009948880796736321	-0.053925453503638046	-0.1405343063758697	-0.035346223963287605	0.07808527787265249	0.002110463345332078	-0.01865685366811508	-0.06516142743289297	0.06837564175930824	0.028790981834853846	0.012318248233273599	-0.061910551984565	0.03319104562735395	0.07828409529528449	-0.17940027995830754	-0.018850151832274148	-0.06294457932977851	0.05895285474451682	0.012570018823540833	0.14577306762137218	0.04210922650768201	0.01416265748800054	0.07662494582572614	-0.023968934874486387	8.430161415205739E-4	0.015562388674693346	0.07013222263889547	-0.005486530572635818	-0.02613047571363384	0.02206133006822399	-0.006166562710802772	0.004666459363021934	0.03268329901788335	0.034258512511968445	0.003983635931549125	0.05428297613434839	0.04604863212526858	-0.07092996151488117	-0.022520927176186596	0.13606280138515506	-0.047974218364888147	-0.11738397987184318	0.08748291621584203	-0.005226554478828017	0.056821566316483094	-0.06226252728662435	0.0938453420378209	-0.16215630891764593	0.046239946166528594	0.010993892647487544	-0.07605495340187406	-0.05721130683469621	0.1154969267067033	0.15748424395897953	0.013984391983434914	-0.02108333225745134	0.1245841659452978	0.05770764017737374	0.04844942987992778	0.004845247748772604	-0.059277477865744596	0.06523826039979085	0.0030833828378714146	0.08058721006258314	0.029353891559086732	0.12219655643021521	0.010905884443584422	0.0997689484996615	-0.018627651022248035	0.05047050596445164	0.14895120144931398	-0.03440481076015225	-0.04527303656478301	0.0781822417957775	0.059408114966561704	-0.00541310698093846	-0.05381792463513166	-0.0013707152289069093	-0.06722109634640813	0.08620660456314216	-0.006733948262262285	0.06277267543320304	-0.011306119797108717	0.03647739324362535	-0.11179286730504472	-0.01799703125077307	0.024209821468395207	-0.017486875226505532	-0.031866247508812125	0.17612532953496238	0.03189206678313955	-0.03724216101004008	-0.08094715796031571	-0.035501752998176136	-0.005417232630649922	-0.03236008709932497	0.10003563918308941	0.08348721956268572	-0.12120705205791737	-0.08077146021747954	
86	1	-0.032972532980662154	0.0050981588374320345	-0.046571695158397625	-0.09716669897893468	-0.07614221708102474	0.05715660184452228	0.017994640256050652	-0.038723520802454225	0.0536084264962533	0.036472241108735995	-0.017641748462945445	-0.07208937971083926	-0.1105235338548607	0.006704531268805846	-0.011475032988690934	-0.03631953669389966	-0.021700992190588003	0.004954084855979882	0.17781711121506089	-0.005159372114830686	-0.05325689752910966	0.01775991709224934	0.09943006245428643	-0.025370333238459483	-0.15006187442869598	-0.12462990905620472	0.04637312942494503	0.12200474796694334	-0.10379832920513436	0.004054690884018805	-0.08383923492013072	-0.027939960611682576	-0.002925133251839372	-0.10785391554381552	0.017576725642660104	-0.06801916941837381	0.08292981883758896	-0.08769231071792166	-0.030663128822202974	0.04530487128638525	-0.054939633594137206	-0.07218766931843562	0.015057192245398686	0.045667085804353864	-0.021644494875912634	0.08070079751698798	-0.08071215587427412	-0.04959514833590787	-0.011840501875672125	-0.01616678567091237	-0.055340918235006906	-0.08648983025083129	-0.08929337510760961	0.035213669673466653	0.0632526820104919	-0.01866761882807705	0.02266786877666311	0.011553588622482819	-0.021166477793708956	-0.0459766684526813	-0.10728035590740968	-0.02802942442650531	0.02143407127917072	-0.028382483691359966	-0.05692835093927644	-0.045929936347517596	-0.07952776802851824	-0.10435718091293537	0.07642356046608897	0.07263678600004884	-0.07951513917309859	-0.024580016966784142	-0.07454856839314555	0.05140265748452644	0.017725921571875802	-0.11118157496874383	0.0446593924158261	-0.1010465089512939	-0.0238753763138701	0.05855222312762462	0.010226891838072912	-0.026627186279798827	-0.061907841612359335	0.017153245862904617	-0.032482971799053476	-0.04783847648628502	-0.13723414789775387	-0.07271930268287563	0.139321868926522	-0.05646686484330191	-0.09345911540446053	-0.012085699134872965	-0.10105077047097198	0.018881769768285754	0.10023087839852798	-0.0017936417685770268	-0.09747459598421962	-0.06323895882331294	-0.0407634770958275	-0.08641660162495618	0.015844199474121634	0.07860322857834952	0.08706774527734552	-0.08279501979531687	0.10160260907359067	-0.021564392342447333	0.031086791353760704	0.03793668015336622	-0.022722603553584367	-0.09933067287677648	0.07930483757068306	0.10561177624528607	0.08979296738311228	0.06823011569528775	-0.10511082459552984	-0.036671863263289764	0.034898656722920036	-0.06637646827948057	-0.018656080350457658	0.007305990555679941	0.0406445602310701	-0.14214842134804487	-0.10489622753421883	-0.12519771090612863	0.0854988470072666	0.04693848542206082	0.01610786204540939	-0.05252951592739991	0.07631820079468449	0.12550625272594781	-0.044381871488246925	-0.032984549045567926	0.01262264985809187	-0.05319023729494823	0.03035542035580308	0.04572661014795084	-0.02653961791224497	0.02285810480510406	-0.02537141773006122	0.05909087789989949	0.06957358263782058	-0.026984767694764475	0.017684808134417564	-0.021709813391897332	-0.0613576990001142	-0.17365787574241348	-0.052116402112070866	0.028359298668827658	-0.014139878471489519	0.04200034498705057	0.010497086328525744	-0.11457257906324839	-0.12637792086986332	-0.058478572949924465	-0.02252584049904061	-0.017326997903480666	0.03823377766139878	0.013342689815439478	0.07470736509211062	0.01873594406559853	-0.024367889384673488	0.014594650334607264	0.01247711989140177	-0.14517229251425048	0.1063706489631557	-0.09875888369147279	-0.019997127811275182	0.031737642688693404	-0.07557992408917161	-0.033740154355817405	-0.0012160546531099876	-0.020426991682368997	-0.0954534636750588	0.010123727255416657	0.14511230494211172	-0.1063900923016534	-0.004702299934918694	-0.10332212843175587	-0.06822794223712593	-0.06500170467525392	-0.0761553028522639	-0.0821336849676777	0.016380743107527043	-0.09770012722396057	0.00362917990517771	-0.046136066764917105	0.14949974614042177	0.030613818753995756	-0.060405175980078094	-0.005206097473759231	-0.1147370271000216	0.204990416337795	0.025795039600378385	0.16054207761104197	0.023569866737909027	-0.046861360896202464	-0.030628126169915098	0.005167091091290793	0.1001133639714488	-0.10047096036298356	
89	4	-0.16223973637323727	0.05655728652120774	0.0334051792665521	-0.09529156971624984	0.07324886600660394	-0.03938195713249276	-0.14846647031543705	0.02124332613210513	0.12907977785207292	0.15828433459234612	0.05598746404306752	-0.05825990330635118	-0.08761043948059911	0.0984778612418735	-0.04786628971470733	0.0287681331643257	-0.023005694951619846	0.039728097563596645	-0.19005682387999576	0.034600341450600695	0.0039551986077283755	0.021990205094136794	0.013930975859170905	-0.023083833607125334	-0.05175258067156435	-0.12049811223727457	0.03064789196215953	0.016784998168410854	0.023875895793760562	-0.04524757363444135	-0.02240477960021223	0.05698426239413432	0.07010117007766356	0.08318878395248995	0.11042552286343091	0.07404743015643289	0.0800545422074887	-3.004396053835998E-4	0.06645564573275038	0.10326518545570997	-0.0850630040031304	-0.05432020667797652	0.01819566944484351	-0.00589950396655148	-0.0016817284414467287	-0.05022873734868324	0.05971271284821384	0.03987521395341732	0.1357002351195475	-0.004719571748788418	0.043879256279159014	0.0075475171380526215	0.05782609764363538	0.08737859026634204	0.034954107838065004	0.07056975413481138	0.017015717403271544	0.06760664659103592	0.07918048343638737	-0.1076575495651051	-0.025856228248707713	-0.03191485497846746	0.06368197258326894	-0.026401636855711553	-0.014603746899662005	0.11606819070069552	0.04263083006416297	0.007984880296502484	-0.03975934677197277	-0.08302812074509766	-0.10189850688140269	0.019403962304797778	0.11105908876851157	-0.011179484946293491	0.10243223881325698	0.05927390412447302	-0.02933425548485133	-0.04538701447886571	-0.09945809921347432	0.06171788741795892	-0.002264344556566157	-0.03296472146106767	0.24002104059745621	0.006839098274547119	-0.02155598492552936	0.01681663078972945	-0.06652135315766498	0.036996050178630314	-0.007431306393129233	0.030545450989768477	-0.05076258212588271	-0.0689259339769163	0.0684684376941576	0.06402005140884331	0.14983377512835136	0.08130200940451747	0.00817352840095901	-0.036884142994249	0.009948544360067072	-0.06997817147176252	0.09037774299450718	0.06753690872225392	-0.06510061934648655	-0.005322922767226932	0.16084681013844696	0.07118163309480156	-0.010706918806418235	-0.08142050597460443	0.0019331886525023746	0.0803615436091557	0.07677906229882263	0.032120839467670206	0.06422890602357154	0.012043359754719691	-0.009187771404016509	0.05747478825671893	-0.10935969714781185	0.040340006107805595	0.05670575526528517	-0.0037691734712010697	-0.0793356071494362	0.15662796976982482	0.08225468056618238	-0.005288710183534106	0.05910889697403201	0.04942014468787864	-0.02203273146842619	0.04324475369386353	-0.0018573341897254474	0.00228133351656519	0.1068475991609588	0.006213013198422391	0.04917725309975335	-0.017459696629293458	0.03177381258507392	0.024649767680567945	0.07684286357531728	-0.06470806832004583	0.061542923124080176	-0.08421698741183563	-0.05944998732002573	-0.008182926287451663	-0.0014837505164453885	-0.04069462240072749	0.07616206059157754	-0.04914753597338823	-0.0389330865582689	-0.05148454601410058	0.03022642641942678	-0.012311020679934576	-0.019441679521752398	-0.02069178911929865	-0.11351546554049094	-0.041033162340048876	0.09827712438386237	0.0410741427352773	-0.06093589025746314	0.09527088962628355	0.04684705490116894	-0.10239517200821058	-0.11357449052392861	0.03690682822647178	0.06582849667891498	0.07769319709936533	0.045431337983936414	0.060454405452164864	-0.03358304374661591	0.07492264117881203	0.011851138143498178	-0.02548620943595925	0.13321665242160802	0.05247688408440495	-0.0013956059665735721	0.053704465280934685	-0.12277055991664536	-0.013009376865605233	0.047688275192083386	-0.031823897835979	0.010028289699134418	-0.11445309455563799	-0.018724095471927875	-0.13916649330356873	-0.06611538107178905	-0.021371425982896	0.010238474789037838	0.009051797600450252	0.025211467274080093	0.004366622331201598	-0.019222858849885383	-0.10209045430349843	0.0072566828098188495	0.019867163594082665	-0.06677530564431404	0.07105423081277444	-0.10583414733025306	-0.11265208039072018	0.024749092955363077	0.10704894907342621	-0.1748327890120048	0.11469486736247411	
102	0	0.11637916693199199	0.0081317847532893	-0.01425052383907202	0.07399382097284096	0.05260588848138093	-0.15044075412576352	0.060133403780530954	-0.05857356498370682	-0.021645952338169773	-0.15146146937371646	-9.75525794904342E-4	0.1543345434110267	0.11520109680548847	-0.09932638034867362	-0.03611706143849523	0.02118461848990457	-0.08315944235462022	-0.021871505545020105	-0.01937054379522066	0.08132737978158329	-0.10403919452494795	0.023470478802294272	-0.0742611111190681	0.0737289028712812	0.08877386836809423	-0.012101911407623098	-0.029388388641326344	-0.004842979785079344	0.012505468757219026	-0.0018329024228315748	0.0655454625072354	-0.14301385062815827	0.013740156073161633	0.023074553009856336	0.09574656819258057	0.08016053755661547	-0.06656695691984169	-0.03354540043602249	0.1531112001511272	-0.006061755366300926	-0.03603709704303422	-0.0196173503160639	0.03067311298792341	-0.08351663446926356	-0.07193230648558892	-0.07567510859996165	-0.12958117703028363	0.01671632166170291	-0.07831280884929294	0.011852553022797335	-0.09185659428220798	0.10663605710187372	0.03299870225120997	-0.06014429382605264	-0.025634543211508196	-0.058348783044886	0.06504590795981365	-0.011730752205157678	-0.03561943841671038	0.007090947429533746	0.007508504909249784	-0.03778528622943149	0.0854264007426734	-0.04880916801536394	0.0706658771295635	-0.022368788349707236	-0.05194765606734311	0.025789427259132795	0.03149382775046324	0.03417223381867487	0.06298469118923555	0.06969580303416713	-0.08295006341733493	-0.02739653770156295	0.03507253537088162	-0.20991380750725785	0.035230202828886927	0.04518292470880209	0.012734612880122483	-0.04813486498244425	0.07230537397528751	-0.15488061790149563	-0.018507257365559745	-0.0625440740114862	0.03255020942990733	-0.07588628733814537	0.07519605784809723	-0.04661650170676195	-0.056927863490325484	0.06734879121992089	-0.00959151989207791	0.08522069088934128	0.03853942058665033	-0.17935033538151818	-0.05312248394093139	-0.015872890799776693	0.06363637325263206	0.02343395399995757	0.0072370324575066584	-0.028921389792782106	0.022397094567553708	0.05363007959673925	0.030380981765371826	0.05008014254006576	-0.06775746174139889	-0.09806537003924488	-0.09915587029168246	0.0193426688938863	-0.02690968957405943	-0.009152016136468476	-0.08734095643043521	0.07233497389068909	0.0043640290724547585	-0.08428096209990323	-0.06580806530371237	-0.07348631982858472	0.06116077643571203	0.06507297290129092	-0.034324367494217196	-0.026142489858285885	0.04017426577658476	0.03295267101942639	0.005271002510508702	-0.147034515111533	0.0581447873645706	0.033702328039208314	0.14533186169515255	0.05024344689325751	0.049260752101583094	-0.04957358478864594	0.004452222641033735	-0.05600164645774745	0.14245582400959947	0.11262349533490477	0.05415866686182226	0.05275348466890332	-0.1037000470992056	-0.0241122020256159	-0.04090014867553532	0.025576843228526398	-0.08197910996917879	-0.05132141999397246	2.003831715879378E-4	0.05148991484316988	0.05052458001417992	-0.06935104949296135	0.10636147490518996	-0.003615638854501645	-0.15042845661792312	1.92377091363914E-5	0.014243139244251008	-0.008324848157481917	-0.06241829264803291	0.03691044348293906	-0.08072985729370954	0.04745770691139414	0.06433180076084839	-0.032568235947674704	-0.06585295315584694	-0.10611516268117935	0.003625019656241335	-0.033239392842582274	0.010652613695712524	-0.08916370992819261	-0.010955532618943966	0.009584136515554668	0.06799418383216833	-0.06594599764438759	-0.1049433710932743	-0.04074328713534451	-0.05533916506871347	-0.05711548845015317	-0.0405473307092018	0.014940644317247643	-0.05112919171421066	0.1363167230986414	-0.05792621758288636	-0.013754238276105476	-0.04901697120828881	-0.03097962030657754	0.03694666975489102	0.028653280507679266	-0.018580249556851204	-0.02432571969175305	-0.057010881113662405	-0.06798327282456536	-0.005868863430001701	0.04130823776663441	0.24401406224532582	-0.016527617203877697	0.08131670259112846	-0.08856733205212859	0.18274150363208438	0.10222188336149168	0.0411551047420038	0.014807221061068732	-0.023616097991229806	0.1058167329614144	-0.04707681745772095	0.004896453738526261	
103	2	-0.1080830617704894	0.005801296490489241	0.06706324067423647	-0.06948537755228142	-0.10198150328623337	0.12224387233536631	-0.06137003358913831	0.02360706246758011	-0.10814694748417177	0.16183482828089701	0.09664866914021637	-0.07253918817779724	-0.08503123771575238	0.04004384281466308	0.019039802848080403	0.030601106182749766	0.0953913288833055	0.07499335388647219	0.07800865212046888	0.004633958507408165	0.021217932795655304	-0.08928301951767667	0.03278900180824766	-0.03329086257192585	2.814278961737892E-4	0.07522593050425147	-0.10184674319998357	-0.03781921806979575	0.0017323250719426784	-0.006671208559387625	8.214647338409602E-4	0.1043609026174287	-0.07512011407766685	0.08305966940240797	-0.07685901756027046	-0.0849159745849511	-0.06441226565141926	0.022156519811697854	-0.08045771438990555	-0.12174056858398889	0.09242948062195235	-0.037608722583449744	-0.014186908690246042	0.01240158204788644	0.0754425083848302	0.1359202533489919	-0.015784271121575395	0.022138806575480917	-0.0985685398938724	0.04198085207833295	-0.04654784119054678	-0.14245952558505154	-0.00959204066501618	-0.0190055220927348	-0.0591522854871282	0.03013650297757667	-0.014128563591384398	0.0371439200299985	0.07468505529340337	0.0029897761496863098	0.01718060398853432	0.0904538604723847	-0.05304913661331835	0.033725647827230865	-0.0631890715975317	-0.05436758153087282	-0.005229363279076001	0.11110817188631504	-0.07412350419552076	-0.13889538859718617	-0.1127414175160867	-0.056575536349431965	0.040762537075380696	0.013539245032904115	-0.11185036312087361	0.0910501355091855	0.04484220862190381	0.023268707890002963	-0.01566049596378792	0.017051309615149807	-0.056148195230897174	0.13224395882937615	-0.005014580872052422	0.006784137534861106	-0.0067325618830956805	0.048467956900105774	-0.018450853662838527	0.024576777619847966	-0.06398612131664005	0.07278055975107198	0.071173020874494	-0.12567215391109787	0.02761564890960767	0.19822783720974885	-0.03983563350365612	-0.03314544426970141	0.048618206370721735	-0.06222532861992519	-0.09077650640967225	0.057151139417466114	0.029157792595905098	-0.017190683498044486	-0.07322869154893011	0.07634687447283287	0.11621979964021131	0.0755894179547609	0.04331462777779796	-0.08530234417757833	0.0031478783975610377	-0.042407615783550484	0.046461799426027656	0.004584935999339079	0.04380532083168452	0.143413980874191	0.0377453434692157	-0.03659332370208655	-0.12601226913187505	0.007329185046695905	0.05207556589025588	0.08392770375792419	-0.03153392356260621	-0.049884401499929884	-0.014068300231045175	0.04842789674488965	-0.03550743720003349	0.03222755003005156	-0.04578081914032639	-0.019670641140762297	-0.1877950019325215	0.020800187290702973	-0.008727483796654249	0.03393057789673663	-0.10488308740639982	-0.0050557462807562705	-0.026072690494979754	-0.042453595543891054	0.06230516358051949	0.024501487314356394	0.02716570298444855	0.03294903339645276	0.05412751607340684	9.474876386971047E-5	-0.045877314881421646	0.01618730021805797	-0.049981218158958444	0.06025728650279929	-0.015971758415285787	-0.03995372577129825	0.12500446611166804	-0.059548360304359546	-0.08754155810763015	0.0016943211116911257	0.14112826595435302	0.059111575205233954	0.12824157533211575	0.03737794306545887	0.016144522863678592	0.03756239009457057	-0.028613710510780595	0.012015373447887563	0.019104480308540808	-0.03599284262426129	-0.09706990512750671	0.12887984300339755	5.5409359554306546E-5	0.04838658585140328	0.004651306373721635	0.07340012120173184	0.09871035873219135	0.04998647777383722	0.05855923275472343	0.005975966508131139	0.05702873450418766	0.04106717782944647	0.08219531745904485	-0.12331752092579577	-7.076612311335341E-4	0.07275167689906308	-0.06326707162564353	0.0824152312386981	-0.021315697728717452	0.06364678799652719	-0.058637742851225846	0.10572977055326917	-0.025536119006158438	0.06278600484222252	-0.060009619563784075	-0.14706454816346884	-0.17886025801421113	0.13265915316221474	-0.04055195326474995	-0.053868185781475786	-0.07490415337049745	-0.10038202547110614	-0.0474359611210729	-0.06902148861291275	0.04614717707768488	0.006120125929305412	0.05194356642637645	-0.09543030696566994	
107	3	-0.09294495582831538	0.010954727557301737	0.03156567946209745	-0.14490174787488785	-0.07461172021683364	0.02756973178841436	-0.08937704640353095	0.0215694153220771	-0.08859567796579038	0.010805757898017198	0.04964139980514427	-0.10446954798696086	-0.1120626557986587	0.054128766567090925	0.08795110755615146	0.053814888140226065	0.050916674418894185	-0.0326203739372922	-0.011263750496138248	-0.09018032802998982	0.08036200774445125	-0.015796362297984166	-0.016784595824495995	-0.07183629712061611	-0.08657147743643279	0.06634675644114317	-0.10082474178664973	0.04915707757079447	0.06316383433588194	0.07595095724240776	-0.05202128130986053	0.0927905434916811	0.03291494644911649	-0.006445111982092898	-0.0917462998957764	0.011430088822433598	0.018564311689419084	-0.005057484231003168	-0.13648356719461874	0.002230652687996173	-0.04661388585157051	-0.033531487575403675	0.009225269384138365	0.012774082225039445	0.019991198597838596	0.02485714159671834	0.02718583546199863	-0.014414993465666931	0.08194238323223252	0.07677047340813321	0.06672114303631237	-0.03455643998270462	-0.028563142596245372	-0.12883826832958126	0.10332898936783325	0.05353289407338918	0.02245862836619172	0.15723653395845957	-0.005935083577568361	0.0937087387681168	0.0046619926851701595	-0.004564692755803862	0.023730956480420905	-0.03322896045416507	0.06911756946079456	-0.011850589967360218	0.020221393210299168	-0.04121565866729973	-0.044855951558914565	-0.026088959167867083	0.018516923931551584	-0.027510707354213248	0.11449945913587121	0.04069980743172298	-0.04514905663364563	0.1817424165329739	0.039323875937940435	-0.029622947050251237	-0.07946460441675317	-0.004800529247571301	-0.13013999653816252	0.22395098233829377	-0.00655562102408171	0.026966963793948726	-0.05356642580406854	0.07950707928454033	-0.1347100696303907	-0.01398048709625917	-0.05992541685365571	0.005879860504249164	0.04487377797557465	-0.060137043410603025	-0.10028384480197089	0.03536404097502352	0.00754992904721615	-0.05817797692360868	-0.04306574823741355	-0.03319525831041574	0.05520763925638194	-0.03471047136896931	0.020272600567163047	0.010732250604352879	0.06857869066195194	0.0937397085033754	0.04633054248094581	0.019067042334650324	0.06193653602577697	0.026918282488145137	-0.047162559729263094	-0.047938742656830076	-0.01872231433085122	0.0654666555136136	-0.023309023570912357	0.030371291211908995	0.19242528753356938	-0.022459423564110514	-0.0939005801992718	-0.04278228301097461	0.053724532309758315	-0.07095530721892464	-0.06378039626826958	-0.06805201154665365	-0.07386202463567426	0.0748153187907294	-0.01629059459241547	0.03614860100956355	-0.12435250382554645	-0.023238010889712363	-0.13960469655168117	-0.008088196298473637	-0.0034443752212634437	0.016190236450431078	-0.12674786442811597	-0.03355641233575908	-0.046141841450636406	-0.1105383132396644	0.014813861089311722	0.06736477473965741	0.045214478875080164	-0.09010208106047711	0.10972493244716543	0.12436733938292853	-0.12364418839734133	-0.01563982549986303	-0.09299560007041394	0.16360872935215487	-0.0894301988314357	0.11923238869626603	0.04005070577049382	-0.06355077948819596	2.2517514114131384E-4	0.09479584378267422	0.010485606216609428	-0.08774541493267786	0.09304773528977645	0.06289172575894568	-0.12029302855324987	-0.04128629676734457	-0.08172241890563536	0.0015829592394352005	0.06058180459059468	-0.04952601255654138	-0.0884659858074056	0.03888274105158656	-0.04883265279167752	-0.07745645829263574	-0.0010327417856655103	-0.011686287982469595	0.08386078647210055	-0.00686354447127445	-0.09118759853694273	0.03636475945949812	0.09199058147530745	-0.08158230665385893	0.005979264866431259	-0.07497503296576494	0.0481745648573214	0.06647475618724841	0.026934880413101752	0.011968383848196762	-0.03077478173482057	-0.014716610736446522	-0.02313078954500986	0.05614493471625432	0.08690886470034606	0.08872403905617982	-0.09110848707613517	-0.11724647833565745	-0.08496706558658018	-0.0516151845495573	-0.06444839747746774	-0.0062941225122141314	0.013258911458830427	-0.06699414818149042	-0.021160496072246092	-0.026007486953475056	-0.06321508728676778	-0.0844964043913032	0.1718712231369599	-0.01609343283106729	
112	0	0.019929111318025564	0.011059285874948251	0.014874730875150732	-0.04637297328073566	-0.02485658629290088	-0.1245349900450654	0.048204321982239014	-0.06792977581056724	0.01925103970071208	-0.035992861249481006	0.01086809929989446	0.08027043707755126	-0.02644587806934619	-0.07607714826769975	-0.02647286400304069	0.04092444709650199	-0.0489835676543265	-0.038325710608899236	0.0602492322464706	0.06393179459843576	-0.11857286414450359	-0.01882227921532747	-0.013208535602708469	0.059030846168716886	0.0059216966404472375	-0.1027555633959694	-0.01914165264457722	0.06973894209852095	-0.039000400415464466	0.003846078322511076	0.07798959446615142	-0.11525513905777228	-0.020050640227066333	0.014901282384116771	0.12701996704497842	0.023541228640932013	-0.013966501755074487	-0.03945249981834407	0.09462026889548436	0.024206842218268514	-0.06675263324656341	-0.08301472801994214	-0.005585485277360903	-0.0911438230373185	-0.025532071453221294	0.010804204359013215	-0.17169956130585892	-0.02416192226372172	-0.05823250937527751	0.01392573530978349	-0.11976801276322475	-0.020124249927221116	-0.010775515383365264	-0.022666337964467844	0.04041008845712118	-0.06214908428278736	0.1204625157153882	0.028804688275675592	-0.01716692066552182	-0.0576774131847237	-0.05010816363748415	-0.05205082820747466	0.08266396149172517	-0.06509044333933653	0.008103934793285281	-0.08251838638762285	-0.09025560977060726	0.011308367759777045	0.07464843862128509	0.029506037952273877	-0.030650223007065103	0.049689625048725934	-0.05373784890359578	-0.005744873840304371	0.05898078827438918	-0.22684034337181422	0.056306095037104736	9.588533781267543E-4	-0.02305851701959324	0.014511018057388483	0.025761662357927713	-0.13470053815218822	-0.023671196266701167	-0.052208540779138723	-0.01924400509456074	-0.07063542574564591	-0.02442168552205594	-0.08706374338376524	0.010734180061884124	0.06478100391676642	-0.050352551753108994	0.047413238889507596	0.018995206241991146	-0.1658941936202	0.014682608059470933	-0.006043091544612739	0.01802513210428905	-0.04815807381987262	-0.04329327998724303	-0.06449124538631958	0.05488423342226903	0.10115539612096121	0.05001595699946646	0.00858820435767252	0.05474698259628729	-0.09882947711902576	-0.047619883063830054	0.038118151482940996	-0.04083149922519296	-0.03435888193111326	-0.02593253831426122	0.14646646008501077	0.05640818949686701	-0.01272579275609828	-0.12069672169380097	-0.09297891625735612	0.05736354186946881	0.06750648492742944	-0.03559010002938017	-0.0519252231370725	0.046654085317149895	-0.0037296873682223005	-0.05355794676309397	-0.21787869239636526	0.11072145102982882	0.10655571633572868	0.120083531278895	0.015516566350121094	0.010422125868013471	0.046372103465822635	0.017650181980326	-0.08020295303149245	0.13985518825444596	0.08193317561377918	0.058752296168914184	0.0982606694621773	-0.09453073176479042	-0.020928225038937646	-0.004505442854109561	0.06391156384559345	-0.03303015727672289	-0.048097762827045615	-0.02600561785069136	0.014673709050158952	0.0029198854544872626	-0.19665702000282656	0.04950183197663955	-0.04370123514008079	-0.13469995893069744	-0.03550637159536139	0.0036046029580523876	-0.062242485643958435	-0.08612806983571118	3.1158488301152214E-4	-0.05696593823159436	0.05579930563337523	0.08793516063816158	0.014304416691917425	-0.05651296995315269	-0.11586949115820151	-0.019416513088328084	-0.012743539628783277	-0.012431623866181614	-0.11438967225053664	0.05474172031939625	-0.016004409314755125	0.06068012437258765	-0.014816337589457511	-0.13447441017118641	-0.03563315854482147	0.016916113488994147	-0.10039014876979868	-0.08235608037906544	0.022119944098134472	0.03261265642055102	0.06511997721984301	-0.04094012439078101	-0.03115055429445624	-0.11210420169610165	-0.078877165407872	-0.0618602327009422	0.006617722710230836	-0.05500389864921837	-0.0406210139527098	-0.0716008979376753	-0.056404089339445185	0.05343237977501752	-0.001426182059568972	0.1558563482410912	-0.008212072822750795	0.019513511263126445	0.02113309996886202	0.19370408392380112	0.19257818585739245	0.025594021503936477	-0.04811198933112448	-0.03847490197697797	0.1090355696377191	0.014441355632378442	-0.07375253038910698	
114	4	-0.1581148263862513	0.040244783343819084	0.060056562034041625	-0.08126113406691643	0.060647122649016394	-0.06314447266011701	-0.10914575788513056	0.049926570154542764	0.16254012731669704	0.19162022978856938	0.02663901917085002	-0.041421303407338926	-0.09982162465944971	0.09257913076986318	-0.04011124553527724	0.023828459992050566	0.013103402175312634	3.1412407493215234E-5	-0.20223187097039486	0.03445074040130646	0.014744240632178498	-0.016256442207201655	0.02066718863088639	-0.011438964786031177	0.007302150869886925	-0.1270847414043036	0.043413652651385755	-0.014489928019084556	0.01900828101445959	-0.06660639711555784	0.04628506967111426	0.06381125771966588	0.02011958713073128	0.11199551120905674	0.11950096596535197	0.06637477432741702	0.0756031129943111	0.047983097176657656	0.04435391368818066	0.10425448349604019	-0.06177064841355681	-0.012755825570125893	-0.025644855637755835	-0.022009787674348726	0.03961601961236336	-0.044795923788561356	0.06273475118112012	0.02800917397295106	0.13977719184158383	-0.03341796550208275	0.06155341350837868	-0.036466837313628146	0.0598528265255135	0.1228730788823431	0.033827468670002435	0.048305029946797695	0.01733495704153588	0.046150109838564164	0.08781266661208026	-0.12377353596427432	-0.007792007739096908	-0.049800114570313164	0.014305313572978215	-0.010373341687817544	-0.06518001566889246	0.07605491460227386	0.04829098163281144	0.014605671213291637	-0.014903315952515525	-0.0883129764129016	-0.09849633428104591	0.014910762038443383	0.1242646621557226	-0.04391396482133601	0.1006915087733096	0.040516211660466914	-0.06282323176514684	-0.007661405879690363	-0.07219490967405394	0.06579676777102346	-0.005054304386821927	-0.05637110568909589	0.2145507180178414	0.004316689156558553	-0.03584518728081141	0.015084557186343779	-0.017954839386299	0.04779434859090258	-0.009127887503252257	0.04368817933778918	-0.0453644424536847	-0.05340049410148784	0.09922779713770387	0.014919397143274189	0.12075655928261153	0.057600886457971574	0.0156414690600339	-0.022695983010609554	0.006225117604721994	-0.019246019726008194	0.05623066220263606	0.02660301606618672	-0.09987762018839935	-0.03926163962977043	0.12806365216116178	0.0456701834655832	-0.0028407590786762465	-0.05267854195839353	0.015195070521657356	0.11796346876964428	0.07231051178618665	0.008900092481822554	0.0347440660967746	0.020551906581325236	-0.03762515850742996	0.0659585579423648	-0.0694531834361331	0.07042442882431255	0.015387858175185927	-0.02170636370076173	-0.052544333158058	0.20326047143163065	0.09898873790715683	-0.006562403307302962	0.044178717620942595	0.04417823473243648	-0.03314118840999425	0.02959545378631349	-0.022031968566771438	0.015229148207684964	0.11727033505884903	-0.014153429260210546	0.06648654632400303	-0.012620774396247545	0.02594626053730456	0.0758354730142303	0.08939285876270063	-0.07454706046108467	0.08137766815532385	-0.054123178379167504	-0.07667310912441243	-0.012335007500266532	-0.004527358136653979	-0.04097016931283293	0.09364538423463853	-0.0863789536492727	-0.042146257758127595	-0.11881054855288264	0.024054627052161905	-0.03604324581846243	-0.019157964543973043	-0.011801623388249543	-0.04720860960141571	-0.006605454108564384	0.06511788627628246	0.001416821285047554	-0.03620034862383936	0.11521415542161943	0.03154659166458235	-0.08672434825420318	-0.10082450520291729	0.0671268673720187	0.06272511629451762	0.11374398349283062	0.05186473923375476	0.11007778140438583	-0.030247236085139562	0.07805096568563412	0.005050858558911858	0.017689655630881373	0.17131461387828767	0.007317134678914132	-0.012417738683301115	0.06416235663181928	-0.13116368898485184	0.01915064739072058	0.05081322131089578	0.015106790261160295	9.186019595933693E-4	-0.10964735571290578	-0.025175245243375697	-0.08788042715511528	-0.09113606047219874	-0.004123348190003206	-0.018624124715729322	0.011032301339741736	0.010712248763450716	0.009001717376736107	-0.02403168018943542	-0.07200023657320585	0.01992514221053156	0.004112520964293258	-0.09231488746374251	0.053285544684510217	-0.10599036065808877	-0.07040931957830726	0.04912497119545637	0.08115360377753097	-0.18146642686463424	0.10119675551857911	
