0 0.0 0.0 0.0 0.0 0.0 0.0 0.0 
0 10.0 0.0 0.0 0.0 -6.710000021901997 -3.2899999780980034 0.0 
0 10.0 -10.0 0.0 0.0 0.0 0.0 0.0 
0 0.0 0.0 0.0 0.0 0.0 0.0 0.0 
0 0.0 0.0 0.0 0.0 0.0 0.0 0.0 
0 10.0 -6.490521645352104 0.0 0.0 0.0 -3.441019038290691 -0.06845931635719736 
0 10.0 0.0 0.0 0.0 0.0 -5.36082707288839 -4.6391729271116064 
0 10.0 -10.000000000000009 0.0 0.0 0.0 0.0 0.0 
0 0.8315489734772242 -0.4743620645920667 -0.056903390498829795 -0.2582937718657208 -0.008013743007296962 -0.03397600351330898 0.0 
0 0.0 0.0 0.0 0.0 0.0 0.0 0.0 
0 1.6946246054415592 0.0 -0.6141159903347215 -0.3268162496243726 0.0 0.0 -0.7536923654824628 
0 10.0 0.0 0.0 0.0 -10.00000000000002 0.0 0.0 
0 10.0 -2.207993664561254 0.0 0.0 0.0 -7.792006335438753 0.0 
0 10.0 0.0 -6.565989803885364 0.0 0.0 -3.4340101961146363 0.0 
0 10.0 -1.4162228100457916 0.0 -7.520473982834032 -0.38664104006094147 0.0 -0.6766621670592321 
0 0.9447838690318202 -0.14020715895331357 -0.17739242239405656 -0.15092838327838792 -0.13901870403120162 -0.14616374930379458 -0.1910734510710658 
0 10.0 0.0 0.0 -10.0 0.0 0.0 0.0 
0 10.0 -9.388941795357162 -0.469963368743093 0.0 0.0 -0.1410948358996863 0.0 
0 2.769732593683145E-15 0.0 0.0 0.0 0.0 0.0 0.0 
0 0.0 0.0 0.0 0.0 0.0 0.0 0.0 
0 10.0 0.0 0.0 -8.872779180573408 0.0 0.0 -1.1272208194266213 
0 0.0 0.0 0.0 0.0 0.0 0.0 0.0 
0 10.0 0.0 0.0 0.0 -10.000000000000002 0.0 0.0 
0 0.6293643016692569 -0.10234614311896362 -0.11794733631443914 -0.10900825274824939 -0.08091477754944033 -0.07976665876062608 -0.13938113317753995 
0 10.0 0.0 0.0 -9.999999999999956 0.0 0.0 0.0 
0 0.0 0.0 0.0 0.0 0.0 0.0 0.0 
0 10.0 0.0 0.0 -10.0 0.0 0.0 0.0 
0 10.0 0.0 0.0 -9.954647322449864 0.0 0.0 -0.04535267755012143 
0 10.0 0.0 -9.999999999999998 0.0 0.0 0.0 0.0 
0 1.2664909069374493 -0.19669935809837996 -0.2268033216955389 -0.2042620274649073 -0.1931531254725381 -0.20778571775934965 -0.2377873564467336 
0 0.6052318480912556 0.0 0.0 -0.6052318480912603 0.0 0.0 0.0 
0 4.571674992566418 -0.554631368049185 -0.1153753025960569 -0.9671497987257331 0.0 -1.234395995680116 -1.7001225275153113 
0 2.9020685522345904 -0.43523406818152277 -0.5391226201145142 -0.4718685615304177 -0.4312100381091447 -0.4456794435988874 -0.578953820700102 
0 10.0 0.0 0.0 0.0 -10.000000000000027 0.0 0.0 
0 10.0 0.0 0.0 0.0 0.0 0.0 -10.000000000000004 
0 3.776214224452169 0.0 -1.7788259385621412 0.0 0.0 -1.9973882858900354 0.0 
0 10.0 -0.44630552694034453 -1.6236382042364639 -3.9063883472584138 -1.0405486750726134 -1.7403254482762909 -1.2427937982158836 
0 10.0 -10.000000000000012 0.0 0.0 0.0 0.0 0.0 
0 8.719539371944476 -0.8503914052005878 0.0 0.0 0.0 -5.152829700392859 -2.7163182663510255 
0 0.0 0.0 0.0 0.0 0.0 0.0 0.0 
0 10.0 -2.2888410643464314 0.0 0.0 0.0 -7.7111589356535575 0.0 
0 10.0 -1.3438600729102774 0.0 0.0 0.0 0.0 -8.656139927089693 
0 7.484812809249738 -2.4998853241151116 -1.2543135095533449 -0.2787376035011045 -1.0786008144843038 -1.038553484296237 -1.3347220732996332 
0 -4.6978906633922314E-15 0.0 0.0 0.0 0.0 0.0 0.0 
0 10.0 0.0 -0.6268725079260976 -2.276112634965535 0.0 -3.100483180998283 -3.996531676110081 
0 0.0 0.0 0.0 0.0 0.0 0.0 0.0 
0 10.0 0.0 0.0 -7.464474292710182 0.0 0.0 -2.5355257072898 
0 10.0 0.0 -10.00000000000004 0.0 0.0 0.0 0.0 
0 1.0775952733345378 0.0 0.0 0.0 -1.0775952733345378 0.0 0.0 
0 6.38321419208109E-16 0.0 0.0 0.0 0.0 0.0 0.0 
0 9.99262996918622 0.0 0.0 -7.680618443806194 0.0 0.0 -2.3120115253800044 
0 10.0 -0.5041271969518415 -4.3227666084824685 0.0 -1.8531806130350181 -3.3199255815307205 0.0 
0 10.0 0.0 0.0 0.0 -9.999999999999993 0.0 0.0 
0 10.0 -7.601047760740846 0.0 0.0 0.0 0.0 -2.398952239259153 
0 8.73957865322121 0.0 -6.027656043409135 0.0 -2.7119226098120577 0.0 0.0 
0 0.9445599250399149 -0.14049727742288892 -0.17659382460243217 -0.15107022392277805 -0.13910994088676426 -0.14665981402828665 -0.19062884417676507 
0 10.0 0.0 0.0 0.0 -9.999999999999996 0.0 0.0 
0 10.0 -10.000000000000018 0.0 0.0 0.0 0.0 0.0 
0 6.8957771565509685 0.0 0.0 -4.345742730151308 0.0 0.0 -2.5500344263996806 
0 10.0 -3.7065159306485027 -3.076904419837792 0.0 -1.6461352473238133 -1.0739558617375065 -0.4964885404523625 
0 0.0 0.0 0.0 0.0 0.0 0.0 0.0 
0 0.0 0.0 0.0 0.0 0.0 0.0 0.0 
0 10.0 0.0 0.0 0.0 -10.000000000000002 0.0 0.0 
0 10.0 0.0 0.0 0.0 -10.000000000000004 0.0 0.0 
0 -1.1068513217910257E-14 0.0 0.0 0.0 0.0 0.0 0.0 
0 0.0 0.0 0.0 0.0 0.0 0.0 0.0 
0 1.1044149656305973E-14 0.0 0.0 0.0 0.0 0.0 0.0 
0 10.0 -8.320219185608208 0.0 0.0 0.0 -1.6797808143917912 0.0 
0 0.0 0.0 0.0 0.0 0.0 0.0 0.0 
0 8.907592636584944 0.0 0.0 0.0 -8.907592636584944 0.0 0.0 
0 10.0 0.0 0.0 0.0 -10.000000000000009 0.0 0.0 
0 0.0 0.0 0.0 0.0 0.0 0.0 0.0 
0 0.0 0.0 0.0 0.0 0.0 0.0 0.0 
0 9.147355848283775 0.0 -3.2647633705903356 0.0 0.0 -3.1921938200828848 -2.6903986576105474 
0 7.682623111790267 -1.0068945570913037 -1.1813637997007742 -1.9670845925537328 -0.8421927297322954 -1.1370578652878613 -1.5480295674243272 
0 0.4923209727607233 0.0 0.0 0.0 0.0 0.0 -0.49232097276072195 
0 0.0 0.0 0.0 0.0 0.0 0.0 0.0 
0 0.0 0.0 0.0 0.0 0.0 0.0 0.0 
0 0.0 0.0 0.0 0.0 0.0 0.0 0.0 
0 0.0 0.0 0.0 0.0 0.0 0.0 0.0 
0 0.0 0.0 0.0 0.0 0.0 0.0 0.0 
0 0.0 0.0 0.0 0.0 0.0 0.0 0.0 
0 10.0 0.0 0.0 0.0 -9.999999999999996 0.0 0.0 
0 9.796977656118157 -1.5435000907071448 -3.418050505624146 -1.7830964380493513 -0.9973572929167396 -1.7512269741082795 -0.3037463547124808 
0 0.0 0.0 0.0 0.0 0.0 0.0 0.0 
0 10.0 0.0 0.0 -10.000000000000002 0.0 0.0 0.0 
0 10.0 -10.0 0.0 0.0 0.0 0.0 0.0 
0 1.7865108571682944E-15 0.0 0.0 0.0 0.0 0.0 0.0 
0 1.878974458321049 -0.04453915072714708 -0.40572343699286534 -0.3295812610116464 -0.6008332900492556 -0.24416951130024356 -0.25412780823989356 
0 -2.4403169168780565E-15 0.0 0.0 0.0 0.0 0.0 0.0 
0 10.0 0.0 0.0 0.0 -10.000000000000007 0.0 0.0 
0 10.0 0.0 0.0 0.0 -10.00000000000001 0.0 0.0 
0 10.0 0.0 -10.000000000000005 0.0 0.0 0.0 0.0 
0 0.41660542118643595 -0.10886816669698228 0.0 0.0 0.0 -0.14151401558000512 -0.16622323890945098 
0 0.1305306727016016 -0.01615380755514725 -0.026263616604157707 -0.017308050060074926 -0.017759182337479473 -0.0242778498852087 -0.028768166259533705 
0 6.297928790427273 0.0 -3.0286320433605853 0.0 -1.5240426513868688 -1.7452540956798186 0.0 
0 10.0 -3.603274146397793 0.0 -3.381517241162513 0.0 0.0 -3.0152086124397166 
0 0.11323457696533289 0.0 -0.11323457696533219 0.0 0.0 0.0 0.0 
0 2.3785896340564765 0.0 -0.2485826744587098 -0.6869963460322381 -0.3679561553759611 -0.41794045431702753 -0.6571140038725407 
0 3.133707313251202E-15 0.0 0.0 0.0 0.0 0.0 0.0 
0 10.0 0.0 0.0 0.0 0.0 -10.000000000000018 0.0 
0 0.944378529853919 -0.1400733714935417 -0.17710804914295078 -0.15082992733316006 -0.138876762271399 -0.14654419653839645 -0.19094622307446843 
0 0.0 0.0 0.0 0.0 0.0 0.0 0.0 
0 10.0 0.0 -5.674852531424569 0.0 0.0 0.0 -4.325147468575429 
0 10.0 0.0 -10.000000000000004 0.0 0.0 0.0 0.0 
0 10.0 0.0 0.0 0.0 0.0 -9.999999999999998 0.0 
0 -1.6639148202282555E-15 0.0 0.0 0.0 0.0 0.0 0.0 
0 10.0 0.0 0.0 -9.999999999999998 0.0 0.0 0.0 
0 0.0 0.0 0.0 0.0 0.0 0.0 0.0 
0 0.0 0.0 0.0 0.0 0.0 0.0 0.0 
0 10.0 0.0 0.0 0.0 0.0 -9.999999999999998 0.0 
0 10.0 -1.4822018685123048 -1.6215932073609547 -3.4231516348044644 -1.6098958293603254 -0.8963376175833694 -0.9668198423785549 
0 -1.3179840177938188E-15 0.0 0.0 0.0 0.0 0.0 0.0 
0 10.0 0.0 0.0 0.0 0.0 -9.99999999999999 0.0 
0 10.0 0.0 0.0 0.0 0.0 -10.000000000000002 0.0 
0 0.4898643978824643 -0.31232678632687855 0.0 -0.1775376115555932 0.0 0.0 0.0 
0 1.4457075585835186 -0.25309125673691113 -0.3372452498555027 -0.23063312108838846 0.0 -0.25169762545845964 -0.3730403054442539 
0 10.0 0.0 0.0 0.0 -9.999999999999982 0.0 0.0 
0 10.0 0.0 -10.000000000000007 0.0 0.0 0.0 0.0 
0 10.0 0.0 0.0 0.0 -0.5065747067356621 -9.276206828587174 -0.21721846467717712 
0 2.4710542464578413 0.0 0.0 -0.8150646464524397 -0.22580358540753304 -0.5467421607983807 -0.8834438537994879 
0 1.8357971659006995 -0.28903103793610646 -0.3178024399251264 -0.29653979748673626 -0.29879117947292644 -0.3173777625946839 -0.31625494848511776 
0 10.0 0.0 0.0 0.0 -10.0 0.0 0.0 
0 0.3753400647792316 0.0 -0.24076377459047452 0.0 0.0 -0.1345762901887571 0.0 
0 10.0 0.0 -2.4589059765053145 -3.9563289609861387 0.0 0.0 -3.584765062508609 
0 1.844692810360472 -0.2894662714655153 -0.3263469125742105 -0.2984403131016478 -0.28391060020996184 -0.3064706269771325 -0.3400580860320045 
0 10.0 0.0 -0.6995493856841053 0.0 0.0 -9.300450614315894 0.0 
0 7.751708821160408 -0.2066692926567003 -0.5124693471585097 -0.2273792294744662 -0.8256242985963721 -5.893729433229906 -0.0858372200444561 
0 0.0 0.0 0.0 0.0 0.0 0.0 0.0 
0 0.0 0.0 0.0 0.0 0.0 0.0 0.0 
0 10.0 0.0 0.0 0.0 0.0 -10.000000000000005 0.0 
0 6.293444252303558 -0.9278631023512451 -1.220367910386579 -0.8603342896936703 -0.9819539140838558 -1.1333547515390126 -1.1695702842492037 
0 -3.3299067301100712E-15 0.0 0.0 0.0 0.0 0.0 0.0 
0 10.0 -9.014422018907291 -0.11897431599257478 -0.36469802423204645 -0.13979826155458824 -0.2189288331727461 -0.14317854614075212 
0 9.358472865357439E-16 0.0 0.0 0.0 0.0 0.0 0.0 
0 1.6962457228992467 0.0 -0.48664747138837766 -0.26096149103179034 -0.23906287741028798 -0.1876431651082139 -0.5219307179605891 
0 0.9439344992570738 -0.14000985697687293 -0.1768181243655068 -0.15080510250187257 -0.1387686007600491 -0.14668086078347226 -0.19085195386930112 
0 -1.9368282541475698E-15 0.0 0.0 0.0 0.0 0.0 0.0 
0 1.3559562046756584 -1.3559562046756575 0.0 0.0 0.0 0.0 0.0 
0 10.0 0.0 0.0 -9.999999999999972 0.0 0.0 0.0 
0 10.0 0.0 0.0 -8.378178734407685E-5 -9.99989941291345 -1.6805299206472094E-5 0.0 
0 0.0 0.0 0.0 0.0 0.0 0.0 0.0 
0 0.5335875859811695 0.0 -0.2630332611386905 -0.27055432484248026 0.0 0.0 0.0 
0 2.144266308658904 -0.3329090466066934 -0.39153670003326657 -0.35522239187293203 -0.32087565314953087 -0.32317534690207345 -0.42054717009440806 
0 10.0 0.0 0.0 -9.118332054456165 -0.8816679455438409 0.0 0.0 
0 0.9439481680851185 -0.14041604231699847 -0.17680152462363424 -0.1507865493027064 -0.13884542969678848 -0.14650492884742322 -0.19059369329756606 
0 0.0 0.0 0.0 0.0 0.0 0.0 0.0 
0 0.0 0.0 0.0 0.0 0.0 0.0 0.0 
0 10.0 -8.841986611888988 0.0 0.0 -1.1580133881110117 0.0 0.0 
0 0.0 0.0 0.0 0.0 0.0 0.0 0.0 
0 0.7422607290566885 -0.10209827341813396 -0.1480071415851839 -0.1064671099909625 -0.10646030189475504 -0.1210459613489781 -0.15818194081867334 
0 0.9438218060026594 -0.1404720174741445 -0.17667939400547344 -0.15075626255858848 -0.13891306899464653 -0.14654767398367868 -0.1904533889861291 
0 6.34973946546633 -1.802687805300881 0.0 0.0 -0.999613361800518 0.0 -3.5474382983649257 
0 10.0 0.0 0.0 -7.992035104211413 0.0 0.0 -2.00796489578861 
0 0.9850706609629829 0.0 -0.21864540796409307 -0.20759505462366973 -0.2123916434520777 -0.16733121646007823 -0.17910733846306723 
0 0.005293892656172472 -4.111792053870121E-5 -1.5735510049383903E-4 -0.0019651550092776924 0.0 -7.213811653405585E-4 -0.0024088834605206864 
0 10.0 0.0 0.0 0.0 0.0 -10.000000000000002 0.0 
0 0.0 0.0 0.0 0.0 0.0 0.0 0.0 
0 7.2486582235618435 -1.2534024203880225 -1.1907114671152106 -1.1121224536077075 -1.2004363525394006 -1.2099558898188465 -1.2820296400926479 
0 10.0 -0.3587653835917201 0.0 -9.64123461640831 0.0 0.0 0.0 
0 0.0 0.0 0.0 0.0 0.0 0.0 0.0 
0 4.682385044307053 -0.6507322167376646 -1.4275422447986224 -1.324680342577891 0.0 -1.2034835590664528 -0.07594668112642186 
0 3.102279209211328 -0.4281383871001025 -1.417839221693432 -0.27392501001488795 -0.6466286202952334 -0.029507074624393326 -0.30624089548327627 
0 10.0 0.0 0.0 0.0 -9.999999999999998 0.0 0.0 
0 10.0 0.0 0.0 0.0 0.0 -10.0 0.0 
0 0.0 0.0 0.0 0.0 0.0 0.0 0.0 
0 0.0 0.0 0.0 0.0 0.0 0.0 0.0 
0 3.703952726034445 -2.0366858926442437 -1.6672668333902012 0.0 0.0 0.0 0.0 
0 3.3513118373614126 0.0 -0.6832414983596867 0.0 0.0 -2.668070339001718 0.0 
0 0.00658276273147084 -5.800524501213998E-5 -4.604542584314027E-5 -0.0033798253630215147 -6.151147094954857E-5 -0.0015456857830654707 -0.0014916894435790266 
0 0.7491109364840413 -0.07753866385082396 -0.1583824950410525 -0.10450993566072647 -0.10937684586449713 -0.12871342296120655 -0.17058957310573467 
0 0.0 0.0 0.0 0.0 0.0 0.0 0.0 
0 10.0 0.0 0.0 -9.999999999999993 0.0 0.0 0.0 
0 0.0 0.0 0.0 0.0 0.0 0.0 0.0 
0 10.0 0.0 0.0 0.0 -5.091313474136218 -0.07087838286188712 -4.83780814300192 
0 10.0 -2.2164506823182277 0.0 0.0 0.0 0.0 -7.783549317681787 
0 2.226840042821655 0.0 -1.062876783334744 0.0 -0.4929294617990027 -0.5635938576360182 -0.10743994005188487 
0 3.2476494289848308 0.0 -1.9702716593207195 -1.2773777696641069 0.0 0.0 0.0 
0 6.821584214656786E-16 0.0 0.0 0.0 0.0 0.0 0.0 
0 0.9447284861553831 -0.14033988594811841 -0.17666809780930606 -0.1510717149064522 -0.13918670982467055 -0.14678742015089755 -0.19067465751593915 
0 0.0 0.0 0.0 0.0 0.0 0.0 0.0 
0 0.0 0.0 0.0 0.0 0.0 0.0 0.0 
0 0.0 0.0 0.0 0.0 0.0 0.0 0.0 
0 3.4616404893897337 -1.0517302641656774 0.0 -0.12428583898971705 0.0 -2.2801806834485436 -0.005443702785793905 
0 0.9447258381375477 -0.14040995627214664 -0.17734169171384342 -0.15084120536773077 -0.13898741219930316 -0.1459442160572922 -0.19120135652723083 
0 0.3055269026753047 0.0 0.0 0.0 0.0 -0.16015323259802808 -0.14537367007727584 
0 0.0 0.0 0.0 0.0 0.0 0.0 0.0 
0 10.0 0.0 -1.4472364172347474 0.0 -2.9223677730752287 -1.3284561926193614 -4.3019396170706585 
0 0.944436262508503 -0.14032777966765864 -0.17671718938102954 -0.15110435036999031 -0.138480257649469 -0.147019763697714 -0.19078692174264367 
5 -9.99999999999999 10.0 0.0 0.0 0.0 0.0 0.0 
5 0.0 0.0 0.0 0.0 0.0 0.0 0.0 
5 -7.79998547819681 10.0 0.0 0.0 -2.200014521803194 0.0 0.0 
5 0.0 0.0 0.0 0.0 0.0 0.0 0.0 
5 0.0 0.0 0.0 0.0 0.0 0.0 0.0 
5 -4.140561968663216 10.0 0.0 -0.039243596260752314 -2.4677964770386676 -0.5953756620201267 -2.7570222960172193 
5 0.0 0.0 0.0 0.0 0.0 0.0 0.0 
5 -9.655806718892274 10.0 -0.3441932811077319 0.0 0.0 0.0 0.0 
5 0.0 10.0 0.0 -9.999999999999988 0.0 0.0 0.0 
5 0.0 10.0 -3.8092738259833157 -3.587332855568412 -0.015562329089455327 -2.587830989358772 0.0 
5 -0.30116626002519004 10.0 -0.8342415515723095 -1.3620107200285854 -2.278432514531315 -2.757805758922551 -2.466343194920097 
5 0.0 9.757817727771505 0.0 -3.637813939451547 -2.8754615894362887 -1.0390963355315699 -2.205445863352107 
5 0.0 10.0 -9.999999999999984 0.0 0.0 0.0 0.0 
5 0.0 0.0 0.0 0.0 0.0 0.0 0.0 
5 0.0 0.0 0.0 0.0 0.0 0.0 0.0 
5 0.0 10.0 0.0 -10.000000000000004 0.0 0.0 0.0 
5 0.0 0.0 0.0 0.0 0.0 0.0 0.0 
5 0.0 0.0 0.0 0.0 0.0 0.0 0.0 
5 0.0 0.7181921653543415 0.0 -0.7181921653543415 0.0 0.0 0.0 
5 0.0 10.0 0.0 -10.000000000000005 0.0 0.0 0.0 
5 0.0 10.0 -9.999999999999996 0.0 0.0 0.0 0.0 
5 0.0 0.0 0.0 0.0 0.0 0.0 0.0 
5 0.0 10.0 -1.9440358308246366 -8.055964169175372 0.0 0.0 0.0 
5 0.0 10.0 0.0 0.0 0.0 0.0 -9.999999999999991 
5 0.0 6.4965893728685735 0.0 0.0 -6.4965893728685735 0.0 0.0 
5 0.0 0.0 0.0 0.0 0.0 0.0 0.0 
5 0.0 0.0 0.0 0.0 0.0 0.0 0.0 
5 0.0 10.0 0.0 0.0 0.0 0.0 -9.999999999999972 
5 0.0 4.984441322950041 -0.7706592899858132 0.0 -1.066341690861286 -1.140689052856578 -2.0067512892463677 
5 0.0 2.715343291797785 -0.3238925849741007 0.0 -1.0908933469649005 -0.5186655926989828 -0.7818917671598148 
5 0.0 10.0 -1.0130255332256948 0.0 -4.463401999435476 -0.7386292890011126 -3.7849431783377216 
5 0.0 10.0 0.0 -10.000000000000009 0.0 0.0 0.0 
5 -1.3873954669672075 8.627209028721008 0.0 -2.1718989099171595 -4.423675914948771 -0.6442387368878227 0.0 
5 0.0 2.434124184736131 -2.434124184736072 0.0 0.0 0.0 0.0 
5 0.0 6.521138198743705 0.0 0.0 -2.4446799764013463 -3.9203153446021775 -0.15614287774014218 
5 0.0 10.0 -9.179953151799896 0.0 0.0 -0.0809543758939784 -0.7390924723060954 
5 0.0 0.0 0.0 0.0 0.0 0.0 0.0 
5 0.0 0.0 0.0 0.0 0.0 0.0 0.0 
5 0.0 0.0 0.0 0.0 0.0 0.0 0.0 
5 0.0 1.3358461481911186E-15 0.0 0.0 0.0 0.0 0.0 
5 -10.000000000000002 10.0 0.0 0.0 0.0 0.0 0.0 
5 -9.999999999999973 10.0 0.0 0.0 0.0 0.0 0.0 
5 -10.000000000000002 10.0 0.0 0.0 0.0 0.0 0.0 
5 -0.29310607471366923 9.08913311529473 0.0 -4.16947892691911 -2.28293186672794 -1.8482418706624846 -0.4953743762715586 
5 0.0 0.0 0.0 0.0 0.0 0.0 0.0 
5 0.0 10.0 0.0 -2.0752715755468447 0.0 0.0 -7.924728424453176 
5 -9.999999999999993 10.0 0.0 0.0 0.0 0.0 0.0 
5 0.0 0.0 0.0 0.0 0.0 0.0 0.0 
5 -4.428916955829111 10.0 0.0 0.0 0.0 -5.571083044170892 0.0 
5 0.0 0.0 0.0 0.0 0.0 0.0 0.0 
5 0.0 0.0 0.0 0.0 0.0 0.0 0.0 
5 -1.8241651241887196 5.127321679497645 0.0 -0.2813848021445875 -1.682334664881627 -1.3394370882827018 0.0 
5 0.0 0.0 0.0 0.0 0.0 0.0 0.0 
5 0.0 10.0 0.0 -3.7855775853478835 0.0 -6.214422414652116 0.0 
5 0.0 0.0 0.0 0.0 0.0 0.0 0.0 
5 0.0 4.771745337928204 -1.4060448739133502 -1.9996865955357856 -0.030938014785605122 -0.4631155487328621 -0.8719603049606036 
5 0.0 0.0 0.0 0.0 0.0 0.0 0.0 
5 0.0 0.0 0.0 0.0 0.0 0.0 0.0 
5 0.0 1.7842027353568377E-15 0.0 0.0 0.0 0.0 0.0 
5 0.0 7.306260752924966 0.0 -7.306260752924966 0.0 0.0 0.0 
5 0.0 7.632065414098838E-15 0.0 0.0 0.0 0.0 0.0 
5 0.0 0.0 0.0 0.0 0.0 0.0 0.0 
5 -1.1632999168312728 1.3801269092814192 0.0 0.0 -0.1870146142661096 -0.029812378184037716 0.0 
5 0.0 10.0 -9.999999999999996 0.0 0.0 0.0 0.0 
5 -10.0 10.0 0.0 0.0 0.0 0.0 0.0 
5 0.0 0.0 0.0 0.0 0.0 0.0 0.0 
5 0.0 0.0 0.0 0.0 0.0 0.0 0.0 
5 -4.0883829904400475 10.0 0.0 0.0 0.0 -0.751758494415559 -5.159858515144394 
5 0.0 10.0 -4.4958098049753685 0.0 -0.0692112491282097 -2.2755541480772985 -3.159424797819084 
5 0.0 2.0326179940729534E-15 0.0 0.0 0.0 0.0 0.0 
5 0.0 0.0 0.0 0.0 0.0 0.0 0.0 
5 0.0 1.418756650806714 0.0 -1.418756650806714 0.0 0.0 0.0 
5 0.0 2.6655556559230917 0.0 -1.6204461687066012 -1.045109487216505 0.0 0.0 
5 0.0 10.0 0.0 0.0 -9.995557043153989 -0.004442956846002165 0.0 
5 0.0 10.0 -2.247255999260865 0.0 -2.5999835000603504 -1.4729574795046017 -3.6798030211742074 
5 -0.1353124825533954 1.1100008345347723 -0.21148827285277627 -0.19729816511966206 -0.19334799489458637 -0.1898944189772169 -0.1826595001371345 
5 0.0 10.0 0.0 0.0 0.0 -10.000000000000014 0.0 
5 0.0 0.0 0.0 0.0 0.0 0.0 0.0 
5 0.0 0.0 0.0 0.0 0.0 0.0 0.0 
5 -9.738808137671066 10.0 0.0 0.0 0.0 -0.26119186232891095 0.0 
5 -0.4520107605589361 2.3121940318499123 -0.532421267123707 0.0 -0.457538502488437 -0.625470776786715 -0.24475272489212307 
5 -9.999999999999998 10.0 0.0 0.0 0.0 0.0 0.0 
5 -0.13458633497513459 1.10935015696095 -0.21188360329131278 -0.19703593190116003 -0.19311601324455574 -0.19014403535106789 -0.18258423819771907 
5 0.0 0.4406154515383753 -0.19607393472887769 -0.053987776719115234 -0.07603121592916515 -0.03686843696278722 -0.07765408719843085 
5 0.0 10.0 -8.904168673887527 -0.6458639198492643 0.0 -0.4499674062632075 0.0 
5 0.0 -6.475738166193822E-16 0.0 0.0 0.0 0.0 0.0 
6 0.0 0.0 10.0 0.0 0.0 -10.000000000000007 0.0 
6 -2.8216343305025364 0.0 9.200629633455844 -0.11267706761341223 -1.908754793498985 -3.7598837199043333 -0.5976797219365776 
6 -10.000000000000002 0.0 10.0 0.0 0.0 0.0 0.0 
6 0.0 0.0 10.0 0.0 0.0 -10.000000000000005 0.0 
6 -0.6493764671977745 0.0 4.673803638739996 0.0 -3.009845778198744 -1.0145813933434777 0.0 
6 0.0 0.0 10.0 0.0 0.0 0.0 -9.999999999999991 
6 0.0 0.0 10.0 -10.000000000000002 0.0 0.0 0.0 
6 0.0 0.0 10.0 -9.999999999999964 0.0 0.0 0.0 
6 0.0 0.0 10.0 0.0 0.0 0.0 -10.000000000000023 
6 0.0 -2.2821970790337494 4.3653233452717615 -0.09564043808884515 0.0 0.0 -1.987485828149167 
6 0.0 0.0 0.0 0.0 0.0 0.0 0.0 
6 0.0 0.0 0.0 0.0 0.0 0.0 0.0 
6 0.0 -6.4035360007783835 6.403536000778379 0.0 0.0 0.0 0.0 
6 -4.224240388991706 0.0 10.0 0.0 0.0 -5.775759611008297 0.0 
6 0.0 0.0 0.0 0.0 0.0 0.0 0.0 
6 0.0 0.0 10.0 -10.00000000000002 0.0 0.0 0.0 
6 0.0 0.0 0.7164203667606512 0.0 0.0 -0.7164203667606522 0.0 
6 0.0 0.0 10.0 0.0 0.0 0.0 -10.000000000000004 
6 0.0 0.0 10.0 0.0 0.0 0.0 -10.000000000000002 
6 0.0 -1.8094853384153005 1.8094853384153067 0.0 0.0 0.0 0.0 
6 0.0 0.0 10.0 0.0 0.0 0.0 -9.999999999999998 
6 -5.4427224857656515 0.0 10.0 -0.35767076532702147 -0.4947795237596513 -3.7048272251476733 0.0 
6 -1.0095267455595571 -0.26042113556008506 10.0 -6.179049323054397 -1.0529533438360925 -1.3556990078987508 -0.1423504440911147 
6 -7.981627638506434 0.0 10.0 -0.03550645675733951 -1.3972971594108698 -0.5855687453253651 0.0 
6 0.0 0.0 1.1968487316995167 -1.1968487316995167 0.0 0.0 0.0 
6 0.0 -5.4223390936189615 9.76866802491657 -3.0336134295490496 -1.3127155017485577 0.0 0.0 
6 -1.8027792871550843 0.0 2.784844145845112 0.0 0.0 -0.9820648586900245 0.0 
6 -0.6962290150372079 0.0 10.0 -1.3657026605446791 -3.4200968712074173 -4.5179714532107145 0.0 
6 -1.5444261177513388 0.0 2.4657879434822902 0.0 0.0 -0.9213618257309525 0.0 
6 0.0 0.0 0.0 0.0 0.0 0.0 0.0 
6 0.0 0.0 -1.0736343186961366E-15 0.0 0.0 0.0 0.0 
6 0.0 -3.565694564855719 10.0 0.0 -0.6969874920585216 0.0 -5.737317943085762 
6 0.0 -2.9582578222361664 10.0 -3.2955903211267303 -3.7461518566371126 0.0 0.0 
6 0.0 0.0 10.0 0.0 0.0 0.0 -9.999999999999998 
6 0.0 0.0 10.0 0.0 -10.000000000000002 0.0 0.0 
6 0.0 0.0 0.0 0.0 0.0 0.0 0.0 
6 0.0 0.0 -1.4606124952442156E-15 0.0 0.0 0.0 0.0 
6 -1.78632724637606 -1.1484831043159685 4.54496833232684 -0.5267116731562783 -0.45669627182486555 -0.626750036653666 0.0 
6 0.0 0.0 10.0 0.0 0.0 0.0 -9.999999999999998 
6 -0.00996534352559132 0.0 0.15899029659754685 0.0 -0.08030395776751975 -0.06872099530443493 0.0 
6 -0.17277345962895582 -0.7765467471860198 2.556318242692874 -0.24726327288080976 0.0 -0.3707068749524981 -0.9890278880445913 
6 -8.61759545535842 0.0 10.0 -0.7703293693753811 -0.6120751752662313 0.0 0.0 
6 -1.7961995060735814 -8.203800493926419 10.0 0.0 0.0 0.0 0.0 
6 0.0 0.0 10.0 0.0 0.0 -10.000000000000002 0.0 
6 0.0 -0.14751397752537884 10.0 0.0 -9.85248602247462 0.0 0.0 
6 -0.024726701532692543 -0.03160905734156779 0.21343984482933667 -0.04182599029031894 -0.03539736050693384 -0.0408378307853965 -0.039042904372427314 
6 0.0 0.0 10.0 -0.44456823137440715 -2.1111450164025576 0.0 -7.444286752223016 
6 0.0 0.0 10.0 0.0 0.0 0.0 -10.000000000000023 
6 0.0 -0.09363808219495343 10.0 -0.042487449336893524 -0.05288488903862252 -9.64977373417917 -0.16121584525035682 
6 -1.3460317927210266 -1.9578381804630913 10.0 -3.434520486671872 0.0 -0.5229823353293191 -2.73862720481469 
6 0.0 0.0 10.0 -0.714835386283213 -9.285164613716793 0.0 0.0 
6 0.0 -2.1243302826080175 10.0 -1.3850965517784806 -1.7460720478231653 -2.9854945725539968 -1.7590065452363446 
6 0.0 0.0 10.0 -10.000000000000004 0.0 0.0 0.0 
2 -10.000000000000004 0.0 0.0 10.0 0.0 0.0 0.0 
2 0.0 0.0 0.0 0.8751544758523572 0.0 0.0 -0.875154475852355 
2 -10.0 0.0 0.0 10.0 0.0 0.0 0.0 
2 -4.653908330127811 -2.31925351872982 -0.3795081196382297 10.0 0.0 0.0 -2.647330031504134 
2 -10.0 0.0 0.0 10.0 0.0 0.0 0.0 
2 0.0 0.0 0.0 0.0 0.0 0.0 0.0 
2 0.0 0.0 0.0 0.0 0.0 0.0 0.0 
2 0.0 0.0 0.0 10.0 -9.999999999999998 0.0 0.0 
2 -9.999999999999988 0.0 0.0 10.0 0.0 0.0 0.0 
2 0.0 0.0 0.0 0.0 0.0 0.0 0.0 
2 0.0 0.0 0.0 10.0 0.0 -10.000000000000004 0.0 
2 0.0 0.0 -6.537445118274812 10.0 0.0 0.0 -3.4625548817252096 
2 0.0 0.0 0.0 -1.3864495365372047E-14 0.0 0.0 0.0 
2 0.0 0.0 0.0 0.0 0.0 0.0 0.0 
2 0.0 0.0 0.0 0.0 0.0 0.0 0.0 
2 0.0 0.0 -9.999999999999998 10.0 0.0 0.0 0.0 
2 -10.000000000000002 0.0 0.0 10.0 0.0 0.0 0.0 
2 0.0 0.0 0.0 10.0 0.0 -7.475839067618256 -2.524160932381742 
2 0.0 0.0 0.0 0.0 0.0 0.0 0.0 
2 -9.999999999999991 0.0 0.0 10.0 0.0 0.0 0.0 
2 0.0 -6.735901292713044 0.0 10.0 -0.48851343366974503 -2.3162862850225396 -0.45929898859466595 
2 -10.000000000000009 0.0 0.0 10.0 0.0 0.0 0.0 
2 0.0 0.0 0.0 10.0 0.0 -9.999999999999996 0.0 
2 0.0 0.0 -9.99999999999999 10.0 0.0 0.0 0.0 
2 0.0 0.0 -9.999999999999998 10.0 0.0 0.0 0.0 
2 0.0 0.0 0.0 10.0 -9.999999999999995 0.0 0.0 
2 0.0 0.0 0.0 1.280189950079371E-14 0.0 0.0 0.0 
2 -9.999999999999996 0.0 0.0 10.0 0.0 0.0 0.0 
2 0.0 0.0 -2.182096274421283 9.364497803761806 -3.4222597021538563 0.0 -3.760141827186601 
2 0.0 0.0 -0.44227791261679794 4.274780699051265 -1.0329381228724164 -0.1848628836937311 -2.6147017798683243 
2 0.0 -10.0 0.0 10.0 0.0 0.0 0.0 
2 0.0 0.0 -2.7185433820128355 8.653772698716574 -2.695234469484155 0.0 -3.239994847219519 
2 0.0 -9.999999999999995 0.0 10.0 0.0 0.0 0.0 
2 0.0 0.0 0.0 0.0 0.0 0.0 0.0 
2 0.0 0.0 0.0 0.0 0.0 0.0 0.0 
2 0.0 0.0 0.0 0.0 0.0 0.0 0.0 
2 0.0 0.0 0.0 10.0 -10.000000000000005 0.0 0.0 
2 0.0 0.0 -1.2361895636914584 5.710935643254106 -1.3619503012879195 -1.9022839874493882 -1.2105117908253455 
2 0.0 0.0 0.0 0.0 0.0 0.0 0.0 
2 -8.067211455416551 0.0 -1.9327885445834414 10.0 0.0 0.0 0.0 
2 0.0 -10.000000000000007 0.0 10.0 0.0 0.0 0.0 
2 0.0 0.0 -9.525581448772964 10.0 0.0 -0.4744185512270694 0.0 
2 0.0 0.0 0.0 0.0 0.0 0.0 0.0 
2 -3.7044330818239635 -0.3179594509798168 0.0 4.346050163907354 0.0 0.0 -0.3236576311035767 
2 0.0 -10.000000000000005 0.0 10.0 0.0 0.0 0.0 
2 -9.999999999999995 0.0 0.0 10.0 0.0 0.0 0.0 
2 0.0 0.0 0.0 10.0 0.0 -10.000000000000004 0.0 
2 -0.1257736655793824 -0.1928984427418206 -0.21878036115626764 1.2104002842099792 -0.19042580532900522 -0.23343539123345458 -0.24908661817004923 
2 0.0 -10.00000000000002 0.0 10.0 0.0 0.0 0.0 
2 -9.999999999999986 0.0 0.0 10.0 0.0 0.0 0.0 
3 0.0 0.0 0.0 0.0 0.0 0.0 0.0 
3 0.0 0.0 0.0 0.0 0.0 0.0 0.0 
3 -0.03773595021723225 0.0 -0.7965522094693509 -1.2817192480306023 3.1097012184129786 -0.7053541825385214 -0.28833962815727104 
3 0.0 0.0 0.0 0.0 0.0 0.0 0.0 
3 -3.9523833191210755 -1.1499483815350147 0.0 0.0 7.728490030731258 0.0 -2.6261583300751683 
3 0.0 -0.25613140945451074 0.0 -0.4272945394841578 0.7903980540396106 -0.04262452175655678 -0.06434758334438329 
3 0.0 0.0 0.0 -0.015774005147757952 0.015774005147758466 0.0 0.0 
3 0.0 0.0 0.0 0.0 10.0 0.0 -10.000000000000036 
3 0.0 0.0 0.0 0.0 10.0 -10.000000000000004 0.0 
3 -9.999999999999996 0.0 0.0 0.0 10.0 0.0 0.0 
3 -2.643923458240299 -1.6376909929073789 -0.534693115277175 0.0 5.541660933368493 -0.6177871037188714 -0.10756626322477171 
3 -0.2627354653439557 -0.350758474022931 -0.4107239489757009 -0.4187430916395765 2.2219081801575182 -0.3863172663587284 -0.39262993381662753 
3 0.0 -4.99902050854893 0.0 -0.40795336054655323 10.0 -0.8320915031955392 -3.7609346277089895 
3 0.0 0.0 0.0 0.0 0.07916027010650771 -0.0791602701065089 0.0 
3 -9.999999999999991 0.0 0.0 0.0 10.0 0.0 0.0 
3 0.0 0.0 0.0 0.0 0.0 0.0 0.0 
3 -9.999999999999998 0.0 0.0 0.0 10.0 0.0 0.0 
3 0.0 0.0 0.0 0.0 -1.4718692219704177E-15 0.0 0.0 
3 -1.5340195217810944 0.0 -7.394823622349475 0.0 8.928843144130571 0.0 0.0 
3 0.0 0.0 0.0 0.0 3.3454492058026515E-15 0.0 0.0 
3 0.0 0.0 0.0 0.0 0.0 0.0 0.0 
3 -9.999999999999972 0.0 0.0 0.0 10.0 0.0 0.0 
3 0.0 0.0 0.0 0.0 0.0 0.0 0.0 
3 0.0 0.0 0.0 0.0 0.0 0.0 0.0 
3 0.0 0.0 0.0 0.0 0.0 0.0 0.0 
3 0.0 0.0 -6.456519099183474 0.0 10.0 -3.1229623099720327 -0.4205185908444945 
3 -4.131791009726809 -1.0854665620137454 0.0 -0.2276082610574136 10.0 -4.024208364797293 -0.5309258024047349 
3 -4.707038206343388 0.0 -4.9020377712646725 0.0 10.0 -0.39092402239193824 0.0 
3 0.0 0.0 0.0 0.0 0.0 0.0 0.0 
3 0.0 0.0 0.0 0.0 0.0 0.0 0.0 
3 0.0 0.0 0.0 0.0 2.5051647026944805 -2.5051647026944766 0.0 
3 -10.000000000000002 0.0 0.0 0.0 10.0 0.0 0.0 
3 0.0 0.0 0.0 0.0 0.0 0.0 0.0 
3 -9.999999999999998 0.0 0.0 0.0 10.0 0.0 0.0 
3 0.0 0.0 0.0 0.0 0.0 0.0 0.0 
3 0.0 0.0 0.0 -10.000000000000005 10.0 0.0 0.0 
3 -1.774649872746997 -0.26626409723103545 -2.173662535406648 0.0 8.689735051833772 -2.540336723476343 -1.934821822972756 
3 0.0 0.0 0.0 0.0 10.0 -10.000000000000005 0.0 
3 -1.8467584256223435 -2.101263559500099 -1.7302122660458572 0.0 8.38436618782359 -0.3741740555963328 -2.3319578810589565 
3 -0.23045381843971038 -0.3970173654288252 -0.41231584249096953 -0.41714064654852984 2.2796425262853495 -0.40751567070638506 -0.4151991826709281 
3 0.0 0.0 0.0 0.0 10.0 -9.999999999999996 0.0 
3 0.0 0.0 0.0 0.0 0.0 0.0 0.0 
3 -2.95924209794724 -2.354499601213872 -0.7167785975682486 0.0 10.0 0.0 -3.9694797032706637 
3 -6.694607002212393 -1.6469778733441762 -0.265151639432523 0.0 10.0 0.0 -1.393263485010914 
3 0.0 0.0 0.0 0.0 0.0 0.0 0.0 
3 0.0 0.0 0.0 0.0 0.0 0.0 0.0 
3 -2.3852622909224133 -0.06806902481662382 -0.8809545054782632 -1.2519519591546608 4.996294927829406 -0.41005714745746263 0.0 
3 -1.0061265749267845 -1.1632498323510982 -0.8296859953858131 -1.1132971919502537 5.9585730234905325 -0.9751186673540656 -0.8710947615225153 
3 0.0 -0.36667704416164987 -2.419028910411968 -2.1518329808760606 6.075930217186299 0.0 -1.1383912817366337 
3 -0.7356597436357776 -0.9588189808150421 -0.9905431125537778 -0.9930448098233755 5.651566501619329 -0.9770000495227853 -0.9964998052685761 
3 -4.6226284658976935 -1.0063846625153912 -1.3094571130453974 -1.251747889660732 9.19692779675911 -1.0067096656398962 0.0 
3 -1.0410114656761398 0.0 0.0 0.0 10.0 -8.95898853432386 0.0 
3 0.0 0.0 0.0 0.0 0.0 0.0 0.0 
3 -2.0644297120504906 -2.9038697158212603 -0.9264049341821119 0.0 10.0 -1.769919570547142 -2.3353760673990274 
3 0.0 0.0 -6.567388698815729 0.0 10.0 -3.432611301184276 0.0 
3 0.0 0.0 0.0 0.0 0.0 0.0 0.0 
3 0.0 0.0 -0.9112277762508906 0.0 1.4551025940339126 -0.31476529256870384 -0.22910952521431774 
3 -0.20286403560907876 -0.3062422825728027 -0.3160763922575455 -0.3148474730130735 1.7706878311608443 -0.31378872427418825 -0.31686892343415485 
3 -0.397930145415991 -1.3821808932620596 -1.7714679008773386 -1.1682169301266778 8.271592519038197 -1.7777206280813294 -1.7740760212747981 
3 0.0 0.0 0.0 -7.940106031667116 7.940106031667116 0.0 0.0 
3 -0.38227981687513 -0.5540851674250163 -0.5493528185824409 -0.550984982205972 3.1310000686294224 -0.5469196246100334 -0.5473776589308291 
3 -0.28500902942146533 -0.4225867282261102 -0.4283754779946583 -0.4281656304077613 2.419499052019108 -0.42650698578166296 -0.42885520018744866 
3 -0.17514442425314292 -0.2788088244616196 -0.3016034121501741 -0.29810353002411616 1.6517757172582699 -0.2962212174495054 -0.3018943089197131 
3 -10.000000000000007 0.0 0.0 0.0 10.0 0.0 0.0 
3 0.0 0.0 0.0 0.0 0.0 0.0 0.0 
3 0.0 0.0 0.0 -1.8731530253029793 1.8731530253029838 0.0 0.0 
3 0.0 0.0 0.0 0.0 0.0 0.0 0.0 
3 0.0 0.0 0.0 0.0 0.0 0.0 0.0 
3 0.0 0.0 0.0 0.0 0.0 0.0 0.0 
3 0.0 0.0 -0.006740585620193374 -2.5585545617709875 5.354992858023954 -2.7896977106327694 0.0 
3 0.0 0.0 0.0 0.0 10.0 -9.999999999999998 0.0 
3 0.0 0.0 0.0 -2.2025317366766107E-4 0.0015567239730664216 0.0 -0.0013364707993996545 
3 -0.48058500935114196 -3.285091691566748 -1.0203469193530434 0.0 8.595674179853749 -1.0792362585910988 -2.7304143009917023 
3 0.0 0.0 0.0 0.0 0.0 0.0 0.0 
3 -0.6792682497423433 -1.088311852187234 -0.24707251252438234 -0.003755453706909458 3.0201242731776516 0.0 -1.0017162050167836 
3 0.0 0.0 0.0 0.0 0.0 0.0 0.0 
3 -0.43707181713349585 -0.670365748969855 -0.6497355060497059 -0.7311974857320752 3.804616425963909 -0.6814095649602661 -0.6348363031185112 
3 0.0 0.0 -3.192888377065412 -1.0499979454117345 4.242886322477137 0.0 0.0 
3 0.0 0.0 0.0 -9.999999999999982 10.0 0.0 0.0 
3 0.0 0.0 0.0 -10.000000000000002 10.0 0.0 0.0 
3 0.0 0.0 0.0 0.0 0.0 0.0 0.0 
3 -3.724412461563266 -1.1762244297038182 -0.9498457079126973 -1.775173552594852 10.0 -1.0368501479047225 -1.3374937003206402 
3 -0.33025880828429305 -0.4964433718089584 0.0 -0.444509436570932 1.7495568165080935 0.0 -0.47834519984390955 
3 -9.999944903642417 -4.790268386590072E-5 0.0 0.0 10.0 0.0 -7.193673717088892E-6 
3 0.0 -0.6848267301793247 -1.267290020408646 -3.6477245472814617 6.196189408897521 -0.2584087097750732 -0.3379394012529927 
3 0.0 -10.00000000000001 0.0 0.0 10.0 0.0 0.0 
3 0.0 0.0 0.0 0.0 0.0 0.0 0.0 
3 -0.8354751679540406 -1.2329829877455933 -1.2878995522748273 -1.3713267025564815 7.316673677250485 -1.2788988643338908 -1.3100904023856534 
3 -9.999999999999995 0.0 0.0 0.0 10.0 0.0 0.0 
3 0.0 0.0 0.0 0.0 0.0 0.0 0.0 
4 0.0 0.0 0.0 0.0 0.0 0.0 0.0 
4 -10.000000000000004 0.0 0.0 0.0 0.0 10.0 0.0 
4 0.0 0.0 -9.99999999999999 0.0 0.0 10.0 0.0 
4 0.0 0.0 -5.969109055029971 0.0 -2.067960923070789 10.0 -1.9629300218992392 
4 -2.2296434331369874 -4.199636900338226 0.0 0.0 -3.5707196665247634 10.0 0.0 
4 0.0 0.0 0.0 -10.0 0.0 10.0 0.0 
4 -2.937235221842265 -0.6895503432669112 0.0 0.0 0.0 3.626785565109173 0.0 
4 0.0 0.0 -9.999999999999988 0.0 0.0 10.0 0.0 
4 0.0 0.0 -9.99999999999999 0.0 0.0 10.0 0.0 
4 -0.6004630165297244 -1.6441291831616192 -2.774755020475704 -2.6466914413351876 -0.9773069760987599 10.0 -1.3566543623990057 
4 0.0 0.0 0.0 0.0 -10.000000000000004 10.0 0.0 
4 -1.2438542479982644 -1.9155390301202053 0.0 -6.840606721881556 0.0 10.0 0.0 
4 0.0 0.0 0.0 0.0 0.0 0.0 0.0 
4 -10.000000000000005 0.0 0.0 0.0 0.0 10.0 0.0 
4 -10.00000000000001 0.0 0.0 0.0 0.0 10.0 0.0 
4 0.0 0.0 0.0 0.0 0.0 -1.0063992811096465E-15 0.0 
4 0.0 0.0 -3.463886240604459 -0.942802340746042 -0.37995435966284113 4.786642941013342 0.0 
4 0.0 0.0 0.0 0.0 0.0 0.0 0.0 
4 0.0 -7.243635809021037 0.0 0.0 -2.7563641909789562 10.0 0.0 
4 -9.999999999999998 0.0 0.0 0.0 0.0 10.0 0.0 
4 0.0 0.0 -7.222725527017928 0.0 0.0 10.0 -2.777274472982062 
4 0.0 0.0 0.0 -10.000000000000004 0.0 10.0 0.0 
4 0.0 -0.1166892828462293 -2.3030039568805796 0.0 0.0 10.0 -7.580306760273191 
4 -9.596682357210735 0.0 0.0 0.0 -0.40331764278925825 10.0 0.0 
4 -10.000000000000009 0.0 0.0 0.0 0.0 10.0 0.0 
4 -0.5855799670828179 -0.8610213218312157 -2.5524750339102127 -1.761651575799954 -1.084871403045353 6.845599301669556 0.0 
4 0.0 0.0 0.0 0.0 0.0 0.0 0.0 
4 0.0 0.0 0.0 0.0 0.0 10.0 -10.0 
4 -0.44514956137626027 0.0 -0.4201616494567665 0.0 0.0 0.8653112108330262 0.0 
4 0.0 0.0 -10.000000000000005 0.0 0.0 10.0 0.0 
4 -9.99999999999999 0.0 0.0 0.0 0.0 10.0 0.0 
4 0.0 0.0 0.0 0.0 0.0 10.0 -9.999999999999973 
4 0.0 0.0 0.0 0.0 0.0 -3.416421235431743E-15 0.0 
4 0.0 0.0 0.0 0.0 0.0 0.0 0.0 
4 0.0 -0.980989116462426 -0.2686754676586392 -0.7193295733864613 -0.38941055947857256 2.892220645839612 -0.5338159288535109 
4 -0.02422706591794007 -0.14749891781297753 0.0 0.0 -0.053047649616345234 0.22477363334726144 0.0 
4 -10.00000000000001 0.0 0.0 0.0 0.0 10.0 0.0 
4 -10.0 0.0 0.0 0.0 0.0 10.0 0.0 
4 -0.3343224875532989 -0.9904319154380189 0.0 0.0 -8.675245597008672 10.0 0.0 
4 0.0 0.0 0.0 0.0 0.0 0.0 0.0 
4 0.0 0.0 0.0 0.0 0.0 10.0 -10.000000000000004 
4 -9.99999999999999 0.0 0.0 0.0 0.0 10.0 0.0 
4 0.0 0.0 0.0 0.0 0.0 0.0 0.0 
4 0.0 0.0 0.0 0.0 0.0 0.0 0.0 
4 0.0 -1.3830045444307622 0.0 0.0 -0.8915247206397507 2.2745292650705125 0.0 
4 -9.999999999999998 0.0 0.0 0.0 0.0 10.0 0.0 
4 0.0 0.0 0.0 0.0 0.0 10.0 -9.999999999999979 
4 -1.7402870545964058 0.0 -7.601392367244714 0.0 0.0 10.0 -0.6583205781588785 
4 -7.762428623898065 0.0 0.0 0.0 0.0 10.0 -2.237571376101934 
4 0.0 0.0 0.0 0.0 -4.113093582356497 4.113093582356497 0.0 
4 0.0 0.0 -2.279002995507816 -0.434649558771665 0.0 10.0 -7.2863474457205175 
4 0.0 -3.755615686073213 0.0 -0.6003755801230699 -0.6953850390189752 10.0 -4.948623694784743 
4 -10.000000000000004 0.0 0.0 0.0 0.0 10.0 0.0 
4 -6.785060511995831 -0.9409877782089716 0.0 -2.273951709795195 0.0 10.0 0.0 
4 0.0 0.0 0.0 0.0 -1.018871220758238 1.018871220758238 0.0 
4 -10.0 0.0 0.0 0.0 0.0 10.0 0.0 
4 0.0 -3.956319237280933 0.0 0.0 -0.828914515378467 10.0 -5.214766247340609 
4 -3.914554929632086 0.0 -1.821829708639697 0.0 -4.263615361728256 10.0 0.0 
4 0.0 0.0 -5.866635935629438 -4.133364064370561 0.0 10.0 0.0 
4 -1.3478748955215802 -0.43895034472406597 -0.6642043785796242 -0.9283055904561369 -1.0158805670506001 5.139142399497594 -0.7439266231655834 
1 0.0 0.0 0.0 0.0 0.0 0.0 0.0 
1 0.0 0.0 0.0 0.0 0.0 -9.999999999999995 10.0 
1 0.0 0.0 0.0 0.0 0.0 -10.000000000000004 10.0 
1 -1.2424567729552691 -1.033828821707765 -1.1527727826266656 -1.5599055279352803 -1.3268315682595822 -1.3021663763876234 7.617961849872193 
1 0.0 0.0 0.0 0.0 0.0 0.0 0.0 
1 0.0 0.0 0.0 0.0 0.0 0.0 0.0 
1 0.0 0.0 0.0 0.0 0.0 0.0 0.0 
1 0.0 0.0 0.0 0.0 0.0 0.0 0.0 
1 0.0 0.0 0.0 0.0 0.0 0.0 0.0 
1 -10.000000000000005 0.0 0.0 0.0 0.0 0.0 10.0 
1 -1.952237790579288 -1.7893735415815153 -0.6885567782469897 -1.991192214013227 -1.7814497789261912 -1.7971898966527904 10.0 
1 -0.29642462363988276 -0.2902181276616644 -0.22936349902312542 -0.40192788411263575 -0.320692338441055 -0.31669435227558757 1.8553208251539517 
1 -1.4532738309419309 -0.6868321143981502 0.0 -5.888643130319168 -1.7963587898353837 0.0 9.825107865494632 
1 -5.7651701985532275 0.0 -3.469637453041891 0.0 -0.7651923484048834 0.0 10.0 
1 0.0 0.0 0.0 0.0 0.0 -9.999999999999998 10.0 
1 0.0 -9.367190082147912 0.0 -0.16452159801268623 -0.3977040303723326 -0.07058428946709691 10.0 
1 -10.000000000000007 0.0 0.0 0.0 0.0 0.0 10.0 
1 0.0 0.0 -9.421444753397845 -0.5785552466021683 0.0 0.0 10.0 
1 0.0 0.0 0.0 0.0 0.0 -9.999999999999995 10.0 
1 0.0 -1.1578768569371225 0.0 0.0 0.0 -8.842123143062881 10.0 
1 0.0 0.0 -9.999999999999998 0.0 0.0 0.0 10.0 
1 0.0 0.0 0.0 0.0 0.0 0.0 -1.8440436553433068E-15 
1 -0.5338471606370451 0.0 -3.376714871911559 -4.114477451406236 -1.1076480035190597 -0.867312512526096 10.0 
1 0.0 0.0 0.0 0.0 0.0 0.0 -3.4882538338897192E-15 
1 0.0 0.0 -0.2680277609455112 -0.209419381662729 0.0 0.0 0.47744714260824345 
1 0.0 0.0 0.0 0.0 -2.2314494127640008 0.0 2.2314494127640008 
1 -4.2583319105863655 -5.687463748860196 0.0 0.0 -0.05420434055343492 0.0 10.0 
1 -0.18584088447447125 -0.18704329310843285 -0.1505527093736306 -0.2656354251570313 -0.2084984828444124 -0.2082063807164922 1.2057771756744697 
1 0.0 0.0 -10.000000000000005 0.0 0.0 0.0 10.0 
1 0.0 0.0 0.0 0.0 0.0 -9.999999999999995 10.0 
1 0.0 0.0 0.0 0.0 0.0 -9.999999999999995 10.0 
1 -0.4770358067008855 -2.276667750450568 -6.626875689721696 -0.6194207531268519 0.0 0.0 10.0 
1 0.0 0.0 0.0 0.0 0.0 0.0 0.0 
1 0.0 0.0 0.0 0.0 -3.3735367975248693 -6.626463202475133 10.0 
1 0.0 0.0 -10.00000000000001 0.0 0.0 0.0 10.0 
1 -0.5441622396232487 -6.4966684898469635 -2.9591692705298045 0.0 0.0 0.0 10.0 
1 0.0 0.0 -9.999999999999996 0.0 0.0 0.0 10.0 
1 -0.185862583357512 -0.18707975095457033 -0.1508970626736455 -0.2654054424464154 -0.20818111406620834 -0.20768115509108112 1.2051071085894332 
1 0.0 0.0 0.0 0.0 0.0 0.0 0.0 
1 0.0 0.0 -1.4340049967891006 0.0 -4.9293352643087776 -1.8261577205968302 8.189497981694709 
1 -0.8043660276113908 -0.8067358162643864 -0.6951299694417478 -1.0344734894980725 -0.8830966458927999 -0.8713359598238982 5.095137908532304 
