2	2	0.0	0.0	0.0	0.0	0.0	0.0	0.0	0.0	0.0	0.0	0.0	0.0	0.0	0.0	0.0	0.0	0.0	0.0	0.0	0.0	0.0	0.0	0.0	0.0	0.0	0.0	0.0	0.0	0.0	0.0	0.0	0.0	0.0	0.0	0.0	0.0	0.0	0.0	0.0	0.0	0.0	0.0	0.0	0.0	0.0	0.0	0.0	0.0	0.0	0.0	0.0	0.0	0.0	0.0	0.0	0.0	0.0	0.0	0.0	0.0	0.0	0.0	0.0	0.0	0.0	0.0	0.0	0.0	0.0	0.0	0.0	0.0	0.0	0.0	0.0	0.0	0.0	0.0	0.0	0.0	0.0	0.0	0.0	0.0	0.0	0.0	0.0	0.0	0.0	0.0	0.0	0.0	0.0	0.0	0.0	0.0	0.0	0.0	0.0	0.0	0.0	0.0	0.0	0.0	0.0	0.0	0.0	0.0	0.0	0.0	0.0	0.0	0.0	0.0	0.0	0.0	0.0	0.0	0.0	0.0	0.0	0.0	0.0	0.0	0.0	0.0	0.0	0.0	0.0	0.0	0.0	0.0	0.0	0.0	0.0	0.0	0.0	0.0	0.0	0.0	0.0	0.0	0.0	0.0	0.0	0.0	0.0	0.0	0.0	0.0	0.0	0.0	0.0	0.0	0.0	0.0	0.0	0.0	0.0	0.0	0.0	0.0	0.0	0.0	0.0	0.0	0.0	0.0	0.0	0.0	0.0	0.0	0.0	0.0	0.0	0.0	0.0	0.0	0.0	0.0	0.0	0.0	0.0	0.0	0.0	0.0	0.0	0.0	0.0	0.0	0.0	0.0	0.0	0.0	0.0	0.0	0.0	0.0	0.0	0.0	
7	0	-0.012377316794301426	0.01358211353058543	-0.0015798913781998518	0.06891680012335012	0.10282572839979184	-0.14676916426595338	-0.06069882634194175	-0.02786375287031469	0.00470844220162182	-0.08876169054880984	0.07544804253521922	0.13457500425991709	0.08896190176253457	-0.021290727087462106	-0.08646378471647517	0.015679568491012184	-0.08791906782266981	0.039417834167885184	-0.09696242800951516	0.07083965346018385	-0.08250168901470162	0.03565980120915675	-0.033165760129124165	0.039412241632157424	0.07896169994099848	-0.1214610527607169	-0.03194166485543438	0.03803046510284578	-0.015449381598185659	-0.029293446851642865	-0.03512111366945536	-0.08985778705003059	0.0991993225843024	0.06286933971607891	0.19775858881270417	0.1094507907510004	0.009796993806097795	-0.020938847919509573	0.17374599336162333	0.010608257853540162	-0.06438946758138511	-0.04761258837060115	0.036935864876717475	-0.06301793933188901	-0.08755825232779198	-0.0915468815155436	-0.09040706508097382	0.030336883261341246	-0.017664741325259324	-0.013014129078795717	-0.05994723346670671	0.0708760436136037	0.049631998156418534	0.007074941604250672	-0.04991911452553508	-0.04362639521596681	0.0399807636381824	-3.961089569941316E-4	-0.01134461194835836	-0.026646420219437496	-0.03455901129895583	-0.04347027799248938	0.17383788925590707	-0.06534205598783402	0.08544927519859981	0.04724145936523178	-0.02746256541818238	0.04240738792748366	-0.011185691975097339	0.04397286555184845	-0.026080334293344984	0.05704143717109038	-0.020050767997667012	0.012006214004877901	0.05234796067671188	-0.11806099859528	0.050801887367003445	-0.020067485589760875	-0.025416405618121505	-0.024537607036471513	0.08421500620333876	-0.16310283693839128	0.11678609036017511	-0.07900495349334363	0.05932806538074987	-0.09125686769346572	0.006350521538371687	-0.07051217574623735	-0.04622162899672267	0.050578099724929826	-0.05967934569372137	0.028448688523881195	0.047086612145183025	-0.11071567275107591	0.06231152591554054	0.03733655877372898	0.0714978901907587	-0.027888398698878304	-0.01736333756449907	-0.09240652166594057	0.09360006138008939	0.12764422741513365	-0.013276464439989366	0.04413406896521402	0.049825899466949014	-0.021582147031170316	-0.12303091861406741	-0.029264174535142656	-0.022396102916958656	0.021577348665691734	-0.0405948032760639	0.11389167281281788	0.07256315358482895	-0.07425456693230902	-0.0993295855809639	-0.022845221177676827	-0.041682268796291284	0.059685933982932385	0.02760167536667934	0.02002484045672966	-0.03477640703777789	0.04792625893192662	0.023541935954624692	-0.12960473814778795	0.07269614171025118	0.06825620287338849	0.12951255981770546	0.03731244578059382	0.0893353061293453	-0.06547520023594955	0.08107618291624205	-0.03308858633507916	0.10329555255720535	0.04808142767039439	0.0713930543811918	0.0677056112451091	-0.02929013617781867	-0.08115281624011762	-0.030582435078467647	-0.017261206249876856	-0.13697323815572446	-0.07787744345460901	0.039611741442812286	0.013752766675580877	0.071741074296102	-0.10339384053253013	0.10602435379932204	0.001773365934272788	-0.09618955746036696	0.04300559651830517	-0.0029703324550684395	-0.020977990424639242	-0.10184152489133293	-0.029988670395973093	-0.016672536245916046	0.08605450466910465	-0.014490994792214414	0.04486710429524499	-0.04138666573276381	-0.13318887151920425	-0.07213898419027823	-0.027664180789567477	0.03865859022512912	-0.04670821746342617	0.024793383295255895	-0.008070723541843464	0.015797187785395517	-0.0656810711520202	-0.07321735584578459	-0.08425443075980052	0.004767369131471548	-0.0353190880872621	-0.048094222671836544	0.0767774551936463	-0.05697341114012547	0.12791064560161608	-0.018110354342442913	-0.07080176582230499	-0.016465843603940447	-0.049670296836868216	0.03235474633241249	-0.04749220603649369	-0.04156769187031211	-0.042337408935498	-0.03668787409929815	-0.03949998608987457	0.018695286838311728	0.01967158662244277	0.17721918886841626	-0.05455286656808894	0.04867258005385067	-0.046066373899684536	0.1239068424661785	0.14226642729311798	-2.3707356930993247E-4	-0.03303976480496654	-0.015649703436187958	0.1483269433969834	-0.17581985675580847	0.03142120309105424	
11	5	0.018608386966124244	0.0096936504763251	-0.017966668190502834	0.008749551803872711	0.010393134441235992	0.13486143958958122	-0.019968489433945087	0.046906833961224116	-0.009200415487940407	0.059955657147062094	-0.04349266361261359	-0.09025141425038136	0.036877316306464986	0.062391335317815384	0.041664714639318	-0.041560867587406326	0.01490362608067998	0.03487344262673214	-0.059103858324027994	-0.035223093671393355	0.10339359091892046	0.03827315357668646	0.010523325746762124	-0.061034987457730436	-0.048770146394967816	0.13210422605105335	0.038825696022299204	-0.07972447087653571	0.05384645273918313	0.0010480009427466885	-0.05889302485061086	0.08992574265531372	-0.009624815591425065	-0.02257479620378826	-0.150802484899033	-0.007803149445932186	-0.0312792811227857	0.04466624720919906	-0.0825547200252071	0.002204535262155179	0.07227554683298408	0.06530091908185583	0.0032333433264961904	0.08940672515824888	0.03628881034104349	4.756748962246232E-4	0.17986586394480103	0.02285395836058881	0.05727051137296074	0.003305299032349239	0.11263821590606378	0.04911874368242171	0.02815287163366161	0.02871618826662577	-0.01801126917422006	0.07631295882345022	-0.09760143269322247	-0.02918035749388196	0.03955921573772903	0.04189869524278571	0.0575688176491227	0.03909076652754953	-0.13170200373808305	0.07642027230289959	0.006994438127367576	0.10623935782218705	0.09344855772662845	-0.03194213823016112	-0.06885792718276806	-0.05266869098560082	0.05392915377849303	-0.033179019321754856	0.016685314024054564	0.0048094582995596505	-0.02712037990598638	0.18901707404776202	-0.0796186480861038	0.005371421044129907	0.0382266176529207	-0.025124081943329362	-0.022861145463111982	0.13981477860414188	0.024930674911779378	0.05214970041532721	0.005774050605364467	0.08903918040942199	0.037471796715992274	0.11304094496784826	-0.023147900103847884	-0.06924194219050854	0.05891901885247386	-0.04192000540308927	-0.023215453951291643	0.16234302657540592	-0.041002191597327854	0.01973462667750366	-0.019703485494113344	0.06029539719941293	0.05283287667262799	0.04541303802366733	-0.07114147688458823	-0.12191715311599097	-0.03375985839476234	-0.010812717323855928	-0.05948365941881417	0.08047156142217092	0.06972685629734215	-0.06061637981200486	0.0413683649790364	0.03145464145513207	0.042760319752159895	-0.1633728044700055	-0.035097600393252285	0.007328867618912093	0.16203941930993523	0.08048214967021884	-0.05007847279515092	-0.07257600795224661	0.027321297724260375	0.027626631887114745	-0.043158790878769636	0.011017336498023559	0.068414240912305	0.20938169760693526	-0.0951571686444838	-0.11736804448773104	-0.08854237520344616	0.0048592634747913225	0.0021427878359354547	-0.028083019004221235	-0.04035335582483745	0.07352852294787729	-0.11527725533591535	-0.061129793848728985	-0.0559841998110463	-0.12337928223093356	0.07668797511334656	0.04784499846619312	0.00969884166918565	-0.0725689924820141	0.046506991862460774	0.055528036303437674	0.024839752235649853	-0.01947109554616651	-0.005275958670899307	0.21430477974325168	-0.04673110378281591	0.028391378101088705	0.10525990673541835	-7.847791181878778E-5	-0.012762101599162856	0.049513035599933135	0.07083686746831536	0.03472779356548761	0.03639808151327381	-0.042202776785131665	-0.04515703093172628	-0.01956492646306952	0.10418286720591995	0.09766373319088179	0.04382735564702692	0.02010129347423387	-0.0068772484543083235	0.08812680572386983	-0.052262477280192454	0.059478812996376765	-0.02892827918241709	0.04595112368187037	0.12305535527856257	0.06124409874838994	-0.011350367630611978	0.1386543132431191	0.08138416204691173	-0.033525673795016954	-0.04043760635006977	-0.07529225297630893	0.017919640107145782	0.03760688506522294	0.1175360749499172	0.03210304830514672	0.04254152739433089	-0.020935573426772137	0.060049587983962184	0.03643192080606336	0.07975157490141205	0.0603039609094928	-0.02434730389733679	0.019889760539471734	-0.1440905887056775	0.0031278971083019266	-0.003522806477322616	-0.017905511739303243	-0.1774443567384702	-0.19605913319680215	-0.030807903122558673	0.051699180683635486	0.01825225232829609	-0.0703855204203226	0.014133862312574092	0.07874593424884482	
13	6	0.14830394732205818	-0.023692735744322017	-0.05465629849895369	0.1082850623417996	-0.07651078102155427	0.021609296440687195	0.16495450313725477	0.0011268046952310846	-0.14910955470036766	-0.1354625738106283	-0.05665975803614519	0.049252581881986314	0.033111478373055954	-0.1149911673213638	0.026141158430879843	-0.02128936516933473	0.04914191673645869	-0.0430764694141395	0.1792930523686043	-0.013900587155691367	-0.0203656039608583	0.014196094158058323	-0.03334188643027885	0.03772160544720695	0.03285999138244603	0.1302897107746334	-0.011926521390238724	-0.04108372352216693	-0.046448170140488056	0.02230681715170955	0.030391039639433716	-0.03890944089242941	-0.06554964496218905	-0.08548633677822451	-0.12591314573124934	-0.1175971219512587	-0.051232129555888545	-0.06282029680568951	-0.022887754207601977	-0.11330884034757527	0.06160906243110922	0.06463321552772505	0.03725772857767011	0.019828062902360048	0.039016611669306825	-0.0040391587885342745	-0.08153408027511269	-0.029390323735131	-0.1577963816945388	0.049575244397031724	-0.05148812161258138	-0.0021538236224874674	-0.08186569426890326	-0.07444092626024189	-0.006164103664516499	-0.044954017738742226	-0.056784401212622536	-0.058154629791628124	-0.08636148262281251	0.07441951258801886	0.07099745674181249	0.07989119676405283	-0.08398488508597911	0.006377029660384354	0.008705078920117468	-0.13074440871180057	-0.042779031205957184	-0.017758284990604764	0.03769484693151979	0.10564522540927722	0.09448441218761297	-0.017450882701018345	-0.0855637299858433	-0.0013023161385933488	-0.09359390015233542	-0.06414463601485874	0.027775066636869124	0.05406147002018325	0.0918259282309489	-0.04843477549725717	-0.036126475635108506	0.02860166454755024	-0.20629906855841615	0.035158779519605554	-0.016521862320399008	-0.009492273498514692	0.01631716568920347	-0.03214010120868232	0.031799123360728036	-0.030107932902796303	0.030359086118323473	0.10844483920802525	-0.11117561336499739	-0.015914054260325095	-0.13429523471722557	-0.08096882968463721	-0.03233392564352941	0.04134181613994631	-0.01103890431581551	0.06019956220909601	-0.08813544948043264	-0.06991269896523386	0.06789230202369348	0.03697177059889273	-0.1404841377648605	-0.07170354512587962	0.0013656857560446997	0.07135527187560987	-0.01387394582051187	-0.06456921990714586	-0.06285532734499853	-0.06098986258670814	-0.0768144905973196	-0.015361940250172405	0.009443855729260169	-0.08069900695068614	0.1372761594655678	-0.04789485282341503	-0.032543467287293286	-3.260132260271903E-4	0.10814137143742573	-0.1322917251556778	-0.09215171870990335	-0.0014913435260185688	-0.059418321435929025	-0.0824358324074545	-0.010624896736014406	0.014112587822099346	-0.017823774661858905	-0.01491471447665022	-0.11680221763404396	0.017643556363943533	-0.0033962018812417807	0.04784508655697292	-0.031431973029309036	-0.006569797183402869	-0.10793501594914914	0.0476457374274714	-0.047203822755624195	0.14569242538990382	0.06077759506816563	-0.007860278576872982	0.018603328453749828	0.04761248137946479	-0.08755735241219259	0.04787489665668825	0.044798076405800004	0.06470859475869639	-0.048030574847652205	-0.008528100495935496	0.030399943089912937	0.03513375209801564	0.05667217622362346	0.0211158768843903	-0.04019687610071901	-0.031211393475250208	0.06006619838985196	-0.12061890157436674	-0.04269665084228251	0.15106014953075336	0.0741324729577831	-0.07520350160896423	-0.02639121347715359	-0.09018706742758652	-0.08209771895017996	-0.08632549782980313	0.054604307142085154	-0.06771604272465882	-0.039768999299766634	-0.006811023081891034	-0.11147315385363847	-0.0666653102326326	-0.013457075342007999	-0.06606610452951503	0.10485201528477371	-0.02958066654944174	-0.07350438262951896	-0.018663958411776337	-0.036962083950409216	0.0775893138112869	0.02603933119102181	0.13122971454014762	0.07381599273317242	0.0038143794083607334	-0.011506189538639817	0.01870954153295454	-0.031905969928169284	0.04824985724636509	0.034488975093723194	0.08784617328209095	0.027418389282922916	-0.009330931891659363	0.0725012740201403	-0.028991217260710047	0.0853164825643458	0.06112160786134311	-0.0077180288609931405	-0.0976674694716335	0.14754189865090409	-0.09070649949004686	
14	0	0.08944082571629648	-0.005150080807716548	-0.0352046772815885	0.15035730283923737	0.052855057598965194	-0.12749420795745559	0.05818784049993067	-0.02643268908813384	-0.07435777982417763	-0.16617570168335336	0.03330533586814468	0.1759982187959591	0.10776879966087485	-0.10029333900949891	-0.07984025742206732	-0.004458746861154753	-0.04794284260040112	0.010839632550326694	0.022147859961476266	0.06079483573400865	-0.09600602309670637	0.03215100806280622	-0.051176605704846494	0.0698359304345083	0.11577722861633791	-0.04738648217078515	-0.03161924185818933	0.005712526646202195	-0.05951152116692921	-0.030190434564489915	0.008138095269984139	-0.11859443703698978	0.04086706174181446	0.010115322137531434	0.1177617187652072	0.025460572131825537	-0.020005562046961353	-0.05325087404903162	0.16311961523639165	-0.0646003257776027	-0.013652265896580846	0.007887603633834698	0.052259225832913384	-0.053979347907273774	-0.052008464533404644	-0.08981570462979549	-0.14107513916324838	0.004038683370215226	-0.12726579045994438	0.008321125585203358	-0.09296329410450996	0.05914982566623656	-0.006498612587589555	-0.0245681391076277	-0.0655734268626931	-0.08046387949928384	1.6540085750358114E-4	-0.05792090153387684	-0.06181438932286396	0.005155336017285161	0.01343480965427778	0.004311323070876538	0.10741308031514721	-0.05171465679104338	0.06672476646122381	-0.050797472564656436	-0.05470092549915	0.03982253966339698	0.02491758063212101	0.11109097973856485	0.029132370551813627	0.04390400758643463	-0.0794121177642426	0.004498499238621137	-0.012140408927373073	-0.1723813593365862	0.06134428512242278	0.022588852179310524	0.04493301383063904	-0.05075918103579538	0.06685160752078967	-0.1648152583261937	-0.02392091749783748	-0.05234689504713772	0.05079057720236239	-0.10194202250885263	0.03484692701343387	-0.08640000604588545	-0.013052594099222062	0.03477490550696096	-0.03887997191119789	0.1021394293819518	-0.009323589600686733	-0.1260022896144233	-0.02536085087152257	-0.014198055721283598	0.05205813869467025	0.0011207847144310975	-0.028181826940843202	-0.035909049369335554	0.024577163726586602	0.06984782878985683	0.016031104028766945	0.05166949824374391	-0.052496533762180386	-0.07110481398229337	-0.12373573607608997	0.01998941668150125	-0.024737195960569502	-0.005855123354866713	-0.07303231340007305	0.06435770442049182	0.023254121880292803	-0.07599314919718594	-0.12256719523037302	-0.06817702274384858	0.06269775435766453	0.03182721527955607	-0.007603929894628318	0.024573724614131827	0.05160045467698749	-0.02368618349359084	-0.02976961066524566	-0.12692279759146666	0.03215279161731665	0.01105763754956138	0.12308771810821384	0.04267823791052395	0.08855488927964211	-0.06998641934063725	0.00424764389187662	-0.022891512356161443	0.11188188253509956	0.07562126459255882	0.05333069249048663	0.08156396731315628	-0.09577711090428592	-0.058801514134810454	-0.061667402956490196	0.09174168186119339	-0.10459928153276046	-0.09422011283140201	0.05835813118943025	0.043595442075019725	0.019922941635768545	-0.10206335352674467	0.1333270473889536	0.020087808476119517	-0.12058847335859933	0.04347668050435096	0.017591336657866302	-0.004527149169317714	-0.05007522076742361	-9.216257523678327E-4	-0.05977134448430769	0.04706792454677087	0.04357310507710958	-0.028626060322582754	-0.06369811256977063	-0.026196945165471743	-0.024123803539672164	-0.06973827414320927	0.030351252001487458	-0.09529694157273513	-0.022234392045277933	-0.05432511649063102	0.055010372123807584	-0.1048537522301721	-0.10550864034062561	-0.07834206214824953	-0.0536623146649537	-0.09017087741091176	-0.06804965797494399	0.041185224701870575	0.014746780761537827	0.11698533715020683	-0.06640555113374266	-0.07903278342022398	-0.048183576881988106	0.004209524187365541	0.048346185221000856	0.045490430142495764	0.007131076959151351	-0.04034318934130168	-0.06017008124649954	-0.03271883635627735	0.003922378345691681	0.05684486756509526	0.1959768718913519	0.012690858163722464	0.07292539160615043	-0.051157824053119624	0.15731062197710016	0.12505181771088053	0.05508392676888094	0.015834113797052175	-0.011482538468748572	0.08164167068063899	-0.09500091698762968	-0.02981917952439413	
15	0	-0.018608386966124418	-0.009693650476325094	0.017966668190502893	-0.008749551803873087	-0.010393134441236187	-0.13486143958958122	0.019968489433945007	-0.046906833961224165	0.009200415487940294	-0.05995565714706203	0.04349266361261363	0.09025141425038109	-0.03687731630646526	-0.06239133531781533	-0.041664714639317764	0.04156086758740647	-0.01490362608067995	-0.034873442626732254	0.059103858324028175	0.035223093671393306	-0.10339359091892049	-0.03827315357668647	-0.010523325746762095	0.06103498745773037	0.04877014639496754	-0.1321042260510533	-0.03882569602229932	0.07972447087653589	-0.053846452739183	-0.0010480009427464606	0.05889302485061076	-0.08992574265531364	0.009624815591425095	0.022574796203788203	0.15080248489903295	0.007803149445932122	0.03127928112278574	-0.04466624720919917	0.08255472002520683	-0.0022045352621551237	-0.07227554683298423	-0.06530091908185608	-0.0032333433264961943	-0.08940672515824889	-0.03628881034104352	-4.756748962244391E-4	-0.17986586394480117	-0.022853958360588813	-0.057270511372960624	-0.003305299032349131	-0.11263821590606385	-0.04911874368242182	-0.028152871633661685	-0.02871618826662599	0.018011269174220336	-0.07631295882345017	0.09760143269322265	0.029180357493882283	-0.03955921573772909	-0.04189869524278557	-0.05756881764912281	-0.03909076652754951	0.13170200373808316	-0.07642027230289972	-0.006994438127367491	-0.10623935782218716	-0.09344855772662855	0.031942138230161	0.06885792718276805	0.05266869098560078	-0.0539291537784931	0.033179019321754835	-0.01668531402405445	-0.004809458299559601	0.02712037990598642	-0.18901707404776197	0.07961864808610393	-0.005371421044129988	-0.03822661765292092	0.02512408194332943	0.022861145463111788	-0.13981477860414154	-0.024930674911779464	-0.05214970041532721	-0.005774050605364625	-0.08903918040942191	-0.03747179671599259	-0.11304094496784839	0.023147900103847856	0.06924194219050857	-0.0589190188524739	0.04192000540308914	0.023215453951291477	-0.16234302657540592	0.04100219159732789	-0.01973462667750374	0.01970348549411324	-0.06029539719941305	-0.05283287667262804	-0.04541303802366747	0.07114147688458841	0.12191715311599113	0.03375985839476257	0.010812717323856032	0.05948365941881443	-0.08047156142217093	-0.069726856297342	0.06061637981200494	-0.04136836497903651	-0.03145464145513232	-0.04276031975215995	0.1633728044700057	0.03509760039325226	-0.007328867618912033	-0.16203941930993504	-0.080482149670219	0.05007847279515085	0.07257600795224661	-0.027321297724260292	-0.027626631887114884	0.04315879087876952	-0.011017336498023776	-0.06841424091230519	-0.20938169760693548	0.0951571686444839	0.11736804448773122	0.08854237520344603	-0.004859263474791373	-0.002142787835935785	0.02808301900422138	0.04035335582483744	-0.07352852294787737	0.11527725533591524	0.061129793848729026	0.05598419981104624	0.12337928223093345	-0.07668797511334663	-0.047844998466192966	-0.009698841669185564	0.07256899248201401	-0.04650699186246053	-0.055528036303437465	-0.024839752235650072	0.019471095546166498	0.00527595867089916	-0.21430477974325157	0.046731103782815774	-0.028391378101088532	-0.10525990673541843	7.847791181862472E-5	0.012762101599162853	-0.049513035599933135	-0.07083686746831551	-0.0347277935654878	-0.03639808151327363	0.0422027767851318	0.04515703093172614	0.01956492646306949	-0.1041828672059201	-0.09766373319088192	-0.043827355647026896	-0.020101293474233888	0.006877248454308152	-0.08812680572386997	0.052262477280192475	-0.05947881299637693	0.02892827918241703	-0.045951123681870334	-0.12305535527856254	-0.06124409874839001	0.011350367630611907	-0.13865431324311914	-0.08138416204691164	0.03352567379501681	0.04043760635006988	0.0752922529763087	-0.017919640107145734	-0.0376068850652229	-0.11753607494991727	-0.03210304830514677	-0.042541527394331057	0.02093557342677211	-0.06004958798396227	-0.03643192080606331	-0.07975157490141194	-0.06030396090949277	0.02434730389733675	-0.019889760539471925	0.1440905887056774	-0.003127897108301987	0.0035228064773224054	0.017905511739303364	0.1774443567384704	0.19605913319680227	0.03080790312255868	-0.05169918068363568	-0.01825225232829619	0.07038552042032252	-0.014133862312573672	-0.07874593424884496	
20	4	0.0	0.0	0.0	0.0	0.0	0.0	0.0	0.0	0.0	0.0	0.0	0.0	0.0	0.0	0.0	0.0	0.0	0.0	0.0	0.0	0.0	0.0	0.0	0.0	0.0	0.0	0.0	0.0	0.0	0.0	0.0	0.0	0.0	0.0	0.0	0.0	0.0	0.0	0.0	0.0	0.0	0.0	0.0	0.0	0.0	0.0	0.0	0.0	0.0	0.0	0.0	0.0	0.0	0.0	0.0	0.0	0.0	0.0	0.0	0.0	0.0	0.0	0.0	0.0	0.0	0.0	0.0	0.0	0.0	0.0	0.0	0.0	0.0	0.0	0.0	0.0	0.0	0.0	0.0	0.0	0.0	0.0	0.0	0.0	0.0	0.0	0.0	0.0	0.0	0.0	0.0	0.0	0.0	0.0	0.0	0.0	0.0	0.0	0.0	0.0	0.0	0.0	0.0	0.0	0.0	0.0	0.0	0.0	0.0	0.0	0.0	0.0	0.0	0.0	0.0	0.0	0.0	0.0	0.0	0.0	0.0	0.0	0.0	0.0	0.0	0.0	0.0	0.0	0.0	0.0	0.0	0.0	0.0	0.0	0.0	0.0	0.0	0.0	0.0	0.0	0.0	0.0	0.0	0.0	0.0	0.0	0.0	0.0	0.0	0.0	0.0	0.0	0.0	0.0	0.0	0.0	0.0	0.0	0.0	0.0	0.0	0.0	0.0	0.0	0.0	0.0	0.0	0.0	0.0	0.0	0.0	0.0	0.0	0.0	0.0	0.0	0.0	0.0	0.0	0.0	0.0	0.0	0.0	0.0	0.0	0.0	0.0	0.0	0.0	0.0	0.0	0.0	0.0	0.0	0.0	0.0	0.0	0.0	0.0	0.0	
21	2	-0.04300179886540685	0.022396920123743343	0.02376116045436735	-0.08273131362816191	-0.07254207143496298	0.1523649563047752	-0.019464948507071533	0.005581684449576739	-0.05574618942561299	0.14544668143250325	0.0026368438427891733	-0.1398873804892623	-0.0644481771848732	0.049716981338176425	0.07246590912965613	-0.0074856813937870725	0.06861050644055294	0.072657077645975	0.0663996769915299	0.01975057107000518	0.04865574680747944	-0.0420520461603349	0.025976502438510136	-0.053563917601702545	-0.0666615398452085	0.14153098005562886	-0.03959881110294138	-0.04889829918328498	0.025954920769018782	0.007648018772150727	-0.017246918536247085	0.1159614172099941	-0.04611690110216104	0.01632604011056704	-0.14505866728062863	-0.08059709679037144	-0.05680574650286494	-0.018439686306125493	-0.11506005280355466	-0.06286765451727777	0.09548140311440685	-0.03578649322672305	-0.01633119585850451	0.07001250410063298	0.06638445530571999	0.1259121264527815	0.08192750388372569	0.051152725809562274	-0.044123126699486995	0.03172163961354966	0.0025173070007079106	-0.08158388293040816	-0.009270352049453213	-0.004778277172653115	-0.040286386619089606	0.0906823390204299	-0.03122935398900733	0.031169910035503255	0.0648307001196259	0.03413185491271099	0.028632192920674364	0.08792785603878317	-0.12002918643158977	0.07960194710803462	-0.07201732087278793	0.03233695549524913	0.02044496346856107	0.03999211530083286	-0.075303583149629	-0.1300002425734653	-0.07457270363106717	-0.0582263847993837	0.0013060692206781214	0.0019208749093486837	-0.051661333643440395	0.1274727539821751	-0.012787150998316817	0.038391381097002866	-0.024423833597394973	0.01563371100444276	-0.02097495955127084	0.16225699979123942	-0.005602906885895229	0.06271975397750341	-0.0190780921534935	0.07720084997896988	-0.007494267296579865	0.06533855106626484	-0.03786716008093457	0.0028943822215217792	0.06072251468714627	-0.11211505955191474	-0.002142624832589071	0.2412820379055863	-0.05230720436472924	0.006795694587426623	0.005791043528304843	-9.308727308367994E-4	-0.04303869016551062	0.04588836210182532	-0.00608805446893338	-0.07927763704585845	-0.033587012962164244	0.020906472622188327	0.06449077535287862	0.09835251414439661	0.09616586915434185	-0.09650998747531891	0.028354994556446474	-0.017730176563167145	0.05933729504133193	-0.06452886142732918	-0.0043986974557790924	0.12159863693246052	0.10051063711932468	3.773262971560327E-5	-0.08451386969144023	-0.035351909530681215	0.04072750631511702	0.06297635580328184	-0.06006670981127601	-0.05989861456724524	0.02788400817766453	0.0976579332153709	-0.03517860333877949	-0.02812115265759521	-0.07660805595857074	6.059254640495902E-4	-0.12291130418337555	0.02496014787666768	-0.039599068727993514	0.04629761009203935	-0.12113794825702938	-0.04957087855546746	-0.04513296571895541	-0.08883325997828981	0.08399916509250231	0.0532810481874046	0.003280661138608408	-0.018356387548221328	0.1053158426050275	0.012072524251166339	-0.03202384412950504	-0.02413476079967431	-0.02889775950809589	0.15772035441117108	-0.06241488931355632	0.003466330066519451	0.12532239159502154	-0.05480258399090383	-0.06259561346290675	-0.008517444785348091	0.10228908392113542	0.05160981886750908	0.10110344477053619	3.5928364449490407E-4	0.00760573786463137	0.009748880441319184	0.0720361765784067	0.0425089123398553	0.036174533656266925	-0.0066113948479382375	-0.06628576304721377	0.1059251833237464	0.0010868861986841184	0.039046494041738135	-0.029406529831334897	0.11571684203851094	0.1107352574653639	0.04875148295980279	0.04491786687010375	0.09160011022698965	0.08831085105193247	0.019741064145596923	0.06699849716976865	-0.17429503454454287	0.008931817110638047	0.04776034170584259	0.0111977364205015	0.06277695783358996	-0.01906927787599558	0.01652178590793638	0.0015986443223676434	0.06919733929770452	0.028126867948138463	0.03743862436489013	-0.018204594120226847	-0.06705491803890314	-0.2062516010738047	0.08967768333595132	-0.06527902382030973	-3.811253408727868E-4	-0.13747734172156223	-0.15128367611338694	-0.03299668456374478	-0.05037551292070371	0.0398718174065998	-0.027007673168172444	0.11315585494377861	-0.04474955447522043	
22	5	0.07781069507305469	-0.01432729605634147	-0.05337329287686065	0.11313704220698771	0.10287180760958461	-0.004320215057446475	-0.003149357107818415	0.05654507642088959	0.05582658904256562	-0.09708643012789647	-0.062003297050743644	0.049328656135367466	0.12875394792419076	0.023432443103909673	-0.03242669168515806	-0.04699303986496371	-0.06387987118378806	-0.04184296414584755	-0.16118280404021246	-0.07178742576449658	0.08014538098630328	0.10321397333315396	-0.01758037780914107	-0.01689242468692968	0.01572292834647448	0.0052098615361401215	0.10096208289736124	-0.047863998004342566	0.0409844711018776	-0.007953556089711602	-0.05846830001955985	-0.020469616705889107	0.043461552648714444	-0.05049661703798525	-0.026164329169989783	0.08815505442940182	0.027298967027410297	0.08293903299910894	0.0293324141920486	0.07995909404443435	-0.01924556314634614	0.13206735759100505	0.024364670183423927	0.03509019939379243	-0.032256011513672175	-0.15354152777501875	0.14273901000072017	-0.03174829950120565	0.13142899856463877	-0.03438454161236196	0.14913510991262688	0.16628650529838865	0.0493958292835128	0.04465630752091532	0.024989612800612224	-0.007920292811258932	-0.0936585727049348	-0.07760021321195569	-0.02592759525744057	0.014826387456716153	0.0427366284614822	-0.05483456854951626	-0.03100476754117665	0.005799954042573558	0.09764226203771109	0.10395982398861028	0.10125359984613401	-0.09213754428556525	-8.388552677384864E-4	0.08801631115852786	0.16419853657748304	0.02646438770492395	0.020949404527645897	0.004148979565195944	0.02660495619798381	0.09934637106256641	-0.09193728680670572	-0.03975119727591064	0.08156416324049717	-0.053095110087787875	-0.005203676857219583	-0.00975249284666024	0.04055690890984284	-0.0063256038650693356	0.031162355157372906	0.02578854862059157	0.059808695820250855	0.07274324013223502	0.015081113314734333	-0.09711556742367643	0.005264284290403126	0.0806445440125442	-0.028747788576929775	-0.07608006949413894	0.008635357080187932	0.01834587748452431	-0.033714741822945926	0.08262595525151897	0.12409999302151002	0.005173596285735916	-0.08867885399554656	-0.06767266467489058	-0.004492352450092523	-0.04021437341273585	-0.159352736696495	-0.011684351541785931	-0.023528012495648964	0.03626663576646188	0.02117629186774397	0.06421211154264782	-0.014878984486609985	-0.14175131559507936	-0.042047484560675405	-0.13899414869036206	0.09589849528458606	0.10871391844096817	0.03581410566064264	-0.054788121474660875	-0.012948870683283169	-0.03978138587992479	0.0152289755241828	0.08824367593398738	0.05830512013200184	0.1633674774169279	-0.08551752985846005	-0.12417610387528064	-0.025845188688108613	0.005825267193835596	0.1534073411510247	-0.06852027226483894	-0.006035531181805526	0.04267489292862268	-0.007443782775953327	-0.021911018321110105	-0.02039377584903457	-0.05795913000076163	7.655868053057235E-4	-5.870252462892917E-4	0.009088833874198832	-0.07559268440319249	-0.06611054032280234	0.060261582283391936	0.07278573295456309	0.003242098585579975	0.02825483766945238	0.09647202428382445	0.013279128979113023	0.0341300719885258	-0.011213890980965705	0.06699777296460695	0.05941289262596352	0.0773370368894817	-0.02953020873756203	-0.016273010639595034	-0.07462040493927512	-0.05747564983317297	-0.0703374759667381	-0.0383850832049176	0.0525837686293984	0.07993459213459894	0.01493044394042246	0.0352546282486795	0.07187888134293957	-0.010620813341382672	-0.07196159501980491	0.03256206929680676	-0.0030855960319935796	-0.07960896177082766	0.03068977073330029	0.023058395515135242	-0.07034168935723199	0.07521188658015002	0.0018479966886006762	-0.06948259227585528	-0.13668929447807107	0.11168281318578034	0.013286267858782645	-0.007668235493288325	0.1451302045810256	-0.03348717092607596	0.08084867642265978	-0.048523879230207304	0.07919769572627218	-0.035501995894679214	0.07333206133363464	0.035649457534395496	-0.010614850313688008	0.10899123363022467	0.05783830237388299	-0.10558914344606463	0.07517442750733347	-0.0237338737836996	-0.07144661193326922	-0.079711889415509	-0.001227632325719969	0.1315485665070398	-0.024157458931755776	-0.06204987175924332	-0.11947027016170948	0.1612221598182458	
25	4	-0.10913438194362039	-0.010783513000376792	0.06690531159312821	-0.10346190970049408	-0.019012469987475626	0.017616955322934925	-0.030032144927476773	-0.008583403860918735	0.20816193542119174	0.18530488038160225	-0.0010372404846853832	-0.03651168362828465	-0.12947523191209842	0.05126185532150791	-0.032192173016636474	0.005553035912013959	0.04730059642994412	-0.0203859146425164	-0.029950390615640476	-0.02141140861618082	0.0035352841832397047	-0.11935969357039951	0.059787375630118794	0.004900876041981262	0.013750684965119234	-0.157696551184261	0.0421077090297578	0.03936711608405291	-0.048137258247874855	-0.06319137232362824	0.141647371342623	0.019905369319927268	-0.07776900565678974	0.052611467925996795	0.0741454655996499	-0.006206797810612585	0.07118179504145741	0.07563731060219057	-0.03195448682823528	0.08164810667435474	-0.01002233776095301	-0.005896102428406085	-0.09860935163967026	-0.049775448734213905	0.05023939829448917	0.08799118602995497	0.021432538323599683	-0.04375227562576069	0.07688976612746906	-0.07860679820224026	0.010684063298106583	-0.12861295722093846	8.426165747023376E-4	0.10955221365651528	0.00431751694139714	-0.013320463234637295	0.07484157511481956	-0.013586955891407758	0.0761417802363631	-0.1436523708704722	-0.06733618916772932	-0.08259779475162578	-0.013809135168982148	0.028998699927721666	-0.17951797525758706	-0.05218495253787756	-0.008346276908971634	0.04489658246571982	0.0728537583050204	-0.09133069068345644	-0.1243735014264087	-0.013071901463386324	0.05935475420087951	-0.039558858536523904	0.04532185939370766	-0.043822637470453306	-0.03918036988264309	-0.0027295010293431365	-0.039205265587514686	0.09899445330608717	0.01371902013455723	-0.09015342116209116	0.043275932814285996	0.008664120421869244	-0.024058915395267354	-0.006209583340655199	0.032368367759438715	0.023232946562292987	0.07745661218537854	0.05167277043409885	-0.01797285991201702	-0.06938250475191741	0.142994787637026	-0.04000112446892442	0.09489306740305008	0.030929345054504363	-0.004561147908825723	-0.04631714261391152	-0.026997492474706702	0.0593668066817666	0.005705108622714456	-0.003365192568917519	-0.0895494429257606	-0.12750408548406086	0.07712014079382215	0.006782305326562514	0.03133224555070594	0.017076733652961962	0.028499632003125858	0.0800628553761741	0.08788416617087343	0.03729037122947716	0.03850479153083557	0.09662844210534366	-0.17316570832595066	0.05953956254041412	0.014590885527754302	0.061036651020847286	-0.07325089480415228	-0.015364243835263535	0.03421972985777794	0.13019735461706852	0.040798561741998675	-0.032820715625234205	0.052947423123400866	0.08499500968008757	-0.02142625533013953	-0.059017763213271464	-0.006228906949302861	0.10256733532204503	0.0628648076761394	-0.0479073044269656	0.05317607400451715	-0.04875894177772514	0.025727858050826058	0.11930071756332893	0.07697529248941799	-0.051160840969059054	0.05272645633434637	0.0020660681116707394	-0.013810811590588563	-0.022438774852048503	-0.03404852637015789	-0.04079367058012195	0.04742716819079579	-0.23994043528946538	-0.08974028589185865	-0.17682872838152222	0.06705168415895739	0.0020859942087614863	-0.011964383074799368	-0.07610244677897954	0.04061587465275192	0.04742749010533151	-0.051733975275358744	-0.08585864168767227	0.07027947993021424	0.10432068401653413	0.017158749130944357	-0.06270648607188149	-0.04104760502507071	0.09990078910191041	0.036815293488524053	0.09239525854724641	0.11396223571468628	0.08131336104228137	-0.021815676458665917	0.0967731784396104	-0.026361468862097507	0.07093544469301163	0.15785010332272426	-0.06320593402427868	-0.060195524399995926	0.05542082236199774	-0.005854190386491058	0.018933201695784493	0.06187766868693375	0.05971593650096283	-0.07280428798641021	-0.03761613800418331	-0.07914193104265783	-0.030615077878639867	-0.07372378797825883	-0.0011171202121005544	-0.08698342857091079	-0.051217045226227435	0.056567772034594226	-0.044585857283467256	-0.07209568307214531	0.006547478587626839	-0.026675717426036687	0.058032847619764995	-0.08766798528790543	0.06583740865264905	-0.05060147021120624	-0.023713041243497112	0.043993276968745804	0.009637220271288514	-0.07018194832629655	-0.010154169497867587	
27	3	0.0916663307262369	-0.04552803699006227	-0.004262653077617839	0.09663296346821525	-0.052616282298431176	0.06139321671270227	0.1411934994182229	0.022411005455267148	0.06467550142860291	0.02297604343036854	-0.0867577165941759	0.05434570303768751	-0.013901598325542422	-0.06649835654183951	-0.03243366698616603	-0.03919137964587937	0.06977489296828787	-0.02876311170660702	0.09714607407194144	-0.02838001249158513	-0.0014697884183031817	-0.07270300273865489	0.02378109052842889	0.052064984013470095	0.09325992852555338	0.012076391594576307	0.053835642720675966	-0.07511698689084947	-0.07823169521882155	-0.07760955865459529	0.1594744593961076	-0.031216270162802914	-0.1511015533788396	-0.03159406707023465	-0.05514024396648335	-0.11793045419261762	-3.62915150178497E-4	0.03838688327425667	-0.005107729304729132	-0.055820674722360984	0.11171572874110557	0.12060202321630067	-0.061683555112736585	0.01688265012779483	0.08886150022870173	0.05659560799092387	0.012745057824675443	-0.06449894482696325	-0.09694746136732799	-0.05684892039919497	-0.01381329597664547	-0.0654331208251912	-0.03475113598583928	0.09280069597400648	-0.07507132712985859	-0.057652901119715376	-0.04061792998722641	-0.1622489746065809	0.001976596208215948	-0.06573172748631502	0.0407409803531386	0.031102758828400617	-0.1283428598672948	0.08317231005721219	-0.15274709439476708	-0.12394472538473449	-0.018104141510619454	0.061273039757868714	0.08800539557829086	0.007468413833395278	0.015188038806826008	-0.023937562010547267	-0.05352277222027918	-0.032004289513067025	-0.043846636987467845	-0.08060527054907914	-0.04058799018907814	0.06976608261350035	0.10784962859905452	0.017113518435307253	0.018927537094478045	-0.07388022165558024	-0.13886495306663843	0.05836690206734515	0.0033337045237131504	-0.007638920283308354	0.12217803219035121	0.04819700128807207	0.10336951641941494	0.003027370943412073	0.028212906626740974	0.038955843071294495	0.04721469169743348	-0.02356420660605207	-0.06416851340002579	-0.020509423126033606	-0.015340824325549778	0.033821667321169493	-0.013198376796795634	0.14641842926987175	-0.13183026086633437	-0.1363286590038146	-0.06468827408185623	-0.10644971130598964	-0.12260711716007203	-0.031706763974347296	0.009903526155427696	0.0775064419773552	0.04087673420210926	0.05409806160331519	0.027338402756781455	-0.10146447970240513	-0.05577563860622578	0.041809656545530045	-0.16871566136961458	0.017042765639943853	0.13591933470336967	0.0028066007893396256	-0.0915834266027626	0.0385984699871041	0.14808163810161354	0.027339086113697703	0.02677136073382548	0.032663609287821464	-0.03524001489457482	-0.05455068404899361	-0.0103482610509716	-0.04221234459228326	0.025642401465832475	0.050639154827432364	-0.06789548499463745	-9.044058775432689E-4	0.0565335905703571	-0.0016948912043548818	-0.018596668518423235	0.10317537377588136	-0.003228791610062316	-0.01739446720116414	-0.021023484686538293	0.1366949873820933	-0.003121081377794303	-0.060339376310323274	0.05439916076260884	-0.004335214881173268	-0.0037348281298523077	-0.14011344188503358	9.971054163741785E-4	-0.14010394526844577	0.03804844591109197	0.02289502194687151	0.020694232342317917	-0.01915062757898198	0.11819092155360084	0.13110248551471634	-0.10016227826882296	-0.1432687739041295	0.14647545979605392	0.007374409662549766	0.028194604625323166	0.10777747475710588	0.03030526583968253	0.04948740120052281	0.04874731658158667	0.034508387463706235	7.462650073121393E-4	0.03654110776680066	0.04316322368825151	0.030109761652843473	-0.04919562305861432	0.08366120837296952	0.07382974452554682	-0.09525013505388175	-0.07308467166393329	0.010042905939556304	0.04801067196609197	0.016056479174235416	-0.03937259549976022	0.005003354301494102	-0.05544581130804242	0.07414763540302667	0.003536945529682947	0.09882403206206064	0.05418844405395322	-1.3999174620103608E-4	-0.11429345617423807	-0.025980947859999434	0.022184186574981286	0.04260596206145841	-0.027810617405715648	0.09462495619673093	0.03411862757295743	0.035516388819201834	-0.07621828905500644	-0.023223204879604956	0.012603256152956868	0.08422544622893803	0.07354267350470699	-0.07371107774893629	-0.04507200771186954	-0.06970596532176589	
30	6	0.09048275708434914	-0.032610112345787014	-0.027087473429611975	0.016474271196171817	-0.10484680266537699	0.10273336995765808	0.14268702156807614	0.0258723977373876	-0.030009086108788895	-0.007836652250985444	-0.10002743970173705	-0.0513955186102125	-0.05116817741004586	-0.04756464347343143	0.058256521399762444	-0.02831794361239838	0.08870879404888286	-0.07822754482385424	0.14552346061236837	-0.07929507680074047	0.05231042858167201	-0.026806108679693134	0.012105137638276635	8.124821506567405E-4	-0.023912375842187736	0.11235140873647256	0.04541251122629649	-0.042182754050837365	-0.027372044276289916	0.01919839808486096	0.07392258664808236	0.02717522672192667	-0.12039818307922999	-0.09656875387434097	-0.1887488128738039	-0.13209451745059392	-0.009760910185219277	0.008272429977623296	-0.13063133020307927	-0.037955437249502226	0.06576874367299065	0.09605228930187118	-0.0225271909933554	0.040791164065576146	0.08709129518085616	0.048051550790846706	0.027412308819491017	-0.06334391589562499	-0.04189723492116122	0.012972009091117788	0.033869415124091015	-0.05154736487815008	-0.07999170432267177	-0.01934043430982825	0.044909566105304104	-0.013037254739059576	-0.05345239359346466	-0.05244228900235107	-0.040589813218070786	0.0285013172317901	0.054178829468556566	0.041124344467938924	-0.1698279018833018	0.047449115011129354	-0.07751930921915838	-0.1204369359944039	0.0011582842898441262	-0.05023783085417998	0.06063410121979316	0.04197000360512975	0.08067207576479593	-0.04433964666895899	-0.02086328842423424	-0.018886910901272917	-0.07431739950606356	0.031159113210417144	-0.03975054917457464	0.03638226644033654	0.08005158148205964	0.0030870259804385925	-0.07957385630006272	0.09213667944745424	-0.198671563198131	0.072280298494846	-0.05385718260880578	0.05231808962716799	0.020959610843949893	0.03734460506777797	0.08057628036924934	-0.05695179627631414	0.050238334691870834	0.05676469450313694	-0.07359497493764024	0.015758591258241274	-0.09747059061051187	-0.06973843179782518	-0.08003046448019949	0.045790987258686355	0.022654755713721383	0.11354244490782917	-0.13291767214750166	-0.13524828508424527	0.03557345752866632	-0.04878051473798315	-0.1352229040897712	-0.043759701582136365	0.08236251196131189	0.09030987306014697	0.012995680244719485	-0.026511916287493244	9.689046526852935E-4	-0.12144328945762853	-0.0973867589210376	0.032441903165193936	0.03597321549542265	-0.00515883211092488	0.13710963628503914	-0.060993901021015755	-0.06626836066543705	-0.03455694496552855	0.11219870558055234	-0.06652059068475959	-0.0624326366123202	0.09320471692011421	-0.08375124982727186	-0.09259371869996877	-0.1000463561832831	-0.03280354872063864	-0.04164021762106678	0.052122610724868706	-0.1124394579522673	0.022001220885878213	-0.04899460120435608	-0.013004613773550581	-0.06199179118049871	-0.019951168154640136	-0.03939934121390847	0.0699062370283266	0.00705188421469817	0.09653399621448122	0.1125180040451886	0.054465780581163296	-0.012835219859403857	0.01365044013941763	-0.08866771660718122	0.03764541653152054	-0.061895869521070235	7.935608785495258E-4	0.03703304668701314	-0.02024931902302597	0.035387412365911614	0.030412528381546997	0.10059746060900937	0.03629400845522	-0.04948799276426366	-0.11087532162843772	0.053869819051547335	-0.08960471543769549	0.003493441963936686	0.18071843147863964	0.08626326871354938	0.0036865781448314266	-0.01736414091634329	-0.01698553549342033	-0.05137730419246749	-0.030082749911057936	0.02076618766245626	0.002611279719498025	0.010401024909788273	0.07112390467093181	-0.051078478974715694	-0.03474270080179787	-3.8048701440732884E-4	-0.0972169073687261	0.07800232057042661	-0.06847932357153012	-0.016438796393581298	0.047628458664192186	-0.011722852625186948	0.061701157041460966	-0.014192587546356389	0.10018473184021194	0.06814969483526441	0.018285341702890173	0.004840326086079829	0.02764226792047208	-0.01873764049385615	0.028186522127834148	-0.08861210174517145	0.06890789224230634	-0.006291190727740327	0.03990742571577634	-0.055750773639728794	-0.09440947745728616	0.045912367739973176	0.08097445152372043	0.00774209860679148	-0.17274238060584243	0.1742920496761467	-0.054742526391146115	
38	5	-0.08352576353580386	-0.0024776905104061317	0.018866444465737396	-0.18496989565210684	-0.08015249015237834	-0.06893522491116803	-0.03563920116981738	-0.024798740040924888	-0.05374228070923519	5.577186933038839E-4	0.03524031378271365	-0.0810881996741586	-0.12420338967992262	-0.0025995809597908945	0.07537221094570129	0.06099880018634804	0.016753845647085975	-0.05953805113290683	0.1023120499254701	-0.002116796539871664	-0.03707757789207882	-0.02499369263129061	-0.007637616645263116	-0.010832959463561557	-0.11361097884286862	-0.025604222926264467	-0.07990052314821912	0.11634599533196589	0.039499992847227196	0.10876785090380614	-0.027301129515661018	0.007291557683984172	0.03838468951987497	-0.015276789336559113	0.018123525689810665	-0.02355828161735152	0.015592302877020453	-0.07672711156000947	-0.08731609310566961	0.030699618509548998	-0.11366170255397047	-0.12666738144958248	0.0075389168120881585	-0.04258851049866626	-0.017345226056376253	0.05603185263377096	-0.12096227098037712	-0.0140952990235367	0.025723802240643807	0.05009087890478398	-0.06795188391566497	-0.09396612442345682	-0.05498564510765067	-0.11439798625330813	0.14154718235386668	0.01234050263483117	0.12064546021432153	0.16719171249275833	-0.04319809973374528	0.04983177535585218	-0.06702133241457076	-0.03940906129465388	0.09034527493735091	-0.08502152316317908	0.031257923668017155	-0.06311951220599327	-0.07597410765942589	-0.058972196349695354	0.026939279381993163	-1.777868185272656E-4	-0.03912166407529703	0.0015142958120122215	0.04019281275912398	0.014520004550376909	0.02268507943105244	-0.03774418608908147	0.08717169587011198	-0.056019188514515685	-0.10862401766081484	0.036891576780603334	-0.09046414471199449	0.09071307561620233	-0.03969305770480264	-0.023884394312058663	-0.07803614850997014	0.00665326824987527	-0.1572299694540228	-0.08968383452338571	-0.0018247927120943516	0.024164203579733725	-0.0392956886499409	-0.02549300381985074	-0.08115131199664068	-0.05467857533406341	0.05109445232011638	-0.04730588342870367	-0.05091082484276706	-0.07206419169644122	-0.035706201455636966	-0.08840505781356381	0.07627215158549462	0.11503852053307265	0.1199280200040892	0.0611835383154803	0.11701352576754576	-0.05014049306905272	0.040325310081035314	0.04876603892642195	-0.0587406894762569	-0.10343760860967928	-0.027390068265726264	0.16996126704865935	0.015406033808955593	0.03759203694484015	0.05849610653786902	-0.09073704967637783	-0.008519147427463252	0.013947973364826687	0.020471563066884933	-0.07828299200919445	-0.04291748011619381	-0.11088445654273607	-0.12057528891816206	-0.14671861313470594	0.08576870428837706	0.1172155997766755	-0.01835742947410036	-0.024243271454816	-0.1334960945341503	0.07270191291565721	0.003067357588683022	-0.05993179094688599	-0.02287335739033839	0.036904230861982135	-0.0012339022674370964	0.0012456361504538068	-0.05263039017257107	0.04161977887158425	0.03654537251068087	-0.02781426619362521	0.08501072931733135	0.06049492186592487	-0.12303406630718554	3.3424660874101654E-4	-0.0616798605587445	-0.022878087914375955	-0.06764339315831981	0.06606412538782244	-0.06843225843660661	-0.06479236232003731	-0.008449796272429236	-0.013879001998877203	-0.08014662913554524	-0.11248093549072732	0.06868966332024509	0.08375851969776196	-0.05539284249909028	-0.012821026388484426	-0.11275220430125742	-0.08044911076313238	0.002459813018038586	-0.014675239479073609	-0.07639491010900472	-0.08460159049415411	0.033273530230348035	-0.09356133055824287	-0.007488732362754334	-0.004125128434875058	-0.019738553909192255	-0.043030617541125686	-0.05771463562321169	-0.06416786979576888	0.002882677382716505	-0.04769325082275322	0.060049396119060953	-0.06778373589487711	0.021067436248683798	0.020110431408391388	-0.07685421855199381	-0.044559016713569724	-0.09131863434184942	-0.004911504482012801	-0.06574144784393784	0.00312355470886088	0.03523950694272455	-0.007585038574283746	-0.011413553678099235	-0.08367787815521541	0.014875443934641804	-0.03331783986925651	-0.09455826175229128	0.0565193133301563	0.1494166329545053	0.12756991139014776	0.016613183203683175	-0.08261762698871358	-0.0640300592853387	-1.407814007720598E-5	0.21609384228258682	-0.09426290098023743	
39	2	-0.04873489411322628	0.027053761826129095	0.04116939398073769	-0.0845773299451556	-0.0680596293782798	0.11234269849550649	-0.024105286197175436	0.010134708381703623	-0.07137544556405302	0.1366403571512904	0.02375930927376864	-0.10220589729448905	-0.0642610228796712	0.026411014594999192	0.07409722061748847	0.012868176844737053	0.07542976351278562	0.07499834783771875	0.036991112905987035	0.04678195042357246	0.03629830402868666	-0.07769878219735658	-0.006557909553462274	-0.027720046003060807	-0.01060059231653244	0.14917152105929554	-0.09422737824063442	-0.06846283025161026	0.042577711499791594	-8.810539899357095E-4	0.03189578967416223	0.10645162065369984	-0.06056287497157372	0.06284222099115647	-0.13549846612187014	-0.06580249617379648	-0.0831700101553346	-0.014411071577124773	-0.09210459419855341	-0.08481653134576944	0.10157174878039948	-0.030823049773541833	-0.026761872288074057	0.028972873737030978	0.07139687665299663	0.12401332779206857	0.043392796407989896	0.06495222653208899	-0.07910945965373399	0.03352552647375115	-0.011191804984682521	-0.08485081611834434	0.007857545119358171	-0.026778081645603167	-0.05688260094101916	0.07973464211026213	-0.009494070976803052	0.05290742542258093	0.07658334008260166	0.04098701109412757	0.04965031775906651	0.08724660552097299	-0.10316083608644094	0.07268441360774842	-0.08222352333651603	0.010176884418994617	0.013661474781237666	0.07499359109869191	-0.08579756712209866	-0.16004350550281182	-0.08260027969586632	-0.046669089667130376	0.009390351024257535	-0.027764134566159414	-0.06458714095577009	0.0981199013663595	0.004010933085011458	0.07300441510638052	-0.03759608138728434	0.004733861724451484	-0.018682226096357044	0.14746440585989104	0.0030038368612721462	0.04832193246523524	-0.02195630260994147	0.06407587576689956	0.02085920114061415	0.056474340604732734	-0.08232364370420901	0.046270944735478624	0.07679118092067298	-0.11256782781688014	0.027498027603596154	0.21628510997171227	-0.07446801344582388	-0.01976465445530118	0.04427612681262428	-0.0014602783163252672	-0.046955187860254204	0.06346072246708587	0.004405453808128969	-0.07549518307783562	-0.052224993398308196	0.06264936196239118	0.05911976375028767	0.08168885129165214	0.07778994275525998	-0.1059501769661181	0.019962518947068606	0.0010488396668854282	0.037113075083633276	-0.047509934082273164	-0.013122884497231377	0.1292615553878417	0.08921116538702621	-0.025473553213669297	-0.09297087945170016	0.006639394950059173	0.03993476226924355	0.06448068743828349	-0.060962301108686966	-0.031889448192583686	0.03772495912269402	0.07932365934387922	-0.023499186931968067	-0.009649399772057862	-0.06599500636836071	0.011103174404368041	-0.1717532176702077	7.537626721747432E-4	-0.020815668344408796	0.029114498026861602	-0.10276650487310074	-0.01766844418003173	-0.030101804230294696	-0.06963689154873129	0.07985794868605461	0.04024567620650988	0.0010596654787328019	-0.013430344093504815	0.08831982134002729	-0.003268462955361319	-0.05726473856933156	-0.010131955555140182	-0.006698946887385016	0.16460638925731427	-0.04928055199351484	-0.018390511809554477	0.10379469220371076	-0.08518395779624964	-0.07944345655417605	0.012533765455214367	0.13546175192591003	0.07060058166739958	0.10977983644754515	0.016420603522846616	0.01804820084413587	0.0159323098055047	0.022786409739765298	0.0035102360106115016	0.04299206200883822	-0.027249556251054016	-0.07711686661174412	0.141916631871982	-0.009624017052271751	0.05950727701819581	-0.006608959358900626	0.10894529312859529	0.10588863983540066	0.04295226551474166	0.04478328816111519	0.06168798427400878	0.1045054660399474	0.04289485959876518	0.04584071520494731	-0.1447139458727286	0.0023947997440596177	0.08514102353899591	-0.014962705536513065	0.07250013229695003	-0.010550405443466639	0.04206692272066806	-0.030955299997308627	0.10516764979876464	-0.002967019541396786	0.03567512366451324	-0.06311127594227006	-0.09357718085705356	-0.1643612664052275	0.10222702615500856	-0.0430584273369172	-0.07184438602385237	-0.10758444508045134	-0.15640224864281682	-0.03750940891119532	-0.04623975830424686	0.0617851347682271	0.006357318016863588	0.10018500117510462	-0.05463249665635988	
40	4	0.0	0.0	0.0	0.0	0.0	0.0	0.0	0.0	0.0	0.0	0.0	0.0	0.0	0.0	0.0	0.0	0.0	0.0	0.0	0.0	0.0	0.0	0.0	0.0	0.0	0.0	0.0	0.0	0.0	0.0	0.0	0.0	0.0	0.0	0.0	0.0	0.0	0.0	0.0	0.0	0.0	0.0	0.0	0.0	0.0	0.0	0.0	0.0	0.0	0.0	0.0	0.0	0.0	0.0	0.0	0.0	0.0	0.0	0.0	0.0	0.0	0.0	0.0	0.0	0.0	0.0	0.0	0.0	0.0	0.0	0.0	0.0	0.0	0.0	0.0	0.0	0.0	0.0	0.0	0.0	0.0	0.0	0.0	0.0	0.0	0.0	0.0	0.0	0.0	0.0	0.0	0.0	0.0	0.0	0.0	0.0	0.0	0.0	0.0	0.0	0.0	0.0	0.0	0.0	0.0	0.0	0.0	0.0	0.0	0.0	0.0	0.0	0.0	0.0	0.0	0.0	0.0	0.0	0.0	0.0	0.0	0.0	0.0	0.0	0.0	0.0	0.0	0.0	0.0	0.0	0.0	0.0	0.0	0.0	0.0	0.0	0.0	0.0	0.0	0.0	0.0	0.0	0.0	0.0	0.0	0.0	0.0	0.0	0.0	0.0	0.0	0.0	0.0	0.0	0.0	0.0	0.0	0.0	0.0	0.0	0.0	0.0	0.0	0.0	0.0	0.0	0.0	0.0	0.0	0.0	0.0	0.0	0.0	0.0	0.0	0.0	0.0	0.0	0.0	0.0	0.0	0.0	0.0	0.0	0.0	0.0	0.0	0.0	0.0	0.0	0.0	0.0	0.0	0.0	0.0	0.0	0.0	0.0	0.0	0.0	
47	6	0.011811106420266355	-0.013528112653368328	0.0013368331007791968	-0.06943800833427477	-0.10291684718278112	0.14674581829026576	0.06098369972977905	0.02815820662344675	-0.004330115784896419	0.08906929867770873	-0.07566710051060865	-0.13445923057174028	-0.08875317211915876	0.021245295732676556	0.08649379464095663	-0.016256385868981878	0.08803922172551211	-0.039653757444150325	0.09679808517997268	-0.07111345147420953	0.08224914979420875	-0.035666906557549845	0.03293822616885006	-0.03982550675392995	-0.07912526207269284	0.12173960750693433	0.03208953396831088	-0.03782141392857083	0.015067477209512398	0.029515786648338826	0.035092887722753784	0.08955526539656082	-0.09917625807477828	-0.06316690498920136	-0.197876294385328	-0.10923528058116969	-0.010198424868405458	0.02120097265426395	-0.17369802055812367	-0.010341271564166405	0.06428875714314354	0.04788459684013586	-0.03683914414605114	0.06292616799630386	0.0877036144690173	0.09140941906607856	0.09060425208080376	-0.03025448553188244	0.017637162083994178	0.01362647670188798	0.059798557316187946	-0.0709238502410066	-0.04968240445609224	-0.007142960606554317	0.049893968847768255	0.04411611281977355	-0.039858375093348226	6.50595480622711E-4	0.010909257925491626	0.02670881693684069	0.0344949946315283	0.0431599157747525	-0.17353487588812808	0.06513775157603947	-0.08546924425431651	-0.04696274592626432	0.026997352915528783	-0.042329476253335926	0.010963181770465118	-0.04391126841739333	0.026186399890516666	-0.05735264782013653	0.01999517950943404	-0.011980838860472817	-0.05214114545737	0.11823871049646943	-0.05108665837818879	0.02005458598072297	0.02558862172790249	0.024513038758377775	-0.08367840539070606	0.16292297081894555	-0.11687621209230711	0.07911383828819027	-0.059336071736954266	0.09128621024730318	-0.0063399829529164845	0.07080322329495191	0.046359153340682094	-0.05077697730336439	0.05977733328324946	-0.02836381905942433	-0.047283005936882165	0.11068211853504646	-0.062377615990002785	-0.03762263888175552	-0.07149256417251976	0.028095222337700433	0.01798782818465164	0.09236235007247973	-0.09348868718261145	-0.12780955387631623	0.01296067049410922	-0.04420821147069669	-0.04971267239275953	0.021313562568506524	0.12256796434586903	0.029565201093399412	0.02248840241607453	-0.02147481254171637	0.040288425408695434	-0.11431044047630043	-0.0726660242453934	0.07408148341335076	0.09950144137096893	0.022768799531733393	0.041789998673647605	-0.05974829565288157	-0.02785098835835635	-0.02043702010209881	0.03503182968687075	-0.048158171584579815	-0.02371672142394155	0.12976208983284018	-0.07310841917940268	-0.06845066158364928	-0.12935958244380563	-0.037299867125893046	-0.08953698841020662	0.06551778231766861	-0.08128414313217157	0.03296155048882791	-0.10341796535866216	-0.048124850072017264	-0.07093886234950321	-0.06776551222295168	0.029602995279290067	0.08117260460754769	0.030322870514745876	0.017504289765900766	0.13706649229845225	0.07799316541185462	-0.039745277714117865	-0.013581116268199772	-0.07171359413043998	0.10377064736801762	-0.10578299262484935	-0.0015599726143001767	0.0961575296743372	-0.04292106936335153	0.0028021894387995727	0.02099817408618325	0.10170710379863288	0.030332073540824477	0.016727932437089144	-0.0857048147378246	0.014026130589941972	-0.04483098459618249	0.041321701993359355	0.13276419157137934	0.07218877724755055	0.027762904874098042	-0.03869077653448652	0.04670961400858881	-0.024995265624198355	0.008316415443647284	-0.01580254292543671	0.06618862663619221	0.07312471489860285	0.08457955938025524	-0.005023669389199228	0.035369570728880396	0.0476782980804281	-0.07660313292684956	0.05659477112608014	-0.12804120812456482	0.018297043213409976	0.07109122216481627	0.016136880959194678	0.049547850033739876	-0.032307680137476	0.04718532084637982	0.04096585027721952	0.042056077403052	0.03678686490511782	0.03964430306933898	-0.018563792339091265	-0.01976705792043837	-0.17674682917340165	0.054546780616166794	-0.04825076464388543	0.04601550540989218	-0.12388662728292196	-0.14183440613809042	3.9496034881218495E-4	0.03312706653426453	0.015510313343530794	-0.14824364656772782	0.17600922001471087	-0.03135151071514745	
56	4	-0.07437100817239234	-0.026984209458091237	0.02424487642927981	-0.09198038868271853	0.0359364627233817	-0.03210929635884886	-0.054939697380528334	0.03070005634702095	0.2270890032076856	0.0577598207460643	-0.05295826545198576	-0.04143878531484147	-0.06845441805124955	0.07707973882466983	-0.007693851411289337	0.009710840138040511	-0.023453165811409504	-0.11630345142469374	-0.14130375507082146	-0.11499256507472834	0.06784604334919261	-0.005441553731177914	0.04395485708535508	-0.01850287477091727	-0.05081139685806642	-0.16399709524478484	0.11437951225597306	0.05886176993458627	0.03180640421543369	0.008136773888433563	0.043725406785026975	0.0010947316217267853	-0.007714651002144033	-0.025209285795295563	0.056256542041419846	0.08079973651463197	0.11963688377624974	0.12095080221181818	-0.05866715338774131	0.19181881414883142	-0.10890534010301132	0.052494711290048894	-0.06743844659873059	-0.03150238090159596	-0.010443641629736206	-0.04584275164923374	0.09464774826256873	-0.08619022865926501	0.25026374580068533	-0.0770074747146818	0.13386864661245504	0.01765017354015516	0.026600355459337265	0.07310460204854256	0.13515013430628764	-0.021121782302121857	0.046938548529747603	0.01632040993339709	0.011414860767264265	-0.08763323600448293	-0.06524503286211442	-0.14682126138860005	0.011844786917706653	-0.028161259358735938	-0.027664888499775987	0.02081116106685815	0.052653449708164726	-0.0990406127364622	0.08497328931392378	0.015076578581031046	0.04643834473219431	0.019801452144019068	0.11454776850514532	-0.018502586669522477	0.09616167513366364	0.05082814849803826	-0.08255188777457412	-0.08204252249397681	-0.023324419056717113	0.06251684683467115	-0.05187138769501808	-0.03039857103007695	0.05370773398054913	-0.013588181012555893	-0.04021643077434435	0.028774716633268655	-0.015286728732353204	0.039763388893893685	0.08763539203969588	-0.045056076080568	-0.03335170675890189	0.00866546451646102	0.05027221082123409	-0.17217852471120187	0.12448182956523708	0.019919737082395805	-0.07671377333476682	-0.0015779399525316048	0.09822518052845058	0.0036664714321496756	-0.03332938656990555	0.004078382964613295	-0.003145123608434804	-0.1308357609858835	-0.01817758419773016	-0.03707705472282992	0.03511637885474706	0.10710261330146645	0.005505297299434321	0.06106991807544143	0.03691675232388515	-0.006751833663808742	-0.017912811609204594	-0.052748488257028	-0.012806686102077646	0.1149432206737536	0.03947481925308336	0.015216701535149287	-0.06460803547773858	-0.11903089972904822	0.02480368229821406	0.1531721971218719	0.020772821575209474	0.045345259664675806	0.00795084601882028	0.028299140681587516	-0.06313770696787771	-0.06853156803349737	0.06669679160312969	0.07311072683569365	0.061321619981749904	-0.037905785490409176	0.030237480242905214	-0.0464588741546369	-0.0037565670104047415	0.03812452965278126	0.03260221241469733	-0.009962855052032552	0.08700895357460557	-0.0982973467002373	-0.018350621870114495	0.10151858127524362	-0.03007378661143259	-0.03369295780088539	0.029362318722847877	-0.1284412541627334	-0.1071569671428232	-0.07396658337820199	0.0064040274105673116	0.026086890186946026	0.062320322474517104	0.005659719103359056	-0.060259526337189666	-0.0525763029456271	-0.07968590350297758	-0.090184835076377	-0.05243943620744375	0.046473244190957226	-9.242860731686401E-4	-0.027806770476046065	-0.02550893535066064	0.1262780432170761	0.06693592800919582	0.007248393947409836	0.04766113443213126	0.04445313314053305	-0.036433573799959554	-0.0019064559938042922	-0.01409845936477289	0.05735030183773778	0.04335282828061882	-0.012940636521973317	-0.04511460899441809	-0.06914168857253923	-0.12292051673124649	0.09795187194649209	0.08876852360013679	0.05188611846547575	0.044284170648288726	-0.0993043372815564	-0.045794522202212015	-0.09135277712089018	-0.020265271891579006	-0.04325437766737892	0.023506091702195083	-0.01673269763648185	0.0326029676701526	0.018032359661725315	0.008795367438532185	-0.14104561840147092	-0.0034991946949635656	0.07579071345887786	-0.0532670358048833	0.04552686705804348	-0.03983785955353851	0.05606484873511482	-0.02713137570798758	-0.07151922164560919	-0.0631631682400805	0.11222394236809433	
58	0	0.06193585365725899	-0.005683227916926184	-0.018611609943065644	0.10564190636608489	0.04209519447506909	-0.15395462503147683	0.04257562230713779	-0.02587728770626411	-0.06317232498036723	-0.15958433925304139	0.040309741172192076	0.16709625542900058	0.07552975615376516	-0.09834681543741387	-0.0626601186265701	0.019294607552746652	-0.04460961515158265	-0.011894732965916395	0.009207704181060952	0.05569633710640834	-0.09670791114978539	0.012320805050106385	-0.05783846113060237	0.07572123745702332	0.1121546539655352	-0.06317499832800934	-0.05268943040048766	0.020121240186904185	-0.03878692100648218	-0.013926645238878007	0.028454060532862396	-0.1166246414676578	0.03605999330496675	0.02398869443310186	0.1265282524877563	0.03666954581093869	-0.01409564339902614	-0.04724074269866596	0.14661553408518832	-0.04668002846496447	-0.03956601892553578	-0.005982996513079187	0.03830738554119188	-0.0790308722018705	-0.05386721025974719	-0.081661184715233	-0.16309601236184124	-5.659594592463563E-4	-0.10546895488768503	0.009522970669568908	-0.09192513070106463	0.04622291608341548	-0.0025429683218044755	-0.045138664168229085	-0.03267831752521058	-0.08399126030952339	0.03367977637379953	-0.01667061148647386	-0.06018811354233708	0.006803843738449603	0.004284079025151148	-0.012639400425325843	0.12592255472125732	-0.07012170538711927	0.0644813305306817	-0.06719703682050676	-0.06253249716838491	0.03510049068889477	0.03141909935735621	0.09500884800817468	0.024445536395687962	0.04996254598026247	-0.05274125503547461	-0.0076289511497374465	-0.002267893298582879	-0.1776674036688323	0.07156205208090248	0.020867948317207962	0.016454555512048566	-0.04077086295072191	0.04617357360320144	-0.15226781831094727	-0.021002106991526662	-0.06153623031583528	0.031089690037298452	-0.09938299708492597	0.018230279363272192	-0.09773612204369585	-0.024665675488101065	0.05192893864850054	-0.03854793362392123	0.09476060153603261	-0.002869669957123398	-0.1609155235200018	-0.015965142313575365	-0.03062087891115969	0.05160449047308342	-0.011053982464733794	-0.022323251624332435	-0.039919625982632684	0.03926092078460529	0.08858706699665296	0.026858515731293366	0.06364194187806693	-0.034043529031708646	-0.08646932745261554	-0.11605465572714763	0.037331796406624825	-0.037608239967567805	-0.01125092255545256	-0.08338763399508381	0.09607648938570529	0.014868903476203659	-0.07212340410030771	-0.1133886299276125	-0.08015017256824089	0.056615897519171184	0.05549156460769355	-0.009520430724072812	-0.001774935503113536	0.04560436655142669	-0.01069819421249549	-0.041368834899168844	-0.150277086229075	0.04944204449069974	0.042178507024839516	0.11328357454959995	0.03435223704816898	0.04613480669282016	-0.058491247101409405	0.0208536329790827	-0.04296469073101996	0.11580444902505578	0.0880055554769343	0.05639680035060282	0.0882171666732846	-0.0999550309413226	-0.05412702413557762	-0.04511508050408279	0.07637970216401181	-0.09378962239179969	-0.07406753421480651	0.022857828474479806	0.045063885072170407	0.021146219059323682	-0.10947347999941294	0.11439565117682966	0.014983786818070593	-0.135164166006149	0.01854188631547077	0.01712424785720754	0.0037617188824258093	-0.05451761378569053	-0.01617309571068367	-0.04885428783680035	0.05652150274182561	0.03156753537038508	-0.022105723682572114	-0.10126472484784978	-0.059374501537394715	-0.02343411067438681	-0.06538758104462053	0.01955427979400221	-0.09027260323280542	-0.016689288124381543	-0.054406737337198245	0.05650812879801727	-0.10479108634544905	-0.11016768981846897	-0.08034762305999676	-0.05361249234313288	-0.1098787273109945	-0.06002533921720849	0.03283082184702286	2.571886204360357E-4	0.124862275450242	-0.05404716281884271	-0.052677436285400565	-0.06501079391434207	-0.007733908763684275	0.03130233230181223	0.043941761672955174	-0.019187093211654495	-0.027291214567001416	-0.0637478189250261	-0.03569125076226295	-0.015534311525158691	0.029736103035104808	0.21069343218499595	-0.0033051263186073755	0.06504498409772548	-0.06287624126790722	0.18472482784445157	0.1390330808377697	0.04885546529853685	0.006555743654943272	-0.013609233099162546	0.08372536327278196	-0.07134301475454911	-0.0353808687576525	
59	0	0.04233710274718718	-0.06361826065934219	-0.05767504350023305	0.04564922832401163	0.05655786556240225	-0.10558371898735952	0.05265489385962359	0.0015365559049753444	0.09108300141239527	-0.12793646877777928	-0.04892356036203922	0.11971709035938878	0.08318256660016758	-0.0731845031560125	-0.050037358400009606	-0.03183379167246291	-0.09394999946882006	-0.07959265962838047	-0.067730808902328	-0.035180272666792134	-0.046854790433830985	0.018301732920946064	-0.04804393827791932	0.041539275608656154	0.020003603900820784	-0.11438498761748085	0.029375139556836054	0.04970573781266934	-0.055450008231899765	0.010309630415853262	0.01724113160343328	-0.12687958729373297	0.03113139840781504	-0.03401967036517188	0.09761208036644894	0.09798847915959419	0.02993465695429455	-0.018283731754444005	0.0908682437084597	0.09976260893213897	-0.08091288351326716	0.03294939691228371	-0.001906166067574577	-0.08272248439270256	-0.03881771838796595	-0.12489188886039682	-0.024803742027951055	-0.014569416015514076	0.034969938791944224	0.006073683188515333	-0.02527085056058954	0.07255433319757015	0.008306843520534962	0.009605209853069408	0.04527038019598117	-0.04250529229708553	0.004861292001597743	-0.02202120481622882	-0.12396643294486552	-0.01143757336746645	-0.05285382936771126	-0.0923466773473038	0.121401065513671	-0.09232828572058474	0.030131166429553446	-0.033993260570120344	-0.079888535559721	-0.035929020274580746	0.058571543219007934	0.10369534136298772	0.09949651744646988	0.027372580721422225	-0.023715311754932362	0.0017595541591322555	0.08250302048881493	-0.1382221280059013	-0.04860425310904541	-0.033064064221285154	-0.006437838124004687	-0.029620368832639014	0.07390894594933609	-0.1914073280716005	0.0020987955429177894	-0.04280303509098756	0.026014270487529193	-0.06558042735863781	-0.019661992906388245	-0.04050407275792212	0.06547666649790258	-0.027197114793486816	-0.0520805514758968	0.1183285105377677	-0.03240547874573311	-0.26860015337627274	0.029560546740101567	-0.009742809128958075	-0.005519973298974429	0.045260510533552754	0.07859339152695226	-0.061613152748608485	-0.01553344238583001	0.04165914212327665	0.030150407349524143	-0.05251996063349145	-0.05636191398952324	-0.09042294350113317	-0.12966513262326035	0.1034465649314841	-0.05188879963465163	0.013010162828978272	-0.06601860907800028	0.011705825385239574	0.0040805953720265105	-0.09528133017775009	-0.0667378995456107	-0.019604812904257144	0.0976365908082218	0.023403018879383394	-0.07820347099633351	-0.07932987130335413	0.08881762771895176	0.03377271921254656	-0.04003514302656343	-0.07067020921973524	-0.004691665436821867	0.0152722544035793	0.0666081265332981	-0.005189475915578133	0.06330657680725689	-0.004718963947121059	0.028141377865946025	-0.06041753926936022	0.0955942544681658	0.04155744355445721	0.06832597689251957	0.05868631830368076	-0.04657286024421847	-0.004921592617882899	-0.031044189950880458	0.005990854688774615	-0.10271641633969722	-0.008583595277367479	0.004450584361564541	0.030009413409815115	-0.005540273159729802	-0.10565826937350525	0.08058825052843362	0.029594188805208237	-0.10240579551777765	0.036497207022698944	0.07846062665351701	6.059381708494163E-5	-0.10303784051831762	-0.004326306968591557	-0.09529814512286817	0.016246638847295523	-0.03940415158385951	0.006980652266453626	-0.03430341027302715	-0.09306283366384313	-0.030510256731918588	0.003773063167677365	0.06951926486610611	-0.13494513546803175	-0.019688884156009584	-0.04336067970005856	0.05225542595312974	-0.11738046519256685	-0.13148169678636237	-0.019530328169919196	-0.04936683760892823	-0.09167371391829439	-0.09691065659828249	-0.026692709989253254	-0.12316384213858111	0.12833903219137135	0.020493754546520988	-0.045554595525394086	-0.0321027512653983	-0.06444905005267974	0.04918614503253461	-0.04390303240242504	-0.02320438757176256	-0.09489205506167918	-0.032772694996289674	-0.03779711190344076	0.020680868127534887	0.07336665961242167	0.22633810467383247	-0.09871358679770369	0.1032493715595149	0.010986602364337883	0.13227824260191706	0.1396456230642265	0.02212220093375421	0.04319514238567094	-0.05292417801399965	0.023479040730960715	-0.11227271294874602	0.0505190729268527	
62	3	0.0	0.0	0.0	0.0	0.0	0.0	0.0	0.0	0.0	0.0	0.0	0.0	0.0	0.0	0.0	0.0	0.0	0.0	0.0	0.0	0.0	0.0	0.0	0.0	0.0	0.0	0.0	0.0	0.0	0.0	0.0	0.0	0.0	0.0	0.0	0.0	0.0	0.0	0.0	0.0	0.0	0.0	0.0	0.0	0.0	0.0	0.0	0.0	0.0	0.0	0.0	0.0	0.0	0.0	0.0	0.0	0.0	0.0	0.0	0.0	0.0	0.0	0.0	0.0	0.0	0.0	0.0	0.0	0.0	0.0	0.0	0.0	0.0	0.0	0.0	0.0	0.0	0.0	0.0	0.0	0.0	0.0	0.0	0.0	0.0	0.0	0.0	0.0	0.0	0.0	0.0	0.0	0.0	0.0	0.0	0.0	0.0	0.0	0.0	0.0	0.0	0.0	0.0	0.0	0.0	0.0	0.0	0.0	0.0	0.0	0.0	0.0	0.0	0.0	0.0	0.0	0.0	0.0	0.0	0.0	0.0	0.0	0.0	0.0	0.0	0.0	0.0	0.0	0.0	0.0	0.0	0.0	0.0	0.0	0.0	0.0	0.0	0.0	0.0	0.0	0.0	0.0	0.0	0.0	0.0	0.0	0.0	0.0	0.0	0.0	0.0	0.0	0.0	0.0	0.0	0.0	0.0	0.0	0.0	0.0	0.0	0.0	0.0	0.0	0.0	0.0	0.0	0.0	0.0	0.0	0.0	0.0	0.0	0.0	0.0	0.0	0.0	0.0	0.0	0.0	0.0	0.0	0.0	0.0	0.0	0.0	0.0	0.0	0.0	0.0	0.0	0.0	0.0	0.0	0.0	0.0	0.0	0.0	0.0	0.0	
64	6	-0.05292809819077461	0.03334090735790391	-0.02209326641658963	0.026128863966902494	0.06501505270228619	0.04641111694633768	-0.0978890082643778	-0.04692553315269686	-7.625852440921096E-4	0.04182897817087936	0.06052862819234418	-0.04414062526404281	0.06591708487592361	0.08800912413521063	-0.05885777087340808	-0.045285682845022476	-0.06882643717613918	0.11711197200654921	-0.0019254938173067831	0.04292974395374498	-0.03634518562506517	0.10955944713898792	0.07196871966264196	-0.07425204220331909	-0.10436906798036208	-0.06730193440970259	0.06990698951452658	0.06484362339126873	-0.04266241552971527	-0.011282061994065484	-0.212520040195581	0.010784013122826602	0.1421568673974245	-0.015508071418921781	0.12075378922056099	0.044447787699978245	0.03474800502935304	-0.057577258767535194	0.08350888427595309	0.016200309290857653	-0.021549434599125793	-0.12164040168617898	0.07504729696009352	0.09271950848373638	-0.08184588847695849	-0.0061569890985414795	0.04773593800930331	0.054269006160900794	0.035576337912698146	0.007858948050904063	-0.04074155699944039	0.027968586390398217	0.012001632775510033	0.06625957851080498	-0.06675632013009973	0.05341714663297352	-0.03064727419162825	-0.02660007700150782	0.012919604102528317	-0.030265167661404514	-0.08181439731890547	0.017080117918390925	0.08931265670253452	-0.003235141967506863	0.08222048536782432	0.16127313705155433	1.246951736636933E-4	-0.002352003227004046	-0.06024982725110476	0.022605878662454747	-0.09381165380399945	-0.011854173192363992	-0.04838819987913556	0.10416120023028352	0.053421473414874514	0.03148965053555604	0.013136415304017685	-0.0891460188283254	-0.021878692600095364	0.011337141058008158	0.09981684662836458	-0.038383465738968475	0.14498458895045704	-0.01839394585100677	0.08013512571882969	-0.028239679370932944	-0.0778513258048907	-0.015176227259231808	0.01546961184567164	-0.04497802641941206	-0.06683741971093317	-0.07168279985295795	-0.021274337992927404	0.1426085147903892	0.09963198053037516	0.12776150892131344	0.0027264700871426507	-0.03305594145210708	-0.0521524642672562	-0.13963471053599147	0.10273067812088929	0.10196792812298712	0.0012410370377391759	-0.03570224130733008	0.15585143465256746	0.1048203836832783	-0.03869616671835041	-0.10884175078136386	0.020484493823445953	-0.041653667038696066	0.057353025429754116	0.06337314816512153	0.1262083493782094	-0.00589651554044968	-0.01998639218863677	0.03561918556223528	-0.12324874293627881	-0.06586334331982413	0.0823406336945317	0.08280143453423029	-0.1051894310457933	-0.06457914963515145	0.03141040496017166	-0.0467341887579272	0.03841999390578995	0.02213743401527145	0.0817168868648327	0.024375518925694898	0.14777643218662473	-0.008860121073809433	0.026286325837520334	0.043995510146127445	-0.01735510977618085	-0.07667248224727728	0.016951206133880743	-0.03957668006098588	0.052972959702116344	-0.024280405296949952	-0.03539768965633952	-0.053420551620393664	-0.04572431772467593	-0.060265938285727357	0.09734405592463867	-0.0385277597029592	0.019287484155240987	-0.012336809818152647	0.05506717146610025	0.0730006015358175	0.04020072279485824	0.09827169374483687	-0.019038509924906386	-0.09562031494623502	-0.14202941671004451	-0.04821150582092185	0.053147186628119444	0.07879152576184965	-0.04306976359366926	0.052359421918857806	0.14703868519838753	-0.04518216500244226	-0.08481124376982749	0.014310469688167304	0.01993223385757466	-0.06141486402016315	0.06813101463915654	-0.031611770631917044	-0.0754735255168427	0.03684456739657928	0.012557068029753484	-0.055586957612208235	0.046536676847474444	0.1264356772342016	-0.032940469337877025	0.0652085732329167	0.04496741585397923	-0.07103527589557303	-0.0022914157462566045	-0.1589228074035885	0.05667552611810102	-0.03658879056833548	0.006364735124631097	-0.12324675199704949	0.027157821980308777	-0.09908289960495412	0.06307656981007523	-0.015060504744747053	0.13656174702996784	0.03794102646676831	-0.05557745534616433	-0.02373144045481147	-0.059113649053450186	0.12989844424579927	-0.041009770889425645	0.07677154554055793	-0.01889364452053556	-0.11072587731341925	-0.04957811248797998	0.09908678360065942	-0.10643171502135126	0.036116760625153344	
65	5	0.010810973869601323	0.02943043417495717	-0.025812946263418013	0.09580649635107005	0.13846449874231512	0.0043626446539569924	-0.10067977824873978	0.029158346326137476	-0.0071847849817246266	-0.026898660600892875	0.032892841987342436	0.04091789984490133	0.15704705993887785	0.05842647899660329	-0.04842469928916409	-0.03634500530415941	-0.08637649033175188	0.09497330110458643	-0.1967491761790541	0.03850454854380712	0.03993459737735388	0.0947303105791971	-0.025617162843174775	-0.03412023077808431	0.02995480606132005	0.030850656205360885	0.01354307678484247	-0.06175288884617967	0.0543757523984019	-0.03429726461726711	-0.12184358174608363	0.012941373562419197	0.10695585274098635	0.04597660000859871	0.03599090001747827	0.12159295257828355	-0.02980756020275455	0.03457688579066876	0.09876469824594424	0.015464369805418429	0.01969705200619516	0.030111590874674087	0.04891325025547533	0.04443025444997004	-0.05715976707559097	-0.10990109819747287	0.1328878988619806	0.0674172997382241	0.05589118714215868	-0.012044783427871554	0.07953912749334466	0.15200203235381446	0.09803510559209207	0.04734938978308494	-0.08462515597244324	0.049504979725541735	-0.08337884469645264	-0.04012120313730603	0.040152124987888074	0.024174444070296657	0.03590162540393831	5.303331303548553E-4	0.032296652696354435	0.024254182151066003	0.1127999939267841	0.19998533669823917	0.09335196642021862	0.008128491585559767	-0.10607733728759682	-0.017898251586418317	0.04101766709481725	0.024630137088130277	-0.0016722113418154647	0.020972331847649153	0.026471101368087613	0.11184115679964103	-0.04554714209253852	-0.017000871106003096	0.02058892264740026	-0.06350929399976803	0.07037926916508204	-0.0085443555367154	0.17496975887984276	-0.025377722811977373	0.07954895613096817	0.00963072324197258	0.058168432879143556	0.06674471871783959	-0.08729527887506822	-0.03193533742360678	0.007146244386244946	-0.02220458038320709	0.025895088585536866	0.08500241460077072	0.020141971412381995	0.07210206256146245	0.05991074713942872	0.047313601191474194	0.04945442341424369	-0.05048301374879277	0.0171769799318692	-0.00977031170180193	-0.06117510363915865	0.038878101714952644	-0.02005725817111591	0.08272410398250818	-0.05420673752117748	-0.11747841733311866	0.028566778429954434	0.06835973667013537	0.008918524459508017	-0.08197096687560196	0.04055385882932528	-0.07968979407287045	0.09811454740182358	0.08096270811137703	-0.11806676502842446	-0.025585826288188472	0.07053170273366449	0.061967659519040943	-0.10056340952446503	0.07311887111848552	0.12090775652058039	0.12533570858695517	-0.03986751426476501	-0.07545144893552856	0.037061852196303695	0.051660733915066974	0.11118709834252162	-0.11711679479879815	0.04392380625267753	0.05927633461956012	-0.03034240100756604	-0.024230319010861086	0.010289783834805452	-0.0843926506492408	0.0675623006883505	-0.03365731723395045	-0.023584368574279358	-0.11900019841843114	-0.10304907931784808	-0.019447181953618723	0.08157149432099203	-0.0098225921510817	0.07961727829906949	0.16341578413394384	0.06492445303487097	0.04018126379204147	0.025623539740318647	0.05179635875679772	-0.02057577931795734	0.041349834379485306	-0.027493514995097557	0.010118129691282148	0.028840935693346597	0.046739107989983535	-0.07783159213875873	0.027824210703720677	0.09048540468495479	-0.028866297412525006	-0.028214617832641634	-0.006484656828680921	0.037526337160611975	0.062320302017519216	-0.04023395837267647	0.07011559819357606	-0.019904976366032504	-0.018117781988935006	0.07745465973193164	-0.019751000835009858	-0.009218344863344894	0.14417591978505703	0.05208628170631995	0.04743198731234227	-0.1229306393225335	0.05334269411075285	0.002041027601878618	-0.03528231285580742	0.13895998225280234	-0.016629524488512043	0.0964433358723831	-0.08528038691127326	0.03142459556897306	-0.0017327933945428479	0.06303265830262195	0.03335639874094584	-0.01038625591983607	0.05072359636954127	0.019483622740326625	-0.06174103058137739	0.053591042931356955	-0.07979901992965176	-0.08939879451402008	-0.09283510188318647	-0.04200385999538392	0.029615053113362166	0.005855570284045585	0.08438147414092874	-0.19381722626035133	0.1441014587341446	
67	3	-0.05839636010828519	-0.0017162118125745199	0.019003395414929524	-0.14845884452722496	-0.03970594913776576	-0.09554026066080867	-0.05475051212740457	0.006559405485292242	-0.05074116407296115	-0.07484775561353028	0.00840773226801124	-0.061555998138902085	-0.07229464227297283	0.006683467220120579	0.1005969193247847	0.08805725474758862	-0.023388533971384143	-0.10381611598185793	-0.024068933562750135	-0.04615746305651382	0.01398701005295261	0.02027664742463734	-0.03379525177257989	-0.004195750241643881	-0.08726800329728916	0.01060965371883834	-0.06292404095034637	0.06494478300978367	0.11628242462200665	0.12703622711735235	-0.044226492588117595	0.008159582273450495	0.042276657069934796	-0.017257351540910366	-0.014998100540289497	0.048062960413110305	0.016519193051924	-0.015365234179651908	-0.08603152056609711	0.06771235579867403	-0.12866284008774773	-0.06213681923472824	0.004057528448636363	-0.04512227854183476	-0.046859319615337194	-0.020289461720566455	-0.06855149104403939	-0.012759091370065442	0.1079682683456414	0.04903298826406624	0.02399186695703146	0.028213013158097735	0.0034926186533755436	-0.14010680138989973	0.17876119457621537	0.003093322325326354	0.08925634990582626	0.18258462289545524	-0.05156876125531247	0.08867184334843593	-0.024352093215026332	-0.0357088818087382	0.07776102980960002	-0.0994290895007078	0.11482527321292761	-0.017231971939879607	-0.01853050652222207	-0.09466897661875005	-0.0014044292228637748	0.013351497724959794	0.07070411157573382	0.02634127099027306	0.08817929147451162	-0.0026962510154791984	0.03652343565396196	0.040999641066367686	0.049417592151471686	-0.04733318824432011	-0.09690851758987132	-0.0021806237416586035	-0.11311120880964566	0.1335035570311242	-0.017704829402443594	-0.03485301847009486	-0.07706078498051584	0.033209831685689056	-0.12872387195328117	-0.05469308917764542	-0.0550685186874407	-7.836745368990048E-4	-0.004275664484998827	0.010129596618952064	-0.08893494870906908	-0.12253631385229856	0.01355755448316015	-0.06875855215029186	-0.04363301262614312	-0.02585215924253575	0.05694254047817221	-0.07456702908319456	0.05166845710434312	0.08521700018158926	0.12728771108227638	0.08788196437314716	0.040500310099450064	-0.06092226880073671	0.03847898262866636	0.08619721428908797	-0.06961584846161811	-0.09128091658131819	-0.07975509127032729	0.10513967418806856	-0.05744150108299086	-0.05552195211934026	0.16981650890867472	-0.05945982330916875	-0.028460620051178494	0.02947677669912112	0.035690222320805334	-0.12374663474196207	-0.049527560007825995	-0.03987295350067002	-0.08811075376711827	-0.06298066372253644	0.0343773518620999	0.07287853682837565	-0.049609422881915936	-0.016335406781678722	-0.14191393690122042	0.01648530768654625	0.022678824659653398	-0.04747209395360254	-0.034943627552053824	0.053155384410865564	-0.019048133692667477	-0.0653553836005814	-0.0616541482425001	0.06851209335201229	0.052865697675145554	-0.0882185918326932	0.07660440514792477	0.13366333863109658	-0.12175606263572952	0.01642905667662286	-0.045013626333218766	0.10912939302011343	-0.05325798850536058	0.10810180700510962	-0.08807246444262012	-0.0866130763849296	0.02661421436135001	0.06870634076082877	-0.08393147005173462	-0.1256283005747134	0.07169293313673886	0.07689698408930917	-0.11779390491623686	-0.040084339484147975	-0.1365412274910115	-0.07683355915367246	0.021993420926822795	-0.01406283751658833	-0.05937786282893061	-0.06997801989033348	-0.03446647944590684	-0.06941728845134441	-0.005152858065494909	-0.05516119925285262	0.0019002249187096824	-0.04468919286523245	-0.09915329707407948	-0.019440487099217193	0.05947099365330991	-0.10433885942814598	-0.05297022535821964	7.00102699932196E-4	0.03168342745227099	0.052340548083661814	2.7187476697999E-4	-0.04853543272039773	-0.039973062054464145	-0.020358098564515818	-0.043706834326592205	0.023839969172615483	0.07457761837903758	0.021102305262961318	-0.08150927429864367	-0.07066477144630087	0.071454782919174	-0.10282252498373838	-0.042812378956426075	-0.016056437121171333	0.14865449812766948	0.027552862168245783	0.004399298442567871	-0.027794091856499142	-0.062421502165625614	-0.03608143827624621	0.1657872872300763	5.247714179057797E-4	
72	0	0.0	0.0	0.0	0.0	0.0	0.0	0.0	0.0	0.0	0.0	0.0	0.0	0.0	0.0	0.0	0.0	0.0	0.0	0.0	0.0	0.0	0.0	0.0	0.0	0.0	0.0	0.0	0.0	0.0	0.0	0.0	0.0	0.0	0.0	0.0	0.0	0.0	0.0	0.0	0.0	0.0	0.0	0.0	0.0	0.0	0.0	0.0	0.0	0.0	0.0	0.0	0.0	0.0	0.0	0.0	0.0	0.0	0.0	0.0	0.0	0.0	0.0	0.0	0.0	0.0	0.0	0.0	0.0	0.0	0.0	0.0	0.0	0.0	0.0	0.0	0.0	0.0	0.0	0.0	0.0	0.0	0.0	0.0	0.0	0.0	0.0	0.0	0.0	0.0	0.0	0.0	0.0	0.0	0.0	0.0	0.0	0.0	0.0	0.0	0.0	0.0	0.0	0.0	0.0	0.0	0.0	0.0	0.0	0.0	0.0	0.0	0.0	0.0	0.0	0.0	0.0	0.0	0.0	0.0	0.0	0.0	0.0	0.0	0.0	0.0	0.0	0.0	0.0	0.0	0.0	0.0	0.0	0.0	0.0	0.0	0.0	0.0	0.0	0.0	0.0	0.0	0.0	0.0	0.0	0.0	0.0	0.0	0.0	0.0	0.0	0.0	0.0	0.0	0.0	0.0	0.0	0.0	0.0	0.0	0.0	0.0	0.0	0.0	0.0	0.0	0.0	0.0	0.0	0.0	0.0	0.0	0.0	0.0	0.0	0.0	0.0	0.0	0.0	0.0	0.0	0.0	0.0	0.0	0.0	0.0	0.0	0.0	0.0	0.0	0.0	0.0	0.0	0.0	0.0	0.0	0.0	0.0	0.0	0.0	0.0	
73	2	-0.043001798865406886	0.022396920123743343	0.02376116045436738	-0.08273131362816197	-0.07254207143496304	0.15236495630477515	-0.019464948507071523	0.005581684449576694	-0.05574618942561301	0.14544668143250328	0.0026368438427892167	-0.13988738048926228	-0.06444817718487328	0.0497169813381764	0.07246590912965611	-0.007485681393787034	0.06861050644055296	0.072657077645975	0.06639967699153	0.01975057107000523	0.04865574680747937	-0.04205204616033496	0.02597650243851014	-0.05356391760170252	-0.0666615398452085	0.14153098005562884	-0.03959881110294144	-0.048898299183284935	0.025954920769018747	0.007648018772150731	-0.01724691853624703	0.11596141720999407	-0.04611690110216105	0.016326040110567073	-0.14505866728062858	-0.08059709679037148	-0.056805746502864934	-0.018439686306125545	-0.11506005280355464	-0.0628676545172778	0.09548140311440684	-0.035786493226723136	-0.01633119585850452	0.07001250410063294	0.06638445530571997	0.12591212645278155	0.08192750388372558	0.05115272580956228	-0.04412312669948708	0.03172163961354967	0.0025173070007077918	-0.08158388293040826	-0.009270352049453243	-0.004778277172653148	-0.04028638661908961	0.09068233902042987	-0.03122935398900725	0.031169910035503304	0.0648307001196259	0.03413185491271097	0.02863219292067432	0.08792785603878318	-0.12002918643158972	0.07960194710803459	-0.07201732087278798	0.03233695549524905	0.020444963468560985	0.039992115300832916	-0.07530358314962897	-0.13000024257346532	-0.07457270363106727	-0.05822638479938369	0.001306069220678104	0.0019208749093486796	-0.0516613336434404	0.127472753982175	-0.012787150998316753	0.03839138109700288	-0.024423833597395025	0.015633711004442795	-0.02097495955127083	0.16225699979123936	-0.005602906885895257	0.06271975397750341	-0.019078092153493518	0.07720084997896985	-0.007494267296579905	0.06533855106626475	-0.03786716008093457	0.002894382221521853	0.060722514687146255	-0.11211505955191478	-0.0021426248325890486	0.2412820379055863	-0.052307204364729236	0.006795694587426605	0.005791043528304864	-9.3087273083686E-4	-0.0430386901655107	0.0458883621018253	-0.006088054468933311	-0.07927763704585838	-0.03358701296216423	0.020906472622188352	0.06449077535287871	0.0983525141443966	0.09616586915434182	-0.09650998747531891	0.028354994556446442	-0.017730176563167187	0.05933729504133193	-0.06452886142732904	-0.004398697455779059	0.12159863693246059	0.10051063711932459	3.773262971553127E-5	-0.0845138696914402	-0.035351909530681166	0.04072750631511702	0.06297635580328186	-0.06006670981127601	-0.05989861456724529	0.027884008177664486	0.09765793321537072	-0.035178603338779424	-0.028121152657595107	-0.0766080559585707	6.059254640495852E-4	-0.12291130418337562	0.024960147876667726	-0.03959906872799349	0.0462976100920393	-0.12113794825702932	-0.04957087855546743	-0.04513296571895538	-0.08883325997828974	0.08399916509250227	0.05328104818740459	0.0032806611386083998	-0.01835638754822127	0.1053158426050275	0.012072524251166297	-0.03202384412950508	-0.024134760799674308	-0.0288977595080959	0.157720354411171	-0.06241488931355631	0.003466330066519423	0.1253223915950215	-0.05480258399090387	-0.06259561346290676	-0.008517444785348145	0.1022890839211354	0.05160981886750907	0.10110344477053622	3.5928364449494624E-4	0.007605737864631417	0.009748880441319208	0.07203617657840665	0.04250891233985522	0.0361745336562669	-0.006611394847938259	-0.0662857630472138	0.10592518332374637	0.001086886198684167	0.0390464940417381	-0.029406529831334884	0.11571684203851096	0.11073525746536385	0.04875148295980277	0.04491786687010379	0.09160011022698955	0.08831085105193244	0.01974106414559696	0.06699849716976872	-0.17429503454454287	0.008931817110638035	0.04776034170584258	0.011197736420501385	0.06277695783358997	-0.019069277875995633	0.01652178590793641	0.0015986443223675842	0.06919733929770454	0.028126867948138408	0.037438624364890094	-0.01820459412022684	-0.06705491803890319	-0.20625160107380466	0.08967768333595137	-0.06527902382030977	-3.81125340872772E-4	-0.13747734172156212	-0.15128367611338683	-0.03299668456374477	-0.05037551292070379	0.039871817406599806	-0.02700767316817239	0.11315585494377868	-0.04474955447522053	
78	4	-0.09394658226897576	0.0035520607863570343	0.040230972544444146	-0.14551489946360638	-0.04692645839966896	0.12920607912853357	-0.05736672211161916	0.026933547717776063	0.10190148504902982	0.18420030795552858	-0.034210114677858075	-0.16755208668324192	-0.11102164349336707	0.10280449534130602	0.06660493852279085	-8.547849848163882E-4	0.0517524146079504	-0.00839716832289287	-0.03227645150448722	-0.06017115005712097	0.09553650358105664	-0.045250033114480843	0.056196697599333205	-0.06609303495521669	-0.10136164195933062	0.027183753597781274	0.04010634078972648	-0.008017947907018277	0.047918996938901594	0.013197580876607625	0.012942328489733701	0.11595004033511105	-0.051045622047933635	-0.0013669771807089859	-0.10530827100391454	-0.02390419415794192	0.02642659861537265	0.06560723391355566	-0.15484906565224046	0.07048528541186372	0.0194760858778572	0.0011585468975629765	-0.06283290178150976	0.04788238721167473	0.058632526762555294	0.0929434620175264	0.14733146615033943	-0.008888765840677824	0.12972459744295303	-0.021872804960365384	0.09557463782636293	-0.06834614128223598	0.009332772694194585	0.04597216814995055	0.053547034931370044	0.07547449289800204	0.0011485361640929891	0.04203971657899444	0.0722433648812521	-0.026661265359446015	-0.016563901309534366	-0.014350548831273742	-0.11119061377674981	0.05964222975004735	-0.09041326518299764	0.04682591194666685	0.05705887918448549	-0.029062660536369755	-0.016033765285066243	-0.11849546344579599	-0.04146923371008083	-0.04408400964219811	0.08062182672076008	-0.01087051053700029	0.015274796577762508	0.16216829925255918	-0.07011460740485687	-0.01873894643818601	-0.04016381452496422	0.0586342904379729	-0.05672827000632271	0.14016612946674364	0.031728013714640964	0.05291930957526095	-0.046701277836026116	0.09670042294160819	-0.017863268798269338	0.09265534778346549	0.023037805597250483	-0.028590139286620252	0.03727837988931116	-0.10516087358686481	0.03257469335075476	0.12039454629744926	0.034161485395801376	0.020583607449123995	-0.047419632595616865	-0.0017526303441662572	0.02557932927404588	0.04814809193162254	-0.02936673644592203	-0.07615062220087798	-0.035570454423153285	-0.06987862200270722	0.051039512605230195	0.07205453361752304	0.11979538012850423	-0.02168225922207049	0.0320392496891959	0.024817317663639378	0.08445657145778063	-0.06921575155840033	-0.01690570326139226	0.08392693281397558	0.09131925597233118	0.07989950910794336	-0.056563416139970506	-0.02476270293846096	-0.004270490378548799	-0.01989621944871067	-0.04248868335988266	0.04673824336917039	0.04225016540991697	0.12891915149944966	-0.029720968971931497	-0.00874851794326375	-0.11989981535788913	-0.04679641062028387	-0.07553061052419023	0.07518238525988163	0.0030717419563141583	0.019908005828825702	-0.09947646793513848	-0.08148529180586131	-0.047519786288582055	-0.06209202607884925	0.10601755221204139	0.04605902878304097	0.06348671033813308	-0.08649072722451248	0.09177299827697911	0.08243838549703171	-0.05241531101789781	-0.04729013422673117	-0.00832652853547813	0.06815364388441221	-0.13613022731041322	-0.04761100802950001	0.12894768615045268	-0.03621384668450884	-0.018885302748680506	-0.004324340955964067	0.059858023456356775	0.0148520739181946	0.045099810697417794	-0.06222306712019036	-0.02893387331472832	0.04170446768838458	0.07111024199135871	0.023252355163849575	0.018346489415691725	0.08089909606225276	-0.01933264259421616	0.1102386887410247	0.033829536864240096	0.06966046890946219	-0.05444762555652242	0.1134262331735689	0.10036381088745137	0.0881881670428847	0.07442261035815251	0.08231190443423478	0.05656145299926558	-0.028443100290865265	-0.018897968805843685	-0.10509084775279882	0.07036379356616429	0.08333022095840892	0.04221430764054414	-0.006429502840954118	-0.05036878464196217	-0.0469437129676254	-0.012189661137838865	0.038722598195475216	0.04443657581720199	0.025731942778389336	0.004427225766907903	-0.05382401720693749	-0.19870851580466026	-0.008797538833216987	-0.06706683767271247	0.05199270166529321	-0.17369112387774732	-0.11910590767419078	-0.060358938442898816	-0.01087900504355734	0.020782462086167384	-0.07652087685475965	0.06836978374676157	0.033697426396646676	
80	0	-0.0030504959057795493	-0.009164529435143827	0.010232308882664338	0.013197119125966128	-0.0025050496276340507	-0.13906857063778702	0.026112517965799817	-0.045772201108770276	-0.0064973064727167715	-0.08013009565596946	0.04377308644891163	0.10477509742632997	-0.016895197592399783	-0.07055208318369516	-0.04681880166914686	0.037230978852633954	-0.020778967678968335	-0.02992541145970611	0.05743360671095077	0.04013560036145703	-0.10611348083876787	-0.027639672751842335	-0.017509336207139074	0.06403863717561858	0.058179834010525344	-0.12187607162944983	-0.04045714429654538	0.07234105019774927	-0.05499836479985824	-0.002840943147954504	0.05071626353555416	-0.09703328238855627	0.01596398159264258	0.020353825350409898	0.14985364454509129	0.01041868694399682	0.024111056184299828	-0.04935540694283573	0.09606906871339767	-0.0121456664294485	-0.06734564525894857	-0.05847230791653564	0.006183982213550362	-0.08674319335764062	-0.04086730962780769	-0.013844423695741768	-0.18186893838296517	-0.019122657039258986	-0.0698668912242544	2.0909091310467728E-4	-0.11437333546427111	-0.033988193140528866	-0.026486145471650718	-0.03227638367935568	0.008349231549163992	-0.07903397234526911	0.08697831073474004	0.019983964008912496	-0.04575318580535878	-0.03355813053045466	-0.04901006769481441	-0.03282975368478689	0.13364763183226375	-0.07684544917792376	0.006809027334772468	-0.10161762935046041	-0.09167812997588616	0.03271714662403298	0.06379663519778507	0.0641337639097015	-0.042163590339397324	0.03598834705938785	-0.026538823929810246	-0.0027229695053134118	0.022012035566602892	-0.19218287666658335	0.08121130780415883	-0.0020917398856616855	-0.028330219655900542	0.013965650229193285	0.02860504651982575	-0.1450750562423538	-0.02684149425042675	-0.05420302941564776	0.0015872934362070163	-0.0934638302390301	-0.030878510685537198	-0.11430643085784001	0.01734190150905045	0.065952462545211	-0.057990015429648156	0.05261389071415623	0.01602560706838663	-0.16233319625270362	0.031676904363701956	-0.020593582964197506	0.024439745007795024	-0.05358170346520694	-0.05086474768003565	-0.04749857749142152	0.06776055215461721	0.11985228378781404	0.03527774716935361	0.01974438621707331	0.04574172091010487	-0.08225566318299145	-0.07955541017432509	0.057253303622876686	-0.04156165133908969	-0.03166785322522471	-0.05037415276826743	0.15586164992527213	0.033777506830461636	-0.018662806104406352	-0.15786430014107258	-0.08339553770705041	0.052881582211873064	0.06837778928031447	-0.02377866075010415	-0.02179408490079779	0.04466902180942635	-0.016587090386771485	-0.0671856055322372	-0.20556456072145893	0.08925426593361274	0.10605688905783374	0.09636785755521377	0.0024189693254893026	0.00899180472670878	0.01422073577612026	0.03558556513452042	-0.06852801396388587	0.11729135992721818	0.06634535997219876	0.05684862786442878	0.11912659565067309	-0.08377971970807908	-0.0493686238085903	-0.017827470218778962	0.07728361449762039	-0.05477537653841158	-0.06148233968787953	-0.014612761361027755	0.024212092197914755	0.005911160251578889	-0.2011866516562241	0.061380021917407754	-0.018474040072021265	-0.11260081472141839	0.005300184747378082	0.01412103853224238	-0.04358425322818822	-0.07189216356773132	-0.03315055981157372	-0.03901112093693837	0.04666709464978358	0.044498723812734745	0.011445526771028202	-0.10329101814247978	-0.09056072937563006	-0.04178026436460491	-0.02962889533218506	0.008931634109362182	-0.09460255246110055	0.041778578960721	-0.06316377138665864	0.033690454412415666	-0.05740446905999574	-0.124365149846071	-0.06741512606542668	-6.117956840165268E-4	-0.13568550298021573	-0.0808330979641358	0.03404018674232244	0.038832208738490845	0.08240079426341805	-0.026158250746032757	-0.045609857752280034	-0.11104195213467016	-0.027736894420446887	-0.030709718436880338	0.025470263586348504	-0.051858345107893423	-0.038120980676861434	-0.07762401452952175	-0.05756041562128615	0.02110021879653722	-0.009986342309505323	0.15734661899699412	-0.0015209991153207088	0.012829734242876546	0.00848236841076881	0.18351305766563678	0.19225428673635936	0.036223242541936235	-0.044590155532226464	-0.01929691324929059	0.07389478408887117	-0.022490918802563344	-0.0751734963166578	
84	3	0.0	0.0	0.0	0.0	0.0	0.0	0.0	0.0	0.0	0.0	0.0	0.0	0.0	0.0	0.0	0.0	0.0	0.0	0.0	0.0	0.0	0.0	0.0	0.0	0.0	0.0	0.0	0.0	0.0	0.0	0.0	0.0	0.0	0.0	0.0	0.0	0.0	0.0	0.0	0.0	0.0	0.0	0.0	0.0	0.0	0.0	0.0	0.0	0.0	0.0	0.0	0.0	0.0	0.0	0.0	0.0	0.0	0.0	0.0	0.0	0.0	0.0	0.0	0.0	0.0	0.0	0.0	0.0	0.0	0.0	0.0	0.0	0.0	0.0	0.0	0.0	0.0	0.0	0.0	0.0	0.0	0.0	0.0	0.0	0.0	0.0	0.0	0.0	0.0	0.0	0.0	0.0	0.0	0.0	0.0	0.0	0.0	0.0	0.0	0.0	0.0	0.0	0.0	0.0	0.0	0.0	0.0	0.0	0.0	0.0	0.0	0.0	0.0	0.0	0.0	0.0	0.0	0.0	0.0	0.0	0.0	0.0	0.0	0.0	0.0	0.0	0.0	0.0	0.0	0.0	0.0	0.0	0.0	0.0	0.0	0.0	0.0	0.0	0.0	0.0	0.0	0.0	0.0	0.0	0.0	0.0	0.0	0.0	0.0	0.0	0.0	0.0	0.0	0.0	0.0	0.0	0.0	0.0	0.0	0.0	0.0	0.0	0.0	0.0	0.0	0.0	0.0	0.0	0.0	0.0	0.0	0.0	0.0	0.0	0.0	0.0	0.0	0.0	0.0	0.0	0.0	0.0	0.0	0.0	0.0	0.0	0.0	0.0	0.0	0.0	0.0	0.0	0.0	0.0	0.0	0.0	0.0	0.0	0.0	0.0	
