7	0	0.15780129320865507	-0.03180073264472326	0.002102768860837936	0.08400431449331507	0.0639927373955415	-0.11158031834589072	0.10473098239049304	-0.04218523183362521	-0.061582848918041916	-0.13031962624614396	-0.018244157514319896	0.09642342818092152	0.14387274526388388	-0.09123593739444873	-0.07769601613079807	-0.0037622044498461745	-0.09853905318509817	-0.026707497699296277	0.009969356163699442	0.09871418349965358	-0.08795776386194273	0.08221368133217763	-0.0712634558922665	0.059755238363072394	0.04411272331558452	0.022954047473916123	0.0012792498225232098	0.021163943529278622	-0.04816896891506171	0.030020343995268463	0.030317434034912806	-0.13903321263841012	0.049669121933703056	-0.030282650359099265	0.0460911022864186	0.022373348911266445	-0.06470941079479636	-0.015462235891716103	0.19781339916068544	0.0021281922670750505	-0.027901185726260984	-0.03847538316187622	0.029990640556966014	-0.06069935555279528	-0.04571314759403159	-0.08235514904867722	-0.1456255210053177	0.04695619522975189	-0.09786217956463884	0.025935231038550968	-0.09536185223782907	0.09977172788334768	0.026405084487622826	-0.04645565730905806	-0.06574622381810312	-0.07984113464953854	0.031719059049895526	-0.01593759161015678	-0.07947424054166276	-0.027297254573769154	-0.01155473080454711	-0.049686406950468595	0.16291916028832878	-0.05448507907383897	0.06259604900313664	1.3203492531103664E-4	-0.08773384001685705	0.06261609782044383	2.572485948432873E-4	0.0375764484393814	0.06470552192577526	-0.03330526475996193	-0.0723918697674974	0.05072983917264692	0.050450962100151354	-0.148362772062838	0.058111675568379276	-0.01081434223047825	0.037455164695701204	-0.075606611189053	0.07005004477201954	-0.19265946031302947	-0.039489119198751726	-0.09083156119232813	0.05606789769981061	-0.05004191163302215	0.0762340712067422	-0.00904628799878316	0.018762837561861256	0.04161689204467145	-0.04202391869337389	0.10877751171140743	-0.007897836751440561	-0.06635418936865561	-0.08224362598298345	0.03875050372553712	0.07445639925446765	-0.02732107108101212	-0.01966077137402611	-0.016603180333591875	0.02202962795957306	0.078498874613582	0.07060015155747291	0.02513327996389538	-0.026770839491513668	-0.09931266173210493	-0.11737506713139499	0.04438770306945776	-0.06111545243321812	-0.060383045646640085	-0.10805057683932758	0.05600468561446258	0.05065276094583026	-0.07803363742114663	-0.04326589472802853	-0.07991303498372586	0.049476736782209305	0.031884533402855596	7.763057875692496E-4	-0.002590493103432912	0.13161688079975897	-0.04141564090156869	-0.022316176681780837	-0.1016276668987121	0.00253855380460995	0.02675725430034244	0.16922504831379326	0.029573090202181254	0.03822455218960129	-0.002413664119197545	0.020965048409299816	-0.024753128490809462	0.08403603551864519	0.15762919700793074	0.05836239474863673	0.07498966125600376	-0.08186004284371753	-0.05056953902284332	-0.04216812071685873	0.0372147417685378	-0.06103254133639612	-0.08445607148460964	0.027476349009437958	0.03017036366227268	0.008225975886020167	-0.018899316791046103	0.10188584729811379	0.06565594328978883	-0.11239541919829055	0.03572507794522557	-0.01978845299373457	-0.018826489539676104	-0.07531892641804101	0.07021609654079176	-0.023958828511635933	0.09264925929081354	0.044836627945819114	-0.004033819846075431	-0.028966304728025475	-0.11883608502602114	-0.03681393381139795	-0.03371943496761432	0.002243231596534208	-0.06605158349775392	-0.018148414699568582	-0.0454282101298459	0.07341061709589118	-0.11674757761970062	-0.053267450316914586	-0.08094545643723272	-0.09309830330735745	-0.05090849075014888	-0.07513178755422478	0.02966014572276905	-0.03147140758407745	0.08151408014203801	-0.06425400602774942	-0.06391856289776451	-0.06874862997890367	-7.140342452614042E-4	0.021979149901374576	0.016331529068102497	0.014903754870121784	-0.044347319399105564	-0.04469402738355286	-0.10911541491976615	0.03295059573139336	-0.0069255437034978886	0.23296062603013729	-0.020282691626041172	0.06824928661078014	-0.04565413590900518	0.12360856941785509	0.0971068734235662	0.0711380866789785	-0.0025551856338858927	-0.03936269279422773	0.04832020063623654	-0.033241056874665144	-0.010952949753907405	
13	6	0.16135428909236074	-0.11675191864130371	-0.10860076110769501	0.059163400547515184	-0.0526985603183944	0.039010698980792784	0.12968433502636748	-0.05647884734238601	-0.2152321823027627	-0.1301149975139957	-0.034297920053800376	0.022952561747717575	0.1699100404575141	-0.07043341219131495	-0.016161589626947047	-0.033814365988466495	0.0027251455945751842	0.00889816480219064	0.19468752092437486	0.07513575862456874	0.04610984184759629	0.09130979513575807	7.217426660307922E-4	-0.07316127774737449	-0.020091279550546966	0.12758987673652114	-0.010296897638125252	-0.02107827831202768	0.024731609397256125	0.06215581193864206	0.003003048765874879	-0.1443214270066598	0.00694890656034276	-0.09560150472999658	-0.047626828807868685	-0.08403056370115991	-0.09566904375593516	-0.014719215149667633	-0.040904302277793084	-0.1021150886584348	0.12735983184719002	0.04253459401213671	0.0029340191503378363	0.060557901310142104	0.0020063618370450035	-0.002329715925894003	-0.0803634120801395	-0.03312028581033159	-0.14683822234432187	0.03534618418012954	-0.01907474749583236	0.02820880041709031	0.041265219595486194	-0.10398146250074963	-0.09276269542073438	-0.06451397253183502	0.01939331980102588	-0.008901099598978245	-0.08979826224010903	0.09414344310766938	0.021986668078829145	0.05507465374683325	0.03510656135463122	0.02985916361651936	0.035149104996339366	-0.07909262932854244	-0.04925727786125062	0.05030991214369029	-0.04657693991540452	0.03508831769485916	0.0511411262765963	-0.047895354692701585	-0.045120246098744335	0.0604795090408369	-0.06361158808591419	-0.05035159770362216	0.040464371011826004	0.045395447690807174	0.1417437868701584	-0.04431582162815573	0.024522305564753714	0.037810323525655616	-0.21712567518587145	0.029040310965537917	0.12210931333187865	0.0274603719281026	0.029697792164599047	-0.03600233967501411	0.07052355560399137	-0.04896679510061498	-0.045043702849763605	0.07148418165904759	-0.08361663436392636	-0.01590535029798818	-0.11242805711335274	-0.03316982283111869	0.08113699958455522	0.03522453323305177	0.02129735335038699	0.032598807467188164	-0.0867656761949647	0.015997838054602174	0.06817569955880691	-0.005521036717112699	-0.11706633880471866	-0.02434114121058906	0.03399372702915909	0.023873832203208475	0.0025177713572769557	-0.08941993564028873	-0.07238761461063141	0.012237139143253662	0.005362855164197601	-0.013726441226906201	0.0013453278552921562	-0.019350376221379747	0.1028097652217768	-0.12298664885249609	-0.04675858184636557	-0.05355601172405244	0.07513360639794478	-0.11055029766283817	0.004293634011043205	0.029536962309797396	-0.09208729479188894	-0.026589678555912905	0.02814247371249827	-0.031161449368101207	-0.01102998990908836	-0.006583858177797237	-0.09169741288176433	-0.003548937963126334	-0.0698536982358357	0.0520645569970397	-0.049349666150514934	0.016850001785070335	-0.06004030061884447	0.013733314472584907	-0.09945610755652191	0.012856860277547628	-0.00396572054505895	-0.007113050857271776	-0.008795315766633682	0.009372970002428635	-0.06502173739221637	0.060455660871757834	0.055344878161510624	0.03692852389583259	-0.05862842869744987	-0.04225567082855376	-0.0073733638564824015	0.006869513742897844	0.08619840777565782	0.0362189473992684	-0.038108961155320205	0.07977300571496676	0.05098652240118255	-0.026271197911219568	-0.031127375340293337	0.09748564845176741	0.12215971324779458	-0.07435076214690498	-0.09139834322919929	-0.027601299039634267	-0.006842056396310581	-0.09311059930440503	0.06442995541103808	-0.06605661740279863	0.045080421265328026	0.06764400305709294	-0.050688284019090174	-0.10316152926256543	0.006356392588064129	0.010426682232470596	0.11716478661653196	-3.642527952799769E-4	-0.011374918057161567	-0.049704959687702194	-0.03933893244002792	0.06538212598187436	0.009834339642198875	0.12612182311846545	0.14918477311532688	-0.014465456562276225	9.820818088053201E-4	0.013686512635673673	0.043543066509530846	0.021598373823551405	0.04394172766948426	0.01867452576214243	0.015363579380599422	0.040140024328004835	0.048876048431053094	-0.06669161202622505	0.03727352904541793	0.10330237671916766	-0.03595930097462262	-0.0859296322460311	0.15348268365638423	-0.19097734375311012	
14	0	0.10825037956440757	-0.013214878965574524	0.04028157617931359	0.08282619539584975	0.08977913106414746	-0.12842367879303054	0.10615303743029472	-0.032065086680087715	0.04324560560845199	-0.05193818172623596	-0.04368990625966428	0.08696170620134308	0.10251801191444548	-0.08609477251593808	-0.0896165480311441	0.002879762879236986	-0.07110444203249454	-0.044621719227613994	-0.03055293212059769	0.10568707514907696	-0.09328956776082792	0.014418578637247468	-0.05308089247237014	0.060158009609607266	0.09481595826882336	-0.04526772321666369	0.03080407326917088	0.01870141969533095	-0.06667725162225453	-0.009845625011825588	0.06445482434996955	-0.10361846977392355	0.027305008828500975	0.029682584897510928	0.08482002578727943	0.05327444513196342	-0.024095692728085306	0.018135878524520428	0.21056948031050435	0.057142244771315624	-0.04071915043101029	-0.016367357368719877	-0.015688286947034686	-0.09326767641834714	-0.04039574921352105	-0.06568316754891983	-0.10312331906826758	0.044324524640624544	-0.07175356831011034	-0.030487610112752386	-0.10032766085959748	0.06852076714253384	0.012707715748765731	0.027628113565386577	-0.06759409140061143	-0.04537175113713173	0.02966160883487317	-0.051465465618177504	-0.054830904661224714	-0.06783262769429153	-0.015844613564622717	-0.07513716183326213	0.12479785825109425	-0.040597981782594994	0.0031877012795700323	0.0013376614756387382	-0.07293097693021079	0.07164933582089601	0.03726070524160316	0.00880170014222071	0.02979011672566919	-0.0018537006418315241	-0.07437665294306786	0.005521640942704193	0.11783326758488971	-0.18273570680011433	0.01851777545146896	0.017101950885634352	0.011498185214951216	-0.04633593857697798	0.073411023340181	-0.24177753373504787	0.010133193912274957	-0.0814635181716535	0.026954297789384154	-0.06626346333914625	0.08096129289111975	0.014884217602411341	0.02182561716202231	0.057220393575208944	-0.0337485456446405	0.09423550969312378	0.043273607553077645	-0.07392597932585118	-0.05798523058300529	0.06117195542654531	0.07653048535249847	-0.028363707870675513	-0.06932655495010996	0.005486936589668012	0.022550741650818485	0.056469792108830345	0.024479549814191023	-0.005151684503850112	0.0029947091574906606	-0.09287321927132776	-0.12959941107990702	0.006501244800944319	-0.047956590330693855	-0.004066097937381237	-0.06554817512440587	0.03431679217900206	0.03900042699728559	-0.04645632866895353	-0.08941092241438449	-0.061002528324449086	0.027747263264034438	0.06747850535863396	-0.012994257951435984	0.03453273994732059	0.14225201141547253	0.008909111221147454	-0.00765939019127393	-0.098422177984235	0.046515543304629266	0.039755091632380384	0.1681065070744565	0.0375255319671433	0.050062556929497015	0.025272098212229695	0.05140219500906141	-0.04070773130170224	0.11706128165990515	0.1271681845960295	0.07072672437399215	0.11547113981444818	-0.04132192827030886	-0.07140359407175509	-0.005198614994872164	0.07008948502723944	-0.06678146358486864	-0.11307323927172808	0.03570438277706116	0.04592487789722556	0.04769118014113819	-0.10250131436475383	0.09117357339877723	0.009065123498049173	-0.09262432544150428	0.03912430884057187	-0.010942966196458636	-0.04235030695974261	-0.07832304867365536	0.09519116080733697	-0.05648048833204105	0.019483170236163444	0.06260459146118133	0.041970222176821115	-0.005300819935875451	-0.12261437054295594	-0.09365169821215089	0.006965144828050494	0.026765521893348264	-0.04530847151034676	0.016587610180804842	0.029159456529949005	0.07421614024117605	-0.07853678341611885	-0.08954309246227712	-0.07166576609783291	-0.033632717980962394	-0.045028628747910984	-0.12151680289526437	0.03561697878262827	-0.046962236187079856	0.10142080139922043	-0.06891235840293451	-0.046178470638374096	-0.07042332737734762	-0.023492944832744025	0.017088158189452123	-0.002792882540359231	-0.0017294802933020624	-0.02513189857001087	-0.07936616809010182	-0.14188071375232938	0.04439766398354365	0.01895562321042165	0.2004902052911955	-0.007347333678368779	0.05889103574662216	-0.05130166875205479	0.07104232796616701	0.14130994629439755	0.06754493528173605	-0.006957136208522798	-0.005443764944537494	0.07974929634069813	-0.12524955302608265	0.016122704349435656	
15	0	0.04626564679127072	-0.016699567598430515	0.047894033725762536	-0.05795307291015108	-0.0016610807863917552	-0.14100713997652042	0.08849208210480501	-0.03580251041543329	0.039400253830834696	-0.04918992251375208	-0.027955620603299116	0.055811802448002636	-0.004846386022529549	-0.07461609567584332	-0.024027216843372144	0.04686990394481468	-0.02045316169144625	-0.0688986070434208	0.05337625600529942	0.0773836400371386	-0.10196595961773844	-0.057215391848082525	-0.05965863747505713	0.054114981149566053	0.02297206852676123	-0.08158500984109632	-0.025737121952368595	0.05047507190416862	-0.049017730333167926	0.019727737259470808	0.07257219300887052	-0.1017411142559493	0.028058218450070713	0.0038427487841325506	0.1376845994476372	0.028190408254405778	-0.006842512633042941	-0.02911455732446792	0.12216345078606754	0.06552433420818789	-0.07198045442217793	-0.05927146408229562	-0.008263718020958034	-0.08378747315396531	-7.912986448184886E-4	-0.00885353354255187	-0.1608915550110526	0.01625312007640165	-0.06315956535085882	0.0206379679775991	-0.09361249847802043	-0.0381346183667714	-0.023605204504164902	-0.02215426924562994	0.015067728056590422	-0.05400815642724056	0.10709612699268697	0.03842239939077813	-0.0625793714677427	-0.055392455996942515	-0.04691084283587787	-0.1102150462936072	0.13242763095319957	-0.05257409491759033	-0.03896379283312755	-0.06455660308673242	-0.11258797353372661	0.03525304082327345	0.06698441574763524	0.012972411710034496	-0.033782800473266796	-0.006750771244782277	-0.04841829872241746	0.04054875029589771	0.09669043795984113	-0.19554012562440803	0.09008702637251118	-0.019084105596705526	-0.03279556423069943	-0.008270094580522842	0.0217499600493817	-0.16756454100845572	-0.03159961828939265	-0.08122163610435545	-0.04021634305032228	-0.06069497842097396	-0.009298368231244216	-0.06385913744183543	0.036785630382766485	0.06519379089308704	-0.022661350385953027	0.04137407338242563	0.012546652338270705	-0.11771068628720179	-0.04606897352999246	-0.006277212157020375	0.03939826680852975	-0.05628661809451583	-0.0645491731228224	-0.05897959827644523	0.05146437254903088	0.11723312544560989	0.07135030647130829	0.003006840688640764	0.06918731443586285	-0.09400295842848855	-0.07855852633482839	0.04441240505822999	-0.07805906897840552	-0.060753258406021964	-0.04847413191768496	0.12020981465922448	0.04402291604591934	2.766254328731726E-4	-0.08505015866276139	-0.1042713557100624	0.021720301166776004	0.050727486881252656	-0.0028056025925596085	-0.04279983755191154	0.09764143219071422	-0.03781765468529409	-0.05320513166539895	-0.18464701849202853	0.09716130387419836	0.1308390394086329	0.13098407384834826	-0.023855407125286707	-0.025872359246403895	0.07229636545798551	0.037939596938144055	-0.08800983043798428	0.10574198157937457	0.12082854556015352	0.049368816917478346	0.13324299830256586	-0.04718967389284924	-0.03490558121716387	0.016121572015284812	0.062306202745821354	-0.01663100192347902	-0.07367809249891666	-0.03298179499144334	0.011102785111265626	0.007440948618753084	-0.17629931321861517	0.04391268803320196	6.378194641452347E-4	-0.10959563680791802	0.020973091732360633	-0.010691076333683712	-0.05918076593612485	-0.06958311775654599	0.053160664609370925	-0.02847651591049676	0.06084960222541687	0.05067678728851348	0.025034834890123484	-0.0733733762796469	-0.13353833093538997	-0.06935675074791364	0.0304298790150013	-0.02824810478262477	-0.05761314322017853	0.06030590865641873	-0.0444564073558007	0.04775975444065366	-0.03233971888612671	-0.09041483282634952	-0.08210547660215183	0.0010670092058491785	-0.10912028357859006	-0.101788872987511	0.018019960821441184	0.003638303422248033	0.06367198479497811	-0.01437626649504535	-0.03878236800420525	-0.14208000433805792	-0.05066350843535227	-0.0570963255603032	-0.010404374725394502	-0.04389095219334841	-0.028286748599264	-0.09796656542780043	-0.1241326772031339	0.034880350557862747	-0.019568945873788178	0.16427662097701967	-0.0020208334600374097	0.0016626569979174062	0.016015994265319477	0.11979924029197693	0.19810708459832752	0.060004562686735256	-0.005769645006268174	-0.034653659690966454	0.033134141813811566	0.04543336703650846	-0.04912745554221742	
27	3	0.061111768602314286	-0.007024085676554703	-0.04744529737116943	-0.15479493221045426	-0.031782942766299144	-0.06386065319325364	0.007753639481239531	-0.02681062075798326	-0.007939053437947078	-0.0922851977363702	-0.007246748121536097	-0.01747469115497849	0.003917032782998469	0.0325515131306088	0.08990426073383902	-0.009302996507267023	-0.05764955579712282	-0.046052645192253876	-0.04542855383415653	-0.125499797330653	-0.009913870148237743	0.08323339249092464	-0.05941478936572806	0.00157909041709659	-0.1520097245876231	-0.014477348983774107	-0.06303834673940008	0.08382069216605778	0.025245900745201683	0.07495625743690075	-0.07068913500061204	-0.01794624383828149	0.11441805705097126	-0.12060052822983361	-0.05434690938765384	0.03474945875220549	0.034556042913222514	-0.09812257513877541	-0.08418183177491469	0.05292208472123324	-0.09215807492247917	-0.018962327138416262	0.06283607641399862	-5.270902232341814E-4	0.020505304101416266	-0.10173357231372906	0.011582997873874014	-0.0473010528643287	0.18661415013223406	0.06129124770925928	0.06305440909378944	0.06627954690702165	3.816011084387132E-5	-0.08405087800874543	0.17398244347967376	-0.032261415841468306	0.01923501755513695	0.151255206109428	-0.0560733412610799	0.042157355063458676	-0.08771643007099918	-0.07303078473500668	0.0543580241375581	-0.03617523377987965	0.07149882106052664	-0.0069387928833586745	0.0190408640440151	-0.1627926929131888	0.0038908662576064585	0.10512825522127454	0.08280990032769267	-0.007036361027254502	0.07594588565671674	0.03187094212270399	-0.002590349473898827	0.0785427164328201	-0.019238625428110813	-0.10293716340483564	-0.07292965034756767	-0.005695453591781467	-0.04957825261760742	0.03749452240679308	0.03269457098417008	-0.020118821159882443	-0.06572299403500248	0.04324830624276452	-0.04567906758845255	-0.08178387018884324	0.016964437817453267	-0.05584609939284993	-0.014543822747914784	0.05278842693827768	-0.10252228428029463	-0.1551812584059191	0.04615853131209153	-0.0344220452576016	-0.13293849158606247	0.02588861935902542	0.13940797331202717	-0.10998850690119436	0.0076046909192506555	0.05467899746971679	0.13842531937229488	0.014384047670056195	-0.06531111302500736	-0.022159825611786924	0.05900276822424402	0.12088897266933243	-0.04610855944977203	-0.019789556394579112	-0.014218160905942816	0.04817496856936391	-0.016919758454434386	-0.09880812129761489	0.14993178990375283	0.03351116441035727	0.07228924130990502	-0.022981744339113333	0.0017943804863101548	-0.16280075664602356	-0.07235525325202553	0.02337874657643729	-0.0592557832035628	0.013995747407463361	-0.056603932679888176	-0.011251299740682091	-0.03666206524553608	-0.01727517716288225	0.027624802715309767	-0.027711143650210553	-0.020552046629588393	-0.009998326054870775	-0.0033445179697084203	-0.03004855368599638	-0.017744026845451302	-0.03099281832758543	-0.08292076572360353	0.04740868279214913	0.01486568845742903	-0.14257863195139606	0.008271091500763965	0.08758189511787424	-0.028941509162685234	-0.04385312376575901	-0.04673295928474458	0.108110023654586	-0.07570414578628576	0.10023511214103586	-0.03444070748950947	0.03758479115975428	0.03796441755010358	0.03700128572491429	-0.10297112404270314	-0.17662982604680752	0.021777355690762595	0.0682210748848741	-0.13037118514271492	-0.06201454966967825	-0.04703299531780662	-0.009167261331323204	0.07071257916398217	-0.0425830453250299	0.02534277541746784	-0.02940598609496087	-0.06143339440692079	-0.14493904616014244	-0.030043000635927686	-0.0744983516679996	-0.004255929249654884	-0.06824521195040187	-0.07968112229721329	0.03612857816685588	0.10644084447559118	-0.050439811428920435	-0.07036433617733959	0.017202476720611783	0.09066695580951839	-0.0071458052935950275	0.07326966296293809	-0.0723357464026209	-0.04183903286023484	-0.05141043570216498	0.02058779142784372	-0.0749254491040152	0.06668793644922372	0.046063326103839994	-0.029149847750416364	-0.005486452915031239	0.03855960001492426	-0.13981248717655959	0.017657669419781127	0.05148218510396174	0.08413054628058082	0.04259205776945358	-0.029554828946327966	0.03583835580813031	-0.09738434407487702	-0.09699020833785996	0.11259954048490473	0.09297904660946017	
30	6	0.12014421007146181	-0.12909768380666883	-0.11425963222775745	0.04099563292815044	-0.03575039246178471	0.025573761388540894	0.16151555804963919	-0.05329940484881964	-0.11020790313579477	-0.04439419369472263	-0.09896690074912066	-0.008209148897147477	0.1427781443854778	-0.06950445541220406	-0.004416806234468246	-0.028063586245250457	0.06307522283602865	-0.03662847229653432	0.17781308925169936	0.07106478536805756	0.07703190689208902	0.013907961954241833	0.036655745905717255	-0.12409985025959966	0.041068738066044004	0.06060327014567571	0.026705818033211703	-0.03892638264098336	0.02984155292086606	0.018972729198330936	0.05555139868524122	-0.11546548088360087	-0.026623058135976766	-0.03955502747482566	-0.02017006482530649	-0.044981141861491186	-0.04332015479048217	0.04817088604524969	-0.10917907873844274	-0.03153196128287382	0.14852067061695762	0.12515706866388346	-0.08420494422941431	0.034110691028254536	0.034575024541585224	0.02103050227895868	0.012374898722780017	-0.07555692921177946	-0.10052530418406698	-0.04493454602050172	0.013555358871565731	-0.016011615764434627	0.0435256104711144	-0.022406653234274466	-0.0908369748856494	-0.02971871389627204	0.018388353116424793	-0.048356357241673184	-0.0792375674359755	0.08037759473595038	0.03158062511536379	0.027539552170330696	-0.0495531816659865	0.07460256598065144	-0.048643046328877226	-0.10851481374068937	-0.00533782979531843	0.061905921628048075	-0.002215420728320454	0.014202056013883508	0.02999940013958313	5.179581698946035E-4	-0.031074462235185476	-0.00452438976481217	0.0245668084481132	-0.06492345774589607	-0.030264748938986015	0.12110774790301894	0.14256549935813956	0.005150659694171045	0.007862179499355044	0.029393192012584658	-0.20749879116373457	0.08118559287683648	0.11802563671246238	0.030071793412062998	0.028657773113149567	-0.014805636109073029	0.09204535786774318	-0.06657074996522322	-0.03440485517526006	0.06282186217216776	-0.03205932213251966	-0.07079339090276056	-0.10140876651790774	-0.03143951033238047	0.08187532952714202	0.06987088494411672	-0.01578487563907084	0.08131752435372994	-0.14541681648860294	-0.042084789138687836	0.00508748241094484	-0.05989158242209588	-0.13500178403814045	-0.005267636522455184	0.06821525948994839	-0.01124708083569843	0.03378681119089519	-0.0064051847011901055	-0.02440547428928413	-0.03271103556475572	-0.05221603360884725	0.020631789600656182	-0.03953678751610908	0.037146634788850795	0.11166873048130109	-0.1299351857327241	-0.09372994287910774	-0.05146201832334723	0.08733625675965952	-0.031845651135568115	0.033390400423809696	0.09058771647692002	-0.07510534897826492	-0.03811694752501099	-0.009706901953120801	-0.04512986964259678	-0.0037987096907667064	0.031034283718419223	-0.0885973864279902	-0.03873952501718355	-0.06715203984437272	-0.020522519540568863	-0.07901071685628355	0.07992028098407329	-0.006302647835794383	0.004600998743935553	-0.0651871350740283	0.03596107665198776	-0.005188282664851047	-0.023482076506836373	-0.020873916436087134	0.023258939464149156	-0.030214862432174736	-0.02275110894682223	0.021566446541286498	-0.048448163102884564	-0.03835272046257804	-0.07437199835732616	0.024633839033737497	0.003061675385879091	0.12246103930644321	0.0603107008364305	-0.11444415452585809	-0.03385500684597059	0.06174018992836849	0.029695088810479615	-0.011456490815390543	0.15903161636246024	0.09902511123830783	-0.028509867776565247	-0.08757808826114351	0.01504844995139105	0.04005743355590818	0.0012529313278858369	0.08275781005826024	-0.020248199285806533	0.014624936363603932	0.13075194686394853	0.047160864097250677	-0.12113465178941256	-0.027778501300689307	0.006176972094694548	0.11796125628087148	0.04250328488347732	-0.0014524686611350364	-0.015529387583373697	-0.022022565607302803	0.039723778556549696	-0.004301367396932769	0.14697886581580377	0.18572862156576797	0.017270809782463512	-0.04435941057494584	0.010237275281869677	0.06068952816387866	0.08833587386992339	-0.01971271771596386	0.030329691725181334	0.00907800860670462	0.06095632328139179	-0.039104581683626835	-0.05608488804630776	0.02345301130537527	0.1667382173392457	0.004380371873753535	-0.09226787248624875	0.06444448918816871	-0.1997908179111597	
39	2	-0.1268146875715875	0.032261330594682384	0.028955882811041517	-0.022979493381478325	-0.08579694782449669	0.16426173982024858	-0.09537008885361072	0.03581153288267189	-0.08290043807394959	0.12006084846836117	0.08599126310362322	-0.05741203885671121	-0.08380492705567462	0.06147054794978954	0.03947681699779093	-0.0015652878231298332	0.08749227758270144	0.10518895033124752	0.06806993747552391	-0.011329068814179163	0.08351575263957127	-0.07374178292600758	0.0588738879723384	-0.0378801884206547	0.010729724328440963	0.073448499636389	-0.044361420635937766	-0.05015467704420912	0.04112562958897479	-0.008252360997097639	-0.03099382092013669	0.13041102323801082	-0.07021917615568839	0.05693105949976934	-0.06718674960771874	-0.08282320614447601	-0.028419944372911125	-0.009143524280524331	-0.11899640272570172	-0.12917464102758447	0.10770890903245044	-0.022549214857134837	-0.001652181308995848	0.08515464094031908	0.021082933116136758	0.12528159129382035	0.04604117129361666	0.0027522885967404902	-0.050727300378287564	0.01729265179691726	0.030747042364327546	-0.09784177749796784	6.462202966930123E-4	-3.450892664963244E-4	-0.04132311797344939	0.0810814653047097	-0.04616261992596496	0.004464161099637202	0.11325584395892285	0.06474279752659243	0.03399311927842102	0.1226347092719967	-0.13157247636708505	0.06066658254886681	-0.029926623499150547	-0.010710682896371513	0.040356067192095335	0.01661820057157512	-0.06821184754677106	-0.0915807003677875	-0.07703338644402677	-0.00780911501753541	0.03742414670020745	-0.03963760122455584	-0.1475102310148078	0.11663032905728339	0.003626696933493017	0.01583374201930488	-0.0019167658138769463	0.020000652053587652	-0.03831972298058021	0.19858864751991234	-0.026106004043632808	0.06287135780735648	-0.011304774502377223	0.04774955087768162	-0.02675183854603228	0.019110926636095663	-0.0691456656408125	0.016749432127647776	0.05910839773345865	-0.12229142592735297	0.008998964774067392	0.17525911491735316	0.026348711353751508	-0.035740644955733834	0.013138075078374434	5.380743509091018E-4	-0.021739123052406478	0.043961823567624604	0.017183024777627873	-0.05745346070538483	-0.07961085840717129	0.03357707476351981	0.03870595515627408	0.10750230762918342	0.0729419101375765	-0.10115272971675825	0.04901143918604715	0.007213674751068942	0.07278697793269834	-0.030117966520051748	0.012305600807953041	0.11330090542374217	0.031896035369567054	0.02223915717369145	-0.0987231921370214	-0.01650759004486937	0.005411735303055087	0.074176879750992	-0.1253836036872089	-0.04074422706870727	0.03810251412975973	0.05354255844802013	-0.020121797964379868	-0.009307322263340398	-0.12481656018076487	-0.0036624097644766965	-0.09449860091725486	-0.02230903984687882	-0.04102531259994538	0.07120353683506764	-0.07547196724269067	-0.08089495437802022	-0.03380599461330013	-0.12056044949194243	0.07037895077262069	0.04056513507947085	-0.009159703187801136	0.0023809588064300715	0.06410153821780033	0.05765751268876113	-0.01690806769351424	-0.009199971115357215	-0.013295318378796392	0.06394565178932014	-0.02742718898958093	-0.06854981260956675	0.12176458311777498	-0.050630741706924685	-0.0313875851998553	-0.0014625688752115033	0.16155074507056502	-0.019347431897484037	0.08190872020438551	-0.008300572690052823	0.01854266508611823	-0.008615079170354766	0.023014878789465957	0.10024640664542474	0.06250343489956903	-0.03476998580077708	-0.037627727613263745	0.07905146598965666	-0.009429458772684068	0.03549675332870154	-0.06250368724861675	0.11195395632363113	0.10338809924791466	0.07839318519787616	0.04680874554475605	0.04648979892923922	0.07266701711277376	0.014681056376799853	0.07589334983660474	-0.135276804547504	0.018067446306638597	0.06003655860596099	0.013447840402092794	0.08687879323179233	0.02387882027889931	0.03063236427744969	-0.05354794881299174	0.07181716157384024	0.051490299931501636	0.10667848806459954	-0.04629719980517369	-0.06370321461842993	-0.2398020930220767	0.08996419456111508	-0.06484279269676203	-0.028240417630671567	-0.07135360750947851	-0.1363584619232827	-0.06351014794450416	-0.04202738923045227	0.04993921558500607	-0.010787731980630143	0.09121551161498548	-0.07281900409115365	
40	4	0.0	0.0	0.0	0.0	0.0	0.0	0.0	0.0	0.0	0.0	0.0	0.0	0.0	0.0	0.0	0.0	0.0	0.0	0.0	0.0	0.0	0.0	0.0	0.0	0.0	0.0	0.0	0.0	0.0	0.0	0.0	0.0	0.0	0.0	0.0	0.0	0.0	0.0	0.0	0.0	0.0	0.0	0.0	0.0	0.0	0.0	0.0	0.0	0.0	0.0	0.0	0.0	0.0	0.0	0.0	0.0	0.0	0.0	0.0	0.0	0.0	0.0	0.0	0.0	0.0	0.0	0.0	0.0	0.0	0.0	0.0	0.0	0.0	0.0	0.0	0.0	0.0	0.0	0.0	0.0	0.0	0.0	0.0	0.0	0.0	0.0	0.0	0.0	0.0	0.0	0.0	0.0	0.0	0.0	0.0	0.0	0.0	0.0	0.0	0.0	0.0	0.0	0.0	0.0	0.0	0.0	0.0	0.0	0.0	0.0	0.0	0.0	0.0	0.0	0.0	0.0	0.0	0.0	0.0	0.0	0.0	0.0	0.0	0.0	0.0	0.0	0.0	0.0	0.0	0.0	0.0	0.0	0.0	0.0	0.0	0.0	0.0	0.0	0.0	0.0	0.0	0.0	0.0	0.0	0.0	0.0	0.0	0.0	0.0	0.0	0.0	0.0	0.0	0.0	0.0	0.0	0.0	0.0	0.0	0.0	0.0	0.0	0.0	0.0	0.0	0.0	0.0	0.0	0.0	0.0	0.0	0.0	0.0	0.0	0.0	0.0	0.0	0.0	0.0	0.0	0.0	0.0	0.0	0.0	0.0	0.0	0.0	0.0	0.0	0.0	0.0	0.0	0.0	0.0	0.0	0.0	0.0	0.0	0.0	0.0	
72	0	0.0	0.0	0.0	0.0	0.0	0.0	0.0	0.0	0.0	0.0	0.0	0.0	0.0	0.0	0.0	0.0	0.0	0.0	0.0	0.0	0.0	0.0	0.0	0.0	0.0	0.0	0.0	0.0	0.0	0.0	0.0	0.0	0.0	0.0	0.0	0.0	0.0	0.0	0.0	0.0	0.0	0.0	0.0	0.0	0.0	0.0	0.0	0.0	0.0	0.0	0.0	0.0	0.0	0.0	0.0	0.0	0.0	0.0	0.0	0.0	0.0	0.0	0.0	0.0	0.0	0.0	0.0	0.0	0.0	0.0	0.0	0.0	0.0	0.0	0.0	0.0	0.0	0.0	0.0	0.0	0.0	0.0	0.0	0.0	0.0	0.0	0.0	0.0	0.0	0.0	0.0	0.0	0.0	0.0	0.0	0.0	0.0	0.0	0.0	0.0	0.0	0.0	0.0	0.0	0.0	0.0	0.0	0.0	0.0	0.0	0.0	0.0	0.0	0.0	0.0	0.0	0.0	0.0	0.0	0.0	0.0	0.0	0.0	0.0	0.0	0.0	0.0	0.0	0.0	0.0	0.0	0.0	0.0	0.0	0.0	0.0	0.0	0.0	0.0	0.0	0.0	0.0	0.0	0.0	0.0	0.0	0.0	0.0	0.0	0.0	0.0	0.0	0.0	0.0	0.0	0.0	0.0	0.0	0.0	0.0	0.0	0.0	0.0	0.0	0.0	0.0	0.0	0.0	0.0	0.0	0.0	0.0	0.0	0.0	0.0	0.0	0.0	0.0	0.0	0.0	0.0	0.0	0.0	0.0	0.0	0.0	0.0	0.0	0.0	0.0	0.0	0.0	0.0	0.0	0.0	0.0	0.0	0.0	0.0	0.0	
78	4	-0.154552846193272	0.02605012003321577	0.01909832639961441	-0.04969164702803671	-0.02834187273003662	0.0860775705206487	-0.06235780740007994	0.03713977587577399	0.12853498910499817	0.17412607866688817	-0.020441112641840623	-0.08639365163799836	-0.12772304642161977	0.0698737072818365	0.044728368276887476	1.793596711032381E-4	0.11126505110688462	0.007051251899099772	-0.023966570241585217	-0.06044855144403224	0.07949263754628341	-0.12209063968053153	0.08228915162816901	-0.06446880518059278	0.02081421003371196	-0.06775753577525624	0.03477764396128228	-0.027883528256746472	0.02411399075173962	-0.06088491202746344	0.011528783135283457	0.1313819728292623	-0.06634009854083885	0.07664254643394623	-0.010681684070814447	0.0012083870910106532	0.08097331760252094	0.05203050086312118	-0.15617036315880048	0.03889612963165937	0.03694675054081772	0.06965078782508102	-0.07655313084584237	0.026911041125082025	0.042098163041367785	0.0838617816976099	0.16252929480372727	-0.047156456859929925	0.08452275713347507	-0.08274749036666607	0.0724518838914055	-0.10558012785572785	-0.026771174209009294	0.10679271811106712	0.029448595415355744	0.09548979392230843	-0.032919103548614624	-0.035459759164388455	0.07936866635355248	-0.004574603271817693	0.012209024625267961	0.028302285074251282	-0.1766697873031697	0.06913752287268038	-0.10927987958727303	-0.00789185791605768	0.0862143914477202	-0.031080221820898233	0.029211430075994693	-0.057955940910793306	-0.07895923298396773	0.05487237168491229	0.04925402857210423	-0.08545941492751791	0.02096778620832728	0.08133890120722495	-0.0927210596630873	0.052214123802076635	-0.030010947617371005	0.0857215111969065	-0.047306168345087	0.11212313097327045	0.05139949541529025	0.09417316263972723	-0.05121784853135973	0.029906467005424958	-0.04662623279611153	0.03454781774910136	-6.97919452303089E-4	-0.028630728249872818	0.0357983766451899	-0.09146726544535438	0.05034893597686905	0.04973849988197225	0.07524354767388024	-0.008785208068156625	-0.043040498035510764	0.03163735834409638	-0.034468164283077106	0.05084527760713092	-0.03756620515271882	-0.09449723856326066	-0.10319099453458838	-0.05701849703038801	0.02773025865559443	0.08818626780388837	0.08949621605860798	-0.0791076614323115	0.07046087460053194	0.10252032932349338	0.12487873447996878	-0.07772226102664907	-0.05598669116839542	0.09541040810770915	-0.013962802804865688	0.09006503518721218	-0.04657560469319314	-0.009992265964922847	-0.025753889497804203	0.04014075881053518	-0.0833086782372551	0.07462976419839978	0.04041036418853135	0.10457587104610104	0.024373250647856382	-0.021972328886652976	-0.13836323066051243	-0.0170564136366714	-0.01505720047569959	0.027245312431438594	-5.993015494731055E-4	0.007275331514832273	-0.04812624755252317	-0.1591182506222615	-0.0440743502859055	-0.018173225708962168	0.10455605710313311	0.019823272981541146	0.05641066519269446	0.007504193528490548	0.04095304795452496	0.036172932152419845	-0.010036090920419731	-0.0036004542572125476	0.02788549925464123	-0.058148052487928266	-0.08485464876503691	-0.11148597095798256	0.10913761000932817	-0.03345513236841913	0.025431381832818373	-0.007009622594480598	0.07722914259654107	-0.022137474083984865	-0.025187304602148783	-0.14945153656425392	-0.008160130503968023	0.050977651879427016	0.05142002609923965	0.1178181988570835	-0.010153030841516385	0.05783464673485487	0.012803190292827582	0.07576321282192472	0.048867842125514725	0.11069450104302256	-0.047714756454102655	0.12618264111514652	0.0143988655820335	0.09390771955894389	0.13333002766025076	0.036530232561512485	0.012796642094302462	-0.015380980740668366	0.027723791029248056	-0.04486342589759188	0.043109200878984275	0.06461128593678178	0.056378670433677815	-0.009703921814319512	-0.0157869766357759	-0.010518430249358786	9.859195351633336E-4	0.057056898764114544	0.001968436012753649	0.058750505113200686	-0.006554648046814966	0.04225841986094581	-0.22511105416761149	0.03488902384990848	-0.06109022882208379	0.034662201576832946	-0.15987289365446805	-0.052563720780931696	-0.05752529213878555	0.016920521196868356	0.06727337847549836	-0.019004771378500106	-0.059472892777028885	0.008942586899140586	
84	3	0.028456111390588536	-4.53109379396171E-4	-0.07852429969119853	-0.11374441054878791	-0.0132202517912783	-0.07620635653212794	-0.04865692933817565	-0.0010381854531243196	0.00857244183548559	-0.13749128963151086	-0.009916735138961415	-0.019506185743521278	-0.03985286114914239	0.03361921256154337	0.08241430660287834	0.019615442027880278	-0.059478105833723496	-0.07341577510219455	-0.06829830811598989	-0.13608862946354033	-0.022744076046059693	0.10418653668506825	-0.04735848250086831	0.012783111026553653	-0.16669615958054992	-0.014472233951176808	-0.02984023702378825	0.05580193073232942	0.038499147612088204	0.05106921844414056	-0.06319947258567303	-0.035659053856757765	0.08231366872341732	-0.13307126147615078	-0.020785145190269954	0.04577136800600548	0.047483945353622124	-0.0481066885647064	-0.08797456149481213	0.07347308833318852	-0.13092421384640496	-0.00783035765077091	0.0700486178844981	0.0021056055328181134	0.020651136600654887	-0.09374544146220003	0.015604001878581866	-0.03734665548347751	0.16463631036731682	0.07888807101535192	0.08219127943727067	0.056494366817590964	-0.012584839102868542	-0.09036198979608992	0.17541942945983188	-0.07339855458768312	0.038037552468548994	0.1190362073928845	-0.07449572776800763	0.009133235408536597	-0.03077885967984072	-0.07433469207643385	0.0687734580795253	-0.06350666507395361	0.08660173283998054	0.02542181423596465	0.021329565412847452	-0.12364187840197462	0.02128471172808231	0.12217799641510818	0.07910046017139562	-0.00692685425025836	0.060990030437722186	0.07579992433483212	-0.0011248191640311734	0.10811032452281846	0.027006736733891642	-0.0890761628798204	-0.04666205048819991	0.009932422665010687	-0.05721072458391835	0.06720710018021957	0.03916571070786658	-0.018903248156319594	-0.03697611901682107	0.019950325674667656	-0.08229185631569871	-0.07009423958940655	0.020578817837510067	-0.0708110968126237	-0.019747586210298793	0.030678939719110582	-0.08407002926247785	-0.14273259789848733	0.03892873178189748	-0.051987807214756376	-0.13311914511303183	0.011832119263533086	0.15290241072312172	-0.11009461396105162	-0.00484649803829142	0.043109056400423125	0.10505314111077195	0.013445002876332426	-0.029851578331436264	-0.035241017786368505	0.05406019899858747	0.16251689378807152	-0.038610533303336705	-0.04544997139765219	-0.04990157320356605	0.045189943014030134	-0.04716878161176137	-0.11822993662508634	0.11404256202450548	0.009621051980266247	0.0712895468314104	-0.042497042795006774	0.04203244794524914	-0.17049668709825255	-0.04666765567464572	0.022260741038792328	-0.06584726997817224	3.3285636385957666E-4	-0.032615538045916825	-0.015621207668168942	-0.034527991938200296	-0.04387985008692763	0.028561065920516503	-0.02188945273002642	-0.006999879307479337	-0.03714347090989452	-0.03744657314787355	-0.010757266806586698	-0.03364882428226483	-0.021195058479066227	-0.07086744333185846	0.05153761524136382	0.015805177953688958	-0.12479541858921914	0.00807028706147653	0.09119974381849608	-0.04397051497532525	-0.0659250981580284	-0.05989903629095085	0.09546131669392804	-0.07721075859086107	0.12242345903456824	-0.0622662202460877	0.022280665307899187	0.04234998378835619	0.07459100061559114	-0.1390594028696473	-0.12502507720784567	0.018634740728885168	0.059613665946238	-0.1337562896173006	-0.08331744836304575	-0.06032028218799761	-0.03914239227367519	0.04745069237416009	0.016456597845762172	0.010720399402070141	-0.06003360358377745	-0.04056772343400204	-0.13598250272535764	-0.026915900002502876	-0.06988291145336109	-0.006309987998357634	-0.06290996184624768	-0.06708970999586113	0.010076800364813477	0.09890942239945581	-0.0675566832819848	-0.07118237432254416	0.037198312897124865	0.06669890211152725	-0.018579014354024016	0.05699256785421013	-0.08385060336610586	-0.057869887009873604	-0.05661878943606207	0.010436636566896735	-0.07529151976402118	0.05261533485749248	0.05850838668554752	-0.029945991478476465	0.007270735762480099	0.10989763104033744	-0.12226311448551595	0.019582774247839625	0.08163389598365389	0.076721856553899	0.0025200654050752426	-0.006608853742699583	0.027898778718281593	-0.0880338662249883	-0.07785611390544281	0.1007417948233968	0.1028848377190145	
102	0	0.14915357944960445	-0.024298119878493573	0.00506426469944081	0.0612529922107877	0.0725730666019909	-0.1385762846782855	0.10528201971518118	-0.03950552677447022	-0.04898651787937667	-0.1208356119446463	-0.020951020502520228	0.09850395146678542	0.13491433558640067	-0.09636689416827376	-0.0647571033722023	0.012495993901183071	-0.0957261461100931	-0.04347892116459788	-0.010258425001229804	0.09812482951124592	-0.0948219218244757	0.06378476359984352	-0.08155715410430853	0.059843531150179506	0.07167664273414931	0.013788569460710868	-0.013842679980069727	0.015509938103903272	-0.04139541016980094	0.026177516545358843	0.04898524811739942	-0.12736915050039108	0.04787312769352383	-0.008920788816278159	0.05768715773991488	0.048772048831497695	-0.06122318536469555	-0.0023021831447335283	0.19076519941204062	0.01616755339240656	-0.034986174429468546	-0.031574922432432526	0.012853352586803932	-0.08239429582550396	-0.032746163899500844	-0.08179402452391639	-0.1396561312121679	0.04374548137209072	-0.08230790647389763	0.02500941107059506	-0.08725642776444209	0.09648308232542527	0.04006078835925102	-0.04236795449992806	-0.05664917001331636	-0.08106941327092562	0.03747427136328596	-0.0025267052329447696	-0.07160216301994007	-0.025469090785715808	-0.00512092342364731	-0.06736348796513772	0.16023882507955556	-0.052973147065548856	0.05790351843761592	-0.007204111591804657	-0.07845185934302192	0.0757848704151402	0.003002225287939453	0.03250033241447569	0.07280062252277636	-0.02233399928394461	-0.05913684111922047	0.033614066014569025	0.06710337904691231	-0.1433901076810606	0.05825744454803905	0.007392004424642233	0.021998928544034423	-0.07344543046075226	0.057306526163460075	-0.19346559703480168	-0.029245528356244742	-0.09315485829866467	0.054887131719215346	-0.05126305245159326	0.07963690549129598	-0.010436426454665663	-0.004528181508387178	0.05383041810506974	-0.024660469059924996	0.10470047713138646	0.013078705810448128	-0.10088772309887001	-0.08828235364963964	0.028402089587156586	0.07578104199486263	-0.02284822006582186	-0.018406255072352	-0.012780957870779812	0.01857275701554956	0.07173581453094992	0.053944904825413205	0.03572290481051633	-0.028581474366249294	-0.1002301038332277	-0.11803892423022377	0.04669823491179282	-0.07024152223293188	-0.042722563642248	-0.11827050844688339	0.06384220525241603	0.03298737328176837	-0.08324722548313038	-0.0391565868626368	-0.07847409591485767	0.03817246445165759	0.04502332820429767	-0.006792155106799911	-0.015394845598807206	0.12661641024090844	-0.011821991311036863	-0.019136125338406564	-0.10452563534779859	0.005052814525807227	0.03156058610027078	0.17042076705544218	0.026420341772248505	0.019004687435138883	0.0011170772572892712	0.023945111260846048	-0.038472179280201926	0.09885317297326622	0.16011889315674266	0.05237170919482223	0.08944117762281358	-0.07651276308050126	-0.050617105186544595	-0.03251989482681345	0.0313959984918503	-0.06244467119658198	-0.08562285207831778	0.008698093260306003	0.0294047826300043	0.018974534483285982	-0.02303999098818691	0.09750942719108795	0.0481392106049813	-0.11949661674347459	0.018066543195083648	-0.013519317071358691	-0.005885017352206051	-0.06534679990635985	0.07428425738935865	-0.031010080302314565	0.08605206507921916	0.036875944611901225	-5.1786747701368E-4	-0.04347413577163477	-0.13166264189840574	-0.04099134157366539	-0.03132056749166897	-5.364673853720304E-4	-0.04956261050035119	-0.019907424905677592	-0.02383883803143582	0.08226965315786859	-0.11585606027704949	-0.05756668129109996	-0.08031419685552892	-0.07833881587087521	-0.05229594328570944	-0.06966585347081132	0.030927523230517607	-0.05547849505933107	0.10405593379858608	-0.06630448410151857	-0.0440558297671425	-0.07196738713008612	-0.006251640007183051	0.01948476696446707	0.023754029539450244	-0.0057851017667513984	-0.03296925139135982	-0.059748177375599086	-0.10165663345541091	0.01844217241625708	-0.007037040832112979	0.2445611968220574	-0.01846277024905427	0.08061718022612492	-0.06127090145685473	0.13158597837207048	0.10006078083385651	0.06349190815644251	0.011256318373021098	-0.03584389624569933	0.05767361943864866	-0.04919980680644674	-0.0025005556026749874	
107	3	-0.062048386336948806	0.02178712807589437	-0.05484890420611284	-0.1209059854049251	-0.08015091003174296	0.05580526111021406	-0.11817919094603775	0.024463349863823383	-0.06431266138205859	-0.04965952411444062	0.058488460328053306	-0.06009807550926509	-0.0960054211642631	0.07802728132170954	0.10546753227257807	0.014175404438918656	0.004688177457998412	0.014116452938521847	-0.007512700905958945	-0.13747842629968957	0.040540056919514345	0.05276328100912075	-0.0016268581446360856	-0.014067444889147768	-0.15972287332827137	0.047681774443018805	-0.06170953077378604	0.017886410868868722	0.06626511027744772	0.04656194121762568	-0.08957487770068885	0.05816296372468538	0.028509206242697243	-0.09255729513974713	-0.07408187037857564	-0.025864585666494123	0.019424409755991773	-0.0590651603376449	-0.16870043315799285	-0.03397445229732414	-0.043090421242475446	-0.02984551043354421	0.07352234299035044	0.07141192362802336	0.031607589233627754	0.002751359728888285	0.041930545206153545	-0.03121658964370708	0.11240997249731094	0.0936530315274573	0.09809151042945387	-0.01606943690721899	-0.013512464022199598	-0.09338247982591279	0.13430246314693128	-0.011950582704498617	0.0012014759743052595	0.11733443039935149	0.010329121307939565	0.05885366978808186	-0.005469645939685689	0.025611998582577237	-0.02685248224480075	-0.017859830933446397	0.06609945862221714	0.01811432102740761	0.04582193765428889	-0.10818030273239126	-0.034296609451320806	0.05096508233439791	0.018345918926165664	-0.01768935724715394	0.08273019467451556	0.05015958832796393	-0.11994659445342583	0.18966616296973124	0.033066248036045714	-0.08026359254542768	-0.04212295522996259	0.02065127613095144	-0.08003846965362056	0.21384111960594698	0.012917377965866832	0.02678433007342087	-0.042130035691269684	0.055103450464061496	-0.09898682830815285	-0.05435218621783528	-0.028414603650321654	-0.05666240225799611	0.02133192260129252	-0.06023550588442798	-0.08100204698214576	0.00311250850480896	0.05583443552589694	-0.07533152516913698	-0.11681924531953028	0.009205232361048452	0.1320869650694277	-0.07564154925943295	0.011063070191639471	0.003117366820441906	0.04823638575181121	0.03928323856965031	5.725998954995087E-4	0.045579302860185716	0.10474492649418053	0.08160096290842508	-6.996317686836598E-4	-0.04699704553509369	0.0049078430179580875	0.02230406440246446	-0.029659327010086226	-0.029381965507388724	0.134255113894629	0.021923476094546028	-0.0031535607221352636	-0.05613708603754978	0.04739148188304328	-0.10628695768191386	-0.13747456442805142	-0.02009237357250321	-0.03671198375724192	0.037525169973857075	-0.04852586998503624	-0.02197234507829997	-0.12422670495606805	-0.04396278991627489	-0.04097949676573809	-0.0402114589921381	-0.03909787950692054	0.021853312370274602	-0.09568060445322243	-0.06650411873500078	-0.05521642824507764	-0.11612362347766575	-0.019687296812086225	0.08029571327107962	0.0034334648513918435	-0.117768361492039	0.05601535518301417	0.13132484505344524	-0.051279522165055214	-0.07060115534744615	-0.07201548078609342	0.14506011334079794	-0.09090852271610284	0.07404511413772775	0.03101899175322648	-0.012340226556547486	0.014096374952972519	0.06833433393630968	-0.014534042021213198	-0.1356031651535875	0.08418963079342	0.05941868050498149	-0.11270041555988679	-0.08999964427333747	-0.03968888507970298	0.037222702402709425	0.09554643053272842	-0.014275190401221317	-0.018891334717584668	-0.0038558814339321843	-0.04821592795536456	-0.11382070769558734	-0.07435316165206511	0.013485018872259722	0.07411513207836412	-0.004460217988024076	-0.03754287652898038	0.04420764106875212	0.14997761645900207	-0.05348815208557866	-0.00587850733761165	-0.07181066405296108	0.0772330996008389	0.02127818545770563	0.06327397463025011	-0.012095079199268175	-0.03643470605726046	-0.032322387288076564	-0.027036012494547224	-0.022218933879739645	0.0936677191592952	0.1347190929844987	-0.06121986451576562	-0.044473356127707704	-0.07224797567910764	-0.0503762927089178	-0.03142092796627115	0.058966665370821916	0.02439515105862688	-0.10126921817893954	-0.051274239691623195	-0.009355158527953166	-0.05024999278452183	-0.0848941233388512	0.17442100827170562	0.0403775715791562	
114	4	-0.15285573843510733	0.06117959607634041	0.07216813057993111	-0.03235470112173238	0.03722623126187345	0.003005906646122952	-0.05835124913457563	0.041133328330411605	0.22510864828007898	0.18342326135855058	-0.030218617175104576	-0.050700588503259106	-0.1352245046647401	0.05342061646627594	0.009122215876451288	0.013694882891902729	0.06799865584576016	-0.02207529917349947	-0.11559467696289454	-0.04229849489419104	0.014645774618150292	-0.13669705916599845	0.051564812761791014	-0.006611331383229075	0.06612547715989302	-0.134085079945797	0.05253404478593362	-0.008246042061270496	-0.015850149889879546	-0.08460093972031689	0.03766708284128282	0.12787101934158093	-0.04908302775706811	0.11665971044888616	0.04502952935342328	0.06136314164961463	0.10438355268453361	0.06382181205334587	-0.03842031940760464	0.10712715447114046	-0.0366288209608118	0.04603682255404482	-0.0798075264117891	-0.041339040000044736	0.021017638416688404	0.04322060262022945	0.14083699660917645	-0.014166677341019252	0.11081347770161089	-0.10539946615655664	0.03397583153690818	-0.0731351585449632	-0.03423781898312253	0.15146791583045005	0.03760307920765891	0.09027844508339544	-0.024869259338578698	-0.05196876224060598	0.07893490149231346	-0.07111636239750284	-0.004454985213974952	-0.03242822431757743	-0.1208655898287581	0.03368970566652098	-0.11139391161133409	0.0249946236305454	0.0694006630043246	-0.019983612810591325	0.06386020190032254	-0.05758862438609598	-0.07399146403341375	0.06991192867896358	0.03135766092930146	-0.09942044723197015	0.10169065695114214	0.015962047483065765	-0.09703258665624538	0.03909939012290448	-0.07633223106043115	0.07670354981548896	-0.021445932994257153	-0.019809162632279265	0.13719465617012805	0.040927920116534365	-0.08096760524114624	-0.011766988302487229	-0.01898148927694201	0.052203907990862906	-0.014849694125473888	0.01287346057320921	0.03341148793149082	-0.06572439962138611	0.09647336259259598	0.01043158819790101	0.0878020007112474	0.03190723019511145	-0.04110471560562729	0.006255357119389587	-0.06573557688260351	0.036088127380910016	0.00399187574769483	-0.0702326407914184	-0.10884085994891987	-0.05569018818829532	0.0665174406713654	0.04766978174892276	0.013992610669111175	-0.07392814336172035	0.04321162115241432	0.12984224393802785	0.11255882457017317	-0.06372682998623885	-0.041154714088538054	0.06671890159462127	-0.050676180475299114	0.06755032424947242	-0.06448354427830501	0.06530177924879813	-0.012616090685174502	0.06707635340938499	-0.04082792103896055	0.12050033104988062	0.03173580993547103	0.04676317293319334	0.075894984520909	0.003417554598446264	-0.06464999002121533	0.011992828654047468	0.01765982545683129	0.038513659562788474	0.05741575601280835	-0.012384305092584926	0.03319247865977287	-0.11306239424273563	0.007533483776681308	0.030713960197841023	0.09969533255554046	-0.018285421727539528	0.08882442950359602	0.029236080191925466	0.007831806355075296	-0.012721802514127127	0.00996093228285256	0.012507988219886348	0.07161915939624346	-0.12021663912584207	-0.06192158725740302	-0.11036898791968422	0.07940136557292478	0.00318653823674242	0.024975389883757037	-0.024531896535831706	-0.0022987440022035613	0.00532230439746389	-0.038409333883710144	-0.16330650989049614	-0.003899126388803468	0.07525044173706597	0.057231261499491065	0.018439936750295892	-0.09731505243880781	0.08702188957465289	0.06086166540852133	0.05892478998494071	0.05438879488771164	0.15029265107489234	-0.03437662088838228	0.10314990765155518	-0.0461531786721385	0.02923159961316548	0.12727753953950693	0.053625035359646564	-0.043337746382188534	-0.005079135276375731	-0.04422700700875782	0.009509530813142656	0.015098990339770002	0.05753276222094618	0.04094284061341408	-0.04884550182260974	-0.011866543667874903	-0.06013134792636068	-0.0516558756829804	0.04441201831229453	-0.03340395561982283	-0.013306993281179867	-0.002169741475899674	0.044618357889306126	-0.13036916669494816	0.016095065470855912	-0.0333676847064536	-0.0027811115640365936	-0.13624599645921162	0.03963667304657563	-0.03709469427195164	-0.02195875272881545	0.07165286422970887	0.047865113067688224	-0.17394673900780974	0.09388127522087902	
119	1	0.0886321151952627	-0.05258057104772229	-0.01754681221402841	0.15589685100338654	-0.03682387523799535	0.1362171702493133	0.021097721583952123	-0.025887474690244005	-0.090233544173204	-0.08721970051283248	0.011976087346833203	0.009829865637437969	0.08732363954085261	0.009557868601379865	-0.09545034220476269	-0.09841177089952746	-0.039519407572203666	0.09443689344706288	0.12400778987409052	0.026436497307084826	0.020995450298074085	0.12963588754311842	0.04533229867576321	0.01306914161617895	-0.1550864790293661	0.06059490040796521	0.09092891031426921	0.03871206622949708	-0.051562061318810526	0.030118776856509582	-0.10493757298545316	-0.10226061593796319	0.02223280558313996	-0.13519713536399983	-0.05899410471838883	-0.1532926862622529	-0.03605507598354456	-0.08249516945173628	0.08774152894587639	-0.08391353796344488	0.036382384093733414	-0.050099122134904	0.10961067480579782	0.11626997485218471	-0.08829634760472509	-0.022340192339766907	-0.06953912776236779	0.029989771612726094	-0.11615067709281882	0.011576463718476426	-0.07056876439703216	0.04276717894500375	-0.0756711699098336	-0.03542626315755912	-0.06990689780154688	-0.011184023308059298	-0.027175707664682552	-0.08405173060059173	-0.06565447325938731	-0.016993772292514413	-0.04115275573012446	0.09468114148891224	0.053683522803809336	-0.021555546695062287	0.04269308160669237	0.043815153974207065	-0.07595142168512665	-0.06436672182884762	-0.016505124706523842	0.03911398932890202	-0.03346343297843528	-0.07353960446458674	-0.09625770071554549	0.11444066812675471	-0.08838619503169509	-0.06402885455472938	0.012633564714682537	-0.11158205684208762	0.10163633747073868	-0.030549397087325163	0.0925964012456501	-0.03944362707111125	-0.07102439194394057	-0.006916004255543745	0.020285123834355427	-0.004185069378428469	-0.0027894051317517597	0.006227606478023066	0.14404313105523536	-0.06376272169952811	-0.11385490331807836	0.049697509447211304	-0.12778525441175503	0.19166004153884744	0.01697342011781573	0.07090217873496885	0.009423980085410458	-0.032981612670123076	-0.01200183514403912	-0.026691256734754414	0.02555395696782856	0.05861517008997559	0.11625653935895673	-0.05765751433496204	0.004424556637002038	-0.01741330848918888	-0.02294292741526557	-0.0035978545354847036	0.04067008289459489	-0.11995462589729874	0.0361642222694727	-0.03406908383767521	0.11756988044275914	0.013228362313863942	-0.0345674981737095	-0.027109678663509683	0.07939852034237915	-0.07171230689583973	0.04542385360793327	0.07605122540812885	0.0605299164714295	-0.1872422178646574	-0.02416977455300552	-0.005967615593771708	-0.014670716963882422	-0.02269730726980438	0.03186517784218318	0.025645050944602805	0.12397328787901028	-0.021767267316425375	-0.013315126829687558	0.07648243088539187	-0.06963470314192889	0.021522180249438135	0.049174868640614273	-0.06935294904897084	-0.05109522306785273	-0.011365144708248695	-0.06777445620168678	0.04347050837255179	-0.0056442874703917945	-0.01247581185807883	0.11892412530612047	0.011566019127316887	-0.06267256795065367	0.020623521288986313	0.04984997861531354	0.12019158256740979	0.016504823608676836	0.11402683603022414	-0.0421902233148559	-0.08189655620693065	-0.07690436688332454	-0.008162326678166758	0.0366579893935692	0.06109612343897313	0.058159875527801504	-0.022101295608250405	0.08019049414713328	0.04978704136985587	0.01686714033505258	-0.022306243203378807	0.016945401078821386	-0.11408314390710673	0.006331001190555993	-0.14005189889291617	-0.03601674789056595	-0.03240371855030961	0.013619801225351941	-0.02227259631347302	-0.11008219860621851	-0.0036455712195834233	-0.050064152804220136	-7.419374431926834E-4	0.13689407309434934	-0.11633444798011627	-0.0025706349393197253	-0.13393457948809886	0.0033839330807856915	0.0331846275907712	0.020086632575711853	-0.04041634427270852	0.12781259539468948	-0.07847718962466245	0.0799988696944722	-0.06978153186207688	0.09463950910585985	-8.686436741219284E-4	-0.015744976895154434	-0.015569684885234449	-0.05834750860756746	0.08314321792622238	-0.019244626424558774	0.004452326921816758	0.0623387581415387	-0.08310866537813869	-0.030199996066645765	-0.04509473016360634	0.08834987221647327	-0.05366614045051248	
135	1	0.08700386829841325	-0.05670445052262792	-0.029660291373356396	0.14538101191799604	-0.029274515806699382	0.12198331411897516	0.021864266750370155	-0.026279589088608897	-0.045162191165229536	-0.09219296330521717	-0.012201152513928745	-8.985429563741669E-4	0.07477247405243595	0.018329363500332194	-0.08943733767260044	-0.10229057357721244	-0.04051323061100594	0.07082480448155759	0.10339272543303424	-6.984334464929145E-4	0.021386081672481152	0.13640827973367073	0.05046518298179655	0.007610184638873509	-0.1826870646801999	0.030064104701121145	0.11187435429007629	0.051911878653299576	-0.053311844252936016	0.024862702759257588	-0.10997430002719825	-0.1090057318376912	0.032305125093123034	-0.1535116379814259	-0.053478885244867186	-0.13982886388149926	-0.006358567194310149	-0.0788129984710495	0.06999965440653254	-0.04290600396220801	0.008903448578887408	-0.03210574262279603	0.10664966692122628	0.11258800541710719	-0.08585646132804277	-0.041398201442587386	-0.041788333931561276	0.015166446441913513	-0.07207329028942784	-0.0026441741492522755	-0.054063156889535446	0.04734178481319258	-0.08912711239595353	-0.021880766353368726	-0.03725228495171434	-0.014554841368875988	-0.022562820694897442	-0.08528711473031679	-0.0837924575706453	-0.03230478819234502	-0.05197919410106289	0.07255848112603162	0.05002258595958567	-0.02653754322415852	0.03518794142944214	0.050152586642414364	-0.06576365905577568	-0.09491085709191967	0.007129143765795067	0.061793269560565786	-0.02923012311823385	-0.06390183562049709	-0.09126039970111137	0.11851448886420132	-0.0571304841619562	-0.06042584989394349	-0.007196929709922339	-0.12017756701540389	0.09585182546279399	-0.01430841412118386	0.08848457939631149	-0.04923422595588793	-0.05258805273308605	1.7119811955782863E-4	0.006871428280618567	-0.0049833194224893984	-0.018689724332494214	0.002708392362597272	0.17107432543015946	-0.08736316869861478	-0.12782509817297555	0.060491128340916474	-0.13589628032031464	0.16177288369568626	0.03588159546210272	0.07503051770787136	-0.01950638004079262	-0.025968227974793513	0.0016175831221638098	-0.03854034690798091	0.013613243649144405	0.05662378298934169	0.12824404109692558	-0.08150236814040394	-3.627683689722031E-4	-0.02421277185790242	-0.011481956087565736	0.017906454780106447	0.045757585197724125	-0.10942928999798503	0.04799567416254302	-0.04379588898812872	0.10321895788003016	-8.609023698931302E-4	-0.03359267534299807	-0.010102415286323425	0.10315981524875864	-0.08057886300504509	0.04596971842450373	0.054620356057836106	0.06550429423679029	-0.16968542828184163	-0.03189037329949309	0.008113402317686735	-0.009101473656697426	-0.029564894064494633	0.022505094319564115	0.018676762974671444	0.15258671585409347	-0.014206862083361775	-0.006292800158468886	0.063501912138422	-0.07441598914761609	-4.4879633639468257E-4	0.04477045576229952	-0.05486484574252719	-0.05226373309395705	-0.009827562057082528	-0.054325176739292075	0.032806733830988685	-0.008767784923133263	-0.005875244377322815	0.12288253437453417	0.005573770822392903	-0.0641631014280988	0.004968061598184305	0.028670690714331808	0.1300049257347126	0.01086863958178426	0.12704998894271607	-0.026796425561631546	-0.07994049005796242	-0.11469380218871927	-0.025051131498799964	0.017241271304635087	0.036824568230856294	0.03997929045826324	-0.019008224856776616	0.08620194772156048	0.056097115774456446	0.007569928588624292	2.154516669065346E-4	0.030768005045339202	-0.1272344207319233	0.016183608654903082	-0.1458520854341837	-0.03997431711783458	-0.035801027227120814	-0.005096410879598498	-0.02491283609677301	-0.10244870060260645	-0.0036683062649243065	-0.054202389938104785	-0.015919069921658573	0.12804315024358676	-0.10151828866202223	0.012042149621789408	-0.14211422690073186	0.021615520565011002	0.004024366469887083	0.005381900938701461	-0.05918762544362748	0.14958745216885386	-0.09415981643711768	0.08102684326044042	-0.07599935296320409	0.10585042331027385	0.024401456492730345	-0.00766843095085114	-0.042141721673081195	-0.061101696372069275	0.11334824920710151	-0.03576534692282	0.021630374796619396	0.06519534100406885	-0.07201719069994134	-0.03683770341763969	-0.059853934690791075	0.07169917515642801	-0.02684243797615564	
137	3	-0.01536707451035619	0.03218894579787121	-0.028008167092063743	-0.16250454706005302	-0.053264947262249625	-0.06921678435010008	-0.08164383831448865	0.008000587561731994	-0.06529830852940635	-0.11216455831611562	0.06288631806714454	-0.005119629136793079	-0.08071660888368125	0.02668789050555998	0.10075835699223074	0.05786431150375935	-0.046616984995390416	-0.034427476856679406	-0.03098436854102552	-0.09832671886800354	-0.0435633120668991	0.048880151563914294	-0.0725519745067195	0.042573342403829914	-0.12430560137020047	0.02239907280681794	-0.10866712073447639	0.0429524891879155	0.046843218265862845	0.06838473738384554	-0.04703383016251853	0.004094209562501582	0.06394045228319344	-0.08418433945684264	-0.0020589626618016015	0.02819288025491006	-0.0015431400234636953	-0.07461884638576882	-0.06724332126213155	7.269461117751626E-4	-0.11055035327322692	-0.07990069535057517	0.08290668298092017	-0.004401017501978933	0.031154592167816325	-0.03365139918564703	-0.06632279014524892	-0.0048541017438282295	0.09554619631373124	0.13476491770826068	0.04962295059424792	0.006712313176541957	0.002824646590276186	-0.13175348835205622	0.1543898642616273	-0.06472256433415445	0.05789711507001594	0.16991969399405746	-0.020780690219958157	0.034496597415454314	-0.02125705497321782	-0.053823184516365655	0.08635561208272342	-0.06831818131808198	0.09106133603510701	-1.8087768057450655E-4	-0.010648666222800621	-0.07352703970003295	-0.01644303231960309	0.06881342566396136	0.04437243598184863	-0.02376364225510621	0.0714380230810375	0.0709811413472863	-0.07049237773880916	0.10591873665727612	0.10202391765110734	-0.09356187670487354	-0.08222759118477466	-0.01057063417656083	-0.07538912280041579	0.10896446906667125	0.022250107900966765	-0.04900852382121102	-0.05325423212002602	0.017707038237012033	-0.08401984168116265	-0.09057200250988626	-0.059405942839830334	0.0014690956623109712	0.02957386599238355	-0.024773585758605512	-0.060811151732049734	-0.10122496098550776	0.015516408667094186	-0.08636892259512247	-0.09572406100953716	-0.02334382833406156	0.12677448858082394	-0.11930455727486525	0.05438467248405414	0.07387559379784715	0.08693242735766377	0.0831081481286238	0.02678763246019839	-0.021141547529366832	0.035890867820197375	0.13191548657919466	-0.07142931347792525	-0.0786643081767166	-0.06989020164210483	0.10832675278632865	-0.014471785056179505	-0.07522167811171733	0.12075810415894642	-0.04917164620492597	-0.007062284386250963	-6.646988776279021E-4	0.05535121547768169	-0.15043678479827557	-0.09025898688502268	-0.012804514202516038	-0.0698850158657856	-0.07997219479315272	-0.0111568145438289	0.04342206517639494	-0.02468418836759635	-0.04586762746789353	-0.07179890196349373	-0.022876908049771046	-0.011048362848322649	-0.02819585823606599	-0.011535511154271616	0.03977562375661165	-0.02154699837684155	-0.04979294966137729	-0.06633676408302253	0.060093102691619105	0.010578605871992412	-0.11233683113917889	0.033566387698298304	0.09351344483711653	-0.08484250323030999	-0.06908541937148566	-0.0602711906855791	0.10096552391577687	-0.05436085057699642	0.09514794801158062	-0.05392865531832845	-0.010113418793789639	0.007986662511603581	0.06913241075476022	-0.06778971948438824	-0.11075237866873437	0.08555513638017985	0.12932631706134193	-0.11169339908689759	-0.09817246114240252	-0.1048254682597491	-0.09001399097859156	0.05735130695046617	-0.017686823835464757	-0.027176494375688337	-0.029696246916526507	-0.051866957607799816	-0.13907849354435278	-0.0363312648086616	-0.040998262025561054	0.028438581555198492	-0.08215163905077016	-0.06969983396723739	0.004174316003315473	0.12092954441050367	-0.04092620927293905	-0.0638164914370889	-0.003695285452778156	0.054113544558923844	0.015178484552662318	-0.009100506777829115	-0.040180363116567475	-0.05453519822370826	-0.03854071955944147	-0.09421051219709849	-0.038880209307910904	0.04152975740510192	0.07920085653505912	-0.0749499302230085	-0.07663180367368988	0.08805852095457732	-0.06593445619081387	0.008809713500462706	0.022508191523192552	0.14155057249156863	-4.690486143549553E-4	-0.02288065735392375	-0.015707163984676028	-0.08298410840221832	-0.042502320883073895	0.1813798558353775	0.05610533193625436	
141	5	0.06837550822657205	0.023282898036651845	-0.05284955518868976	0.13441097333453664	0.1268778070688729	9.573480113429285E-4	-0.04016276552740613	0.02045478804775158	0.03436971910572278	-0.05102861301827801	-0.01927188932891587	0.01437191459855347	0.10295671705650873	0.030524095975034794	-0.035280686230992016	-0.056125540385389514	-0.09757239181173581	0.004346013814306385	-0.19429047006190547	-0.0677580387065896	0.0178605667752621	0.15759898428467883	-0.0026526680506496767	0.010774950712941413	0.0021226062340227356	0.04091690617854881	0.07053870354507008	-0.02111640087888524	0.005846314771853664	-0.026067369111318506	-0.06328367555353648	0.02053897871112257	0.03777888147469387	-0.027559301743997924	-0.10980225868377114	0.06684955513831804	0.020296447546049763	0.048632785524549436	0.04585583832206557	0.03222778395133496	-0.03180089737603392	0.06633975584703897	0.028468265351864707	-0.0011103778239764618	-0.04194582687779835	-0.12958871884005008	0.14094976277078353	0.016099698328976265	0.11933633532698529	-0.038202702715962725	0.0637031312403949	0.1835354637500774	0.04254234824888919	0.03918144071968539	-0.00410512895218174	-0.007789463851822505	-0.11274191470308902	-0.06541052849001223	-0.005673420645805524	-0.012458292588515846	0.033252512863413075	0.02296998834406527	-0.009798790599834808	-0.010077285776996152	0.10917456861575937	0.13038983896126913	0.1015722771753122	-0.03607718276664823	-0.036141539029905335	0.056491117628695395	0.13350793987778098	0.012579475632122456	0.01683400128178355	-0.024457634048526616	0.018230370578771592	0.13143998989486158	-0.11291183552405015	-3.796347612698781E-4	0.02339716701018742	-0.03691385827761963	0.02974359083993826	-0.030504292836114933	0.11699633921222828	0.006022625603355791	0.06431156517289302	0.014355635907261967	0.0752945875893364	0.08899101319747857	-0.02501648622260667	-0.06175425540025965	-0.015601355732878335	0.07153751720550662	0.00377719520717908	0.005997040758700478	0.0324791281270365	0.06961707302906914	-0.045704641195159906	0.055215355332426545	0.09228803118987966	0.036820318804690264	-0.04558025521475907	-0.09077847037439192	-0.03194418896881204	-0.00628633411765583	-0.10997455507192327	0.007041100533695081	-0.02417593604019837	0.02648708916012517	0.03874756965854392	0.08135962797816412	-0.029058509500598656	-0.12445712027881634	-0.04713763468412427	-0.12963687430710524	0.07753087924659702	0.09468916300283102	0.03158687583983521	0.0025917558587273326	0.015309841613481165	0.025927136623181204	0.002794367049572037	0.10371443710556912	0.037852907567621774	0.16113527082194806	-0.09844241335373488	-0.16246208566159775	-0.004403607394764734	0.0687641951771315	0.13012319987845036	-0.09203980562140629	0.01816194497969846	0.06368515343403704	-0.02146942263572308	-0.0357376569344057	0.004172271920873818	-0.06757524802023239	-0.011715811342071602	-0.014883512171964486	-0.009510361970058712	-0.07641566073832604	-0.06037189558869585	0.015575684600314001	0.07852956100350221	0.006870829487515533	0.029274460146859076	0.186466219970938	0.0017444670871623032	0.07420549821209532	0.021807620828290117	0.037996124429849974	0.02885753559058583	0.07862272600123955	-0.08683170339051435	-0.030443372219449073	-0.01947941933076076	-0.0524295945891286	-0.07875824799107871	-0.024663300151269586	0.08184858998379911	0.0134649843236414	-0.007402021638477609	-0.018049194870898098	0.10144212019377633	6.653954696020856E-4	-0.09484755519965442	0.049432266284762896	0.0018651001646968397	-0.08604511856332951	0.011182291407724492	-0.009257279228167943	-0.07640843996907785	0.13287920803479417	0.050926836119246074	-0.020555576226648622	-0.12695444274195827	0.06027850579253065	-0.03150745195057043	-0.004494472484796229	0.17121454166633635	-0.008998029659742125	0.08049876738825118	-0.036088510816581584	0.056906272875640374	-0.02972890052184354	0.07721157638324178	0.035747082736047785	-0.016818588081397707	0.06217887881045909	0.06660438169014049	-0.07978939015473821	0.0874008833624986	-0.05353302348412866	-0.061577208666763444	-0.11361536912882331	-0.012631460637461895	0.004359328813751519	0.003988922115628549	0.02269987286278049	-0.2125369685098135	0.18623149531707053	
146	0	0.06810660797813027	-0.004226114089040297	0.050130287241566214	-0.01975745835909882	0.03544329328806513	-0.15295875597026318	0.08200876921048285	-0.03172109636045819	0.038076187083878145	-0.06348755167820484	-0.021822896993415584	0.07345906717982732	0.026808061357136526	-0.07744444473451256	-0.041679942407614315	0.039260432194311294	-0.053486940741898616	-0.06297814713194032	0.004153182786347384	0.07988889592100251	-0.11279998087393057	-0.023558989709988872	-0.07166953102651491	0.07165272240913828	0.0435148952023029	-0.06745446403177868	-0.018907443487163455	0.04416606377512732	-0.05433926392918309	0.014786388076213937	0.0652907726944713	-0.09935433448437708	0.03754149518299698	0.010428380888289585	0.1211419496679477	0.048071032125101235	-0.015003497060953675	-0.01990106846680458	0.16632163405110886	0.06447471948669292	-0.08112485083957423	-0.05969975587190557	0.0016127892226426863	-0.09580550352357269	-0.01595564348616017	-0.03918301076497335	-0.15248909968972885	0.03401229528796355	-0.054844718209927076	0.018520726567345096	-0.09603699135310656	0.010064692030774583	-0.00777636179133622	-0.016545600275625665	2.7885018537843946E-4	-0.059048889430710454	0.08301831112624608	0.02411205459866357	-0.058453383695561356	-0.06219998207607737	-0.03778388569962747	-0.10723411922941425	0.14862235475875807	-0.061512529632477504	-0.007216302694170623	-0.03280876549938261	-0.10070618371759987	0.04453205830213805	0.05293116900016821	0.017471478838242877	-0.0017934646093175942	-0.007672399407961667	-0.05126830640064587	0.03388811549322515	0.09965448436914069	-0.18186185315651	0.0773905801451977	-0.019301320588260278	-0.032594346923482245	-0.02878511423086568	0.03583304451101044	-0.19644288266289137	-9.269435186333732E-4	-0.0962079805958131	-0.023184864724894984	-0.06544784687883923	0.021052921078584756	-0.04119081401867541	0.01539660052672412	0.07100759808357524	-0.020812060345738553	0.060002597049017704	0.02353406965907501	-0.11278301865378376	-0.04846794776317586	0.013969412376053305	0.044226030042214495	-0.05280818477173812	-0.05385285706676301	-0.050220433612380065	0.05556539220990516	0.10592974121643321	0.06158586596366307	0.015689761235559357	0.05266056506454643	-0.09977637266534149	-0.10552287356533155	0.04491445655924627	-0.07978738531032159	-0.0465681115017185	-0.0678891396205438	0.10316266662662765	0.04428725864608024	-0.03106156611803942	-0.07347803936973872	-0.09860706183629583	0.016107113539199046	0.06914589385096528	0.0035748351846189197	-0.02508693743730933	0.10599300916217538	-0.01699729369438071	-0.04447271815631507	-0.16977521918981958	0.08071759202274557	0.10353472462055802	0.15226597985697665	-3.385383524716771E-6	-0.00484958351476606	0.04929065336764959	0.04880640666723216	-0.07210179833822981	0.11945333490916181	0.1373142179715519	0.06264209330832513	0.12094463740743204	-0.05421685380732113	-0.04601002188773591	0.011565708701715962	0.05306848816374464	-0.03577491973206964	-0.08273361958483885	-0.014474758821588364	0.017982609516254664	0.021168739196686888	-0.13589336056558848	0.060938889894293996	0.016926949408742217	-0.11190883631998468	0.030415604836039806	-0.012213477849923913	-0.0447108046065927	-0.08806796555945068	0.05944560762883452	-0.02503184438013469	0.06408105415484407	0.04192347177550219	0.020071142492227138	-0.05981423993993553	-0.15587152400295773	-0.08122694615328882	0.01883356075687694	-0.004524340704750471	-0.05682829993943045	0.03352946493173621	-0.028166265540246576	0.054242133940725676	-0.058827515868710024	-0.09031466185041198	-0.09801232052660441	-0.025382410563704588	-0.07811742799387429	-0.09808256819032776	0.022690967528061337	-0.034921435166654795	0.08199036559426594	-0.03441824758420981	-0.03905878857714878	-0.11746389606437711	-0.04594087779081683	-0.0314922978113464	-0.017839332237765605	-0.051398984145071484	-0.03186061391842581	-0.08778376103141075	-0.12746750844182222	0.026243276974417768	-0.01895130908832085	0.20101251927014654	-0.01229858992659129	0.029867830666719865	-0.017940557686387252	0.12477473624448146	0.18296164874151027	0.06128809960075687	-0.01689410619286734	-0.032773419391516664	0.057321566949767644	-0.011264909712469106	-0.005394873040540251	
158	1	-0.020269590227055777	-0.030563752675856946	0.01289836386470684	0.09356392134482694	-0.05112840419260004	0.14557446203415797	-0.016496060604564457	-0.006182890894085237	0.07349941951642404	0.013798974220331491	-0.023208329484237702	-0.045536969046454386	-0.0367028152325664	0.05734608769536944	-0.07055562518502202	-0.09172644370802736	0.021295329600006314	0.06400944604592294	0.09007921804597195	-0.03214703878469881	0.03603538577147814	0.03968984955969488	0.08996363781123562	-0.0026971833769818153	-0.1892260455199124	-0.05370662853535083	0.1347366481058344	0.06112435319765267	-0.0609704988027845	-0.011789000290632899	-0.097561804306012	-0.041970329974131075	0.0015207333967987417	-0.10904636787827265	-0.016793210738507033	-0.13773011126458878	0.05744277212767486	-0.06766956133938842	0.016058065491089242	0.008872203589426659	-0.011415031231969634	-0.02368025663057452	0.07240790515188933	0.11147265402307159	-0.06798624519878092	0.00986932947600122	0.015948727462203	-0.002674653287879731	-0.021719133688214865	-0.04768321817328863	-0.03861448544153459	-0.03755347666790956	-0.13350278248392372	0.047327270511821874	0.003311700871848982	0.03885600796787883	-0.013273276823388882	-0.09629655507067356	-0.04517558577637528	-0.0688127854534981	-0.07005075616070487	0.05804995248537343	-0.021485011397268577	-0.008300970013767986	-0.04708789957493886	0.04237997283998132	-0.04718537985025874	-0.12758644198616254	0.05314690967716702	0.029941483577420363	-0.10640951290196034	-0.032976395340605175	-0.07494299140785424	0.08461250180846273	-0.01954481589049688	-0.06204190962482468	-0.03905935000691715	-0.12076031198765999	0.05046369622925019	0.04463098101722761	0.0670968427587976	-0.029692856791424603	-0.0014990655991824603	0.029980269256519435	-0.06285303127627914	-0.00785513751199742	-0.06568404119797348	0.006003723764101206	0.18823851126394567	-0.08685415973561285	-0.11764982853947169	0.0036011364790875175	-0.10648346061523453	0.1829220588057853	0.09495737383315715	0.07642595472065447	-0.05466698336973152	-0.03506056165342953	-0.04052509208524656	-0.04017655997030437	0.026513246323039644	0.04091516746935629	0.09201785424113235	-0.12177606845159877	0.06402912378962784	0.006622944535037877	0.018845996146430566	-0.01836506299442685	0.06985106249099811	-0.06738464781982881	0.13162590754977582	-0.05743533460686523	0.0948542186614223	0.06565414376140763	-0.06838282708241529	0.013513359535377266	0.0718277525897617	-0.06162112700889971	0.04545464816237266	0.07845602236990866	0.029549277812993453	-0.1418515374148481	-0.03043547172359691	0.008338361029373824	0.05214645072845733	0.0027679746460865873	-0.03274339059575941	0.004443629962945385	0.14790600100816906	0.024921358445803652	0.017686476703637592	0.04986019401166926	-0.073202760802818	-0.07400704173762558	0.04410817948645588	-0.04076384564427003	0.0028001068891893464	-0.006997101011431195	-0.0030575126438917616	0.0554412223855812	0.016949938966580876	0.0010924210826550418	0.11802107913534171	0.001995960308800013	-0.045529330707744904	-0.09351026545384063	-0.021274394745141256	0.07073322958394901	0.05950590271192711	0.1335771148840373	-0.01753718484112393	-0.11315845917605447	-0.11299140544642843	-0.03775958665477018	0.008650348609229759	-0.041603011352735364	0.044007711127789506	0.018800089866207702	0.10738696519885645	0.07975255694945013	-0.03534158399631453	0.057836015441796375	0.04532396260259305	-0.1077566918681224	0.06867992320849077	-0.09902858991748488	-0.07625117969347373	0.045255355324738906	-0.027603724443951382	-0.006329178528125876	-0.022037129297314044	0.0021874362678835197	-0.07867701063764805	-0.025153181971254105	0.1462863483422766	-0.1304207442960464	0.042694828372371256	-0.12055077924227948	0.01972545305471283	-0.02731833149821982	-0.026906746916225428	-0.09894021209055687	0.12347377771686119	-0.07539288125978486	0.06488967768436799	-0.08268995698231593	0.1144055655828642	0.03767610286213135	-0.11498728662122569	-0.027691447352701837	-0.114316339039035	0.15017795614726281	-0.10854734807680612	0.06140683917432874	0.0463047429954353	-0.09287148006832993	-0.005667512124061453	-0.05795184689068243	0.04749758720329858	-0.010882546422869226	
164	4	-0.05157522419133067	0.01203576007963488	-0.035119853567536226	-0.1185661446049125	0.04647703650642769	-0.1220064889595272	-0.008056411757443545	0.011883261279328771	0.21074952334199476	0.026773260161337693	-0.09430142781828148	-0.04417469393922245	-0.09072376830191853	0.027055230656694004	0.07103676566153147	0.03651916361666319	0.016707825775991603	-0.1347097724136518	-0.13898162091697827	-0.11253067291569295	-0.00938728498065976	-0.04203255346222351	-0.0046312866364821535	-0.026630878999943732	-0.02078807740271977	-0.1425032506400206	0.029544610546278896	0.02819052938377777	0.020153199624102117	-0.03466014777230885	0.03567100536837051	0.028031554364791628	0.025272729066908518	0.002804702085693928	0.05046694563372879	0.12798358226223458	0.12682506813070793	0.05590883485972864	-0.10984536338259825	0.19268184296146842	-0.1189094460863754	0.0913739725149213	-0.06721424856900782	-0.07328897422828759	0.05435942493575665	-0.05796662212866211	0.13695912920616146	-0.06947278590803757	0.22045893497086924	-0.057793433493028054	0.09647387124413535	-0.005337318606137941	-0.010114738587810805	0.06761829832719883	0.1550250572375202	-0.0065444945788832075	0.030817194563126996	0.03873331706238776	-0.03232971785814198	-0.047070884657448187	-0.018289047166660195	-0.129385862596838	-0.0409761383693223	-0.007067261999743097	-0.04933386946597442	5.462699788232757E-4	0.07622787873854019	-0.07820950549239467	0.0946584946730946	0.06255494645222591	0.03264876103815108	0.0729787503095859	0.06777225534892323	-0.04405621406926818	0.15944508028494614	0.046085896208068175	-0.07879486339366987	0.0261155956978944	-0.07339027457406233	0.0749663268785275	-0.06265884529069814	-0.01538629399578849	0.1037671843366942	0.029392518433779862	-0.05932739187486202	-7.414958706152406E-4	-0.056523150339481576	-0.016039509717472086	0.024433542433502053	-0.053222588987076755	0.007670926873531207	0.013765840225900801	0.03620917143995872	-0.20759048640619376	0.06021688361485558	-0.02145430058870401	-0.11032023598005303	0.04253242614415051	0.05584036297599534	-0.02943131040157075	-0.056659705700310745	-0.03743592914254554	-0.01615130705935584	-0.057264264161140443	-0.019740943364518333	-0.015835385553418978	0.05356972210888438	0.08025607914182024	-0.0023993648875667586	0.10011033191334714	0.02452280294696608	-0.017939803895348758	-0.11284616212968605	-0.05818337537495652	0.021343215111975046	0.07597308869268421	0.045761261206853365	0.004598070539094125	-0.021378073563451432	-0.11727292967668329	-0.013040098352067585	0.16039049906167002	-0.015709896757568235	0.0544136458614904	0.027843162031981523	-0.01337526168196273	-0.05051295237276237	-0.038608730900963596	0.040502560291970205	0.03877147584832219	0.03246808742494413	-0.08667087246828094	0.018404747615738428	-0.0911659682774874	-0.04135453062285865	0.08852494945490957	0.02205558987185648	0.011475105173033958	0.08391963216950504	-0.06123549467478757	-0.008474237933066923	0.030480060956025522	-0.04679187983789451	-0.02779448489397418	0.026826238760274127	-0.06767042415135799	-0.10288882869147334	-0.02609147335634489	-0.029035926068240615	-0.011231845390562118	0.0778487849886204	0.04929077684811162	-0.09818814303943528	-0.05734997302497393	-0.08964581841655177	-0.11994115912181716	-0.09620091514465912	0.022647170495581286	-0.019355331514692802	-0.002642609212867558	-0.04257794957559757	0.09358795362309186	0.041665126401273685	0.010764677663426942	0.03266658901418929	0.050944427757274084	0.0041219289837694986	0.004300449975420085	-0.07523483639090288	0.0018316462594044	0.08449321618230488	0.001785388665598344	0.010686592498912175	-0.05494807111761929	-0.10270471526465663	0.1138946423018211	0.05459726638725004	0.03913576691881858	0.0647322971563333	-0.12336821904698042	-0.06394246047635942	-0.04762377683693028	0.01358246034655551	-0.016766670742795944	-0.037436064142171224	0.013243970144994973	-0.007841194220738297	0.0925680216916223	0.0375447137523457	-0.08882111623675605	0.01998511969478643	0.06732091156318414	-0.0503125709170627	0.060337620537209355	-0.021675555668445614	0.08318754349767747	-0.008652296829260074	-0.030592917522749567	-0.10616524961251077	0.12542345258992685	
167	2	-0.06116189659923081	0.0071003207681493135	0.04752546144522461	0.1546260743058501	0.03175788248457554	0.0637404829180579	-0.0078544088694998	0.026805421295767254	0.0077366810736423	0.09228231763905796	0.0074146304023887215	0.017503172336405914	-0.0038982615815175846	-0.03261311652739841	-0.08981090449706783	0.009457241052096268	0.05763663867465592	0.04599905991104772	0.04539222636243729	0.12550375028849917	0.009867996602984588	-0.08330621043332312	0.05926497863704658	-0.0015402952717716366	0.1522303373060573	0.014632011401167514	0.06279656162473243	-0.08388614446673474	-0.025102839133971	-0.07484207759928896	0.0707864192567953	0.018069068769889746	-0.11439943652919897	0.12075290694805862	0.05438419821353529	-0.03469501724688217	-0.03470091031772431	0.09816133691922198	0.08414234004766774	-0.05308299749447943	0.09217489482505997	0.018845841066019067	-0.0628720222112853	4.3469464949126926E-4	-0.020422336792202712	0.10175210745152695	-0.011648715193276853	0.047376735962442545	-0.18663671048783667	-0.06115003522400739	-0.06310667898796679	-0.06633784035958755	1.0721924766748634E-4	0.08398950364635584	-0.17397690294725845	0.032231620057092666	-0.01915080938231848	-0.1511095782352214	0.05624370517545534	-0.04202379862237727	0.08778286201354639	0.07305373087405027	-0.054309223522478724	0.036224084194526364	-0.07142236828668512	0.006895963586497975	-0.019014718503937267	0.16294505822103328	-0.004005956356211147	-0.10520621506462376	-0.08278424429549205	0.0070174433570956134	-0.075809955853928	-0.031931161593942665	0.002518918743673949	-0.0783861402071023	0.019388897329389216	0.10297798114039433	0.07283655426057481	0.005655135270449007	0.049461613114322886	-0.03732232796324758	-0.03269506024043752	0.020007966400605624	0.0657793006108926	-0.04319736369611135	0.045749566275913305	0.0817254543889058	-0.017219019116038924	0.056002824895453406	0.014732967133098466	-0.05289468519153076	0.10267496055298539	0.15509513802802377	-0.04620589221009905	0.03431593128095632	0.1330376495566847	-0.025946499770561033	-0.13939583314577303	0.10998412176544749	-0.007469301284856237	-0.05467772844982508	-0.13851997461577073	-0.014153521636065293	0.06528913398039593	0.02216868876773435	-0.05906170750059151	-0.12092658951674423	0.0460195223171291	0.01978510669721224	0.014054733533712688	-0.04806575626766941	0.016847088931433277	0.09879374821317567	-0.1497946871429511	-0.03353564828825702	-0.07244490984143374	0.02308254834295517	-0.0017887793464312978	0.16274905402654627	0.07215044114390619	-0.023339129778531014	0.05927635628202003	-0.014089432365209426	0.05657870011011673	0.01129024177600352	0.03669403950820046	0.017289678452276393	-0.027889554932709084	0.027640211804182694	0.020508808908281734	0.009996619442981806	0.003381360719967596	0.03017925347342927	0.017682313270901272	0.03092707725869093	0.08294322134090255	-0.04739922439345365	-0.01480415075462063	0.14252478098574636	-0.008260993340541197	-0.0875691357681254	0.028744705395835794	0.04380252043728186	0.04676835885390785	-0.10793057706338464	0.07568680986939495	-0.10038591839743011	0.03445399705709867	-0.03774958965687118	-0.038009964150936694	-0.03686699999462293	0.10321626250446556	0.17664261501409564	-0.021681488029768207	-0.0680385409140606	0.13033442193403347	0.0619390970980249	0.04680382507763262	0.009024960182218841	-0.07064136281273883	0.042498453134783204	-0.02545949398441337	0.029547419899309087	0.061321273585932576	0.14498809128031376	0.030108619806005394	0.07447320735226687	0.004414708947069805	0.0681886902599124	0.07967720906281807	-0.03612652421075143	-0.10631072593041592	0.050476284377813006	0.07028488553284222	-0.01712715978369176	-0.09069101165305406	0.0073359532739655006	-0.07333940106563275	0.07248229971979603	0.041878523162272786	0.0515433687987273	-0.020900158059433863	0.07505201085432885	-0.06671994250105778	-0.04593392097690599	0.02897052970941557	0.00531853976657754	-0.03853261030423573	0.1399378521213402	-0.017602079111869985	-0.051745267351367766	-0.0838962670301907	-0.04263569338396349	0.029541741572141917	-0.035848720757788624	0.09738570001523766	0.09709405136735218	-0.11245043875555172	-0.0930201389452162	
173	2	-0.09590408150018995	0.08627203040066812	0.13963524408954622	0.06643828614741042	0.0025429014954400997	0.0816583084385228	-0.08084724761198234	0.03589254282919766	-0.032732151953308676	0.12347804929713291	0.11970372445658002	0.029406139783888882	-0.04667960479763655	0.014836644240540093	-0.05777404563370635	0.0060851265069925015	0.0056553037372301905	0.12513318031638707	-0.014301144565946328	0.08463756169190374	-0.024237040683792274	-0.08172940941889253	0.005852955279840388	0.07503250502337545	0.110205611031403	0.0369274570700316	-0.0351981460135386	-0.03426163902280223	-0.03680390299191175	-0.03048449666534515	0.0012298436376386014	0.11033231986371549	-0.055853923514747106	0.13076196681910754	0.004405672761393014	-0.0437153279531379	-0.05925696814751187	-0.0156977436008379	0.14193978104200167	-0.11627121135585643	0.048206576636256084	-0.11088410201383746	0.02353870479020134	0.002224734611636555	-0.04101975461170531	0.08897876246684358	-0.0671885441302493	0.09638654078941912	-0.12701519665033797	0.009991095035266413	-0.08757122346936808	-0.04113903803360458	-0.0016469267477073994	0.039353288512869435	-0.11319833467356219	0.07507583517709576	-0.047193573476411725	-0.04204825944330005	0.1317714250858874	-0.021601151148647177	0.017954880597020197	0.08532333054101837	-0.013638648451095978	0.00513655528524431	-0.008758438460312731	0.04103904928781675	-0.029288261568562946	0.08526202943737876	-0.06090039632487945	-0.12766760382890158	-0.08440586397725443	-0.01959205035086461	-0.028195396898099006	-0.04423421945920263	-0.09244234344530561	-0.022559329464940166	0.04051033446012969	-0.013826973871492204	-0.04340569592742074	-0.03709076072046508	0.0377251124062999	-0.02025002416947558	0.06273465364082735	-0.04490203215298034	-0.028000513506012535	-0.023881245280681328	0.05403576460974714	0.0575692561396626	-0.1129866687420775	0.12158075208397044	0.05569945296323871	-0.08623127381330112	0.07449384829852576	0.2121151200146167	0.010083710971759342	0.04256755614542669	0.08063387160990707	-0.0650894352900207	-0.1075053835499575	0.03733662374111953	0.11737313896270161	0.003241715582738272	-0.08532669028396861	0.07060252824700672	0.1147011921920046	0.04627584517403515	-0.08672111576922854	-0.13711880826052342	6.235314797614538E-4	0.0029358143696274607	0.03415599610615899	0.006689016029658957	0.09513496019714318	0.09592634353814675	-0.04365446660019641	-0.05902799019368375	-0.1573758398568608	0.11305390387317764	0.035840839108606394	0.1817556013749094	-0.04476199366739873	-0.043624946903536146	0.0333807308428663	-0.07710269428293925	0.05328944528923777	0.04394154314203936	0.03097318958150889	0.06602918689048765	-0.06775943393311791	-0.022546136324184556	0.04034912112655936	0.08076046223661895	0.058282114387203314	0.05056206522781979	0.07549551665942014	-0.07976907057038983	0.051348941472328394	-0.03159114008822674	0.0014049094004732333	0.07354368304590529	0.011422761237078237	-0.04488539034643681	0.03715052588933842	0.03418568593411292	0.049602538255032476	-0.007697090275506179	0.06941432514791775	-0.058481945279241415	0.08399762386551053	0.011973313848853764	-0.07370805689823093	-0.05566627954378357	0.08549118853145242	0.06298313063792096	0.10555619496042908	0.03297198054277483	0.07901029307041285	0.02245593439004188	0.03881163189803653	-0.0714724316381681	-0.06372699391843167	-0.036862238016376815	0.01894758909098747	0.0493327825088532	-0.01778152483206064	0.08171229589260563	-0.037737588990899504	0.07017185492535284	0.03990445757455085	-0.031912939894016834	-0.0052009190226585695	0.0717879285595744	-0.029311122579335356	0.06399651982349543	0.0043150613286485765	-0.09792049893930202	-0.06133919721205585	0.0317117387621554	-0.05205188760498847	0.08776241168078819	0.06526191967137969	-0.02340894312488568	-0.1558033316348574	0.06335599857676856	0.0053765654020557704	-0.0229551004998808	-0.037680952975578726	-0.1108047992549748	-0.09448425731909361	0.10901397998218217	-0.024563039744097532	-0.1344308981153597	-6.019463077371039E-5	-0.01073673433026418	-0.01795459206701875	-0.14880891414410366	0.06352214622237355	0.12313689587755389	-0.049703169539387096	0.0014068491922156511	
180	0	0.045911509185488794	-0.03521178860465387	0.009909656540565224	-0.07919815243195392	-0.003775045938641058	-0.09933095085853352	0.05763291168947073	0.0020588751691975366	0.05984991931419053	-0.049622341742867414	-0.024736991513450983	0.034081375780102015	0.0034913832886435915	-0.08247277459901439	-0.006922818750087466	0.0044693049299914705	-0.03643151113429782	-0.06102499519853016	0.06069570045748649	0.05734907670879852	-0.09391239001517705	-0.026529303978043175	-0.06265757060502411	0.034531801931222454	0.014129299887764601	-0.11611040609885123	-0.10732738312455456	0.058071644593762094	-0.06091609777048518	0.01369510535206194	0.0639545519587097	-0.1326870813316269	0.04164324913050699	0.011016903067851977	0.08427940381978642	0.047624924189339515	-0.0056119490611263095	-0.046065122739776074	0.08824420252883558	0.06379506982778066	-0.058212366681610644	-0.02755180909894837	-0.027440438077809385	-0.0963061755349179	0.0189779368379251	-0.023238403749087727	-0.12139204504813947	0.015561375086330157	-0.05952034195149727	0.01012998022653571	-0.0992011284168805	-0.04488843509369371	-0.025316501177424282	-0.004715503849627744	0.053027965563716604	-0.03027683337759115	0.046850372469094584	0.0525681634452142	-0.090212085601037	-0.03265118455614299	-0.06122785410391989	-0.14579286870604957	0.16799854555553828	-0.05832503728748187	-0.06313089998817835	-0.0651692169803163	-0.1242449455801219	0.015239470684227057	0.05730824844311118	0.03919145833990797	0.007605612956277863	-0.028554306325324057	-0.06502122334414222	0.04131870449068953	0.08940925501428933	-0.22495858932777946	0.09570164760986448	-0.02103064607211739	-0.01606722691545458	-0.027675794858163107	0.0322102250830381	-0.17007285356238402	-0.0336365210502097	-0.07758766273642789	-0.030184614481768957	-0.06824323244904655	-0.01627259181535329	-0.03698860654516598	0.08499155773367985	0.04172820315301982	-0.0436963925303545	0.062053187081475274	-0.020772603266636352	-0.10534590841631583	-0.00784239117543734	-0.03328618339298195	0.01825151952099912	-0.06969758499103061	-0.05783903895742434	-0.08466625146341943	-0.001953558269042842	0.1076534589087588	0.06830860300513349	-0.019414169069782054	0.07482323158636264	-0.10050755694592864	-0.09836530430580052	0.06495973504267975	-0.0891995119725591	-0.07887329015119265	-0.06441029314560055	0.09866726504269734	0.021309021084641312	0.01098824148919674	-0.11424839534757884	-0.12370121161954963	0.01755433797868253	0.048270795224235406	-0.033161962034727224	-0.03923638378053839	0.07274201129475628	-0.055450112002079784	-0.07690589627023674	-0.15450690130313102	0.10859185770054476	0.09287929145643281	0.09887699456129076	-0.031577708552835274	-0.0482018138063173	0.08376805044876087	0.02619191639633451	-0.10143801411667591	0.10271299282876699	0.08787450411591766	0.048154408933749185	0.12717041029562048	-0.015701582487534584	-0.04193876665565456	0.016410305718069153	0.07335933851084438	-0.028549547858881266	-0.09361412290920493	-0.03424813120666586	0.01315973343906397	-0.03349456709693976	-0.1313817807468126	0.05138039196963407	0.02499849586890197	-0.09912460394836331	0.03214506223694027	0.003159886994736083	-0.04700356748833956	-0.06829479262929865	0.06187067021393948	-0.021993374649906	0.06842320990811553	0.02532373628264825	0.07530902127295439	-0.07752409954486202	-0.13549907659229937	-0.06392718784467791	0.061702989230696184	-0.01673471530702996	-0.05708358863997076	0.038125847842472464	-0.04276325964709998	0.0670898984840815	-0.03940955342710047	-0.0893787331795388	-0.05971933527625857	-0.0165458005823305	-0.10090693394054386	-0.10834580553646522	0.015660484366324615	-0.02577463199546549	0.07455851239395966	0.01735707632056087	-0.030563638637085645	-0.13205102262343274	-0.035023253975523215	-0.0356317506993237	-0.03945537429866322	-0.06974866027392193	-0.01876071923682258	-0.11224258224903287	-0.10523842698193936	0.03672573159300846	-0.03181279687907627	0.19012538730237644	0.014648621488560384	0.023558619665529534	0.012000210693012615	0.09404123596787185	0.1929959813938903	0.03558391318559063	0.00867373972304433	-0.04404125046309525	0.030594754562619435	0.04308303839677062	-0.08126930670990479	
201	0	0.10238810169536149	-0.015564229469756672	0.037249516786275146	0.03553352821007709	0.06798696873246923	-0.14956108608034732	0.1079822409986239	-0.03565588529681445	0.02898884504114729	-0.06424627695401745	-0.03872086980914662	0.08547771919688045	0.08233979943370855	-0.09170561556145393	-0.06601963463143064	0.022859649173689177	-0.06360472186379627	-0.059620806568260985	-0.010149358149228712	0.1020530922268614	-0.10209925549825333	-0.001638947606690707	-0.06652872796077533	0.060001841677972595	0.08561975652050469	-0.04820308195440843	0.002223794497422335	0.025131158206704574	-0.05705273598655477	0.003868212294111964	0.07418719332162904	-0.10954161676904678	0.03185993768045214	0.023863424798976775	0.1020646676477678	0.05712180135514926	-0.02724327205910159	0.007190735260003338	0.18839660295716126	0.058523305921839214	-0.050976749940110595	-0.028303655709127983	-0.015895896396933354	-0.10050146142557127	-0.02465038216894673	-0.05565568123192916	-0.12909937379511413	0.03664555271171113	-0.07049400386004505	-0.007416824029833079	-0.09756025012227224	0.04634999585994581	0.01431896072533898	0.002372892692174164	-0.043551002936222896	-0.057738903701004485	0.05633445168247677	-0.014791200206771592	-0.06067732892179337	-0.05748744334152839	-0.02025160428741225	-0.0929054355438902	0.13832915418494196	-0.046890132236440805	3.579583606283318E-4	-0.022456791123089764	-0.0851332293116821	0.07152638512477172	0.04122103742152141	0.013187254152905541	0.025429348385851546	-0.0033845151423462436	-0.06310449056345785	0.014654016801906988	0.1135880631859216	-0.18590024804944325	0.046999658691034514	0.01405197816916772	-0.0023019555951908632	-0.04263560021702285	0.054742559117389164	-0.22286526887778563	-0.007338564464074457	-0.08760115857381919	0.016105576881506902	-0.06496533245310335	0.061199316158280226	-0.01191058062453467	0.013890128456605014	0.06544061326226745	-0.024280487052268332	0.08517109269106264	0.03827917182831498	-0.1081779119357143	-0.06689602276506024	0.0346422341508937	0.07127708065990382	-0.03399102630729681	-0.06092892034545115	-0.013367066406712123	0.028095096414961707	0.07605124913070549	0.03826385981550179	0.008472651860429439	0.013108918755604401	-0.09934949220306218	-0.11886207611004303	0.02587284185399328	-0.06604097135482806	-0.02126383264931231	-0.07852568183508889	0.06821755406656826	0.0340419829877342	-0.04462060461017031	-0.08130182237074086	-0.07852665063408194	0.026266433673739095	0.06509177302369312	-0.013348648918131879	-3.1581886661730287E-4	0.1324877164871968	0.002746698799336035	-0.02132415081468938	-0.12834764313519964	0.054549447544061457	0.06663112560319273	0.16658803747254008	0.018488321222589407	0.017822675717748964	0.03624740952712943	0.04473424966204157	-0.06064908354156411	0.12060430992955445	0.13881213843288565	0.06146298118911388	0.1267091074898572	-0.04996337880438915	-0.06048707778080378	-0.0022083059305832466	0.061831769509376806	-0.05571519336740648	-0.10273817403432799	0.005775142834073159	0.03516073948831473	0.036733065768455815	-0.11357004806217391	0.08240377446009417	0.007863031495108126	-0.11000228759141195	0.024308779615752885	-0.009434625706596592	-0.03692773526122649	-0.0717020835012828	0.08614013182863273	-0.04997554947023934	0.04249336063500592	0.0549682196831106	0.03238847203004602	-0.03753352437175731	-0.1363067895074529	-0.08126072175886859	0.006570727354626122	0.005290968400824664	-0.045324430311911704	0.02189888510912522	0.007640861346090611	0.07616021658825359	-0.07671789865843981	-0.08890791447493854	-0.07799598217284513	-0.028596820682945914	-0.06812957980020962	-0.1096689870567918	0.03213594298334549	-0.04441611280699296	0.10492964510032834	-0.05741265608380583	-0.03861696825957949	-0.09544339398111974	-0.030081648581705315	-0.0030297720300949045	0.004706760991142528	-0.020155054449189008	-0.02422070554308144	-0.09038966383773389	-0.1326968496875869	0.03386450851949534	0.0046981031220493085	0.21266108206187134	-0.0072211366658251385	0.054828500157726126	-0.04242566392444966	0.10259840869333306	0.15581808855412616	0.06521044709070227	0.0034645152061172375	-0.0184439402841948	0.06878501608711261	-0.07381882055409006	-0.00409350054346029	
