2	2	0.0	0.0	0.0	0.0	0.0	0.0	0.0	0.0	0.0	0.0	0.0	0.0	0.0	0.0	0.0	0.0	0.0	0.0	0.0	0.0	0.0	0.0	0.0	0.0	0.0	0.0	0.0	0.0	0.0	0.0	0.0	0.0	0.0	0.0	0.0	0.0	0.0	0.0	0.0	0.0	0.0	0.0	0.0	0.0	0.0	0.0	0.0	0.0	0.0	0.0	0.0	0.0	0.0	0.0	0.0	0.0	0.0	0.0	0.0	0.0	0.0	0.0	0.0	0.0	0.0	0.0	0.0	0.0	0.0	0.0	0.0	0.0	0.0	0.0	0.0	0.0	0.0	0.0	0.0	0.0	0.0	0.0	0.0	0.0	0.0	0.0	0.0	0.0	0.0	0.0	0.0	0.0	0.0	0.0	0.0	0.0	0.0	0.0	0.0	0.0	0.0	0.0	0.0	0.0	0.0	0.0	0.0	0.0	0.0	0.0	0.0	0.0	0.0	0.0	0.0	0.0	0.0	0.0	0.0	0.0	0.0	0.0	0.0	0.0	0.0	0.0	0.0	0.0	0.0	0.0	0.0	0.0	0.0	0.0	0.0	0.0	0.0	0.0	0.0	0.0	0.0	0.0	0.0	0.0	0.0	0.0	0.0	0.0	0.0	0.0	0.0	0.0	0.0	0.0	0.0	0.0	0.0	0.0	0.0	0.0	0.0	0.0	0.0	0.0	0.0	0.0	0.0	0.0	0.0	0.0	0.0	0.0	0.0	0.0	0.0	0.0	0.0	0.0	0.0	0.0	0.0	0.0	0.0	0.0	0.0	0.0	0.0	0.0	0.0	0.0	0.0	0.0	0.0	0.0	0.0	0.0	0.0	0.0	0.0	0.0	
7	0	-0.01491101919824974	0.05376602953581518	-0.00638467413831417	0.07728211524857906	0.12729691382601968	-0.14111646979506334	-0.09244514458502007	-0.006415005742571419	0.015638219296827068	-0.09335112570675329	0.045154014012308535	0.12303441007630248	0.07169825239377986	-0.050440974616265635	-0.05077770133659256	0.004961182183843989	-0.07139697507640318	0.07304112634203098	-0.10543781580850926	0.07799915561414934	-0.09282584128380662	0.024479159971845493	0.019642200770074947	0.029654902893575166	0.0807624026500779	-0.0970601456964969	-0.02576298826417436	0.04945592088976018	-0.021978244763674198	-0.037480728500607255	0.012504028430181353	-0.10224876734333495	0.0674978432434521	0.036156650150414325	0.182943695141633	0.1082365921294393	0.05007009981459007	-0.024703067508713438	0.13738981758997387	0.06276511704671282	-0.0807695954077609	-0.021341905774294994	0.03687143493080631	-0.05245372848832253	-0.08503290781735005	-0.06623374826060281	-0.06446664110260143	0.06585321891275887	0.05180318855441103	0.0038832073358803843	-0.06474679424647255	0.11090292725992551	0.017821155495660556	0.02821032404903907	-0.09922672805691707	-0.07900133908313821	0.03841574364342434	0.015379944366629893	-1.7671413566468211E-4	-0.00548658822177642	-0.030625240955089943	-0.03661193281988253	0.17152839243894147	-0.0886363635344976	0.05873296556336255	0.007345380652989867	-0.05190840511803274	0.06313011671149998	-0.020528429459056276	0.0368418619973654	-0.034104312975108485	0.05330491570762721	-0.026734482854236803	0.015963953609794246	0.06685224113107867	-0.09457163429050622	0.04920185995873984	-0.0025888649664966555	-0.015000180186071585	0.006030190773496668	0.12349447818747793	-0.13649358264630596	0.11850746538690084	-0.07183485460632105	0.00920555398892615	-0.06831517664248564	0.02497412548206025	-0.06571289732947112	-0.07969171844622752	0.029377368320518283	-0.08146397908669048	0.05161799444887504	-0.004887957379521858	-0.07355935816855307	0.04655945577259487	0.08655791001430795	0.07287168622040432	0.019806770242432537	-0.015453384025098032	-0.06387052597528198	0.11339775771592496	0.12251190163678657	-0.024065100716533883	0.008386794978601906	0.043226243346974634	0.007666157953088151	-0.10314807383217231	-0.03443278311541183	-0.024197915989891502	-0.015199898792084105	-0.053863195297381004	0.1324165746250405	0.09779073241674369	-0.06296317065704045	-0.13568670564742458	-0.004938454633746733	-0.03108312618862799	0.058574084924302286	-0.0027424999085557487	0.030955082412497944	-0.03532568037008089	0.04343611063392504	0.028496611252910538	-0.12616041340848325	0.07350678082383236	0.0677317618546834	0.13747454329722947	0.03228810223308505	0.06432477240922405	-0.04596935001314937	0.11053582747615365	-0.008798733679308824	0.08314778837484539	0.03383650577491487	0.02774820701090112	0.042845566933265446	0.0021015305749429564	-0.09243187106788024	-0.048080899683026354	-0.016361018405210117	-0.10832321857218276	-0.0423511950994452	-0.012145069559474414	0.010165297073228585	0.05377942887882738	-0.11203588017561579	0.09357182678644355	0.022266808112494565	-0.07398568733563698	0.01772935437630688	-0.027959379684066414	-0.019630574430257473	-0.09780700265969894	0.02130441919892869	-0.02618391007168181	0.07489086506522934	0.012414307646598125	0.049173413058296866	-0.027766415742428288	-0.1516926907031486	-0.07214417526710415	-0.04402268003693959	0.040191725194483725	-0.0408127515585187	0.030405154477727014	-0.025752499636730788	0.032143730620778535	-0.07938818046294427	-0.07618668362541008	-0.09051321440295326	-0.025857806316615585	-0.013940692186063596	-0.06664615233877641	0.08020979840543557	-0.07196342530237342	0.13245532879387603	-0.03539494055959535	-0.06118263197563875	-0.03455854783390297	-0.02739163461615044	0.034020316819233266	-0.06236819217956252	-0.0507267928044028	-0.05456690833541053	-0.03065227785149956	-0.08487462513140683	0.01430789224904319	0.013516608822460863	0.195516620652582	-0.060342770919126466	0.04471803424664466	-0.05070303534536812	0.14365075991302545	0.15145482312442382	-0.028942077810082394	-0.060085129472406074	-0.0029326224570382967	0.14718766412378806	-0.15667084001571205	0.05592616380650815	
11	5	0.0160077592029367	-0.026684079076233897	-0.008526435728696286	0.031009370181583198	-0.0018539005698483668	0.14255163174188806	-0.014773523042416645	0.03696744974174791	-0.008274980228685575	0.041214300647653475	-0.03876070185230625	-0.08962009085078342	0.04680548066088725	0.0711221178348891	0.006547234454360898	-0.03948940688932447	-0.0024815041861277736	0.0077178108426689184	-0.04775297012533786	-0.04186203196903321	0.09956992849211094	0.08040703178170067	-0.024022340709407987	-0.03282614861886232	-0.06157646603593571	0.11936419358677626	0.055195549991180065	-0.06717586332794623	0.07180718957383937	-0.008347916384572161	-0.0787481504378585	0.11992768831372991	0.03413135801892576	-0.037627195376395875	-0.13583074229948458	3.0687518355111045E-5	-0.03650512325440484	0.040429727634611765	-0.06568280766415306	-0.04582563349125547	0.07571567814514828	0.04625996034859066	0.014198235768963584	0.0704252943953567	0.006692039013666971	-0.029123418497786418	0.17329308185069453	0.02053326171743779	0.01591248972460624	-0.022886601058193196	0.10862465825668993	0.024607619359332814	0.05957369146302881	8.397104782821978E-4	0.027423143025522793	0.10317964679993562	-0.11285480806951659	-0.05426675072999213	0.006368504965951236	0.04932550579276098	0.059899294017967605	0.04442820745454079	-0.11878327143356486	0.06863947501811211	0.007678159421330005	0.15387893110141726	0.09229858172923863	-0.03436029716271517	-0.06533580106463265	-0.0570368900302819	0.0635176416112848	-0.03199071563545	0.0469846195615979	-0.021064176014174936	-0.05813631708261605	0.17346599980027247	-0.09048395250358059	-0.013929553730298439	0.024166655382046667	-0.017284965697389208	-0.03825325322417428	0.10547372962898179	0.010788535414476023	0.06119849226239317	0.03790363074251617	0.07165890237360979	0.007709501064417666	0.1036748168173876	0.022189592291303288	-0.0357183862146426	0.05909445485395894	-0.05973105881528558	0.03349812867328353	0.1431067414089161	-0.01834200084594959	-0.03447269617176399	-0.03619703574474573	0.04229757897367294	0.04517779662242638	0.024551294242329703	-0.08999119226833356	-0.11533282905917447	-0.054192218136275457	0.025722621883516116	-0.04050052077794118	0.06029808117429345	0.07677405276605094	-0.03819116913724008	0.08500608895240863	0.04820384561189631	0.03379448419800637	-0.1785177582114657	-0.06902787050838759	-0.00430131229315334	0.18271079139490212	0.07300821407139953	-0.0228297373123351	-0.0650234529068786	0.04919760975386635	0.02282745729467635	-0.03652294396818021	0.04247751304179451	0.07981120350126532	0.1917446323137011	-0.0693543189742441	-0.10932646965898259	-0.12426861275538337	0.017692695714744675	0.011508361958425832	-0.02401686469080664	-0.08126780656679715	0.04151876444536309	-0.09135552268549575	-0.05313695126119256	-0.015229925805210183	-0.10271115949062465	0.0555945750655706	0.06461158372814575	0.030006966060897033	-0.08207558124668302	0.01841937582902594	0.03757109450950024	0.05372079769747591	-0.024418461199873145	0.007551775442797234	0.197174509569893	-0.04147631450352774	0.012032516099615911	0.10047011104583584	0.025694655661038297	0.05317556171081263	0.035486118911113286	0.03878392689333976	-0.011202062081794988	0.0418154215642579	-0.04716953805355735	-0.0671358534720635	-0.013985657826548724	0.08004939771887119	0.09996820809003922	0.04016285639522116	0.04781950761440708	-0.0011206164229167035	0.08309722449648987	-0.05737236768086056	0.06675353243895774	-0.06442816125818956	0.026060459911258344	0.12449067295179964	0.06143898192685358	0.021328406237153767	0.10196811111200789	0.08600056923975682	-0.03380011941678455	-0.034618536056860084	-0.08577666991965016	0.0619567519644997	0.012604088613832741	0.106665536660117	0.03670439716060547	0.04806812658582467	-0.024040038912831824	0.0677838114212107	0.055225039095778326	0.077880013830031	0.06160179434281337	-0.024125292538659474	0.022859805294056085	-0.14255720930192725	0.006369747446862452	0.014467156541704497	-0.003399370921879497	-0.19993463734818553	-0.19682535435117013	-0.013629519245363172	0.06349974347093411	-0.008284478651408366	-0.11978209322931858	0.008615074373030957	0.059466063837618106	
13	6	0.1472490749576555	-0.009801879521453678	-0.04096432766849491	0.0689575670324502	-0.06421257021732986	0.010079706606624715	0.1726739871125645	-0.008886632471626993	-0.1460271715491085	-0.1453128836038584	-0.04370378600526848	0.0464614268442346	0.02000113354946726	-0.08725022584117959	0.035209488547274743	-0.010666657256983908	0.06450425140800743	-0.0532125428702596	0.1808927699686284	-0.03256979712355217	0.007178106409308743	-0.018914442828349694	-0.0348298162724911	0.017490735374783222	0.05094651803764308	0.10204419763780194	-0.05061892699519826	-0.07112302479448494	-0.052972024788197715	0.07791547312254823	0.03259402895076458	-0.06327400669144467	-0.059942853800063735	-0.04698486787501649	-0.12837762376404346	-0.12457573487766965	-0.08484018250285555	-0.0660992677480722	-0.02435475671750847	-0.1130032457479851	0.07036532188471313	0.05408166351481897	0.011231443750443111	0.01495552824797201	0.030247710442499527	-0.012894286249422278	-0.07748549064119369	-0.06747766908772433	-0.17375506588036282	0.02765896407741499	-0.07240435679941837	-0.02049656260847332	-0.08712919929911826	-0.0816889329384008	-0.004557179221617099	-0.021350561878960523	-0.04063774498843121	-0.04409207737785209	-0.0882309767335961	0.07508491198430993	0.0595077581629013	0.08515463569847394	-0.11009946535607992	0.017783927095988555	0.009630463267463685	-0.11816807158215277	-0.0157065799593648	-0.05111337122143159	0.03871806676692299	0.07254604958374435	0.08638328295210877	0.009431114647883106	-0.09635462605294086	0.0036847296555640014	-0.06120257911343354	-0.06198554408266417	0.018198087033069712	0.04032931942391407	0.10668264472369857	-0.08318284249078661	-0.032170949171634815	0.04312912483931295	-0.21678976439120815	0.019950745474984936	-0.002108454966723765	-0.018440719514615726	0.02719344988139964	-0.04280128538228782	0.03093623558063319	-0.03538313518659857	0.019441455090366086	0.08264465170162794	-0.11203785430316067	-0.011788370320699564	-0.11753658301331094	-0.09292833534838954	-0.021261239795389755	0.051115995497193374	0.0032421632984328823	0.051704813172373194	-0.0761679901466925	-0.04610861267457619	0.09964355480451005	0.026797909111248647	-0.1324276577607105	-0.09018245559647815	-0.013524890544831688	0.05056564674334715	-0.03248041284921068	-0.045910527399505054	-0.04042741069786594	-0.06629581374921505	-0.09268828274210975	-0.02125772062290651	0.04729833080111969	-0.06388107773563909	0.10392404054699474	-0.028724083299212468	-0.03287132454368362	-0.013825167117703168	0.07797912528778275	-0.16052043120501394	-0.10044931599826072	0.020439265287435424	-0.06357496775265246	-0.0695347017217599	-0.002157009268930712	-0.006965342581631638	-0.025914902430803542	-0.02834385457774465	-0.1135848835035394	0.013650972012999255	-0.031823326218077645	0.03962217364955579	-0.031110109041207624	-0.013898027460859516	-0.13122522922879035	0.033114966172785955	-0.04289340838080055	0.12939940214135603	0.04455441686760783	-0.02683371640021502	0.0368414883697852	0.03711018410903063	-0.0823106811479395	0.07951225854755431	0.048938274710647926	0.057008882129179546	-0.05956247644819065	-0.0015128279132233559	0.007595023573617806	0.02816141737046533	0.07977681749960876	0.016055567443343584	-0.03953097444728241	-0.03465319595026594	0.046500617199092556	-0.12495725901186908	-0.05251149660706529	0.1732564673692042	0.06325923966933136	-0.08258393021657628	-0.06759406005176787	-0.0689061812338051	-0.06369248099022128	-0.07302199672512784	0.0675011790022253	-0.04704366731239649	-0.050312556107358054	-0.004701265344005465	-0.11423696143454068	-0.04244936000368953	0.003445639439128796	-0.07961581486520018	0.10726287757875831	-0.009597441216859478	-0.06561840182809213	-0.0312321766453785	-0.02917191585582078	0.05547704864290097	0.017882329401440637	0.1311409737412584	0.10603491579562374	0.01211017303731881	-0.025562028087138908	0.04002990264088215	-0.015971363431098045	0.06592428199672178	0.005432931598335603	0.09941696429377064	-0.006379600636871112	-0.014470312575218245	0.06336103756895735	-0.04323985693528812	0.11112311642000353	0.06328517238432466	0.01033204227974506	-0.06244539579222577	0.13787762084826466	-0.0832913412810071	
14	0	0.08384283049180109	0.046423462548837224	-0.023549148760328334	0.13251951197340125	0.08774926140554498	-0.1359395116627806	0.03909222226476096	-0.01361458156229904	-0.03786853624209536	-0.1616092707336694	0.008444461911693353	0.16450423512264042	0.07831382699540095	-0.1141209228915318	-0.047526784428937464	-0.010924576583054279	-0.015895772716166767	0.02980835266733535	0.016527144939520212	0.06121221959802077	-0.08456034051183439	-0.018417140062115495	0.010741035771353047	0.05021217572931715	0.14830343146520147	-0.06648628635855229	-0.04928653748402556	-0.015322993162988938	-0.08413645370654262	-0.008068809904892157	0.07061953796241384	-0.14888325069764946	0.0065287230434003685	0.02213112606010467	0.10413491584077046	0.022211404814194542	0.0036382053946794274	-0.04889165851655508	0.13422447757480735	0.0015903523249200804	-0.024485601911148267	0.02592127464714393	0.02317179722462282	-0.0582276017962544	-0.05110234632322789	-0.05451709016037659	-0.11637170328594212	0.011761871881245528	-0.04988179387968026	-0.0038136487431541253	-0.11238971312004024	0.08073908862596428	-0.04963901056765722	0.013968369985688118	-0.12754374035171093	-0.10521056472446676	0.015432446116099854	-0.04072955864183405	-0.045319568572294446	0.006384075867303037	0.0014610806610497657	0.005611886060495964	0.08579716321293404	-0.05603217764654382	0.01590240338861007	-0.08869106937694425	-0.07190104597942834	0.04966952567290839	0.0336815725286561	0.0823643776337898	0.013964646551658072	0.05022584950143604	-0.08325088475412354	0.008790977901455825	0.036319544768916	-0.15608070678810715	0.0478037367486954	0.0362809140543867	0.06548410858920616	-0.0367785865839298	0.11577073548757814	-0.15161821584584675	-0.02308827910301149	-0.05917626714066249	0.006730924361443437	-0.09089612314308317	0.07147547284372521	-0.08119765485414861	-0.04336323393301354	0.016265092311781963	-0.06422528467246069	0.11408836448522643	-0.051949156861057645	-0.0956616599846564	-0.02825244522446353	0.03302149578234852	0.07181290019314125	0.050959995322465056	-0.02461161801030461	0.00497069761238045	0.05044947453716982	0.08849693926678583	0.01239076003867474	-0.014280278241165657	-0.05197255551905136	-0.060294788651591776	-0.11397625477246892	0.004011103576734178	-0.04054072316322537	-0.012215867382499256	-0.07037566394489933	0.0821148025162225	0.04746291407571356	-0.05433975860944039	-0.1505350101999875	-0.03157139366209258	0.04867180951697025	0.05790561301304199	-0.05601417035472724	0.03291839258038853	0.03986262129554858	-0.03922053254782047	-0.02416809946741769	-0.11958508141382032	0.03378785100971045	0.015155401440794166	0.14417575920404735	0.02027336039989753	0.05435508023523666	-0.04465563785322188	0.046095256952524914	0.00772845116612833	0.09567199998942938	0.04519034375357719	0.018099342328986575	0.07490616437190285	-0.07328107065628538	-0.08665938832555993	-0.06796570726632334	0.09193614927839203	-0.09567088975514812	-0.08941305245564615	0.018559539541654495	0.033295856720892684	0.008493832319805918	-0.11598618641581697	0.11436934057290259	0.012583192231407239	-0.09457885036098397	0.01787786516053485	-0.025542527647580828	-0.02091283381652414	-0.01365844044102819	0.06532773200113792	-0.07528207189015408	0.034622653213424365	0.08519003117781725	-0.012454504812938269	-0.05642345417257777	-0.03357316485141476	-0.035279632160732696	-0.09745109133734804	0.017321757162529226	-0.06577217531668286	0.007396495749900928	-0.056681535455350575	0.08414219510113422	-0.10240749159502718	-0.12495710182716697	-0.08049571401321859	-0.07275162949496355	-0.06289897397057086	-0.08972447477820356	0.04536961669818998	-0.010728887130144655	0.13214213653234833	-0.07925798541298588	-0.0661857125651124	-0.07451009463632059	0.016638551470397177	0.044317594139572654	0.024251684507417187	0.0056863608110907906	-0.050586480111835655	-0.08592668642053315	-0.0771086975888399	0.017438315041285644	0.0612438102143397	0.1856410315705331	0.018456711804598545	0.03908550695280694	-0.06585243714696831	0.1632706277535791	0.14083798578670434	0.032529962708283795	-0.019425889624661515	0.023694791309317037	0.10758543152726255	-0.09947095570439439	-0.004202871779596137	
15	0	-0.016007759202936744	0.026684079076233904	0.008526435728696295	-0.031009370181583278	0.0018539005698483143	-0.14255163174188804	0.01477352304241663	-0.036967449741747926	0.008274980228685551	-0.04121430064765344	0.038760701852306276	0.08962009085078339	-0.04680548066088728	-0.07112211783488909	-0.006547234454360865	0.039489406889324494	0.002481504186127786	-0.007717810842668922	0.04775297012533788	0.041862031969033195	-0.09956992849211095	-0.08040703178170068	0.02402234070940798	0.03282614861886231	0.06157646603593563	-0.11936419358677623	-0.055195549991180086	0.06717586332794626	-0.07180718957383933	0.008347916384572166	0.07874815043785846	-0.11992768831372991	-0.034131358018925764	0.03762719537639588	0.13583074229948458	-3.068751835511632E-5	0.03650512325440483	-0.04042972763461179	0.06568280766415302	0.045825633491255464	-0.07571567814514829	-0.04625996034859071	-0.01419823576896358	-0.07042529439535669	-0.006692039013666951	0.029123418497786477	-0.17329308185069459	-0.020533261717437794	-0.015912489724606245	0.022886601058193234	-0.10862465825668993	-0.02460761935933285	-0.059573691463028794	-8.397104782822244E-4	-0.027423143025522744	-0.10317964679993562	0.11285480806951663	0.05426675072999218	-0.006368504965951218	-0.04932550579276097	-0.059899294017967605	-0.04442820745454079	0.11878327143356486	-0.06863947501811213	-0.0076781594213299696	-0.1538789311014173	-0.09229858172923865	0.03436029716271515	0.06533580106463262	0.05703689003028188	-0.0635176416112848	0.031990715635450015	-0.046984619561597905	0.021064176014174943	0.05813631708261605	-0.17346599980027244	0.09048395250358063	0.01392955373029843	-0.024166655382046695	0.017284965697389226	0.03825325322417424	-0.10547372962898172	-0.010788535414476032	-0.06119849226239317	-0.037903630742516174	-0.07165890237360979	-0.00770950106441773	-0.1036748168173876	-0.02218959229130329	0.0357183862146426	-0.059094454853958915	0.05973105881528554	-0.03349812867328354	-0.14310674140891608	0.0183420008459496	0.03447269617176398	0.036197035744745705	-0.042297578973673	-0.04517779662242641	-0.024551294242329727	0.08999119226833358	0.11533282905917447	0.05419221813627547	-0.02572262188351609	0.04050052077794122	-0.06029808117429345	-0.07677405276605093	0.038191169137240064	-0.08500608895240866	-0.04820384561189634	-0.033794484198006354	0.17851775821146576	0.0690278705083876	0.00430131229315338	-0.1827107913949021	-0.07300821407139955	0.02282973731233509	0.0650234529068786	-0.04919760975386631	-0.02282745729467638	0.0365229439681802	-0.04247751304179453	-0.07981120350126536	-0.1917446323137011	0.0693543189742441	0.10932646965898266	0.12426861275538337	-0.01769269571474468	-0.011508361958425856	0.024016864690806654	0.08126780656679713	-0.04151876444536312	0.09135552268549575	0.053136951261192555	0.015229925805210173	0.10271115949062463	-0.0555945750655706	-0.06461158372814575	-0.030006966060897033	0.08207558124668302	-0.018419375829025877	-0.03757109450950021	-0.053720797697475946	0.024418461199873145	-0.0075517754427972435	-0.197174509569893	0.04147631450352773	-0.012032516099615892	-0.10047011104583584	-0.025694655661038318	-0.053175561710812634	-0.03548611891111329	-0.03878392689333979	0.011202062081794938	-0.041815421564257854	0.04716953805355737	0.06713585347206344	0.013985657826548715	-0.0800493977188712	-0.09996820809003923	-0.04016285639522116	-0.047819507614407064	0.001120616422916672	-0.08309722449648987	0.05737236768086057	-0.06675353243895775	0.06442816125818955	-0.026060459911258306	-0.12449067295179964	-0.06143898192685359	-0.021328406237153763	-0.10196811111200788	-0.08600056923975678	0.033800119416784534	0.03461853605686012	0.08577666991965012	-0.06195675196449969	-0.012604088613832725	-0.10666553666011701	-0.03670439716060549	-0.0480681265858247	0.024040038912831848	-0.06778381142121073	-0.05522503909577831	-0.07788001383003097	-0.06160179434281336	0.024125292538659467	-0.022859805294056134	0.14255720930192722	-0.006369747446862453	-0.01446715654170452	0.0033993709218795368	0.19993463734818553	0.1968253543511701	0.013629519245363176	-0.06349974347093414	0.008284478651408344	0.11978209322931856	-0.008615074373030874	-0.05946606383761815	
19	0	0.036658136086545556	0.023700339705862487	-0.012951878731565523	0.12159072057663019	0.09158467009916453	-0.10882335037091546	0.024228200925594308	-0.006598772277780518	0.06420774823678196	-0.08478908456752654	-0.005695343880357685	0.14648666439166802	0.07339507192433213	-0.08925033088796375	-0.08614644482581209	-0.027181639195790818	-0.022615969368922233	0.019308279947909308	-0.028343480190858618	0.056090008776750556	-0.0665296832115148	-0.036975124178094565	0.02520737444863551	0.052395566262947446	0.16192983753728996	-0.1150113411220188	-0.006374204780858996	-0.025878972930333036	-0.09814349767761278	-0.045483924231868804	0.08880196357461856	-0.1190122212701765	-0.004223569785849146	0.04898906211338519	0.11499145312330637	0.050129609899067264	0.026597772855545043	-0.0017586657381854598	0.13747022002712836	0.049604499530388146	-0.011117078690672246	0.031276597445390436	-0.005293154995069962	-0.07638446010042359	-0.03453248306117502	-0.036955357968984484	-0.06262793714404333	0.01772031441652328	-0.006676828066856415	-0.03343422765433148	-0.08376353839910093	0.05890604066544156	-0.030821797469526045	0.08299425598845431	-0.1312012059609855	-0.08776134395421875	0.005803028124107171	-0.07516400587544579	-0.022883606768676207	-0.053122317738906154	-0.014860636338346086	-0.02817419791494892	0.07092820872210917	-0.031857492806611494	-0.04904801549301378	-0.056282831918250016	-0.07897111294386534	0.0829935952327643	0.0465895334983667	0.06039529034077469	-0.008562040990930806	0.021816423785286306	-0.042721426301975826	-0.004651914402571408	0.0662325066985095	-0.15631511273596352	-0.0036489664246822117	0.037760897584900144	0.053765828935794055	-0.0049128454400083205	0.14353195418688564	-0.2075913632224633	0.024544934873529392	-0.05339326653012827	0.02159511644096038	-0.08593936111418601	0.0903425521472858	-0.02903334525701222	-0.008867573703683133	0.02130342638660577	-0.044919172398395955	0.09451209062307009	0.009876485404888162	-0.10008417936700469	-0.0021274924496760676	0.04568264858678919	0.08313665479891323	0.03867885463468591	-0.020316051082383154	0.031653827160930716	0.03013320210160226	0.05775797910889447	-0.05241933143779207	-0.07590404849734095	-0.030000918892589445	-0.04986412242793968	-0.1116815675759551	0.0030675329788243146	-0.016818093495906884	0.042222172930002654	-0.049969100944623805	0.04355123575804968	0.06772046258437138	-0.013471694130314503	-0.17993828598386957	0.004496235822242252	0.04133093525095725	0.07527979207705869	-0.08909827123401878	0.04209082264967751	0.06393191184918072	0.03051325986512988	0.020564235702872132	-0.1007319153272004	0.031236440596375054	0.006492197806737116	0.1278162623720935	0.012839280294536497	0.05798186915419597	-0.007909236431751489	0.063052469986763	0.010064362441665167	0.12583287470835197	0.013911418618165118	0.03575504220409326	0.11491338993781901	-0.014370274835653339	-0.09005306134968695	-0.04522725752137838	0.08930365854420609	-0.12422171901262936	-0.11743506883125619	0.019591823745526152	0.024980501568721645	0.0426969629049694	-0.1611981564945303	0.08472968056861864	-0.0584813103863516	-0.037535827691365244	0.02287437168166579	-0.013240488086914718	-0.053320493802057486	0.013469701117212648	0.1069937210392565	-0.08890852719989678	0.019553490857487265	0.0999606655164148	0.04460421763297418	-0.025005023445200353	-0.06337232684025677	-0.0628929199359841	-0.04840328125733341	0.054332868714988325	-0.028369627900265548	0.028606447074403494	-4.865291933360732E-4	0.07173627387688006	-0.07610527842483635	-0.12617390231784764	-0.045969277173117204	0.0012623860865521746	-0.07407108762393623	-0.11991522353315168	0.06882067424701722	-0.059112467216291036	0.12667827400421622	-0.0595176197441191	-0.029908320672722324	-0.08420956978941642	0.016928411908792115	0.04268714292775088	-0.015351721549693423	-0.028041507888430378	-0.05282380997694184	-0.12032004374068704	-0.09348111985833027	0.034150631490198306	0.057603057031272775	0.16232177617915494	0.015142100960625373	0.05350011126193954	-0.06660586576702823	0.08830208282069146	0.1497541473523704	-0.003830097269871614	-0.027613819401721775	0.04530106039528803	0.11433400192687056	-0.17273728165484006	0.00872800777686227	
20	4	0.0	0.0	0.0	0.0	0.0	0.0	0.0	0.0	0.0	0.0	0.0	0.0	0.0	0.0	0.0	0.0	0.0	0.0	0.0	0.0	0.0	0.0	0.0	0.0	0.0	0.0	0.0	0.0	0.0	0.0	0.0	0.0	0.0	0.0	0.0	0.0	0.0	0.0	0.0	0.0	0.0	0.0	0.0	0.0	0.0	0.0	0.0	0.0	0.0	0.0	0.0	0.0	0.0	0.0	0.0	0.0	0.0	0.0	0.0	0.0	0.0	0.0	0.0	0.0	0.0	0.0	0.0	0.0	0.0	0.0	0.0	0.0	0.0	0.0	0.0	0.0	0.0	0.0	0.0	0.0	0.0	0.0	0.0	0.0	0.0	0.0	0.0	0.0	0.0	0.0	0.0	0.0	0.0	0.0	0.0	0.0	0.0	0.0	0.0	0.0	0.0	0.0	0.0	0.0	0.0	0.0	0.0	0.0	0.0	0.0	0.0	0.0	0.0	0.0	0.0	0.0	0.0	0.0	0.0	0.0	0.0	0.0	0.0	0.0	0.0	0.0	0.0	0.0	0.0	0.0	0.0	0.0	0.0	0.0	0.0	0.0	0.0	0.0	0.0	0.0	0.0	0.0	0.0	0.0	0.0	0.0	0.0	0.0	0.0	0.0	0.0	0.0	0.0	0.0	0.0	0.0	0.0	0.0	0.0	0.0	0.0	0.0	0.0	0.0	0.0	0.0	0.0	0.0	0.0	0.0	0.0	0.0	0.0	0.0	0.0	0.0	0.0	0.0	0.0	0.0	0.0	0.0	0.0	0.0	0.0	0.0	0.0	0.0	0.0	0.0	0.0	0.0	0.0	0.0	0.0	0.0	0.0	0.0	0.0	0.0	
21	2	-0.06230917207292384	-0.019806639716342993	0.023361428668687394	-0.07551893567902437	-0.08581792257833137	0.16492486451315172	-0.016053690873966034	-0.010952325739427202	-0.05769355916567318	0.1646091936605986	0.039257743028360235	-0.12044737910904366	-0.019035105363432583	0.07655008390287771	0.027216704097896366	-0.00804941463743417	0.06414893453886551	0.05108103354655446	0.056363756808069695	0.01412807558283414	0.06372293086176183	-0.0012035755284432	-0.03638316426590009	-0.0277078967533111	-0.07622164198221948	0.13155692914502012	-0.026557640919580985	-0.04987166990309245	0.03427625008485523	-0.02385964657315745	-0.056355131079020286	0.12746502656410616	-0.009796978642043094	0.027805594858943825	-0.14088787070078332	-0.05889354560645552	-0.07745357627689471	-0.0261307634098991	-0.07657674026818384	-0.12591629019656692	0.10380376429106815	-0.06056226818157563	-0.0019349561019261943	0.07989480804088012	0.06570781248839183	0.10746872921557225	0.058112848425030485	0.018958219247617113	-0.1082084657628751	0.01825001531372506	0.010309049082386753	-0.10226542414313887	0.037390848603637214	-0.041601194846219616	0.006176103494865646	0.13430512760550078	-0.03394115522079329	0.0014049831029943525	0.05921300009776522	0.015299047400268734	0.024494839915334212	0.08017097085102178	-0.10528202529190818	0.10037810409902911	-0.04373218596989751	0.04615157601561377	0.03926247609318825	0.028423132182005886	-0.07281754380866104	-0.12268632602839968	-0.06755063090364602	-0.0568436327398185	0.01810673424442492	-0.012133160821806804	-0.08688502571295816	0.07703989851551102	0.0025335750897807477	0.0290447210661256	-0.030684622253109067	0.021323262444825075	-0.05900905845112537	0.14646106204406895	0.0061370288627860085	0.06172129314175439	0.027713181583467753	0.08769282238612158	-0.039818812809504556	0.07945866566897493	-0.006102294923527058	0.01539104235585015	0.0959779368214975	-0.13030959937469247	0.045249208433844064	0.20261476885640128	-0.03889634114125604	-0.032837510487296225	-5.185993116176719E-4	-0.057095385399909805	-0.05589927619225549	0.00606625740739175	-0.041427451892064523	-0.06879027299660623	-0.03780255803036493	0.06331779828782334	0.060505617786506906	0.08771533461017234	0.09972830381559883	-0.05713594401471689	0.045409149001667024	-0.005541451299995446	0.07148503367365366	-0.09395815510142039	-0.005434204574552777	0.13318015660523724	0.11095153051212997	-0.02397908574890617	-0.08345217399061679	-0.04336798056898741	0.09247959527475008	0.057804446848466036	-0.04817921003924642	-0.02729499310201618	0.04316788419483766	0.09556204267597268	-0.02234347476256898	-0.03232064201416487	-0.09626244602311153	0.023001094204354373	-0.08988820402004147	0.003132180886954865	-0.07579859252767279	0.018845813657676274	-0.07610266786594477	-0.022435875765030266	-0.010305668187326823	-0.0695949460314615	0.06701810687987124	0.066573525118037	0.010903099382590755	-0.011575001373415938	0.09696085694820483	0.0035112446860237514	0.017594856788511498	-0.017880839068715227	-0.010921024528001755	0.1427435670949767	-0.04883408695557426	-0.004780925130020974	0.09905113564018732	-0.01000617185798025	-0.03663017050801655	-0.016939320543523286	0.07293750352434904	0.0034729042363646455	0.10783357854771561	0.0017014380548616983	-0.033287247373524356	0.009083326255324093	0.07081678741563983	0.06342960537493943	0.06506774911874567	0.03815533913404677	-0.05598932896413392	0.10105416581030029	-0.01940927156834393	0.04859243056143144	-0.0506041065228533	0.12151605040910038	0.12999864204472644	0.057539380036888736	0.061681426569228474	0.0666694803431228	0.09260274304894073	0.020261304347637656	0.08687176833522037	-0.18272689358726704	0.02070141056908847	0.04646026710203268	0.03280019129413064	0.03960796197935043	3.6299497107844146E-4	0.05185300073548134	-6.84361330942213E-4	0.09141400933788008	0.03264755061053021	0.08627706181917505	-0.033237234312158526	-0.06857603682058214	-0.1934082510916026	0.09169923135785134	-0.04181109195260843	0.02202968772762142	-0.1539766577709544	-0.14675601521120032	-0.02191004151200441	-0.018115556962640948	0.017754342569450212	-0.042558971155648766	0.08501930277608866	-0.07632570923184918	
22	5	0.09637701137998901	-0.010591500589426426	-0.039402301974471664	0.1318701809115489	0.10171883740232619	-0.015164935028723008	3.196101372330374E-4	0.06124718948531424	0.05926324729885221	-0.146258131430925	-0.09792419663878804	0.02987426773372746	0.0838290034565713	-6.056418695229904E-4	-0.024525911094603683	-0.04146320941927623	-0.081054600095197	-0.05196670213424368	-0.13034651298148087	-0.07145360532433234	0.051867051401205205	0.10578066554384241	0.012983803441401319	-0.008972487057901187	0.012596624985776449	-0.004759988544230896	0.10383911674679816	-0.026640147363363814	0.05157328266689711	0.01811261798155025	-0.0337916582519841	9.339894012477817E-4	0.05616541842051004	-0.08255946486074883	-0.005282137659808293	0.07151023331781733	0.04661688935713846	0.0841631537675161	0.007703603273451401	0.09332377853924508	-0.027717080520475067	0.13350503477426087	0.02076780839936479	-0.005568497363765132	-0.07104306010863905	-0.16818259233588426	0.1543200411037714	0.0036376468651663526	0.15194313873844234	-0.05183736036277385	0.12842407088444843	0.15601878328727364	0.03192513722808164	0.051565492816187164	0.028085837336122053	-0.02909550999529429	-0.10524176702689711	-0.07211016592591918	-0.06357945301712783	0.0454347188916359	0.04799610632280961	-0.039635979081032474	-0.026365540847628776	-0.03273911780725205	0.06302628346588367	0.1436366703432358	0.0721152003101831	-0.07906174278387539	0.003586931396371607	0.07486188524210377	0.164371831711833	0.027470955604165608	0.03898351652627196	-0.012608092891268555	0.02999057640622995	0.13158046491756653	-0.12047127070601336	-0.053307513962919925	0.06858382985151001	-0.04829742997187677	0.021974006189781438	-0.04087017344247652	0.006549675106956156	0.0045093054276932965	0.015546682519676742	-0.013434282389548862	0.05832135166346235	0.03809627995886678	0.03618989054385789	-0.06501131019981748	-0.03978216942605841	0.0806189983772551	-0.011444525048304083	-0.06017847579439324	0.02339148911286677	-0.004875806091164283	-0.04633314102218585	0.12415589803202845	0.12644121323001378	0.024495137245936244	-0.06648667023493168	-0.0661700126195647	-0.024442841348196125	-0.04344902919255698	-0.12596348063660134	-0.028196396575525952	-0.021397370963512706	0.01977979775809087	0.05518860078016199	0.06926123960605407	-0.042889326139142814	-0.11760346572205292	-0.08296656445476945	-0.16718250810856883	0.10242903923627653	0.12381464827119619	0.07163856969590052	-0.031743910778059374	-0.04838383935937528	-0.040525477743412114	0.011075819177655875	0.08823659583251081	0.05117229822078897	0.13282636381905383	-0.06287718917121608	-0.10262869032792553	-0.04442323839985673	-0.00495298600760595	0.12400090370762425	-0.03496490946177137	-0.013462795919566001	0.031002350463965798	-0.026186622186292023	-0.04171633466389265	-0.007254198244863951	-0.048818113335586326	-0.009184994280646284	0.0030564259876059707	0.025700990913580316	-0.09244052137978898	-0.09374436579719232	0.04449141781862647	0.04835176274513591	-0.009975824064551804	0.023048496421936546	0.08261662392601006	0.00544065287075536	0.021417254464036615	0.01016327074416254	0.045479284401035595	0.11343612304879665	0.06659164583737787	-0.03818527780312567	-0.01874579228713388	-0.07659227182030935	-0.0632623693758497	-0.04671537921193112	-0.029169458049717503	0.017936201049078577	0.052738231537494684	-0.026837271246674857	0.015738567840583247	0.06648285631292959	-0.014805166148689559	-0.05088600267570223	0.027646279826953477	-0.022188032124506887	-0.11362939391080447	0.0037794536005848803	0.009895047201808869	-0.04717240845159156	0.051402235074823756	-7.732561794068489E-4	-0.06843729169417892	-0.15032108476622205	0.1104274921308562	0.05527157391987865	-0.040022518405379195	0.09859710875873456	-4.395203740444805E-4	0.06192665179643324	-0.09410453073932207	0.08877606104558361	-0.03926991908888537	0.061432347775099115	-0.024758213586690298	0.009030158618855672	0.11286666184874096	0.04970903935343237	-0.10300214601544412	0.06950710544269294	-0.031136206263757172	-0.07256957975205267	-0.07730074313207341	0.008902256286739681	0.10437173722558157	-0.03229468043403853	-0.10377336694354711	-0.0919834501172353	0.16976513843381352	
25	4	-0.09020049752863811	-0.013318334268835219	0.058450402610610276	-0.06707111479984249	-0.011569394899777118	0.011721460028524082	-0.017383621106287786	-0.006526166964321964	0.2031190915813193	0.19925610696052096	-0.0014020479059212855	-0.03256240981944593	-0.08017004287685472	0.04240339313724752	-0.053058819490079505	-0.005848537548716387	0.027042705228160113	-0.024380554425908536	-0.04506805228669623	0.009390239840426853	0.017245304132625063	-0.10521251576583496	0.05794484280209312	0.00847598321632887	0.036434176784496085	-0.15478390583703847	0.05371939043464897	-0.0024651262041508306	-0.049275800228251725	-0.08772315813934439	0.09414115638412003	0.03924308526192922	-0.060598900520515024	0.06994348371404155	0.054917962931861346	0.019037425523884575	0.06809697148207926	0.09302144609132744	0.004505835379870332	0.09358970639520077	-0.005604991908120643	-0.009666509888434973	-0.08519012096043715	-0.048204913910909634	0.05581073643860805	0.10281289568709796	0.02379562186082504	-0.01945808266710218	0.11735006834034938	-0.08057413464549476	0.04383482388935595	-0.09184139651636011	0.0029894934228838726	0.14349117227973004	-0.024149484175449255	-0.01293940849679229	0.05452625195965918	-0.03190438337768024	0.08991343933906676	-0.1612425501059999	-0.062303992282127414	-0.0889988577167176	-0.006871043467322086	0.06369510502617633	-0.1662171373360391	-0.023309218180417302	-0.019788335896371773	0.0670870059414917	0.0808929898714885	-0.05292193313727612	-0.08399499801961842	-0.046018724287299334	0.07925889035905212	-0.028500222742516335	0.05246636340166317	-0.023983059353268738	-0.04169160569786511	0.01143817940998227	-0.04388106147533504	0.08875959471892376	0.009107177996964184	-0.1106289826578575	0.08476932540087954	5.935704252001843E-4	-0.01803681150200874	-0.005370513910178106	0.04248714605085648	0.05969359110491904	0.05298322695351976	0.04722563183881468	0.019103210685939124	-0.038945972607835416	0.13519936498794594	-0.040626294902921696	0.06751733563606932	0.05034472273134228	0.02436734968098264	-0.06348142959262255	-0.038805878664366675	0.08015372874245327	-0.00925999007643802	-0.0012602305817220067	-0.11278011374575427	-0.1357373343887276	0.05836856029003253	0.013520156517931757	0.028862480973832844	0.009241409786510007	0.018809627998969028	0.10904071165736026	0.06819065925728927	0.019764489106351348	0.06407839352435431	0.10514435845801878	-0.14521023055206314	0.06121052588907973	-0.016174317287811088	0.059411528366222155	-0.07600641976709628	0.015630609080564663	0.04019735963471088	0.1312311452122797	0.06175910393080794	-0.03251073967765971	0.03430503673380387	0.030556778138445307	-0.0036598707004581433	-0.03620920545109222	7.53443298906077E-4	0.10106255257442637	0.07462135066445584	0.001579908838378082	0.09800367227031705	-0.06383944304244209	0.040373114815218346	0.12972280747424333	0.09623934848279822	-0.040002609975305824	0.06368014928847829	0.00995119622995864	-0.026634044922246157	-0.05117245746767894	-0.018876268857578746	-0.024846365126384086	0.049092407397512375	-0.2095141569249583	-0.09398104573694763	-0.17601487697860857	0.09127355383071412	-0.012845331796582447	-0.015452917787283381	-0.07250010388568641	0.06523577408398225	0.07054148551344996	-0.03535890632674325	-0.04390464769670035	0.09564032881346436	0.11709973059664279	0.03748346868545139	-0.06242143925435046	-0.032329112062980093	0.06279306255752826	0.08208772454405373	0.09164816432467578	0.09537015057216201	0.08388441707498537	-0.019284368094018872	0.08174324803548484	-0.011398231360472938	0.06141200726605997	0.155084162208782	-0.05345636232646125	-0.06443030595918427	0.07052777031996141	-0.04922631279824444	-0.014254161607381608	0.03842680939757263	0.0869070224431559	-0.053104708568305084	-0.015503537773870976	-0.047661469217914976	-0.04765329816975433	-0.1022759705372585	-0.009925480961715546	-0.0943723790666299	-0.053974370051366294	0.04720104008007843	-0.04587810306003711	-0.08718433822941318	-0.0032926699577564573	-0.02584626121675561	0.020376817066355597	-0.10446989621815465	0.06571844877433233	-0.08533121269104058	-0.03580176144890402	0.04932383976561374	0.012717179610936293	-0.10575398956886599	-0.005338647377340751	
27	3	-0.07171394897232958	0.04338360972788593	-0.007987133220395213	-0.11507847207560859	0.06213918594519545	-0.05248116931509591	-0.1215840365598839	-0.03978242539154928	-0.07646967053020351	-0.008144973260532047	0.07907723218370209	-0.06402040259461106	0.015715674823394463	0.051739095364160964	0.02211781808468736	0.010523181858005796	-0.08155373077977533	0.058839272759044735	-0.1145792379209479	0.04867447796307483	-0.025457829201966393	0.07915206329931192	-0.04176316639468016	-0.044768087568511125	-0.11077167529922803	-0.01181505919429452	-0.05374676930695027	0.1358628691942834	0.07622948432609684	0.03185568534022863	-0.15672576611577996	0.03344308700675941	0.1483798310775745	0.0018863121874809902	0.04450885545370528	0.10495040579322605	0.017468397136834634	-0.04143906726485078	0.0114643894873749	0.04644623097426093	-0.11720584834443448	-0.09742078070717398	0.08133925890024626	-0.021951944075665527	-0.06955625973973455	-0.0673906802392256	-0.030308538118638574	0.07457765526078435	0.051073008429140844	0.06380433132096616	0.004509942473671247	0.03389630898146143	0.04874853913468001	-0.07536788794481168	0.09474264773223995	0.06458219838549557	0.036625528126546646	0.15040802509908097	-0.008625009807827459	0.0679977695887546	-0.045021046451492776	-0.050178347270721096	0.1567265127638069	-0.09263623442862007	0.12865433844032198	0.10130429452955163	0.04291159923386579	-0.06852929568469751	-0.09440922224152176	-0.022271453599048703	-0.04690075025157143	0.03211095708406067	0.05435955985515768	0.01758454378963501	0.009132206551743079	0.054614119788444326	0.024412779801452206	-0.07620786308211591	-0.113465576045721	-0.0013752893376345727	-0.02054153396516625	0.05129779696514533	0.1313900420270615	-0.04454970413744054	-0.022231657829869758	0.007787755534576588	-0.1268642175182468	-0.0676125418155575	-0.08334263942278462	0.015331579069319796	-0.05064846493478504	-0.031641654029662805	-0.01326454080377059	1.8386256428070124E-4	0.09370063708654658	0.02052002271398876	1.9991947987710705E-4	-0.027882740541518087	0.013281530036473229	-0.14026680876046435	0.14018826592527536	0.12627916176253756	0.052716503584782415	0.11581394548139813	0.11677896982679312	0.05792983673808319	-0.0192340262057336	-0.10506754299829621	-0.01948679647752041	-0.042755040719333434	-0.011929160769001513	0.08346762740708467	0.06831035914994221	-0.06250428571113859	0.13251885038635386	-0.007127895930239005	-0.09835304271741659	-0.019936320921793736	0.08774601397756858	-0.05058407140674792	-0.142974748981267	-0.0021272558833084925	-0.039211385616644466	-0.0226295263914626	0.024690975201714104	0.052250658415095394	0.013449952828973	0.05589811111434443	-0.0014160507212973715	-0.05488352673427297	0.05601683474396329	-0.01914593903536494	-0.05669893224456714	0.0016138079159638238	0.01920521740169661	-0.1062126288863975	0.017321078940374823	0.015925705454860894	0.013824784977613717	-0.14518872448463332	-0.011085638707104932	0.08920725243918583	-0.07391416169170914	0.031245095073778168	0.011750924087247504	0.10912468200006685	-0.008150945925889148	0.12215078320556547	-0.03577999364155867	0.014359758785377595	-0.007870340056934577	0.03373991220728199	-0.13335504553674601	-0.16190002529317138	0.05770973142137571	0.1150596457659919	-0.16417418776721443	-0.006564000473458984	-0.019269099631278812	-0.09669659526853192	-0.02733815710773574	-0.05780967207820866	-0.03877747587553297	-0.030118738867947012	-0.008646766724771559	-0.03400744947408712	-0.06010101555696082	-0.033944650721573336	0.06755493183193223	-0.0809865942172549	-0.06611814559413884	0.09894016769128627	0.08815763468900878	3.0567969465707145E-4	-0.033466844346922	-0.011071362971275785	0.06320655753029154	-0.0032883695355084694	0.055392671870480276	-0.09024072485717599	-0.0028947036616148573	-0.0855067216313059	-0.05766594142064916	-0.023424790810108675	0.15906934267681103	0.012675071149926075	-0.02527374481576306	-0.042214275653919595	0.026270041230089233	-0.0730732094059581	0.02522489172691341	-0.02729049825975878	0.0864348837166506	0.022005466462971038	-0.004987421324104056	-0.08228025019812214	-0.09225035049186121	0.04638693470896308	0.05665080663998528	0.10269322009365922	
30	6	0.08677681543151845	-0.050436969722762286	-0.0037904078856845808	-0.03348846725102911	-0.12118616517494353	0.07200992937728222	0.16349814178177452	0.01097854790317871	-0.059151463129233736	-0.018465310890655763	-0.06449779867553397	-0.0480591412159852	-0.06589619387362174	-0.018023879453693572	0.05947360499815704	0.006516155640704403	0.08264710901621372	-0.1129313390272429	0.1357393722130729	-0.07935459241138024	0.07589949502053887	-0.054407717488750916	-0.03789424780928156	1.801631021655403E-4	-0.004136274425267326	0.09441286626959518	-0.021019866695265007	-0.07590300486685954	0.0013050520395247987	0.07121952306686333	0.0528207344414573	0.03035817146378057	-0.10492057448328716	-0.03241181055882377	-0.18575883299696178	-0.1287923912977831	-0.07268942270368196	0.015612382581394349	-0.1130797321637406	-0.0680332607325268	0.07703087868074554	0.0649710186201588	-0.045738980471417605	0.012182186303622283	0.08519085448451406	0.028397145193998392	-0.004754984454815406	-0.09296483401738201	-0.09790623887786473	-4.3176666614214436E-4	0.03230147314970572	-0.08699695907849161	-0.05364950926708957	-0.05623072187079182	0.09184035101175038	0.02042430793611224	-0.028105959657733093	-0.016787358195711168	-0.04208096808788108	0.032430238960312795	0.05505947667914286	0.032969414504081695	-0.17360873385565653	0.06020001634806187	-0.049394290004866774	-0.08599111644728406	0.028144577379073676	-0.0740718888663547	0.05895037003097648	0.007445029505936066	0.08808509142571273	-0.026413234090057695	-0.008252611420221614	-0.026596600341171818	-0.06635723052030897	0.03182357504926428	-0.03747691135108928	0.029741734822299852	0.06337526437510425	-0.049758080800375123	-0.11794264167125457	0.10184636515592514	-0.1953765870195482	0.05514229980897841	-0.01951555767064116	0.032011966259410524	0.013078966817667674	0.021627580633349394	0.0641020513675525	-0.025236823903491343	0.06802036169075869	0.019716929769003272	-0.041102967602708894	-0.01665471250208	-0.09106024395197636	-0.12441707177422781	-0.05913854765658676	0.017000741760713912	0.03474990843941024	0.09947356580168794	-0.12421898152350522	-0.11622430302944099	0.06019734620275361	-1.3229536288284898E-4	-0.11943730016781101	-0.07750845734906185	0.0603243495671878	0.06932674753934236	-0.01003414204949512	0.011876843581268774	0.004184938445572454	-0.11508011271758337	-0.1370472799068824	0.016547560031712018	0.11382328008757074	-0.025310049525181153	0.08846556199992896	-0.03366564809541054	-0.04113982985861043	-0.05964636449374531	0.08167455794241467	-0.08050212227348387	-0.07199387862832293	0.0971525623033152	-0.08706480003441036	-0.07617396279839811	-0.10302725199916628	-0.0410180060927671	-0.07506194300367106	0.018101599237787386	-0.11750056100151708	-9.586264422369059E-4	-0.06169269520504678	0.006352212917618529	-0.03173546968613599	-0.016078461693137352	-0.0764404129139014	0.08299756593102028	0.02842728907861362	0.07079487701692355	0.08404587593260016	0.028585642997648215	0.004964955478609755	0.015475120717272662	-0.06804895181363575	0.10007321050609685	-0.057518471523369405	-0.012838390880427765	0.005379431328984042	-0.03377074961382279	0.028654904063863448	0.0516659111633485	0.12413209385685668	2.88674063700214E-4	-0.01909165165536201	-0.08224304577541036	0.022157837653334487	-0.09320114382437257	-0.041718718881833046	0.17092466557895733	0.08753039289355166	-0.007571549948120507	-0.05203295548867504	0.00847332819446546	-0.05162504236692079	-0.002199065616746958	0.020519771615001188	0.020227280079800264	0.016162174509255486	0.0679136572587191	-0.03953753951049979	-0.03619574174940186	0.048125607806817725	-0.1065935486076082	0.06814568712836652	-0.05969737845356585	-4.0111858535056235E-4	0.06263193858845582	0.00556392682268224	0.03563316603058081	-0.017825279935654113	0.11212136213409687	0.0698554807293009	0.05011171520710606	-0.005510521204985647	0.07519348749029853	-0.04057201591450993	0.0196435369285017	-0.11241981404211904	0.07300101870955378	-0.02079943379189479	-0.0023786468447123048	-0.051975570898728674	-0.12468389124806306	0.0681731275686741	0.09180196981348468	0.01743412765989062	-0.14097537486773093	0.17550561779540733	-0.06598852077064327	
37	2	-0.09637701137998897	0.010591500589426433	0.039402301974471664	-0.13187018091154887	-0.10171883740232618	0.015164935028723023	-3.1961013723303674E-4	-0.06124718948531423	-0.05926324729885219	0.146258131430925	0.09792419663878803	-0.029874267733727453	-0.08382900345657125	6.056418695229834E-4	0.024525911094603666	0.04146320941927622	0.08105460009519701	0.0519667021342437	0.13034651298148084	0.07145360532433233	-0.051867051401205205	-0.10578066554384241	-0.012983803441401315	0.008972487057901192	-0.012596624985776413	0.004759988544230897	-0.10383911674679817	0.026640147363363786	-0.051573282666897105	-0.018112617981550273	0.03379165825198411	-9.339894012477816E-4	-0.05616541842051004	0.08255946486074883	0.005282137659808282	-0.07151023331781732	-0.04661688935713846	-0.08416315376751608	-0.00770360327345138	-0.09332377853924508	0.027717080520475085	-0.13350503477426084	-0.02076780839936479	0.005568497363765132	0.07104306010863905	0.16818259233588426	-0.15432004110377134	-0.0036376468651663435	-0.15194313873844234	0.051837360362773845	-0.1284240708844484	-0.15601878328727362	-0.031925137228081636	-0.051565492816187136	-0.028085837336122074	0.029095509995294293	0.1052417670268971	0.07211016592591912	0.06357945301712783	-0.0454347188916359	-0.04799610632280959	0.03963597908103247	0.026365540847628766	0.032739117807252055	-0.0630262834658837	-0.1436366703432358	-0.0721152003101831	0.07906174278387539	-0.003586931396371607	-0.07486188524210378	-0.16437183171183295	-0.02747095560416561	-0.038983516526271966	0.012608092891268545	-0.029990576406229957	-0.1315804649175665	0.12047127070601335	0.05330751396291992	-0.06858382985150996	0.04829742997187676	-0.021974006189781427	0.040870173442476496	-0.0065496751069561545	-0.004509305427693295	-0.015546682519676731	0.01343428238954886	-0.058321351663462355	-0.038096279958866754	-0.036189890543857885	0.06501131019981747	0.03978216942605841	-0.08061899837725509	0.011444525048304089	0.06017847579439325	-0.023391489112866773	0.004875806091164287	0.046333141022185866	-0.12415589803202842	-0.12644121323001375	-0.02449513724593623	0.06648667023493166	0.06617001261956469	0.024442841348196083	0.04344902919255697	0.12596348063660132	0.02819639657552596	0.0213973709635127	-0.01977979775809088	-0.055188600780161974	-0.06926123960605404	0.04288932613914281	0.1176034657220529	0.08296656445476945	0.16718250810856883	-0.10242903923627654	-0.12381464827119616	-0.07163856969590048	0.03174391077805939	0.04838383935937526	0.040525477743412155	-0.011075819177655868	-0.08823659583251078	-0.05117229822078897	-0.13282636381905383	0.06287718917121608	0.10262869032792553	0.04442323839985672	0.004952986007605953	-0.12400090370762422	0.03496490946177136	0.013462795919565998	-0.031002350463965784	0.026186622186292037	0.04171633466389263	0.007254198244863964	0.04881811333558632	0.009184994280646291	-0.003056425987605971	-0.025700990913580312	0.09244052137978899	0.09374436579719231	-0.04449141781862646	-0.04835176274513588	0.0099758240645518	-0.023048496421936536	-0.08261662392601005	-0.005440652870755352	-0.02141725446403663	-0.010163270744162513	-0.04547928440103558	-0.11343612304879663	-0.06659164583737788	0.038185277803125674	0.018745792287133904	0.07659227182030934	0.06326236937584968	0.04671537921193112	0.029169458049717503	-0.01793620104907856	-0.05273823153749466	0.026837271246674854	-0.01573856784058325	-0.06648285631292958	0.014805166148689573	0.05088600267570223	-0.02764627982695346	0.02218803212450689	0.11362939391080445	-0.0037794536005848777	-0.009895047201808865	0.04717240845159158	-0.051402235074823735	7.73256179406847E-4	0.06843729169417892	0.150321084766222	-0.1104274921308562	-0.05527157391987865	0.0400225184053792	-0.09859710875873455	4.3952037404451844E-4	-0.06192665179643322	0.09410453073932207	-0.08877606104558358	0.039269919088885365	-0.061432347775099115	0.02475821358669029	-0.00903015861885567	-0.11286666184874093	-0.04970903935343236	0.10300214601544411	-0.06950710544269294	0.03113620626375716	0.07256957975205262	0.0773007431320734	-0.008902256286739687	-0.10437173722558155	0.03229468043403853	0.1037733669435471	0.09198345011723529	-0.16976513843381355	
38	5	0.09640960595492601	-0.01066378106158074	-0.039348391344061276	0.1318952508387123	0.10163932909490843	-0.015130452438248582	4.082665366871982E-4	0.06117994696041074	0.05922299494768644	-0.14623384828165464	-0.09794937175123619	0.02987402254265033	0.0839075352790809	-5.766172889067251E-4	-0.024487163357558163	-0.041421438341234545	-0.08104056554461808	-0.05195957311047661	-0.130355005897694	-0.07144794630326404	0.0519085211701614	0.1057635666538517	0.013016109610026742	-0.009003976444714758	0.012596648058926994	-0.004726832146326179	0.1038709233344778	-0.026613505628552768	0.051556246077402924	0.018035069244872234	-0.033817882364717486	9.469881694010566E-4	0.05613005908420523	-0.08257988522090738	-0.005328094346641313	0.07164626422381937	0.046597579042185706	0.08415916231846934	0.0077648502348366955	0.09326534908163124	-0.027696982910766953	0.1335013588704415	0.02073714071385418	-0.00554702461038584	-0.0710092327341393	-0.1681532010116597	0.15432363754465975	0.003650109066808166	0.15191370221914244	-0.051837580726778666	0.12841107125863027	0.15607777161150385	0.031953322244870054	0.05154875828404539	0.02809984945651943	-0.029074526460116205	-0.1053012336067821	-0.07210850439757795	-0.06354900177438445	0.045461060588850376	0.048032509846901536	-0.03963177500092665	-0.026365056580732328	-0.03270859549734309	0.06302802127955474	0.1435152693041441	0.07216727745476945	-0.07900154151115796	0.003581100477562336	0.0748449240069928	0.16434884884491643	0.027505798583425122	0.038915726492945606	-0.012621965663185273	0.029934108616077322	0.1315554188650506	-0.1205008006511361	-0.053237316135144055	0.06854758745003682	-0.04827250769153928	0.02201877299137348	-0.040904038221813696	0.006533637570462808	0.004512433962921159	0.015514072013112154	-0.013449441233243152	0.05834043679764975	0.03810142819213249	0.03616042577294274	-0.0649552691739853	-0.03972132000960717	0.08063113128626383	-0.011487417454433048	-0.06019992753365896	0.023316747027503006	-0.004814175733895568	-0.04633360100895374	0.12415702533082411	0.12644155735943766	0.024498174819613822	-0.06646753130357418	-0.06621815511509187	-0.024440270882046086	-0.04338014947949888	-0.1259653139629825	-0.028153452634011797	-0.021376899308272204	0.01981688234441601	0.05516677557521488	0.06921453030896145	-0.04284458608152035	-0.11759503915189404	-0.08298458604816814	-0.1672120225412668	0.1024612272094242	0.12376040827409543	0.07165190913544066	-0.031779001628346425	-0.04840587315854108	-0.04058357774794275	0.011123800946327207	0.08830178509719547	0.05119174479471356	0.13288422825821433	-0.06295768947558335	-0.10267151161486464	-0.04440917735553629	-0.004936691257585363	0.12400832802263545	-0.03500399230703317	-0.013431471045225603	0.03101472897355002	-0.026195389620386665	-0.041679682468257914	-0.00724732550398809	-0.04886671461731708	-0.009132427068234987	0.00314023172667227	0.02568105861096696	-0.09241480397750408	-0.09364550301936402	0.04455913090935604	0.048368626556009826	-0.009877209418063946	0.02305600300926989	0.08262820187183871	0.005433775252856599	0.02147756685213468	0.01014163478481765	0.04550815396557247	0.113422275792461	0.06654235730211934	-0.03821917123982072	-0.01871882410292807	-0.07661049877589401	-0.06322761122447508	-0.04674546550082838	-0.02919857225854672	0.017991055304740024	0.05274299223401538	-0.02677812575846488	0.01569120585567152	0.06647268718232002	-0.014830967425729265	-0.05091307743264016	0.027646687004041454	-0.022178863596862722	-0.11358642416319445	0.0037689017402244575	0.009893584478017897	-0.04718355609998059	0.05140675145077807	-6.789101957871648E-4	-0.0684503821911328	-0.1503104480692148	0.11040107656523673	0.05533461015040954	-0.040041470315578406	0.09865093161949207	-4.636566660213971E-4	0.061957274245628156	-0.09407259217243723	0.08879451955698263	-0.03927671412316083	0.061467841997540726	-0.02470729954648124	0.00904888176257758	0.11287120136415119	0.04959837755388599	-0.10302139347627222	0.06957106497605785	-0.031073783616645208	-0.07260114623199604	-0.07735139043512469	0.008909321220516393	0.10442488528895322	-0.03232223941704239	-0.10382045862953962	-0.0919967797713326	0.169761011391984	
39	2	-0.062309172072923774	-0.01980663971634301	0.023361428668687362	-0.07551893567902426	-0.08581792257833132	0.1649248645131518	-0.01605369087396604	-0.01095232573942715	-0.057693559165673154	0.1646091936605985	0.03925774302836016	-0.1204473791090437	-0.019035105363432506	0.07655008390287774	0.027216704097896352	-0.008049414637434214	0.06414893453886546	0.05108103354655443	0.056363756808069584	0.014128075582834073	0.06372293086176191	-0.0012035755284430976	-0.03638316426590008	-0.027707896753311125	-0.0762216419822195	0.13155692914502018	-0.026557640919580898	-0.0498716699030925	0.034276250084855305	-0.02385964657315744	-0.056355131079020335	0.12746502656410622	-0.009796978642043042	0.027805594858943756	-0.1408878707007834	-0.05889354560645548	-0.0774535762768947	-0.026130763409899022	-0.07657674026818387	-0.12591629019656692	0.10380376429106819	-0.06056226818157552	-0.001934956101926176	0.07989480804088016	0.0657078124883918	0.10746872921557216	0.058112848425030665	0.018958219247617127	-0.108208465762875	0.01825001531372502	0.010309049082386904	-0.10226542414313877	0.03739084860363727	-0.04160119484621959	0.006176103494865681	0.13430512760550084	-0.0339411552207934	0.0014049831029942837	0.05921300009776519	0.015299047400268792	0.024494839915334275	0.08017097085102179	-0.10528202529190826	0.10037810409902913	-0.04373218596989746	0.046151576015613954	0.039262476093188343	0.02842313218200582	-0.07281754380866107	-0.12268632602839966	-0.06755063090364588	-0.056843632739818496	0.01810673424442497	-0.012133160821806823	-0.08688502571295817	0.0770398985155112	0.002533575089780633	0.029044721066125562	-0.03068462225310901	0.021323262444825037	-0.05900905845112537	0.146461062044069	0.006137028862786018	0.061721293141754424	0.02771318158346779	0.08769282238612162	-0.03981881280950452	0.07945866566897501	-0.006102294923527025	0.015391042355850095	0.0959779368214975	-0.13030959937469247	0.04524920843384408	0.2026147688564013	-0.038896341141256036	-0.032837510487296245	-5.185993116177167E-4	-0.057095385399909715	-0.05589927619225539	0.006066257407391779	-0.04142745189206462	-0.06879027299660634	-0.037802558030364974	0.06331779828782334	0.06050561778650682	0.08771533461017234	0.09972830381559886	-0.0571359440147169	0.0454091490016671	-0.005541451299995375	0.07148503367365366	-0.09395815510142055	-0.0054342045745528625	0.13318015660523716	0.11095153051213012	-0.023979085748906052	-0.08345217399061675	-0.04336798056898746	0.09247959527475008	0.05780444684846602	-0.04817921003924644	-0.027294993102016104	0.04316788419483773	0.09556204267597287	-0.02234347476256905	-0.03232064201416498	-0.09626244602311164	0.02300109420435438	-0.08988820402004138	0.003132180886954829	-0.07579859252767285	0.01884581365767632	-0.07610266786594484	-0.022435875765030318	-0.010305668187326835	-0.06959494603146159	0.06701810687987127	0.06657352511803705	0.010903099382590787	-0.011575001373416032	0.09696085694820479	0.0035112446860237996	0.01759485678851155	-0.017880839068715248	-0.010921024528001737	0.14274356709497688	-0.04883408695557428	-0.004780925130020954	0.09905113564018739	-0.010006171857980209	-0.036630170508016445	-0.016939320543523227	0.07293750352434904	0.0034729042363646277	0.10783357854771558	0.0017014380548616352	-0.033287247373524426	0.009083326255324068	0.0708167874156399	0.06342960537493952	0.06506774911874569	0.0381553391340468	-0.05598932896413388	0.10105416581030033	-0.01940927156834399	0.0485924305614315	-0.05060410652285334	0.12151605040910034	0.1299986420447265	0.05753938003688878	0.06168142656922847	0.06666948034312288	0.09260274304894078	0.0202613043476376	0.08687176833522026	-0.18272689358726701	0.020701410569088537	0.04646026710203266	0.032800191294130754	0.03960796197935045	3.6299497107850884E-4	0.05185300073548126	-6.843613309421223E-4	0.09141400933788008	0.03264755061053028	0.08627706181917506	-0.03323723431215853	-0.06857603682058205	-0.19340825109160262	0.09169923135785127	-0.041811091952608376	0.0220296877276214	-0.15397665777095454	-0.1467560152112005	-0.021910041512004416	-0.018115556962640857	0.017754342569450188	-0.04255897115564889	0.0850193027760886	-0.07632570923184906	
40	4	0.0	0.0	0.0	0.0	0.0	0.0	0.0	0.0	0.0	0.0	0.0	0.0	0.0	0.0	0.0	0.0	0.0	0.0	0.0	0.0	0.0	0.0	0.0	0.0	0.0	0.0	0.0	0.0	0.0	0.0	0.0	0.0	0.0	0.0	0.0	0.0	0.0	0.0	0.0	0.0	0.0	0.0	0.0	0.0	0.0	0.0	0.0	0.0	0.0	0.0	0.0	0.0	0.0	0.0	0.0	0.0	0.0	0.0	0.0	0.0	0.0	0.0	0.0	0.0	0.0	0.0	0.0	0.0	0.0	0.0	0.0	0.0	0.0	0.0	0.0	0.0	0.0	0.0	0.0	0.0	0.0	0.0	0.0	0.0	0.0	0.0	0.0	0.0	0.0	0.0	0.0	0.0	0.0	0.0	0.0	0.0	0.0	0.0	0.0	0.0	0.0	0.0	0.0	0.0	0.0	0.0	0.0	0.0	0.0	0.0	0.0	0.0	0.0	0.0	0.0	0.0	0.0	0.0	0.0	0.0	0.0	0.0	0.0	0.0	0.0	0.0	0.0	0.0	0.0	0.0	0.0	0.0	0.0	0.0	0.0	0.0	0.0	0.0	0.0	0.0	0.0	0.0	0.0	0.0	0.0	0.0	0.0	0.0	0.0	0.0	0.0	0.0	0.0	0.0	0.0	0.0	0.0	0.0	0.0	0.0	0.0	0.0	0.0	0.0	0.0	0.0	0.0	0.0	0.0	0.0	0.0	0.0	0.0	0.0	0.0	0.0	0.0	0.0	0.0	0.0	0.0	0.0	0.0	0.0	0.0	0.0	0.0	0.0	0.0	0.0	0.0	0.0	0.0	0.0	0.0	0.0	0.0	0.0	0.0	0.0	
47	6	0.014892993079725572	-0.05378725174966319	0.006371149030128129	-0.07730048475844759	-0.12730346521640037	0.141124439553993	0.09244174788143901	0.006415248459600295	-0.015622037995056886	0.09333041622707675	-0.04515952607747608	-0.12304032993241616	-0.07168391357174936	0.05043310244436909	0.05074641763266796	-0.004977496325456401	0.07138660391881944	-0.07306284424879785	0.10542966667073014	-0.07801235030954305	0.09283260728881226	-0.0244554444945881	-0.01965703083461042	-0.029663135076476714	-0.08076943706322015	0.09705286263456953	0.02578870499611199	-0.04944791995554514	0.021980365435852887	0.03750169902617017	-0.012502530791709588	0.10225247670173034	-0.0674819564217049	-0.036148567727322216	-0.18294736257244434	-0.1082361155781519	-0.05007403515762979	0.02470598383038373	-0.13738883411628502	-0.06273998669892558	0.08078209040571599	0.021342304053343853	-0.03686950702796997	0.05244516183135892	0.0850285553762055	0.06620218847114248	0.06446967775529118	-0.06584956674231257	-0.051836803007042756	-0.0038649339447561796	0.06473916916219022	-0.11090221154233208	-0.01781265140539444	-0.028215787267840332	0.09926203036373342	0.07902246513655797	-0.03843381648492505	-0.0153880826559335	1.4675287607235335E-4	0.0054798302931949455	0.030631627448878332	0.03660544081628893	-0.1715301921552145	0.0886120101918823	-0.0587439376536305	-0.007321789623266332	0.051901717119756594	-0.06314581109011837	0.020521291116329745	-0.03683121218047139	0.034103128212176176	-0.053313156404613996	0.026738831193264055	-0.015964655123701727	-0.06682500778849841	0.09453931081501075	-0.04922769510485118	0.0025702948475608885	0.01500374368309629	-0.006027150122623019	-0.12348449549018674	0.136471989624738	-0.11852142221622458	0.07183575126916872	-0.00916686550197255	0.06831577789144296	-0.024993732850882626	0.06571995777146968	0.07971593972113462	-0.02941270325759688	0.08147407077740845	-0.05162708025257097	0.004871435665810488	0.0735430401168294	-0.04655159161211945	-0.08659132983565986	-0.07287209797018045	-0.019816910153187588	0.015481641285409286	0.06385691602728535	-0.11340050023409595	-0.12252473927535017	0.024074733613693344	-0.008394797919528678	-0.04321593254606758	-0.00768622504918737	0.10312573645417303	0.03442994704566316	0.024202467249633475	0.015195538485931089	0.05386228042554638	-0.13244915379562214	-0.09778602061131533	0.06296061334545992	0.13570695191902377	0.004928202509057408	0.031093042072553846	-0.05858069350689302	0.0027171783629773827	-0.030988682453084233	0.035358907210096775	-0.04343919001328983	-0.028521896711760093	0.1261593888363915	-0.0735175928246035	-0.06773415296423344	-0.13750005729709344	-0.03228575804902698	-0.0643290560702745	0.04597628337141346	-0.11054697058589866	0.008784455838338628	-0.08316337519529286	-0.03382705222196274	-0.02775229554509708	-0.04285535093757961	-0.0020923326524813234	0.09243220316101677	0.04808595849161189	0.016381050959763974	0.108315266275902	0.04234007776673993	0.01214394893067092	-0.010153362513147078	-0.053754657602276504	0.11206423647812215	-0.09356275530735714	-0.0222640322885953	0.07398908682326306	-0.01772051398084021	0.027963261418664884	0.01962828116290786	0.09781548325155628	-0.021292241350798585	0.02618003279523333	-0.07486153501685722	-0.012436140015016403	-0.04918208716004518	0.027741862317087425	0.15168126362904533	0.07211127061947227	0.044046225683397736	-0.040206069131332504	0.040795194730645516	-0.030414469542464233	0.025767080148760977	-0.03214031000857987	0.07937523754361676	0.07618012906759863	0.09050850276994074	0.025867043566993923	0.01392885528876294	0.06662448836249105	-0.08022291230003563	0.07194685835848261	-0.1324460563733965	0.035392003302377656	0.061207824973807445	0.03453735854697091	0.02737437309523036	-0.03402222592576499	0.06235424553944867	0.05072038294811201	0.05455398003438799	0.03066286745267609	0.0848767981877317	-0.014311311118059672	-0.013492485752582564	-0.19548329316203736	0.06034038530080227	-0.04470414178727483	0.05069043211280378	-0.14367318255371128	-0.15144057409284722	0.028946064174272576	0.060067291332456856	0.00294028849984484	-0.147163511471475	0.15667156697433796	-0.055923480454818555	
48	3	-0.034425008295420265	-0.00750080438190759	-0.019345792691888936	-0.10480082404557503	-0.02748701526856253	-0.06589277057952528	-0.06470397801533022	0.006170310466480021	-0.10074914725043303	-0.09938300251907994	0.02262105950806366	-0.034411400378729404	-0.04982324082924981	0.017133155303193388	0.09195472778144863	0.07034756782060055	-0.05887567854284496	-0.02992729806284539	-0.034273294990608584	-0.04007779287316877	-0.030783116119252756	0.06595289537280757	-0.04031311785415689	-0.02662823028152114	-0.1305721593020294	0.05671069619584675	-0.03882478962148045	0.11710961779575497	0.10937090955232769	0.10194552349080999	-0.08583657095495373	-0.008238622361298952	0.04394159895980463	-0.05423951471940396	0.036540384179069074	0.028012825935580073	0.007249374356191003	-0.03547243053953358	-0.06566816496343712	0.033278538111333814	-0.10264140134603625	-0.042177749107034146	0.04255187562934472	0.007241828888124035	-0.04217558599811524	-0.07610986521480385	-0.04416598284552424	0.00470702610476808	0.022189579262747616	0.0951389117190182	0.0202153713048206	0.04214102132695951	0.024824093021899515	-0.13929599176099358	0.16275194021086303	-0.008494834111506845	0.05463625033824501	0.15793688550357918	-0.04588935425972796	0.10320432460136775	-0.006617063302245601	-0.02199187153387615	0.09427969906790272	-0.12028451223831159	0.1761605069481846	0.011175788222443942	0.017467024533721773	-0.09739340490200621	-0.05272152730704505	0.029480650964539962	0.03330976927480421	0.046188729016286845	0.004159853936549055	0.03246282311805575	0.00678790261214059	0.0498937083796737	0.05812434715613131	-0.061415394446398465	-0.07295845492497853	-0.02789495312177903	-0.08468872215885015	0.13425475363494865	-0.0035179524890852068	-0.019330311759620144	-0.034483432489280985	0.019756978378957003	-0.12194349763899312	-0.08136076822137998	-0.05072749791875803	-0.025378724409001942	-0.040410186296352284	-0.008689359388662197	-0.09521949058759703	-0.07262312474227987	0.0253001600180457	-0.03211061866889671	-0.06648369758262655	-0.014196283623333547	0.06746231127172929	-0.12456531505142707	0.07140274449030647	0.03805268550156486	0.13536998744846218	0.12042885573833144	0.0388335473603262	-0.012661280977124578	-0.005160587825148283	0.029050425491186034	-0.059657412360568055	-0.12099750051820912	-0.04957804548178503	0.10258344469291869	-0.04709194822240976	-0.10890811228373284	0.12588226734513747	-0.06564205859577339	-0.01908842760830363	-0.038472683824841356	0.07545177926444493	-0.10934242327754481	-0.0640300918047366	-0.05617474846031778	-0.09039070381345612	-0.03293923102659457	0.010819034228841656	0.08229508488670839	-0.02029086624394739	-0.008936184754303538	-0.04367419093538141	-0.041601102783515184	0.010801087437474198	-0.06722319432325657	-0.09876244221756651	0.07105159888820496	-0.03716272760222933	-0.1076248288026809	-0.058040055549363936	0.054574754230880006	-0.002207979235387828	-0.09481316127419018	0.06227902257213173	0.14578419169257611	-0.07955961465633744	0.0078021850329583805	-0.03044884980729312	0.12045703035147375	0.0070289184227584935	0.1474231124441432	-0.11113323468896263	-0.036993089336628995	0.013463787273092774	0.09098220075837017	-0.14013561704544522	-0.14905889312718096	0.05833510969738265	0.05947530050637509	-0.15352162334042993	-0.06513852542662699	-0.07802557876213465	-0.07878755566060905	0.001108046381991793	0.013624304062016274	-0.06465249643429581	-0.10277994348283451	-0.04097939062597181	-0.06997357698129994	-0.018442916210301467	-0.0364523780106664	0.01489386388842153	-0.049412463157776615	-0.09889235236124069	0.024370092364980958	0.07142256024001271	-0.08767585418983327	0.004015643578376386	0.0343794870060573	0.013089732363572103	-0.01939537451709865	0.052791836337388764	-0.07377993029546306	-0.041560742363461405	-0.01582516702488435	0.003030871444212514	-0.0092864233415049	0.13081343752241315	0.05018529611018446	-0.0545489012782841	-0.038892085685405337	0.09763940510589574	-0.10418846505239585	0.001518997502673788	0.0272068143085749	0.15257316993693934	5.534264672367382E-4	0.035303347334112514	0.003491328493353005	-0.0804726753211929	0.002748125785873716	0.14408875170615199	0.028656035338476167	
53	5	0.022580747185864104	0.009109092307129574	0.018542437659820016	0.042018325015603555	-8.627324403915491E-4	0.13418090996382753	-0.011532485292411992	0.0032787555542409088	-0.040561110883781934	0.0509965965777058	-0.005722402958671774	-0.08895811942599915	0.028275735865454135	0.08761253506942925	0.029424843759902355	-0.00345326702075248	0.025104186463199115	0.01529498061194842	-0.040543513261732674	-0.02866333096951426	0.10418554188457471	0.0617753781427278	-1.9143340730311094E-4	-0.031685095935571866	-0.06162565827388546	0.11589749025728219	0.035816631759887196	-0.059550308040559	0.08101615190504403	-0.022031464151992166	-0.07446770386696387	0.12629677791950691	0.02080391819336952	-0.044352895867349335	-0.11541036735853097	-0.006175347698213359	-0.02576991224606663	0.05409065603428195	-0.06468934438151586	-0.05712148106732336	0.05537975408757509	0.027538716575644634	0.018239100449647716	0.0879249973025003	0.0016324697829460323	-0.005675165321175107	0.12505313642666244	0.004129706762849926	0.04186475974015681	-0.018796366225365076	0.11760675244049382	0.037210633098624865	0.0536709059407575	-0.011896601521697605	0.010137327755356836	0.06593098293807474	-0.09411753688481672	-0.034466258557791604	0.05375544923945892	0.045329023887851934	0.05367388077361779	0.052965855956269285	-0.11544638486899214	0.0801390656213849	0.02660963328836728	0.1213535434434003	0.1090172975825885	-0.035395664642760415	-0.052866650882786054	-0.05838728545524921	0.038627838834990026	-0.006585339636841889	0.03145726701960037	-0.01892619858763097	-0.08328061350828654	0.20327024717721887	-0.0627591835503472	-0.0032532669642706393	0.007232925535432064	0.005286013961985544	-0.06404027940473077	0.14005471356760826	0.01643900773779407	0.05419440315206267	0.0039080085670819215	0.0642923217327171	0.012249895224637163	0.07171966943247529	-0.016380875971923364	-0.0194370029043691	0.055389040077082584	-0.06509722158875388	0.03785807287013998	0.1598425930934485	-0.038565861173616524	0.00600817875143205	-0.028214574493400413	0.03616455112661959	0.018988959641819864	0.044921455272182366	-0.05683196402342926	-0.09097156252636168	-0.03821388838497857	0.04524310754562145	-0.049670790706869444	0.09234561944040624	0.11140723631005907	-0.047727387716158066	0.07040738977111684	0.041417491326843914	0.044577894373791574	-0.13676362972321482	-0.07381657410904667	-0.019673887953138	0.16492403228664132	0.07482014886520873	-0.03416328650259223	-0.052887899346109025	0.07662675119102198	0.02429067837568904	-0.06235067464397097	0.0525702975771068	0.08448444107967573	0.1782982299076115	-0.061802848831430175	-0.09431932153591513	-0.11235973379608823	0.018408966874114537	0.02406595580348872	-0.04996676728252758	-0.0615100299521023	0.06811077469250305	-0.09190877452096624	-0.053853590209148545	-0.027157394804620427	-0.12123463207794584	0.04260072917213854	0.062164506970178904	0.028990776539525216	-0.0911482137445815	0.052393420156661506	0.05853352027012474	0.05270202825684852	-0.025012535872376212	-0.01142925339407505	0.16845778910067916	-0.06284158496484746	0.02526815981667768	0.0869014749531406	0.016926999078942	0.037125985867822786	0.040970519602735005	0.04356845397830703	-0.03866840008313096	0.04736294584244635	-0.06357495472462248	-0.03793427600121373	-0.033792935395015926	0.08473904579088154	0.11948669059959674	0.07599929531142095	0.0011878640285609464	0.005159529907550904	0.09673316355703368	-0.03440589338568173	0.0392134061437372	-0.07720381788536773	0.04718142901173692	0.14666057974623825	0.04431332036374403	0.012499730761594184	0.11906135749467724	0.11489486641023354	-0.016224001840080184	-0.008619919283653766	-0.07670821307180051	0.06283038169513773	0.007982170509930503	0.1245365545886077	0.023927336541906898	0.028339006906803646	0.005462557856654131	0.08059823103861138	0.05941459374640672	0.08797290845176467	0.066313839462239	-0.0184008189000521	0.003994053392170502	-0.1909653581652078	-0.0027242932574500387	-0.004033629481345259	0.004244958485081347	-0.18749896645710598	-0.2120102697408431	-0.019967232158139073	0.05616852899805907	-0.02453884820441852	-0.13648931249159435	0.0337062442667456	0.07143441730835236	
56	4	-0.050018623047198264	-0.037521185802604565	0.021349391155207086	-0.08453233358291999	8.402074004886952E-4	-0.047040497654741546	-0.024472737558998363	0.02959748516888224	0.21065066548487676	0.05868937926882936	-0.06871958806874703	-0.05270371464251173	-0.10376031465046857	0.052562403495061694	-0.0014996283256896185	0.01927882301387801	-0.05192376016182896	-0.12020988206886471	-0.10963835744909887	-0.09329514307191938	0.028963853505225595	-0.022491607067230433	0.060487042813711915	-0.019928767389356197	-0.0596875714488279	-0.15944923791994825	0.1208300771531748	0.0786232655084782	0.032985756113787165	0.0057129645607979064	0.03304156057576767	0.027489660149412353	-0.02483811103579663	-0.03675493757265092	0.0774768676688306	0.05492541801448675	0.12651163441828037	0.13658588497892316	-0.061430170641400175	0.20495907435575828	-0.10707818113661383	0.05166326862245387	-0.06400350130560459	-0.056535673262869714	7.127579865173701E-4	-0.03425573036008907	0.07672607566982441	-0.052324769735051006	0.2538630959787205	-0.0571362410034737	0.14402324526415286	-0.0018416824274061175	0.008437742655174527	0.1018282936685008	0.13690672232938925	-0.057749686490056414	0.04567371834915844	0.028072895187024032	0.011549753325439489	-0.09725496696997174	-0.05820226062363057	-0.15086789721167915	0.02430544372303014	-0.03497772020761179	-0.036187273426616276	0.034140596767757984	0.028040756387023934	-0.07261735811092858	0.09538121442706249	0.044034094057838306	0.04380860589291761	-0.005961081949522277	0.11025103633233042	-0.008128732860405767	0.09259432259421117	0.07809477255319375	-0.08401545638731008	-0.07683394722765162	-0.051246960804825215	0.051536996080597676	-0.06003656815928494	-0.0593065236189856	0.047151224806597745	-0.007961516592905364	-0.05297175133990476	-0.009245747553769522	-0.011197775157469548	0.020412424823015	0.08863567526786817	-0.022449970364635002	-0.04003047886017489	0.022725300885938354	0.05955525954303851	-0.17322826984240453	0.11139360305444379	0.02111506270436482	-0.07838666047907394	-0.009039122060088597	0.09039493700832874	0.02703852518938752	-0.017588534182493967	-0.022319999995160583	-0.012588023118473207	-0.1295256354088368	-0.0014223439817841197	-0.04246089393608504	0.018956038054738573	0.0786893146771243	-0.0019801429813354134	0.07264733972842262	0.019182475267043943	0.02574063404551162	-0.02904193501049574	-0.0679438751289749	-0.024679241064341925	0.09921055870582804	0.05198860200034418	0.01172093994882027	-0.0930058985909133	-0.11159842548314328	0.03876071711192512	0.13874123499209584	-0.0030733051109010936	0.00982625688678143	-0.001447107299462343	0.031106293691491475	-0.05173385289674339	-0.07266089106921826	0.055713878306089655	0.09459011144234644	0.0718769019020242	-0.03183905603016875	0.026955162018289326	-0.05425908965647695	0.008310132819082014	0.05872380893157455	0.03753543896811996	9.779151921357012E-4	0.09653381131710691	-0.0878148905613609	-0.024591834199495673	0.08061774446109185	-0.05099238613130624	-0.026686054467827996	0.022933857445155335	-0.137711506076531	-0.11564558508331535	-0.08693533529137107	0.02360444204440019	-0.013154420457578274	0.07671723347213488	0.01807165119164564	-0.04623662988799664	-0.051223337401554755	-0.07225914923207562	-0.0690631018080895	-0.014213160084740502	0.0494448094727932	-0.009912420526556342	-0.060275518912873645	-0.0553956063233171	0.09329297592583842	0.08954080033106032	-0.015396761934948967	0.05571325156841062	0.04053959410889163	-0.041471636941335606	-0.004413034021524761	-0.027773805292715455	0.05065145289858731	0.07106830235850391	-0.03717321769920586	-0.042931865468679074	-0.05624425131396652	-0.12364410270456207	0.07726596542770314	0.08527355411471364	0.056563743375914646	0.024389534704063198	-0.07678228672763783	-0.07367610589150152	-0.11597622627227977	-0.044567987340840685	-0.06458034648071809	0.018266061147737638	-0.043785685842924596	0.04407534283352725	0.0022686676295639897	-0.009033290983404758	-0.1431857456860591	-0.002422880476424444	0.05881078985734434	-0.04265706421026212	0.04801930975175978	-0.043671555085149485	0.038178551655230326	-0.029972813724551267	-0.0761239555702114	-0.035487352373432944	0.10455065612003092	
58	0	0.06401857491754227	0.03737484431777406	-0.014435344824356528	0.08868886985340571	0.08490457295318243	-0.17238940033496467	0.01854177669283456	-0.0015077215958766545	-0.026459482715457713	-0.17686071452244895	0.006813022089894628	0.15897112038561156	0.04292233071473377	-0.10651433419233627	-0.02311684353557902	0.01807699304787621	-0.03478729944608099	-0.002493943360429355	-0.03126201308442683	0.04482565985705417	-0.08260269502867777	-0.02206366952717837	-9.746352373489047E-4	0.05045242840437132	0.1305151972245303	-0.07950933700505773	-0.06155856036445971	0.013009417294173264	-0.04132301544532031	0.013946782508378575	0.08148372536778797	-0.14770170759494208	-1.635283266177007E-4	0.024835602659638897	0.12457765615357619	0.04642880715487569	0.01679216946008872	-0.023491471609171234	0.112689829551114	0.04574396299416028	-0.0649603487163595	0.030905250730503382	0.010907964941674373	-0.08130946389666197	-0.05383101374203158	-0.0800450590442368	-0.12263074445129543	0.007495623476881712	-0.006291452418918277	0.005764232915490006	-0.07751332368471224	0.09170980852955347	-0.0326917667185308	-0.007121460464736467	-0.06540219216456614	-0.1212934213901763	0.04462771215725777	0.012163719109022432	-0.046019885811129514	0.016641414089354854	-0.0014866641824979611	-0.03539125420256058	0.11413611852835505	-0.0918068963103943	0.0448595713352521	-0.08866215437995238	-0.06340322951469551	0.02549137188093531	0.037549499494521306	0.07868647127987481	0.03264487438561662	0.06337108269500831	-0.053830100782133114	0.00167043673514605	0.05094145267760933	-0.13495445033901193	0.04648904477908697	0.023064546838173623	0.03807724054422646	-0.03851453689204072	0.08297680992495218	-0.13195568922830178	-0.008138729968438146	-0.06710871273583284	-0.010636594951982457	-0.08701705282846436	0.053121340531361215	-0.09505675517649687	-0.060952182838170096	0.02235354917087958	-0.07223148478342638	0.11372374946669422	-0.05331858277415216	-0.1582473125859086	-0.011056807971854963	0.01843262431659864	0.05715771423096701	0.04737747001156051	0.010762750518905313	-0.004457774895987151	0.06494091324907761	0.090998462050132	0.028988989181767857	0.004519786640996455	-0.0500977574411839	-0.07544622809155077	-0.11421505202951777	0.02253370259199812	-0.05781364433821758	-0.015285309927649537	-0.08683409445984959	0.1151172303687946	0.023982402656315224	-0.09094281666651416	-0.12307305526122334	-0.03585447351452059	0.046666044525280496	0.0663366403054437	-0.056054390755720836	-0.017340166050644663	0.031915069003028304	-0.011975021500307522	-0.03633463847521277	-0.12391609589719642	0.036483954847505	0.04265893985178949	0.1293804643027871	0.006024507689980868	0.03266727053227808	-0.05032151306613878	0.06948749387538423	-0.019703978805885758	0.08202750239972564	0.06394350808225985	0.014069251320748715	0.06500523296273764	-0.08043422631762491	-0.07243209277153569	-0.049107862958595636	0.050840237607115014	-0.09411558481372889	-0.040350222257148384	-0.020192566512436023	0.03383921298514146	0.01694284568555358	-0.1046842722549552	0.09454615392692715	0.020541580315786186	-0.12453870783336493	-0.006896855314993878	-0.016459206133949966	0.017946846918942876	-0.03963480644434985	0.03317349395320896	-0.0711501358346604	0.03891191602117051	0.048839580995840244	-0.013770023851096729	-0.09527917401960961	-0.0814953824734623	-0.035129047868125055	-0.08130855694770674	0.016453924169635852	-0.06987772256463544	0.003781927799073095	-0.05114112751553973	0.07835617277873211	-0.11387287484242639	-0.12249460147944384	-0.08271573582986703	-0.08397593855792283	-0.0706918853178931	-0.0708576377228296	0.02101986750933864	-0.04885794953591778	0.16753659273943156	-0.06113299705726207	-0.03787106027573872	-0.05938585296022124	-0.01442438650309763	0.030054178893771207	0.009869725294273405	-0.01642781666836277	-0.04782953181719554	-0.06151774052183995	-0.06997303779559971	-0.011983282669932788	0.0430529298787837	0.2185555757227782	-0.030684596927019876	0.050282024006317344	-0.08069034321729236	0.1992854292211021	0.1409813172208932	0.024136603938120324	-0.007455628770780675	0.011366948943457205	0.10278483519855124	-0.07823696059629383	0.023358280641659027	
59	0	0.0	0.0	0.0	0.0	0.0	0.0	0.0	0.0	0.0	0.0	0.0	0.0	0.0	0.0	0.0	0.0	0.0	0.0	0.0	0.0	0.0	0.0	0.0	0.0	0.0	0.0	0.0	0.0	0.0	0.0	0.0	0.0	0.0	0.0	0.0	0.0	0.0	0.0	0.0	0.0	0.0	0.0	0.0	0.0	0.0	0.0	0.0	0.0	0.0	0.0	0.0	0.0	0.0	0.0	0.0	0.0	0.0	0.0	0.0	0.0	0.0	0.0	0.0	0.0	0.0	0.0	0.0	0.0	0.0	0.0	0.0	0.0	0.0	0.0	0.0	0.0	0.0	0.0	0.0	0.0	0.0	0.0	0.0	0.0	0.0	0.0	0.0	0.0	0.0	0.0	0.0	0.0	0.0	0.0	0.0	0.0	0.0	0.0	0.0	0.0	0.0	0.0	0.0	0.0	0.0	0.0	0.0	0.0	0.0	0.0	0.0	0.0	0.0	0.0	0.0	0.0	0.0	0.0	0.0	0.0	0.0	0.0	0.0	0.0	0.0	0.0	0.0	0.0	0.0	0.0	0.0	0.0	0.0	0.0	0.0	0.0	0.0	0.0	0.0	0.0	0.0	0.0	0.0	0.0	0.0	0.0	0.0	0.0	0.0	0.0	0.0	0.0	0.0	0.0	0.0	0.0	0.0	0.0	0.0	0.0	0.0	0.0	0.0	0.0	0.0	0.0	0.0	0.0	0.0	0.0	0.0	0.0	0.0	0.0	0.0	0.0	0.0	0.0	0.0	0.0	0.0	0.0	0.0	0.0	0.0	0.0	0.0	0.0	0.0	0.0	0.0	0.0	0.0	0.0	0.0	0.0	0.0	0.0	0.0	0.0	
62	3	0.0	0.0	0.0	0.0	0.0	0.0	0.0	0.0	0.0	0.0	0.0	0.0	0.0	0.0	0.0	0.0	0.0	0.0	0.0	0.0	0.0	0.0	0.0	0.0	0.0	0.0	0.0	0.0	0.0	0.0	0.0	0.0	0.0	0.0	0.0	0.0	0.0	0.0	0.0	0.0	0.0	0.0	0.0	0.0	0.0	0.0	0.0	0.0	0.0	0.0	0.0	0.0	0.0	0.0	0.0	0.0	0.0	0.0	0.0	0.0	0.0	0.0	0.0	0.0	0.0	0.0	0.0	0.0	0.0	0.0	0.0	0.0	0.0	0.0	0.0	0.0	0.0	0.0	0.0	0.0	0.0	0.0	0.0	0.0	0.0	0.0	0.0	0.0	0.0	0.0	0.0	0.0	0.0	0.0	0.0	0.0	0.0	0.0	0.0	0.0	0.0	0.0	0.0	0.0	0.0	0.0	0.0	0.0	0.0	0.0	0.0	0.0	0.0	0.0	0.0	0.0	0.0	0.0	0.0	0.0	0.0	0.0	0.0	0.0	0.0	0.0	0.0	0.0	0.0	0.0	0.0	0.0	0.0	0.0	0.0	0.0	0.0	0.0	0.0	0.0	0.0	0.0	0.0	0.0	0.0	0.0	0.0	0.0	0.0	0.0	0.0	0.0	0.0	0.0	0.0	0.0	0.0	0.0	0.0	0.0	0.0	0.0	0.0	0.0	0.0	0.0	0.0	0.0	0.0	0.0	0.0	0.0	0.0	0.0	0.0	0.0	0.0	0.0	0.0	0.0	0.0	0.0	0.0	0.0	0.0	0.0	0.0	0.0	0.0	0.0	0.0	0.0	0.0	0.0	0.0	0.0	0.0	0.0	0.0	0.0	
64	6	-0.08073650935183739	0.024035470392874368	-0.03482284266999248	0.024134500376120763	0.05614848461298702	0.05813497377973443	-0.11048710997992121	-0.05344429067148494	0.037085326657925945	0.05053334557881148	0.06771583153010309	-0.05364851269796143	0.03691004411021442	0.10659126157852201	-0.08435683777503086	-0.04050800714271735	-0.054331369362238334	0.12597258202514353	-0.03672558397430345	0.050235994315469656	-0.02670304523507245	0.12009272086489582	0.09789214231882115	-0.06459474425856268	-0.08991679070035152	-0.08185254763532421	0.08153777354438066	0.08624104547333934	-0.07251505394683547	-0.0538987296797992	-0.22849512164095215	0.015645625515926208	0.13725949500383522	-0.054796163647818884	0.0925762054502561	0.07619802833822112	0.06018084065533881	-0.05138501401064445	0.08292107484968028	0.04907782634657924	-0.03392633688774665	-0.08668977418250406	0.10945602158293671	0.07154401413985051	-0.09205442380466045	-0.014803381052492395	0.0058446823758795795	0.05274288775761176	0.037122293085563994	0.04121148880578506	-0.029155262095561733	0.030460465565960063	-0.012564270679570567	0.050994920885348315	-0.04632724314067287	0.03670893704716407	-0.04994473265075698	8.066651018358747E-4	0.006714722428186797	-0.039496167167234426	-0.0805861891421991	0.01587453555497267	0.08788528429372498	-0.04613423024158284	0.0480830980635856	0.13882104355250482	-0.008450987093694448	-0.03938851455438189	-0.05611612519301196	0.050484164476553114	-0.13465469780550904	-0.013474226431526355	-0.01911346905409703	0.06715541132132358	0.01294563288637333	-0.011390522142950128	0.001491829059791838	-0.06847567785476229	-0.053847972065784525	0.044683143253831596	0.10839768422749647	-0.06185691926303725	0.13475294046718492	0.001290386358375939	0.05145309935133138	-0.04803748769633143	-0.11637512349070321	-0.04437324917616868	0.020084336330601932	-0.06144604053002728	-0.07288898179447242	-0.03928511720496046	-0.031060565811401323	0.15164204072882706	0.07929011704419235	0.06995982001996078	0.006059138933384248	-0.02907752943928358	-0.029556453747034722	-0.14047214544830164	0.1018105810877516	0.08245197583935113	-0.020161981531656808	-0.04064918331295492	0.17163322133244419	0.09601072067469824	-0.015439728667531679	-0.10236856102109367	0.025938596548589446	-0.048726692731438856	0.06282721591602669	0.04477916915275057	0.1477756236508581	0.015206980120141626	-0.024267684225505945	0.013160909374732509	-0.12440418091833709	-0.052961641865481406	0.07661112155767948	0.0659787094801116	-0.04111297611032617	-0.026694019925902604	0.012361134356591794	-0.05056193000559576	0.04073025235639533	0.010855858557472814	0.07016756100655695	0.02042760455939168	0.15634013776327307	-0.0015210912064705909	0.011391786808664095	0.05241039697411791	-0.0043947634479961535	-0.05856970343095027	0.0389661911055615	-0.046787200223216314	0.06565496606744295	-0.03412473609338677	-0.03215101264926466	-0.013809645858049438	-0.034871991875808146	-0.039449099391574274	0.06914639570347691	0.007243434008020953	0.03414445980351887	-0.020618123869252908	0.01540929392094737	0.08887360748359116	0.0579015508805161	0.11128235718429096	-0.005646060343705167	-0.10860914302867826	-0.14756112592503376	-0.07046062978082938	0.07052079127788567	0.0596091262868637	-0.06332683580205023	0.049805831978528003	0.15871077968601147	-0.024423836347993506	-0.08714717466701213	-0.021568760075754534	0.013327360237666447	-0.06689010104248798	0.07897247501663056	-0.0433038263121565	-0.07119017691239837	0.03246453389186602	0.017800447060003572	-0.06625173956656916	0.017144670322575238	0.131747237855983	-0.04095347112805271	0.07368015518481531	0.04757244589232253	-0.07413027276651503	-0.011002196718000097	-0.11942172056652345	0.03085739619777033	-0.04556988290279869	0.020847522389439366	-0.1540734558409525	0.013764856255417717	-0.11300461286723684	0.07639036500171556	-0.02974484306590783	0.12169498832718989	0.02381335863355722	-0.03940030418512274	-0.0014787040388373755	-0.020046487276912935	0.10146195874063876	-0.06286216301042413	0.06718132832422163	-0.004962710491346877	-0.12015084873107784	-0.03452269331884119	0.08531267269989307	-0.0935322237775067	0.053614568667842484	
65	5	0.00304643020653411	0.03016047675048289	-0.019017693622525138	0.13506339850693946	0.15243869388439363	0.016784233811660457	-0.13200225272054764	0.041072035281393034	0.008059401846756593	-0.0590562463871952	0.0037005695505338745	0.031205409705668076	0.1491116707110488	0.03268496169952683	-0.05308723558009974	-0.04615494329092202	-0.09013462699629586	0.09909950531225076	-0.19141970491358454	0.03957149485416703	0.01870998486403535	0.13607690573299974	-0.007840533255606555	-0.0073188254156705814	0.01685714774131084	0.03974510987455041	0.04161232651178565	-0.028658045047861482	0.06820499659969866	-0.056672694005603964	-0.08891543210609994	0.034162653591392256	0.12722950296551958	-0.005772572917385716	0.042991227268516015	0.13173711394228232	0.012657094522420934	0.023408667777692443	0.08031708618541909	0.015742213346054742	0.0018291976849617525	0.03520355829370556	0.06363700216703247	0.029313803500536334	-0.09460363897215736	-0.11905756388146133	0.15069022201742577	0.10727041567485557	0.08411237754293843	-0.025552584947624867	0.06486765424077139	0.16748015322105067	0.10044800032357402	0.03543429364882704	-0.08450905093660767	0.04028114017106827	-0.10246691413196837	-0.053026601621197475	0.008252952987734328	0.058553189220142125	0.04193474576638765	0.014205869636212377	0.05163806874117261	-0.017055385298425235	0.08162762112224455	0.21237275858232724	0.058898694221816386	0.03140385737922154	-0.11136145931777974	-0.03060855653782921	0.04248859083526155	0.022569296665782924	0.029592106601891884	-0.008429210445031976	0.004428545354256926	0.11434275701550066	-0.05974963674254335	-0.02153701780595186	0.013697420325640565	-0.01552094502566435	0.09967212504271802	-0.0265837658714518	0.1584697675557941	-0.006482028859472136	0.0612748843892917	0.011629698098421175	0.04060868831613867	0.057121900727971665	-0.06765482569001996	-0.01144280841759241	-0.02098460306785777	-0.016169904321852783	0.03837130746752976	0.099748669749054	0.032379024390739496	0.05977694348372761	0.04080694825431557	0.08003471307474543	0.040902209462649296	-0.04522565022876743	0.018991832828974885	-0.0034246091474198575	-0.10095307569944365	0.04423101045487506	-9.708012261923139E-4	0.08908337994071772	-0.02395699869464413	-0.09239289261681137	0.08295179498592538	0.04524715947020668	-0.02084863499159821	-0.07489230399838681	0.027702560592142173	-0.08229914661871507	0.07647896574803308	0.09053775304057603	-0.06802538489153372	-0.01470511688985154	0.06174493558659958	0.0678830832904591	-0.0913144282006547	0.10902706487789285	0.14023443251454504	0.10004420825366597	-0.0022620991081596068	-0.0621460932028863	0.002985090490026519	0.06267780485733372	0.09348722142558111	-0.08770392833163645	0.02705104147551331	0.04421336930287941	-0.019616649253676455	-0.029104826615561172	0.01362910170081349	-0.08367229406803758	0.07605936017282115	-0.027023964744090596	-0.018828871002320474	-0.12845414996537172	-0.10742660769029079	-0.0018317927121896912	0.05626175845854468	-0.019922134105509037	0.07538935109665541	0.12436961717030791	0.058994365648472095	0.04300293905809578	0.04282154650134724	0.05553340132664351	0.03628758603184963	0.023042132820977265	-0.06773396591287184	0.01109601714211742	0.023436542705263543	0.028714948512658822	-0.07364373232632607	0.041342841380812595	0.07209842565168144	-0.0523667250095797	-0.034627896130237444	0.009626677647381331	0.047440895212048126	0.06024363104768129	-0.038852099248958515	0.05691486384814153	-0.04608681906276045	-0.06211293178931751	0.07192272405234502	-0.028887081056489017	-0.0032714524683253796	0.1178869296089957	0.03266561598280933	0.05291881804269921	-0.13330920561791396	0.04773499920540437	0.03886710887986128	-0.05780214316537017	0.09902460321957926	0.015223802491810589	0.10495459744812446	-0.10765201201565637	0.027914752890158934	0.00664457548326415	0.06567369633861289	-0.021808338910677637	-0.01448780880750246	0.046642062402284724	0.0493377280887031	-0.06499127813840566	0.07352556347143245	-0.06617118714436789	-0.08956089037000492	-0.07600406764570208	-0.053241709069691376	0.010878022147592488	-0.014537058267852981	0.020668535299020647	-0.17923056968042125	0.14667713885961736	
67	3	0.08424292728414845	-0.040460084756065995	0.015559014621673717	0.12667819773188774	-0.06866795325439091	0.06484119794179591	0.11196106210438736	0.04522846640738773	0.06698442681751891	-5.576138344395245E-4	-0.08204405962353394	0.05609791008198853	-0.014492268746833301	-0.05710358688238796	-0.03979126452133004	-0.0035793938596164862	0.0725308363349458	-0.056893428026793924	0.09659173191968971	-0.041441968054196233	0.02510641205562192	-0.06617995317104508	0.03814163819589095	0.049100386087002144	0.10319143240356704	0.02348504637381697	0.06534807004299971	-0.13250860622746835	-0.07158302217716805	-0.019390382455730663	0.16535141789634478	-0.03390216307324507	-0.1548725940872458	-0.002580900285437331	-0.03608324176641455	-0.11029695081214463	-0.0023015804945583146	0.040327512476914844	-0.0021542030309180875	-0.06063709966021613	0.13516489241775642	0.10150531864807828	-0.08099691944458683	0.034366716514303314	0.06722181522297865	0.045197667499823804	0.029806448831152244	-0.07512324857866232	-0.053374892857648154	-0.0565251643834094	0.004433980149994086	-0.029598317714556056	-0.04464041963020844	0.07191432336328021	-0.09669229014030155	-0.06895046979566567	-0.03144220242822777	-0.15761004613673554	0.017841306780624344	-0.05662313106551447	0.04695646923696957	0.055245586784422894	-0.1488500927411015	0.08939407173999396	-0.1315736294214929	-0.09756784722043221	-0.038644515129782335	0.07467307238206461	0.08979354313523803	0.013173684974068038	0.045492072918342556	-0.039581708158217155	-0.05008646044966359	-0.011250550356873626	0.0011784508738771709	-0.06434568021753476	-0.03269229785662622	0.07424753092265425	0.11198977654718459	0.009518263349967148	0.04138072514180978	-0.03203014163425661	-0.1279515432352807	0.04114966707711162	0.022915512700905694	-0.003245164953898542	0.13328315750478717	0.07671215925402566	0.0872969745745328	-0.004301039737022603	0.06334330719588253	0.021909499739943446	0.013006687102157646	0.0074143433998160955	-0.09894317392220352	-0.020082936691422887	-0.0038495629652171757	0.0273546574238032	0.0015733552827282254	0.13137814906268763	-0.13719037482465485	-0.125098102865677	-0.048539700377644025	-0.11698999958642387	-0.1275903349268981	-0.07279899294430549	0.017035076066092007	0.10859004972091164	0.03434401974342455	0.02347585119752945	0.0024984351166190627	-0.06926734263025987	-0.07296918478558896	0.05909664328269145	-0.13931955781794383	0.004190207708064879	0.09542467899213496	0.023247268729725743	-0.09585762016571857	0.04400234223809565	0.13999135131361193	0.0036279918884170453	0.04088912137843481	0.01880634467622289	-0.0201653567361144	-0.03846704939815061	-0.019925797672433132	-0.042974938417134914	0.005795421243060649	0.06973602061856016	-0.05033440591353116	0.016667420820773313	0.04861292525243389	0.004624925244806753	-0.03844122811423496	0.10494197054043801	-0.0027920149222928417	-0.027633296670450423	-0.01439759796142342	0.1261056748162795	0.0144961389840383	-0.08733476974937403	0.069832528375577	-0.05002528206909994	-0.0038213156165822037	-0.10034898721634804	0.01346183021649948	-0.12259518553726338	0.021981561819785108	-0.019939078481606594	0.007929463312631882	-0.03153896535315383	0.11556138024071383	0.16356836229417296	-0.06536823933385567	-0.11744785864323351	0.1586257709696785	0.006663081551447587	0.01721409032739148	0.08279837873419552	0.018812115933221178	0.08585791682287969	0.041175671023230845	0.027248292195695117	-0.012449809171854656	0.04038659762898252	0.049911607831378456	0.03468299254905534	-0.07220008504905123	0.0850202963723458	0.07704507426059483	-0.10587137165451593	-0.09220716611381435	0.0034156261830494503	0.03314410323969869	0.005075836974995372	-0.05916295364349383	-0.018823692669597908	-0.060081291023236956	0.09120924423387704	0.002772067787950286	0.08918692697969767	0.05677660320288441	0.017555530770875193	-0.1561070548988693	-0.009481266794981362	0.030057571379424695	0.04192864376996459	-0.0030345153411936044	0.06088314660690638	-0.028532976251411726	0.04192796343504368	-0.08924261179055776	-0.009761825901045787	0.009368816773842195	0.07911887686201793	0.09476088461967053	-0.04355463919016327	-0.05729950837976412	-0.10985559742102934	
69	6	0.10943593430071553	-0.04709368591538722	-0.024306224397364476	-7.690249980501345E-4	-0.05608082740574497	-0.03706654960841751	0.15214986689337323	0.024544114916910945	0.06017878316278195	-0.10348406262411662	-0.11900948718200541	-8.739975910563339E-4	-0.07321113642826199	-0.038290886876312824	0.03230394828618368	0.0044817828434028555	0.008653753285145203	-0.17483451337950112	0.0673493943061466	-0.12923131386383863	0.039266966234909086	-0.03250758963151585	0.024228222755923543	-0.002097781713391566	-0.004623876548960322	-0.05127153411324089	0.07383122871280237	0.0017330293450758996	-0.017987979922685943	0.08638237473005357	0.06263429003478432	-0.038182142451917964	-0.08046941877841311	-0.09010751388579569	-0.05562493799030574	-0.06766525001809325	0.040070774538532215	0.07170151625601921	-0.08331841617606033	0.09125146750933388	-0.034582005313417256	0.11596434531935355	-0.048837112242553854	-0.04022916589555956	0.025525405279863283	-0.06018401166810895	0.007579415254980016	-0.11907359395382708	0.08133598466585992	-0.031369623428396526	0.07590051417148984	-0.009741137801467488	-0.07808288432502743	0.01968682267425979	0.13007487817710428	-0.08040619212923555	-0.005509133541671883	-0.023533810778042705	-0.08399487320411254	-0.014079032312875602	0.008028228371645582	-0.06277766684778927	-0.09026719996662796	-0.018750100688619303	-0.01999886320738013	-0.07587367574002814	0.016786280944601575	-0.12875207791001397	0.13224510415589713	0.12291693400661988	0.14376179398843728	0.006242126139453564	0.011651879459610406	-0.005082739884727591	0.0300495075214215	0.022717689472610266	-0.07246990786437553	-0.03770317808078673	0.06461691305903183	-0.03874870274069998	-0.08885451046174286	-0.01732625425608654	-0.1745293947756557	0.01273698605216125	-0.05224154086979331	-0.02911352913976662	0.021650147521001497	-0.02103453117078659	0.12019496990674601	-0.0630171508169598	-0.022490121029058643	0.1130660781099459	-0.05753493688869494	-0.18520894950860664	-0.009819394057481922	-0.07443975345484012	-0.10121626419337364	0.053469054558480326	0.10113364740960602	0.08069991949393657	-0.099750839667226	-0.07360376407250517	0.08743358881252503	-0.10176676948737422	-0.1464898571836206	-0.13546371525784398	0.0024735838789119707	0.12941417771627195	-0.030706093296342343	0.029135245849703045	-0.026283478662303586	-0.0516994195126549	-0.12907343113847825	-0.10127740750625662	0.03209349210097172	0.04098675118847517	0.16216591851694526	-0.020291030917062	-0.1276888890733191	-0.12553732374478063	0.11797146627795095	-0.02196081875303732	-0.10127118661695161	0.04061908119345038	-0.07107986364975881	-0.04881028230687989	-0.05548794162590917	-0.07786895053147337	0.03781639559933243	0.05986978112075629	-0.04687947791374843	-0.014506723273391553	-0.008126959494113966	-0.015416635443769776	-0.024170670329747037	0.038998218998269704	-0.09821257916190188	0.03465579075937243	0.0517637926768017	0.03937014043071581	0.013670019901671928	0.05424411642053377	-0.008030689109106537	0.011215237930092959	-0.059673564039002765	-0.04618820688428595	-0.06145511852083749	-0.024345052436599478	-0.03732498363001312	-0.010554622697241783	0.09120226667488565	0.05153443161185477	0.033132693884941035	-0.03472377140114726	-0.11669842444449395	-0.10714693584388622	0.029933585291787676	-0.08171449505119703	-0.06187754957407721	0.1220100997636364	0.00836951737629742	0.007377579919503981	0.023355817859117507	-0.08661811232337675	-0.014961483341508994	-0.03304346931205285	0.02699087411627214	-0.061734910832438074	-0.07826758635569012	0.04481167218986923	-0.05151634833396849	-0.07531269889957105	-0.03846444727433242	-0.14104273634841688	-0.022872370495653053	0.07450775054674096	0.02008083588825122	0.01955564382843636	0.0016815018454260807	-0.018017766499176663	-0.048106140258505674	0.013504830553006247	0.0719355702619044	-0.05365529759813422	-0.0035231323190138106	-0.00393871425144921	0.027241316081314276	0.07862956188172555	0.001517678556344368	-0.045975995116670054	-0.0030883068585072183	0.03960238175790031	0.017937478300463685	-0.0031935975047640655	0.07164885549544071	0.10980235739712274	-0.021127713070998942	-0.14537017263347024	0.09828672591965917	0.030282045265533235	
