2099 100
611 -0.66497189 -0.12877165 0.11220627 0.25261363 -0.35550356 0.65788513 0.94070327 0.62383384 -0.29073945 0.4540506 0.34023046 0.30907318 0.53933144 0.57889587 -0.50566947 -0.32550561 -0.07313814 -0.48125333 -0.047794573 -0.77160776 -0.58174801 -0.07852155 -0.052356873 -1.1400069 0.19499204 -0.11772294 -0.87945384 -0.30882141 -0.18569812 0.17151335 -0.14927229 0.43306053 0.26325887 1.107481 -0.058775671 0.65519255 -0.095908284 0.85245508 -0.85879511 0.028653026 0.74141765 -0.28152737 -0.71127206 0.53312719 -0.159207 0.50253028 -0.45146909 -0.10739806 -0.51357299 -0.55655575 -0.24695675 0.098234765 -0.23899092 -0.0053963577 -0.78985703 -0.54916793 1.0868541 -0.092819162 -0.77051842 -0.093182474 -1.1970901 0.36626816 -0.92818087 0.40839416 -0.40072426 -0.17804095 0.53875023 -0.37685987 -0.74642861 -0.58517611 -0.047189005 -0.29977494 -0.80326694 0.024500443 0.25293264 -0.059482299 0.12382843 -0.18135379 0.23958217 -0.041793257 0.61651331 0.5733003 0.16111828 -0.6313715 -0.50240117 -0.084886946 0.45660946 0.26598689 -0.19826618 0.82240909 -0.018547006 -0.52013618 0.35147631 -0.53002703 -0.20212996 0.80186725 -0.18022735 0.74212515 0.4575102 0.46697512
2208 0.20679991 0.012171538 -0.06888669 0.61661893 0.16523124 0.82716948 0.25554773 0.49643523 -0.18735608 -0.54106659 1.0450246 -0.4793855 0.7451207 0.059565131 -0.60574031 0.23495734 0.52745819 -0.3482267 0.70840359 -0.98748076 -0.31726763 -0.25511995 0.34320012 0.39173928 -0.54341811 -0.54787713 -0.46916634 0.017375279 -0.34269604 0.65067118 -0.25373173 -0.32563245 0.20151122 0.29034668 -0.05518543 -1.0433774 0.68073666 -0.5501461 -0.36334541 -1.047446 0.87167203 -0.069745854 0.54519856 0.12541276 -0.097034395 0.45947358 0.59793031 0.14415169 -0.21453017 0.60130501 0.045173381 0.87674582 -1.1094909 1.1514596 0.38048407 0.36334878 -0.65358949 -0.49276024 0.7168839 0.93652916 0.20473279 0.49444777 0.39038318 -0.066237956 0.27817175 0.095660426 -1.398687 0.04765619 0.69342178 0.70833039 -0.80013639 -0.30779788 0.29788586 0.59374905 -0.64634341 -0.14898443 0.37237415 -0.17175834 0.45126086 0.29404444 0.47194776 -0.71192211 0.45503014 0.35022315 -0.71979117 -0.57164019 1.3190159 0.1200762 0.45746252 0.72566813 -0.05920165 0.068670511 0.039469209 0.54236871 -0.063536949 0.71080226 0.52822578 0.25565612 0.358686 -0.20159566
1068 0.97373319 0.57499641 -0.044548362 0.67493981 -0.44926536 0.72744203 1.1936917 0.031104369 -0.6465897 -0.61064792 0.66940504 -0.50491834 0.59426254 0.32659146 -0.67358804 -0.18149887 0.65209806 0.29207435 0.72580886 -1.6211252 -0.34595829 -0.041268498 -0.31757534 -0.028353631 -0.2129743 -0.56966931 -0.12492428 -0.12697418 0.35834378 0.21916804 0.36795253 -0.44408044 -0.088712282 1.3507047 -0.30700457 -0.22216123 0.71900898 0.35076502 0.20596766 -0.56370747 0.79346544 -0.24614209 0.69719899 0.10964601 0.51909596 0.64913458 0.28955328 -0.4959431 0.53533 0.8873229 -0.17718701 0.82883364 -0.38323483 1.1060226 0.42437074 0.38198593 0.38526601 -0.12727059 -0.36881655 0.64584529 -0.47254306 0.59255314 0.1857979 -0.39437607 -0.34405366 0.61674625 -0.6047833 0.051437505 -0.15850742 -0.020605261 -0.6183753 -0.01588029 0.0019559343 0.80163664 -0.42978147 0.39954376 0.13076179 -0.15277013 0.72169095 0.15102102 -0.28778803 -0.69665998 0.31462875 0.22412822 0.22839582 0.11040692 0.56050837 0.40304783 0.68156546 0.88228875 -0.63511235 -0.18559034 0.74980241 0.34673408 0.32901216 0.89427644 0.1104561 0.23066655 0.32969356 0.47775665
1338 0.4473716 0.24541195 0.053288825 0.31323197 -0.1154673 -0.11006121 -0.22739185 0.013348697 -0.54973292 -0.45800856 0.060144398 -0.96055043 0.50299186 0.72176206 -0.55169928 -0.56901091 0.24454449 -0.25865203 0.47266009 -0.73040962 -0.46601847 -0.55925679 -0.61334795 0.1960118 0.27703157 -0.76307029 0.15696366 -0.16552137 -0.40992329 0.037701029 -0.029572226 0.34487137 0.12848313 0.52166754 0.17749228 -1.1412256 0.25531146 -0.61687469 -0.89473897 -0.85926682 1.7175834 -0.60863882 0.28325865 0.69100052 -0.3079446 0.79686457 0.50274217 -0.88275707 -0.18755166 0.39710915 0.008822809 -0.14703059 0.028584784 0.4001666 -0.066161789 0.25768906 -0.46421319 -0.5793643 1.1609895 1.2322636 0.98116183 0.14106192 0.55653781 0.35302833 0.018149707 0.46530017 -0.47673291 -0.65498102 0.38094315 0.06749922 -0.58967286 -0.62681085 -0.24055384 0.28100169 -0.55987048 -0.062622674 0.74745274 -0.13255556 0.069809005 0.11598951 1.299173 -0.58306599 0.20912392 0.48796701 0.5624519 -0.37182644 0.77017951 -0.32338935 0.35560396 0.39954063 0.32710922 0.052218162 0.46553475 0.48729956 0.076469123 1.4164574 0.81472945 -0.013315732 -0.53176802 0.55376685
1117 0.82276523 -0.011425433 -0.029610712 0.10592864 0.11436126 0.91476566 -0.3373321 0.6895889 0.26872402 -0.22447173 0.31207016 -1.2656044 0.70500672 0.69309503 0.15589848 -0.26256669 0.30930856 -0.047151927 1.0019876 -0.72436744 0.14332485 -0.078562111 0.58408952 0.584952 -0.50728571 -0.27557465 -0.35157749 -0.65370333 -0.18680674 0.96358931 -0.43204793 0.25240314 0.29490432 0.71519631 -0.40264562 -0.95346004 -0.0054765176 -0.53035164 -0.31253803 -0.99155378 0.99701297 0.18178998 -0.32217136 0.81590009 0.058566779 0.82422882 0.14301179 0.058062226 -0.057123456 0.80115879 -0.78386748 -0.4453381 -0.29970706 0.04903169 -0.52796793 -0.36581126 -0.94048733 0.17314747 0.50211757 0.88407737 0.0014090044 0.41990227 1.3134552 -0.19971876 -0.14700529 0.4345654 -0.2401576 -0.11470792 0.010789566 -0.12389012 -0.63632625 0.39980346 0.43701211 0.26615444 -0.93520236 0.21096517 0.25180373 -0.79573148 -0.28570032 0.76595283 0.61270237 -0.54763794 0.61415344 0.24060513 -0.1488003 -0.60218871 1.3692495 0.032262985 0.40718168 0.46489722 -0.15263638 -0.0097339284 0.58434844 0.64701045 -0.072571747 0.61413586 0.54208583 0.5538215 0.048123892 0.22215232
1640 -0.55176532 -0.12526324 0.33287871 0.018765485 -0.77609026 -0.044350218 -0.046611913 0.071924224 0.45468304 0.074660078 0.27284238 -0.23353362 0.59922975 -0.41405222 0.36162266 -0.23814006 -0.13490477 -0.16774926 -0.20612171 0.60573155 0.15439914 -0.06535203 -0.96757913 -0.96112543 -0.39635286 0.074164443 0.055689298 1.0969013 -0.57694238 1.1670543 0.0538118 0.22411247 0.70689386 -0.23999806 -0.57403177 0.85407352 0.31681806 0.39708859 0.4963139 0.89285165 1.1455008 0.80557978 -0.34744468 0.19174448 -0.4203074 0.65874559 -0.43686137 0.070029885 -0.79590648 0.45341191 -0.78092539 -0.63760525 0.07810463 0.23529129 0.1596113 -0.96729296 0.14697371 0.38070223 0.49899587 0.83529109 -0.41985184 0.15131319 -0.095696434 0.093282595 0.052581202 0.46062019 -0.34945276 0.6348049 -0.33279935 0.75714344 -0.26141009 0.58696663 -1.1679424 -0.96989405 -0.13173929 0.13520445 -0.15045245 0.0061344225 0.4309245 -0.014906636 0.69862306 -0.089832336 -0.032947332 -0.25676885 0.24108388 -0.11273708 0.25727519 -0.55023277 -0.28958279 1.9464227 -0.64675462 0.80991751 -0.32424274 0.20088105 -0.062101793 0.56180131 -0.40593433 -0.060240481 0.37379634 -0.60257572
518 -0.87255299 0.59389234 -0.18203975 0.32777241 0.008011722 -0.11107292 0.29079062 0.65827352 -0.73113954 -0.60746574 -0.4221586 0.24048124 0.55699521 -0.36250871 -0.51526272 -0.14898255 0.46199808 0.173079 0.47008654 -0.63674527 -0.34439245 -0.67803383 -1.2077123 -0.30102572 -0.15929741 -0.23706494 0.78041476 0.68081087 -1.0997767 0.45837817 0.46640074 -0.17997505 0.039190188 -0.10255853 -0.21864143 -0.091315508 -0.30394033 0.19027534 0.037911966 0.23399051 0.90861607 -0.0081801862 -0.065584756 0.18842269 -0.17983434 0.49226201 -0.43126127 -0.038527943 -0.20083292 -0.0072618495 -0.49363747 -1.1108785 0.28515258 0.11795601 -0.49599895 -0.36968288 0.71599931 -0.025771922 0.38239902 -0.029508226 -0.75838995 0.31493297 -0.67029148 0.21425369 0.67142177 0.18864687 -0.79677778 -0.032155193 -0.61110228 0.048923463 -0.68695098 0.65055007 -1.1705906 0.57106608 -0.2964381 -0.96335804 -0.030480925 0.0757007 -0.0027891917 -0.2874904 0.80046433 0.13620301 0.59098041 0.10710408 0.88809079 0.24894872 0.6492579 -0.76412278 -0.005958701 1.5180689 -0.61152732 0.70532793 -0.70809186 -0.079813711 -0.15091237 0.59545958 0.042862967 -0.16789551 -0.21572717 0.13194822
277 -1.661347 -0.073154524 0.43649355 0.047883291 -0.19546622 0.29812691 -0.29945984 0.57632589 -0.33508271 0.22848254 -0.17925729 0.15700617 0.76983285 -0.05698891 -0.29999164 -0.46016783 -0.25486672 -0.15720658 0.63488078 0.059788462 0.041296288 0.28968313 -0.71767277 -0.40702334 -0.11387624 0.15030858 -0.51488298 -0.32752126 -0.54869026 -0.26392075 -0.20901527 0.19252908 0.85350531 -0.32916847 0.70774573 -0.27760172 0.15288746 -0.14711933 -0.2450846 0.39163479 0.67548299 -0.4509891 -0.29839855 0.63193381 -0.75265706 0.47475374 0.092148595 -0.021312015 -0.61480385 -0.28775427 0.91857731 0.31218407 -0.45262495 -0.049003057 0.36951709 0.28956857 0.13408118 -0.43105215 0.96343416 0.12376247 -0.58611804 0.38345626 0.18039446 0.40918136 0.08378616 1.115253 -0.80227697 -0.1704568 -0.0029723924 -0.048100743 -0.46725625 0.55608982 -0.003026539 -0.11213279 0.29111996 0.1026075 -0.30299655 0.93678331 0.025031138 0.4085803 1.2300317 0.023379268 0.9413383 -0.15724429 0.57429671 -0.50810456 1.238719 -0.42465162 -0.21034244 0.81873703 -0.28002638 0.38624719 -0.72794694 -0.39147905 -0.53584719 0.0027544075 0.45422682 -0.10705788 -0.32701871 -0.21145269
391 -0.56268436 0.57044619 -0.14833701 -0.091305934 -0.091388665 -0.30513963 0.023984173 0.5578323 -0.69526869 0.20004335 -0.41264722 -0.29276371 0.50723517 0.58844894 -0.11121026 -0.45697698 -0.017237719 -0.088079587 0.9509272 -0.011336536 -0.42008445 0.319933 -0.96288621 -0.52687758 0.053604856 0.53416634 -0.43501145 -1.1840237 -0.081429534 0.22423686 -0.51861048 0.65593582 -0.31353819 0.55697942 -0.95644087 -0.13075694 0.34163955 -0.011318102 0.44953534 0.16746703 1.1338823 0.13334815 -0.54197109 0.66576028 0.7189334 0.62609816 -0.57742524 -0.75223428 -0.81500769 -0.29372659 -0.79485637 -0.094392344 -0.33490479 0.081763774 -0.96540678 -0.46409631 0.2858783 -0.441392 -0.039031722 0.59481961 -0.38781956 -0.15225075 -0.65111762 0.46820036 0.12188887 -0.0021916165 -0.013693769 -0.42020121 -0.20988475 0.10354742 -1.3214157 0.65291643 -1.1643642 0.32412252 0.65282905 0.16597626 0.65281487 -0.059986915 -0.49840701 0.21260168 0.55449766 0.1367237 0.26737109 0.11026403 0.14800359 -0.0077412562 -0.38854042 -0.27021238 -0.25719044 1.289488 0.042513315 0.55228287 0.41023251 0.055903498 0.25736767 0.6195333 0.3194074 0.26951286 -0.94583285 0.29173535
1260 -0.55733418 -0.096846037 0.076870888 0.57280576 0.096177019 -0.59059435 0.27112439 0.51126075 0.29091591 -0.74301773 0.11357227 -0.0074296868 0.89892054 0.10704625 -0.029094357 0.35218337 -0.1640595 0.39185312 0.40313187 -0.031516626 0.0031842347 -0.36153039 -0.54376024 -0.56557703 -0.26617506 -0.26427123 0.032551363 -1.1825478 -0.76968402 0.56660193 -0.11383063 0.89727932 0.026078824 -0.082352445 -0.82808042 0.098241627 -0.080086023 0.19874726 -0.034933645 0.059377551 0.27766901 0.28446716 -0.14953975 0.68085623 0.54953325 0.89951873 -0.10338026 -0.63939506 0.38143969 0.38938889 -0.62807584 0.3192021 -0.21243106 0.44034663 -0.15433298 -0.60468483 0.33200809 -0.16859305 0.75912857 0.11672889 -0.18813948 -0.54033679 -0.22238562 0.41294873 -0.08661101 -0.19286893 -0.61643714 0.31278011 -0.22647707 0.18442954 -1.6339669 1.1842203 -0.42334834 0.1025909 0.074458033 -0.37838775 0.26009268 0.56484514 -0.070197515 0.18745239 0.48706394 0.15588565 0.71558857 -0.87980002 0.025614137 -1.0114197 0.65728766 -0.31191969 1.0023586 0.79510444 -0.41382575 1.2753882 -0.086872891 0.20442583 -0.38290995 0.06421335 -0.39215401 0.33905995 0.061200026 -0.0015755985
1237 -0.89535457 0.92018336 -0.22866455 0.21441999 -0.32822609 -0.027778756 -0.50007385 0.3705734 -0.45994335 -0.45002368 0.20114274 0.59064257 0.55779505 0.65849155 0.62176317 -0.58088297 0.113371 0.42218632 1.0011125 0.48182917 -0.37994742 -0.42470539 -0.83217198 0.17766272 -0.028878745 -0.63965946 -0.70814061 -0.72439796 -0.96694142 0.050641913 -0.31857985 -0.3773914 0.049122382 0.075239658 -0.058201347 -0.15246415 0.034319144 0.27803215 0.10753748 -0.083024144 1.3338336 -0.052393787 -0.82002336 0.60159892 0.71091467 0.57532752 -0.3488808 -0.27859554 -0.063722707 0.21589343 -0.41438705 -0.2407269 -0.22379678 0.51856363 -0.68375915 -0.77299833 -0.16259748 0.059801333 0.42267403 0.85998219 -0.14873654 -0.41224548 0.11512292 1.0120691 0.57034433 0.25481424 -0.41977504 0.084707171 -0.28761432 0.63453519 -0.94410229 1.3280133 -0.44957519 0.37625214 0.24390166 -0.45000103 0.51403505 -0.020164646 -0.53870851 0.65893483 0.28999022 0.72391194 0.58237356 -0.060950384 -1.0946137 0.10466044 0.73081017 -0.67699301 0.31973234 0.41099742 -0.78659356 0.13748066 0.53254062 0.36261266 0.42193431 -0.16709203 0.19846053 -0.29802048 -0.084855802 0.0015875096
1550 -1.4772134 0.26460662 0.041302897 -0.48874158 -0.048885778 0.12138961 -0.2908572 0.44407123 0.36756197 0.57180542 -0.59043741 -0.17728421 0.708202 -0.27939636 0.21832247 0.26852444 0.10612192 0.077594519 0.7234453 0.17405094 0.083055183 0.59556419 -0.056598339 -0.18504831 0.1677506 0.088612452 -0.15172379 -0.59913063 -0.41891026 0.18865693 -0.27122524 0.45753738 -0.22848219 0.033533297 -0.48495165 0.30001906 0.75198042 0.33529088 0.15180774 0.49270967 0.63747174 -0.032566689 -0.43119445 -0.19728994 -0.49591601 0.17553397 -0.59898293 -0.079047047 -0.27761048 0.56468785 -0.58236879 -0.17109279 0.1994589 -0.89645833 -0.44950655 -0.62243742 0.022970907 0.28075147 -0.2313821 -0.26213291 -0.0734732 -0.166152 -0.24295889 0.77585411 -0.17605944 1.3168546 -0.12298021 0.85600847 -0.57105964 -0.15751843 -0.79825461 0.54851156 -0.20736675 -0.23886047 0.92779601 0.49627954 -0.19323191 0.041313604 -0.74480408 0.99972802 0.96694577 0.1750493 0.47076377 -0.69842976 -0.30510437 -0.10767921 1.0536735 -0.53358901 0.014971376 1.2050833 0.1256724 -0.26340604 -0.19899632 0.11321203 -0.1300969 0.33449921 0.2339499 0.18646756 -0.25888595 0.248163
2034 -0.74319023 0.3376615 0.16297151 -0.19387367 -0.14734022 0.1833176 0.017675225 0.091895193 0.927935 -0.74405336 -0.27062607 0.26908597 0.22048114 0.13961008 -0.26323268 0.099179275 -0.39892408 -0.48894197 -0.2126475 0.4688395 0.11222114 -0.14775793 0.14330713 -0.7810306 0.60965484 0.066103108 -0.71812773 -0.44386679 -1.390569 0.8899461 -0.83706719 1.1560001 0.46098983 -0.35506412 -0.15825815 -0.43992034 0.7620768 -0.31099179 -0.5951857 -0.44511455 0.63642013 0.38345227 -0.80258429 0.43723467 -0.095377222 0.76301831 -0.36689186 -0.120557 -0.21145092 -0.05150022 -0.030352058 -0.12519123 -0.91487241 1.0931656 0.018203529 -0.33584213 -0.12338535 -0.43150207 0.42062435 0.47732303 -0.31259787 0.16424799 -0.63346142 0.59448916 0.26512682 0.25527835 -0.29856694 0.065855414 0.057410669 0.34787259 -0.46534279 -0.056202639 -0.59143525 0.10425596 0.77588099 -0.05741873 -0.23671128 0.64905375 0.02407123 -0.066600636 0.36953515 0.14285859 0.4055292 -0.067883432 -0.98805082 -0.63577837 -0.35855514 -0.83288497 0.41092688 0.90731478 0.36007273 0.33945608 -0.53921872 -0.1889292 -0.22594418 0.38530865 -0.10306143 0.58054239 -0.0051025241 0.6027261
684 -1.5550841 -0.056146335 -0.11685953 -0.42799908 0.13651049 0.28531837 -0.014366055 0.28484139 0.32961857 0.76138008 -0.5695492 -0.28909591 0.75390369 -0.09498214 0.1167575 0.16851413 -0.2180908 -0.2644189 0.55557877 -0.0026645791 0.22570972 0.55741376 0.10347934 -0.31784385 0.079607271 -0.12332134 -0.1556727 -0.44355395 -0.2609868 0.18989716 -0.32546809 0.5169183 0.19640513 0.26568568 -0.3648105 0.19550543 0.42664939 0.21841222 -0.045317467 0.46176657 0.40288439 0.063798741 -0.43940231 -0.35556668 -1.1038024 0.30376291 -0.63077253 -0.012218337 -0.54910964 0.43931782 -0.26475805 -0.21530277 0.26064813 -0.96279824 -0.72838044 -0.42733678 0.24593776 0.65657067 -0.3369593 -0.15144125 -0.3338857 -0.085821241 -0.48457745 0.85443878 0.017898154 1.0741129 0.014470083 0.6586259 -0.68058991 -0.2425838 -0.43667218 0.29546806 -0.12505937 -0.26771677 0.68633747 0.61871785 -0.28587773 -0.19018605 -0.89506173 1.1291571 0.95692015 0.4858768 0.4130469 -0.66932726 -0.191581 0.10605424 1.0131279 -0.36450207 -0.074553668 1.0805315 -0.023199327 -0.437922 -0.29087111 -0.025490265 -0.25807658 0.44952807 0.2366631 0.094367519 -0.25279272 0.46880287
115 -0.52653527 -0.32078215 0.12997718 -0.21364209 -0.12321544 0.49418414 0.53660637 0.42637044 -0.64468867 -0.98309964 -0.74637496 0.048037648 0.21597628 -0.060282964 -0.39812949 0.026037086 0.39106447 0.2498184 0.59915012 -1.1859767 0.036476389 0.44282833 -0.40200594 -0.50989169 0.21138246 0.18303381 -0.15088424 -0.060322411 0.02802985 -0.27572984 0.0095882928 0.49795023 0.03387833 -0.2830995 0.19409288 -0.15235092 0.50464964 0.16687047 -0.61247754 0.14246985 0.74846256 -0.13941576 -0.57471246 -0.59963471 -0.36459205 0.55301654 -0.17054836 0.24534863 0.16781858 0.59559947 -0.11359727 -0.1905296 -0.72341996 0.42327726 0.13856658 0.64145285 0.066021807 0.29430068 -1.1253181 -0.24304497 -0.35184488 0.6312952 -0.43848196 -0.29436252 0.3888309 0.54634124 -0.77894467 0.72985542 -0.90784836 -1.0508183 -0.18884853 -0.1637553 -0.495426 0.79636687 0.057151735 0.15545741 0.066715702 -0.097014241 -0.014790569 0.67732888 -0.53108156 -0.33260578 1.0783217 0.23203234 -0.66232663 -0.088900931 1.2516419 -0.42240664 -0.17982492 0.73690921 -0.45323458 -0.1774725 -0.032608885 -0.50591916 -0.128951 1.0773785 0.048520613 0.91636735 -0.40092 0.78759795
1147 0.19811232 -0.3683261 -0.27328804 -1.7081833 -0.41573292 0.055779498 -0.082272731 -0.19605367 -0.38350058 -0.15804094 0.96713692 -0.016246397 0.51383698 0.20431943 0.45948079 -0.60691404 0.50346231 -0.11863604 0.08673121 -0.71554184 -0.34604293 0.23686029 -0.12389877 -0.2560086 -0.10745167 -0.061660416 -0.15977924 0.897623 -0.49933717 0.49115357 -0.19276091 0.42266908 0.60882109 0.33291385 -0.81466782 0.0096144946 -0.041937154 0.020622443 0.10382031 0.38512364 1.1276101 0.04975361 -1.3924756 0.28925604 -0.4844819 0.99592501 -0.57826197 0.25541264 -0.45212474 -0.24478756 -0.87852287 -0.1421307 -0.47707665 0.31036028 -0.49613565 0.073405564 -0.31636095 0.16446644 -0.89519584 0.42519242 -0.77323449 0.53190649 -0.41335857 0.11490583 1.1592759 1.2750325 -0.70994341 0.086805999 -0.592345 -0.03366337 -0.26439592 0.36681053 -0.87382197 -0.3962726 -0.66769791 0.14681751 0.52597994 -0.31693766 0.042162701 0.67794013 0.22402819 -0.17270885 0.74843776 0.35521629 0.47854748 -1.165158 0.50289249 0.41367412 0.40324578 1.1572716 0.019191131 -0.076734699 -0.09842924 0.43727812 0.24081661 0.5036819 0.089426294 -0.24905096 0.11236835 -0.26198792
785 -0.26633194 0.47932354 -0.080891594 0.24344501 -0.26279464 -0.59136873 -0.3483527 -0.21981035 -0.032457802 0.32792294 0.38613686 -0.5849117 0.48091361 0.52191365 -0.26808274 -0.099547118 0.47359529 -0.20015946 0.29537976 0.17608953 0.40024462 0.48610541 -0.33319482 -1.1587558 -0.23456435 0.41247395 -0.2988973 -1.3126653 0.44503552 0.052555528 -0.40113649 -0.12844153 0.5394792 0.14048548 -0.36778143 -0.62703079 0.89972287 -0.44143724 0.043630816 0.24199755 0.8077873 0.13262498 -0.32493371 0.32688469 -0.26768845 0.42699665 -0.75691366 -0.82956994 -1.1444468 -0.12117364 -0.14793752 -0.20013662 -0.33443636 0.073774636 -0.90771407 -0.92670327 0.12467342 -0.47877863 0.94504577 1.280339 -0.041950479 -0.21118577 0.75411159 1.2313132 -0.38641262 0.63495207 0.23691672 0.066280089 0.77802807 -0.011310853 -0.8323524 0.70728695 -0.38805562 0.56596005 0.09095113 0.64404637 0.57451212 0.21140149 -0.095003307 0.9769327 0.91284287 0.087198064 0.48916024 -0.8056705 0.49301511 -0.88990372 0.27623126 -0.21886262 0.65769434 0.92791325 -0.48441821 0.53452545 0.23338537 -0.11219796 -0.61929178 0.13921861 0.4557904 -0.53398687 -0.2036178 -0.2256666
1032 -0.48941657 -0.16605774 -0.17857376 -0.18276913 -0.1498951 -0.25463682 -0.40782604 -0.11100329 -0.09051536 -0.97388387 -0.1799293 -0.14451343 0.60674417 0.22689149 -0.25184333 -0.17511201 0.70323718 -0.959557 0.19419964 -0.68305635 0.48521882 0.11071805 -0.1361337 -0.72071922 0.38385201 -0.80428761 0.038618118 0.52240062 -0.33849201 -0.076987699 0.8007946 -0.54947567 1.0830491 -0.21759747 0.12857831 -0.59290153 0.15773496 -0.27677453 -0.78381044 0.82090777 0.87075412 -0.062944978 -0.51835966 -0.38042167 -0.72496623 1.0140995 -0.49085939 0.38690701 -0.67278039 0.49379006 -0.33836249 -0.42791134 -0.48309779 0.88446552 -0.45592192 -0.54345524 -0.12102605 0.37430865 -0.39216784 0.65225238 0.67002022 0.20445213 -0.28433433 0.10274959 0.68151653 0.96535057 -0.44994408 0.68484426 -0.72159028 -0.35743862 -0.098788418 -0.54625118 -0.99438161 0.65426147 -0.25404373 0.08706449 0.44767562 0.13925758 0.17226736 0.9052887 0.21466526 0.36984766 0.88012993 -0.39874583 0.034099456 -0.98214424 1.5767944 -0.27655786 0.47024065 1.4592469 -0.54915351 -0.12149961 0.15630281 -0.090898156 0.52487469 0.2550993 0.24525124 -0.35496062 -0.1741934 0.0034037898
1105 0.22082694 0.61237901 -0.33554661 -0.22075854 0.89128047 -0.28757039 -0.12903327 -0.38433224 0.50723499 -0.64789551 0.51625288 -0.36836317 0.50139695 -0.29599574 -0.029710721 -0.21744224 0.49454439 0.13063143 -0.062134035 -0.17266463 0.39093053 0.26596454 0.15622839 -1.2210897 -0.16517183 1.0418721 -0.2081916 -0.76958281 -0.11803177 0.60684866 0.039123625 0.62967265 0.19884086 0.37101975 -0.088071667 -0.50599247 0.86425018 0.08646106 -0.11876912 0.088611253 0.40452415 -0.039001159 -0.54711831 -0.012090137 -0.42580163 0.35191301 -0.87117714 0.13545787 0.11620954 0.5169301 -0.65228218 0.099366561 -0.70256621 0.71312028 -0.24468406 -0.59191346 -0.24606115 -0.20380029 -0.03843084 0.70884472 -0.086272471 0.52230859 0.16131626 0.09618172 -0.10835069 0.61940128 -0.28282085 1.1019208 0.067938842 0.040704627 -0.9124524 0.1158961 -1.3374412 0.045840207 -0.16502908 0.64445227 0.56206149 -0.48681322 -0.0004200351 0.040780853 -0.057094604 -0.58772951 0.25716168 -0.57440156 -0.26310739 -1.7414792 0.75506496 0.55755115 0.53328174 1.3229557 -0.13195233 -0.070100531 -0.45629939 -0.55371344 -0.84125459 0.34306151 0.1839322 0.28420055 -0.19373171 0.17075661
211 0.31706601 0.521312 -0.57039785 0.40285236 -0.33871391 0.35986617 0.35767084 -0.30245128 0.58439589 0.23950377 0.74939871 -0.03606632 0.34429622 -0.27404162 -0.31856462 -0.23781273 0.52937543 -0.70392573 -0.67213011 -0.02878879 0.30843937 -0.21900463 0.41532168 -0.67770016 -0.5714733 -0.072129071 -0.37033939 0.4530305 -0.2740618 1.4829861 0.12251004 -0.20226792 0.95246321 0.39621153 -0.92677969 -0.25094652 0.66283864 -0.058803499 0.24494919 0.22572313 1.3619719 0.22675478 -0.20998929 0.59806573 -1.0370759 0.57517391 -0.78915715 0.32483706 0.2125311 0.20416184 -0.21249142 -1.1476768 -0.14815265 0.22991642 -0.3571918 -0.86748528 0.3738609 0.40085387 -0.49071822 0.2510407 -0.1462111 0.75411457 0.037020836 0.48529562 -0.015406962 0.95046067 -0.041584916 -0.17697543 0.36780739 -0.37648386 0.044592068 0.2926906 -0.34066579 0.33518952 -0.1391208 0.27205554 0.092896767 0.092248388 0.275224 0.64838147 0.22572654 0.14726876 0.61627561 -0.072041996 0.24389708 -0.71468145 0.24062867 0.064831771 0.83023721 1.8824745 -0.25407353 -0.37317398 0.19165444 -0.075691618 -0.26621327 0.29726082 -0.41421416 -0.31568971 0.94997317 -0.11199985
1857 -0.25712347 0.21412553 0.33403397 -0.20293994 -0.38497725 0.31810603 -0.1013954 0.6082049 0.079191908 -0.91521144 0.28718919 0.31197438 0.75401241 -0.14257799 -0.51970041 -0.10348644 0.67422789 0.21884978 0.31505436 -1.2292004 -0.18846127 -0.31860077 -0.071161084 0.25079697 1.1045061 -1.1855105 -0.71382833 0.23075281 -0.65402091 0.46694586 0.088388219 -0.040090233 -0.080066964 0.16771692 -0.49284607 -0.42676124 0.59915203 0.32117239 -0.80263489 0.67633903 0.96704352 0.15050174 0.031522449 -0.097676165 0.7082606 0.92876178 -0.15290812 0.5140273 -0.18238483 0.17910582 -0.94210815 0.73795342 -0.38487023 0.52963698 -0.13999069 -0.76456678 -0.085688077 -0.81923199 0.021908648 0.85132855 0.17641149 -0.27890858 -0.41338363 0.32151437 0.22911407 0.5899235 -0.44427305 0.72158295 -0.18080598 0.78547621 -0.8332637 -0.19946305 -1.2580096 0.92774951 0.28271815 -0.29035476 0.1028816 1.1643351 0.21977796 -0.13817969 0.82984161 -0.078810886 -0.019580606 -0.6437974 0.2894744 -0.47128963 0.55462945 -0.33921647 0.33187658 1.3345608 -0.060762621 0.66231745 -0.42565659 0.33794844 0.97795951 0.63278818 0.10388657 0.23214878 -0.33075067 -0.055186722
905 -0.27426881 0.021029694 0.21581189 -0.19021714 -0.52705628 -0.4564718 -0.16488384 0.20091878 -1.1741792 -0.45160219 0.75491041 0.703565 0.77293205 0.42512858 -0.098139912 -0.28661618 0.50039864 -0.38545752 0.3860504 -0.70181406 -1.0956376 -0.26701719 -0.3797929 -0.57153082 0.078359649 -0.72542661 -0.66361988 -0.084536314 -0.2674461 -0.41666067 0.04902881 -0.29434046 0.082523189 0.23289049 -0.6737178 0.018693134 0.73942256 0.13026038 -1.0709137 0.35804296 1.1107943 -0.49620223 -0.82055533 0.66198188 0.75679368 0.7157166 -0.25029188 -0.052117161 -0.20228073 -0.17569846 -0.19882271 0.30309096 -0.99791431 1.0769867 -0.035739522 0.31719914 -0.33827582 -0.45947057 -0.2711187 1.061787 0.43380696 -0.47901186 -0.39700398 0.38165954 0.50961167 0.60671043 -1.0608741 -0.48725533 -0.095433332 0.62254763 -0.3556926 -0.36708346 -0.6173898 1.5809186 0.36866182 -0.08878915 0.72628361 0.89232087 0.50283402 0.23581654 0.1988259 0.2586028 0.55241281 0.52758837 -0.29506528 -0.29857996 -0.19922008 -0.16581425 0.62363589 0.8471061 -0.13349301 0.60748112 0.47889516 -0.078487769 0.45932832 0.62305588 -0.61600721 -0.76572639 -0.13368461 -0.19789012
2029 -0.13125803 0.013105229 -0.26407558 -0.99820101 0.10914844 0.41571036 0.14109807 0.40089771 0.5340966 0.065030985 0.61872292 0.59126955 0.7964468 0.51588076 -0.43218046 -0.14840712 -0.2909722 -0.16340873 -0.30826527 -0.20302123 -0.63609976 0.24723704 0.020322397 -0.74309564 0.81767583 -0.14787574 -0.71514881 -0.28126746 -0.72825086 0.76678878 0.62088281 -0.38405895 0.60159951 0.40192786 -0.53743547 -0.0052617085 0.1732734 -0.48913521 -0.29668599 0.15788767 1.1853312 -0.17105672 -1.1392295 0.37368792 -0.24507016 0.93881255 -0.48628455 0.52342343 0.25523105 -0.095609568 -0.16080609 0.99595368 -0.42290521 0.27719054 -0.4660638 -0.71593374 0.21339054 -0.87296772 -0.55371916 0.12185023 -0.29913664 -0.50160426 -0.13342562 0.51763976 0.4552469 0.42969596 0.0058378298 0.90081948 -0.72905767 0.28430456 -0.58844137 0.19376615 -0.46940467 0.63807917 0.46391943 -0.11409468 0.58650869 0.5243659 0.34426892 0.081542231 0.41336963 0.46310097 0.34273729 -0.6512782 -0.33965957 -1.2388167 0.91825187 -0.022273414 1.1019492 0.79225779 -0.33751741 -0.7293095 -0.0077167223 0.26504529 0.62554324 -0.031301204 -0.20220979 -0.5431779 0.18146542 -0.28925365
1183 -0.20355757 0.086629286 -0.55964339 -0.43017033 0.62023926 0.16049533 -0.14572467 0.059227273 -0.42642394 -0.33662167 0.42372721 0.40427905 1.0444299 -0.069434345 -0.89801198 0.031559102 0.51538229 0.1717864 -0.34491596 -0.65341514 0.0049832431 -0.32413468 0.4170371 -0.38814738 0.063690685 0.091595486 0.52525038 0.62559736 -0.48892772 0.68728673 0.36285454 -0.35077545 0.25522473 0.6663751 -0.41012964 -0.21809594 0.1489435 -0.077274822 0.11530733 0.56528676 1.5058545 0.068066269 -0.69582891 0.1020344 -0.4445461 0.7279557 -0.80290657 -0.060866669 0.16054879 -0.46882266 -0.61848313 0.19485548 -0.35434398 0.59164661 -0.5041334 0.059115727 -0.46883836 -1.0330787 -0.29836321 0.28187448 0.014161484 -0.19378005 -0.88934124 0.35452262 0.48228103 0.12671199 -0.7088396 0.41447675 -0.5207144 0.17355482 -0.97361797 -0.5521943 -1.7247981 0.50552827 -0.61865872 -0.75098079 0.34729543 -0.74165773 0.0046714982 0.55763191 -0.15699856 -0.43588856 0.70359445 0.21944739 -0.26909238 -1.034707 1.1435205 -0.11352745 0.34586352 0.36854041 -0.1121889 -0.086229756 -0.5741291 -0.5157432 -0.57997441 0.96909457 0.19479668 -0.24202111 -0.28210649 -0.77135158
1161 0.37520704 -0.35686445 -0.68115228 -1.0017095 -0.45053649 -0.63047105 0.37066352 0.65897554 0.1046012 -0.29366335 0.35731328 -0.75107253 0.99418569 0.95647407 0.35720664 -0.054782789 -0.39668432 0.20984113 0.62529868 -0.072948709 -0.80530339 0.38317409 -0.89187813 -0.097923495 -0.094596148 -0.081385598 0.0078080492 -0.22136815 0.35789889 0.77763438 0.48127028 0.42894602 0.75646859 -0.23743209 -0.64232826 -0.55653685 -0.46010655 -0.55540556 0.42523709 -0.52848601 1.0024267 0.24951616 -0.62242115 0.48510027 -0.30125162 1.5534394 0.11590908 -0.02393111 -0.072448544 0.56277138 -0.31334293 0.27511758 -0.7190575 0.1468147 0.11023986 -0.20396611 -0.11240825 -0.33253163 -0.52122992 0.83195174 -0.70179659 0.198073 -0.054883704 0.14929031 0.55039829 0.060529813 0.02155165 0.35548171 -0.76801789 0.030733667 -1.3011023 0.53367907 -0.47745067 -0.24963602 -0.20355849 0.73185581 0.73121858 -0.24352065 0.13492425 -0.075371325 0.53930688 -0.068364128 0.30061698 0.048849769 0.82150996 -0.64688349 0.84864664 0.0086535849 1.2516508 1.0309408 -0.75809181 0.41115177 0.12395316 0.56621122 -0.15489338 0.95742536 0.26988101 -0.76336229 0.035946924 0.11195685
1204 0.47068328 0.70331842 -0.850618 0.033930089 -0.45187682 -0.082514964 0.53712249 -0.020211997 0.64241689 -0.3466619 0.45286536 -0.16432227 0.79085028 -0.13305831 -0.45512247 -1.1572485 0.0064047296 0.43058702 -0.20397055 -0.29384169 -0.095338583 -0.3798905 -1.2039096 -0.083400272 -0.50703114 -0.47486013 0.14890279 0.25124779 0.23169671 0.46236426 0.63941306 -0.29821736 0.6013273 0.61009258 -0.8186332 0.16127798 0.3523663 0.23808762 1.1502448 0.48631179 1.3836986 0.51862204 -0.35636869 0.26850706 -0.43487442 1.2290121 -0.059270393 0.30474386 0.010875886 0.82965285 0.076339908 0.10774306 -0.049821217 -0.12031478 0.11246327 -0.69293386 0.23349883 0.042903297 -0.55433875 0.25549731 -0.66346955 -0.47271055 0.65887839 -0.24161568 -0.4050087 0.32290953 0.039899688 0.88227081 -0.71807015 0.20667568 -0.62589967 0.82940024 -0.70548576 -0.51514018 -0.060544137 0.49841172 0.36780453 0.31032744 0.30553937 0.25000924 0.44294986 -0.36104447 0.052920803 -0.50455528 0.79790634 0.19304462 0.87821567 0.12566982 0.65403014 1.0032964 -1.3236924 0.11158796 -0.25172144 0.081948541 -0.28330311 0.47844678 -0.86528438 -0.67093325 -0.13610098 -0.34262374
46 -0.3852624 -0.39793813 -1.1379483 0.0023654159 0.0012820995 -0.27121687 0.59381646 -0.033132169 1.2543932 0.6383059 -0.36252707 -0.82904857 0.5790751 -0.49751228 -0.32471427 0.64293796 -0.52358085 0.67840731 -0.35494787 0.073106602 -0.087520115 -0.22303241 -0.33417484 -0.4819864 -0.85108846 0.32412115 0.46712413 0.26228368 -0.0045330506 0.69773775 0.438429 0.97919053 0.29600036 0.0097871926 -0.78199416 -0.99465632 0.43857789 -0.5766989 0.24022451 0.39730179 1.0997286 0.53933525 -0.68979043 0.28695461 -0.52512306 1.2076702 0.13919434 0.094304197 0.66807187 0.36954117 0.44189528 -0.32073742 0.027176555 -0.42510423 0.28134495 -0.39215243 -0.23994155 0.29910365 -0.22242734 0.44183499 -0.29369619 -0.019535145 0.80419159 0.81746995 0.22386892 0.44326401 -0.37850076 -0.21868502 0.35448506 -0.13109058 -0.40442032 0.35729125 -1.1085317 -0.22050527 -0.46151161 0.34204963 0.58692545 -0.39689142 -0.2171865 0.77195233 0.94057882 -0.055544503 0.57620817 -0.033444073 0.26125047 -0.30651483 0.31223947 -0.52439374 0.90945178 1.494283 -0.21618372 0.30539513 -0.34963208 -0.020456564 -0.65170574 0.83737057 -0.022246448 0.31575081 -0.18123867 0.21342115
306 -1.1643412 -0.30554199 -0.25434834 -0.40707278 -0.11654517 0.52530903 0.57126164 0.78409475 0.11723287 -0.067217916 0.077573001 -0.08653789 0.54144895 0.4145962 -0.31342724 0.17422168 -0.1042636 0.97614837 0.044302773 -0.83512187 -0.54121006 -0.11890334 0.18878719 -0.47509536 0.57337314 -0.17308342 -0.82813376 -0.45659384 -0.87554014 -0.35395831 0.92497808 0.90048033 -0.25715572 0.072364621 -0.32922369 -0.49551219 0.39731291 0.75800997 -0.94286853 0.19400916 -0.2426268 -0.93437898 -0.97685081 0.36555564 0.1568878 0.84794378 0.43754286 0.23953919 0.35048801 0.16490015 0.5578202 0.55233312 -0.063052908 0.19212513 0.033886664 -0.21634936 0.898561 -0.15134744 -0.65853715 -0.20246038 -1.2385805 -0.22948539 0.065767542 0.72273111 0.76648092 0.4821139 -0.67770976 0.81288236 -0.72824728 0.064836569 -0.3449285 -0.098386392 -0.023091668 0.32248622 0.61166459 0.25063804 0.0058115507 0.31291842 0.47142652 -0.22773434 0.70118415 0.37342572 0.91032666 -0.57369709 -0.94119799 -0.33212718 1.2391672 -0.12516353 0.3599233 0.91435033 -0.44655821 -0.11103383 -0.19286795 -0.36449683 -0.32263944 -0.21476035 0.45562255 0.27475637 -0.36580265 0.097208641
2030 -0.81197482 0.18511079 0.14404202 0.22427459 0.31063914 -0.4071036 0.48782149 0.62032354 0.52916545 0.11593334 0.48306292 0.3486841 0.90557015 0.24110368 -0.30454654 -0.037958249 -0.59966356 0.25522792 0.0081635807 0.11736254 -1.0069343 -0.2548103 -1.3463898 -0.85794622 0.50312126 0.51157796 -0.11562192 -0.1460416 -0.73867738 -0.24314009 0.07449273 0.25647524 0.42128652 -0.71596825 -0.45057192 0.050422695 0.58989084 0.09231244 -0.26510084 0.63135815 0.74391407 0.5797869 -0.92008096 0.26245841 -0.086271107 1.2282043 -0.23479795 0.26251742 -0.043483268 -0.22604646 0.4408946 -0.20111249 0.62870133 -0.11879136 -0.51927364 -0.046161961 0.028842647 0.13477442 0.10442121 0.47809178 0.75347769 -0.89313579 -0.077989519 0.73912287 -0.35377631 -0.37654561 -1.0905102 0.42196232 -0.018338215 0.75455439 -0.64466113 -0.3025465 -0.24350528 0.011250611 0.21219374 -0.56252015 -0.58780694 0.78078306 -1.0656272 0.80935019 0.69142967 -0.24255872 0.62383169 -0.46158007 -0.52868772 -0.20051736 -0.010643196 -1.1975919 0.14058729 0.93511707 -0.68379253 0.33141389 -0.13730323 -0.076759949 -0.098988228 0.47302055 -0.71292996 -0.028254315 -0.35223258 0.38648567
323 -0.24765274 0.043927647 -0.024457261 0.60952443 -0.49466208 -0.35573092 -0.0075576319 -0.12861609 -0.70490676 -0.31947234 0.71874738 0.20542426 0.63090211 -0.037433334 -0.35837385 -0.3897092 0.43347439 0.42720854 0.88580865 -1.3115562 -0.16901337 -0.36625123 -0.4924297 -0.17824991 -0.7061066 -0.85391706 0.0010641066 0.55173922 0.29410565 0.22105651 -0.2437077 -1.2816514 0.14501806 0.23918305 -0.17544392 -0.42266229 0.21748047 -0.61452705 -0.34032193 0.80124778 1.8235073 -0.10412764 -0.37870562 0.12974536 -0.23374602 0.98935211 -0.13085517 0.11842888 -0.56419152 -0.30954054 -0.29473928 0.34546852 -0.38955519 0.57112116 0.4897036 0.17421223 -0.28033185 -0.68636262 0.088643149 1.0926371 0.10186965 0.87670738 0.163514 0.12617175 0.044843044 0.73670095 -0.77416432 -0.41970617 0.42390421 0.46302435 -0.9386453 0.218464 -0.9254992 0.25161898 -0.80352914 0.19781667 0.52387309 0.092394158 0.47298101 0.58218646 0.38038337 0.30123869 0.47893345 0.16723968 0.0029872255 -0.168898 1.3410554 -0.038662877 0.028245056 0.7642628 -0.50404483 0.67730623 0.021289976 0.55067861 0.020624092 1.2639157 0.24157408 -0.60332012 0.41288534 -0.35984185
449 0.082759105 -0.21091919 -0.51638633 -0.097751617 -0.48213071 0.058204867 0.95818889 -0.42568257 -0.1758132 0.13962542 0.69425386 0.17649849 0.50600475 -0.23172119 0.052253369 0.30274299 -0.13595815 0.42568094 -0.5794673 -0.21906067 -0.65548652 -0.45384592 -1.1893202 -1.1551347 -0.49490756 -0.28672707 0.46591732 1.065869 0.24755166 0.33725718 0.52672178 0.033114247 0.1015693 0.33699477 0.21505177 -0.36760408 -0.13143402 0.11490835 -0.39295152 0.48672348 1.420826 -0.36671928 -1.4908587 -0.21927987 0.43991673 0.45070943 -0.16584709 0.044633884 -0.11261941 0.083444379 -0.01004913 0.3898299 0.056362923 0.68682438 0.26231799 -0.2473323 0.068570375 0.46452299 -0.36473903 1.0199468 -0.91230553 -0.11723369 -0.13566542 0.82115448 0.95355058 0.35015911 -1.1270201 -0.24508344 -0.21399589 0.53904784 -0.21716624 0.056180231 -1.1648884 -0.10851102 -0.85779661 0.11154944 0.7346974 -0.64591199 0.52119321 0.1541032 0.16034365 0.067090087 0.26879287 0.084317334 0.057988677 0.016788863 -0.2475969 -0.19409089 0.16583548 0.90772909 -0.95200741 -0.20318913 -0.68198109 0.19477262 0.0062001455 0.90361911 -0.4434804 -0.59627688 0.4769294 -0.0029729519
786 -0.76382691 0.0084601091 -0.46117115 0.040853966 0.3880575 0.19762096 0.97800529 0.54513097 -0.02314445 -0.52982819 0.010303097 -0.39580598 0.8662672 -0.025597494 -0.35983172 0.66473663 0.21238451 0.65993613 0.71171433 -0.46916306 -0.58163929 -0.22897814 -0.74384439 -0.65601695 0.056051329 -0.4994919 0.77852064 0.74830037 -0.67533064 0.17678928 0.47594497 -0.51949221 0.014122741 0.06988775 -0.19973965 -0.29478592 0.14976096 0.43528587 0.083464548 0.33473447 0.41306755 -0.62085044 -1.4929739 0.15910618 0.26506585 0.71866494 0.17114112 0.13139677 0.47231814 0.1096317 -0.13365082 -0.50251579 0.39995369 0.15892707 0.22983855 -0.5947569 0.35601357 0.21159585 -0.38191891 0.057270519 -0.074115396 0.080058686 0.50405031 -0.058217984 1.318882 0.81040496 -0.51464832 0.82554412 -0.91705734 -0.11943528 -0.99165547 0.087089643 -0.75674975 0.17297202 -0.43662652 -0.99160188 -0.11470096 -0.56849515 -0.10499348 0.46541649 -0.25571314 -0.21892947 0.65314215 0.19588798 -0.14664909 0.34387809 0.91581613 -0.87711942 0.68963796 2.0649922 -0.90638661 -0.06771563 0.47173855 -0.081048205 0.038640067 0.72140306 0.59450251 0.40214577 0.39241564 0.56061214
1308 -0.10367821 0.7038399 -0.54600102 -0.1352206 -0.23519936 -0.62853616 0.15291792 -0.0767029 -1.0346988 -0.50544208 -0.5923835 -0.2048687 0.52016336 0.30840674 -1.0724056 -0.13776106 0.19345421 0.85976231 0.61514503 -0.81626397 -0.29613829 0.083430298 -0.74001992 -0.47792771 -0.16064236 -0.21911626 0.51534879 -0.35467267 0.4508414 0.19896425 0.67247087 -0.55269957 -0.39101729 0.54907018 -0.60522985 -0.28336245 0.84467202 -0.5101667 0.11858743 0.66986001 1.0002545 -0.27536887 -0.3743234 -0.052685563 0.024388347 0.8471148 -0.38844731 -0.65567213 0.83745539 0.87339038 -0.62740499 -0.10137391 -0.24609528 0.24082778 0.17571975 0.28182587 -0.20825252 -0.85484523 -0.49199787 0.36996356 0.15333065 -0.1854102 0.070045374 0.29466549 0.031663764 0.46138453 -0.69284159 0.61163855 3.4818408e-05 0.33239758 -1.3577884 -0.23215672 -1.0285412 1.1310005 0.15967686 0.28437284 0.42705709 -0.2921699 0.054874241 0.18593267 0.34585136 -0.31620553 -0.30760661 0.49577129 0.90455538 0.11303867 0.51696807 -0.743029 0.2489699 0.78195959 -0.48197389 0.39220002 0.0090748174 0.14570262 -0.069970533 1.6557196 0.099387646 -0.81847477 -1.1107996 -0.073496237
860 0.35893694 -0.1327409 -0.13129592 0.17675388 -0.028439989 -0.25769466 0.82303488 0.064297155 0.13032903 -0.17727223 0.21576567 -0.73321629 0.61977911 -0.15294039 -1.2959226 0.037714586 -0.29321584 0.2326825 -0.52850336 -0.58267623 0.11901686 -0.53649139 -1.0192159 -1.7860419 -0.72110862 0.8727386 0.27647734 0.39392042 -0.088649116 0.18937661 0.33938473 0.41708401 0.54864371 -0.019081209 -0.29111201 -1.1276184 0.47897708 -0.40543011 -0.099697456 0.31305423 0.42458364 0.11594982 -0.67475957 0.35953435 -0.41955581 0.71674377 -0.22641274 -0.0062548495 -0.56042928 -0.39277527 0.77802581 -0.3053816 0.35736981 0.62447941 -0.36557201 0.2372404 0.21093245 -0.082855351 -0.022730194 1.1164694 -0.77246541 0.20053948 0.38217357 0.56929767 0.18362816 -0.2692008 -1.2180982 -0.3393566 0.75527239 0.62695742 -0.50042367 0.19992122 -0.50928533 0.29424164 -0.74643791 0.38750035 -0.081621893 0.076521039 0.34730235 0.31640729 0.49884859 -0.42595202 1.2266482 0.16218245 0.26125428 -0.42201233 0.27158523 -0.33487254 0.0010934835 0.79847723 -1.0477322 0.2961989 -1.2004391 -0.26946023 -0.64802361 0.22650591 -0.17294188 0.096298635 0.079377569 0.11985557
1902 0.51686603 0.707506 0.1644284 0.0076100025 0.11793792 -0.3041634 0.76745689 0.0024729392 -0.56546366 0.48904786 0.092099957 0.13771912 0.4116841 -0.57648736 -1.3847991 0.59765822 0.57230759 0.46313578 0.18172716 -0.24135038 -0.3803435 0.63226473 -0.67274672 -1.8278928 -0.30626673 0.47073096 -0.1523947 0.059619095 0.77205747 -0.10690433 0.78970981 0.84075356 0.030431813 0.7109831 -1.0770153 -0.70897478 1.0926169 0.27322355 0.3287017 0.34214106 0.57190108 0.076484352 -0.1664153 0.34318629 0.08141017 0.12876625 -1.152874 -0.77133822 -0.47187337 0.30019322 0.08799836 0.0639873 -0.29802543 0.68052632 -0.13020757 -0.31379765 0.42204338 -0.076271981 -0.73033255 0.77882117 0.24627566 0.18474875 -0.35360429 0.42213479 -0.22189987 0.50465131 -0.66683024 0.51446545 0.48134267 0.15789856 -0.7101565 -0.54846859 -0.98553163 0.73162872 0.22064374 0.32873797 0.19638936 0.56758714 0.61711746 0.45643604 0.42400241 -0.13483317 0.53077346 0.31135845 -0.043782029 -0.73336738 -0.079519548 -0.52153862 0.55025405 1.6611112 -0.17062728 -0.27425987 -0.27868992 -0.3254137 -0.071424834 0.78875202 0.01704804 0.58681637 -0.27042589 -0.24401443
236 -0.97539735 -0.3204172 -0.32698259 0.28884172 -0.41185084 0.13590163 0.79815167 0.2980015 -0.044116288 0.10873715 -0.50183761 -0.31760857 0.21247444 -0.12631705 0.24650079 -0.16218755 -0.1236495 0.56301147 0.5148356 -1.0902439 -0.28241104 0.11346582 -0.73661947 -0.81866014 -0.019825956 -0.013224917 -0.70913279 -0.14419423 0.85911798 -0.37656417 0.41385508 0.30207005 0.0032077949 0.30403158 0.029194614 -0.42203689 0.43110424 0.16098274 -0.62862843 0.79796219 1.0387112 0.13426785 -0.52151632 -0.70360196 -0.19231535 0.9114148 0.35654548 0.2783806 -0.23369785 0.52639747 0.13300681 0.65809178 -0.56865132 0.082641527 0.4733876 -0.33131459 0.37104931 0.32187641 -0.73450571 1.1546059 -0.928222 0.60560107 0.086033039 0.29020452 -0.35954776 -0.055092685 -0.11977738 0.20516285 0.077430815 -0.19714873 -0.13853493 -0.17860807 -1.383989 0.31162319 -0.14369731 1.0360957 0.60752159 -0.16291551 0.21448173 -0.11041639 0.50163585 0.5988605 0.0071209227 -0.18881293 -0.3109628 0.51708388 0.32591105 -0.17784823 -0.35367066 1.1076151 -0.55065101 0.32840177 0.25310498 -0.18841626 -0.19291082 0.80874163 0.27332133 0.14490673 -0.76016361 0.44706452
2694 -0.36039019 0.65190881 -0.98931754 -0.22351971 -0.1237257 0.071996212 0.1243347 0.35224882 0.60938007 -0.04902716 0.025821684 -0.46951988 1.1291561 -0.4141722 -0.35755679 -0.14221017 0.2439111 0.48681721 -0.38160437 -0.12624593 0.057271332 0.16446319 -0.069084145 -0.61762601 -0.3943246 0.46211025 -0.0024674935 -0.22421889 0.10601211 0.65303582 0.27271208 0.47737366 0.15290299 1.2109113 0.081186399 -0.11583461 0.30843064 0.41462004 0.28438306 0.11059973 1.1840301 0.05944854 -0.80283546 0.59383488 -0.0021859263 0.70600605 -0.68598717 -0.26662004 0.22291499 -0.1585381 -0.28021023 0.13498129 -0.10446184 -0.26407814 -0.24847344 -1.0780964 -0.49164885 -0.88979369 -0.16484164 -0.19450437 -1.1170505 -0.42169878 0.76552331 0.96107143 -0.77726597 0.24230185 0.84516764 0.38367721 -0.79458755 -0.57445389 -0.66803449 0.17059007 -1.5599588 -0.44326121 -0.050268307 0.11645085 0.63916063 -1.1302173 0.15934113 -0.0041545364 0.82553858 -0.4744553 0.44122717 -0.38627836 -0.02007525 -0.8263368 1.32038 -0.12738146 0.30991375 0.64467663 -0.20393664 -0.24529979 -0.57667041 -0.66648191 -0.55946976 0.64685506 -0.25540864 0.33231109 -0.034968376 -0.078763649
1060 -0.03046776 0.15933344 0.046286583 -0.040819257 -0.095697694 0.75728506 0.49666828 0.70121187 -0.5992561 -0.32423458 0.18968932 0.051103149 0.073026635 0.78589708 -1.002833 -0.083575241 0.30275637 0.23282237 0.61597586 -1.0742192 -0.40008032 0.048504688 -0.62967986 -0.44425565 0.38723198 -0.96334463 -0.52088886 -0.87782949 -0.26823279 -0.17770778 0.36169162 0.18999448 0.064200513 0.36436641 -0.12743385 -0.86164707 -0.22522976 0.092613496 -0.49659535 -0.46048534 0.33673868 -0.41333431 -0.56682396 -0.22427353 0.34151852 0.82306623 -0.25085691 -0.43367267 -1.4457093 0.63539755 -0.34744695 -0.11412648 0.081466168 0.26806727 -1.2638216 -0.076140136 0.6241653 0.34497216 -0.40179059 0.4097189 -0.65203625 -0.23462704 -0.11420449 0.65224767 0.53072762 -0.29961693 -0.34460244 0.71899962 -0.016998678 0.056374006 -0.63864261 0.57121122 0.14418946 1.286117 0.21108696 -0.099605106 0.51508403 0.30794165 0.36645272 0.14761168 0.51310712 0.26386079 0.29919332 -0.54410863 -0.4045651 0.05983017 0.94561201 -0.49659213 -0.49302068 0.88347137 -0.98136038 0.32650146 -0.25640011 0.33019841 1.017192 0.15874995 0.16741866 0.34266469 -0.56289238 0.44982696
1255 -0.54838151 -0.057769485 -0.83113271 -0.025468271 -0.027072683 -0.60116029 0.074649513 0.26392344 0.41411325 0.28776923 0.26715842 -0.71804017 0.71041328 0.23171431 -0.046052799 0.84832197 0.47001058 -0.21736763 0.53051555 -0.84190482 -0.44798803 0.22306176 0.275359 -0.3686716 -0.34756991 -0.14907259 -0.17430234 -0.59642065 0.53317845 0.5202924 -0.4649795 0.11829452 -0.19948258 -0.0045807753 -0.79740107 -0.72346097 0.47713342 -0.61877614 0.040772654 -0.40413472 0.94553888 0.39372152 -0.38018274 0.19217406 -0.15694539 0.96038353 -0.22722326 -0.30248716 -0.58388394 0.10843622 -0.8310414 0.15543674 -0.89105803 0.046429373 -0.11008347 -0.53424984 -0.081535146 -0.7420373 -0.11640573 0.31799951 -0.39625096 0.46315676 -0.067602403 0.3041229 -0.37612066 0.063085124 0.26844436 -0.13508497 -0.029867537 -0.54062277 -1.4693428 0.015904684 -0.97902274 0.38381115 -0.18161125 0.61294043 0.79703361 -0.39110613 0.24145474 -0.13993706 0.84968609 -0.055632856 -0.018200623 -0.25507209 -0.17048804 -0.29914325 0.47330564 0.26276174 0.65520346 1.5181843 0.39774865 1.394958 -0.25400528 -0.082510293 -0.52263701 1.3037839 0.0048939046 0.074984357 -0.18867294 0.27007622
1855 -0.66614485 0.27817366 -1.1445624 0.49449328 0.024572145 0.40550023 0.3102594 0.063996121 0.49365363 0.075063594 -0.25962597 -0.014362372 0.47786844 0.18608059 -0.76413709 0.11835851 -0.050788421 -0.49641743 -0.051513046 -0.36010399 0.1338561 0.38736504 0.25851217 -0.57595825 -0.21107425 -0.89737773 -0.39729282 -1.1819988 -0.2325836 0.1491487 0.66480768 0.23636308 0.71322805 1.1455801 -0.45147926 -0.055484127 0.25323087 -0.046319749 -0.59748983 0.095211707 0.033538405 -0.59731573 -0.62037522 0.59389824 -0.26895347 0.77351201 -0.17514519 -0.81595755 0.12017257 0.16879155 0.41449961 -0.38525242 -0.33590564 -0.18828605 -0.4731538 -0.37969553 1.2609956 -0.073283382 0.08917816 -0.45338902 -0.83367872 -0.23044613 0.39253888 0.6381346 -0.14909019 0.7436415 0.65955317 -0.51888686 -0.57135695 -0.34217635 0.062841497 0.11922294 0.1012679 1.024775 0.52877307 0.046817888 0.65035629 0.17571777 0.098173678 -0.049831558 0.85577124 0.74520224 -0.030371506 -0.6738081 0.42849869 -0.04016719 0.68365538 -0.082212217 0.93947148 1.291768 -0.2153801 0.0085770274 -0.26494899 -0.95358264 -0.37743533 0.22735336 -0.23541667 0.029551614 -0.25053015 0.42753011
1150 -0.76720035 1.4279623 -0.32046965 0.73940021 0.093695909 0.32418829 -0.091621816 -0.36271316 0.38262177 -0.77028203 0.18842965 0.8181662 0.23301329 -0.58004391 -0.10134813 -0.81311488 0.93995595 0.018089909 0.40127942 -0.39583042 0.40976876 -0.050384417 -0.26538685 -0.46499655 -0.12734136 -0.66154188 -0.29902273 -0.011583582 -0.47925153 -0.059762139 -0.42968524 -0.41017181 -0.083139837 0.92023128 -0.29902485 0.44749337 1.0849507 0.37009972 0.16781278 0.687352 1.5375507 -0.098466106 -0.68943381 0.076591022 0.27433637 0.58057159 -0.77964723 -0.30988023 -0.12425093 -0.096894711 -0.48216242 -0.39301297 -0.59316599 0.45264626 -0.078496069 -0.86573046 -0.041267395 -0.29784486 0.031804845 -0.27792808 0.020311089 -0.19790563 0.13810939 0.045942243 -0.76479858 1.0406421 0.45896086 0.27046895 -0.55054361 -0.016831638 -0.28317687 -0.10132025 -1.1413224 0.2637732 0.45568609 -0.34240618 0.11230118 0.059433762 0.19506133 0.21994565 0.11903483 -0.26628101 0.12306209 -0.53623664 -0.3046186 -0.20675603 0.46197695 -0.24327776 0.17220785 1.1872377 -0.25188196 0.11074089 0.36208174 -0.56217873 -0.14340283 0.41346017 -0.57417965 0.099210128 -0.3262296 0.047352169
204 0.22364812 0.10233716 -0.87526798 0.23667109 -0.50338995 0.10873482 0.49406204 0.37494886 -0.3791396 -0.33031061 -0.068794534 -0.10662252 1.1822902 0.085441329 -0.5103364 0.20379424 0.083821245 0.5522058 0.27855018 0.35437745 -0.22565219 0.24564134 0.079882093 -0.43858215 -0.42778707 -0.48451516 -0.27780318 -0.65026832 0.69533575 0.64062113 0.79875106 0.43226543 0.87425554 0.76571733 -0.014026272 -0.38519299 -0.37353805 0.50179607 -0.045654975 -0.095782161 0.092293732 -0.11531655 -0.53075033 0.79851145 0.45576796 1.0824335 -0.13914363 0.069270313 0.19477887 0.58864778 0.33656466 0.34470272 -0.92442405 0.60859907 0.5507049 -0.19074821 -0.63450259 -0.040941201 -0.85899991 1.0897318 -0.056204271 0.59336829 0.057290349 0.16543335 0.2450373 0.18490523 -0.56898463 0.34206054 0.16722192 -0.41804564 -0.4424628 -0.3902559 -1.3933879 0.76517743 -0.23419207 0.18407251 0.97436666 0.34420499 0.47712719 0.1196814 -0.23767646 -0.23623224 0.42144346 0.67838937 -0.18204442 -0.42847228 0.9820075 -0.50152332 0.64232254 1.3923609 -1.0350994 -0.35370854 0.13885842 -0.22930108 0.3091777 1.0479754 0.20613045 0.47012606 -0.042038038 -0.1431495
1182 -0.36392149 -0.1833771 -0.40607435 0.39176905 -0.74305278 0.34224203 0.036000241 0.22631493 0.76804978 -0.30331361 0.56031078 0.1298812 0.65834242 0.25566193 0.25674081 0.029542506 -0.61676192 0.082616217 0.63920641 0.41106442 0.029708918 0.090545118 -0.28920451 -0.16006519 0.0084852567 -1.3830895 -0.35660329 -0.031022865 0.075642176 0.39307755 0.39479384 -0.76472378 1.0088562 -0.0020498731 0.095760681 0.031072035 -0.11374201 -0.1625129 -0.47565758 -0.090872645 0.76812857 0.15801695 -0.68858713 0.60269433 -0.29470974 1.4231145 0.078950904 -0.3156023 -0.46034431 0.45014346 0.28487191 0.13952078 -0.5050649 0.069207177 0.5650875 -0.36866331 -0.31558001 0.44581598 0.20377438 0.87702441 0.48230726 0.16917861 1.032226 -0.057527628 -0.19777079 0.68196052 0.23225629 0.9606598 -0.11113524 0.24406277 -0.33512959 -0.10655822 -0.098130591 0.18168063 -0.12841201 0.36947331 0.098125927 0.68737298 0.36207107 0.39113852 0.36380231 -0.30029392 -0.18475784 -0.44699693 -0.31744981 0.076974779 1.2594483 -0.7022059 1.0046415 0.74196178 -1.2236787 -0.43178108 0.40640759 0.10931416 -0.031679474 1.187863 -0.11204573 0.049106859 0.13608116 -0.14271611
2400 -0.71644992 0.72492152 0.081610307 0.64187264 -1.0469728 0.20992336 0.78887373 0.50343281 -0.34400898 -0.82596308 0.12210643 0.63473397 0.53348649 -0.27365083 -0.46508285 -0.73098701 0.67367929 -0.31328312 0.8707512 -1.1690564 0.38314858 -0.030087067 -0.38714886 -0.29363507 -0.43375653 -0.61188477 -0.81262773 -0.048620466 -0.18497252 0.29048398 -0.12002946 0.36850408 0.45148787 0.39402476 -0.84080857 -0.28640667 -0.081426643 0.21006727 0.085743986 0.014217739 0.9849506 -0.11968269 0.045242779 0.15953541 -0.081438571 1.0115831 -0.1824923 0.12511849 -0.14575194 0.013804769 0.35996413 0.0016938669 -0.73268712 0.76233006 0.049692672 -0.47294933 0.921556 -0.19029362 -0.36022887 0.27658421 -1.2066275 0.70945972 -0.53004259 0.3751379 -0.64519805 0.46440849 0.058940507 -0.33442146 -0.28930074 -0.38920793 -0.35165012 0.61679 -0.7758559 0.58836305 0.4210096 0.95546204 -0.16746557 1.0990846 0.32810459 -0.20229816 0.56405371 0.69041562 0.90556151 -0.21179675 0.69777811 -0.19723383 0.24296772 0.019223256 0.5214498 1.2036736 -0.62268114 0.95197713 -0.2262693 -0.044938322 -0.29478499 0.50954175 -0.47485635 -0.54581791 -0.084602848 -0.15838838
321 -0.075410694 0.0090571819 -0.2919527 0.5811497 -0.49778607 0.91545737 0.49995929 0.50583422 0.66967583 -0.1610608 -0.18309106 -0.66631097 0.50286639 -0.33370328 -0.6528101 0.43509474 -0.02985272 0.36928672 -0.21723896 -0.65389055 0.57603055 -0.034360297 0.13685386 -0.12794317 -0.49391466 -0.70881593 -0.35441875 -0.34857506 0.24671414 0.67666835 0.40227538 0.29862484 0.37431902 0.94481045 0.10289388 -1.0570927 0.17036915 0.13265729 -0.47533104 0.18353757 0.052269738 0.14727582 -0.31786519 -0.17693578 0.49174789 0.66561538 0.050885022 0.07893452 -0.35536787 0.71630901 -0.034351517 0.029584605 -0.19676679 -0.035685785 -0.031179899 -0.82006198 0.27490285 0.0024557638 -0.0430291 1.1148336 -1.2903841 0.078859113 0.83053964 0.72572464 0.03221859 -0.18163903 -0.30232805 0.40296713 0.1917527 0.49076679 -0.26965252 0.99033821 -0.40316445 0.55542195 -0.19740616 0.43495649 0.63336718 -0.27357394 0.51753879 0.35970944 0.77672797 0.32151091 0.33975589 -0.70218337 -0.47827533 -0.14088289 1.4357797 -0.30512992 0.10994549 0.74802327 -0.94700772 0.099878252 -0.67211944 0.072755396 0.091819897 -0.31478149 0.46806139 0.58687222 0.29117227 -0.10085987
519 -0.70372003 0.10909767 -0.47396669 -0.40927607 -0.3392469 -0.17284867 0.39884344 -0.081767768 0.62411064 -0.8030991 0.35089871 -0.43088534 0.58261275 0.18916503 0.32145917 -0.15432426 -0.15530021 0.61961848 -0.061878417 -0.53744954 -0.086674608 0.0696854 0.21682397 -0.49548537 0.050224222 0.48910758 -0.6181857 -1.2256119 -0.55301452 0.71243238 0.29620177 0.019863991 -0.17927456 0.53683031 -0.41314289 -0.23727752 0.50837296 -0.34437081 -0.13264339 -0.022514038 0.30489898 -0.43747973 -0.99343663 0.19099922 0.51226115 1.2479112 0.096935593 -0.16889399 0.9241116 0.80410582 -0.60355735 0.29084888 -0.44734123 0.2261021 0.69581872 -0.41165638 -0.16943066 -0.5730176 -0.62776881 0.13640603 -0.78482264 -0.19682691 1.0804207 0.29968908 0.17048122 0.51762521 -0.66214865 1.0476528 -0.33572361 0.069465764 -1.259447 0.52127165 0.085209981 0.45737728 0.56269431 0.69146192 0.38863021 -0.062099952 0.66770667 -0.43367183 0.24742568 -0.3717207 -0.004748804 -0.38164702 -0.018199166 -0.88030332 1.2387649 -0.11557586 0.66540527 1.1566259 -0.27452677 0.58440989 0.068633892 0.32235077 0.33044562 0.21697988 -0.52626127 -0.58772188 -0.32001394 0.45173663
2259 -0.70893633 0.14865077 -0.54989636 -0.13820593 -0.20346618 0.17011431 0.070468232 1.0771834 0.21760447 -0.27103406 -0.015589793 -0.074750654 0.65412557 0.033239476 -1.0329064 -0.20316799 -0.36620465 0.84170026 -0.11509214 -0.79674447 -0.12815712 -0.27258894 -0.12871666 0.099450156 0.014893765 0.17308763 -0.87294674 -0.33687294 -0.33954117 0.20956627 0.17588492 0.001442994 0.27656597 -0.32718331 0.41890717 -0.90899217 -0.19630146 -0.075483389 -0.38350612 0.17207184 1.2762567 0.50009274 0.31645018 0.21327929 -0.64219409 0.82383293 -0.29082412 0.35973287 0.21224202 0.22390924 0.16876544 0.2664769 -0.12595603 -0.34732962 -0.28105688 0.49102482 -0.15702873 -0.8182683 0.13656792 -0.32829669 -0.63418061 0.86626351 0.23137824 0.22936182 -0.7138238 -0.01494185 -0.49002388 -0.15233363 0.28746715 -0.1392213 -1.0944445 0.48930022 -0.47265843 0.43240303 -0.34172216 0.013129171 -0.11566947 0.2959111 -0.46765405 0.12908836 1.1404341 -0.098749064 0.37136242 -0.17839749 -0.019105148 -0.24388561 1.3215535 -0.084478743 -0.37365136 0.054624386 -0.36430061 0.73159313 -1.4962516 -0.30844089 -0.72513509 1.2357557 -0.1743833 0.33715352 -0.62225604 -0.004470191
2053 -0.42959359 -0.94288337 -0.13339114 -0.38276514 0.23273627 0.620628 0.65287501 -0.41688001 0.57294726 0.3420226 0.94790608 -0.16557814 0.42806548 0.50233459 -0.17397077 0.60639334 -0.23556337 0.1896874 -0.9324531 -0.53151661 -0.7048431 -0.37453431 0.80854946 -0.60192293 -0.090520911 -0.3022742 -0.15798596 0.078569852 -0.67791253 0.8040185 0.43473905 0.13363895 0.077560857 -0.24368668 -0.4706403 -0.854541 0.57237768 0.10753132 -0.80190945 0.20379922 0.50305492 0.036106568 -1.2962621 -0.48558104 0.27189603 0.73134518 -0.17667946 0.52220631 -0.43799949 0.78510934 -0.3144905 0.29183987 -0.23962732 0.013182696 -0.087755971 -0.31547278 -0.60324454 0.17448521 0.087520525 0.4821603 -0.038850799 -0.4148289 0.51776034 0.75364983 0.45126984 -0.24507356 -1.3137769 1.1483214 0.31927466 0.52548271 -0.46452028 -0.28938821 -0.18509854 0.54658467 -0.42562306 -0.45285046 0.28436521 -0.31531426 0.70737803 0.40487105 0.45657644 -0.61997712 -0.076735765 -0.31156176 -1.5216641 -0.4462733 0.50543916 -0.1476077 0.19702044 0.69174993 -0.23688069 0.24956971 -0.33436412 -0.20549178 0.12046456 0.46889684 -0.17968103 0.39304772 0.22061685 -0.16418673
970 -0.81852424 0.32367492 -0.7741006 0.032394651 0.4165183 0.4217104 -0.06625066 0.74313927 0.69355136 -0.13773787 0.99271637 0.10771024 0.86059141 -0.12753804 0.19162871 0.36601472 -0.0061594383 0.18403505 0.8566857 -0.020828411 -0.39726806 0.10376552 0.10288118 -0.60614395 -0.19553225 -0.39267048 -0.83928668 -0.017899042 -0.48841035 -0.35229564 -0.27134523 -0.71434385 -0.26836959 -0.029269794 0.092582002 -0.72582418 0.80691701 0.022426555 -0.17903385 -0.098961949 0.78571242 0.15313934 -1.4731591 0.83116055 0.42674884 0.38406518 -0.6009233 0.42645866 -0.7393409 -0.62133366 0.27927822 0.080410495 -0.2588577 0.77610409 -0.076479025 -0.15512869 -0.47351795 0.037309602 -0.46377549 0.4412562 -0.55700082 0.25486574 0.73803103 0.2660144 0.19068985 0.82206452 -0.096478015 0.062963717 -0.49926868 0.26164323 -0.94970477 0.31105137 -0.74087906 0.25955105 -0.27695453 0.3480759 0.28373098 -0.20244318 0.022023594 0.77430934 -0.33109513 -0.016126979 1.0834851 0.13599116 -1.5974451 0.1676345 0.28539002 -0.048609257 0.32532153 0.85726279 -0.81438959 -0.11714901 -0.2236319 -0.20983516 -0.46893331 0.20634225 -0.45744976 0.091390923 0.19622992 0.48429665
1582 -0.59414768 0.061607264 -0.54226744 0.2692655 0.46674892 0.51640368 0.86581975 -0.65780163 -0.34926718 0.37589341 0.18918815 -0.57198614 0.38006505 0.36236838 -0.14315593 -0.11329833 -0.16011605 -0.060340852 0.28725421 -1.121707 -0.39151153 0.066465586 -0.38940981 -1.2183983 -0.7841773 0.55079949 0.25763518 -0.68963486 0.70938408 -0.14046507 -0.33893895 -0.058354322 0.22815876 0.96460521 0.23630974 -0.62079704 -0.1767866 -0.093951464 -0.70757896 0.15532851 0.98283947 -0.88145202 -1.4491218 -0.3922306 -0.12068467 0.91101044 -0.14937326 -0.22973782 -0.06452886 -0.32126838 0.15295698 0.67688692 -0.49157917 0.075815834 -0.3990382 0.22949572 -0.19505668 -0.32333425 -0.32097003 0.62372124 -0.30856895 0.59410334 0.25199389 0.55244148 -0.27527142 0.36498299 -0.40795591 -0.85295409 0.64431751 -0.41700977 -0.0055784197 -0.12805441 -0.60325247 0.71531337 -0.49593475 0.19036555 0.97570795 -0.62648338 0.028525718 0.042075299 0.37063369 0.12232226 0.51750648 0.11380068 -0.42344972 -0.19695987 0.19997007 0.36968449 -0.13888954 1.1047682 -0.33682775 -0.093455628 0.17186579 -0.19869299 -0.052191209 1.0123498 0.7053439 0.16696022 -0.37395108 0.59683061
1825 -0.55877465 -0.40738603 -0.64454168 -0.44079426 0.04742879 0.061806943 0.56167758 0.92865384 0.11933303 0.13583183 0.77657187 -0.37231573 0.4373799 0.30710346 0.32603124 -0.44521365 -0.13355751 -0.10183918 -0.29158884 -0.73588848 -1.1830999 -0.36227652 -0.27018523 0.28394151 -0.016379641 -0.015648339 -0.64005446 -0.84081811 -0.73624933 0.83287644 0.11499321 1.1494846 0.27053475 0.29140827 -0.61643201 0.13341996 -0.23719586 0.50262386 -0.13857724 -0.38705951 0.49909416 0.28067216 -0.15742357 -0.02750431 -0.36440313 1.2622631 0.081832595 0.34397185 -0.46599299 0.49161807 -0.11922918 0.5814628 0.16251823 -0.54376316 -0.7101599 -0.29939523 0.24499305 0.20191246 -0.073780306 0.24298656 -0.90448457 0.028447796 -0.21008752 0.45333183 -0.59340811 -0.82079768 -0.44095969 0.72344184 -0.19816467 -0.22400506 -0.49729332 0.60436344 -0.640558 -0.28377309 0.29365331 -0.011392005 0.72076029 0.17632049 0.013643925 -0.64235151 1.163078 -0.43247619 -0.28728426 -0.63343096 0.17069849 -0.31948602 0.72157079 0.56088579 -0.15898769 1.5575529 -0.14450994 0.88887489 -0.8102414 -0.27432525 0.14034572 0.60156286 -0.26800776 0.14435886 -0.65762317 0.24099208
1483 -0.36556262 -0.20998062 -0.078110583 0.93487215 -0.041561145 0.33280376 0.89254951 0.30569839 0.30900139 -0.10649148 0.82455558 0.36876056 0.89535618 0.19682175 -0.25023979 -0.025355915 -0.98355627 0.15017644 0.45554727 0.032820784 -0.3292751 -0.25285405 -0.26317027 -0.21870267 -0.86475688 -0.91663635 0.65816641 0.58519459 -0.8382377 0.81649745 0.26032045 -0.14178635 0.20450996 -0.11092224 -1.1076442 0.54731649 0.11929152 0.21858892 -0.0085111102 0.22369406 0.22526465 0.76090819 -0.2848734 0.2679677 -0.35850942 1.1631581 0.1048104 0.34285775 -0.036301985 0.24836773 1.1202811 0.18910438 0.28357986 0.26238677 0.043250069 -0.24256688 0.87510884 0.55308628 0.030004533 0.020966116 -0.79569858 -0.14947924 -0.49552283 0.35811844 -0.098185405 -0.10401172 -0.73285037 0.30107817 -1.0282989 0.70148623 0.099787667 0.34302104 -0.21203434 -0.48221305 0.058192056 0.35147095 -0.62531 0.41626149 0.13875976 0.25159374 0.30677584 0.21916901 0.55959874 -0.69967502 -0.48891208 0.28286088 0.44995114 -0.1082911 0.52867949 1.0697536 -1.2214366 0.41998935 -0.10797745 -0.24289964 -0.89995366 0.58787084 -0.61555451 -0.14157979 0.60979772 -0.43911076
1064 -0.83415771 -0.7008462 -0.47163293 -0.0075094178 -0.27934128 0.038000625 0.055042889 0.021480856 0.35801899 0.30949011 0.70454609 0.35791275 0.51190692 -1.0385377 -0.26383379 -0.35599798 -0.095299155 0.10277139 0.22294191 -0.37925112 -0.50651389 -0.26433849 0.32597813 0.022888832 -0.68934345 -0.15859957 -0.032736998 0.26779968 -0.69489962 1.3164487 -0.17105649 0.22446959 0.2907539 -0.051062562 -0.79567248 -0.14733772 0.27591136 -0.87062621 0.014963742 0.5814566 1.3113254 -0.33810177 -0.72486663 0.43522784 -0.58776098 1.1195472 -0.08703395 0.53836906 -0.48844987 -0.38717374 0.22352363 0.43778482 0.022635432 -0.26934394 0.482593 -0.094074011 -0.2843031 -0.21174437 0.20990399 0.11195972 -0.34249339 0.038800478 0.06971129 0.64031011 0.11886364 0.32332653 -1.1644007 0.24762969 -0.11476658 0.55993497 -0.45017731 -0.0308965 -1.0262686 -0.36591604 0.1218002 -0.16219294 0.26139626 0.069370501 0.25648576 0.19888195 0.92297012 -0.36826098 0.079992227 -0.24433731 0.1863768 -0.62793773 1.0084547 -0.44804314 -0.5227949 1.4215899 -0.068341024 0.030516539 -0.91973841 0.079004832 -0.030630488 0.82413763 -0.48608321 -0.58251506 0.017161015 -0.35292435
1937 -0.82983398 -0.44436014 -0.55600858 0.29670221 -0.42416072 0.20057167 0.41838399 0.08602497 0.46724954 0.39647278 0.60538411 0.40790221 0.49694338 -1.1155061 -0.38529286 -0.092255346 -0.075977169 0.27132505 0.10996532 -0.41317248 -0.32454175 -0.30099404 0.24914707 -0.046830542 -0.79062343 -0.11268576 0.014123007 0.16280194 -0.66352773 1.3038563 -0.047875296 0.29390088 0.16149269 0.21756877 -0.98505861 -0.040761873 0.33766207 -0.57612884 0.10181493 0.73134691 1.0904143 -0.33117685 -0.76784796 0.456505 -0.21641006 1.1034596 -0.2933774 0.33566621 -0.3301301 -0.36034188 0.12739615 0.1274489 0.38987568 -0.28535855 0.18396813 -0.35629308 -0.12376454 0.064852297 0.07042405 0.022138542 -0.36651587 -0.097431935 0.13241559 0.75209188 -0.059477106 0.058111709 -1.1363299 0.21400401 0.10425048 0.71630287 -0.44517851 0.10691273 -0.83670378 -0.2536726 0.14739421 -0.34616023 0.18652418 -0.014472079 0.093989179 0.30890584 0.84807491 -0.38041407 -0.10083243 -0.21387225 0.0095160892 -0.35895208 0.69507933 -0.65127045 -0.55797726 1.6676472 -0.20469584 0.13162534 -0.8241148 -0.0043267799 0.069139116 0.81115168 -0.60305333 -0.15666236 0.082145177 -0.36851755
1212 -0.012575301 -0.18582448 -0.60534894 0.2950027 0.16662511 0.35272029 0.073752195 0.7773785 0.5347625 -0.073959678 0.48496041 -0.15096024 0.16927548 0.57773775 -0.47990999 -0.017489016 -0.1342956 0.50489813 -0.19456416 -0.34892648 0.095480166 -0.53942597 0.49974471 -0.63856196 0.015504152 0.27917627 -1.0841275 -0.74668497 -0.80088145 0.27187961 -0.29282477 0.49314234 0.11023844 0.073661983 -0.2044809 -0.6525194 0.4497616 0.30253881 -0.81374186 -0.034340139 0.55566162 0.3954069 -0.65696943 0.84648752 -0.32870591 0.9806546 -0.47526184 0.47745419 -0.084390923 -0.060156774 -0.36696869 -0.51891941 -0.38042441 0.22112721 -1.1489897 -0.85562247 -0.010176035 0.41711318 0.0264099 0.042067748 -0.28541189 0.1249413 0.8449192 0.23994614 -0.26998925 -0.43496957 0.52504337 0.74625313 -0.018542089 -0.41432109 -0.35605681 0.21204744 -0.69466257 0.35450771 -0.15271984 -0.068965822 0.53830284 -0.24488729 -0.25602427 0.55039805 0.0073506632 -0.20498669 0.46253696 -0.48707023 -1.6937159 -0.73095065 0.78644544 0.32803375 0.13761714 0.69061047 -0.49114713 -0.077070624 -0.11357912 -1.0075381 -0.53178239 0.35994542 -0.22830124 1.2311312 -0.26671171 0.17696425
1557 -0.28272372 -0.092550062 0.23345129 0.41369906 -0.69933295 0.096820757 0.58208895 0.50497651 -0.78411162 -0.34692565 1.7231588 0.39204249 0.61641675 0.68601733 -0.73165518 -1.0683491 0.026744971 -0.014487483 0.45225465 -0.55519277 -1.028616 -0.4963159 -0.91044921 -0.029866869 -0.2419104 -0.16859345 -0.64391792 -0.02662945 -0.39253342 0.36396784 -0.063200302 -0.18216707 0.55444199 0.4187187 0.10979612 -0.47287005 -0.27325428 0.0010386003 -1.0901732 0.10505552 1.0010889 -0.3568868 -0.34345424 0.7746802 -0.11487615 0.9776938 -0.3283715 -0.10023522 -0.12400022 -0.55838329 0.38599569 -0.31719333 0.3272607 0.0095933462 -0.27217209 -0.17363378 0.40010434 -0.25315699 -0.069166005 0.41681147 -0.71872252 0.27498978 0.18527113 0.48808241 -0.29227644 -0.39278257 -0.79376596 -0.038928427 -0.029097626 0.13271029 -0.28642762 -0.088841125 -0.4108246 -0.054197825 -0.35512683 0.025872665 -0.06491106 0.10731588 0.37033406 -0.31155577 1.0329087 -0.37269273 0.42175186 -0.23983017 0.27121371 -0.0015302977 0.65720814 0.13318154 -1.0142813 0.4728758 -0.68382502 0.083904259 -0.43227744 -0.18783368 -0.15619025 1.1813567 -0.80612564 -0.90079808 -0.19548686 -0.17412479
2316 -1.0719469 -0.067847565 0.034498204 0.16720951 0.17688152 -0.54477555 0.53752911 0.79327524 0.54464984 0.23201601 0.4647364 0.23423643 0.96297425 0.34813875 -0.12816066 -0.19220449 -0.73016638 0.20690367 0.14035422 0.15435471 -1.0001583 -0.31633765 -1.3607199 -0.72861826 0.43965793 0.41906369 -0.34789222 -0.059547752 -0.86140704 -0.12369188 0.17767371 0.40688485 0.50147164 -0.45482558 -0.28776991 0.18174088 0.46680799 0.22394621 -0.40235007 0.53538001 0.78463674 0.4028855 -0.74858135 0.39788368 -0.26125732 1.3290198 -0.013249293 0.31755158 0.086388938 -0.18336985 0.41216615 -0.20605725 0.6881755 -0.34294093 -0.58231568 -0.021307362 0.10656554 0.2845901 -0.15754321 0.54520714 0.778871 -0.70567077 0.0106317 0.65895116 -0.29248425 -0.59130949 -0.8999579 0.45451644 -0.07079038 0.57090163 -0.60964978 -0.35100031 -0.50871158 -0.28078026 0.15219402 -0.25444913 -0.52301675 0.60052103 -0.94439983 0.60203898 0.68824649 -0.18935469 0.41066435 -0.41004798 -0.65949744 0.078437164 0.079517052 -0.97991168 0.074998498 0.85369623 -0.69252324 0.028241316 0.1650635 -0.11726942 -0.11727554 0.60244924 -0.61121225 0.023546843 -0.43906057 0.53293163
2485 -0.86539567 0.4486514 -0.64013577 0.15184878 0.37221652 1.0065895 0.24027883 0.65259773 0.45134461 0.12869644 0.78804272 0.081719048 0.79160172 -0.42538109 0.1861091 -0.11104984 -0.24342382 0.11016681 0.84568441 -0.33013254 -0.3830992 0.28187099 0.071989074 -0.23328154 0.0051815179 -0.19904168 -0.68205571 -0.27840227 -0.29912639 -0.58535767 -0.021100283 -0.18141311 -0.33292162 0.89044368 -0.23806521 -0.29637 0.78395331 0.24851537 0.355526 -0.0026871902 0.52798575 0.084674336 -1.6919285 0.80724269 0.55511296 0.51675206 -0.51441562 -0.13583298 -0.97672868 -0.6381169 0.89316654 0.4278633 0.018797006 0.59348279 -0.36414596 0.19852304 -0.29095101 0.430154 -0.91399443 0.10690616 -0.94078439 0.0073445411 0.3277413 0.14495283 0.089962572 1.024219 -0.56589675 0.15381593 -0.65264511 0.34250033 -0.31012529 0.12966427 -0.18163344 0.37086645 0.19594586 0.52930963 0.038867474 0.0021302393 0.16420142 0.86947203 -0.43922359 -0.12172564 1.0176638 0.48575249 -1.2982993 0.37132251 0.27930135 -0.15981983 0.19683507 0.89234251 -0.46628463 -0.61287457 -0.16545936 -0.36217675 -0.086380489 -0.14744298 -0.33767352 0.26117057 -0.21929388 0.60068452
1067 -0.68616748 -0.13911934 0.16266157 -0.2570895 0.076448381 0.41443139 0.37570834 0.63808674 0.29649583 0.13686545 -0.4002865 -0.25513378 0.17577468 -0.053336859 -0.71738398 -0.20500414 -0.59135717 0.31203207 0.29543027 -0.17515968 -0.42286798 -0.040670626 -1.1075733 -0.61381501 0.50338244 -0.087408744 -0.16577098 0.067626148 -0.60043299 -0.33201087 -0.0027633396 0.58628595 0.042428013 -0.24320623 0.58025372 -0.40927231 0.022778239 -0.39559728 0.063981645 -0.43242094 0.8080346 0.37987927 -0.66578901 0.47129571 -0.45324504 0.93990803 -0.044788312 0.13407174 -1.2508945 -0.066045418 0.59465766 0.29469794 0.27717319 -0.034489226 -0.55160767 -0.40264326 -0.16344061 0.35357374 0.38862598 -0.08210738 -0.61008537 -0.30578744 0.78170866 0.27290788 -0.17730825 0.17583357 0.44536909 0.65582716 -0.43654788 -0.58342189 -0.33457565 0.30867854 -0.82673633 -0.08985512 0.20682381 0.09927512 -0.037347395 0.55882114 0.27715307 0.27459019 0.82152444 -0.30286163 0.27647191 -0.50056177 0.045756366 0.3863433 0.39004284 -0.33656716 -0.45765153 0.88432264 -0.63710558 0.48326737 -0.55704737 -0.2724106 0.25231433 0.73480445 -0.27733344 0.79774088 -0.76830983 0.81419843
1684 -0.32407284 -0.29544324 -0.20960703 0.35264894 -0.5972172 0.45581317 0.17895295 0.093648054 0.55879742 -0.31254509 0.41802791 0.1220061 0.59482062 0.62680829 0.043500986 0.026974166 -0.84292012 0.016024867 0.58966804 0.49783117 -0.12891568 0.15556823 -0.4951531 -0.36965775 0.10207777 -1.4828559 -0.19967645 -0.52490479 0.2780062 0.24600139 0.27440825 -0.51514816 1.0066708 0.21402386 0.14242056 0.29642054 -0.25378963 -0.13328014 -0.67138404 -0.12698941 0.54052103 -0.11530161 -0.92258275 0.51883763 -0.15851451 1.2350309 0.10663061 -0.64081186 -0.60481489 0.54612869 0.42057434 0.34882382 -0.44178429 -0.08219599 0.51225448 -0.26578218 -0.10783144 0.49329105 0.086875714 0.57420701 0.30904305 -0.021521416 0.77621073 -0.042637918 -0.096263126 0.71396202 0.27912498 0.71956748 -0.31313521 0.052577138 -0.17736311 -0.31624553 0.20058441 0.13487512 -0.026371358 0.17406492 0.19268185 0.63708621 0.38032547 0.22009566 0.40331343 -0.055361595 -0.26930058 -0.5885089 -0.2635296 0.32837746 1.3545957 -0.75485516 0.68485332 0.53951418 -1.1693382 -0.53555459 0.41183692 0.18408801 0.13151243 1.2651851 -0.18958887 0.15490107 -0.039993327 0.15560229
288 -0.67056632 -0.18646413 -0.14890915 0.72300953 0.68200177 0.77825761 0.040377103 0.52341336 0.13506228 -0.49683106 -0.32753223 -0.58860356 0.68019438 -0.2287053 0.65309072 0.52570564 -0.44082907 -0.41819894 0.33274865 0.29937398 0.043928802 -0.00088939955 -0.27417362 -0.54310763 -0.21429153 0.26834437 0.4403652 -0.80747819 -1.0048684 -0.21048996 -0.69765413 0.16183974 0.22485192 -0.33206168 0.12665248 0.52280504 1.2017094 0.58727586 -0.18131235 -0.089541562 0.59214956 -0.20908843 -0.63586599 0.55923826 0.23088823 0.083159544 0.35676864 0.23323914 0.31616056 0.08669474 0.17393419 0.60897815 -0.66762507 0.52108592 0.13411714 0.10415742 -0.56067312 0.39883855 0.83408707 0.35847953 0.25337699 -0.18675108 0.026933931 -0.3719402 0.23778813 1.0311832 -0.85528809 -0.0035712658 -0.27761456 0.34401807 0.17752059 0.020365858 0.017008211 -0.19711952 -0.03796351 -0.47765985 0.064798206 0.20762719 -0.39473337 0.67559946 -0.46604919 -0.69460636 1.2807376 0.27583072 -1.0669543 -0.32313016 0.70459718 -0.56019658 0.63936359 1.813749 -0.52703333 -0.47222987 0.42468411 -0.44351113 -0.33199579 -0.087876566 0.67919046 1.429285 -0.36324269 0.54724258
260 -0.76393557 -1.0423481 -0.2384609 -0.40282696 -0.72055227 0.3091929 0.53792 0.17847843 0.00092756969 0.14715475 0.08104296 -0.16473925 0.36089945 0.21076496 -0.23122551 0.057496134 -0.11147691 0.41809857 -0.64156109 0.045401633 -0.5674271 -0.064982496 -1.0943586 -0.86491233 0.21328139 -0.57056612 0.1984818 0.312038 -0.26413396 -0.037706025 0.078160733 0.65743357 0.4533211 -0.31337684 0.32755077 -0.25591394 -0.31061736 0.55508155 -0.8749122 0.71165729 1.076033 -0.017181141 -0.69993293 0.29134536 -0.31819344 0.94899929 -0.26617166 -0.9847554 -0.62197065 -0.058184244 -0.031171134 -0.43985751 0.27844572 0.28581581 0.00084193592 0.66656917 -0.19975014 0.71726692 -0.44912654 0.040801764 -0.1625264 0.30106691 -0.88924247 0.393374 0.83623302 0.56364357 -0.98702008 -0.022394773 -0.042723954 -0.6920324 -0.40476534 -0.026754564 -0.52109265 -0.077180356 -0.6253534 -0.25340566 0.4018797 0.44021547 0.5361973 0.58778834 -0.14676768 -0.59701163 0.58209437 0.24110626 -0.057261731 0.34354314 0.29258281 -0.44292927 -0.66497904 0.96330273 -0.40968749 0.67896122 -0.78335297 -0.58460915 0.2214741 0.95398307 -0.54660726 0.79399496 -0.13119382 0.5751093
36 -0.57307124 -0.40198874 -0.35939372 0.091613322 0.41770825 -0.026544161 0.4329941 -0.5694685 -0.25790834 0.3101691 0.13259555 -0.68105787 0.38955688 -0.077098995 -0.66465616 -0.15189089 0.38035655 0.27275097 -0.22559291 -1.2172128 -0.47917667 -0.31211299 -0.073003292 -0.47570932 -0.97799325 -0.25557455 0.80496997 -0.12658407 -0.16256706 0.88153642 -0.35111487 -0.1571628 0.1198893 0.46973506 -0.63920355 0.33474985 0.71233368 0.46076629 0.29700497 0.59452903 0.3113603 -0.47236738 -0.24545492 -0.40037322 -0.80010235 -0.018981464 -0.21131575 0.11077389 -0.83782536 0.29545927 -0.14954971 0.009406318 -0.094278373 -0.90575832 0.21429028 0.55391943 0.61937189 -0.46437943 -0.114763 -0.15108466 -0.81953919 0.64797473 -0.23433594 0.3523199 0.42191491 0.73927325 -0.32328665 0.38863313 0.15528268 -0.31088439 -0.58542484 0.69137388 -0.5935511 0.25570413 -0.014548801 -0.51538587 0.6013968 -0.017431404 0.77357143 0.056002744 0.24521627 -0.13499074 0.78124177 -0.40746826 -0.20317695 0.56813329 1.5060077 0.51028925 -0.35959667 1.6115199 -0.38838062 0.91815197 -0.7710225 -0.29646322 -0.065315105 0.62315971 0.27917135 0.42458835 0.27423379 0.83182597
1759 0.58811247 -0.6714828 0.16670087 0.49923113 0.11190604 0.081094235 0.76196283 0.11291952 -0.18533494 -0.092520103 -0.14021362 -1.1180456 0.66689646 0.56423628 -0.59804112 0.47946268 0.22521949 0.12580758 -0.15157677 0.0042094369 -0.051819589 -0.37314317 0.10024874 -0.59107316 -0.54012036 0.47165176 0.86906803 -0.18632536 -0.69738197 0.68097287 -0.54896784 0.091940172 0.41206983 -0.014566768 -0.83540481 -0.1483314 0.88376224 0.22328813 0.29449373 0.061051007 0.58974028 0.70254761 0.0047748792 0.69987059 -0.029604146 0.67961067 -0.16145751 -0.20011503 0.042070523 0.29080215 -0.24201351 -0.8734107 0.18232563 0.019656837 -0.23475027 -0.16392674 -0.70446563 0.34937888 0.46108371 0.70848298 0.36766949 -0.032300584 0.34419918 -0.070780396 0.18705428 0.11947889 -1.0555956 0.53538913 0.21984418 -0.31306916 -0.51567501 0.50706702 -0.017584527 0.30289021 -0.61592585 -0.91588777 -0.38603449 0.10700942 0.12802267 1.6272421 -0.73612827 -1.207235 1.3419718 0.27696139 -0.47499892 -0.18644589 0.76626492 -0.98617762 0.66004997 1.2949611 -0.59536767 0.22617188 0.57926971 -0.30502838 0.053353298 0.49667639 0.35700983 1.2689192 0.70198578 0.44373801
2206 -0.53725475 -0.52540976 -0.33885452 0.049647316 -0.73665303 0.56625241 0.031412676 0.20178574 0.39343029 -0.24595529 -0.14827503 0.065471709 0.6732052 -0.1743076 -0.046057966 0.0073457593 -0.019650741 0.023964064 -0.27586037 0.65541023 0.63677305 -0.28562447 -0.084090658 -0.1075967 -0.9427669 -0.049836699 0.014593529 0.22622629 -0.98532999 0.96675581 -0.43936116 0.95663011 0.65517569 -0.058692034 -0.29959965 -0.067317143 0.0074297986 0.14172822 -0.45768118 0.44048601 1.1823567 0.80188525 -1.0093272 1.0160239 0.27727851 0.90581667 -0.3888275 -0.20993608 0.7135396 -0.33533037 -0.072611123 -0.87320292 -0.54591632 0.36126754 0.033739395 -0.53631741 -0.71565658 0.040526778 0.80673563 0.4442476 -1.0749424 -0.17191088 0.11153357 0.83813471 0.31439087 0.23458363 -0.3827298 -0.84060657 -0.10551573 -0.19740473 0.3238382 1.057561 -1.3223324 -0.022087187 -0.59078908 -0.45091718 0.079666041 -0.15422489 -0.013032706 1.0444262 0.24142981 0.098614626 1.2309 0.20372956 0.18870847 -0.51383841 -0.1875625 -0.7590732 0.53931284 0.28701165 -0.28107733 0.67142099 -0.56423753 -0.74971598 -0.7626586 0.44479287 -0.41642299 0.52957499 0.22631373 -0.51545227
2284 0.026020199 0.41776147 0.18860309 0.40981019 -0.60060829 0.81140572 0.31669599 0.0026766718 -0.15482172 -0.99187577 -0.50369 0.14537129 0.66360795 -0.67181742 -0.34753525 -0.10570397 0.28914446 -0.19597067 -0.11003698 0.62083304 0.77014321 0.20948011 -0.62499815 -0.59244967 -0.64968193 0.33226681 0.33495548 -0.16630976 -0.58974397 0.8429969 0.36011845 0.69109738 0.6973148 0.51117009 0.021107936 0.099192664 0.79341644 0.39151224 -0.56624216 0.49278212 0.32863313 -0.086384572 -0.65026724 0.58825839 0.64768416 0.27062654 -0.56549537 -0.10903222 1.4281704 0.63080567 0.084529392 -0.80500042 -0.70136863 0.57656604 0.15228415 -0.57920462 -0.33763805 0.24909946 0.072109856 0.28443608 -0.55558473 -0.11431158 0.05254706 0.31692031 0.59979731 1.2205144 -0.99453932 -0.3815465 -0.14056754 0.14230356 0.47872633 1.0290859 -0.7109803 0.64719671 0.087561548 0.21463001 0.067210503 0.38513151 0.39966461 0.34196785 0.073665239 -0.20719723 1.1519257 0.48108599 0.85459805 -0.70824581 0.23894703 -0.61174476 0.57580698 1.2095345 -0.26682884 -0.68617851 -0.41215819 -0.58888692 -0.30881459 -0.1554922 -0.45106146 0.34833011 0.077755861 -0.27254623
867 -0.6288653 -0.24037291 -1.1399792 -0.023349656 0.073772244 -0.44343305 0.66972512 -0.11242396 0.98779374 0.75449944 -0.28079396 -0.83565891 0.68572539 -0.42825282 -0.35295209 0.59445 -0.62386638 0.80806506 -0.24627602 0.35705659 -0.33773094 -0.25793794 -0.50546074 -0.74792528 -0.90873659 0.35308918 0.54203647 0.3898187 -0.023094349 0.5709126 0.42299619 0.79002964 0.15586588 -0.0092353011 -0.79664207 -0.96474785 0.25375876 -0.26259333 0.48386893 0.27584526 1.0656649 0.39839852 -0.9349516 0.44494501 -0.44724455 0.98545831 -0.018916767 0.0071847765 0.62158108 0.38539425 0.33734146 -0.38315552 0.081794709 -0.48998326 0.48359546 -0.57375669 -0.40442732 0.31351116 -0.44067991 0.13256903 -0.19654915 -0.031343289 0.85344797 0.7239241 0.33081067 0.46808612 -0.40749681 -0.048433945 0.12165259 -0.31462494 -0.55087692 0.053532675 -1.1393687 -0.44987333 -0.22944941 0.31912953 0.47159937 -0.44844326 -0.14046548 0.76275891 0.81480145 -0.14748721 0.59996331 0.083727203 0.0037066413 -0.048508253 0.27292964 -0.43515942 0.66105556 1.6591805 -0.28942651 0.239968 -0.34889948 -0.17946577 -0.59334821 1.0479087 -0.11558238 0.28725824 -0.32692713 0.27044752
1270 -1.0852451 -0.45832568 0.021010691 0.19444115 -0.61582386 0.2616221 0.80186152 0.26923665 -0.10841439 0.30482537 -0.29599619 -0.26905888 0.36106426 -0.12609059 0.30924603 -0.12195163 -0.013840098 0.43918231 0.46983084 -1.1862781 -0.37095597 0.1606487 -0.90194076 -0.71799415 -0.041532237 -0.035209712 -0.5910691 0.12561139 0.95232511 -0.34548628 0.25831705 0.49389163 0.17246041 0.09391734 0.2459906 -0.25162715 0.35110137 0.45745802 -0.7325201 0.63794684 0.91768074 0.22136486 -0.55001003 -0.79848307 -0.29896128 0.66790056 0.27586523 0.35930032 -0.44285774 0.56388456 0.20358995 0.50838095 -0.56430864 -0.07480482 0.44442081 -0.35930985 0.28501177 0.40039885 -0.52742124 1.1647117 -0.98647273 0.60127515 0.11042278 0.42775771 -0.53894424 -0.0888898 -0.084597014 0.25629553 -0.091418914 -0.32550815 0.080719136 -0.44732675 -1.3690615 0.11651171 -0.35053062 1.0075712 0.37518421 -0.28850195 0.25404057 -0.13166647 0.74612087 0.33676666 0.10977787 -0.15064034 -0.36944884 0.60032415 0.24068993 -0.19889313 -0.50580543 0.88742286 -0.36991212 0.29396605 0.078656159 -0.30347538 -0.40718549 0.92195904 0.10241576 0.27111936 -0.49857026 0.46380913
1192 -0.027461257 0.026293764 -0.13592072 0.48716021 -0.40322128 1.15163 0.46913418 0.20436202 0.86865705 -0.13091832 0.0037399973 -0.55606407 0.46975371 -0.16810451 -0.78596765 0.035271995 0.053088546 0.2008585 -0.38799393 -0.62252468 0.42472741 -0.30663198 0.037904792 -0.09616439 -0.37996227 -0.83135223 -0.35952196 -0.21037005 0.35474712 0.45909396 0.15444207 0.32744709 0.75894493 0.86328268 0.26413897 -0.95554048 0.15638527 0.38292077 -0.33469051 0.30464223 0.26742074 0.14803842 -0.33688569 0.0061294385 0.50812173 0.58383459 -0.033113152 0.0094557861 -0.75983429 0.70077211 0.096924111 -0.0061990255 -0.2979852 -0.021376094 -0.086913161 -0.63897204 0.06105056 0.064623423 -0.02111184 0.9358865 -1.2226354 0.14772452 0.89522851 0.40483439 -0.077154078 -0.097578324 -0.24016957 0.29529196 0.26579946 0.47489142 0.14358516 0.91238654 -0.21838398 0.58946198 -0.37428787 0.084660865 0.48834717 0.087052971 0.72032082 0.3968837 0.70426679 0.032363754 0.35701689 -0.82532322 -0.51603925 0.051315811 1.4340039 -0.13064933 -0.069472335 0.68631494 -1.0947986 0.26878348 -0.79359502 -0.25349867 0.2691586 -0.30690637 0.26134187 0.84824753 0.25628641 0.054471664
594 -1.2057109 0.6115033 -0.018809048 -0.34116352 -1.1138175 0.20605727 0.075158171 -0.058940034 -0.10372657 -0.5235095 -0.33797401 0.62517899 0.24877328 0.14771055 0.84534496 -0.20893361 -0.15734085 -0.17391688 0.097269304 0.20848224 0.48014972 0.068646498 -0.58098561 -0.90499556 -0.26121256 -0.24703996 -0.69444531 -0.40574041 -1.0710211 -0.040054258 0.18215813 0.59324253 -0.26108932 -0.11276544 -0.64111948 0.95292568 0.59572983 0.6262694 -0.20479697 0.23951596 0.77022725 -0.29894105 -1.2019718 0.079900056 0.60130894 0.67770869 -0.13886313 0.00037451633 0.77649283 0.6080631 -0.46925843 0.3321895 -0.88111633 1.0421066 -0.16225943 -0.73321539 0.28773269 0.56539243 -0.20522888 -0.064904071 -1.0254056 -0.56646824 -0.1076157 0.87911671 0.2696473 1.0488793 -0.35038698 -0.079411514 -0.70165849 0.46725518 -0.020187285 0.8039304 -0.62958443 0.36516091 0.99322402 0.80595207 0.096539311 0.38466275 0.10383106 -0.013842616 0.2929475 0.85941392 0.33232415 -0.065450914 -0.49874046 -0.12864442 -0.59007847 -0.19097875 0.9823764 0.70057595 -0.72532606 0.49966148 0.56975359 -0.030754704 -0.21259136 0.019841123 -0.59764636 -0.097847395 -0.20721927 -0.34761977
276 -0.39836299 0.16231166 0.32728434 0.24976678 0.2885116 0.64219588 -0.33403859 -0.11986098 -0.022849953 -0.45990223 0.18115288 -0.31961131 0.98968095 0.59613419 0.28271884 0.14287984 -0.27869394 0.41692135 0.56758249 0.27618831 0.26147071 -0.14063294 -0.1123891 -0.47680598 -0.68641442 0.05155259 0.8606481 0.7002486 -0.32911614 0.26822054 -0.058294453 -0.83439535 0.46745622 0.54083967 0.86587793 -0.074701175 0.16999902 -0.13703263 -0.38959631 0.30490118 1.3776212 0.29961428 -1.2412654 0.25542906 -0.34063795 0.31522548 -0.13545762 -0.15509054 0.50735664 0.032589819 -0.31607261 -0.039403103 -0.17670451 0.70107955 0.12708747 0.23787825 -0.75678289 0.17357011 0.69473267 0.37926808 -0.22995992 0.21833035 0.1187489 0.38203636 0.4704527 1.159162 -1.1239349 -0.3637245 -0.46382567 0.54911166 0.12049805 -0.42181697 -0.38196957 -0.15043545 -1.1288351 -0.28059629 -0.59399587 -1.5002779 -0.64615583 1.3094096 -0.41276103 -0.22352141 1.0114883 0.35526836 -0.26979467 -0.19049208 0.80302411 -0.47719723 0.28198129 -0.13889402 -0.85856831 -0.37168258 0.24747427 -0.13129275 -0.99905682 1.0592548 0.58835113 -0.039431743 0.28200305 -0.09768568
1964 -0.2076683 0.63385242 0.37936035 0.19494285 -0.58510995 0.85615283 0.23587103 -0.79262644 -0.39051414 -0.03683446 -0.84605426 -0.5186739 0.0072854133 0.32517436 -0.27374446 -0.02480673 0.2211505 0.096656814 -0.4881874 -0.55815881 1.226175 0.67883921 -0.25404072 -1.2793401 -0.60840505 0.82786965 0.39638457 0.78111845 0.16427208 0.054098893 0.55936521 -0.45757696 0.14381163 0.78375512 0.2254961 0.52071559 0.85536885 0.41013721 0.16076201 0.53025341 1.1890411 0.34166709 -0.54968375 -0.78604996 -0.41817462 0.21170421 -0.40638891 -0.66481316 0.96236467 0.75522065 -0.44769228 -0.34701702 -0.6278401 1.0740507 -0.032039933 0.29453823 0.092708774 0.27971849 -0.20693333 0.43920153 -0.49192703 0.2491577 -0.16228433 0.18673484 0.041578431 1.2796583 -0.96409255 -0.19964087 -0.37717316 0.56749851 0.098896697 -0.23195741 0.27576765 0.82034522 -0.12021773 0.57606345 -0.70576227 -1.2088262 0.43361214 0.88223553 -0.4379113 -0.018262092 0.40181077 0.75329286 -0.019105949 -0.18052441 0.62388229 -0.5521453 0.46325594 0.52564716 -0.46866831 -0.081145838 0.35935286 -0.25614065 -0.10997602 0.59714204 0.28535923 0.086842604 0.13184546 -0.31972995
541 0.023709642 0.70192516 0.1896532 -0.012883699 -0.34519055 0.71353275 0.61729264 -0.0028912493 -0.0061079874 -0.20088255 -0.863832 -0.22723053 0.41688865 0.80159545 -0.60296166 -0.43185276 0.11883529 0.54771423 -0.093299858 -0.24551614 0.41839653 0.095969036 0.17608882 0.38732705 0.21226476 -0.0046925326 -0.25895947 -0.27120465 -0.23837572 0.41844872 0.37695625 0.66560489 -0.25489444 1.6146357 -0.53302217 0.074004933 0.87167513 0.38222596 0.09085162 0.23456092 1.0177312 0.63265729 -0.29108226 -0.29043838 0.25768691 0.88312495 -0.25800222 -0.73938328 1.2079753 1.3557826 -0.90981233 -0.32898375 -0.50704515 0.3916164 -0.66528249 -0.33644044 -0.070336111 0.20793456 -0.5699603 0.43901977 -0.25828549 -1.1090004 -0.51226908 0.72924876 0.48864287 0.43191755 -0.62435776 0.61573601 -0.88706261 0.62072408 -0.05093088 0.022184651 0.14218737 0.93831635 0.66615164 0.50418895 -0.31681222 -0.62269562 -0.27846459 1.0522085 0.079334848 0.14951847 -0.26896018 0.15651707 -0.1061096 0.080125347 -0.24097297 -0.76555461 0.85649753 -0.13943568 0.28452599 -0.21803756 0.68747598 0.017420594 0.27727911 0.80315667 0.040745571 -0.03845695 -0.41403651 0.093275122
764 -0.57391524 0.20114036 0.061503258 -0.079114467 0.074830055 0.041860405 0.14531682 0.41734052 0.0043975268 0.33837271 -0.65742469 -0.5091033 1.3541255 0.74083304 0.1578628 -0.50188714 -0.66086835 0.80763471 0.87958705 0.12490052 -0.2662133 0.22661707 -0.61667562 0.51213229 -0.043419015 0.43561023 0.20703523 -0.32590628 0.42940998 -0.18463063 -0.31184137 0.89439481 -0.053924449 1.3592979 -0.14675567 -0.28827712 0.10654784 0.0059192809 0.29294005 0.27095386 1.6492444 0.39802483 -0.69884837 0.53416139 0.089353643 0.82125574 0.11867444 -0.74712169 0.51639539 -0.05004188 0.055103116 0.42777354 -0.20616277 -0.22061624 -0.34344196 0.060201015 -0.45987704 -0.27031466 0.21206936 0.303491 -0.19927673 -0.71291381 -0.15267773 0.8315329 0.16119416 0.87732017 -0.69466197 -0.73471987 -0.84233457 0.31434974 -0.77062899 -0.33117661 -0.32318577 -0.4687885 -0.079940408 0.28511021 -0.11111712 -1.0269047 -1.2405995 1.2749625 0.58518082 0.19648704 0.50007915 0.44640842 0.15010421 0.10824663 0.38781667 -0.54578763 0.33765468 -0.17487082 0.1232333 -0.10594568 0.55032051 0.15294671 -0.63068068 1.1233355 0.46008375 0.066906467 -0.5368678 0.3249647
1383 -0.037136409 0.7562567 0.19901581 0.058142662 -0.025354894 0.27886403 0.30538869 -0.56571192 -0.039290134 0.19545615 -0.50688642 -0.037717123 0.58755374 1.13737 0.11749423 -0.076775253 -0.6383872 0.47781447 -0.29625258 -0.21735513 -0.01293626 -0.36645097 -0.22720364 -0.43044859 -0.24409753 -0.15698756 0.069116019 0.57323474 -0.98337245 -0.018258726 0.75722271 -0.10113735 -0.24068144 1.1961719 -0.62226242 0.78143561 0.66084266 0.46972921 0.21078286 0.08926668 1.8604665 0.78162038 -0.64401668 -0.18125626 0.37542516 0.11193561 0.075577758 -0.63104886 1.336439 0.88710821 -0.27706864 0.39260942 -0.038823068 0.63862443 0.024893032 -0.2598629 -0.033607684 0.0071176598 -0.15925507 -0.09303844 0.15921547 -1.0748239 -0.027490068 0.48004755 0.32987261 0.81911945 -0.52595866 -0.29927564 -0.63374162 0.8521601 0.17674877 -0.25362155 0.40944538 0.29879716 0.49603263 -0.44357568 -0.25735766 -0.53500038 0.017881406 0.95907319 -0.16567554 0.88788569 0.23916243 0.086978093 -0.43624997 0.16552581 0.095684148 -0.19185373 1.2410448 0.60893482 -0.26457372 -0.0019954445 1.1762182 0.31702307 0.62698698 0.48628664 -0.19673468 0.29559132 0.14696054 0.33429897
909 0.26286951 -0.37940681 0.24345249 -0.96316344 -0.16707134 0.69261098 -0.13301019 -0.31885788 0.070139952 0.94524288 0.46738353 -0.81997889 0.39523804 0.50351822 0.70384121 0.096216179 -0.25548998 -0.5918982 -0.56694621 -0.10331187 -0.69972235 0.69866574 -0.32123458 -0.094901428 0.10915386 0.20943102 -0.49269927 0.27782798 0.26645043 0.52936822 0.50749117 -0.053837862 0.63647366 0.052496638 -0.26764542 0.084266141 1.0272881 -0.047621503 0.13172553 -0.081926808 1.7792672 0.52119344 -0.2770251 -0.46379349 -0.22347377 0.034881998 0.13912424 -0.11676448 0.43140477 1.770177 -0.66427469 0.61103982 -0.75826061 0.034384917 0.35473287 0.49436951 -0.53198558 -0.09113016 -0.20893478 1.360669 0.17381659 0.098215081 -0.16330427 0.09446384 0.63616461 1.0376768 -0.64474827 -0.17989789 0.41301954 0.86841786 0.27836439 0.042807542 0.63752925 0.36241063 -0.12367336 0.34551823 0.51811534 -0.076919638 0.43029967 0.55408198 0.55500066 -0.10037602 -0.034995224 0.3190192 0.36709636 -0.55398178 0.14906605 0.091997012 0.93298417 1.4759972 0.30893219 -0.22664042 0.43544495 0.56499809 0.73860604 0.47730854 0.49673414 -0.24442592 -0.16959676 0.2736052
804 -0.42510709 0.52475327 -0.40055633 -0.099902146 0.10998581 0.34639454 -0.23982857 -0.50982749 0.80963492 0.368848 -0.10653409 -0.29505134 0.43456069 -0.75515705 0.15264553 0.70633578 0.10629795 -0.18094695 -0.40592954 -0.28123283 0.36478952 0.3056995 -0.32394102 -0.62398249 -0.22752331 0.2909286 -0.078242607 0.29073521 0.15892085 0.48393905 -0.74660403 0.19504288 -0.25065532 0.17354423 -0.52497298 -0.58275002 1.3614725 -0.21074702 0.55828315 0.41448078 2.0283089 0.0011690832 -1.1604388 -0.1808389 0.13005342 -0.25765878 -0.50242513 -0.76799303 -0.6171456 0.10156564 -0.87120354 -0.34082404 -0.63328534 0.38682878 -0.017846324 -0.035608534 -0.41820785 -0.34662318 0.089103997 0.47653851 0.053183962 0.045365848 0.056570418 0.16534628 0.77709019 1.3980206 -0.79514664 -0.48965061 0.1115979 0.90278566 -1.1745867 0.32704246 0.061684061 0.19277243 -0.057138629 0.22464696 0.60519475 -0.55231929 -0.18353319 0.72699428 0.50008315 -0.28294814 0.079092085 0.44281575 -0.17299603 -0.57660663 -0.27842146 -0.26519158 0.34456387 1.6265908 0.78342497 0.67884123 -0.49041426 0.27049798 -0.15761933 0.44396397 -0.10193792 0.27251333 -0.22705019 0.031949434
422 -0.58419216 -0.32649246 -0.14685862 -0.16332647 -0.26245403 -0.064926267 0.87973344 -0.16083966 -0.6908527 0.60026151 -0.11831328 -0.32668138 0.85229498 0.65882689 -0.33810648 -0.090349272 -0.6152845 0.53283077 0.54607368 -0.31435329 -0.39844313 0.1925153 -1.0600842 -0.11727058 -0.21792905 0.72019744 0.27120322 0.12738621 -0.24441972 -0.45481545 -0.090470821 0.39859092 0.096765466 -0.34426916 -0.5360027 -0.22732933 0.37641311 -0.026715619 0.33769819 0.31822076 1.173578 0.61328548 -0.81043136 0.042943288 -0.18744342 0.54199505 -0.037208572 -0.458038 0.68616831 -0.090975523 1.1005092 0.23694667 0.10921466 0.09395992 -0.18642531 0.63498795 0.076813288 -0.072806433 0.19702823 0.69776028 -0.54181111 -0.60343379 -0.24956906 1.0463922 0.652071 0.60884827 -1.2566553 -0.84126866 -0.63111079 0.23609912 -0.39163482 0.063094631 -0.092097878 -0.043258958 -0.32159862 0.29356694 -0.19740896 -0.25887129 -0.95297998 1.3670838 0.4201034 0.036257349 1.5988001 0.8670373 0.2266266 0.24771297 -0.4518832 -0.56418848 0.64459044 0.12305917 0.18981808 -0.39976367 -0.25555536 -0.21039152 -0.87050664 0.92599565 0.21154271 -0.59566295 -0.14905025 0.36384889
151 0.1569614 -0.31359982 0.42720374 -0.51874352 0.40852427 -0.041637063 -0.064385623 -0.058004718 0.27342793 0.33445984 0.62801635 -0.063229486 0.89548635 0.70564008 0.10242552 -0.023976402 -0.3632423 -0.19328704 -0.04069582 0.59835589 -0.7669301 -0.051441349 -0.40084103 0.11776903 0.11046062 -0.02297602 0.050782189 -0.023008374 -0.18910052 0.053511087 0.01926177 0.3315205 0.69180578 -0.12837577 -0.20482214 -0.069091551 0.71176165 -0.089638472 -0.45033151 0.060878605 1.252147 0.57333571 -0.47904888 0.29743949 -0.3707546 0.61506116 -0.082320593 0.20338628 0.64644217 0.57464808 0.15943564 0.84005719 -0.54664904 0.23598483 -0.060916264 -0.18050942 -0.96055245 -0.047544297 0.89080966 0.87846267 1.0141098 -1.168646 0.24904384 0.58895785 0.11366032 0.95007706 -0.92602718 0.014766292 -0.10417107 0.8365624 -0.12224361 -0.46279874 0.19294468 -0.045116913 0.0026363793 0.024201849 0.029927636 0.19867142 -0.7620337 1.2604237 1.0009396 -0.30319709 0.4560236 -0.17120776 -0.14461359 -0.99856019 0.02262418 -0.21090148 1.3896809 -0.0090628117 0.18544917 -0.6375683 0.24393196 -0.070859998 -0.57144624 0.79812855 0.065071352 -0.28692895 0.051862672 -0.14734007
435 -0.92402875 0.42376286 -0.01438984 0.80329609 0.17144006 0.3975082 0.92022544 0.13661356 0.27834985 0.09503746 -0.33786291 0.024534121 0.50355804 0.21170478 -1.0380812 0.13123693 -0.59231228 0.50071114 0.29593164 -0.77723509 -0.13186917 -0.40138984 -0.13319664 -0.70812619 -0.54540426 0.10642445 0.21660347 -0.36674652 -1.182057 0.50682771 0.20116355 0.40767363 -0.49340808 0.59146595 -0.63523 -0.15769276 0.22515251 0.39262849 0.097675391 -0.19389714 0.22279908 0.12014471 -0.66937637 -0.2375145 0.23396075 0.81604153 -0.012548029 -0.53269887 -0.057212278 0.83945876 0.44164643 -0.70988566 0.79705739 -0.021010589 -0.55592102 0.34775692 0.46714276 0.71106678 -0.71148199 -0.39075944 0.11296417 -0.17204396 0.067585789 0.51127666 -0.0075447266 -0.25649542 -1.1225649 0.28072223 -0.1602301 0.43421936 -0.3178691 -0.19196633 0.71185541 1.0063522 0.67582959 -0.4175092 -0.68431926 0.30084783 -0.056328248 0.19796261 0.067657925 0.12349408 0.16723108 0.11515868 -1.0599031 0.83119977 0.38285512 -1.120466 -0.21171425 1.465905 -0.67490727 0.61675191 -0.26020777 0.078397892 0.63410294 0.72090948 -0.66840357 0.76013726 -0.051744577 1.1266726
821 -0.17174603 0.66919881 -0.2087604 0.93180025 -0.67405933 0.092596531 0.31321657 -0.77728641 0.23412468 -0.5828172 -0.70864707 -0.27844095 0.66214949 -0.18615761 0.073554881 -0.4513714 -0.24180944 0.40275848 -0.45239642 0.28201985 1.2190298 -0.69200993 -0.24326678 -0.71001923 -1.1731219 0.095157124 -0.0083899591 -0.22221987 -0.44279107 0.61116582 0.05779852 0.3840211 0.44621974 1.3107214 0.061107002 -0.19862024 0.44856468 -0.066300556 -0.1493745 0.82536036 1.1040683 -0.13869523 -0.7173382 0.68685454 0.29327908 0.91676426 -0.14559881 -0.53300744 1.0091076 0.63463968 -0.17994362 -0.75098336 -0.54621065 0.84753859 0.5503661 -0.94563937 -0.7062999 0.42197946 0.61043125 0.77458012 -0.51424962 -0.20728125 1.2548736 0.69197994 -0.24871169 0.95591515 -0.91725278 -0.24463697 0.43807521 0.37986857 -0.29684523 0.66887391 -0.35095146 -0.059104372 -0.46458745 0.73441392 0.078853592 -0.15292691 0.034548476 0.9202038 0.24829473 0.13421506 0.49005568 0.18971103 -0.013566336 -0.62586844 0.48557955 -0.53765386 0.80629039 0.31374538 -0.58640367 0.24307881 0.25390077 0.029114287 -0.53292757 -0.015179962 -0.27585417 -0.095593236 0.42800343 -0.19857429
924 0.096661888 0.61023164 -0.173857 -0.75408888 -0.71538717 -0.23869662 0.25235754 -0.13842393 -0.84006959 0.31805402 -0.38264313 -0.015642561 0.47151682 0.094961919 -0.13990662 -0.18603067 0.71029902 -0.15395144 -0.29047123 -0.022058012 -0.49465263 0.58550733 -1.0263916 -0.76686317 -0.71731985 0.92989099 0.12964939 -0.36532512 0.019420192 0.66136253 -0.091550142 0.75729299 -0.20192352 0.67481387 -0.48413756 0.8826732 1.3039984 0.64307261 0.70644128 0.23459245 1.2124165 -0.10130787 -0.032443356 -0.19200732 0.54113579 -0.40299526 -0.84805357 -0.72467494 0.015864342 0.80350906 -1.0546221 0.17387505 -1.0327796 0.3601653 -0.34343609 -0.52776486 -0.11066939 -0.56657767 -0.1226024 0.49956748 -1.0900002 -0.12797029 -0.76430643 0.68835533 -0.23497537 0.14508639 0.18131225 0.20127495 -0.15321377 0.0049395589 -0.18853678 1.0274024 -1.3557158 0.67809057 0.7638045 0.01850649 0.80602717 -0.26618007 0.64322305 0.027291846 0.10500202 -0.30148146 0.019957457 0.092437968 0.7147634 -0.39805236 -0.63588065 0.19833887 0.47783819 1.3133179 -0.18455654 0.39251497 0.14503911 -0.37456572 0.29149818 0.78637224 -0.080626033 0.43991083 -0.19110407 -0.2349523
1927 -0.31141368 -0.2525185 0.63796055 -0.91627443 -0.22030945 0.31755763 -0.1660405 -0.047703769 -0.14628038 -0.97433782 0.17693707 0.061663058 0.40292898 0.090048499 0.20512772 -0.0064753112 0.51774949 -0.18242647 0.13467352 -0.19096823 -0.25747341 0.28861171 -0.53054023 -0.3549248 0.65934342 -0.0084417081 0.51353604 -0.076497279 -0.032328881 -0.49571404 0.29820719 0.38275534 -0.051360499 -0.50340974 0.11089227 0.31958228 1.3663212 0.2437432 -0.9110083 0.58232641 0.47705391 0.29895338 -0.98821288 -0.54355466 0.058382604 0.20793642 -0.35424843 0.063097008 0.68784237 0.82651013 0.23557825 0.87685037 -1.0403786 1.0536131 -0.37288103 -0.070780657 -0.32195619 0.42378673 0.30003861 0.22984342 -0.18176876 -1.1747912 -0.34597042 0.60814154 0.36376789 1.246949 -0.67622513 0.51062185 -1.0747843 0.37380338 0.36614719 -0.33371976 -0.42588562 0.96361685 0.3418116 0.18245271 -0.051137205 -0.47103116 0.016792273 0.69602823 -0.017497974 -0.2658872 0.91975224 -0.085451551 -0.31604731 -0.37180641 0.19830452 -0.14917484 1.0320679 -0.28059921 -0.076932766 -0.43659428 -0.078297049 -0.75515264 -0.76684779 0.48296165 -0.24527235 -0.21619809 -0.20663281 0.13321367
833 -0.74660563 -0.71132416 0.067417689 -0.57172817 -0.97603607 -0.013147657 -0.066862844 0.070715405 -0.042928234 -0.0011717106 0.0010094299 0.012967844 0.40777206 0.1825117 0.93570799 -0.06594304 0.03326967 -0.56245595 0.33989295 0.55783403 0.227016 0.18291259 -0.34124884 -0.59567004 -0.93447226 -0.065338939 -0.54372698 -0.54702538 -0.29527825 0.40104935 -0.91610289 0.10835095 0.79588425 -1.0162464 -0.26716244 0.67464298 0.53131372 -0.085242443 0.43910003 0.24026532 1.2435338 0.24528822 -0.84304726 0.50605553 -0.45248696 0.7195248 -0.19841781 0.54240125 0.13229275 0.16647945 -0.32534257 0.59423357 -1.2833532 0.49063131 0.41331905 -0.2646116 -0.94567788 0.31734836 0.69672298 0.88646907 -0.43405244 -0.12442621 0.35965079 0.4111861 0.14238319 1.2418802 -0.067395985 -0.33029228 0.11795885 0.058867328 -0.40345013 1.340888 -0.64207804 -0.29129028 0.093357906 0.41070613 0.16233985 0.55811554 -0.027113454 1.1496003 0.098609254 0.067897461 1.0165185 0.24028468 -0.21286684 -0.22861855 0.020453326 -0.13798988 1.0882257 0.77211362 -0.63522863 0.58779222 0.17763658 -0.099754058 -0.22007053 0.40343523 -0.27168262 -0.039905217 0.30987683 -0.30084249
213 0.53915215 -0.058563009 0.19968024 -0.82163513 -0.95128495 0.78014678 0.0080351783 -0.26434901 -0.59126359 0.12612672 0.3528688 -0.3048636 0.57000691 1.156512 0.6033169 -0.62520057 -0.32273224 -0.17235334 0.17321002 0.39696115 -0.0037352135 1.0104649 -0.72967994 0.22880936 -0.50468034 0.0093699163 -0.11364701 0.015540628 0.44417936 1.2419813 0.34579453 -0.11597113 0.96196032 0.31072009 0.28109238 0.35178131 -0.16549148 -0.20391983 0.131578 -0.40377232 1.7736384 0.34325948 -0.43066549 -0.09611804 -0.12191761 0.27601415 -0.18629509 -0.63325816 0.51666403 1.6166736 -0.71524137 0.033775289 -0.92166054 0.38448444 0.26401994 0.2810289 -0.58263963 0.14598984 0.24362586 0.73669004 -0.63174844 0.23562941 0.11715525 0.30127251 0.49533948 0.78286523 -0.45647597 -0.1337541 -0.45567268 0.11251307 -0.05596292 0.77009809 0.59944427 0.11136802 -0.5284313 0.68686926 0.37622076 -0.95134908 0.28933024 0.66862708 0.35714048 -0.026653973 -0.095342547 0.5277366 0.99104524 -0.43798631 0.44341791 0.078409865 0.5101167 -0.067105368 -0.40372163 -0.30827552 0.40640694 0.53989255 -0.087553129 1.4313538 0.11054447 -0.55990821 0.32063127 -0.42667776
757 -0.39974117 0.15254781 -0.61801082 -0.41604608 -0.15883514 0.57097316 -0.17903183 -0.050623111 -0.048935167 0.29019162 0.71711475 0.58525276 0.5574792 -0.62119067 -0.13277571 -0.42433926 0.95597738 -0.023054233 -0.43118766 0.2607531 -0.10299895 0.75126916 -0.63047767 -0.0067889206 -0.21216506 0.045620881 -0.52257079 -0.47327879 0.59275782 0.42001134 -0.1086753 0.20296098 0.44368479 -0.099761732 -0.50135124 0.7152378 1.6619656 0.7632305 0.53374201 0.90351057 1.6315114 0.3239862 -0.60783124 -0.075529374 0.11795079 -0.22616206 -0.69956058 -0.2308462 0.6249764 0.46943629 -0.701895 0.28085297 -0.95510507 -0.48195103 -0.17783329 -0.16408232 -0.10932207 -0.60464215 0.36087236 0.4501861 -0.43026969 -1.066388 0.14962542 0.59732199 0.19469985 0.75615197 0.46887505 0.15724225 -0.0074666403 0.30467021 -0.55256236 1.1361054 -1.2038622 0.21721593 0.30801526 -0.25952062 0.82933581 -0.34494993 -0.039992943 0.90342999 0.45330897 -0.84754276 0.25890547 -0.39344269 0.55697167 -0.40085965 -0.1333192 0.11403228 0.5932821 0.98829359 0.13459134 -0.31334612 -0.41915846 -1.2024217 -0.51910985 0.54249585 -0.42097569 -0.022683503 -0.66387403 -0.67263347
