solver_type MCSVM_CS
nr_class 7
label 2 0 4 5 6 3 1
nr_feature 199
bias 0.000000000000000
w
-1.152695943501604 1.071902386262374 -1.989415823104002 1.566311729056483 0.8037458394306309 -0.7422320504018419 0.4423838622579510 
0.5131949119164231 -0.1537677621941856 -0.5332666711064217 0.2816770515516139 -0.7365161162893217 0.7008332382852992 -0.07215465216340088 
0.3985887031971402 -0.5919127285508469 1.381562855398087 -0.07604628814307904 -0.3731302078985851 0.2690753708393676 -1.008137704842096 
-0.5063502388545351 0.9732450340394262 -2.445465615630058 3.220736493879476 -0.2099479977284680 -1.678652655720320 0.6464349800144794 
0.3777122435959687 2.249848792486886 -0.3456876608061595 1.122533683620850 -2.462930342272362 -0.7509859735141630 -0.1904907431110387 
1.117664224350987 -3.335105434683885 0.8511581768877634 0.2388221055510344 0.2725027993652369 -0.4692055874928903 1.324163716021756 
-0.7960876478842942 0.5543062998687287 -0.9052250349584245 0.3419396746314555 2.127494792397339 -0.9546810606244119 -0.3677470234303813 
-0.3711070971454021 -1.009835301622238 0.6889640807206527 1.723843238225538 0.4323529797355324 0.3397435954279481 -1.803961495342037 
-1.909534514659086 -1.363357655599198 3.289683320764985 -0.9355295606226856 -0.2657024993239421 0.6591221453712512 0.5253187640686652 
1.703528696645452 -1.379905667682990 2.138798745360328 -2.822006490886492 0.3652886614480115 -0.4192179949702979 0.4135140500859732 
1.415361623705230 1.012395672250908 -0.1905838364191590 -0.7357396681677202 -0.8434061323382684 -0.1861380986373908 -0.4718895603935997 
0.03219187480001057 2.402481141590673 -0.8343543721747038 1.521331972290863 -0.5051419190395231 -1.262051985033145 -1.354456712434169 
0.8437400754950699 1.007229855983657 -1.824174394469319 2.439383536106396 -1.757560574695438 -1.593246382008186 0.8846278835878466 
-0.4300002108777239 -1.920107164738694 1.596090508971316 -0.4135865967688852 -1.275224944288873 1.836990124539382 0.6058382831634879 
0.5498846914949439 -1.417975096394352 -0.4938527034109184 -0.8354109801028093 1.547934306441987 1.363661261802909 -0.7142414798317527 
-0.2245266915302714 -0.2545307824305716 0.6864031230235740 -1.424352347999432 0.9244066210644835 1.583970037752676 -1.291369959880448 
0.7364286357352705 -0.9360237582368723 0.5530397070063313 -1.020364538504929 1.446357360275494 -0.5109802356416703 -0.2684571706336310 
2.829436507294564 -0.8958349972078629 -0.8533417273209871 -0.06706305439153429 -2.257345053005655 -0.1588352690231555 1.402983593654613 
1.253073879899552 -1.497143779911127 -3.134154168815991 -2.242851292954619 3.388710899521338 -0.3371868610748494 2.569551323335677 
1.738953208093458 1.908953693999465 0.6818230853357465 -0.8760950435202200 -1.878417296405763 -0.8908917653698066 -0.6843258821328676 
-0.6204346338616166 -1.497789360008344 0.8665338114485224 1.270262596936122 1.192653767469382 -0.2163476147178313 -0.9948785672662468 
-0.5153948701495401 -0.8509582294401133 -0.9869564359732660 2.294786063704098 -2.555952246217065 1.293462205704645 1.321013512371243 
-0.4772839733609259 -0.3595823983501541 0.5326292554433850 0.7594091600131196 0.1102641828144983 -1.697812544957669 1.132376318397758 
0.4126346848736736 0.4827490047222833 0.1724554779521692 -0.2622546318205237 1.044226090155998 -0.2680822952392115 -1.581728330644390 
1.296684214541345 2.563900001927459 -0.2184252810481763 1.207967047219968 -0.2407546927189714 -2.530216456007286 -2.079154833914343 
1.062762567024654 -1.711900440669396 -2.308500025612646 1.372872359281890 0.6448227187096250 1.365990224451452 -0.4260474031855896 
-1.928344070141116 -1.620084079008791 1.618934991913847 0.3733343333678439 -0.08786377347980101 -0.4781093444739245 2.122131941821941 
-1.196725094002211 1.033903344622527 0.003977834944251577 -0.5602637000085363 -0.8380337494837767 1.327004474827688 0.2301368891000655 
0.2369888991188430 -1.437549649721410 0.3325935829882897 1.185523295038533 -0.6647492319725671 1.434775067480641 -1.087581962932310 
-1.632678735517676 1.268226955936377 -0.7363120678522593 -0.7446674273924312 0.6026259520999100 1.411632915487689 -0.1688275927616100 
0.4233602867758442 1.095545866065283 1.070573453866300 -0.1333203090267262 1.060707965418520 -1.363751742319993 -2.153115520779238 
0.9756267202743429 -3.777697033611228 2.547021004889199 0.02852175255163392 0.1815306039605258 0.2805278034056805 -0.2355308514701309 
-0.02194465701589116 -0.7012001680079272 0.1486567390908327 2.127227151287485 -2.743450567704822 -0.008502304068984062 1.199213806419326 
1.803070634553119 0.8944049843534103 2.027284370128177 -0.4715340675946075 -1.753342934021400 0.09897018232740057 -2.598853169746098 
-0.6157024903389539 3.262612271785477 0.4373195163889434 -1.507395122103379 -2.005940487133970 -0.1749775084719210 0.6040838198738098 
-0.5021876894329634 0.8547570054934703 0.6784576670116408 1.799908967033092 -2.202676201094019 -0.2823328491105679 -0.3459268999006380 
-1.473111177855088 0.9923772159271111 2.224353922345671 -0.1284186034055084 -0.4849774447921003 -1.425508853186054 0.2952849409659839 
-1.614206894887344 -0.5546035592617575 2.387060253232786 1.201090594870665 -0.03091762471704654 -0.8340121081219868 -0.5544106611153313 
0.4571380647232167 2.332953874487504 -0.4172304770045731 1.035789403634495 -1.539801639879572 -1.088470703971247 -0.7803785219898098 
-1.578238646508090 0.9048824083425833 1.283016595820233 -0.2575979597177937 -0.5477628599698929 0.6411375518258581 -0.4454370897928869 
0.9903691704226680 -1.323248721267677 0.4093773099282498 1.184050978221336 0.6807054130864352 -1.927126695068590 -0.01412745532242376 
-1.278761838619819 1.407054289831283 1.131043862395566 0.8953825067907308 0.3217344897599878 -1.177603120304945 -1.298850189852796 
0.6097809614952852 -0.5480712094258470 -0.9122938936306212 1.073487611666230 -1.344774976369846 -0.04600252072162647 1.167874026986422 
-0.3109419246520311 -1.219421240561328 -0.5800380012741622 0.7748250343166757 -0.7081902710993020 0.3926678479353993 1.651098555334752 
1.499334753088145 -2.244939780119980 0.8252340167769450 -0.7880104418993502 1.242482859334394 0.2221078013826812 -0.7562092085628191 
2.767759869309243 -0.6527058187398830 0.9649360071667038 -2.520096577064238 -0.2055790999330902 -1.125504151440902 0.7711897707021707 
-1.618125720246355 -3.180680963140687 0.8786425583455589 2.837343485503371 0.4561775239945507 0.6359317194286942 -0.009288603885128812 
1.760852122205641 -1.419644098419313 -0.9890966845595083 0.9836171128696749 -1.348161406573688 0.7096208726258049 0.3028120818513862 
-2.955598605948107 1.169457044630741 4.335035478791769 0.4795915902120240 -1.683355596945191 -0.5780778365802256 -0.7670520741609800 
1.253577382439456 -2.052711322566434 0.6729516498657511 0.1472128656923766 -0.9643016552017134 0.7541887260342601 0.1890823537363180 
-0.6954123537776165 -2.099700025206571 2.635865290078107 1.445031855776293 -0.9553661673565486 0.6076070047451333 -0.9380256042588072 
-1.028918249820591 0.2500749080474318 -2.001135391095145 3.581316145717641 -1.139837995451593 0.5462871069084417 -0.2077865243061970 
0.8046811624173076 -1.301388776775542 0.5825517441338388 1.883410643971812 -1.638404311430406 0.3214660540649392 -0.6523165163819544 
-0.4817766490491502 0.09485092353481388 1.754196116161783 -0.1265748935873715 0.7801733406686253 -2.103088742314438 0.08221990458572936 
-1.358359420750434 -2.552549795743341 0.1671834449094501 -0.1778424328655398 1.359679958866254 3.028949189861267 -0.4670609442776553 
1.351098100715341 -3.159508519667591 0.4658138265514211 1.052628744204542 0.3760065019680314 -0.1354759767447578 0.04943732297300004 
0.9423426157303741 1.075103680664703 0.8208442229847487 -2.599801607303939 0.2881446448675787 0.4513998821677436 -0.9780334391112107 
-0.1548760148993317 0.8422641783669550 0.7784464578862934 -1.046877688925743 -0.9374359352968622 2.177839594225085 -1.659360591356397 
1.788222582127467 -1.830030706705436 1.017529028513892 0.3267138812471293 -0.1799510583249000 -0.4341887381451086 -0.6882949887130536 
-0.1763079976253911 -1.057438102869544 -1.982645118747204 2.033668356173066 0.3684026464274340 1.285526169324247 -0.4712059526826038 
0.4659144629523542 -1.419931160322747 -0.4627067660604320 2.094105405404751 0.2267068042287833 -0.1464294473352624 -0.7576592988674574 
0.5527077706101119 1.130315739732418 -1.993339692949396 -0.1429984302941631 -0.2177715426854625 -0.2109888600565360 0.8820750156430415 
-0.09411535166340053 2.129065785187096 0.5274150509200393 -1.732096934799327 -2.378400362869535 1.840769566252803 -0.2926377530276876 
0.7528001740164089 -0.5787676193056568 0.06010268660892693 0.3107441681256714 0.4273303256424534 -1.328387281907503 0.3561775468196994 
-1.399881106785730 0.3452322943690820 -1.503960780506598 0.9768092213838704 -1.575416647274950 2.904728597306368 0.2524884215079477 
-0.1350829589895788 -3.691718213931704 0.9391959861089466 2.623740094046387 -1.740651380104447 1.044372531006879 0.9601439418635110 
-1.017263366344728 -1.005574339915508 0.7242723430784971 0.5852079166691049 -0.6073748145654628 1.010794215750613 0.3099380453274823 
1.757868427604409 0.9652058501053351 0.6958534242119664 -0.9715249796213205 -0.1290129128968859 -0.9737241092564828 -1.344665700147022 
-1.127327112657576 1.833324683729057 0.9274037319856521 -1.043338485790853 1.370186372953507 -1.826653736681080 -0.1335954535386967 
-2.015290104363412 1.446334397464301 -1.621699728321703 0.04064703518472387 0.9061300368875669 -0.3121985848225612 1.556076947971090 
-2.072858332931575 -0.2568806010124702 -1.464740245377152 2.577389234276642 2.229473938510882 0.3889395547942741 -1.401323548260625 
0.09529069512863883 0.2499854427995437 -0.2249732868935808 0.2275533551332839 -0.8715960199694013 0.7936900875710107 -0.2699502737694987 
-0.6521248157963718 -0.2536668359935386 2.458361905336861 1.036700929593008 -0.7093729811685046 0.08698454485395693 -1.966882746825388 
-0.9467872124798016 0.1575086514964317 0.3386507212485929 -0.7250630724822100 -0.8772015866670628 0.9594303233438748 1.093462175540184 
-0.3564395938707849 1.777119178227198 -0.7498666764374285 0.3482597928830081 -0.9061935518380553 -0.7348267718975269 0.6219476229335790 
-0.9618971502464243 -3.677837983363723 0.7032269064404385 2.504562079162134 -0.1854667647594309 1.350121605750515 0.2672913070164995 
2.539881929874566 0.4726627047054500 -2.018784030783058 -1.818860749315120 -0.9012387901173358 0.8778483269031948 0.8484906087322949 
1.096665654239805 1.481637995435908 -0.2691854881827877 -0.4324076464436235 0.2990687363207585 -1.452599122675657 -0.7231801286943904 
-0.6896651011261515 -0.02779852591632077 -0.5492790413286366 2.344080423150801 0.5829851925126621 -1.553937243422145 -0.1063857038702185 
0.1452251191837232 -1.100682971871103 1.563496550573818 -1.157303730564604 -0.5783643492315972 -0.06329097107498512 1.190920352984733 
0.5819587855426903 0.8781285699470495 -0.6950861099475552 1.590694209911780 -1.848504488286125 -1.941673810436029 1.434482843268194 
0.7820997968795194 -3.918265783415900 0.3380433067148675 -0.08757506139265056 0.4719568648638844 2.945554795055508 -0.5318139187052140 
0.4459269657563093 0.4993081401151863 1.079392370758690 0.8992106573260753 -2.556415073497387 0.2997587463830707 -0.6671818068419467 
0.7057802303164776 -2.733213982763169 -0.7792904017480050 -0.03770761787477126 1.318133309650988 0.5239819216328413 1.002316540785643 
0.8369954874410458 -1.074244755280731 0.4007529032443594 0.7932199952125006 -0.9296875792072049 -0.3499000022850935 0.3228639508751318 
-0.1717358985073067 -1.659176672152086 -0.06658469616378573 1.218033267690265 0.005794056995527329 0.9352233909085600 -0.2615534487711774 
-0.4112275178261538 -0.3362333927153034 1.333067065082868 2.503000387848481 0.1853413610653479 -1.720744254941434 -1.553203648513816 
0.4658986378260785 -1.785832664619822 1.493753711906931 0.6508391604774157 0.8042370052381600 -1.354951422845896 -0.2739444279828576 
-1.448846135184328 -1.556951373276276 0.6344881461964593 0.4848345837148501 0.7490514573150778 -1.193230197652569 2.330653518886782 
0.8303581654702581 1.339591853139462 0.5556164609182291 -0.3219914217629288 0.4105324926493394 -1.543129593620072 -1.270977956794298 
1.299642189741114 -1.195200257387296 0.1527057002226208 0.2637118605466015 1.528480659796203 -1.042045454085181 -1.007294698834067 
-2.054967989848774 2.542179334268489 -0.8148078283629558 0.7056021136355055 0.8304437030929180 -0.6450477470967381 -0.5634015856884400 
1.740466238069874 -1.579582406507175 2.010967205491427 -0.5751741568624422 -0.2666575792046469 -1.237102672857247 -0.09291662812979082 
2.113332044754704 -2.487867808159262 -1.155160614254488 1.416973373503515 -0.3415061178443351 -0.9677758298279291 1.422004951827821 
-1.349979781275243 0.6656771404588343 0.7651498578260971 -0.4650704388249111 -0.3539487598644380 0.3878165405452331 0.3503554411344370 
0.5025052059232484 0.4158901341897783 -0.2837916894943459 -0.4853104468637326 -1.428974504471769 0.2051914409520786 1.074489859764739 
0.8802999926472026 1.645456209241185 -0.6232999402251304 0.3881751599752851 -1.153499953284917 -0.03441455474107755 -1.102716913612549 
-0.4119311633438171 -0.1438342998670772 0.1736960319348302 1.753956386817879 -0.4365263366702925 -0.04600137104641984 -0.8893592478250975 
-2.205882303429686 0.08808742614472637 0.1233797676893429 2.167036626568170 -0.3096088242006169 1.139529737496237 -1.002542430268160 
-0.6816883231801429 1.162717267311406 1.253641343323655 0.5918628158314210 1.338103779140075 -1.831765386020053 -1.832871496406362 
0.9966328274713296 1.045645230296705 -0.07387961346801455 -0.9529159646910114 -1.524087182514563 0.2374956519639519 0.2711090509416085 
0.6107271123408323 2.269494692868211 0.1427211374037713 -1.688901153630399 -1.705433825606001 -0.1232668380691102 0.4946588746927140 
-0.6821245365599260 0.9882487699518495 -1.017199594536293 -2.195114468165194 0.3541413052087508 1.579941572364957 0.9721069517358556 
1.831293422440352 -2.131338914753299 -0.6609996546839585 0.3746431474787709 -0.6726641233076831 2.094264542254571 -0.8351984194287386 
1.709555406043995 -0.05978904799906454 1.373533679035946 -2.301002734285609 -2.958103748912689 1.204894987235785 1.030911458881647 
2.104669153971135 -2.471341526743636 -0.7987202757581368 0.5961883108007356 -1.386069611634982 0.9611649640741314 0.9941089852907492 
0.8136478658347366 -2.102354702183247 0.4519489359636298 0.8820716174084033 1.123321635489917 -0.8600989110600544 -0.3085364414533725 
-1.743952071777804 1.053666971182441 0.2168635850381901 -1.610273839329821 1.798418261797883 0.7870710639077780 -0.5017939708186555 
0.1953736270353544 -0.7866489706775573 0.1535457412768227 1.428770802035645 -0.4900033340464998 -0.8074870764660063 0.3064492108422478 
-0.06608878910796559 0.9886650814952241 1.156564414175941 1.036690751260369 0.09593937785159606 -2.201688414663700 -1.010082421011453 
0.6323288782814774 -1.782150230660083 2.067340492559066 -1.053016065816468 -1.364677973218798 0.3100391906962679 1.190135708158551 
-0.1033507719637677 2.726369202999393 0.8642823255715527 -2.946238970864346 -1.154845827128336 1.291509370373988 -0.6777253289884905 
1.109945181630069 1.419822762708789 -0.006684711513303993 -1.177121132522589 -1.620518415078074 -0.6277014169462788 0.9022577317213940 
2.624415635246256 -0.8364442761807396 0.7809961463487054 -1.742085458347213 0.4949982456769235 -1.749710568917761 0.4278302761738412 
-0.6861874747702965 -3.434309060089028 -0.7880666671892648 2.055593749306864 0.4375269853894063 2.760120503038678 -0.3446780356863307 
-1.583171081091380 -1.902563703935323 1.950336332208080 1.810571635024603 0.4153260604012011 -0.9089138837399050 0.2184146411327284 
-1.896928670775577 1.719435058121250 -1.277126405426691 0.01965608858680642 2.527415640891519 -1.604069516041531 0.5116178046442248 
0.3865516856140417 0.6913969195976908 1.002411840037788 -0.4604455788694912 -0.6591755246714333 0.1397999547712106 -1.100539296479803 
1.462661365533642 -0.4808154557707987 0.02547091374423153 -0.5891193463670011 -1.501577321672403 1.204284161288962 -0.1209043167566283 
2.302785163148736 -0.9845561653920117 0.3294845895351389 0.6418052078126939 -0.6360542808993853 -2.803462454974976 1.149997940769812 
-1.424465338936477 1.053541801285654 0.4664767581062948 -0.3624704976390010 1.448995389213821 -1.190124992006041 0.008046879975759806 
-1.096843287604106 -0.07570589870796574 2.584357217293630 1.556935315644709 -1.697583790484344 0.3836499203955280 -1.654809476537473 
0.8240224138058235 -0.3325211116459224 -0.3623218503986131 2.339252773950032 -0.9055704446405224 -0.8720515749050554 -0.6908102061657484 
-0.1138950899733102 -4.332233674584365 0.9897761448365432 2.882578033917334 0.2075195344418338 0.8719986943643121 -0.5057436430023634 
0.8567764689844878 1.669471402304940 -0.4811287888901201 -1.099766635473684 -1.395136240527409 -0.3426385503797154 0.7924223439814958 
-0.3737941435862252 2.259420597873096 0.9640181130430883 -2.966937166309581 -1.630023063045429 1.761894409789137 -0.01457874776407149 
0.3268256019915323 3.507836095136839 -1.869170504092715 -1.052174802944959 -0.4437693669540916 -0.9445738773609680 0.4750268542243398 
0.2065646884822486 0.6734283852254275 -0.8461247290353121 1.450720304500287 -0.8663527869460800 -0.9422990625293907 0.3240632003028250 
-1.558825118030128 0.2711269583199155 -0.5957105334786443 1.599441308398467 -1.020867631427077 -1.379708724115048 2.684543740332503 
0.1413849115121625 -1.023287053066454 1.013992120661690 -1.217502429492948 1.079972947365320 -0.9341882518404713 0.9396277548606929 
-0.9375622901236074 1.622950755194323 1.621095450006131 -0.8903972471259587 -1.316138418705395 0.9418978637269778 -1.041846112972479 
-0.8204253821064466 1.326924894621097 -0.5095708586203253 0.9446654751474757 0.02359993373280657 -1.714503068571446 0.7493090057968376 
0.5579876141635992 0.5621238459585677 1.527897029141345 -0.1574159106224608 0.1907396585186105 -2.262911831870231 -0.4184204052894622 
1.179972260500796 0.6267655428908989 -1.799370872584406 -0.5373482367803986 0.4264405390358383 0.7470791274443337 -0.6435383605070525 
0.008181589255449543 0.01464027130320879 0.6898632864337170 -0.002035103955734775 -0.09116469778064565 -0.6643853698958953 0.04490002463990674 
0.5926229755420870 1.387707908716036 0.9127240409784092 -1.257794983953820 -0.5350662900427432 -1.480893338396093 0.3806996871561209 
1.010264282452000 -0.4555906563820320 1.456351431212237 0.1299883433968562 -1.522842452903107 -0.4386057734510476 -0.1795651743249176 
-0.9816875063672792 -1.047943449528246 0.2670940176825888 0.4888616308905354 0.9781660970439822 1.283063247910415 -0.9875540376320067 
-0.3092969772106495 -1.575517966277102 1.964058149308837 -0.1501408136221970 0.2001896442145941 0.3121311174324852 -0.4414231538459726 
1.487190196586780 1.036836896074337 -1.405867936182758 -1.464552629704969 2.528461805085351 -2.049259241039307 -0.1328090908194440 
0.9084164402026804 -3.218702319031859 -0.1222777871377079 -1.336499258038257 1.736345923044990 1.036800892080926 0.9959161088792560 
-1.927359666849940 -0.5534922870487559 -0.5477318509909730 0.7812494475203318 0.1667447493864788 2.534651519994669 -0.4540619120118283 
0.1374438567289414 -0.7707636824755464 -1.906542339924301 1.420469128983694 -0.1138780919889378 -0.5493036324011802 1.782574761077344 
-0.1750606914663186 -0.2323352767877763 -0.5619207633317602 0.1517080153028409 0.6825012095137002 0.4650648808189771 -0.3299573740496669 
0.8408153634343792 0.6718076948219263 1.327368156272058 0.4377260480744697 -1.389548602679701 -0.5317951385992284 -1.356373521323921 
0.9211801280466251 -3.992771430309324 -1.598926655285860 2.453055522120487 -0.5258181343788020 3.154056895246180 -0.4107763254392815 
0.07937179156292440 2.567174977808147 -1.699108432185207 1.209415599458063 -1.640543424718682 -0.6885971221885377 0.1722866102632988 
-0.02954197616803363 0.01717711666905145 -2.989074221128124 -0.09104801824505608 -1.038008039476762 2.779572469529263 1.350922668819673 
0.5083552112937450 -1.985236047302914 2.425504954550738 0.9169727055102146 -1.248469102555023 -1.808790466378717 1.191662744881966 
0.1664253694086768 -0.3681169113890584 -1.189793931847092 1.041251977547370 -1.483020680401655 -0.7276190512668665 2.560873227948628 
-2.661400357342614 0.6296809660120974 -0.4860758736387642 0.9885523274574205 1.260997818000508 0.6195434572612802 -0.3512983377499277 
-0.3780975280109134 -0.7711740816735364 0.2292736394523896 0.2315813463964314 0.005838104317698519 2.358162353643226 -1.675583834125312 
1.473299184521550 -1.423218961249042 0.2587514137656776 -0.1640203677768568 1.922077793706089 -1.839237877744137 -0.2276511852232792 
0.9466589268902593 2.454654140911038 -0.7974435529652467 0.4571176116846202 0.2343834916503455 -2.723576608546236 -0.5717940096247771 
1.912730691043233 -1.646471466450222 -0.4772173840644797 -0.4817851612910495 -1.246065965996754 1.703876646114060 0.2349326406452092 
1.063424131565431 0.01887287113789392 -0.1680378770568014 -0.5285705750378199 -1.560583670732085 1.448518064421418 -0.2736229442980434 
0.4936619734032449 0.3355803803281625 0.7470176041651233 -1.365958470258507 2.018223501685470 -2.403678298878231 0.1751533095547524 
0.6723212120502094 -0.2592783887968382 1.618679866035558 -0.4571926826864901 -0.4463166938720794 -0.6684600471369239 -0.4597532655934403 
-0.03289002027617796 -1.561925779991846 -0.1388006370298461 1.335467414939447 -0.7102089872133449 -0.9231592204141885 2.031517229985949 
0.1405025715998171 -2.275282512448803 -1.372427810230586 1.306136435281410 1.719978739576926 -0.7062693746869136 1.187361950908139 
0.7208666204529774 -0.8953512250457188 -0.2219017592654451 -0.2762972644510457 1.027565187338253 0.5264597436963594 -0.8813413027253770 
-0.7967018958472261 -0.2016665148921987 1.493820317698446 0.1884895037482187 -0.3131113477013149 -0.5023829341977966 0.1315528711918650 
-0.1318918425090963 0.9004512683030041 0.9210716504886555 0.4735027662747990 -0.3613983355069538 -1.910575342105600 0.1088398350551995 
1.670655605387860 -2.715206404320623 2.618178399174588 0.8438213326377894 -0.6322992182904300 -0.1713702717700699 -1.613779442819135 
0.4317410384510635 -0.4022944076097368 0.1672261938103422 -0.8007550242820455 0.1355231812856122 -0.4984484314291684 0.9670074497739429 
1.018473407323107 -1.832545634238599 0.8712519818204835 1.035812188924822 -0.1646616265735469 -0.4153337090116193 -0.5129966082446422 
-0.04080665502266707 1.351055673175774 -0.6858497937577246 -0.3355183017562768 0.3653230711334156 -0.4768371477244041 -0.1773668460481236 
1.518996212452059 -1.986858616977395 0.6812573835909519 -1.578427132036855 0.08859921302554737 0.1194131051525190 1.157019834793188 
0.6293998249367142 -2.573424908953820 1.345098220649185 0.8042925492652494 -0.7950083837045614 1.077695762204756 -0.4880530643975007 
-0.8965732230332254 -0.6245807453627246 2.018713547848671 -0.7812661820744350 1.190575076711307 -0.6892296766144219 -0.2176387974751828 
1.335646360890467 -2.068600272915427 2.469271541290858 0.2652282763660512 -0.4670452226335735 -1.875197078883546 0.3406963958851846 
0.4505749967570907 -1.903682724742053 0.09599631149124950 2.078322566462517 -2.110788802001952 0.3825440387820840 1.007033613251040 
0.5336045619426424 -2.669301801696848 -0.3623026480539949 0.4535923494435935 0.3251549739994788 2.770026749024217 -1.050774184659090 
2.062142206243871 1.967659941627930 -0.8009163236770152 -0.3868073851577916 -1.939582281939150 -1.389087355265573 0.4865911981677089 
1.390512911046354 0.4175850639818488 -1.344146492212400 -1.844522744037847 -0.1789295543564218 -0.8304858453220658 2.389986660900554 
-2.137858664521188 2.801022144701084 -0.2534897894318360 1.944858792290521 -0.7302328583599033 -0.01606583478500041 -1.608233789893647 
-0.7920281680643537 -0.6376934776220596 0.9236492264016218 0.8414880362248582 -0.3871124475016327 -0.05394891496424199 0.1056457455258103 
0.1108133455026995 -0.5273692331892796 1.923948834020110 -0.4939625125202588 1.161957206841687 -0.06271993420849509 -2.112667706446479 
-0.7023541347952333 -2.040575327507271 0.1795284447738448 1.499662476571239 -0.2002087355574876 0.6981420432348499 0.5658052332800612 
0.1775969034079072 -0.5561765124600418 -1.269266947186753 1.546386915088285 0.7472499789824936 -0.3599122495718558 -0.2858780882600377 
0.3497363594294158 0.8462297483352633 -1.420082882068017 2.647829132535611 -1.174657069365504 -0.8478285130594485 -0.4012267758073025 
0.9969030608263090 0.7418180740788649 -1.893547210492701 -1.129759990335799 2.577558264879958 0.1724550552683573 -1.465427254224982 
-1.212509183083101 -1.040773303082742 -0.6498221044911866 1.517412683212863 -0.1161433109329078 0.1526958674639062 1.349139350913155 
1.900685044744682 -1.064677945366505 -0.1039837096539407 1.381302648731879 0.5351234317473400 -0.8833027350496430 -1.765146735153822 
-0.7400331880754360 -1.849243534248332 -0.9414981929350907 1.228155291344574 -1.642879333896988 2.726141830546090 1.219357127265184 
0.8109164473014322 -2.294943804755584 -0.4377172688113593 -0.2887780598910090 0.9090623503508163 2.352249866378426 -1.050789530572701 
-0.6927916148082941 -0.1934517703100426 0.4420866399581678 -0.9279143202558308 0.2586911096801695 -1.291735300299492 2.405115256035307 
-0.9039395124169421 -0.01408063859255804 -0.6965357372890790 1.707678995329494 0.05826492433661448 -1.022718538636241 0.8713305072687194 
-1.593384517354082 6.352821228754185 -1.772918424253056 0.5909304967096239 -0.8779647894491865 -0.6345644539733808 -2.064919540434083 
2.437137390154795 -1.078876999071321 -1.505154622554108 0.2655531094218309 1.865136909829112 -2.398322001564825 0.4145262137845345 
-0.3428086369147035 1.716023587379361 -0.09657438639468590 1.862224543976313 -0.4025788608967539 -1.401862341333880 -1.334423905815634 
-1.166842380859398 -1.379361774960900 0.3205153125341114 -1.170437204714514 -0.5693448208489573 1.168495437738655 2.796975431111008 
-0.3860767860260617 5.141260847706844 -2.316852653506983 -1.864979430877198 -0.9845883481868978 1.769585067351469 -1.358348696461188 
-0.9609015784910762 4.532329758464024 0.4584216159679764 -2.653023417174068 -0.8496988199536688 -1.734406348347638 1.207278789534448 
-0.2239990971506546 -0.2309516226839574 -1.955023889168846 0.3142510171288214 0.1508954375901200 0.2309233705984178 1.713904783686096 
-0.7909322055803352 0.3949341534021718 -0.1932209424101433 1.186574060794135 0.8774080885097063 -0.2130959183726861 -1.261667236342848 
0.8357376405543396 0.005012466532643192 0.7655605261569866 0.1086681008055886 -0.6506814615707850 -0.9255561097059382 -0.1387411627728376 
1.618530419832135 2.702447354919476 -0.4478197297094747 -0.4838952111528803 -2.450129122215190 -0.5611468400663466 -0.3779868716076983 
0.5170791443461685 -1.628033711808543 -1.310308981207907 -2.542529383979155 2.176148157147337 2.609434791661549 0.1782099838405632 
-2.020909129384175 0.5389723676342535 0.7589649246381931 2.906130609370406 -1.797556375651623 -0.1733111509641518 -0.2122912456428842 
