solver_type MCSVM_CS
nr_class 7
label 0 5 6 2 3 4 1
nr_feature 199
bias 0.000000000000000
w
1.960377216712240 1.357212947816631 0.8252372322051862 -0.9011467537499337 -0.9961692184256522 -2.145771884947971 -0.09973953961050762 
0.4326365318778103 -0.1061365631786621 -0.8522898816620063 0.1393378656772386 0.3202264134669317 0.1108430056326533 -0.04461737181396729 
-0.2054505350175771 -0.8763882213113328 0.3913268208482660 0.5862089409286912 0.1475995554398110 0.9272898018929259 -0.9705863627807811 
1.172234574162677 2.574171004156546 0.2442964976769897 -0.2886071706999676 -2.166041466619517 -1.579994172182386 0.04394073350565218 
1.392646800847123 2.075394917563941 -1.452440550217541 -0.9827369894249823 -0.7929741000440088 -0.09870174326825382 -0.1411883354562689 
-3.417256378466515 0.4704089811599013 0.1857953030812870 1.503827726714239 -0.2715583355681548 -0.5027392567069177 2.031521959786171 
1.165404504307346 -0.3623056736878796 1.955396838192009 -0.6012567493582060 -1.345063404137673 -0.8985623990510572 0.08638688373545125 
-1.397723306541504 0.9208022766679769 0.4854253610644552 -0.09156007424182613 -0.2455082852245039 0.9380417425825971 -0.6094777143071949 
0.5694518304205313 0.2836979913140029 -0.2135190594020090 -1.658231024286691 -1.408214753540486 2.172118714983637 0.2546963005110184 
-2.250903587959628 -1.213449343953167 -0.2476599346031706 1.827673121094156 -1.089650260406650 2.640423514244281 0.3335664915841744 
-0.1626231939984880 -0.6640703493415583 -1.182091166073098 1.513235133313002 0.7354254362136987 -0.08604716068630028 -0.1538286994272508 
3.032208343087395 0.4433919495320196 0.03936271094824743 -0.2066541368181147 -1.094095928473558 -1.099050441649282 -1.115162496626716 
1.808982345732275 2.585943244624131 -0.5520102358994108 -0.2466656607546858 -1.323444884338482 -2.146576887925866 -0.1262279214379633 
-1.706024981727741 0.5755402654625441 -0.6551025624260507 0.08265323515774337 0.2816789796965258 1.210109027893095 0.2111460359438897 
-1.158469788770424 -0.2602272306218160 1.013883030064291 -0.2621581344007714 1.106965733239444 0.08002201305926392 -0.5200156225699931 
0.4140938661155552 -0.9055989155797360 -0.3936906194972590 0.3507182112334614 0.9753181762449065 0.2527373861238215 -0.6935781046407418 
-1.958004184098121 -0.4681264840647543 1.406021544636590 0.7391010302680826 -0.09469660890117941 0.8761790076345260 -0.5004743054751404 
-0.4581918979656522 0.6991529320969465 -1.562102255628122 1.617676604139231 -0.4087083390983220 -0.9397763418928036 1.051949298348724 
-0.5383478618286265 -2.358151390498267 1.665422493272365 1.281782548837729 -0.2304274749190705 -1.855200506618609 2.034922191754483 
1.982083503987581 -0.01671483963259256 -1.047025282887844 0.8766455330457598 -1.151126275627686 -0.3962104927714221 -0.2476521461137922 
-2.405589402287047 1.299861456340510 0.5369825039065301 -0.4301549049661279 0.5806056306880345 0.6798260318283356 -0.2615313155102372 
0.7008831311772991 1.158909640521877 -1.175226969949700 -1.089490290468824 0.3356162459719205 -0.6612852931210002 0.7305935358684373 
-0.9273835391049773 -0.7108462937454517 0.2626433858930733 0.2865858256296596 -0.5820527734445883 0.6087899400120385 1.062263454760254 
1.484459858053532 -0.2374384202565346 0.1154202519737768 0.05376511562064858 -0.8729442244683242 -0.3232357111158637 -0.2200268698072374 
1.316715293629056 1.192547405624762 0.9088086627136227 0.3793213156367892 -1.710272921965854 -0.08564371387097630 -2.001476041767409 
-1.521354996191628 1.682611135094662 0.6992289215292892 0.9332334756042104 0.7381302768413243 -1.724055543758919 -0.8077932691189355 
0.1212823766135939 0.7823859726536154 0.1050867937342699 -1.468794866266123 -1.498507052256858 0.6900568786092564 1.268489896912245 
0.3350404986631447 -1.795980767950892 -0.1485886219472863 -0.7420978388642726 1.303983793060450 0.1120360389614583 0.9356068980773886 
-0.1166105055982986 1.015232729493546 -0.4813281468526282 -0.2371939901413597 1.043771662475373 0.002025146913000098 -1.225896896289642 
-0.2356247685779956 -0.5397182245182499 0.2201607035554437 -0.3801471451490442 1.464170482928367 -0.5811038162398154 0.05226276800129263 
1.417352726830045 -1.090147160490671 1.453581380645978 0.03678382751519680 -1.046876230097492 0.9653170361642516 -1.736011580567312 
-3.160809211684690 0.5828039135360803 0.1384367725333365 0.6921612826263271 0.5404259212622542 1.220875115936182 -0.01389379420949545 
0.5011914090168954 0.9744329397915173 -1.738110682640452 -0.9595891149889636 1.092358394487179 -0.2591892618345046 0.3889063161683344 
0.3094676232532143 -0.03914085559909770 -0.5279177859738251 1.313295477821589 -0.5330789235653164 1.104052909174084 -1.626678445110654 
2.959531465226404 -1.106608463477823 -1.096894008100195 -0.6310932853200406 -0.8676812266948766 1.060833134311310 -0.3180876159447741 
1.531716489715713 0.9613544284936308 -1.163032330721618 -1.018012091695422 0.7103611477875020 0.2861058565300927 -1.308493500109905 
-0.7392921035687644 -0.2232122560642894 -0.1572425199688880 -1.394193526632951 0.3555112083844884 1.333418136735877 0.8250110611145234 
-0.7504897756161628 0.3686099369530629 1.142245139515205 -0.1094968559987478 -0.6784161645896427 0.9938614421638969 -0.9663137224276018 
3.591352679309773 0.5775525830679169 -2.027456400666808 0.05047242609026972 -1.183863140489899 -0.7979863937993845 -0.2100717535118765 
0.5922982164949400 -0.02380242362787098 -0.4361702892998672 -2.115621500350544 0.3787493529575445 1.505388919838099 0.09915772398770203 
-1.260645963033021 0.8505124978505451 0.8098959671737666 1.536076659198099 -1.415573658161081 -0.6720915347038884 0.1518260316755847 
-0.7086203343393078 1.917477675132911 1.124560171505798 -0.8025067332843164 -0.9340516195739155 0.1106189590366259 -0.7074781184777947 
0.5358225159858256 0.7130527183564779 -1.315227150835717 0.08393429432559010 0.5649723665953812 -0.9829338976632507 0.4003791532356937 
-1.712042594718397 1.200018242963782 -0.1341475783143550 -0.1369922409625435 -0.03436569336551248 -0.2100299656081663 1.027559830005197 
-1.529452236027120 -0.6020140124308938 1.192003224909218 0.6144444164703001 -0.4541446284469087 1.161560989343718 -0.3823977538183137 
-1.586753484021977 -1.924735834706005 0.8822544493958808 1.756156222501211 -0.1043906835781825 0.009977386164240688 0.9674919442448309 
-2.920178089759115 2.721777264676804 -0.2857493571784103 -0.8324080347572708 -0.08662272483349882 0.9196969091436751 0.4834840327078007 
0.1439439985668367 1.014167725349563 -0.9509012006043500 0.5200132749979367 -0.2053430006382985 -0.2489565319053136 -0.2729242657663722 
-1.111738168712072 0.8080108492372890 -0.3644665708047124 -2.287506528246198 1.085941279162202 2.225436251477163 -0.3556771121136885 
-0.2025678347550644 -0.5756608192200706 -0.4923843587307007 0.5085232449422383 1.492963662701204 -0.5331053026637969 -0.1977685922738064 
-2.040488379155755 1.853184800046642 0.4390113268067217 -1.454981224548499 0.4650942172518761 1.271949483706697 -0.5337702241076911 
2.049294629901550 2.477560510725844 -1.689793565704042 -1.455581941362764 0.4759477398938533 -1.568217956619519 -0.2892094168349458 
0.7710975019477884 0.9653281032540180 -0.8903465345772601 0.1270025403111436 -0.4301879160038933 0.1717107819900665 -0.7146044769218625 
-0.3435366641726795 0.4433430484455773 -0.1158025754188101 -0.2131185351477062 -2.454119918154493 1.648151095051886 1.035083549396219 
-0.3180058604307721 -1.387263661113947 0.5670411156858510 -1.642676189520602 1.856863487350965 1.181302393061429 -0.2572612850329192 
-1.313537240482984 0.7701452174525554 -0.9829035974335846 0.2569057955550552 0.6912928205696188 0.3495372291032083 0.2285597752361289 
1.836656574427018 -2.198187996335927 -0.04757864082052688 -0.1826902162086821 0.7307786373793116 0.3866284606727287 -0.5256068191139407 
-0.3704215310307010 -1.265840802775099 -0.5267932214690477 -0.06585200489790000 2.653148874729590 0.7210590772421516 -1.145300391799006 
-0.4290059666976518 0.05115744892341957 -0.7095585176448695 0.9632438937471658 -0.5008813551535035 0.8958936860148352 -0.2708491891893942 
-0.8042174991241067 0.9938497972399831 0.6044974228197342 -0.2415961261962127 1.550550354265087 -1.416028662958408 -0.6870552860460771 
-0.2898400896903259 1.189326916308545 0.2848093391335017 0.1477460398014271 -0.1209781024981685 -0.2084436284972774 -1.002620474557701 
-1.039649084396998 0.3981412253665349 -0.3452440332659551 1.502107321926328 -0.3251601698536946 -0.8768286451885660 0.6866333854123505 
1.867254514276115 -0.7024029164299169 -1.717563615868674 -0.3971731505446235 1.553563656960218 -0.5360347832434685 -0.06764370514964914 
-1.133876870671609 0.9916290458439011 0.3924728249576233 0.4452077718853912 -1.157181226709993 0.004829310609562683 0.4569191440851262 
1.015039149409501 0.6693941734392330 -1.097378564463706 -0.8320256374187899 1.973431785865992 -1.336798841378643 -0.3916620654535666 
-0.3656101395655996 2.321744414422955 -2.030128453722039 -0.6676690890173830 0.1668476350581717 0.02848163302032188 0.5463339998035646 
-1.068537825963728 1.618390495656980 -0.2684484576375014 -0.4323046616411286 -0.08664798453644876 0.5363920983709416 -0.2988436642491185 
0.09854230814119985 -0.1724907862947774 -0.6022121424564152 2.125673503099545 -0.7869877332542369 -0.2758777493593236 -0.3866473998760047 
1.192999621829690 -1.262881808567900 1.141245485612772 -1.141735078394013 -0.5294916435620723 0.3745075093535946 0.2253559137279210 
0.7825230708144695 0.06220036880159135 0.9070818056555939 -1.965907860627476 0.05683844482441235 -0.6939020711312354 0.8511662416626454 
0.4539390985264270 1.669224106504028 0.8468750801193562 -1.608612547457163 0.6334042328927509 -1.133921911310370 -0.8609080592750284 
1.629654291983672 -0.07877315198852972 -0.5106807336596008 -0.5038782500240433 0.1037271733696618 -0.1951321840930942 -0.4449171455880687 
-1.564645797791463 0.009931349604748570 -0.2301177326195435 -0.3013082147465523 1.297886968855642 1.939029430691092 -1.150776003993910 
-0.7671426500866851 -0.3953959213337727 -0.3575353696112261 0.07197536739101697 0.9462849297696077 -0.4411975413945840 0.9430111852656401 
1.475521848465520 -0.2351667429427967 -0.7639078597620382 -1.545392831097415 -0.2108252267584075 1.063851669159025 0.2159191429361130 
-5.030162393749165 2.103111954883445 -0.1972571729351797 0.01339778123607840 1.976269314479096 0.9818573660738706 0.1527831500118695 
0.6692972329792722 -1.231102859778479 -0.4844421864202360 0.8175927739996287 1.041039315706481 -1.048446054015011 0.2360617775283500 
0.5002074730618745 0.4599108360026757 0.7864016463880693 0.5076635146576816 -0.6983049807323722 -0.1406728655528317 -1.415205623825097 
0.09759537750084403 0.8030518253444191 1.141064413081858 -0.06471000681414518 -1.602784142734200 -0.6449899073643234 0.2707724409855503 
-0.4446144703079132 -0.8987653499663993 -0.1659020841831824 0.009506318652225324 -0.1189906557087653 1.013444096223740 0.6053221452902950 
1.714088455362490 0.8765209573038998 -0.6860553062038218 0.03227369104167722 -1.647725136728684 -0.7457036824694699 0.4566010216939129 
-3.948914598398071 0.07459984756570896 0.5753918614281511 0.6067979020974882 2.909196296475188 -0.01728962073892936 -0.1997816884295450 
0.1091102473694135 1.108100030002654 -2.827070347404567 0.09363898706662074 0.06223556953444108 1.670791815844693 -0.2168063024132625 
-1.362792168232015 0.4852372585727159 0.1104953436598162 -0.2415702257729383 0.2286541506936962 0.3237899072043093 0.4561857338744129 
0.1846951397868323 1.094396210920807 -0.5507575936171192 0.3601846331752014 -0.5100789156371491 -0.9043000261882276 0.3258605515596578 
-1.861946297786582 0.4755199422952072 0.1309042780214260 0.1340408822038373 0.8245875042295620 0.4582666800797567 -0.1613729890432032 
1.337995756479406 1.959857837020615 0.6529001580207886 0.3653555361055056 -2.563289108113995 -0.6792258158356326 -1.073594363676697 
-1.179172034274034 1.671869205306801 -0.3070850509550674 0.2836555085585276 -0.7118626687019259 0.4556964363645696 -0.2131013962988705 
-0.4495140705684657 -0.6545035575993060 0.5505527992095256 -1.008045122934125 -0.8387624218733990 0.3578002746608702 2.042472099104900 
1.338395667444449 -0.8511618906560120 -0.4625078633150365 1.300411883695211 0.1203130438163386 0.1238084723718368 -1.569259313356789 
-1.096946615958744 0.6052406575339250 0.3998064291897645 0.9219167978865448 0.3644710591898281 -0.4873736827883405 -0.7071146450529844 
1.855326517849003 0.2930391991090447 0.7439117242439487 -1.501145515089169 -0.5356274596847433 -0.5463415168584516 -0.3091629495696359 
1.101110052220837 0.5558219767976195 -0.6295246528581028 0.8511339677223436 -1.950397211271880 0.7417864386572140 -0.6699305712680296 
-3.730358777840425 1.236619280963609 -1.619406383824998 2.771936899843958 -0.2910936728190175 -0.4058691429804736 2.038171796657347 
-0.1030806502133168 -0.5589693928389410 -1.485438236014522 -0.7425051533681659 0.4025057040774426 1.322332816792734 1.165154911564776 
0.2476279188296191 0.3829236798457092 -1.331528028323596 -0.1038852553282131 -0.6110657223032950 0.1993603877663292 1.216567019513443 
1.024675504329691 0.4046279053783643 -0.6270360686802599 1.167091619278658 -0.7314627537201319 -0.3346946904743217 -0.9032015161120021 
0.2306913754666196 1.638074916499733 0.4309096313966792 -0.7713851780240437 -0.5864070833604309 -0.4214358466490891 -0.5204478153294709 
-0.03737342733270944 1.310088903368209 -0.05488597313023023 -1.689336803166123 1.130653076433349 0.1254536933624271 -0.7845994695349204 
-1.021431451479562 0.9481911380708550 1.471851538265494 0.6926006458537375 -1.409485525579977 0.06601531610265209 -0.7477416612332065 
0.9368843427831944 -1.042945891870080 -1.492853291025472 0.6610264615657927 0.6207210512727471 0.1097101984280087 0.2074571288458075 
1.571353577809582 -1.644233018895561 -1.335350284966513 0.09271134797587267 0.9463079133791000 -0.1344201906360221 0.5036306553335411 
0.4980350794597007 -0.9437362154452539 0.2624948432504969 -1.254452859507398 1.814335503700060 -0.9173545496114420 0.5406781981538464 
0.2750396265340743 -0.04110236720827711 -0.9520818420832124 1.164014601770731 1.760737227360069 -1.090464676445842 -1.116142569927551 
-0.7039570546035998 -2.323149330588503 -1.683469523619629 1.550197352135213 0.7018769628701068 1.449633149647161 1.008868444159271 
-2.028351708085931 1.119755729797136 -1.195087341527198 1.022716241270076 -0.1135735939537337 0.2386938707464906 0.9558468017531514 
-1.908951696530399 -0.5526292013715838 0.9165951101629654 -0.01898646043988387 0.3944402115219422 0.6734028824294878 0.4961291542274735 
0.4434269333989514 -0.7828034256616531 1.726475141008705 -1.737276541481139 0.5441266311619486 0.2839629758544823 -0.4779117142812884 
-0.4517751845098835 0.7682724648547603 0.2353903454619948 0.06482905137465071 -1.061041740420663 0.1204007924893891 0.3239242707497496 
0.1654873768717153 1.148949214328338 -0.09862423223817973 -0.6712806366736408 -1.118356475017823 1.441904881024873 -0.8680801282952834 
-1.018049030751487 -0.3465133005800049 -0.6066527678338187 0.5140032738937390 -0.7036725343890585 0.9465145216642260 1.214369837996408 
1.805835243453453 -2.822679442487399 -0.4555343592383754 0.02506951576836428 1.722741706315799 0.1787377052075143 -0.4541703690193624 
0.5812573458317007 -1.126162078709063 -1.216451786267426 0.9802301326467440 -0.1981210204026685 0.03164106643103856 0.9476063404696712 
-1.797436767849268 -1.235860746185002 0.3646880507759879 1.839955380412971 -0.3081091168835867 0.6349522995468156 0.5018109001820907 
-2.386772324044586 1.406108663107480 -0.1511350480187744 -0.2813957678137767 2.725487226458490 -0.2824753109134947 -1.029817438775344 
-1.191490144108933 1.706006836997371 -0.2783982362324433 -0.7635522785695239 -0.7725830974675271 0.8419416389528860 0.4580752804281733 
1.529825505450885 -0.3211135151968229 1.842033649725955 -1.596193069282800 -1.267778575015802 -0.3144715814293992 0.1276975857479875 
1.642912833032668 -0.6621411897474252 -0.1177748184585171 0.3586260512481158 -0.7595281704189670 0.7137342153286783 -1.175828920984547 
-0.7836074651848700 0.2312425831401410 -1.355605093231384 0.7488017348806923 0.9281698092616579 -0.2290728805199125 0.4600713116536810 
-0.6053018119988950 1.036011824273999 -0.8973365120597007 1.779109337774921 -1.406716286393481 -0.9341351458620731 1.028368594265201 
0.8912711511222590 -0.5948093762044775 1.172227665384027 -0.2594704739813722 -0.9356864559242298 -0.2453532839074109 -0.02817922648879787 
1.233887817928204 1.312688637970884 -0.8691454264927346 -0.5716453451988227 -1.358797777583295 2.049713858725923 -1.796701765350157 
0.3472123043239409 1.915380487342249 -1.023066908406210 0.1240114759640873 -1.407269475092297 0.5765819610084488 -0.5328498451402225 
-3.672086088261712 3.059169716295421 0.1909184051086644 0.05604673506744488 0.1502509086312934 0.03162381178652469 0.1840765113723512 
1.847016944137250 -1.628093510744138 -0.7924737346693260 -0.2687610496013510 0.3756906638282473 0.3169987350163074 0.1496219520330132 
1.083560053966873 -2.443566050788654 -0.3121983697508491 0.4235134307017296 0.9510293004129869 0.6834592655562798 -0.3857976300983578 
3.141838605657149 -0.5181661926248792 -0.7630619843672700 0.4221879598933926 -1.155959526237721 -1.275370295625228 0.1485314333045652 
1.131791961367498 0.5118004722380158 -1.014822433197548 0.1289707473528566 -0.07802791305386478 -0.2808555959882571 -0.3988572387186995 
1.883399417718017 1.392883517766354 -0.6461580496584880 -2.224287494497696 -1.409086489188518 -0.6834326985640323 1.686681796424363 
-0.4496226275944755 -1.883802140164325 0.6786122980938645 0.09212882457364195 -0.2885910365189355 0.8322366151530655 1.019038066457171 
0.4485038642826473 -0.08764027249437100 -0.7379307265598050 -0.1821072958120260 -0.04804882018597202 1.217305990261547 -0.6100827394920243 
-1.208317069290787 1.116341006047203 -0.5790780750454815 0.4205054469298969 0.008620337840626244 -0.3979041008938108 0.6398324544123468 
3.615323150907878 -0.7420230017515447 -0.6332706878561660 -0.6159890686940805 -1.353511016932829 0.3276358664718012 -0.5981652421450551 
2.215698490120658 -0.4671007618590852 -0.2696501222732555 0.4233746828134222 -0.09764294068074394 -0.6832418386885769 -1.121437509432398 
1.553605895765288 -0.4653331418788387 -0.6107521291203951 0.04943245253205374 -0.4376425842630300 -0.09671164398544042 0.007401150950365484 
1.881959916164560 -1.176288798369434 0.6720313399299273 -0.3162473668339169 -1.839958000674570 1.170404121968767 -0.3919012121853341 
-2.047277739157759 0.9157696627641030 -0.2176973672966688 0.5658972228463683 -0.4165198171883259 1.066715614678591 0.1331124233536976 
-1.027130691566083 -0.2291536619423235 0.6352885667890913 0.1033807670649093 1.009056496985542 -0.5960117487371244 0.1045702714059923 
-0.7108569232482073 -0.5047597535731928 0.1595551310726436 -0.1509366564065403 0.4013705913000480 1.404790808070779 -0.5991631972155340 
0.6170856405611421 -1.327953155707433 1.267974945033829 0.7746739976299193 -1.511208140963690 -0.3333569332210024 0.5127836466672292 
-1.990356892663656 -1.004849824380070 0.9208821244026915 0.1674774474674236 1.570668339491562 -0.3306018956514348 0.6667807013334858 
-1.284717567965058 0.06225005480408836 0.4813829051167615 -0.7695761427357989 1.797073654700447 0.3322716544007954 -0.6186845583212324 
0.4340098451419868 1.136025152389354 -0.4179047902557216 -0.1091384666881264 -1.869601607649846 -0.5132112286870119 1.339821095749376 
0.6863111112373055 0.2885880801027410 -0.006763567336446162 0.5062112961745822 -0.1330054082793940 -0.8480284595845494 -0.4933130523142380 
1.558841835980818 1.213068395076428 -0.9092699145695441 -0.3339628534073339 -1.387344530870871 0.5394387573670739 -0.6807716895765790 
-3.020995695213073 3.191551340990944 -0.3986503371772265 0.2846752889711261 2.272271563948565 -1.343623877437463 -0.9852282840828781 
1.901174645297762 0.3889581490069116 -0.4599057745430318 0.6166665551392120 -0.9567775915493153 -1.233993384783926 -0.2561225985676074 
-0.7466743982294680 0.7027937838430753 -0.6650679174689906 -0.7538092827276783 2.511577411556207 -1.651808897307366 0.6029893003342185 
-3.380526246750796 0.9567651696067607 -0.1300301451830155 1.399782472044145 -0.3372139220903130 0.5128869260471463 0.9783357463260702 
0.03250193300317284 1.320211349255466 -0.5711607516139312 -0.4974096165340872 -0.6644492678296597 -0.8235106028627120 1.203816956581755 
0.1686401900004754 0.3357859399020833 0.3525932286671699 -1.260767595212596 0.2427866402818381 0.04069133398890045 0.1202702623721210 
-0.9551732340238950 1.098163635504268 0.4513574240976722 -0.5064069682122926 1.313281699132729 0.09446992624877010 -1.495692482747259 
-2.206528859354074 0.4914067232476536 2.337599197575390 1.633289000171802 -1.241805387626663 0.1867262106092160 -1.200686884623335 
0.4215543259493263 0.4990980743159974 0.4207039513676439 1.299945438095252 -1.659981009581400 -0.3822123280163224 -0.5991084521304983 
-1.699713466371460 -0.09574799912682064 -1.522554634625605 1.600905877025096 1.225900953905457 0.4028740371163473 0.08833523207699295 
0.8193625852654978 -0.9559461439354671 -1.254712882311518 0.6898192929429101 1.501003952752511 -0.4720891277767658 -0.3274376769371786 
1.755480578425928 -1.299940771092275 0.6150024370518734 0.9176189025800959 -1.835960229891220 -0.5089190811306976 0.3567181640562994 
-0.09142744091477080 -0.5428991100192939 -0.3865469685192621 0.5299836646093967 -0.9119272503423370 1.381980743012858 0.02083636217341951 
-0.8445488509140952 1.025029363297483 -0.7643676005274695 -0.07344204939073323 -1.432573194562182 0.1740500763667471 1.915852255730266 
-2.474683132042486 1.312788655026918 1.532956403256607 -0.3401748188200534 -0.8234305845894264 -0.2900835221205278 1.082626999288973 
-0.5685478138474804 -0.03415925952238891 1.415512595002709 -0.02424457976123448 0.6542563803882769 -0.6913021920052131 -0.7515151302546721 
-0.3078716861002033 0.2367909651859242 0.5329370635482157 -0.7282073393371009 -1.001788724331595 1.130058748323495 0.1380809727112627 
0.8472246510989678 1.181650319382426 -0.8238052520776452 -1.075981184370517 -1.130778376757089 0.3543881848383026 0.6473016578855462 
-2.038483599216273 1.330284711240083 -0.08156669044705471 1.421826109309441 -0.6145101715810132 1.377381468385537 -1.394931827690715 
0.6301380579516977 -1.198923620585019 -0.1684601470386506 0.06856716147398127 -0.7915274311814031 0.7026574016571052 0.7575485777222900 
0.1960498651167459 0.8028936345639565 0.01714731546501489 0.8597197897494073 -1.813590598158696 1.132958165846868 -1.195178172583292 
1.177518922602383 -0.6274874361758632 0.04070383578840937 0.2196226932847872 0.3302061939234836 -0.4377476597362432 -0.7028165496869531 
-0.7278895012267949 -0.5774584666952441 -0.5509962168089972 0.9815894563273044 -0.5315316632155059 0.8335320961705288 0.5727542954487063 
-2.599738307372294 1.392413528448233 -0.1896590447890199 0.8754224291219228 0.6042097789340473 0.1169513571066791 -0.1995997414495737 
-0.9941567883224874 0.1011891574614713 1.262299999756160 0.4117789775512947 -0.8586557238777807 0.7182457991039116 -0.6407014216725704 
-0.1322965873051521 -0.7163343489344727 -0.4666375591980920 0.9543083937637082 -2.041299884264291 2.080615640823444 0.3216443451148598 
-1.251146819704280 1.779632153086242 -1.428910618541130 0.02809432817470519 0.6096754751224020 -0.4771983383075049 0.7398538201695597 
-1.553909076147739 1.082979240368316 -0.2481306090080113 0.5251106910526685 1.160175586553240 -0.2369107124296017 -0.7293151203888778 
0.7866275421101971 -0.1048342470564556 -0.6388783770150331 1.075993583557569 -1.489087690074116 0.3180929203308810 0.05208626814696446 
-0.8326277858603767 -2.129531543204342 1.345503080318425 1.067865616273899 -0.1826689255913094 -0.9821610142202577 1.713620572283966 
2.615273748763862 0.7837269780754752 0.2683377484409198 -1.392809253413289 -0.6671301066627449 0.01695814721142974 -1.624357262415658 
-1.097544449634240 0.1911896152551206 -0.03725828303040780 -0.4656979841397314 0.4364783046459199 0.9941399063481876 -0.02130710944485686 
-0.9989672694368938 0.1595056326661574 1.328109137375666 0.5326206037936660 0.1920198444532174 0.7350719047046317 -1.948359853556451 
-1.391780998736051 2.366802482848169 -0.1851398415716741 -1.261804559991507 0.3655752030827077 -0.004585788470747846 0.1109335028391096 
-1.727302437707876 1.061158107211404 0.8781132811147797 1.204071572028985 -0.2644198806716077 -1.225147504148892 0.07352686217320233 
0.09465432984785073 2.254266035671925 -0.5476998136816190 0.05421008247584324 -0.3974886153548835 -0.9373088069516217 -0.5206332120074999 
-0.1396517098094860 -0.3492554671627245 2.131622708207655 0.9265882011543892 -0.8650457320606595 -0.5458344047853510 -1.158423595543816 
-0.4964961470338806 1.225950838529245 0.02761622725802416 -0.7515584756622213 -0.04818703196835687 -1.225499772376717 1.268174361253916 
-1.143208897427043 0.1751289518963941 0.4292725842623972 1.359176403711970 0.3376600181135377 -0.03588493395642459 -1.122144126600835 
-1.345075751575660 0.9028644261505426 -0.2645440601924097 -0.9187538579776325 1.445826338423859 -0.1501592506214497 0.3298421557927584 
-1.738840421645768 0.04677669967382982 0.2205403792485105 0.3515326655186204 0.9538900069170008 0.5261171498308946 -0.3600164795430978 
0.8125118418269909 -0.8596633809694594 -0.4627597247447436 -0.5273244049211127 -0.9818429959455361 0.07429875768688916 1.944779907066970 
1.208668891369171 1.500311892489299 -0.2729046815679575 -1.611491186935227 -1.444859132511392 -0.1494221600760272 0.7696963772321217 
4.870957326897984 0.09775279434383226 -0.7373723662660784 -1.540805386874502 0.09972789101527697 -1.095412993741203 -1.694847265375318 
-0.7820081576394539 -0.4296022430974705 1.205628243759052 2.190071639987013 -1.648984677119059 -0.6841092262435728 0.1490044203534865 
1.516079230585736 0.9014821807099090 -0.3692812299272443 -0.06147827626185219 -0.8849793798009274 -0.1852356066655397 -0.9165869186400754 
-0.8213718057799219 -1.508928947398797 0.3345417661083434 -1.154022104661501 0.09230221197106135 0.7079257005998353 2.349553179160976 
3.657159405450574 -2.394291002319626 -0.1315758959336448 -0.5505922819852996 1.524874637825584 -1.321609475001160 -0.7839653880364206 
3.264430870110114 -2.813382618036769 -0.7637867563304533 -0.9534419847433253 -0.01486410270052097 0.5087641634086231 0.7722804282923142 
0.7069487569632544 -0.2096110059580094 1.039734246690812 -0.6307784945806107 -0.1084298062328173 -1.144686692340583 0.3468229954579494 
-0.02295565966617061 1.382226137086732 1.764484929936685 -1.225700080047049 -0.6210694922254398 -0.4627644571096528 -0.8142213779751140 
-0.3025212114703342 0.8347783374409807 -0.1689944960369941 0.8716801315565104 -1.436249775613349 0.3319217232628637 -0.1306147091396779 
2.641221715620372 -0.7163731571348725 -2.209163718428324 1.107361165945466 -0.6387177714576933 -0.1209385387427041 -0.06338969580224858 
-1.606474612430296 -2.191350717873775 2.387454037180901 -0.2736788391071388 2.585690703041585 -0.9896964713582431 0.08805590054696649 
0.1466907408109040 2.490031173346857 -1.455988148997161 -1.292402074030685 0.006651739458612480 0.5435852234606051 -0.4385686540491186 
