solver_type MCSVM_CS
nr_class 7
label 2 0 5 6 4 3 1
nr_feature 199
bias 0.000000000000000
w
-0.9649701794297953 0.9785158489760711 1.549743632318607 1.382402639556295 -1.776167608496420 -1.177795279141885 0.008270946217137570 
0.2777090102971574 1.050400725145940 -0.007744710193618613 -0.7230075345691100 -0.4997710105600453 -0.3809991446215404 0.2834126645012055 
0.4802613299008287 -0.1546056861854095 -0.4376771252277874 0.03674352052048913 0.9981461207070528 -0.2013245134818840 -0.7215436462332954 
-0.5451078007201307 1.920791097838325 2.951590950486780 -0.5259689199494082 -1.942243575534233 -2.382075237216998 0.5230134850956616 
-0.5893032695619884 2.055959379128311 2.046857108500435 -1.881497323116824 -0.4404647211947833 -0.9419464907938321 -0.2496046829613342 
1.344556450040783 -3.975589777477843 0.6833673549956258 0.3730935082619008 0.3818985785322831 -0.4413569062539219 1.634030791901186 
-0.3868082543741800 0.01360193257468896 -0.3426703983412134 3.080626371438263 -0.9743243780442776 -1.372529833499886 -0.01789543975338246 
-0.5562044010783420 -0.2806711839283772 1.338300418929681 -0.09033349444043026 0.1414230307344737 0.2080267860716792 -0.7605411562886806 
-1.558001539016011 0.03634642068860673 -0.07233369321869425 -0.2397436510494506 3.121298427482228 -1.382779230166712 0.09521326528004077 
2.100917685818814 -3.333993956378109 -1.733403628862371 -0.2718992341245605 2.929720573625508 -0.7246465859454783 1.033305145866212 
1.517061956159193 0.3925861507693941 -1.060879075162975 -1.123804789205830 -0.1348919989028437 0.4174975356394654 -0.007569779296412631 
-0.2883572901096276 3.552077944069257 0.6024659880506734 -0.2991636142866428 -1.295769771953032 -1.124223132829543 -1.147030122941089 
0.3333261654002713 0.7984496044110111 2.562800988285195 -1.271172159981109 -1.754512859261522 -1.452218801887373 0.7833270630335151 
0.08165888528729752 -2.257088109872079 0.02821078543682596 -0.5682936941420337 1.355292785110349 0.7837672308190626 0.5764521173605761 
0.06828707438593923 -1.032757918571880 -0.6767913123608141 0.6845010846380216 -0.1354856129095811 1.713242247219412 -0.6209955624010951 
-0.03078040078531845 0.4435073765584581 -1.121454236048147 0.05454237968492611 0.4616034076669389 1.137675842503011 -0.9450943695798770 
1.189019871444417 -0.6599974338644103 -0.8944922020789490 1.389911974122010 -0.007698311331452135 -0.9620113040854437 -0.05473259420616684 
1.882200375582693 0.1648660681147691 0.4671731875053521 -2.143084470477370 -1.006177631423055 -0.3434803674143335 0.9785028381119575 
0.9392089484960918 -0.7865804048147504 -2.306124960781578 2.408310088659390 -1.747900715952035 -0.6087867955060845 2.101873839898956 
1.820795064516932 1.281170102841041 -0.1210587824983592 -1.277512889971160 -0.4586482248004442 -0.8310595779362674 -0.4136856921517402 
0.05649900855452726 -2.003798668655529 1.230051724857945 0.8051909625479670 0.6834045924360236 -0.2721397064216415 -0.4992079133192954 
-0.7336325493699251 -0.7144034901788850 2.005722083288908 -1.618213415497819 -1.126029549846652 1.080062796078800 1.106494125525573 
-0.8773053152318070 0.4330587333688863 -0.3685834021206717 -0.2408935271706928 0.6606485888240742 -0.7987202198082468 1.191795142138463 
0.2139833711713450 1.161762208615471 -0.01033369794409242 0.1366989275814535 -0.08525918750720000 -0.5720252732019134 -0.8448263487150635 
0.5802693961516210 2.983946878455012 1.083590374652356 0.6415505683581969 -0.6212548690007552 -2.782513132427390 -1.885589216189062 
1.521132929474060 -2.618304725495617 1.394796480305030 0.3336285851076248 -1.740624779515755 1.378854982614255 -0.2694834724895931 
-1.851447412627238 -1.155376326693159 0.7076856512566433 -0.2554503625664573 0.9643735122672449 -0.5862559129326667 2.176470851295651 
-1.093090294100329 0.5846101064851625 -1.792791966416628 -0.9938642813954811 0.5689442497744520 1.747912525923102 0.9782796597297285 
-0.2271122400955836 -1.185498134260446 1.193321471867986 -0.7468419237854322 0.4751645112988388 1.983544188545016 -1.492577873570377 
-0.9816242038856682 -0.1552041823029860 -0.4941119654363899 0.9621553874948213 -0.7535927884490293 1.579471877452419 -0.1570941248731594 
0.2037324513121230 2.006406906310938 -0.6683221446044575 1.400640780591186 0.8550624513987078 -1.432588996644533 -2.364931448363990 
0.6648880181291155 -3.166491683362778 0.6408005558959462 -0.1140961144318881 1.380296942616694 0.3890069079240686 0.2055953732288179 
-0.2213282442860311 0.09864537823155328 1.160959306472935 -2.092509057812787 -0.6102123259112519 0.6064177897540760 1.058027153551513 
1.600921071467835 0.8488662181337473 -0.5123403172251805 -0.2931716553053660 0.7457708960932088 -0.7525445964278462 -1.637501616736413 
-1.068649986398060 3.474597290341605 -1.187081525648775 -2.334547092951728 0.7013476455755560 0.1881770579418885 0.2261566111395165 
-0.5737503445945716 1.038176474928057 1.264931045188098 -1.850397641030356 0.5169147854878792 0.3255713617673180 -0.7214456817464182 
-1.553837862116101 1.002776631357407 -0.3674718630603284 -0.7858204551726026 1.050494761239051 0.01153192081992333 0.6423268669326425 
-1.321897061238690 -0.3005735880380553 0.9257011635437659 0.3986763527868087 1.843897313772761 -0.4530663187818549 -1.092737862044729 
0.3347826163406288 2.879025868680926 0.6018313205560767 -1.334705613488163 -0.9808815325433747 -1.432509912257646 -0.06754274728842749 
-2.517274557027188 1.342640038972080 -0.1247571151636832 -0.4584859048105372 1.990724514005547 0.1793396415157535 -0.4121866174919699 
1.731977862289584 -1.612013221253407 0.9074470331055478 0.8299542094057566 -0.6500108077665645 -1.403023122842445 0.1956680470615344 
-1.589335704181199 0.3517914209873239 2.157431442324291 1.072030730637492 -0.08895870553777442 -0.9064162151817161 -0.9965429690484223 
0.04926827414130936 0.09497899172011288 0.6665433831920377 -0.9777424768045919 -1.343428590457174 0.5256910543101827 0.9846893638981274 
0.5711935771525471 -1.838893442055882 0.4916182486067462 -0.4564368065591500 -0.6253458209506071 0.3294772187681500 1.528387025038198 
0.9117953592766017 -1.316985980658771 -0.9548437257184335 1.367682592752483 0.8316620246927672 -0.3881255154687215 -0.4511847548759311 
2.012857600877541 -1.357419436085245 -2.328017726507304 0.6893427706274979 0.8986291884544483 -0.6784354061648717 0.7630430087979540 
-0.8906695086846830 -2.975115084065084 3.051898501533967 -0.7171836760499241 0.9990854771812729 -0.2167589313552893 0.7487432214397268 
0.8155582381126204 0.1912688758745575 0.9082129957173221 -1.788869971586524 -0.2754752679990792 0.1559144960746873 -0.006609366193576658 
-2.996338746202320 0.4893221813405583 0.9018682031022651 -1.204207511280171 2.553111676689627 0.2986151936784085 -0.04237099732834359 
0.4273477955840379 -0.2729700732575349 -0.9611787558071625 -0.1687523515123535 -0.8337235294882042 1.547693012523910 0.2615839019573078 
-1.468336607976429 -1.804284294157737 1.736472799484288 0.1096956169621993 1.732646828324966 0.6270746182286406 -0.9332689608659344 
-1.296905813401124 1.842594381967908 2.605146833873705 -1.745527470403954 -1.247632956343037 0.2176017668501054 -0.3752767425435977 
0.4604747008083253 -0.7399881142578837 1.177480683053590 -1.458549994263939 0.5837396935356409 0.7504814604134016 -0.7736384292891392 
-0.8935361599143437 0.6037230465470796 0.4833791815653433 -0.3204590483726175 1.592167483420498 -2.506910744136235 1.041636240890256 
-1.621355379531179 -2.008902278821969 -0.9254225769943927 1.254203554701979 1.192117911166233 2.913500676489267 -0.8041419070099337 
1.650139187898092 -3.053461439398924 0.7637215637935761 -0.3764189020530666 0.04680750745451271 0.2905595288209015 0.6786525534849179 
0.1763047105527618 1.182318117775872 -2.594129930423461 0.05852801054230898 0.8674803984873739 0.9846792894987443 -0.6751805964335840 
0.09211916036540405 0.03909523905877841 -1.702565512117705 -0.4202601797385524 0.5786109366024641 2.790804783202794 -1.377804427373184 
1.211791214879441 -0.5176559803210335 -0.3364797604763630 -0.7085084850986583 1.396651782359309 -0.5991314283977137 -0.4466673429449882 
0.2598799871792298 -0.5052653763945183 1.459543233592452 -0.2376132630994165 -1.798364354783114 1.437542606135910 -0.6157228326305433 
0.2506268007679899 -0.4578494236947333 1.570077860610829 0.4475204241026989 -0.8628541801002009 -0.05114542201578366 -0.8963760596707978 
1.462256687512119 -1.012063797216974 0.3440737293871062 0.04260918826254836 -1.872125277918036 -0.1526300361171544 1.187879506090392 
-0.5562734262048560 2.869579578935511 -1.188687441979072 -2.314490877207691 -0.0001623497226705135 1.346145120176480 -0.1561106039976637 
1.302715067767150 -1.866181299386804 0.3659365018085887 0.7802340908282466 0.5507132201041822 -1.708286634273173 0.5748690531518108 
-1.007462431692498 0.4821226524149259 0.6569959807362032 -1.456091272984322 -1.604939328004308 2.802119416234756 0.1272549832952574 
-0.6452736228279558 -1.947939920156046 3.149793596976021 -2.193991726353261 0.3696263609599291 0.5466256807741231 0.7211596306272058 
-0.4384595172506555 -1.481813093031040 1.489151565483452 -0.06644216788225038 0.1865852109921286 0.4365856779953532 -0.1256076763069928 
1.933372071082165 0.8775462811963016 -0.05430058399826307 -0.9202589851764013 0.1084257129287777 -1.622186363403238 -0.3225981326293528 
-1.343428795994790 1.145863000398650 -1.136204775419563 1.708550193059692 0.8590107888912167 -1.094891740658404 -0.1388986702768169 
-2.176716682295883 1.735151511674696 -0.3078036620082179 0.5258675903390653 -1.152077635405264 0.01520996614838315 1.360368911547238 
-1.908111485732830 -0.02425574750016843 2.383839733646899 1.078190946239924 -0.7964773745411863 0.2441212710552028 -0.9773073431678327 
-0.5559250654000549 1.418009452757852 0.2550385161287618 -0.3480258156821277 -0.6306902515330836 0.4865085532316694 -0.6249153895030145 
-0.4483572670570095 -1.207879478350089 0.5568342168731347 -0.1885328047555951 1.898488436839459 0.4878914182815787 -1.098444521831469 
-0.3770990786533781 0.08981994273830049 -0.6866824807205073 -0.3952227408063673 -0.3533129792493380 0.5274730370293644 1.195024299661922 
-1.287381068378720 1.431545322080068 -0.4869528332254003 -0.6265245243457377 0.8057842334727461 -0.08358881548393180 0.2471176858809932 
-0.9302644010447485 -3.242277798062129 2.338794420033808 -0.4372366659027298 0.8456068479597408 1.406764559686579 0.01861303732950421 
1.084870875470984 1.145392450057823 -1.954349189919501 -0.4354166162542356 -1.051695803896780 1.052952638616991 0.1582456459247318 
1.437890808352393 0.3788642736349128 -0.05941927070045955 0.6310244412529923 -0.4203547202882029 -0.8565586732797784 -1.111446858971857 
-0.4487700113885423 0.5891806078138153 1.436606709707654 0.9780676215219353 -1.205332153735538 -1.498879041336796 0.1491262674174821 
0.1953939360079459 -0.1725951437431604 -1.043795612591348 -0.5887225440936896 1.267660412088215 -0.2809407744419417 0.6229997267739823 
0.6057684727196846 2.007196320966760 1.122903354993073 -1.536255179110572 -0.8194967538339379 -1.972261810253325 0.5921455945182799 
0.8635954843959252 -3.482234575253814 -0.1967327771654676 0.5167836922315984 -0.4244244910517740 2.838958681532077 -0.1159460146885640 
0.6265536051522883 0.4401802946135789 0.6393344536973732 -3.217398613552869 1.638805057297859 0.1660592929097651 -0.2935340901180022 
0.4067581974608390 -1.654694287028018 0.5191287538964516 0.4806759101717960 0.1345486700049030 -0.07665547751340372 0.1902382330074352 
0.6439919484990619 -0.4080536848431013 1.011309338513265 -0.6004439721578457 -0.4499778897792681 -0.4775228634158331 0.2806971231837154 
0.7607723832219880 -2.112236954066547 0.3740017133017212 -0.09785931835963470 0.3626119476572103 0.6968068221715034 0.01590340607375115 
0.02530011562503556 1.271060251570120 1.594710599194183 0.5079090905708485 -0.1033228139715337 -2.311136715860735 -0.9845205271279268 
0.5356859921469249 -2.195755147577730 1.458690304698637 -0.04641491203651277 1.118714447459222 -0.9883263657107573 0.1174056810202242 
-1.464549789760241 -1.224740621388584 -0.4099173345835307 1.252136188058510 0.6520494450420087 -0.6766329756849233 1.871655088316768 
1.030237278022223 0.7560569590433863 -0.4980052080135238 -0.1616491487332171 0.7058979895305936 -0.5209475469409100 -1.311590322908557 
1.320524254034414 -1.737069205236083 0.2729200699920676 0.7705393515665151 0.3217140977830775 -0.4143344877890895 -0.5342940803508907 
-1.663586287611738 2.347700084688295 0.3389054087879737 0.9224686971562968 -1.099452966282447 -0.8114268782300534 -0.03460805850833649 
0.7416743410721792 -0.7313512657543225 0.5214226267060563 -0.6340800156185274 1.965781765091899 -1.222565806852908 -0.6408816446443695 
2.799866717530384 -3.358197076212701 1.270300022369695 -1.341461844222751 -0.9799533597478180 -0.5501249400147257 2.159570480297917 
-1.047185825164699 0.08810787574991057 -0.3682418611315761 -1.273752116425844 1.303342959960496 0.5135824564964905 0.7841465105152180 
0.03101832349341587 1.045017025923576 -0.4458375464189316 -1.672002377930758 0.2328935565090960 -0.6049000555987515 1.413811074022339 
1.522694791466903 1.422753860769994 0.1186773873944216 -0.7962040610214525 -0.1864992458559938 -1.203572657439854 -0.8778500753140378 
-1.041969051220781 0.6317666886886804 2.065340675478958 0.2149832397050203 -1.013143402014949 -0.4738627670878745 -0.3831153835490682 
-1.848531430457906 -0.3661900316074827 1.405325181238481 0.3155139355136622 0.2767586411221565 1.119100550764641 -0.9019768465735608 
-0.01455719898848492 0.1024088174690373 0.6842981145939625 1.900251184353992 0.7859118655538576 -2.115166793716812 -1.343145989265566 
0.3795140394228163 1.767793536479904 -1.356719267267814 -1.734352571520989 -0.1299667030251285 0.9418190645750960 0.1319119013361130 
0.1972207275581154 2.400063635746729 -1.544908914178521 -1.449403578111378 -0.3002911794045870 0.3225698621130167 0.3747494462766079 
-0.9767323236191581 0.3478546426218935 -1.661683448818449 0.9165603462173818 -1.314771887844435 1.971542486785923 0.7172301846568486 
1.429336400969302 -0.3872572149414003 0.4158865108938265 -0.9541726169112803 -1.228513048834812 1.965556260724372 -1.240836291900013 
1.242906119641051 -0.7400669200142758 -1.944787167949031 -1.936452832247848 1.127578275008517 1.087832493621795 1.162990031939795 
1.418513918625580 -1.363865092198202 0.3930537988399890 -1.688338840281829 0.2489661916753312 0.1485606010252675 0.8431094223138752 
0.6188749330603639 -2.563735912892031 -0.1723093475999717 0.5459122054759267 0.9076610485701663 0.4188501763467132 0.2447468970388337 
-1.369686456463618 0.3822725838574115 -0.7734529364668223 1.401165354993793 0.2585273377111683 0.3724310737309321 -0.2712569573628694 
0.09628576347470783 -1.193043851676281 1.678367078595892 -0.4597936801499366 0.3453843826736983 -0.8308026616899041 0.3636029687718199 
-0.2423403057563862 -0.07386753814849856 1.484890648055923 0.3871177884210328 1.492420007440112 -1.949513754355748 -1.098706845656447 
0.5949271283124731 -1.619802527604638 -0.4932824983253341 -0.01071167866629757 0.9340857121408803 -0.5097544487575745 1.104538312900504 
5.927250429474703e-05 3.076876696361976 -3.025766093134396 -1.264573226566057 0.2212841604761695 1.494765432351282 -0.5026462419932545 
1.058479019210834 1.112377185884052 -1.049927760129980 -1.793847406463023 0.3054576159622795 -0.9187629171345308 1.286224262670373 
2.670224633995121 -1.536624732966914 -1.722239041666632 0.4865958019752892 0.8416879387812661 -1.395931297961024 0.6562866978429060 
-0.2124116127062935 -3.836403615021653 2.448252881779507 0.6286186639500240 -0.7088903154544957 2.437727320380169 -0.7568933229272429 
-1.330840560387837 -0.5341431432704661 1.835686673384999 -0.4630083322112531 1.062955320673620 -1.156283852465923 0.5856338942768661 
-1.765577894477838 1.013560321996353 0.02460949448452313 1.807166546311298 -0.4942599857288178 -0.7092351809116239 0.1237366983261038 
0.3343823713189169 1.795867939470258 -0.4799149074422330 -0.05438576929402422 0.5540747041098691 -0.8843110164428426 -1.265713321719952 
1.389598266306178 -1.455234502962750 -0.03144167897117360 -1.294467454861431 -0.6328167542506016 1.660648108389752 0.3637140163500308 
1.746867394239113 -0.02446524065539831 0.7503713044510064 -1.061072852131857 -0.7349471121869133 -1.788937514645939 1.112184020929995 
-0.7756121317715803 0.7426655401651966 -0.4878463057395699 1.846103925150259 0.009722822499100808 -1.166024549545406 -0.1690093007579969 
-0.6808325202157148 0.1192458734036869 1.550181487165869 -1.190038573793287 2.408538944226602 -0.7578645392343945 -1.449230671552758 
0.8633529061546992 -0.6493909775678757 2.080510640825657 -1.528431328666103 0.9099192910668142 -1.193223958339115 -0.4827365734740768 
-0.09791389818235410 -3.494802468637780 3.183399497878242 0.6965431902108653 0.2147182238491675 -0.2044160648650260 -0.2975284802531309 
0.4030969931022609 1.283932078027730 -1.081499246798014 -1.122233113507511 0.2324153822585958 0.1663603160836964 0.1179275908332391 
0.1805633711245543 1.294518351869338 -2.506181186474415 -0.8886518600475340 0.7043317504553040 1.506176157501565 -0.2907565844288074 
0.1556753111976648 3.096242186503816 -0.8308863924302953 -0.9442039343782964 -1.053190041393691 -0.8530185289703680 0.4293813994711653 
0.8525783217969720 0.1425099097926296 0.6309632644841024 -0.8777786859961066 -0.5563414804992828 -0.2926665010935867 0.1007351715152735 
-1.918471787834520 1.264312783910067 1.391278405889972 -1.007312858308888 -0.5001723625409146 -1.173342042904899 1.943707861789182 
-0.6057290090523125 -0.6852050271372678 -1.321054627722972 0.6566383818160890 1.349355384054692 -0.5485947641083684 1.154589662150140 
-0.3748154947438101 2.003789298368078 -0.8318414995583978 -1.434465423421737 1.155646929427507 0.1418733733033772 -0.6601871833750060 
0.2467013114737977 -0.1909233656900982 0.9411620127103333 -0.1292625869886727 -0.3872419087233248 -1.277219014175636 0.7967835513935939 
0.05098351867171653 2.356747753941165 -0.7129143093730548 -0.1493899309026203 0.5311303941793749 -1.949064638642550 -0.1274927878740371 
0.4442756870539776 1.001315465495978 -0.6991076385591082 0.02028161100942807 -0.8112121559007010 1.120671584611926 -1.076224553711498 
0.2287106082261466 0.3636717378428419 0.06740626546355685 -0.2690555414586763 0.3294417084392476 -0.5410971016068072 -0.1790776769063112 
-0.1538806292565404 1.967581702447785 -1.264103450885209 0.6916934106705162 1.078332719248183 -1.951592256355091 -0.3680314958696393 
0.7543650764155712 -1.420352077630114 0.5011874927573926 -1.342826754724498 1.574898267335684 -0.4494256556270520 0.3821536514730138 
0.09435463925039221 -2.179483567879777 0.07907621473195887 0.8751635617381320 0.3089717898949114 1.226355808760136 -0.4044384464957596 
-0.7609674017611382 -0.9446804800410518 -0.02084059706753711 0.5141951523835999 1.383880675690758 0.1508726819372601 -0.3224600311418907 
0.7252429807502228 1.145126535684967 -1.549475546296708 1.957654354424698 -1.176624097586798 -1.797132281010886 0.6952080540345008 
0.7554651786355587 -2.206314705172606 -1.775738556422971 0.9913764757471420 0.02145359332206729 1.510212746877162 0.7035452670136577 
-1.129398450781999 -1.306786699782148 -0.05265056544718626 -0.05800422607993097 0.5662279597984636 2.639288221161584 -0.6586762388687923 
0.09985592290148830 -0.4128612734085745 1.411542862848876 -0.09797899441701165 -1.047423044805197 -1.271134327649867 1.317998854530281 
0.1687055865111695 0.4721392071582588 0.01620502755112099 0.4746715766365710 -0.6060860286885242 -0.1209178086103644 -0.4047175605582316 
0.2690622484920787 0.6750736717602422 0.9462725627677163 -1.120342067693180 0.6961672907587478 -0.4613750660152350 -1.004858640070373 
1.008489250192194 -3.780804100090834 3.109088059696854 0.06977458943745936 -1.951311793493511 2.492234838338619 -0.9474708440807811 
0.4176494916423728 1.869716421519162 0.6029742036674614 -0.9487244466099751 -2.031518936139859 -0.2276316544199468 0.3175349203407756 
-0.2163936064960237 -0.02994456669668165 0.2194746953472507 -0.8537000273594767 -2.111009970807555 2.234588050160328 0.7569854258521846 
0.7912953679272445 -2.423691991656355 0.8137367288779103 -0.05847389891321082 1.140611767285604 -1.381236091047590 1.117758117526396 
-0.4451281418429366 0.04828026011115391 0.8330916889401018 -0.5498540800358166 -0.4718128131372813 -0.7198658017026074 1.305288887667383 
-1.601484855438144 -0.5329362577857509 1.282979435853833 0.3801052052293727 0.04005879460204661 0.1802178514744378 0.2510598260642121 
-0.7412357276468128 -0.1527144476240966 0.9738024169827614 0.3377063461543073 -0.1352521137745451 1.582579015061361 -1.864885489152971 
1.334716074909717 -0.7808165257711778 0.2352560798989845 2.121863012130251 0.2509714407950172 -2.146229347129496 -1.015760734833292 
1.135741536380099 0.7716564455323465 0.7307408322899961 0.2807628233225801 0.07801908695124983 -2.421900962385867 -0.5750197620903925 
1.574262754009583 -1.736516515335921 -0.4195652358961335 -1.028836787822195 -0.05578117821050878 1.667140274487326 -0.0007033112321532052 
0.9270656092955700 0.8397187467377317 -0.6946179148836875 -1.453269874673958 -0.6880033857474145 1.033129327152316 0.03597749211944436 
0.3215490865476126 1.812131202967170 -0.8719220590309850 0.9633234926543448 0.2860746530341941 -2.739144629264000 0.2279882530916640 
0.6126893500660878 0.1981162732297297 -0.1207883318357669 -1.294323814063938 1.511747024913582 -0.7658248570797332 -0.1416156452299670 
0.5905107340967232 -1.900125963770138 0.8671092606078609 -0.8753759979522955 0.1834866855045364 -0.9839363096131852 2.118331591126480 
-0.2834196290992787 -2.059500745315721 1.108011447210295 2.495123532367270 -1.521228649459689 -1.368707930423293 1.629721974720428 
0.9428374158165025 -1.104895635487616 0.1268239302885277 1.091323503050562 -0.2255645222551631 -0.008172424192410899 -0.8223522672204195 
-0.4446476909128405 -1.745912178707677 -0.03609501776863597 -0.3341060768067400 1.560160220470791 0.8204720122435027 0.1801287314815860 
-0.8773696955494859 0.7004760776981585 0.6620866281633965 -0.5202044903374530 1.019890318207846 -1.102569465272719 0.1176906270902692 
1.762941854968663 -1.436321489053128 1.338593251613485 -0.1821561941316232 1.468030675019063 -1.213337050459739 -1.737751047956714 
-0.1012636086951493 0.6275760886287909 -1.225529707177878 -0.3549268915184047 1.170128110036822 -0.6534533864351484 0.5374693951609721 
0.4805761269115411 -1.094690162329936 1.329263137770063 -0.1263375628258959 1.345390501262299 -0.8358365564227506 -1.098365484365322 
0.02033925890120504 1.582567242571863 -0.3140977187684795 0.6173147105686992 -0.8673170662031510 -0.5821521291753400 -0.4566542978947985 
1.559089147601926 -2.213641545484747 -1.403268381074140 0.1331355098699633 1.217617884581312 0.03041661394402506 0.6766507705616417 
1.072595469335910 -2.692429184760455 1.125960747083708 -0.5742392916579238 0.4992698887422903 0.9036978020012377 -0.3348554307447780 
-0.05767048927717272 -1.898429202318843 0.2180918666046443 0.9543474573954431 1.213026001179482 -0.3877334607080197 -0.04163217287553495 
0.6847985782031921 -1.187683089740801 -0.5764382265423020 -0.5059676120454172 2.173414449186931 -1.091927122023670 0.5038030229620613 
0.3589604705122849 -1.766797338688286 1.561717210185836 -1.337302194137673 -0.2477868745661928 0.6995897919321089 0.7316189347619152 
0.8981323064530398 -2.126277417232914 0.8801529625293758 -0.04292285929624990 -0.04664672195191136 1.470340862000133 -1.032779132501462 
1.642135260659219 1.258494505198415 -0.1610020009929555 -1.534419026468171 0.1692332962977506 -1.405283711010179 0.03084167631592297 
1.457380950545315 -1.039285490170003 -2.339342206107625 1.120439844763737 -1.342809105043408 0.2256212652594390 1.917994740752542 
-2.037360793754254 3.642346100876179 0.8956542125188300 -0.3683568388559564 -0.2055223353033853 -0.1195753385806990 -1.807185006900727 
-0.6409357588781315 -1.350174107754523 0.8263802897805477 -0.2680167243519727 1.170085159666868 0.4032351029640275 -0.1405739614268185 
0.6456154476501934 -0.7888481646361023 -0.3176914449104958 1.083688791752504 1.659485462309828 -0.08884395090389842 -2.193406141262024 
-0.5814377146291808 -1.728272313990235 1.892683788411334 -0.5773361093498640 0.04098359507779222 1.081551437571171 -0.1281726830910122 
0.8237477056586996 -0.3653074969157834 0.9123415035057629 0.5093512105913399 -1.003210844960353 -1.065423791939846 0.1885017140601762 
0.5130798408972254 0.3269075032105813 2.166142209307511 -0.5316561940501930 -0.9326976135975718 -0.8774004765437035 -0.6643752692238474 
1.594418713850890 -0.02892573066977414 -0.9974802164276521 1.763620011735744 -1.131522696304676 -0.4264587601757123 -0.7736513220088338 
-0.8275751877318069 -0.6327065658787386 1.397677111319607 0.7674369061676402 -1.636866202844873 -0.1218103996656213 1.053844338633786 
1.553584407575364 -1.430971158204713 0.5082959538451021 0.3387437941050647 0.09567699858078596 0.3078427416989699 -1.373172737600582 
-0.7814070182614965 -1.820357814543006 0.8390659498547188 -0.8337909541939251 -0.2438094073578082 2.278381265741885 0.5619179787596451 
0.8299223820952633 -2.063534920089284 0.09657401814060794 0.5493770404627870 -0.2893409930843994 1.094040041974769 -0.2170375694997392 
-0.9165237627821440 0.2614873567543307 -0.6271725042386936 -0.2549574356458139 0.1830981254602113 -1.029157836220384 2.383226056672485 
-1.352670468371074 0.8331245439085427 1.559070700837588 0.3846387538546703 -0.9747721312572335 -1.055003869238100 0.6056124702656044 
-1.224148612097830 4.573515354287451 0.05333638104784318 -1.372151144089144 -1.447343150814969 0.8976571885498451 -1.480866016883210 
2.072645334325874 -0.8242850526486114 -0.4148288294631473 1.207327622513598 -0.9287199972631072 -1.659483172695014 0.5473440952303998 
-0.3207128604250151 0.6845250851572297 1.448151006351290 -0.3346681674230209 -0.2292534073602137 -0.2502202846936919 -0.9978213716065700 
-0.8811019933539840 -1.486843806886795 -1.688268780684090 -0.04757550656927161 0.4782271208475374 0.8015820639996514 2.823980902646961 
-0.5849624542311666 4.105591181133614 -2.440768284431412 -0.2082220524348919 -1.628071020150247 1.733099098557913 -0.9766664684437885 
-0.7919221926784452 3.852635195330985 -2.744988031593142 -0.7767312015177669 0.1093049974444057 -0.6507876178890244 1.002488850902986 
-0.6785627490107426 0.1540699915539998 -0.2983131046438704 1.155947658533290 -1.288285926719356 0.3156630736969310 0.6394810565897507 
-1.085274422974647 -0.7662152137480807 1.602302887615083 1.329784749736670 -0.1899510588955237 0.1020181470080189 -0.9926650887415266 
0.9262604065445793 0.3811696696050215 0.1579223410351726 0.3384925848427153 0.1724886258829277 -1.206508931865658 -0.7698246960447589 
1.350954102408186 2.668802077131509 -1.229471595988660 -1.929464202363462 -0.4011560357852748 -0.2436144113651333 -0.2160499340371455 
0.1763447932270875 -2.335037579620879 -2.069759288024712 2.391503821378248 -0.6837415703462845 2.577386866188985 -0.05669704280246660 
-1.917501034839952 0.4983250515722413 2.352020197131487 -1.289117615509791 0.7656099004359852 0.2522000767661188 -0.6615365755561091 
