solver_type MCSVM_CS
nr_class 7
label 0 2 4 5 6 3 1
nr_feature 199
bias 0.000000000000000
w
2.032462968773661 -1.688124150845666 -2.061986938504045 2.263797446024147 1.061097188472470 -2.098921139072587 0.4916746251520072 
-0.7364000539423039 0.5306296611448701 -0.7354558205574672 0.2395203344133337 -0.9570899639864021 1.332498941128714 0.3262969017992544 
-0.06974101679312414 -0.2902069883257351 1.527888949982108 0.1118543008763265 -0.3216391313693185 0.3414778933172378 -1.299634007687502 
0.9839088693003291 -0.9011093247858672 -2.839669297913095 3.494691604452850 0.2077230740281693 -1.783007100976185 0.8374621758937760 
1.901139087148593 0.4977493286899947 0.2826103919822664 1.968568870267873 -2.851693115848970 -1.525729618214452 -0.2726449440252797 
-3.061273715121004 1.394838109884341 0.1580239467564022 0.2883525143481917 0.6638922219308843 -0.6328749590650253 1.189041881266232 
0.8388325191489565 -0.3226230189668500 -1.180357298934126 0.1130105831110537 2.454823527117684 -1.393503445942093 -0.5101828655346219 
-1.122843870472040 -0.7598558708266229 0.3661291056131275 1.906885611858964 0.8110213622460729 0.8416387425291231 -2.042975080948625 
-1.020167263761990 -2.008796547586687 3.792112272686903 -0.5150388672428633 -0.3486860177994254 0.009477536898589600 0.09109888680548066 
-1.200422683130072 2.154410132960373 2.265112705877659 -2.625788002371648 -0.8428865445483177 -0.4238318160652529 0.6734062072772768 
1.146732066899310 1.867765889452518 0.06038025600525825 -0.09043360249581756 -1.431362120553875 -0.9185768486438193 -0.6345056406635748 
2.316074243803789 -0.1500596313975420 -1.731126555764072 0.8033741301397269 1.081798309123592 -1.114066735677572 -1.205993760227901 
1.295526620429960 1.018495729166099 -2.658566542790256 3.005638317350498 -1.976939108285797 -1.904058726096362 1.219903710225852 
-2.193465761422208 -0.3190360479208516 1.220750181582043 0.2411445263573682 -1.424847003481579 2.163279836601868 0.3121742682833633 
-0.9540443477117365 -0.3111535379762235 -1.021444789631974 -1.391090968838925 1.788815393331302 2.065052605271707 -0.1761343544441313 
-0.2858277174048418 -0.2248010760701390 1.035865018178083 -0.9842099978599511 -0.3976805364690459 1.807764479582759 -0.9511101699568649 
-0.8893101669247889 1.258573590473031 0.1553208101813871 -1.489249635121519 1.583953857267102 -0.5795151155681535 -0.03977334030706613 
-0.5983741176999543 2.343751451165227 -1.748996621589369 0.03341178681484968 -1.158714455853360 -0.1114175272396280 1.240339484402222 
-0.5989512328632015 1.176809289723219 -3.753654520608807 -2.585223334101691 3.047857237183524 -0.1457292192723340 2.858891779939266 
2.220733547432507 1.829620704189241 0.06468697315956451 -0.3034514899312121 -1.688709043758753 -1.221523341775746 -0.9013573493156039 
-0.8160535821989093 -0.8435256862452805 0.4837651237384326 1.596896023798888 0.4953233774730987 0.07256296564534140 -0.9889682222115652 
-0.8146829863645053 -1.056746817620353 -1.043916116717742 2.544832921584739 -1.917155847692481 1.131716134711495 1.155952712098839 
-0.1537316350756644 -0.9575983709425482 0.3449799792798874 0.3053418583106221 0.4222919742009100 -1.354831395725026 1.393547589951822 
0.2915518430059382 -0.1639856370377346 0.7651145205289606 0.1839706129710350 1.225169893358457 -0.7436549558203474 -1.558166277006295 
2.294120206978491 1.937068032641556 -1.213733761082259 0.8508153883538738 0.1943965313270241 -2.338608617611835 -1.724057780606842 
-1.115527469017749 0.7965274254990002 -2.551144632799295 0.9515575570343159 0.6445960846203178 1.507125748242147 -0.2331347135787188 
-1.017979994753480 -1.896818054336239 0.6222488720966541 0.7700637952875640 -0.1094957708453846 -0.6140491633514348 2.246030315902318 
0.7931724875492459 -0.7606598861628565 -1.155086677914063 -0.7800108414405383 -0.1407847468390986 1.424973605083356 0.6183960597239518 
-1.680664921936569 -0.2258137563609937 1.021464285253320 1.193461193249664 -1.026364292899810 1.204652991838882 -0.4867354991444786 
0.3320016298812260 -0.9203577881026128 -0.5948114933250821 -1.065765707452535 0.9127813283177811 1.910316318573320 -0.5741642878920975 
1.909715810667609 -0.2512957605167779 1.490351977179918 -0.4741705218633261 1.303500882484091 -1.388874151135950 -2.589228236815557 
-4.415939424112516 1.157917334479720 2.587188781545336 0.04397230806875280 0.8982107201371833 -0.1475709800818332 -0.1237787400366490 
1.069721497502842 -0.6844577803852849 -0.2951537490551918 1.741353598983737 -3.282020200481373 -0.1076260407179570 1.558182674153241 
1.057539870740121 0.7396332094240151 1.784823343584161 0.1034085323047317 -0.7808068397809070 -0.2464405555254620 -2.658157560746655 
2.717210544589133 0.02920505390228435 -0.2264944229157168 -1.227303958599376 -1.880000305508741 -0.5047025755070353 1.092085664039472 
2.325962936232563 -1.026750035390950 0.6063713504828447 1.564756983358177 -2.441734950242773 -0.9386143113352604 -0.08999197310460332 
0.8472723138694438 -1.818269983456855 2.604907606116286 -0.6222737645218850 -0.7715862005164495 -0.8116096200479843 0.5715596485574322 
-0.3643191887779083 -1.299732938936020 2.556707174025759 1.426364405828341 -0.1961681111061234 -1.284567568775626 -0.8382837722584243 
2.668556525143007 0.8902206553836297 -0.6308325414015816 -0.01301629507807281 -1.162385016504706 -0.8968424025622528 -0.8557009249800346 
0.5665132303518601 -1.355286274615406 1.037337725349760 0.3208804012920243 -0.8063815513964255 0.08355238992954123 0.1533840790886464 
-1.800426120347958 1.292104796323038 0.5487382072992284 0.4512557514153526 1.135385148911303 -1.508779144578910 -0.1182786390220345 
1.005382055203386 -1.219023217969052 0.9066194122529133 1.266812056650143 1.327950990543820 -1.650544954206081 -1.637196342475128 
-0.7660986912363249 0.8955108617536929 -0.9148584690974652 1.085731251013338 -1.321985789925944 -0.1807679430874225 1.202468780580127 
-0.8193422209597235 0.08445900821302985 -1.479496871714058 0.2560792167046925 -0.1161658858399150 0.7578872639680981 1.316579489627889 
-2.443546832360772 0.4907665588705144 1.087513958980994 -0.5093519294304505 1.767870483196033 0.3885247103345142 -0.7817769495908273 
-0.8245412597994782 2.317373131549349 1.194748838565694 -2.274997815026115 -0.05330341427094701 -1.307638503788381 0.9483590227698935 
-2.757933296618859 -1.888163088220551 0.8986285294062988 3.045139312683425 0.5242307526934616 0.09933915084448745 0.07875863921173010 
-1.543398467106937 1.367111426606248 -0.5959416021598408 1.198621783568032 -1.684070742226403 0.9556824958922825 0.3019951054266316 
0.4330108087737705 -2.810355556279487 3.768951275682238 1.158614366531059 -1.200175075270591 -1.007480904737992 -0.3425649146989871 
-0.6761175616588192 0.8356097310829513 -0.4227544635102618 -0.3964162778577302 -0.5152142314167740 0.9752997980406402 0.1995930053199937 
-1.760909867874609 -0.8771886998263311 2.452438281463311 1.349769343044468 -0.6607884448541375 0.6907810186698502 -1.194101630622551 
0.8068411426583900 -0.6654558480899625 -2.579177193195238 3.265232795702199 -1.718709555604151 0.5082091935432943 0.3830594649854715 
-1.679879787763255 0.6439448305056041 0.4088172624254591 2.037482904083396 -1.981978851981795 0.7022497057523795 -0.1306360630217896 
-0.7130338954715750 -0.1252727425220966 1.524539265421277 0.01394995238938171 1.195103581194738 -2.340963971023556 0.4456778100118176 
-1.880140495135444 -1.769679309071183 0.1992242783095588 -0.06132230134953309 1.802734397997952 2.505094171391094 -0.7959107421424451 
-2.967256921736301 1.457102009004897 0.6601029180357764 0.9103368881621112 -0.07300146752804035 -0.2431952439850104 0.2559118180466002 
1.658436981980106 0.6715936145975661 0.8544786492179643 -2.990644016170997 -0.1808378427142699 0.8137498194784043 -0.8267772063887621 
0.7053202758426569 -0.2078670708743741 0.06303045177912567 -1.033236020209816 -0.6502374076269796 2.893248268675082 -1.770258497585680 
-2.563402726536120 1.981600961068819 1.244938817632152 0.1442772010377056 -0.5561452853634150 0.08751418199858595 -0.3387831498377266 
-1.549877297493868 0.4297907083769531 -2.157933124915850 2.268028253272132 0.2123363553945886 1.117427686754966 -0.3197725813889110 
-1.385954750261681 0.3453983818339446 -0.7050511851988053 1.523515795035800 0.4711678079469321 0.5212789437409071 -0.7703549930971210 
1.661656501295694 0.6218133650667728 -2.820587612866975 -0.002637945302659510 -0.6454443463472239 -0.06716855061503721 1.252368588769400 
1.547213054315967 0.2905747519655300 -0.1477058284879447 -1.817849707234105 -1.512510039650120 1.582172896118330 0.05810487297234379 
-1.431373538415049 0.8556141680024500 0.9414478263093352 0.01089867626987678 0.1778788475624587 -1.477796080406579 0.9233301006775166 
0.6104916890577198 -1.278446530445665 -2.526031378130087 0.5566933072961880 -1.366027906032045 3.438049216886367 0.5652716013675049 
-3.256654998217093 -0.6670451943669298 0.8820575540879680 3.108133887317796 -1.464953271227793 0.4641092952637148 0.9343527271423826 
-1.880962638367189 -0.5923784564744674 0.6292092538702292 0.7473226330305097 -0.07937484826853354 0.9454264718522830 0.2307575843571731 
1.102173991599497 1.521247578331624 0.7382659921009204 -1.350722718294957 -0.6077832869737932 -0.8392901948200994 -0.5638913619431780 
1.174476954383839 -1.046533228972116 1.130265171359810 -1.424960044545896 1.674779966455046 -1.669575926429114 0.1615471077484325 
1.088541449165363 -1.555048978015347 -1.431315776242545 -0.4579235254735251 0.1813190252196570 0.07067019045370950 2.103757614892695 
-0.1656216720382405 -1.895076518240155 -1.840948070640231 2.877791535340082 2.574469931458658 -0.04066512360434885 -1.509950082275746 
1.079722649506451 -1.181202476197856 -0.4406358025979332 0.6424735953209820 -0.6815624655489277 0.6253753800608126 -0.04417088054352264 
0.2146546234123690 -0.9804411179730664 1.844427031245051 1.171245739952793 -0.5258931917318220 0.3617444727323598 -2.085737557637680 
-0.4414634668775994 -0.6981354653946292 0.7429915613066599 -0.9963310567246386 -0.5178238279945361 0.6628586694922343 1.247903586192523 
1.302728859984488 -0.7629642717802076 0.09411703277967849 0.2704831246801823 -0.4650970929044092 -0.9087593794035024 0.4694917266437811 
-4.510425930118490 -0.09308667026710903 0.2619370463816078 1.927507412598647 0.1829076477816054 1.549665271533415 0.6814952220903364 
0.8626205917659505 2.248608606383229 -1.347848303343119 -2.010108419336992 -0.8873034822455573 0.3082636474508806 0.8257673593256090 
1.544627619841961 1.085698409171407 -0.08666616003524288 0.05486788418460757 0.4134284062071855 -2.161198768184891 -0.8507573911850251 
0.1858464363265650 -0.1018173258515287 -1.217909522913866 1.869174653264338 1.415229245988670 -2.013519103483010 -0.1370043833311761 
-0.6876410000903769 -0.2971840388735678 1.781924192621718 -1.340342221631629 -0.4893024048577890 0.1839909099705178 0.8485545628611360 
0.6526229534898563 0.2698991510695387 -0.6386999291834236 1.793500349767949 -1.397159085051484 -1.991919623923093 1.311756183830668 
-4.840026181141305 0.8003742373342537 0.5330411230041552 -0.6959890266202826 0.6083122908343326 3.874440521778538 -0.2801529651897021 
0.02273633223072225 0.7181623088498171 1.344145327364048 0.6252129727333734 -2.491573095970532 0.3060333154406503 -0.5247171606480832 
-2.221149903905295 1.002261615157191 -1.551667668805972 -0.1278435272143278 1.283223579914981 0.5515273007347505 1.063648604118652 
-0.5531717700770580 0.2957412078673209 0.07255262407140730 1.059234745833164 -0.4492353927429026 -0.5701674088104378 0.1450459938585115 
-1.315582335283297 -0.3786493046655002 0.8261259531823689 0.6873929653345674 -0.3415509158049935 1.248365374927586 -0.7261017376907309 
-0.7307845128111127 0.1274656810302657 0.9307728597406434 2.615498420068803 0.2957630552055128 -1.721337988904996 -1.517377514329107 
-0.9047438185480015 0.3944898024897560 0.5981307723344697 0.7395631849101910 1.309540638346895 -1.665590708403436 -0.4713898711298650 
-2.053115873524853 -1.602801233383151 1.439371805149146 0.6762113052012534 0.4104071802464056 -1.038886296319526 2.168813112630716 
0.2754880147151614 1.033316020450162 0.5951863504670628 -0.5745469352170625 1.122463671513168 -0.7823756906430351 -1.669531431285441 
-1.787207089177950 0.9146688106565010 0.4944796124921382 0.3479959458217172 1.503635321448074 -0.6599451329300456 -0.8136274683104301 
1.872733226784930 -1.675998128493132 -1.733706329374912 0.7080211320893246 1.103500652776316 -0.1937859581543825 -0.08076459562813712 
-1.279767918001843 1.493167137974411 1.386214731131601 -0.4643626576330546 -0.03420403866949374 -1.203802830691141 0.1027555758895016 
-3.294037041020491 2.459841494671168 -1.187807517492290 1.133459486118901 -0.02215128431677613 -0.8274513107026017 1.738146172742085 
0.9243677079348922 -1.766086967202287 1.034082822899169 0.4357107539873213 -0.9271411565765787 0.3479198570887773 -0.04885301813128402 
-2.437273811888037e-05 0.3234287884111770 0.1827888725936003 0.2052639718492816 -1.644823074274977 -0.3575776643379374 1.290943478496966 
0.3768939826188840 1.020758171234855 -1.156803653743958 0.7606898839268522 -0.2796137863353490 -0.05968723287105945 -0.6622373648302237 
-0.7346292954676648 -0.1130299495517314 -0.1897484126639437 1.987115267304933 -0.1532899425942801 0.1783913306723917 -0.9748089976997061 
0.1996767568668941 -1.633390038597302 -0.1578277336640200 1.108920352171342 -0.05995698788133917 1.615205315686277 -1.072627664581837 
0.9881915673713891 -0.4754275672781755 1.257314645299057 0.8902329958305363 1.160760195467085 -1.877838680645157 -1.943233156044730 
1.635733746227623 1.370913700721560 -0.3391962602143095 -1.521876625442623 -1.797619365890070 0.5385833892076516 0.1134614153901494 
2.691660253435865 -0.2355379994786661 0.8739176713392863 -1.682353727773428 -2.220788837500634 0.2845329376607060 0.2885697023168706 
1.245647287348114 -1.106874610945815 -1.546955807599437 -2.083754765443848 0.3570902354211501 1.988066591740755 1.146781069479100 
-2.368112795685176 2.130063470142472 -0.8360871067329537 0.4049948827759479 -0.1716581328420168 1.858132451131661 -1.017332768789926 
-1.186456435241362 1.705947257159798 0.8708756549228489 -1.769498304910917 -2.753629407331235 1.561724995073753 1.571036240327105 
-1.914527301362955 2.384367786959336 -1.128815498015340 0.7436226655885704 -2.017193931123032 0.5919900280788986 1.340556249874511 
-1.781115206254307 0.2543603237055508 -0.2162319912635255 0.7601997271087630 1.488559946843264 -0.2488076889131212 -0.2569651112266112 
2.181510751888612 -1.827269051211753 0.07619905424599618 -1.927857871018746 1.224748435130822 0.8171531239390033 -0.5444844429739418 
-1.887593472379609 0.08496743799304675 -0.04813837649116683 1.757807833746592 0.3553498669325230 -0.3604113012434840 0.09801801144209157 
1.122826512273413 0.1000065660882189 0.8683528281056944 0.8659452670214827 -0.2842266684777011 -2.021517426364281 -0.6513870786468255 
-1.718726970409766 0.7388227217222634 1.082473870333156 -0.1532750887731993 -0.6059841998567383 -0.7122466410523872 1.368936308036668 
2.695259371062234 -0.09616694453952647 0.2210297843174820 -2.529236011403848 -1.298747071611881 1.409338285484147 -0.4014774133086309 
1.107932956368172 1.278404027591331 -0.4007075392244188 -0.7490847575500257 -1.819023960899425 -0.7393322783335383 1.321811552047905 
-0.3328768818106556 2.749875144925384 1.621414108053861 -2.523575420894410 0.6081682141543563 -2.193515104634730 0.07050994020622058 
-2.453549908940699 -1.022027410869779 -1.474144204601582 3.047866381919116 0.8880719019663597 1.863771690452224 -0.8499884499256506 
-1.724091368818223 -1.009330419297507 1.914495975972773 1.886820508983786 -0.6049084128734066 -1.095114340783553 0.6321280568161192 
2.076008200979276 -2.053308325828962 -0.6915384561470075 -0.7456681905648385 2.519980761014999 -1.079069244836615 -0.02640474461685552 
0.9386122554238029 0.2463583151568710 0.6709186578249233 -0.2759516809224493 -0.5778262332149970 0.07363576195230513 -1.075747076220464 
-0.1091060502971435 0.6712680657311473 -0.3701406305567546 -0.5067945629640910 -0.8818264746391986 1.151968113193725 0.04463153953230815 
-1.493479631088025 1.989322228797743 0.4114678581937928 0.7857060580136042 -0.2261828448108423 -2.604492852567351 1.137659183461095 
0.8510475264342734 -0.6926905095644320 0.04610857331671135 -0.4279446699094739 1.521097912031850 -1.219748939780394 -0.07786989252852816 
-0.1126240738321828 -1.056765731685479 2.246126166396418 2.081952301112780 -1.756312543445501 0.3822364297109001 -1.784612548256944 
-0.6798031915027511 1.273348268410569 0.03699488157405954 2.178801076954620 -1.261725303520221 -0.7985688697547726 -0.7490468621614966 
-4.618920286921331 -0.1297407594136896 1.189049554369538 3.083248171532686 0.5438522018351257 0.2829689181674148 -0.3504577995697624 
0.9353516414503874 0.9841564282554319 -0.6747617833554908 -1.799911745227981 -0.6833157634346770 0.4048451291442473 0.8336360931680769 
1.916364250533960 -0.5179353079711715 0.8328167291930415 -1.886296868890461 -1.779080613171447 1.350214104135590 0.08391770617048450 
2.478133441803315 0.5613360672036228 -1.076126372477726 -0.6607464889448726 -0.3512389377341447 -1.033637929445185 0.08228021959498776 
0.2470333205283581 0.3922427833111875 -1.735104596453097 1.782286675640596 -0.5399411078375426 -0.8305954815737050 0.6840784063841954 
1.068521519305063 -1.700263216420643 -0.7046070358609491 1.302506221910603 -1.042329392844783 -1.702739651750318 2.778911555661010 
-1.542737002207443 -0.3762729196001698 2.283539432621498 -0.7828764869049649 0.7613013795330431 -1.015208653376870 0.6722542499349269 
0.3171061132682297 -0.9279097516741284 1.864469701744508 -0.06092840771361204 -1.398429823257338 1.299693390728075 -1.094001223095723 
1.141117151395816 -0.01520661296230524 -0.7070509195309460 0.5370459204020753 -0.7055272383487857 -1.132437206257540 0.8820589053016921 
1.501787187937508 0.002102629333137571 1.238635726177297 -0.1196818683372256 -0.06046643182302684 -2.184050064580069 -0.3783271787076289 
1.730727248740135 1.593663239470543 -1.955257580611897 -1.285407288994710 0.4742148627641777 0.7522005020649818 -1.310140983433238 
0.02201530902305088 0.2775101462621626 0.5525984845483223 -0.1921020542071012 -0.5910632684418606 -0.1273863121560022 0.05842769497143122 
1.205159601186266 0.5600719549029731 0.8464144344004180 -0.7893593808328530 -0.4489114975788763 -1.758730989292688 0.3853558772147417 
-0.1707110322673572 0.4283225978785960 2.363359942267743 0.2986085756151439 -1.617569602558986 -0.4471178736534083 -0.8548926072817356 
-0.5573215479441297 -1.016095012215434 -0.1271409010066788 -0.2072938833055213 0.8566866005729339 1.889254651077241 -0.8380899071783973 
-0.5794757945848655 -0.7708533021703800 1.484943544873315 -0.03627317320833952 0.6320478753079490 0.06546272931330752 -0.7958518795309736 
2.426573153934804 1.254800533467332 -1.556861157468761 -1.596935040228286 2.557833858340675 -2.837492253670378 -0.2479190943753661 
-3.431800419796335 0.9182518864572021 0.8709908878116122 -1.955080424036753 1.406948276229301 1.133146552063765 1.057543241271230 
0.09065630261225094 -2.007985277281975 -1.229555951653736 0.4703356497309197 0.3345253386256673 3.005316035077701 -0.6632920971108098 
-0.5422731942842177 -0.2075182616350912 -1.615803160165898 1.945610110967287 0.07412553270640275 -0.7135102516192409 1.059369224030758 
-0.5782098354273159 0.05615746173045119 -0.4135600277797325 0.2465822343377112 0.2066219050325497 0.8395570392323050 -0.3571487771259633 
1.460599121586585 0.9274009109166803 0.9797920124678076 -0.02562834653971489 -1.330846346408509 -0.9132979560226733 -1.098019396000188 
-3.978809331777216 0.5445793133878000 -2.310277904226925 2.482161639787337 0.3517833760247463 3.476709992157596 -0.5661470853533582 
2.581848917514755 -0.1832194144741073 -2.197351035212436 1.658090725058666 -1.250171981989288 -1.003540618052239 0.3943434071546805 
-0.8582853707571355 0.2368821793251607 -2.949671331123348 0.5880246472878499 -1.155170320718561 2.613185704505364 1.525034491480665 
-2.414023002418556 0.9380506300144406 1.484756804009165 1.176581219826123 -1.026807762803922 -1.696289291070801 1.537731402443571 
0.8323959328395603 -1.171712293324498 -0.8365333193304828 0.3915432003914499 -0.8527214006567368 -0.1027616589817576 1.739789539062468 
0.5960974194087764 -2.230232557132120 -0.6709664577696284 1.909003709781398 0.8270384628456607 -0.1388819770545228 -0.2920586000795613 
-0.5962072523200620 -0.4325500819219345 0.7407562230392399 0.2348086497501164 0.005691884067724852 1.976892295219549 -1.929391717834633 
-1.730376698853356 1.789066166043775 0.5291560178650154 -0.7143439066835922 1.397903456995107 -1.152940245292775 -0.1184647900741771 
2.781170562351083 1.066144453031960 -0.0005123825799634378 -0.1053049336105546 0.08518174494676536 -2.740758558935491 -1.085920885203784 
-2.317269657064690 2.148469735704386 -0.8500307631683582 -0.3244849546004865 -0.9503580226741213 2.451529230101269 -0.1578555682980025 
0.02311884711015281 0.8598778496620810 -1.076924578597558 -0.009016803361971080 -1.208835863245223 1.477365327775180 -0.06558477934265514 
1.392502634233858 0.5469777291812485 0.01561962913154340 -1.784848235121913 2.270796802479190 -2.336412561419278 -0.1046359984846677 
-0.2548668828759235 0.3498842662419200 1.973654289689129 -0.1612462987606763 -1.167000874199773 -0.3770367530778429 -0.3633877470168365 
-2.913357783738026 0.6385361147477060 0.2757594021652862 1.003645732823890 -1.176326500445361 0.2693333589582319 1.902409675488267 
-2.064666680564950 -0.2503194025213971 -1.232238711443310 0.9315868037394540 2.675313203385244 -1.235677578153473 1.176002365558434 
-1.121175419289376 1.228550299066118 -1.385888040727420 -0.5305380591646528 1.488443014039325 0.7763572388679427 -0.4557490327919354 
0.1521321143774930 -0.9028712059567620 1.562758460221582 -0.2286979055795807 -0.2700088126925624 -0.1235523562615496 -0.1897602941086141 
1.287223296226933 -0.2871367320497391 0.6232163145724018 0.2588351618159928 -0.8295258742170540 -1.410857074927276 0.3582449085787408 
-2.605859739561396 1.850785648485413 1.732368016195271 1.482411059989518 -0.3895888436440568 -0.1139096003319623 -1.956206541132796 
-0.08867024291934660 0.5637401354457031 0.02113425235436831 -0.6330677158372972 0.02289709011911396 -1.039127266331757 1.153093747169205 
-1.491939948484739 0.7880338610164036 1.038692542459691 1.299467203118518 -0.07968928793259608 -0.4984577104704951 -1.056106659706795 
2.166148781053484 -0.2586533124548335 -0.8350156266978798 -0.3927643513313898 0.1111021042103126 -0.5883119756083133 -0.2025056191714064 
-1.993219725737681 2.287926653175668 0.6875356287223534 -2.015563832071656 -0.6336362074172445 0.5154602946321736 1.151497188696398 
-2.870461107823514 0.8556053144942215 0.8869586231021619 0.9443697537075704 -0.8244258349203778 1.855710907508605 -0.8477576560686568 
-0.4436293634649897 -0.7639189280773455 2.222636776671567 -0.3145003388210221 0.8336667481519248 -0.8900107408374518 -0.6442441536226703 
-1.907439960223262 0.9087302834133262 2.594767877374388 -0.1399179529790530 -0.6838298468399561 -1.271213011763581 0.4989026110181546 
-1.922082298153292 -0.03895922845710595 0.3012381571506300 1.706906100758652 -1.726280367215557 0.8853586242233226 0.7938190116933408 
-2.874809164451578 0.4010861400532257 0.3980756915515489 0.7550567531330201 -0.3177670499353930 2.800513573844787 -1.162155944195603 
1.544898230130050 2.409317136148268 -0.8186172671194410 -0.4112846983566281 -1.948298046538321 -1.297493338563799 0.5214779842998993 
0.4811690402779624 0.5928041506734061 -1.640171034792568 -1.581131994386876 0.5290047364911565 -0.5784505307250934 2.196775632462022 
2.835055411847236 -1.611462473426834 -0.5226546729840379 1.774375771149212 -0.7394651998285928 -0.5511103800169264 -1.184738456740039 
-1.577141554873529 -0.5529484806603888 1.157490394683840 0.6940847570292389 0.08484488647945790 0.5227464978732054 -0.3290765005318205 
-0.02852384343352327 0.4791945073847520 2.035477329534502 -0.4110940428723658 0.2300785450540885 -0.08269609645705496 -2.222436399210412 
-2.084664670506992 -1.066717921126384 0.5158577698496705 1.588893334820882 -0.5528475884000301 0.8245125279178521 0.7749665474450130 
-1.595806902353526 0.1369223430426507 0.3684242816448686 1.236100687139434 0.06575547451420453 0.002274618346354293 -0.2136705023339955 
0.9388674818545565 0.4355836220586242 -1.602289314892465 1.968415954744380 -0.3648576862250826 -0.7526929871771934 -0.6230270703628152 
0.6941609108896964 1.253252271399278 -1.554621495664385 -1.110084435341406 1.949217488395036 -0.1570217584936317 -1.074902981184579 
-1.178565491538577 -1.057757955648516 -0.4877603496319771 1.595417817456836 0.3703926309243913 -0.5492879180531484 1.307561266490981 
-0.3299422819838711 1.366910139098294 0.1948783847770712 0.6600008764822157 0.6491351719849375 -0.4790133264890996 -2.061968963869552 
-1.408217961432694 -0.3989716598120113 -1.497504967779071 1.963131976314025 -1.504955110480319 1.717008528430468 1.129509194759601 
-2.849381871052868 0.7019796422382629 0.02697293475933698 -0.1645085282720128 1.016590708451699 2.392626824801821 -1.124279710926214 
-0.7716887172362487 -0.6187721602927627 0.4066439854231224 -1.226667517309840 0.1511579418007947 -0.7155879570715449 2.774914424686499 
-0.03353150230778722 -1.049064015008734 -0.9267737694562215 1.649916374866539 -0.07268454053517658 -0.3274580997064749 0.7595955521478631 
6.373776705380426 -1.241049659195693 -2.445251824448785 0.05036606202635242 -0.2268562746325085 -0.5939009915275270 -1.917084017602303 
-0.5760007053987694 1.919119691302619 -1.581484471812029 0.4614224899178849 1.706061470862403 -2.475751727221911 0.5466332523498060 
2.040271589472376 0.3753926470257746 -0.7662440305806449 1.265718622915844 -1.150207705325217 -0.8188931348845911 -0.9460379886235455 
-1.757936541088305 -1.531728556692417 0.8388375358100709 -1.722704715890209 -0.2016513735836823 1.996067795514591 2.379115855929979 
4.826724738636410 -0.3422321192139956 -2.759661866492467 -1.530541625041990 -0.6752451800376055 1.831451347241041 -1.350495295091418 
4.335464170768352 -1.005281840650595 1.988168719023099 -2.768813007019373 -1.963513151023886 -1.524828552790497 0.9388036616928714 
-0.5991337777638592 -0.08879402387679187 -1.457460144154718 0.04163885577165673 0.3626222524440191 0.4922218667166921 1.248904970863000 
-0.3670686083091593 -0.7584548756402489 0.2644431055964901 0.7121610704347171 1.218873533081387 0.3409268907643402 -1.410881115927531 
-0.08187240754812589 1.219695828342397 -0.2029609072120877 0.09598936464702182 0.1875668985119889 -0.8875295461549000 -0.3308892305862814 
2.611100840706157 1.654763395090091 -0.6317557919987815 -0.1411340881812356 -2.586197968443294 -0.8059373113973116 -0.1008390757756153 
-2.269335337500218 0.6904012873504212 -1.378493784877470 -2.996109728697203 2.364489459106863 3.284312674348163 0.3047354302694291 
-0.9557405142020319 -1.719837824963905 1.877552368610051 2.796920297270179 -1.527151614124966 -0.1837533630968894 -0.2879893494924373 
