solver_type MCSVM_CS
nr_class 7
label 2 0 4 5 6 3 1
nr_feature 199
bias 0.000000000000000
w
-0.7792693700306401 0.3851025658067250 -1.801222998623762 1.514720978858755 1.030989381197209 -0.6464482041361788 0.2961276469279114 
0.8630362491747177 -0.05841983019632586 -0.2081632279069567 0.5635883789318976 -1.117507565545296 -0.2552063742697512 0.2126723698117158 
-0.3999906538182471 -0.4308125807763497 1.726836270701457 0.08911694545600936 -0.4401946628933137 0.2655994579396141 -0.8105547766091742 
-1.185253423238940 0.9855461943428460 -1.712531010124049 3.566190006369408 -0.4809955903453421 -1.850151023158193 0.6771948461542770 
0.1437008701407196 1.991385702978343 -0.2721009004895938 1.011025567027949 -2.052791850195096 -0.6138172163758072 -0.2074021730865056 
1.074587821795000 -3.112329161907216 0.2170950549529190 0.6378889543840052 0.7059369182676920 -0.9174715721662757 1.394291984673881 
-0.4724012007639976 -0.06824021216054382 -1.613248774450784 0.5429788673000148 2.442307926941323 -0.9866656275954353 0.1552690207294201 
-0.07593215034918560 -1.188126578637745 0.8936262738101705 1.185448123850179 0.0003759049663947963 0.4119836831952669 -1.227375256835090 
-2.206892415612325 -0.4154198447657574 3.493953291759587 -0.3896046479020933 -0.5524954514416685 0.04237420021190064 0.02808486775034532 
1.397039865224775 -1.941911517354140 2.972333342427272 -2.372338932451084 0.1404101402288984 -0.4622620608370117 0.2667291627613053 
2.116922938191919 0.6476073003027077 0.002854320022198952 -0.8272687191326803 -0.8860374037480288 -0.3317881490418363 -0.7222902865942724 
-0.2371887203632301 2.851808717393245 -1.391378134559362 0.9462768111018495 -0.1840915934930009 -0.9440454943885084 -1.041381585690995 
1.482564693133039 0.2486790774266771 -2.247447787984854 2.576583574629361 -1.278014886805558 -1.358347114616550 0.5759824442178838 
0.003835241186413211 -2.252601938721948 1.625763746953509 -0.6395211015043032 -0.9653583643182274 1.886600680034141 0.3412817363704175 
-0.1261136558977003 -0.8122532895307800 -0.7643231574417736 -0.6439552033687824 1.453230281800973 1.417697443229339 -0.5242824187912746 
-0.2098962473581080 0.1639246867789971 0.9706542144845378 -1.375979594458218 0.3393734170923067 1.297879497448681 -1.185955973988211 
1.566165638474240 -1.043166723375026 0.5122796438770483 -1.243247761318381 1.484817459401855 -0.8420556274333180 -0.4347926296264103 
2.146643233812489 0.05643882224054517 -1.076317930750908 0.9039864865376119 -2.523277104842684 -0.4228955622902968 0.9154220552932366 
1.376252192946357 -1.196532829804534 -3.146176041349545 -2.517564781671475 2.757412374837961 -0.2402130639025518 2.966822148943802 
1.906488201452040 1.747658337017592 0.06457048361840216 -0.1711658107388611 -1.183067898175055 -1.387283122365783 -0.9772001908083453 
-0.9707865096895383 -1.167478357484900 1.099641467515752 1.574199053802174 0.9275817945839758 -0.3955687752788757 -1.067588673448580 
-1.031168373362957 -0.2123460901347349 -0.7454082919481565 1.457535042347566 -2.311046898575181 1.718400585659744 1.124034026013713 
-0.7995250674336035 0.4388944998334488 0.5027353334125754 0.7401967118286146 -0.5442364428241633 -1.405591717423713 1.067526682606841 
0.001679851739726645 1.357909029158363 -0.4928750253656701 -0.2792922853277424 0.7480096043333224 -0.3226992244704456 -1.012731950067549 
1.066882901054189 2.019350462852788 -0.3411449250003711 0.8792907791324504 0.2675844344692938 -2.344547332660405 -1.547416319847951 
0.9916918818623853 -2.360748633698933 -1.818473208641642 1.141795301833921 0.7111170164711051 1.654211232966829 -0.3195935907936672 
-2.043742350585061 -0.9834433435614316 1.162032160349846 0.5994560973566320 -0.2647257874653071 -0.5614595676632999 2.091882791568603 
-0.8544231049697601 0.4365601566805017 0.2447526473718778 -1.017578812688331 -0.8815143270658404 1.706659716063020 0.3655437246085301 
0.4549752788683298 -1.302960932268475 0.6863861253303628 0.6420862585162871 -0.9258274727917177 1.710317010802999 -1.264976268457790 
-0.6817594700994831 0.1460033626784976 -0.5715828109626870 -0.8478488076221090 1.225422523410920 0.9955278308305525 -0.2657626282357065 
-0.3897723091582744 1.462254337066639 1.218579252259954 -0.2213956662921918 1.275467551390641 -1.090917210987660 -2.254215954279104 
0.8345556165229485 -3.926763699135690 1.941961886037954 0.009703295599729940 0.2531732272855148 0.7980157842717919 0.08935388941773588 
0.03478528838710617 0.3420082181690755 -0.3870422281742854 1.456023642942061 -2.884938048219067 0.6249083590668179 0.8142547678282753 
1.083316366929529 1.110763711396069 1.535159933210907 -0.6050214644331299 -0.4464570912206104 -0.5070671726306009 -2.170694283252160 
-0.5750826865839062 3.017799561047007 1.129392720796048 -0.7943921701596629 -2.366157683068523 -0.7279371568873341 0.3163774148563842 
-0.7440078802018112 1.438399434450650 0.4086800141725929 1.714793631707648 -2.176708877000796 0.1099563076698805 -0.7511126307981777 
-2.003652522725153 1.731461283373169 1.739904620529283 0.1381852257932180 -0.6638214321177849 -1.491609046246571 0.5495318713938508 
-2.032956244733249 -1.132748496930190 2.290254366655450 1.103954813082060 0.6266596030846338 -0.04919123096810159 -0.8059728101906087 
0.8927204950512164 2.854887232361301 -0.8030098180428928 1.117964736612531 -1.789490435846065 -1.411997936941694 -0.8610742731943742 
-2.280014597775068 0.6929260079909780 1.541021497973930 -0.1902165271848218 -0.1916900787159001 0.6571648826892877 -0.2291911849784241 
1.482786851112815 -1.760476534291959 -0.2286678195198131 0.9322163846374409 1.132714612702929 -1.334025672922387 -0.2245478217190199 
-1.800651260902053 1.140324049995158 0.1720280384142005 1.040900221063044 0.8760786281669778 -0.4204113189554662 -1.008268357781863 
1.100545055926656 -0.9997528433377683 -0.8685811123674724 0.8777480889279103 -1.397464859643565 0.3063227229144771 0.9811829475797594 
-0.1465926945247635 -1.647927459501750 0.09455617210027883 0.5197053359560405 -0.5780998663467126 0.4445006106386233 1.313857901678291 
0.7178457109562703 -1.051320048677673 0.5787578623596205 -0.8073883387056760 1.018550423405447 0.05985473421158590 -0.5163003435495701 
2.213963960866307 -0.4265508608846304 1.298413901171831 -3.004573627664086 0.2111497046677860 -0.9219530677216595 0.6295499895644393 
-1.441205257580852 -2.177377103962608 0.6568385329783036 3.054810849343231 -0.2151143679393842 -2.236381722692672e-05 0.1220697109785166 
0.6290122298524142 0.7623456202600487 -0.4272044767904853 0.2751680528794492 -2.033249152130738 0.9757678449624768 -0.1818401190331811 
-2.574225429218058 0.2193641463221137 3.540091931836868 0.9416220327235946 -1.312177135867442 -0.3477036706545212 -0.4669718751425629 
0.6036320303253441 -0.4229508679403408 -0.7104019733483884 -0.1996480764917095 -0.1505463554096765 0.7037953212852692 0.1761199215795001 
-1.321063054463114 -1.868220453227431 2.035104430033538 1.823034868747228 -0.2717121601510020 0.7187837788659885 -1.115927409805212 
-1.144101665446086 0.9595644898496958 -1.091698011576203 2.899312494000817 -1.871089869878148 0.6298685660938427 -0.3818560030438973 
0.9147555212655473 -1.566668366505052 0.5141043413208417 1.304192466082115 -1.338996662245935 0.4119739686035095 -0.2393612685210196 
-0.5055097080445008 0.8998326320208743 1.594560947589428 0.1247019640080564 -0.2660213358748703 -2.341837533323634 0.4942730336246383 
-1.881558271744833 -1.391722810141686 0.3339186090236644 -0.8915231636386751 1.658067574181217 2.709185331870957 -0.5363672695506394 
1.731498715880471 -2.329591314795084 -0.02597032595934895 0.7118107135485033 -0.06228815347994890 -0.1306449027556100 0.1051852675610127 
0.4798973869716190 1.776409686766880 1.325197896202627 -2.940461675935880 0.2607118429633912 0.04899279571036681 -0.9507479326789946 
0.05192698491128362 1.079081458610950 0.5553692250815203 -1.951291484964418 -0.03324681377726607 2.089004916923152 -1.790844286785206 
1.364600919816038 -1.560890943298326 1.713535454387700 0.2307519582184988 -0.2814215938067015 -0.8728549572993738 -0.5937208380178085 
-0.04285627988603826 -0.5724434663047488 -1.516679110859824 1.473689827306295 -0.1140244408790292 1.257075402591241 -0.4847619319679062 
0.6734030615457289 -0.8751697461443582 -0.3312920898731180 1.516204768993233 0.09517303659765380 -0.3623362636934543 -0.7159827674256781 
0.4917623268223299 0.5759521938022628 -1.822839668198423 0.4534509427205722 0.1646400886364273 -0.4332344772326936 0.5702685934495189 
0.4127994429699259 2.180988161173469 0.4877856876305410 -1.266535209633859 -2.780842927897937 1.063474914302430 -0.09767006854457487 
0.7100690042570359 -1.429999800412210 0.8199710059119258 -0.2033040048025626 0.2448700858283038 -1.015865241087429 0.8742589503049258 
-1.053337665123731 0.4947046217559576 -1.604149254239038 0.3838119596067920 -1.942594354717490 3.302993322025907 0.4185713706916158 
0.2738663856309170 -3.396888229935872 0.4730516908935297 2.842748010604912 -2.059506518179752 0.9172267398150937 0.9495019211711885 
-0.4664019756759569 -1.718064791878561 0.7525109017506343 1.006150088335809 -1.037899722603436 0.9771655993561048 0.4865399007154044 
2.031918170168274 0.3970974668867623 0.3723763666122877 -0.9304777565063668 -0.2003763087626440 -0.7166470229989140 -0.9538909153993999 
-1.420911973634056 1.425765110844726 0.7281727904946901 -1.522119063907871 1.537814126948419 -1.118662703134379 0.3699417123884952 
-2.140252265607174 1.443959082590637 -1.733570977808307 -0.2035375637995475 0.8180816559258174 -0.1079910354735369 1.923311104172097 
-2.011394746248545 -0.08703206497607101 -1.647992549809563 2.504795891589305 1.245449196000688 0.9564113903896689 -0.9602371169454955 
-0.4029939563402799 0.9754955091043951 -0.5191342938095317 0.2655053827232087 -1.080403831292254 0.8474302210139493 -0.08589903139950424 
-0.7212603483199712 -0.5664659798907673 2.160568964017493 1.170385088858445 0.08130197411161469 -0.2473467555481657 -1.877182943228622 
-0.2542712632378653 -1.099734338828635 0.2570828371503539 -0.1674600675177274 -0.2384393694080472 0.6961879376291967 0.8066342642127110 
-0.9720487474252360 2.144752575355581 0.09226663974466015 -0.04994610839972578 -1.198053634718861 -0.3087005171027216 0.2917297925463160 
-0.5438578316404787 -4.976175764094563 0.4768619566265297 2.287587164956557 0.1823463588739779 1.882027903524234 0.6912102117537490 
1.755257813806087 0.8087214678336261 -1.031207387760585 -1.921023731891169 -0.7643386735135300 0.6020272853410887 0.5505632261844826 
1.340139898423649 0.9991130177916825 0.2974886224625432 -0.3756436174393713 0.04713682707886776 -1.248507162266853 -1.059727586050514 
-0.01382407772155975 -0.4191545831430654 -0.8196061534840992 1.647046348570284 1.017812637147077 -1.701115474113126 0.2888413027444841 
0.3227487495142939 -1.297965705562101 1.943099314286414 -1.106078821574936 -0.7372643579607767 0.05700069890278080 0.8184601223943359 
0.6542594419181557 0.5697486648642003 -0.8935300897917546 2.328471350533122 -1.745875423246427 -1.985260632274936 1.072186687997614 
1.005246167305168 -3.587879276209233 0.2456139178130255 -0.8212179896082340 0.07974890517627548 3.121671930286792 -0.04318365476376679 
1.230744265218050 -0.04775520553609390 1.335875918782193 0.1626432130166079 -3.311603762010868 0.9613151115829071 -0.3312195410527809 
0.9508218967565369 -2.883441596007211 -0.1279944258118801 0.2968734854009968 0.5464732460568112 0.5099310869363063 0.7073363066684520 
0.7614697845362787 -0.7143893441152009 -0.08627599426395327 1.321664495048707 -0.2216018410182221 -0.8431003103819875 -0.2177667898056200 
0.03900924231290844 -2.116673320325401 0.5916185601174297 0.9925908082259696 0.1001559535194324 1.017508912296973 -0.6242101561472952 
-0.1006835391623061 -0.3362054123604744 0.4196821252282892 2.898795840880609 0.3350241407752867 -2.067066850986348 -1.149546304375041 
0.3870387245765611 -1.618434526224237 0.9633899307633498 0.7722279311736409 0.7178041606832288 -0.8736378410884069 -0.3483883798841273 
-1.381065692682393 -1.701222052973503 0.9195062065458398 -0.06078243219892257 0.7609337153281354 -0.4502673778601093 1.912897633840941 
0.9082180623629470 1.420706814637481 0.3494039664046806 0.1276732703575121 0.4022526820549465 -1.733596353142565 -1.474658442675001 
1.064176514719454 -0.7955533747080558 -0.1366736956162782 0.4142533721742708 1.046397317354039 -0.8822377126211689 -0.7103624213022528 
-2.122614676583932 2.318242561583789 -1.385935092397798 1.159674311221366 0.9896545398428630 -0.6984296633300110 -0.2605919803362767 
0.8280407202714666 -1.628740838674728 1.836530409813753 0.4691181450527344 0.01248055317762561 -1.438952890013556 -0.07847609962729925 
2.927808658465751 -3.394863900780652 -1.315303511082047 1.388210805851581 -0.6156121702190384 -0.9041087435839992 1.913868861348432 
-1.078145263806420 0.2668382107738450 0.8152186549481850 -0.8713282716846318 -0.3545244685082626 0.9003225368414562 0.3216186014358271 
0.8078406589750583 0.2996580421069193 -0.2262558753677425 -0.3285394424914681 -1.792074011345997 -0.3008333193060274 1.540203947429247 
0.9968488023549575 0.9531034388865124 -0.2074755125164423 0.6119977949185000 -0.8186380906144187 -0.1794900797365666 -1.356346353292535 
-1.279766605347685 0.4726826456417540 -0.7586212152546111 2.131058218224184 0.4081911773804898 -0.009869057693653422 -0.9636751629504862 
-2.510725322712021 0.5266273301633192 -0.3817704201206393 2.086727115109980 0.3142012298595447 1.045052553291965 -1.080112485592142 
-0.5670024898125770 0.01294243524677733 1.119660897596798 0.9914663716980601 1.846224507805286 -1.576558208903139 -1.826733513631234 
0.5054540796251004 1.952901593988847 -0.06087479074175473 -0.6875311965737984 -2.271503698135759 0.3359257332236437 0.2256282786137132 
0.8995816965859873 1.598186413697198 -0.2141192927066486 -1.154360855013924 -0.7473802099236190 -0.2714464784702441 -0.1104612741687498 
-0.2998136980179677 0.3187207747625310 -1.040307117658383 -1.931811888480069 0.8424844257844082 1.389587598216365 0.7211399053931030 
1.658010453402287 -1.211307210892782 -0.8896168201801494 0.1090987210742519 -1.057787773380397 2.216382241382930 -0.8247796114061396 
1.536100135828385 -0.2951286751503540 1.410346491820455 -2.762936899670359 -2.588467217285714 1.433436823665414 1.266649340792206 
2.008389020766864 -1.912341707487804 -0.2245917742189063 0.4283220294172693 -1.331790261929620 0.2112494381266526 0.8207632553255442 
0.1977537982359611 -1.931036498028898 0.1612583660821283 0.4430536974527464 1.705866340289924 -0.2856969221330074 -0.2911987818988569 
-2.225093100695097 1.410346035769909 0.3900103784269689 -0.9812500679397078 0.8980258802207303 0.6898690906808407 -0.1819082164636360 
0.1486710658201380 -1.122899320035716 0.02004134150952053 1.357028430568135 -0.2253538464044095 -0.1772340953904362 -0.0002535760672307822 
-0.4028759107521504 0.6618730132000730 1.333211335129655 0.9984247584185055 0.3641773493124078 -2.172394828446262 -0.7824157168622428 
-0.004423817260222057 -0.9418160039168706 1.384832143402629 -0.8054054243662374 -1.045276580718169 0.07958734142115197 1.332502341437714 
0.2935158177970503 3.226242842579994 0.4305129814490897 -3.345653814178753 -1.273432360308884 1.185453022298041 -0.5166384896365172 
1.038386089461358 1.179692190945197 0.5312251689559483 -1.145680263331631 -1.665323603728683 -0.8345920783295825 0.8962924960274028 
2.843995404190523 -0.5236440964643693 0.5659693744902875 -1.774259987901411 0.2325486507550902 -1.534635917777019 0.1900265727069153 
-0.3297590359751260 -3.116425593370786 -1.476499544064587 1.795683585969734 0.6404461092229718 3.067740313055739 -0.5811858348379291 
-1.164702507000314 -2.110893317708560 1.957898626247766 2.337610484037453 -0.09418429976055784 -0.9656872232748275 0.03995823745904199 
-2.012232132554108 1.742620205996908 -0.6943610944806459 0.2575526655821834 2.367249069067069 -1.662203111118076 0.001374397506657276 
-0.1695100453038125 1.504712245799999 0.7633081155241083 -0.4097298489633553 -0.004334298302210610 -0.4769301052734428 -1.207516063481279 
1.238418049502344 -0.6957737108499451 -0.5596432108556104 -0.1452722890446533 -1.091239652671618 1.148357554385031 0.1051532595344649 
1.897645257117413 0.3030664764397504 -0.6564775421411054 1.033295453655420 -1.123181115140060 -2.556468211742685 1.102119681811249 
-0.5795000289404875 0.6794328485212140 0.2633512423153952 -0.8306933687602204 1.995276072309332 -1.219891160943329 -0.3079756045018968 
-1.029437972619228 -0.2292024907960777 3.218207207219860 1.748606095289484 -1.798989369076828 0.1701428149657992 -2.079326284983035 
0.8173125664299020 -0.1708858705740944 0.3615828443247273 2.015163987880607 -0.8939500753779288 -1.190172458597539 -0.9390509940856531 
-0.5353709365465820 -4.675477438514615 1.076017698830512 2.546095404273626 0.7146112057036569 1.205686971579332 -0.3315629053259287 
0.9935996776997114 1.038253466951465 -0.2846487456571865 -0.8633053820532620 -0.7664998459937279 -0.3845666257574721 0.2671674548104852 
-0.002036621579556277 1.230450443060322 1.093151006575818 -2.683050368750571 -1.094596927403263 1.451124779799255 0.004957688298001263 
0.1256413299111482 4.449790716881328 -1.639878856377995 -0.7301899917390737 -1.557537414160218 -1.175804286822550 0.5279785023073275 
0.3045167770097148 1.385901006786689 -1.015803203391811 1.111427371993702 -1.248647474689763 -0.8666408009943694 0.3292463232858274 
-1.430309736558077 0.3656299164378775 -0.7992910857709045 1.284621927008387 -1.155217486774981 -0.9076370598680525 2.642203525525735 
0.1466097388278365 -1.750148200578958 1.073924838829480 -1.270219105943903 1.615716363207971 -0.5897182555470503 0.7738346212046114 
-0.8322377506553666 1.019085970572748 2.116907741029619 -0.7905886206183581 -1.226524845292855 0.5332652326349934 -0.8199077276707880 
-0.6213977855300005 1.335179439686527 -0.6375726025212098 0.6765229285631055 0.08511803665757510 -1.340178839432460 0.5023288225764724 
-0.1280698947752949 2.149486342314934 0.9578627444052531 -0.4254935108118498 -0.02260807512862601 -1.971707937075690 -0.5594696689287343 
0.6793572687578773 0.9131120915962934 -1.466620050687640 -0.3948077369856919 0.3336494654995981 0.7919083583222336 -0.8565993965026678 
-0.1826100633224672 0.1474026852356986 0.2580334448067835 0.4443412022764792 -0.7167556676060066 -0.1477106999858902 0.1972990985953978 
0.1740606250989576 1.008437304163435 0.9371814247203772 -0.8314658900831080 0.1650990650070660 -1.574605285716380 0.1212927568096512 
0.1059029091161580 -0.1182748622489764 2.332547410752587 0.7117485057811338 -1.884096639532223 -0.5375697137253784 -0.6102576101432998 
-1.111483201806946 -1.662012667971088 0.01464900375628430 0.1433198555904833 1.260527918847187 2.033341106469838 -0.6783420148857362 
-0.5354910030959515 -1.315255587296652 1.993088234963775 0.1651997469147913 -0.3923681039674568 0.4308317620846948 -0.3460050496032060 
0.5165545212466088 1.903958910774088 -1.375759424087361 -1.246882971448009 2.542189056005350 -2.498299556798169 0.1582394643074778 
0.5733654472312170 -2.231648210192200 0.08635975801426380 -1.140017036082038 1.037403009941234 0.7177411447033321 0.9567958863841851 
-2.248846451974599 -0.1255420242627543 -0.02637085754336865 0.4422402706094433 -0.1488238404274789 2.674709283614457 -0.5673663800157012 
-0.6061380606098910 0.04502596932743654 -1.772179458927891 1.596062041557819 -0.5189811614022210 -0.2402839812031591 1.496494651257913 
-0.08118422798189273 -0.4607889132655219 -0.2112530704063499 0.5887092954899662 0.6665183521124130 -0.1123218494401561 -0.3896795865084541 
0.4548487640146019 0.6454640494239444 1.274998556954039 1.048005058214022 -1.629797783441535 -0.7821411213381021 -1.011377523826963 
0.5155811473673158 -3.457432386948864 -1.770069839258815 1.936289509935278 -0.2901130934769204 3.582817244821457 -0.5170725824394539 
0.2301249789486202 1.040016978213692 -1.036095551109862 1.566010866488419 -1.478726403173326 -0.5749851776132894 0.2536543082457562 
-0.1981072977388487 -0.7654239624257589 -2.589322289262972 0.2618206616415557 -1.019562064936471 3.045045977029020 1.265548975693475 
0.8356760134091641 -2.674014746890493 1.497872293469508 1.477671715391998 -0.6989676337539441 -1.673993946208155 1.235756304581936 
-0.9065441413667934 0.5162280896526011 -0.7856533472529981 0.9350944636785723 -0.9457992248834470 -0.4821240349767394 1.668798195148816 
-2.221814633866393 0.2193080918902159 -0.5815999247481625 1.016560663438295 0.9382391244635950 0.9704172165023631 -0.3411105376799202 
-0.4519896841129649 -0.008231826761294888 0.1054777230285787 0.1805750099245936 0.1739939719405256 1.844929668539199 -1.844754862558628 
0.7889413413676455 -1.385288499243368 0.4426922768069306 -0.07064480529262562 2.492153044849168 -1.612262947433336 -0.6555904110543971 
0.9478427219633542 1.537280445495017 0.03767075192199194 0.2441862384570017 0.2728698928560149 -2.480824860805961 -0.5590251898873910 
1.881314168045381 -2.235370599087984 -0.2692522943145793 -0.3081522571966391 -0.9851513689916416 1.941430978492229 -0.02481862694676935 
0.5142123693848708 0.8235396291820275 -0.1226539239058869 -0.8686797788703955 -1.660369645165643 1.592526479008050 -0.2785751296330144 
0.7523706294035065 0.3199626195989471 0.7269317443550687 -1.198417577340343 1.590654388434235 -2.274671547199876 0.08316974274847248 
0.6299147439634962 0.7411991427349269 1.266293941781129 -0.1670004043187665 -0.9196747599914296 -1.238109981153911 -0.3126226830154410 
0.2642483780120746 -1.757083285527144 -0.1204976895392735 1.375635150402549 -0.9483302509383976 -0.6989498749420250 1.884977572532210 
-0.5671615908775153 -2.422758971652105 -1.374898548659218 0.7471275546069484 2.222289421657795 -0.6405736429004020 2.035975777824500 
1.602921023627037 -2.272644126319529 -0.01166851381289820 -0.6980544737939565 1.009066176270411 0.9929332474614392 -0.6225533334324921 
-0.2287449958021078 -1.099045679990027 1.942405273631859 0.05313176815878946 -0.3635124215643091 -0.3676124808069097 0.06337853637269861 
-0.7016924622632051 0.6877592810878175 1.015245796089291 0.9632021644504833 -0.1964679138857668 -2.243794595992450 0.4757477305138303 
1.762930233433726 -2.460946145386387 2.149269661735653 1.066960781573465 -0.1326041436409787 -0.4863123346218781 -1.899298053093609 
0.1408795293420570 0.09057514446065892 1.143304785058515 -0.8407722930470877 -0.4027098944800866 -0.6844914101793887 0.5532141388453400 
0.3634259547510536 -1.136353544338579 1.282422235473213 0.9048257176943092 -0.1547663841438028 -0.2513168875749822 -1.008237091861204 
0.05010092882854094 1.471143671041556 -0.6244421851219629 -0.6562218071677698 0.2996617879018178 -0.2404667657070660 -0.2997756297751106 
1.524792203517990 -2.195352732395124 1.496785849274684 -1.295576435740897 -0.6941639107260413 0.1133080337200105 1.050206992349379 
0.7472033790644635 -2.453677813886982 1.102366365440842 1.096624280362942 -0.9388512961640703 1.072701510714015 -0.6263664255312240 
-0.9042434665075407 -0.9005808711645527 2.002959771328694 -0.03713709739000742 0.9868900783452969 -0.6205532470701509 -0.5273351675417440 
0.8458034783185528 -1.090263029668687 2.335624373945374 0.1699101267713101 -0.8004062796643270 -2.182706898609819 0.7220382289075704 
0.6967085206690665 -1.895683865648060 -0.06289884969742707 1.918954015562799 -2.509550767419532 0.5240643248304467 1.328406621702693 
0.5638396966709117 -2.153860417330789 0.04304213657341378 0.9400481399727519 -0.1200399577029411 1.982905771984710 -1.255935370168064 
2.155440837115889 0.7559702437873032 -0.2414919981317037 -0.4409076652058129 -1.503543157451176 -0.9481176070407897 0.2226493469263053 
1.125166971843352 0.5346408558585716 -1.056030288427594 -2.123052092769924 -0.1353541839558206 -0.5398597237094703 2.194488461160886 
-1.154738603213273 2.129123717247281 -0.4082541601628512 1.461440696910360 -0.3387323294224259 -0.006818669058063367 -1.682020652301063 
-1.149986969885749 -1.142069024693250 1.340195966083398 0.8105868470840623 -0.1735413787296941 0.4395121853528038 -0.1246976252115611 
0.02832767177664613 -0.3125394552839678 1.818172233050734 -0.7267438480683677 1.203432448156815 0.05839988705838225 -2.069048936690272 
-0.5652545147607796 -1.927219060647717 0.3283125022287046 1.663513815390254 -0.8203945840492054 0.8288712814386767 0.4921705604000687 
0.8876243703290180 -1.348292144311757 -1.065272406872199 1.026382638607990 0.5936477700459079 -0.1156587518807466 0.02156852408178658 
0.3189079638935305 0.4105764174992839 -1.411718451111147 2.308287929231617 -0.9926534903158414 -0.2462896326264840 -0.3871107365709565 
1.292611201142291 0.4528946779021597 -1.482047065486530 -1.126239503896851 2.273190366923321 -0.1356702582452981 -1.274739418339103 
-0.3078979578871894 -1.338955739202067 -1.604718898400327 1.627372583506708 0.4938748777924686 0.07091957637887931 1.059405557811538 
1.909001764099760 -1.348446652438509 0.09276259715651111 0.9044088405167623 0.5402143194194639 -0.5333382584624666 -1.564602610291519 
-1.351151896541592 -1.563739406997784 0.07487902714460026 0.8271580796895763 -1.296695717031237 2.428631572231913 0.8809183415045055 
0.8714324750771553 -2.637925470105658 0.3546189643074666 -0.5173390214620676 0.5876420520410162 1.958483532049412 -0.6169125319073303 
-0.2121512997097617 -0.1478152991231191 -0.06454459763978280 -0.5612780041240096 0.4603916257033757 -1.781100431212604 2.306498006105897 
-0.6506195536505528 -0.1499982620583692 -1.114621094109929 1.856316294367746 0.5424781409007315 -1.196150939078757 0.7125954136291430 
-1.084868115983951 5.448989391894015 -1.628233239600345 0.6752404272748889 -0.4962418273744902 -0.9747941198214144 -1.940092516388704 
2.118369885343203 -1.258611522830781 -0.8421679886631970 0.01517805283633874 1.166960562866670 -1.439844054096083 0.2401150645438385 
-0.5033526443300961 2.050724072480512 -0.7467439890837237 1.723654184974793 -0.2444876544601413 -0.8484314154922983 -1.431362554089043 
-1.132525912409880 -1.421410935192887 0.6750597798433063 -1.085534557605406 -0.7268045114104064 0.9187738946970795 2.772442242078176 
-0.7323797994558667 5.334318694539105 -2.072974423958709 -2.429229856995056 -0.2422335041234299 1.607184213736490 -1.464685323742574 
-0.5754601007846408 4.853248163192857 0.4971314593510119 -3.165839858700482 -1.321460735167450 -1.222454555365250 0.9348356274739292 
-0.9838841155045219 -0.1852970316039315 -1.351227421224790 0.4198828783430614 0.2292101947653618 0.4795058308798441 1.391809664344978 
-0.4600403685347269 -0.08046906303376349 -0.9103677689368112 1.828058721705494 1.005381458087984 -0.3795481015506820 -1.003014877737497 
1.006291301113579 0.06327248171690020 0.2770407619216009 0.7896677371290270 -0.1296352860409024 -1.585006494281974 -0.4216305015582165 
1.768377843680076 2.521173042009418 -0.05508921634910726 -0.7879604077375545 -1.757075905557688 -1.213293508628536 -0.4761318474166007 
0.1493534422769503 -2.038704409961587 -0.6934849271729441 -2.508067155457934 2.603764434396863 2.272909029992538 0.2142295859260996 
-2.040928449975869 -0.06207755642266371 0.9387274334091380 2.961785041169096 -2.214324544485243 0.5358329741506507 -0.1190148978450799 
