solver_type MCSVM_CS
nr_class 7
label 2 0 5 6 4 3 1
nr_feature 199
bias 0.000000000000000
w
-1.109335505234478 0.7730811930925420 1.568638893642974 1.102453600021256 -1.724961155635755 -0.7993127051632142 0.1894356792766880 
0.6868361236266999 0.4272157429910076 0.1515880879709642 -0.9783962324088094 -0.4459210853863944 -0.1582563918295470 0.3169337550360808 
0.3161163976331415 -0.7409267304164159 -0.1540563886502355 -0.4140712638022012 1.233653242625875 0.4057422992497585 -0.6464575566399346 
-0.7872175027620614 1.570871864111598 3.130631500981441 -0.01896970015261787 -1.856413484668890 -2.571623353740826 0.5327206762313651 
0.2187054639006429 0.6409006617335835 1.944032485919886 -1.685468599864416 -0.3909204074687322 -0.6629512669296069 -0.06429833729135358 
0.7267029113311706 -3.410313326256999 0.8746932313673326 0.6624046602835498 0.1446040046489181 -0.5789716657445712 1.580880184370590 
0.1146593066701622 -0.7148050081927964 0.5188097580699458 2.604461070867316 -1.216764955057292 -1.409628587524858 0.1032684151675142 
-0.004223223662223538 -0.8760343328756521 0.9916006432140474 0.4191754308181747 0.6916274689900235 -0.1433088844179422 -1.078837102066434 
-2.420046803499562 0.4902671724737267 -0.3144132199409286 -0.6548801945514690 3.186047086144584 -0.3535020827169890 0.06652804209064252 
1.456361563195430 -2.317087610388309 -2.425160781388996 0.2981361212606668 2.909800777588941 -0.9680490173114360 1.045998947043713 
1.900200397281461 0.3431746475967081 -0.8902413875933740 -0.8453734204013058 0.1300290007427483 -0.3248400167366985 -0.3129492208895447 
-0.3850276824764954 2.836859813607023 1.048829333352282 -0.06060695080736602 -0.9674906253018035 -1.600619792538324 -0.8719440958353173 
0.8457283869927872 0.4935128010211862 2.555242046133858 -1.345714581824795 -1.479783837588248 -1.795948031111768 0.7269632163769746 
-0.3549915806999838 -1.590234179445243 -0.4829027728461113 -0.6518551213043224 1.655180838497603 1.157648267966177 0.2671545478318794 
0.1733441378888130 -1.279845403464630 -0.5159601594866622 1.155365553935770 -0.2676881499045087 1.521403748058951 -0.7866197270277351 
0.4079663520384254 -0.1375158285066391 -1.454242330375080 0.2579669386345020 0.4128202547943403 1.165045250941610 -0.6520406375271590 
1.628368471015655 -0.7443258094316983 -1.278951886908196 1.126103365912969 0.2031820995001560 -0.5635412465267920 -0.3708349935620954 
1.852575047815685 0.2530462342151774 0.8192599166709167 -1.969628216099138 -1.404888014477047 -0.3856209904199267 0.8352560222943348 
1.206378838200399 -0.3108745252572211 -2.850981916090029 3.022257452517329 -2.429801292849859 -0.7433480856227269 2.106369529102125 
1.723520470152258 1.762617051843455 -0.3217680914321173 -1.212676732306093 -0.3299533345146949 -0.8856344017659358 -0.7361049619768851 
-0.5928113516499844 -1.315641959467599 1.743628669230809 0.3770103644941631 0.7718774381427964 -0.08710360684630625 -0.8969595539038787 
-1.166966501335863 -0.8322736331569245 2.390002818291841 -1.837501204309915 -0.9592631914015093 1.049113128148213 1.356888583764169 
-1.018087069357688 0.3480277330122268 0.1635617179022200 -0.1885690194763588 0.7343163336604586 -1.415781573885586 1.376531878144722 
0.3040066016178344 0.2608624154906928 -0.001395274958649544 0.7693685609715105 -0.01000215004233800 -0.2200112233125579 -1.102828929766483 
0.8306444546772653 2.236709951408908 0.7692391566334028 0.2553300011861018 -0.3083836247914072 -2.280503068768081 -1.503036870346183 
1.003102581168029 -2.310576038458654 1.349826362351910 0.8457543818828758 -1.983785813485423 1.632393561728972 -0.5367150351877126 
-1.990077553262852 -1.246940265214011 0.8059363285551120 -0.6958774284621678 1.207700414071434 -0.3570323149384324 2.276290819250906 
-0.7375153315845737 0.3294342526817597 -1.051272126973239 -1.357996517040026 0.6379336535841591 1.481404559615977 0.6980115097159335 
0.2425710481756067 -1.323953585368086 1.445574110131615 -0.8714531381501261 0.5131803885991837 1.617548425635762 -1.623467249023946 
-0.9406486934038868 -0.1256208731383693 -0.7547621388413028 1.222408770354950 -0.8257627341228957 1.344937605724458 0.07944806342705338 
-0.3301628413304208 2.154709720939491 -0.6424370477784691 1.575644364305117 0.9931505304882462 -1.265448299948832 -2.485456426675126 
0.4441862811138958 -3.833476919779876 -0.07558258955915866 0.6582576766959719 1.687742434527742 0.8755601353883975 0.2433129816130334 
0.4909768155324857 -0.6035967790267693 2.010559530233106 -2.752895006447399 -0.7243588674795190 0.4435802500106006 1.135734057177506 
1.263121375807076 1.035556857612483 -0.6071913297023743 -0.6238326838904020 1.218238219200281 -0.5154505401774502 -1.770441898849609 
-0.5906347364878220 2.710142418166501 -0.8619567513196420 -2.161597533788389 0.6803805766758768 -0.2023498560016667 0.4260158827551488 
-0.4022404507120480 1.594349682149026 1.580380008214525 -2.219695860455151 0.3637982276183948 -0.3886348213733181 -0.5279567854414515 
-1.662314759460382 1.161684133857410 -0.4060843820123872 -0.5540912291467583 1.147854594081355 -0.2651933147426038 0.5781449574233705 
-1.717679366131827 -0.5376617358086181 1.167903495006546 -0.1418035519973406 2.181021673273366 -0.1149469942617763 -0.8368335200803504 
0.3996236318463901 2.589050361594989 1.064274444175816 -1.571966191903320 -0.5844217654947244 -1.809633429639162 -0.08692705057998777 
-1.934964831280250 1.173036128700604 -0.08340594164283445 -0.7817734241349759 1.789992591881343 0.3828181619640746 -0.5457026854879468 
1.349424003923586 -0.9195948424237210 0.9592938253882204 0.5624293274824911 -0.4812691581081804 -1.546839106013252 0.07655594975083993 
-1.519390479639249 0.9044196960339246 1.374140543951695 0.9057460856514932 0.3520677745398788 -0.8714485437602805 -1.145535076777428 
-0.1645694133781390 0.03138278334973362 1.172107553703342 -0.5790304894081991 -1.233994644029942 0.0004577860411844630 0.7736464237220156 
0.7084669220852856 -2.465367748681137 0.3202845272080288 -0.3913981399392414 -0.5340662775754135 0.5861063651303239 1.775974351772159 
1.129687268958231 -1.904797271581694 -0.8011552475569215 1.445187206945770 0.9667470202921405 -0.3814716606135554 -0.4541973164439684 
1.863020322156078 -0.8090696147880719 -2.472735157891351 0.06349931264582506 0.6977420225279573 -0.5389005998713412 1.196443715220916 
-0.7953246980555677 -3.120724760162484 2.548004482438363 -0.2097735069426403 1.420966200481484 -0.2211982316889150 0.3780505139297583 
0.5285855336015256 0.6211996736535104 0.9268753108362535 -2.272723891022489 -0.08982977061706171 0.5482972479792748 -0.2624041044310257 
-2.597065686652530 0.2774626883645047 0.4329264027605361 -0.8103745665734641 2.954707199983346 -0.03226412428166174 -0.2253919136007331 
0.5480258672075009 -0.7512585812905647 -0.2258222152053724 -0.1837261478014570 -1.065663294378523 1.438054908783991 0.2403894626844175 
-1.560611590217341 -2.000726003250462 1.804117463933751 -0.06361808851506053 2.183428498688784 0.6293514688196625 -0.9919417494593480 
-1.337495988696621 1.519023728474716 2.956467452505989 -1.965712974836819 -1.359966629319061 0.4066895696469909 -0.2190051577751869 
1.489298124875033 -1.693584345722059 1.546889724989661 -1.741095547903151 0.3700666202240263 0.4124395450587154 -0.3840141215222231 
-0.7727395546911032 0.4854588678856832 0.09153002294213787 -0.5017937150551685 1.979106931013187 -2.191583587129836 0.9100210350351016 
-1.836260766781640 -1.264673410483483 -1.462693417984847 1.285012761041989 0.9736788553744363 3.255083414764401 -0.9501474359308607 
1.263290531147291 -2.169085961236520 0.9530526898151057 -0.3379182278494450 -0.1030322653692166 -0.03439459009376206 0.4280878235865456 
0.2730550958718886 1.952165212239177 -2.765651332480930 -0.4440268567814662 1.091075213010592 0.3868778720547176 -0.4934952039139793 
0.1189899913139387 0.6745891836856543 -1.517538672712532 -0.6832384823532712 0.4927555280015487 2.285075242545918 -1.370632790481269 
1.640494354766505 -1.593556196246167 0.03677299508494340 -0.4733372404019293 1.404322380964437 -0.7080444234896223 -0.3066518706781563 
0.05349823609386278 -0.7029128463658773 1.738410592320896 0.2670636156097144 -2.253665846490409 1.316404009154910 -0.4187977603230995 
0.3794498456162944 -0.6762358417904696 1.775410820355894 0.2623788943360675 -0.8367029151152480 0.03342492948016820 -0.9377257328827115 
0.8707218469949558 -0.02100122379272334 0.8612739619185000 0.3465852135382435 -2.299705725073997 -0.6876782164063691 0.9298041428213885 
-0.1437897182000914 2.467571377543187 -1.595819263242983 -2.307165961304134 -0.08064290585787036 1.608524708878519 0.05132176218334644 
1.231214925193492 -1.067244524458900 -0.2606224898729786 0.5014813337077678 0.4934828745405249 -1.374867491526546 0.4765553724166311 
-1.154823160631753 1.040421475432493 0.2021088130665937 -1.438332066530070 -2.046496411164085 2.919047438916927 0.4780739109098813 
0.3412526806087931 -3.129070372733261 2.459066693225671 -1.850638805986584 0.4992030434600278 0.9524870060624626 0.7276997553628981 
-0.8522162972246914 -0.9530473549919212 1.201469431965932 -0.5005002567990455 0.3366524241622919 0.7472272408377608 0.02041481204967912 
2.103428811054884 1.582670640706485 -0.4713381787111345 -1.049111369129129 -0.2087301406724904 -1.286732490546160 -0.6701872727024355 
-1.496047809352761 1.812395569766592 -1.925726636496000 1.698019943051487 0.8128861623757918 -0.7993842890007918 -0.1021429403443211 
-2.428012719483531 2.127772425353189 -0.8821876524894858 0.7829562989961218 -1.368068782862187 -0.003452418000944692 1.770992848486842 
-2.183368310234374 0.1406562245188774 1.861257325720825 1.764785255064747 -1.083949182290283 0.5846679814928750 -1.084049294272679 
-0.5655143651868030 0.9958020300130360 0.6806706441544527 -0.1425511323989040 -0.8047591732335480 0.5170891296548510 -0.6807371330030826 
-0.5624399424244975 -1.319595706015739 0.7001596653390268 -0.5252830952160009 2.151401830195818 0.8079856608552810 -1.252228412733903 
-0.2098487104438223 -1.043337152459079 -0.5026294016216811 -0.1845344935562014 0.2189194932146658 0.5818614406235829 1.139568824242536 
-0.5231024574011180 0.7453469464099405 0.09171670732042495 -0.8076427352940229 0.4634034004853621 -0.3366945401960798 0.3669726786754881 
-0.4499299269857875 -4.698164039442657 2.425105856600037 0.2723843676987718 0.7379932888976691 1.433511408504301 0.2790990447276525 
1.970250284467537 0.1732702074809694 -1.450400125948661 -1.135425614368542 -1.128189828621516 1.019257030003326 0.5512380469868824 
1.353718056950374 0.5396763186592479 -0.02514580545876360 0.3209656771756704 -0.2237045018821999 -0.8150912307383977 -1.150418514705938 
-0.09862751205639463 0.04913433966124236 1.361274046022285 0.9230231118668721 -1.027510675624146 -1.479859472140293 0.2725661622704283 
0.06883533842537340 -0.5834188387237137 -0.8622304646397540 -0.6153780214124703 1.244872700300658 0.1533887455670601 0.5939305404828518 
0.08445038168527606 1.659912009263395 1.973245818155502 -1.208978439036402 -0.8899286034576835 -1.856604181895785 0.2379030152857062 
1.084853274901239 -4.168399647008322 -0.4934143897387930 0.4043901169214398 -0.07985448472689166 3.146990609766751 0.1054345198845868 
0.6088626519749973 0.2589060211638585 0.5257950077384922 -3.003531739401057 1.951836016166488 0.3015616389220772 -0.6434295965648631 
0.7774368833091181 -1.779541359027520 0.2203678426123422 0.6818342052926300 -0.4797695138247508 0.1451259685892251 0.4345459730489719 
1.037359178008582 -0.4780956107128004 1.098727525179014 -0.7915782127777273 -0.5034727250016828 -0.5229948353601895 0.1600546806648002 
0.8073637607309196 -2.520152602944536 0.3116391941162530 -0.1580015187061925 0.7346576413458012 1.111152416733001 -0.2866588912752720 
-0.2333060225693845 0.8129873796154292 2.207477238305510 0.6049344356236138 0.2106178993231407 -2.815177919765225 -0.7875330105331015 
0.4794392791590135 -2.110121149356630 0.7590260439284844 0.4516687367390301 1.451682203576017 -0.7357978199396022 -0.2958972941063113 
-1.321575159088555 -1.249800814507956 -0.1717481880884302 0.6953559307720585 1.078121786876422 -0.8912897912362817 1.860936235272743 
0.7912176533081844 0.7338973270406991 -0.4574463391899470 0.4281870565166343 0.4322609164851143 -0.6181153672490950 -1.310001246911591 
1.488322387948087 -1.003051246042036 0.4199346680607368 0.2334206353310503 0.1508505633543060 -0.5346210598320681 -0.7548559488200693 
-2.220847686707576 2.584764837575809 0.7110753982921244 0.8743329183358144 -1.072373929170783 -0.6984917615908194 -0.1784597767345891 
1.229529317576047 -1.223099231549585 0.2404163617404465 0.09330803982772172 1.797562784574491 -1.610417254287316 -0.5273000178818038 
2.661999119317901 -3.170576079553807 1.321213667448685 -0.5037775240833663 -1.023699828577499 -0.9524868639788341 1.667327509426914 
-0.9139168105031609 0.3190572644322027 -0.7041143517400470 -0.8110899184460877 0.9580457071990879 0.6716488891239536 0.4803692199340575 
-0.09316088961794326 0.8211851190787878 0.1972097004874035 -1.451750531226821 0.1691884601120119 -0.9959495547444903 1.353277695911037 
1.438973470147553 1.500729092336169 0.6646236327563912 -0.9153550659554112 -0.2405714823450697 -1.179641429875332 -1.268758217064285 
-1.008365691474579 -0.08806969722553527 2.196997054611526 0.4806170525139299 -0.8970383228459101 -0.2136097394245702 -0.4705306561548710 
-2.485816984584575 1.122562782879431 1.399436183432988 -0.6201230757835627 -0.01754334586106634 1.199988807834703 -0.5985043679179111 
-0.5129206603212723 0.3705473253830288 0.5007336970223658 2.030267099073785 0.7942822566155808 -1.922522716578544 -1.260387001194920 
0.2632953330628919 1.423840509777273 -0.3434821136215231 -2.047731290706972 -0.1985476800140484 0.4739929273656202 0.4286323141367504 
0.6079463400003875 0.9907669952424256 -1.134056080170223 -1.099943390992304 -0.2385569242675155 0.5043172349510884 0.3695258252361252 
-0.5678496241853764 0.6620878565426938 -1.896537675667044 0.7582314807039159 -1.407208005780956 1.975625273821820 0.4756506945649631 
2.004568538774443 -0.9228769805682403 0.5186603282856237 -0.8178767535446021 -1.184101344575627 1.564774486955990 -1.163148275327604 
1.997509961836496 -1.067470238936147 -1.821217880865201 -2.682082156217346 1.127774394921119 1.280870642257693 1.164615277003396 
1.336662268548976 -1.558686824205894 0.7346136436847134 -1.283601301628608 -0.2723463518124305 -0.05588425232184494 1.099242817735087 
0.5084766100722365 -2.226553516512698 0.1983661197069043 1.081126108153600 0.5135406386304745 0.05460116874956675 -0.1295571288000905 
-1.729834982265972 1.321781402706915 -1.451163062069699 1.424061458517101 0.3129012170780604 0.3062869880941691 -0.1840330220605874 
0.04003452922569709 -1.320950952286595 1.360808928954058 -0.2759388183987696 0.4442493091284410 -0.2841820468490089 0.03597905022617580 
-0.4294701036547817 0.5073054302205454 0.7909077964945052 0.5456956486844085 1.465219299509356 -1.669050993871162 -1.210607077382878 
0.5333327459377366 -1.218596197761247 -1.126919711869527 -0.3341170366459955 1.219629659052602 -0.5790556381868753 1.505726179473289 
0.01288427174255621 3.457555849177964 -2.925435282137848 -1.472499972170426 0.1457768295118781 1.256097645274940 -0.4743793413990498 
1.411677412117767 1.050249151211414 -1.273152887560895 -1.854961105614611 0.3799855580689104 -0.7411791479488790 1.027381019726295 
2.216499129247420 -0.3262461520870291 -2.026491615455653 -0.1406934008001378 1.002476979329943 -0.9406190313560739 0.2150740911215252 
-0.3841782037233325 -3.966540276610648 2.465658777467211 0.7848941423637569 -0.8397003147213892 2.713642154681919 -0.7737762794574857 
-1.176629295729196 -1.271367962232103 1.968247452167069 0.3374629121414068 1.448846134988864 -1.532728063738719 0.2261688224026807 
-1.735925482222738 1.608317204943336 -0.07822439053102377 2.192731040633360 -0.5827356268537061 -1.193905034276448 -0.2102577116927859 
-0.09530424588451702 1.252480573261250 -0.3309758614486364 0.3788183648373502 0.5112057022344044 -0.4637371424954842 -1.252487390504365 
1.004781138880472 -0.7420666193499929 -0.3655744403864567 -0.8688416973890465 -0.1606884306910187 1.269577955307701 -0.1371879063716464 
2.162747250616176 -0.9132758378309799 1.216983601098246 -0.5181705419129157 -0.3012563998820950 -2.684023040691944 1.036994968603501 
-0.5181626654216787 0.9702880484243045 -0.8113160639328574 1.465751446202318 0.3466261617638884 -1.153119986280311 -0.3000669407556598 
-1.150003915462101 0.3370899201376488 1.437705145090169 -1.436591831568493 2.725143361030588 -0.2624741034279889 -1.650868575799819 
0.7106003765556417 -0.4769636253815116 2.110647820122827 -1.129164186356299 0.8709714500793216 -1.372866052528130 -0.7132257824918519 
-0.9073266219482542 -3.055006821220992 2.584320390029765 0.9006801113881758 0.7547196331909543 -0.006436583937451379 -0.2709501075022174 
0.7266365589059670 1.130597967847696 -0.9110313557848688 -0.9783887653894238 0.006354355405325064 -0.1314996871749835 0.1573309261902962 
0.6441555815674485 0.9800667999908294 -2.693891414904937 -1.200934925356918 0.5946441895248186 2.177175995904721 -0.5012162267259753 
-0.02043852049041557 3.869700246291157 -1.088525512184502 -0.8223291052720614 -1.241026741844425 -1.164366126802353 0.4669857603026119 
0.5597237968579090 -0.2991461130125512 0.9378021696990998 -0.5044203586205437 -0.3911627890087731 -0.3469644393917615 0.04416773347661820 
-0.9685389676544004 -0.08241438263310429 1.476252192771500 -1.531507150637531 -0.5274424030468940 -0.7745696252858679 2.408220336486279 
0.3146533184355826 -2.379624837044155 -1.279342131337327 1.200853482775989 1.381588695389299 -0.4731158420330126 1.234987313813636 
-0.3349273353992362 1.119537517015449 -1.049997715105906 -0.8321055725510772 1.437540472486580 0.4174273059183241 -0.7574746723641472 
-0.3987048116177900 0.005753004821857669 0.5756363160609702 -0.01578931744033875 -0.3506332278837857 -0.8168734323874193 1.000611468446503 
0.2388128267072507 0.9981083190122708 -0.7224465546758570 0.4251672653144988 0.7531586835356874 -1.637397062498039 -0.05540347739582726 
0.9183488838927607 0.5494406745221552 -0.6288109163865976 0.6528986556155916 -1.179236582501030 0.9007875324229452 -1.213428247565828 
-0.2623214445487844 0.8765480718757348 -0.008317499992062223 -0.1916651457345278 0.3125187343192941 -0.8209195700957105 0.09415685417605194 
0.1642639969209433 0.9708150211624205 -0.8918520150879835 -0.1234620513855115 1.031639234927191 -1.207248280949457 0.05584409441240171 
0.4664844283931697 -1.378786263106924 0.8995367081795194 -1.769569393285304 1.722033532504122 -0.1675018012446221 0.2278027885600405 
-0.6398920105556359 -1.604266794628371 -0.06578749519686650 1.037273575749672 0.1715429563074468 1.435980008547603 -0.3348502402238554 
-0.5936774057816842 -1.453203155012239 0.06538895052103684 0.1310912236894282 1.979499169704519 0.1236620264514250 -0.2527608095724822 
0.7785721448425139 1.108101706373338 -1.614934212627185 2.446555515472894 -0.8815125637688930 -2.269412494378196 0.4326299040855298 
0.4740711130527121 -2.141375737563890 -1.322592394057549 1.180953566927638 -0.2266878593500672 1.180590987072916 0.8550403239182238 
-1.957821768113373 -1.185098157104686 0.6952321911571964 0.4003747326313996 0.5021236396472318 2.353436530597489 -0.8082471688152415 
-0.1288403624555367 -0.7855877087900740 1.308847914650785 -0.09412062201616325 -0.9868038410718470 -0.8978920914600717 1.584396711142923 
0.3017030604611340 -0.05879259457234678 0.2962038801388228 0.6077239788489522 -0.4649932678363377 -0.5449890611116484 -0.1368559959285771 
0.1331034467379029 1.389475688729754 1.191354353135626 -1.456651856782851 0.7525901017345097 -0.8415823040069058 -1.168289429548039 
0.5910848749642483 -3.492949673314118 2.525831741108578 0.1893807873035729 -1.739878724216198 3.086952384351773 -1.160421390197858 
0.1780530599379250 1.798586289402507 0.9905702688401870 -1.045605398330511 -1.641297194841796 -0.6626723568251673 0.3823653318168404 
-0.1832070885482516 -0.3008237853966498 0.4173409063501948 -0.9890460151728204 -2.140468083266802 2.430730766430965 0.7654732996033738 
0.2782135623643385 -1.839414007623329 0.8389672861071797 0.2135322314108802 1.315891541071362 -1.675642106305616 0.8684514929751784 
-0.6948068876974369 0.3874674464176693 0.9330456283694929 -0.8017197183516341 -0.4909329044824426 -0.7933653648885022 1.460311800632865 
-2.263400723289753 0.6914616925706942 0.8661543128024893 0.3722029113528698 -0.07141061774743662 0.3976880642192692 0.007304360091871285 
-0.7005452669183820 -0.4287740601664715 0.3625280554956801 0.3543128506875479 0.03554758697016955 1.787696448392616 -1.410765614461163 
0.7245948360560010 -0.5025727952392958 -0.4216749705619500 2.218964777078388 0.3633187642588213 -1.677706903318591 -0.7049237082733695 
0.6798885748072631 1.715701139929542 -0.1377696388250712 0.3544090617548588 0.3810420056314914 -2.394311138289295 -0.5989600050087873 
2.004460115403284 -2.419190821704417 -0.1998735461222032 -0.8080955845077746 -0.08427441914953977 1.338578262201841 0.1683959938788066 
0.9790658537750357 0.1362498379397954 -0.5756287210060023 -1.629377708008330 -0.5434475757763373 1.530167188648899 0.1029711244269322 
0.2588387415323636 1.489224827059128 -0.7285794788136367 1.347369977901619 0.3817379676075491 -2.942225124467330 0.1936330891803029 
0.8308518573021039 0.2863386716970230 -0.3562770789065282 -1.135900328462479 1.488472892705814 -0.8368382079199395 -0.2766478064160022 
0.1436554257481739 -1.801321729023345 1.145096122330486 -0.7176654262288704 0.4772010000789034 -1.191933289400310 1.944967896494944 
-0.5336496675966266 -2.542011133089188 0.7694419723543430 2.663565538940585 -1.397913630024989 -0.6934748172122565 1.734041736628142 
1.397260958887370 -1.809158908773539 -0.02597385369149504 0.4739056774838262 -0.04649271529136258 0.6811672918550508 -0.6707084504698368 
-0.5132531405231203 -0.8842829752295942 -0.3005202636095474 -0.3347818972324733 1.691830464321932 0.2650237483340906 0.07598406393870666 
-0.7392066919611219 0.7487830655220940 0.6760339396700366 -0.002264183155218274 0.8699634297571709 -1.859676940627542 0.3063673807945813 
1.318970783150234 -1.304283444297906 0.8162253377384857 0.1662869347999713 1.969537115747161 -0.8926496959343831 -2.074087031203579 
0.5365014581964724 0.1560821532795515 -1.711830184754595 -0.3064668628304122 1.423972288881186 -0.8046541176860482 0.7063952649138507 
0.5800829157630722 -0.7950797512621947 0.7754533260149882 0.07372978280590933 1.273591649197793 -0.8587366585960993 -1.049041263923478 
0.5389249755471659 1.234500280752729 -0.9828574466211040 0.04222814588040067 -0.8305439488728986 -0.01081846181544448 0.008566455129154820 
1.596543992518335 -2.162618504513721 -1.100864927627705 -0.5150734719827870 1.208160731760412 -0.1156904561244355 1.089542635969891 
0.8552730763851653 -2.717176338765379 1.202418560632184 -0.7043184520403856 0.9019062602196153 0.8099597097800250 -0.3480628162112256 
0.08985766036199598 -1.845600947362991 -0.1310873793903533 0.9755473650826167 1.512031675646824 -0.1791789922817375 -0.4215693820563650 
0.9822969090909272 -1.380855725714141 -0.6447487283642396 -0.6116688869182450 2.360617961565170 -1.183402622872897 0.4777610932134245 
0.6708721255753249 -2.480236939049763 2.138980351972774 -1.537375798456557 -0.3875630583166137 0.3065910257111694 1.288732292563685 
0.7966143044331648 -1.381252137564486 0.8541219557703501 -0.09343663524125688 -0.2862324842256797 1.536684512612509 -1.426499515784605 
1.957401687076968 0.7009154386973416 0.4129170845311601 -1.904762449240882 -0.1895096924037914 -1.059683085847949 0.08272101718715834 
1.368624678220921 -0.1793817908663720 -1.914005124510599 0.03550663956172231 -1.278250930559509 -0.1006974676888457 2.068203995842702 
-0.9937257911901206 2.414190411898238 1.367335113249911 -0.8005525347983210 -0.3040716940778546 -0.06314194775803304 -1.620033557323821 
-0.8269624346316309 -1.771872352775849 1.011589367149364 -0.4069414566668426 1.240415482350725 0.8332155342079846 -0.07944413963376544 
0.1713605897891102 0.09559264698311310 -0.5063427910421336 1.326276340031645 1.780409682357382 -0.7129500146528281 -2.154346453466279 
-0.1895738497913306 -2.399716015920572 1.993210800891512 -0.5169557016123035 0.2851243840737571 1.075076994458624 -0.2471666120997150 
0.6800738453046195 -1.018670894125655 1.137101573683252 0.3886423492802699 -0.7214287841147529 -0.4349397456556393 -0.03077834437210143 
0.5651002021143683 0.2704775128669216 2.120435601778176 -0.9391599850067981 -1.094982771037961 -0.2704640663545977 -0.6514064943601005 
1.740652498109060 -0.3111070963924045 -0.7813048670998433 1.988661561129842 -1.250851260390930 -0.4288954324025716 -0.9571554029531453 
-0.1610710881050620 -1.186884910479484 1.784487603118087 0.6816615582353480 -1.608498673662608 -0.1737046920705579 0.6640102029642971 
2.115065521206307 -2.075122311982791 0.7307204547970004 1.122896932821903 0.4076126048159037 -0.7421455314376390 -1.559027670220646 
-1.144812017004687 -1.281077369416984 0.7766002958470530 -1.093290591529248 -0.6966477505614821 2.702627752611661 0.7365996800537067 
0.5512225214403339 -1.276968379905543 0.1996852850751333 0.1809683179664681 -0.3116610033597605 1.125750075650865 -0.4689968168674967 
-0.3207954101778198 -0.3361145604559440 -0.3556224788438773 -0.4165051580128165 -0.1184768866365108 -1.162606070505093 2.710120564632053 
-0.7876397868586824 -0.1447475145744961 1.998988846745043 0.4958536206882917 -0.8830117863779137 -1.496322931453453 0.8168795518311992 
-0.8093453863341624 4.764497183672546 0.4454725086483954 -0.8773566758357976 -1.648318022176946 -0.1765830376266076 -1.698366570347422 
1.960518777819879 -0.7437161389509558 -0.4769265794000990 1.013899305646811 -0.7654309510433424 -1.825631594234144 0.8372871801618526 
0.2727754706167679 0.8417168386580006 1.186403983290589 -0.3959618539930827 -0.6039155430314171 -0.4283945796484262 -0.8726243158924295 
-1.138102622585356 -2.140541477817858 -1.173452226074167 -0.05729141057560611 0.2930586218048532 1.133935515465140 3.082393599782996 
-0.4676565891713190 5.027544669246477 -2.622573268875964 -0.5084798702199599 -2.256647311842368 1.519777294064256 -0.6919649232011172 
-0.1901046853357888 3.493225244226850 -2.789936527938343 -1.007834589205379 0.08622896409982575 -0.7363623892456761 1.144783983398505 
-1.167781573685533 0.6090972566829742 -0.1422243845586584 0.6330745136641837 -1.327642839400796 0.7491337819121967 0.6463432453856242 
-0.6754216840990173 -0.8520372609795982 2.057586974475057 0.9632892118078080 -0.2609955844104170 -0.1179741100678717 -1.114447546725954 
1.195359518515778 0.2607961751970974 0.5639222340060204 0.1730976494622753 -0.2191612656350677 -1.371511720453424 -0.6025025910926889 
1.466215623123358 3.235669034476469 -0.8515250045604239 -2.162749318906220 -0.7228712873009916 -0.7057881872235171 -0.2589508596086909 
0.2648632185078803 -2.497467687225749 -2.219826350981601 2.230338135072241 -0.8952309228745179 2.903106991896798 0.2142166156049644 
-2.177681905334329 -0.02033477993091688 2.734300791236531 -0.8430703818528476 0.6594751434154124 0.1829044218570064 -0.5355932893908559 
