solver_type MCSVM_CS
nr_class 7
label 2 0 5 6 4 3 1
nr_feature 199
bias 0.000000000000000
w
-0.5130395540134930 0.7197763918565089 1.394698029674215 1.123059206054560 -2.077534734494569 -0.8764030484188495 0.2294437093416236 
0.5071192172170553 0.01847232433022449 0.1304511994158170 -0.4928498552824477 -0.3554890340657407 0.1427228287303721 0.04957331965472032 
0.5115310867255624 -0.1520987670635919 -0.7428468234764400 -0.1141138733337291 1.034771271623307 0.1377378538867298 -0.6749807483618325 
-0.3645360906799251 1.942645265970084 2.210285320153831 0.02857755586930229 -2.201090587695210 -2.065232627648903 0.4493511640308193 
-0.7489127126279276 1.400435493299661 1.738539230023093 -1.532377643240776 -0.1286702359624506 -0.5445864028875691 -0.1844277286040440 
0.9575602948060200 -3.708954196581919 0.7372301012892963 0.7625023905141738 0.2682718483964688 -0.6476181255146014 1.631007687090564 
-0.06369313242719413 0.3374767137750744 -0.3247289258210243 2.206252369215485 -1.234025181892474 -1.089444976308954 0.1681631334590907 
-0.4198183063140467 -0.5796000912451580 1.055099000108787 0.2021186484256531 0.3546045515602821 0.09538956653065082 -0.7077933690661774 
-1.513626117154802 -0.03020335656401343 -0.09117874237312097 0.08533533447400396 3.095716685586338 -1.464108325264342 -0.08193547870405746 
1.491528288997541 -2.608354088357795 -0.9710060754676837 -0.2356635267229479 2.784331857123683 -1.038257500509596 0.5774210449367928 
0.9860097015111294 0.9892333878333712 -0.5634792913312563 -1.247600476218315 -0.1992203590462758 0.2113380292256143 -0.1762809919742670 
-0.4471639614288785 3.790307418056676 0.7561546070483747 -0.1545865482613347 -1.277946073344329 -1.601177551793870 -1.065587890276636 
-0.3620974960625386 1.309847969037638 2.674886322655270 -1.249321674303710 -1.952142708099084 -0.6857972764637603 0.2646248632361711 
-0.1454973431282465 -1.563437911609454 0.2787732829027355 -1.075740729094290 1.439466761503689 0.4530493206461840 0.6133866187793894 
0.2701721536098857 -1.823128187805550 -0.4477018679242792 0.6214435152030782 0.2086575697885674 1.664325739985075 -0.4937689228567742 
0.1462119485940523 0.4467350691943899 -1.090365066007377 -0.09007195319944090 0.3318916038542557 1.097300404959665 -0.8417020073955520 
0.8736140374338804 -0.9960014482105285 -0.7677239883354076 1.259991253214163 0.2813693716341919 -0.5207099255304473 -0.1305393002058444 
1.770691987567842 -0.1735127726146232 0.7711236465623194 -1.578120965370269 -0.6748868614321357 -1.002717019135877 0.8874219844227439 
1.159264369378924 -0.6509886544036589 -2.730565819253681 2.093694927869472 -1.818769697457341 -0.1608249771852718 2.108189851051554 
1.577563070042347 1.134598833542284 -0.1371875037060440 -1.066792418125791 -0.7442704470593968 -0.5959010801841694 -0.1680104545092317 
-0.5323736493596679 -2.041974679640912 1.327982868845124 0.3606123333881854 0.9838552246903128 0.2286468826386055 -0.3267489805616547 
-1.231506478815698 0.03138657184604186 1.195561030749832 -0.9377453400582687 -1.140983073642194 0.9485688813972496 1.134718408523029 
-0.1839302086939765 -0.9153262160035338 -0.5906222703502622 0.02277292812821864 0.6486096337440351 -0.2099474539294983 1.228443587105016 
0.07438312867415048 1.588190835403022 -0.3877184772435518 0.4895486398862367 -0.3433425187342106 -0.4929789465960932 -0.9280826613895595 
0.5100103990817006 2.611044194582687 0.9839867404174939 0.2773846388485903 -0.4414620923850000 -2.014402306056600 -1.926561574488881 
1.509068310524997 -2.619971083805564 1.586164835943590 0.8176638660854747 -1.883117636605091 0.9364397427665035 -0.3462480349099135 
-1.807766487899437 -0.6774222991807827 0.6380558421495194 0.3517309308457216 0.5315134908301200 -0.7440081997351695 1.707896722990027 
-0.6928715731284928 0.8039964740250705 -1.951264846720812 -0.3474077053861928 0.7092458421163229 0.6726280975906184 0.8056737115034865 
-0.2826994112087327 -0.9404442764819970 0.6967966739651854 -0.5930107526090164 0.4100891768026136 2.028130712839966 -1.318862123308020 
-0.5110232093825107 -0.7646914440872438 -0.7346673164205249 0.1127235031902522 -0.2402562307633083 2.164034907865163 -0.02612021040182441 
0.4739443130820539 1.137632971839255 -0.8455237000719407 1.931436587627151 1.237799025887852 -1.825352656683742 -2.109936541680640 
0.7531673973137921 -2.666054688805491 0.2899236218862473 0.06752435200687495 0.8524254725022237 0.4532894488086801 0.2497243962876917 
-0.5250688195233200 0.9641247877149212 0.5342142800014291 -2.102623942836554 -0.6738098987256936 1.010285665718474 0.7928779276507458 
1.261840636365652 0.6989735129295753 0.1219001773375029 -1.015186616865809 0.7494527102846260 -0.4941333336592683 -1.322847086392273 
-0.7016086656995159 3.913338891932045 -1.293152860963663 -2.180698321658853 0.4557741092721858 -0.6428122375526688 0.4491590846704702 
-0.9511106868739359 1.351232096111721 1.183668947562857 -1.717190665826760 0.6654914569142276 0.5071872180369039 -1.039278365925014 
-1.439191357647488 0.3812163711965805 -0.7611920095661700 -0.01757871767104685 1.162597839020092 0.02031650463057524 0.6538313700374640 
-1.039258189676254 -0.3407211503001859 1.056098455899155 0.2302687659080463 1.760592369044630 -0.5549794011029089 -1.112000849772479 
0.05004223230230970 3.547628131917440 0.7902690452196095 -1.624928503273354 -1.244038041684075 -1.429839926816707 -0.08913293766524746 
-2.006310779433758 -0.3093603022524287 -0.07648140726854323 -0.3187180227148256 2.069804243444562 0.7441655695436170 -0.1030993013185945 
1.547577330659503 -1.369678032402966 1.140964909267022 0.6174706195666924 -0.5533907153569754 -1.682451334311149 0.2995072225778669 
-1.192139942348692 0.02588320501161977 2.164683762865014 1.313371294749040 0.05881764892110620 -1.259024972179542 -1.111590997018535 
-0.07163158173985240 0.4304258721623193 0.5059308672754173 -0.6041707127390309 -1.351001342636960 0.3889978953690588 0.7014490023090469 
-0.01553312619199619 -1.919413805283469 0.9388451875974910 -0.2099782541856197 -0.5675689623522440 0.07503640759410621 1.698612552821732 
0.6766600072439057 -1.277376711935405 -0.05415634143829998 1.272148596610337 0.4702339629709156 -0.8195660598232053 -0.2679434536282453 
1.773739333107808 -1.828683397048077 -1.952507866797208 0.7116022778386757 0.8036399386633928 -0.1648448871387484 0.6570546013741743 
-0.5624367522463997 -3.450591791885673 2.737604311064573 -0.4389462728995878 1.325868799743955 -0.3733921098909361 0.7618938161140597 
1.222168820881403 -0.4208535908210452 0.5904941116120863 -1.211881631595133 -0.3818045739175394 0.2968740625512756 -0.09499719871105039 
-2.487585991548266 -1.153651126490364 0.5193001633393827 -0.8203501740136206 2.597252154050782 1.484267612664799 -0.1392326380027284 
0.6275133586040195 -0.5277804132889208 -0.4231687582048460 0.07129538205739390 -0.9229813002577301 1.053856897795799 0.1212648332942899 
-1.532774997390798 -1.543795132309868 2.032228042423236 0.1742757924284309 1.330983506553401 0.3455980034789162 -0.8065152151833241 
-1.437172064021188 0.9307467973860168 2.475199614931756 -1.063434434466557 -1.130543435896306 0.7115892545530582 -0.4863857324867817 
0.03022786122206558 0.2207951935264793 1.151389219470556 -1.257579435461949 0.5444629370874511 0.1382687591284291 -0.8275645349730260 
-0.3071902825004143 -0.2533477050636271 0.7773514172128305 -0.4543226342138375 1.354069281251390 -2.106095562495021 0.9895354858086653 
-1.798930848064895 -0.6653777625475801 -1.227073762455708 0.8652222441070740 0.9250487115162431 2.416879624915392 -0.5157682074705083 
0.7991808538550149 -1.998732819371856 0.5419761220868995 -0.6904958299181728 0.2861297709500207 0.5736240805006876 0.4883178218974046 
0.06924111325809372 1.240821975110382 -2.189802089676395 -0.2997205971287111 1.122944691289461 0.8118468426507461 -0.7553319355035805 
0.3654390867824475 -0.4834872225298996 -1.486651098125430 -0.5476369747643427 0.7430249519079869 2.702340286672146 -1.293029029942920 
0.9294594644743395 -0.7830460741799948 0.3216398188474752 -0.5679157568981309 1.241879736149060 -0.8155708323834152 -0.3264463560093433 
0.3103393375413511 -0.7656803134275663 0.7150087047701311 0.04443575511924004 -1.596186739984195 1.770510278713548 -0.4784270227325071 
0.3699412382089773 -0.2354941533805125 1.539654427862297 0.5906973991772112 -0.9001159057514942 -0.3277624471994193 -1.036920558917055 
1.487418212721382 -1.055832718168068 0.05146722442113966 0.2454636355354001 -1.528663898159461 0.1082776251156122 0.6918699185339929 
-0.4852093020311769 3.151471280257764 -1.224380278803158 -2.085815811387124 -0.1047990812665098 0.9827241007898300 -0.2339909075596254 
0.8123160040243340 -1.495872787298483 0.9843688078981663 0.2910925648688399 0.3158918451273100 -1.374043173689995 0.4662467390698253 
-1.264812715719511 1.103122779623337 1.126337309103857 -1.681747809472050 -1.654377786846738 2.316989638976825 0.05448858433428525 
-0.2249742561619410 -1.028646601080315 2.206623597956273 -2.468292393147968 0.1280083255956656 0.5946940404725714 0.7925872863657144 
-0.5994517100413788 -0.9484612515073494 1.906392844878256 -0.3477918737131769 0.4804018368398872 -0.1668187151083353 -0.3242711313479093 
1.944286899199170 0.8156038256725349 -0.3550746675959733 -0.5427288204508388 -0.03870843494577095 -1.419642361340384 -0.4037364405387290 
-1.136766788799916 0.9222880166204674 -1.107384959426456 1.341557533650315 0.5190555353914076 -0.6732138793730146 0.1344645419371907 
-2.059086694749536 1.960151417978056 0.1814526668173876 0.6451346519915220 -1.593704654963350 -0.04283076386304197 0.9088833767889560 
-2.078927982535145 0.04945920321951444 1.943619439728492 0.8918703812543468 -1.050921796576741 1.016612823383929 -0.7717120684744131 
-0.5079281592141646 1.400362970162276 0.1622065981278588 -0.4769709899360923 -0.07743469222387253 0.09684903014355797 -0.5970847570595691 
-0.6843953704089425 -0.7306236986888573 -0.2077679461611136 -0.08262004567389489 1.776106732386195 1.056537551941504 -1.127237223394898 
-0.2643409134047273 -0.3797676263202940 -0.1510583808513717 -0.6037765944385160 -0.5865375598237449 0.4941542441600739 1.491326830678577 
-0.9619670087742717 0.4705355639774214 -0.3446441564766055 -0.9074877640684871 0.8511967020943938 0.5050126696473515 0.3873539936001977 
-0.2553679981052573 -3.866698547110839 2.161331825411480 -0.5825085104919379 0.8986171021688103 1.463952717016120 0.1806734111116147 
0.5992517966334067 1.282334903877041 -1.292811072517438 -0.3913314981721943 -0.9390102373937504 0.7797584487934213 -0.03819234122047401 
1.332150697838121 0.06059536616334209 0.2926032057390701 0.7854279371280964 -0.4492170512085119 -0.8988291923930998 -1.122730963267013 
-0.5865239841042919 0.1798366733577061 1.491767077992368 0.8801659988861301 -1.073407541657183 -1.420925964113147 0.5290877396384103 
-0.08342384810699581 -0.3849080477479889 -1.287754015178159 0.2525226309867443 1.388315205607341 -0.2636416998128270 0.3788897742518861 
0.6871019333951813 1.147055597547084 0.5916768971589156 -1.148155066066612 -0.4336291288299987 -1.494423343914825 0.6503731107102451 
0.5937904686623829 -4.019110383298603 0.3575259964977371 0.4780531244297245 -0.04245020295420677 2.785542388226630 -0.1533513915636751 
0.2322389416361454 0.3529917982325014 1.216161788040121 -3.052533704492841 1.362150427491453 0.01295457806271309 -0.1239638289700977 
0.2899893324020337 -1.421240946003580 0.1757620335604643 0.7842907451110910 0.05865696455617373 -0.3520544747799613 0.4645963451537729 
0.2110813881862146 0.6748892310901112 0.8852888313676182 -0.9346230313321584 -0.6765989314859636 -0.7731320111324778 0.6130945233066681 
-0.02480668329675310 -2.394133261569234 0.5775236538903525 0.3874294473697948 0.6591161029870557 0.7967686410954724 -0.001897900476694199 
0.4740280805917641 0.6631895379333386 1.818480059582642 0.5058828866292433 -0.05398025521461476 -2.355245531103893 -1.052354778418477 
0.01167367990442465 -1.872108107815114 1.749714771537323 0.05327139341107787 0.8974802028915326 -0.6253970060276823 -0.2146349339015658 
-1.239415318971219 -0.2837306588763660 -0.9086887429250468 1.303484590844960 0.5633531384650434 -1.123385350503798 1.688382341966433 
1.268830185139831 1.399524528204970 -1.049254636367416 -0.3602040638312134 0.3956106713666964 -0.4010429234013272 -1.253463761111545 
0.6788457380833044 -1.185694351436581 0.7038273180207673 0.5694134419392124 -0.01063094823799161 0.04335608171746774 -0.7991172800861909 
-1.370252307479502 1.822168708941111 0.5106416417886683 0.9186628968596459 -1.223720580423448 -0.2859602185897208 -0.3715401410967514 
0.6544353401582425 0.9387076313794707 0.02895400526212197 -0.5281317485373619 1.738171384270733 -1.934657710034303 -0.8974789024989045 
2.961993450340315 -3.900369210420014 1.134443357680240 -0.8944872340475728 -0.7275833575212294 -0.4845084023001883 1.910511396268449 
-1.065498365070637 0.6358486014443060 -0.7322751736311292 -1.266780590600813 1.546805732403284 0.07626834669393297 0.8056314487610629 
0.06822479783260357 -0.2138212458420030 0.2773538402843996 -1.342757241120020 0.4415190998348379 -0.6989981727241790 1.468478921734372 
1.311959890586477 1.135549378772775 0.4015479866957737 -0.9732941237483768 -0.3204470845885889 -0.6622862754500951 -0.8930297722679517 
-0.3302362742918476 -0.5403810158387412 1.602723458867981 0.4108056428101542 -0.4909119951908358 -0.3086859594806017 -0.3433138568761154 
-1.598721494061418 -0.3594890777723854 1.451689254166432 0.2531393628009660 0.4966709966173067 0.7645525613232904 -1.007841603074202 
0.5286727738096320 -0.6966762558841174 0.4249313267438358 1.839704395710375 0.4466892464939566 -1.515608121905939 -1.027713364967734 
0.8008877079833738 1.033350729957012 -1.388753740320170 -1.734342886300798 0.1432764101953946 0.9139504761886339 0.2316313022965618 
-0.2392626891056270 2.252350693054571 -1.779078516910221 -1.611438625323162 -0.1638504436162609 1.165588229633679 0.3756913522670159 
-0.8570343581685037 0.02278798971439183 -1.078762441689825 0.4327304016834159 -0.9700590555137815 2.015102800615079 0.4352346633592177 
1.115359023114180 0.7258150034948165 0.2739006654060092 -0.7129763900904327 -1.477245035192033 1.491460599457775 -1.416313866190313 
1.388137472933548 -0.5718056128556798 -2.376723041079302 -1.895698259658514 1.154864020991245 1.133283921866819 1.167941497801890 
1.148352799359480 -1.855590679516487 0.6926399036434034 -1.260969912726335 0.4493500257228467 -0.2719951535870493 1.098213017104133 
0.2796731788275255 -2.574262217365011 -0.4292810497551516 0.8935106935038236 0.8700495662009795 0.6927533721090492 0.2675564564787836 
-2.035397981266661 0.8824357573804839 -1.040865147264401 1.608440443478851 0.3929554352747920 0.7097340344531591 -0.5173025420562251 
0.2171045570066688 -0.5732508056282558 0.6525163742736988 -0.05090549515146057 0.3354657779677048 -0.9258466645917978 0.3449162561234448 
0.004086407568509772 0.4327065492902748 1.409569928136079 -0.2386625817028958 1.117527203514457 -1.800682899179202 -0.9245446076272232 
0.4356562950354571 -1.363674548081382 0.09000037282405461 -0.1633910248180192 1.140185424092971 -1.155461188437270 1.016684669384200 
0.3259449992971740 2.399330041018458 -2.988215404946303 -1.189611044145247 0.2765821411572161 1.200616979734400 -0.02464771211566102 
0.5222246986170075 0.6712255033890892 -0.4090198719010891 -1.409369565371899 0.2940731391935495 -0.8309455623565634 1.161811658429915 
2.032812326848358 -1.774786557901064 -1.296980413716616 0.4977191572497708 0.9568092573776273 -0.7813176739415233 0.3657439040834495 
-0.3132483634176533 -3.393862597773661 1.948220376677804 -0.2934151252066736 -0.5799852371640810 3.371389663570558 -0.7390987166863103 
-1.001910896610582 -0.9894188036964472 1.504490457078854 -0.3511194656969867 1.368190970654545 -0.9780910162295039 0.4478587545000985 
-1.249609073738313 1.118744720353426 -0.5068602777301020 2.363276765357215 -0.5690200727196769 -1.151563777566040 -0.004968283956510843 
0.3888284009970539 1.584031091886974 -0.9041110360312078 -0.2583713834429031 0.8006284125341437 -0.09371284671135817 -1.517292639232696 
0.6494588926645262 -0.4837204763912685 0.2764053581850272 -1.390607549930013 -0.5481910781360764 1.166716617583910 0.3299382360238912 
1.554039178489737 -0.1581255878726380 0.7678262670924650 -0.8612226218865291 -0.8259173824541389 -1.351582937093018 0.8749830837241268 
-0.8024430771017549 0.8058576272006132 -0.4642290708382982 2.057076604210637 -0.07019500461175444 -1.273673640729229 -0.2523934381302156 
-0.8295869320415974 0.9291676228627839 1.188410851468998 -0.4668585225613737 2.303504910240222 -1.303437239171628 -1.821200690797408 
0.5277572832712414 -0.3915001618771641 1.746636293926839 -1.121192930618045 0.8030938940750085 -1.202733453673067 -0.3620609251048136 
-0.3800584617602592 -3.320088966147911 3.465333905154671 0.5383023261869161 0.4943957802048378 -0.5111849443876765 -0.2866996392505745 
0.2344669499452990 1.434090832208107 -1.588721513569694 -0.8002530715905423 0.4984048898135620 0.1843643100112034 0.03764760318207665 
0.4499662877198141 1.293906524857619 -2.598988656067146 -0.6849716878501162 1.079165903352943 0.7287315975738844 -0.2678099695869859 
0.1941956601038231 2.746205927092375 -0.3537189413980774 -1.209289612324439 -0.9973103642826750 -0.8190686080320292 0.4389859388410330 
0.5388154283430466 0.4801095731274228 0.7006614845513564 -0.5970582507227691 -1.003659671310069 -0.08503193765055012 -0.03383662633844085 
-1.944984191794997 1.745758163444786 1.892385432777606 -0.9319241943194099 -0.4794035033792783 -2.154317453066662 1.872485746337957 
-0.2047582562215577 -1.056428973615559 -1.894277423942313 0.9404670812534087 1.223775146156894 0.1434483654690980 0.8477740609000467 
-0.02069287085567775 0.9521231360877146 -0.2493150240246491 -1.277627894121593 1.227662699010814 0.1016530643431113 -0.7338031104397277 
0.2465604173686342 -1.106927260768922 1.126128119620038 -0.2240203872502025 -0.4475704038298325 -0.2537454259181806 0.6595749407784594 
-0.6493268542660782 3.144799498378862 -0.7389023415729500 -0.01621747103852233 -0.01968354945206325 -1.302361855326240 -0.4183074267230028 
-0.01653996649058123 1.683303329270800 -0.4586256091060385 0.2111507217105823 -0.7074219728589981 0.5075162648729420 -1.219382767398710 
0.1411666964437226 1.640740842127006 -0.4038826481693291 -0.4985909795932652 0.01621244227472538 -0.5706094527078819 -0.3250369003749685 
-0.1540939375860154 2.658233201814711 -1.421540922652308 0.5272196341226948 0.5684594746061767 -1.848919068252737 -0.3293583820525295 
0.8657712957381910 -1.692047576543320 0.7209317589912234 -0.8198269867743988 1.443743795871201 -0.6938645094153664 0.1752922221324660 
0.01581327795387255 -1.747303070318712 -0.1829906961665944 0.7176302305161962 -0.2491179312122558 1.313865072262288 0.1321031169652052 
-0.6156942241588309 -0.6738786875595261 -0.3078527083977866 0.2464089558505149 1.271792868606157 0.5472152506907637 -0.4679914550312934 
0.6694191627427998 1.055102504428587 -1.113592518071731 1.784239853528911 -1.406494972496460 -1.519720119422507 0.5310460892904092 
0.4663238072632762 -2.489528562227872 -1.143749106878697 1.319507168260236 0.007332029123361259 1.506243935852617 0.3338707286070791 
-1.293366799171056 -1.530691385752715 0.04265672231939777 0.4998472641733019 0.9211336630247090 2.011099136794304 -0.6506786013879491 
-0.3524741373185976 0.6090321095414623 1.487786700060386 -0.7120556436506241 -0.9524215210329946 -1.439708082894118 1.359840575294477 
0.04454283881883406 0.6199532773695601 0.03517419577472083 0.4314168735890601 -0.6843138948252352 0.1690042672673215 -0.6157775579942661 
0.01421072265575900 1.152574538158980 0.8279950521768719 -1.199929691292093 0.8691465407794137 -0.8377400180449712 -0.8262571444339566 
0.9449046239066757 -3.805896346334302 3.260020578948075 -0.5788729981595931 -1.693260919964094 2.961381311277440 -1.088276249674213 
0.2897047785204232 2.042810895626003 0.6410556041624753 -0.9741108661332734 -1.714749823248831 -0.5367541598463486 0.2520435709195595 
-0.2871636661359609 -0.6844161313102190 0.4362642942808733 -0.5518665361167592 -1.983066597906015 2.303802355592343 0.7664462815957358 
0.9865972485611687 -2.799416842334259 0.6138217019784961 0.08420521077395929 1.126453806754975 -0.9303747880581479 0.9187136623237849 
-0.8238254757305786 0.7713460255733973 0.7869553115066864 -0.4844762402568357 -0.4136679400240076 -1.234696178595275 1.398364497526613 
-1.385191485569420 0.3412864051738152 0.04382309481453476 0.5903425297741307 -0.03165388974808598 0.2484703353543327 0.1929230102006836 
-0.4513887425295907 -0.2871990009368653 1.362070330913606 0.3937853978625590 -0.4087162328338200 0.9535881007822629 -1.562139853258139 
1.554732204842671 -1.362902542862950 0.7742320798658766 1.525778666275118 0.3223547839253145 -1.561254701683157 -1.252940490362887 
1.184868996480957 -0.3647195528377209 0.9111694066552799 0.5528175277919255 0.1233613616362464 -1.945541226519693 -0.4619565132069975 
1.467376706947616 -1.539857357522274 -0.4054019552014187 -1.056072221869917 -0.2142748627683753 1.818977483143257 -0.07074779272887854 
0.8352753179324959 0.8525035277810742 -0.5217226029987337 -1.648893013878894 -0.9581166651184276 1.468093318377729 -0.02713988209524727 
0.9187348299900957 0.8109603980171837 -0.7398792986022458 1.121188064713320 -0.2498387306621286 -2.162706815526696 0.3015415520704677 
0.5210534432884377 0.2148327380475450 -0.4207708069805957 -1.170820895413514 1.470661083210736 -0.5787939058246911 -0.03616165632791304 
0.2825572006804809 -2.044190695935955 1.387351982378786 -0.7480467037136564 0.1891215866753146 -1.235671699856562 2.168878329771579 
-0.7089666677229556 -1.716763924465561 1.356907308524004 1.987177833391985 -1.185148687517487 -0.9522965446493722 1.219090682439392 
0.2466698940807432 -0.9418502062738255 0.4628046089581540 1.128072484345848 -0.5626164342894950 0.2847553638594176 -0.6178357106808450 
-0.9429818550530924 -0.9176635968138390 0.07408426074464625 -0.07125135210924721 1.697803553009640 -0.2369827989548261 0.3969917891767085 
-0.9833806285470907 0.9536564956873601 0.6916788752395555 -0.1676622381879239 0.4431087711964579 -1.122972734903415 0.1855714595150475 
1.578881958374091 -1.492510093445630 1.263602479899114 -0.2794876592077045 1.623246997734169 -1.202795550541597 -1.490938132812437 
0.2899159799497710 0.2499343933989877 -1.545258277588917 -0.4417735083679548 1.287411317575452 -0.6734429139976941 0.8332130090303511 
0.4031590849243630 -0.5470164025633963 1.357874900117486 -0.4005906555951215 1.443086966019898 -1.195463540803893 -1.061050352099323 
0.08873919421616797 0.9089839491823047 0.1749498891551153 0.6359660556682716 -0.5609801001334662 -0.3829921069618818 -0.8646668811265098 
1.346582466148017 -1.841231665729759 -0.5530247161493544 -0.2545693548392079 1.342231890433610 -0.5710039796216789 0.5310153597583664 
0.6910491404133131 -2.383488529841273 1.378163982789925 -0.5024166046707863 0.4025082029948107 0.5342502316917047 -0.1200664233777165 
-0.04815832359366581 -1.458800256504753 0.4435282696356163 0.9422876412093698 1.067172534644911 -0.8462689912929139 -0.09976087409855462 
0.9106706543150623 -0.3893537416137746 -0.8433228384790261 -0.5538952329022920 1.820442250157871 -1.517152106027599 0.5726110145497660 
0.2469235682111300 -2.479697387746273 2.114743400698156 -1.456531047121003 -0.01333917265433371 0.6257428284369974 0.9621578101753088 
0.9554125118721087 -1.692233108311189 0.8646064902949640 -0.3307886215256211 -0.1134169265408071 1.270054759008561 -0.9536351047980063 
1.573580968284696 1.142341129298475 -0.01318919315608269 -1.283954154762937 0.2865164753558571 -1.628942780159726 -0.07635244486028121 
1.344902025260845 -0.5631783871128306 -1.901885665737972 1.050718016643274 -1.203436773903573 -0.5398387625409709 1.812719547391243 
-1.778710187753142 3.342092710445940 0.9886144558176101 -0.2094781322040425 0.1926355598526858 -0.8630416435781363 -1.672112762580923 
-0.4265528667103185 -0.7599479090377732 -0.04407980409460355 -0.2059461082276486 1.373348612513510 0.2590937948638167 -0.1959157193069795 
0.3632199729485959 -1.003546153103226 0.2074285877606054 1.051933731008238 1.497481226448381 0.1828609423598956 -2.299378307422492 
-1.022229358542953 -1.384268104401239 2.496109486985151 -0.9246708636299251 0.03766752883310955 0.4726706642757696 0.3247206464800883 
1.128081257732035 -0.7354035520062208 0.2485687913698071 0.7020037919668228 -0.9518719301137764 -0.3758825064662253 -0.01549585248244597 
-0.01110983480321914 0.2715401043548139 1.935542167417313 -0.4300891667322950 -1.074259617545694 -0.3341625944156594 -0.3574610582752626 
0.8344526307716447 0.4026147887271585 -0.4845465353800592 1.547686131692335 -1.066357787349015 -0.5957712858844696 -0.6380779425775911 
-0.7365474922117367 -0.7573541439462783 1.160157017398264 0.4386178134232883 -1.080674645917999 -0.1752722196564827 1.151073670910945 
1.199201982195616 -0.8413198857313394 0.3829007981537734 0.3572795566735821 0.2573478072219531 0.2166437027764862 -1.572053961290065 
-0.8131133579390362 -1.689585087879267 0.9555391447058883 -0.5244778329408090 -0.2996443023787062 1.700843315526568 0.6704381209053680 
-0.03401663125984949 -1.119994246570484 0.8987240753058839 0.03450771490236946 -0.1350888782811644 0.5339610093726642 -0.1780930434694210 
-0.4352693903925627 0.1125003635773045 -0.6710649963592060 -0.4163287259163200 0.2156770943305093 -1.010572044600687 2.205057699360974 
-1.238529857177646 0.6398411600297745 1.521829955894941 0.1612349997800844 -0.9548015433777881 -1.085519385268275 0.9559446701189003 
-1.403673451784825 4.426628092464807 0.02762419143489853 -0.5253465197104686 -1.116705712951885 0.3400304895323414 -1.748557088984875 
1.978610323932168 -0.6587632817898470 -0.4149259553724688 1.082436074609705 -1.029566861876869 -1.462026725161028 0.5042364256583424 
-0.4003974161557733 1.396070228024460 1.260199391522678 0.1748491411581855 -0.4511907086322947 -0.9290626799131314 -1.050467956004136 
-0.9805379568605108 -0.9852706139974810 -1.705719126665438 0.2222911257726290 0.4212436816448854 0.09233602315992645 2.935656866945999 
-0.5921973938372282 3.549393127257319 -2.209802069544163 -0.1147527711822214 -1.521731459396426 1.779244476514688 -0.8901539098119498 
-0.9073776621199073 3.565282599152263 -2.783397644828640 -0.5872050024672866 0.08415204497535006 -0.2380989504688543 0.8666446157570853 
-0.3144494010401364 0.6137106154154778 -0.2605658280351993 0.7272463084185575 -1.081770356776800 -0.009505855859636758 0.3253345178777347 
-1.322401878244827 0.3517337752174110 1.993124172193749 1.085163851344086 -0.1964335220061250 -0.8055726866449368 -1.105613711859352 
0.8985208489168385 -0.1844083636657711 0.5074269530114163 0.2029995230530588 0.3633632601839205 -1.009744015021276 -0.7781582064781831 
1.256119419818353 2.024623232364751 -0.08894534861388861 -2.199478457247838 -0.2640388566951168 -0.4569537179844075 -0.2713262716418464 
0.5886750274352976 -2.662270924011467 -2.374689515947364 2.464196412174862 -0.8012130126964475 2.632112377125797 0.1531896359193170 
-1.423154625115078 -0.1140504708131117 2.377095545373665 -1.003767524353269 0.5389621080234811 0.09740075753696313 -0.4724857906526624 
