solver_type MCSVM_CS
nr_class 7
label 0 2 3 4 5 6 1
nr_feature 199
bias 0.000000000000000
w
2.848603938896235 -1.648092417128326 -1.894052178003744 -2.081253083433791 1.170581002548769 1.145726833734661 0.4584859033861750 
-0.3773586196157310 0.4907492321926890 0.7109927581611882 -0.4440083016841234 0.7849036984643575 -1.260766451552614 0.09548768403425334 
1.038555015066335 -0.2385350868856918 0.1955917350347772 0.9662920453957785 -0.2297038435513572 -0.6577817661954718 -1.074418098864378 
1.282165429571990 -1.195779280215614 -1.133063183472549 -2.719105560293505 3.045486132435935 0.4326839807707110 0.2876124812030612 
1.930754449778234 0.2641346820042359 -1.696786801850336 0.1801446404239165 1.905335862909330 -2.079922901134574 -0.5036599321308110 
-2.777453805913046 1.567012824998236 -0.7960028063819119 0.9250594666476634 -0.1737657315006592 0.1588561898222164 1.096293862327483 
0.8006359864239034 -0.2148738592473394 -1.765319088013363 -0.7142009121983940 0.1608493199189982 2.257541689537405 -0.5246331364211819 
-1.123889581825673 -0.7837869179958542 1.553071230906148 -0.2844309722438018 2.145669109253865 0.4510898833886723 -1.957722751483336 
-1.569962138575656 -1.612943134996955 -0.1806970623596035 4.107960571558497 -0.6168300829237000 0.1468300950118338 -0.2743582477144403 
-1.437058084595855 1.911870888006592 0.05388690188273520 1.751844869491613 -1.883816889746497 -0.9062123247457541 0.5094846397071621 
1.205497836793618 1.338055429144735 -0.6498505565070435 -0.1846396429317045 0.2857845921678655 -1.314614473364875 -0.6802331853025768 
3.093858813023081 -0.1386694576932588 -1.655087500060854 -0.6318788661983222 0.4982983836190889 0.1841585385186556 -1.350679911208373 
0.2881626171857143 0.7550562317486046 -1.167854856097571 -2.729832628216143 2.817204647521006 -1.451589389248571 1.488853377106983 
-1.919698499736541 -0.2890313928674326 2.303740231838479 0.5971257451152207 0.2996778537465759 -0.8143789327485422 -0.1774350053477481 
-1.160266758788327 0.4493235080782781 1.937853025792799 -1.191804344584839 -1.221277643322040 1.251120899279579 -0.06494868645547133 
-0.3821708142534613 -0.4703807377618997 1.991368258522674 0.8855782837764398 -1.237186984336099 0.1986425758767619 -0.9858505818244161 
-0.5857973834894803 1.109019013153107 -0.2328501774546600 0.4298974354203995 -1.700412136903476 1.413880788681811 -0.4337375394077037 
-1.401125337579720 2.185032889571555 0.01185853712933910 -1.150379415072502 1.008401857752193 -1.851824604649476 1.198036072848592 
-0.8185069332904269 1.591430777968628 0.1011554326567483 -3.056589179429761 -2.857555296573656 2.551767009900241 2.488298188768209 
2.653885456334992 1.973993148920881 -0.9463771744716681 -0.1246173527436402 -0.7914214330187994 -1.843913383315686 -0.9215492617060860 
-1.072554597386406 -0.9157710673356902 0.1923353567796879 0.5502606747904825 1.046883089147851 0.9068149554058214 -0.7079684114017366 
-1.071517397266174 -1.174038568018913 1.074948489110426 -1.200857209512801 2.708356031656324 -1.692106669849044 1.355215323880174 
0.2538912101159953 -0.6909204276164354 -1.703817474989332 0.5476896076656264 0.3469536725054961 0.1408137335014980 1.105389678817150 
-0.1077594721145755 0.3810979452626476 -0.5868521582915887 0.3288852430859248 -0.1568013337553162 1.849466797495175 -1.708037021682264 
2.428060912748630 1.222619248501431 -1.655411793228108 -1.127536857551330 1.074345583068606 0.08159774098146967 -2.023674834520690 
-1.730746973422853 0.7175594860867424 1.761061585766960 -2.358522209595813 1.269204066778046 0.7393243627915603 -0.3978803184046378 
-0.7153791897226260 -2.170501107600332 -0.6024994217722020 0.9187256947070698 0.6625912070395578 -0.1331326138714192 2.040195431219943 
0.6164496230053272 -0.9874795797200514 1.278162727401754 0.05436259384402948 -1.537099485489625 -0.1642561785901892 0.7398602995487402 
-2.213393033242161 -0.03408610714580834 1.452520584539291 0.5107813688545975 0.8783354686479743 -0.2286336765153400 -0.3655246051385639 
0.5569656229529200 -0.9094327279114524 1.303095493448251 -1.017308280850946 -1.370683041754674 1.637307752012902 -0.1999448178970132 
2.545648117597385 -0.4475281401740572 -1.128245788307412 0.9504399362121403 -0.3888943362144428 0.8610677159110313 -2.392487505024623 
-4.419143708626812 0.9461058468159056 -0.1801239419487525 2.727749215805563 0.2491397695803872 0.7213302851819882 -0.04505746680833839 
1.268596400882504 -0.5665213131480761 0.3199954758291178 -0.6233961481579270 0.9216994326288341 -2.549505437071045 1.229131589036621 
1.495034746197105 0.8381358340633397 -0.5775194391062516 1.894907559578507 -0.2434880783159514 -0.6402874661246047 -2.766783156292149 
2.620497115290319 -0.07540084354242721 -0.4767843397951160 0.6303768112543582 -1.510676609582131 -2.146551984346049 0.9585398507210281 
2.086713557083131 -1.174732197051536 -1.082166846159203 0.9174494582607424 1.802439513568212 -1.969810755187036 -0.5798927305143672 
0.6294724216866730 -1.430692695881113 -0.8595374807451224 2.585865082163000 -0.2404261751966121 -0.7804785909501419 0.09579743892333947 
-0.4350611298586624 -1.228990173376706 -1.454694351942795 2.764634308741419 0.9946525671089865 0.2234841212273624 -0.8640253418996485 
2.909140360232411 0.5781319085847021 -1.224212339908715 -0.3917151702229104 0.4653567491168636 -1.462502132563967 -0.8741993752383708 
0.6997840325373988 -1.041417624582700 -0.2467921825270321 1.262504550631416 -0.04121597476030289 -0.2769766990724909 -0.3558861022263060 
-1.755186076899559 1.220764474523006 -1.597505820122477 -0.002331344215566267 0.5114746503658109 1.877815973802806 -0.2550318574539939 
1.107618077335723 -1.148919987565944 -2.262076869353001 1.159054558858987 1.413344382547265 1.445220819473196 -1.714240981296233 
0.4791332660041716 0.9106267718600025 -0.3125023253429410 -2.064902528217798 0.8054204966639374 -1.068752657000846 1.250976976033476 
-0.4846686160976842 0.07487668954069863 0.6161564699335513 -1.087268131831302 0.01415276544471362 -0.001188710817343064 0.8679395338273597 
-2.564501594359069 1.067466927873308 0.4978646322452245 1.592521636366554 -0.6270345957363725 1.148995042778738 -1.115312049168382 
-0.8324061386727025 2.200623233986977 -1.292078867104824 2.186152519403032 -2.309395241700014 -0.3878169800659788 0.4349214741535261 
-2.859586628666022 -2.233048655230984 -0.1879186684920691 0.7628563657259589 3.336038236810411 0.9955828156169158 0.1860765342358227 
-1.219742073987140 1.337586545900945 0.7472566801981885 -0.7570350156528252 1.047439897616124 -1.303474682899150 0.1479686488238514 
0.01897562303144505 -3.201274822702976 -0.7871032229389359 4.036814757681202 1.356927660327487 -0.9000988533102282 -0.5242411420879717 
-0.7416517889431489 0.9265821189742869 0.05835967736486484 0.3207925853654496 0.04784955366084042 -0.6929139060274762 0.08098175960518374 
-1.222746934374618 -1.345260862364777 0.4223321136522577 2.956117674016947 1.327473099760958 -0.8395882752719057 -1.298326815418873 
0.8963247047569259 -0.8660874220077853 0.3058315675417097 -2.784278293189916 3.618668458366749 -1.449123071094858 0.2786640556271789 
-1.959360751006308 0.2889605104331165 1.269230207896383 0.9247533607590318 2.137012066170516 -2.099878157328649 -0.5607172369240663 
-0.01523313030615330 0.01886756671817789 -3.228084175514352 2.717455687437749 -0.4952218896696237 0.7291622777251575 0.2730536636090291 
-2.209156329933812 -1.427304049683357 2.792937441061892 0.4103596351137163 -0.4204837969777949 1.383829463263208 -0.5301823628438713 
-2.603679739487809 1.464856637120384 -0.1617041181177453 0.1559925535413683 0.5115453450197597 0.1681638721169085 0.4648254498070671 
1.548968086556666 0.7137419176177348 0.4000275719542662 0.9696965554796366 -3.068831633981563 0.4847487182979473 -1.048351215924688 
0.2652361662041683 -0.2142526054098282 3.431712024573515 0.4510139477481808 -1.199387411368329 -0.9527871042188990 -1.781535017528779 
-2.569379742659137 1.846602440213218 0.05242549746131325 1.280305602468351 0.6478572746003435 -0.5813908434496476 -0.6764202286344780 
-0.7772498795811577 -0.1369750824460103 1.725698836914562 -2.141148708206506 1.230696514569585 -0.1586305833123778 0.2576089020618727 
-0.7571089251476570 0.2923146032573887 0.3530142212707381 -1.133435850233990 1.610195000164293 0.3291133035002083 -0.6940923528110085 
1.915265365541685 0.4839392741912661 0.2188325371259526 -2.879128624431016 -0.1042200674625836 -0.8548186728551809 1.220130187889889 
1.541419515490183 0.2534095992198943 1.222194422977624 1.549825274488972 -1.800583724679414 -2.533688614416476 -0.2325764730807801 
-0.8229623845834793 0.4990509390591782 -1.148337401502780 0.8536013713972032 -0.7888141567185584 0.2757773918199618 1.131684240528450 
0.4254209073607925 -1.466802834630577 3.943657052505609 -2.832805219533837 0.7898999465095642 -1.400638283239060 0.5412684310275903 
-4.211376936121271 -0.7871875227855564 0.4705547329407068 1.804242499480600 3.403790611349067 -1.487591994610083 0.8075686097465655 
-0.8929601857910016 -1.065342847821529 0.05451030101685936 0.5629259902141972 1.112179057768519 -0.2398209136326818 0.4685085982456283 
0.9482414198548035 2.043915865526560 -1.417321558957763 0.5032797549642266 -1.027508827520985 -0.3505348635095368 -0.7000717903572762 
1.595000785108596 -1.149010415801780 -0.7849056637933808 0.8329547494814551 -1.627586837119605 1.217756516876766 -0.08420913475207460 
1.493932847091468 -1.681118406779469 -0.4965653059532123 -1.773917987229212 -0.2559597067674818 0.4952187662717823 2.218409793366126 
-0.05346587852086840 -1.683725469233392 -0.1878919314804915 -1.890218864949897 3.068120862160269 1.797827493498605 -1.050646211474228 
1.712506437788962 -1.030127932826530 0.7354529771426839 -0.7713265920965391 0.2900538858691263 -0.8349799381049947 -0.1015788377727135 
-0.1081235567442726 -1.526080056235890 0.5724040826997577 2.221581659263046 1.614439495274295 -0.7421543131786078 -2.032067311078288 
-0.8636403487667887 -0.8756090322443103 0.7004482164619265 1.454170506233545 -0.9993140138392802 -0.6607158692041832 1.244660541359084 
1.335969770795867 -0.7589884252650909 -0.8875822463374840 -0.1226765441930405 -0.1965578363587424 0.02755009900511480 0.6022851823533580 
-3.538538667659899 -0.5757514703435033 1.316536177530133 0.05962361297935138 2.117876119087961 -0.1583756008644350 0.7786298292703971 
0.5879327607467795 2.370971692884872 0.4070640501994234 -0.4467396966172162 -1.949715613514239 -1.557105795928603 0.5875926022289845 
2.750911812168103 0.8034749035289828 -2.142424431610087 -0.1062139811665785 -0.3383929161446131 -0.009317225198503113 -0.9580381615773165 
0.05947802198949138 0.3039748024130239 -1.906361383714292 -0.5729189272226313 1.084631898753606 1.171629409737766 -0.1404338219569633 
-1.134421815854027 -0.2460527869543044 -0.03490534503405801 2.581544712352311 -1.256008330618156 -0.5181462118836553 0.6079897779918653 
0.4445732078588293 0.5250509533248398 -1.739755010195828 -0.4553829000474369 1.789999667535547 -2.154982238988521 1.590496320512596 
-4.652127930629748 0.3514366802922577 3.344714802507041 0.1208964378517460 -0.09876364710421014 1.434910144587298 -0.5010664875044067 
0.1680547500458723 0.1301988871280445 0.6623955463228253 1.694714841903471 0.7908078536717935 -2.688314493284090 -0.7578573857879181 
-2.780901721229118 0.9297922138267052 0.1014517136921139 -1.091844359672721 0.4226917083931909 1.266975385165608 1.151835059824201 
-0.4859707791795391 -0.04009043815477868 -0.1269597278621563 0.04509760176240626 0.6485967514655011 -0.07262884478128727 0.03195543674985971 
-0.7198638222833417 -0.7176132401154438 0.6702636645316488 -0.08080263752208947 1.185909124478858 0.02011938217339378 -0.3580124712630249 
-1.616891223876139 -0.04717818537572432 -1.878240013998409 0.4343323475077917 3.206110362107469 1.116532001057758 -1.214665287422761 
-0.9937812956081588 0.8170501653069667 -1.281309286014521 0.7424178785156806 0.7205460497189907 1.005072941380375 -1.009996453299337 
-1.074143368617144 -1.634765640417864 -1.672888383968443 1.418931762338516 0.3102397121563200 0.4275309695460656 2.225094948962542 
-0.3638385644738121 1.415241507812850 -0.9259591382397258 1.287925988976397 -0.2093383257260308 0.4053436590638508 -1.609375127413532 
-3.310240643160157 1.712583100703573 0.1663931497689359 0.8015856163759190 -0.09198091684433289 1.689471947945786 -0.9678122547897446 
2.012922798640709 -1.854681083006056 -0.8741689219848446 -1.852072153546692 0.9753165728023507 1.502795100116074 0.08988768697846473 
-1.333901899446046 1.339320849584512 -1.863135908436049 1.712449215063064 0.3153323012115340 -0.4897187807549298 0.3196542227779201 
-3.194143805917284 2.871274741090901 -0.6407455927600609 -0.5542766928830666 1.062265485336423 -1.040823491372235 1.496449356505356 
1.418593926970964 -1.005437988542796 -0.03038483546317136 0.7553112691775940 -0.3457838445404117 -0.8752739884412499 0.08297546083906612 
-0.3802579109724752 0.2213669950544032 -0.1571240173833723 0.5534437490077472 -0.1197148502090046 -1.742212705472650 1.624498739975370 
1.032333133368498 1.061964991698305 0.05112452741568140 -1.093991975953925 0.1579894631564681 -0.2575766042286101 -0.9518435354564000 
-0.4524275359024871 -0.8134243546182067 0.2700165887922958 -0.4888264662133146 2.036543587345876 0.2348160769276879 -0.7866978963318536 
0.7137327762794539 -2.042482547073235 0.8642342079401220 1.094460169897293 0.8493826001088053 -0.3702047579113468 -1.109122449241097 
0.9443220324735679 0.05250085636815698 -2.645187705078713 1.149261386237413 0.8484745985378367 1.341477196393850 -1.690848364932158 
0.7150798783935033 1.581634698492400 1.139548931699646 -0.3172970908785344 -1.815614869255211 -1.786777453323211 0.4834259048714002 
3.158127028030834 -0.3956816393812137 -0.7626031366587778 0.9491692311769299 -1.008084969818265 -2.311354055944340 0.3704275425948574 
1.048760350578167 -0.6135900121799782 2.660137621620697 -1.719558297138619 -2.692330651908041 0.4141007942438019 0.9024801947840111 
-2.575673927303422 2.082635527421904 1.909291011125229 -0.8150183449187124 0.8710615460022716 -0.5036074444979417 -0.9686883678292891 
-0.9424043222623625 1.845671673888924 1.563033540922460 1.332424698209168 -1.548328753533547 -3.411808494737992 1.161411657513327 
-1.625811765001303 1.693830286510637 0.5510583257336994 -1.149161039123274 0.7962234066918603 -1.560836563897561 1.294697349085922 
-0.9886664856445683 -0.3624438942021100 -0.2968187610537316 0.4058596180141970 0.2151261300071890 0.9691800052965481 0.05776338758247956 
2.166376609221548 -1.404729004704818 0.2268043500996618 -0.06312313241930559 -1.568078728939930 1.167850831680011 -0.5251009249371884 
-2.410309006820675 0.2244546012536973 -0.2086371367534320 0.5801188777149757 1.549495760513742 -0.2693444192918115 0.5342213233835227 
1.072491659493090 -0.3722131176016982 -1.789401549788213 0.6117911327881718 1.132999390689004 0.07626183660919328 -0.7319293521895400 
-1.088706512768511 0.1629994325871223 -0.7612053251920384 2.254656227988968 -0.7460862171418081 -0.9455794639338567 1.123921858460107 
2.418111708532037 -0.03290919747684499 1.830917103597225 0.3919129767239424 -2.508848508040665 -1.765392176131626 -0.3337919072040955 
0.4173189404576808 1.560961203730673 -0.6955663169161832 0.06736717551883445 -0.09542145141840797 -1.976408929073158 0.7217493777005484 
-1.761072830818768 3.169828196310574 -1.838625911487418 0.9933433927930161 -1.870443200360599 1.165315819122900 0.1416545344403143 
-1.932032094754054 -1.103536727387200 1.653057955067412 -1.274353908870501 2.254843884532977 0.9552274150979428 -0.5532065236865641 
-2.178618744914319 -0.6581618856203344 -2.179161874786140 1.319479195474521 2.280795758413725 0.5528962121027118 0.8627713393298215 
2.677845957278665 -1.766937715957554 -1.096023697789887 -1.743501563445390 -1.038703005882795 2.379649427139780 0.5876705986571665 
1.275462336548141 0.6000528451395060 -0.4752378402623460 0.8393273565425923 -0.09868012446297533 -0.7628263041033608 -1.378098269401543 
0.6149324338058430 0.5965774343991046 0.4085260054472384 0.1006652467215952 -0.3868955730214550 -0.9457184947174072 -0.3880870526349207 
-1.374716521063371 2.001187974582224 -2.477454838326547 -0.1942664634476203 1.426523705577410 -0.6946986308539906 1.313424773531908 
0.1716478719695294 -0.4345463759295223 -0.6504925338714076 0.4272348834169866 -0.4796970686134023 1.213368517139895 -0.2475152941120781 
0.3771482532946349 -1.561104500045496 0.2011432866752202 2.136490092929280 2.159683295925828 -1.393488055481870 -1.919872373297558 
-0.2598118225676842 1.031950111534401 -0.9298910661447221 -0.5655233879602234 2.169404280951452 -1.034505017380297 -0.4116230984329332 
-4.567328308140074 -0.4223403410616867 0.2688826654530868 0.8410917744528313 3.230047533930360 0.7047429688739013 -0.05509629350849908 
0.9185176916444526 0.8200710014318104 -0.004317923515953704 -0.3997204136541543 -1.277863220636634 -0.6427614525982878 0.5860743173287771 
2.894365087054859 -0.9047459729061454 1.305638011353841 1.006961873839441 -2.459893287374031 -1.973248837644991 0.1309231256770014 
2.697757543006496 -0.09255979338346611 -1.018478174062259 -1.021609069115274 -0.7171052626172950 -0.4718536559808095 0.6238484121525981 
0.9439776056619463 0.06545486976286069 -0.9070988509716761 -0.8600017070961495 1.433058506525216 -1.537763665525847 0.8623732416436514 
0.4321905910039978 -1.153807872840420 -1.929684620734582 0.04026719146335855 1.341876639290808 -1.432671210801898 2.701829282618744 
-0.8477832542646124 -0.2059463432510540 -1.356579190959089 1.216368820557171 -0.6486553862182551 1.300368308466638 0.5422270456691690 
1.383494686116260 -1.271729022276592 1.462122955606820 1.071158778956476 -0.1313232955124977 -1.182012837477674 -1.331711265412795 
1.473770251584877 -0.2089233409889729 -1.346962599703570 -0.2943611959320513 0.5036851022842616 -0.5296393272488640 0.4024311100043355 
1.642029173060816 -0.1379944278821788 -1.996020445335733 1.096165946201983 -0.08188415011515690 -0.1900661459188266 -0.3322299500109183 
1.778827755299427 2.030921625249023 0.3284656340480333 -2.460148098612296 -1.154430083004302 0.5470911920915446 -1.070728025071389 
0.3749429672606543 0.2651875197053151 -0.5223264963716869 0.8242044723072574 0.2162117237937444 -0.7539051522558095 -0.4043150344394724 
1.421825576106393 0.2582113108457003 -2.552364066089702 1.347626360083622 -0.4141734018669120 -0.3121572327257890 0.2510314536467127 
-0.9560281739885212 0.4257636776027174 -0.6733676609575660 2.572120412444908 0.7062383733182277 -1.215444715164598 -0.8592819132551782 
-0.4006024104483315 -0.9501611580899657 1.195905706243059 -0.6464859432323447 -0.08406508965204607 1.489472749980471 -0.6040638548008602 
-1.325011241017419 -0.9128553747704994 0.01808262936896569 1.495870216577436 0.1542234060920479 0.9113647126957527 -0.3416743489462932 
2.460178279316948 0.6430835573410935 -2.693771286105427 -1.873755983266040 -1.129010475042919 2.396316925542406 0.1969589822139008 
-3.480144875260879 1.330963242025438 1.129035509154944 0.7770300346785696 -1.858633844147088 1.512988713041984 0.5887612205070147 
-0.8490178249041949 -1.199104116234041 3.541122626865243 -0.6262868617962218 0.2684015966729507 0.1118697701742265 -1.246985190778002 
0.5175217004314934 -0.3691793790256237 -0.7371382007889642 -2.241186559299885 1.881446107894348 -0.08434817894688505 1.032884509735504 
-0.3531133063920753 -0.09710868691367458 1.255027182604387 -1.417578975817114 0.3715266185263360 0.7763673587776564 -0.5351201907855274 
1.827158796040969 1.302951950020578 -1.250734693267333 0.7399685811627916 0.4361397443720291 -1.690746105052005 -1.364738273277054 
-4.875606971714522 0.3055690843708531 3.212668510232071 -1.574983135998940 2.847555844805521 0.6451371419564814 -0.5603404736515125 
2.166379283266025 -0.1027769981532726 -1.448460021110290 -2.585601163160541 2.534232922353276 -1.328774048222286 0.7650000250271094 
-0.8610643674831073 -0.09262111360209647 3.046287255690747 -2.926404089599865 0.5279343699006144 -1.297696365249260 1.603564310342938 
-3.178196092283453 0.8264415466946105 -1.245205473608767 2.367637370962330 1.201216983258680 -1.453413327567204 1.481518992543791 
0.8744563455661547 -0.6573387652637878 -0.4367873932798911 -0.7872535235360560 0.2269288184417151 -0.6294216642950212 1.409416182366890 
0.2600126273527179 -2.340995410345934 0.6864440276419631 -0.5349522869843493 1.687201490796949 1.005041684937234 -0.7627521333985853 
-0.9127734141227746 -1.382852389520527 2.334240692289323 0.2810193500720405 0.8534028147045011 0.2066887131392695 -1.379725766561820 
-2.167790243457924 1.646564289070623 -1.007041475858047 0.3589473687310584 -0.7032011544892938 1.884318148622572 -0.01179693261898511 
2.869910262414037 1.259895858599842 -2.545348613545291 -0.4505764001439068 0.07245893897293389 -0.5894587765689004 -0.6168812697287106 
-1.875293039502131 1.960629019819761 1.834506423924074 -0.3463776596970615 -0.1715376138919802 -1.606711104235099 0.2047839735824553 
-0.4631769136776535 0.8087877702576034 1.637535539191352 -0.2087733086831959 -0.1386754493044591 -1.540226412611622 -0.09547122517203574 
1.251396498595756 0.7000253373008541 -2.011041818881865 -0.01351966671268997 -1.426431973898220 1.522617184441936 -0.02304556084577059 
-0.6548281843460959 -0.1307107846587560 0.8635231715428765 1.591503353685964 -0.3098309692581002 -0.7464756534994345 -0.6131809334664441 
-2.162385735179035 0.4306386377907301 0.2765353818420559 -0.02908027856859547 1.292004797793837 -1.165626150301287 1.357913346622280 
-1.073508773866055 -0.1272007653527400 -1.059614082593760 -0.5254352269542980 -0.5893898778361084 2.397569550994654 0.9775791756082884 
-1.253177638494796 1.175852137250315 0.2691610173637391 -0.3593142212895604 -0.6826754793336034 1.569544987230067 -0.7193908027261697 
-0.5658633666915632 -0.2411600615080733 -0.2046952585045548 1.420411395077688 -0.1682816891806921 -0.4755142332104534 0.2351032140176597 
1.036260781314244 -0.06908741293748277 -1.770125979030228 0.03700684340327975 0.6904968723746670 -0.4986916365690596 0.5741405314445642 
-2.456033230867952 1.740757708825956 -0.4025256208893508 1.916673553013102 1.519925457258986 -0.4170915652937390 -1.901706302047048 
0.8059045157692967 0.4475083311061309 -0.7933634911277048 -0.1980488636326958 -0.8813077485383716 -0.4843383968591766 1.103645653282528 
-2.665801010548342 0.8599992272178031 -0.3919267414089431 1.521107908142907 1.681586673485725 0.008678715005955890 -1.013644771895107 
2.062092100616406 -0.3588089230493756 -0.3305978383324019 -1.058007161832598 -0.08217565922316196 0.03027242312162485 -0.2627749413004895 
-2.494380903254036 2.842634660602320 0.2326032484106362 1.425123222782941 -1.757538877020769 -1.321750593485441 1.073309241964331 
-2.489950997502108 0.4170247155987237 1.312763295661538 0.8926380898881153 1.681931576029894 -0.5665045618685838 -1.247902117807570 
-0.5262163424878398 -0.4984808861132927 -1.469365548405376 2.750109169720342 -0.1221966302427413 0.8080708202608233 -0.9419205827319069 
-2.417624910878090 0.9268351478504730 -1.036297282302797 2.968639401926301 -0.1949718208778478 -0.4084874130244387 0.1619068773063902 
-1.854551878505251 -0.2368465704319225 1.032912751641383 -0.08215757335735072 1.755684012471749 -1.604711577346076 0.9896708355274695 
-2.212953881117191 0.09873256413472478 2.361628035958502 -0.3356004781511210 0.9125756892285280 0.3329016211835245 -1.157283551236981 
0.7967805218436795 2.157169270793937 -1.156747991541745 -0.08028233821841148 -0.08244008163136914 -2.251507441692248 0.6170280604461555 
0.5899594714354729 0.5733186185885177 -0.4775776737180156 -1.193775148233109 -1.961401961561330 0.3691536269372033 2.100323066551279 
3.100822799679344 -2.009915235114493 -0.1256659729700496 -0.7010801331343107 1.170595077997695 -0.5560946037388601 -0.8786619327193038 
-1.282861076426241 -0.7858627912120489 0.8280508887752870 0.5328337060930557 0.3456837565753756 0.04145546444034454 0.3207000517542307 
-0.2466933312666121 0.3342694025007087 -0.6817997316680817 2.106101749110760 -0.1901636383113829 1.129935287191972 -2.451649737557326 
-1.875231708919680 -1.336397983245592 1.332207035289277 0.4404841177239179 1.820551067041087 -0.7506158373948114 0.3690033095057909 
-1.059464839731960 -0.1766340679073237 -0.07218599323263772 -0.1501619708520279 1.364214977262112 0.6276631640498881 -0.5334312695880666 
0.4910107196736790 0.3324698763068608 -0.3686368426493615 -0.9051952072031955 1.706139357697240 -0.5342601152627984 -0.7215277885624350 
1.225276142069045 1.884693567391568 -0.6458665990503247 -1.672394730744643 -1.304807226214360 1.914577020962107 -1.401478174413361 
-1.183008378377461 -1.173655698882695 0.1422000660829726 -0.5828163089184664 0.8435544496060821 0.2641659989130189 1.689559871576543 
-0.09894980499506321 0.9611911596965984 -0.3133729565905761 -0.1413702123177972 0.8448590671608993 0.03444606132346459 -1.286803314277521 
-1.586811861657920 -0.1106019563779816 1.834762955242273 -0.9093778738807442 1.353636099147118 -1.296246182476552 0.7146388200038164 
-2.613221416401374 1.045992499062563 2.017216012156861 -1.280591017872051 -0.006119514216194873 1.853998635574714 -1.017275198304564 
-0.4683255266469260 -0.4366369998177226 -1.142731323590726 0.5882633931286629 -0.9852856579520697 0.2568231178348796 2.187892997043881 
0.4932000584158675 -1.204725615311253 -0.7792147931529584 -1.461189697405501 1.649512490014214 0.5890140120788244 0.7134035453608311 
6.367954216506607 -1.376462195944676 -0.6756766431639043 -1.872005793547410 0.1556185954047253 -0.9076764134737982 -1.691751765781575 
0.1003039832544025 1.746707929603281 -2.220041112014080 -1.827916825262820 0.2364082623302808 1.642374496768710 0.3221632653202147 
2.509581228213957 0.0006596158774950537 -0.8047491981436993 -1.054927566401335 0.8884175911971053 -0.9397690220778895 -0.5992126486655895 
-0.9000710597032130 -1.441597605916437 1.414271780977036 0.05011182376778328 -1.249232495477169 -0.2406919273381988 2.367209483690224 
4.409386265946373 -0.5419608428358245 2.227130439992550 -2.928171339648524 -1.515983095443213 -0.9133162467450895 -0.7370851812662235 
4.161420453661533 -0.6499450175688584 -1.509638516616809 1.862386384525367 -3.102159607780687 -1.574985937605743 0.8129222413852195 
-0.5830904608108372 0.5267192128303124 -0.4047858949520606 -1.639930629235782 0.2035340319503403 0.2827448798441149 1.614808860373905 
0.1394475216391181 -0.9257156792303610 -0.4675005629521278 0.5145409256934297 1.123744294952453 0.8662821246556899 -1.250798624758174 
-0.2030175980461819 1.499126732947210 -1.393788965299693 0.2094584686418563 0.01216362600946429 -0.1672038141935076 0.04326154994085687 
2.196986563205295 1.937611200181818 -0.2443218082628129 -0.9563303942188030 -0.1192091087658198 -2.493800963136557 -0.3209354890031185 
-3.451094312968967 1.183249541972324 3.464678811154895 -0.5900972820335053 -3.023160162043701 2.180425732121980 0.2359976717969821 
-0.9431009971023697 -1.916951296342421 -0.1125812912515645 1.975703075296797 2.616942180130754 -1.541825093723849 -0.07818657700733636 
