solver_type MCSVM_CS
nr_class 7
label 0 6 3 2 4 1 5
nr_feature 199
bias 0.000000000000000
w
2.192860047185628 0.4557588685402196 -0.6072933822810548 -1.046381441513439 -1.613775935001073 -0.2809036104641065 0.8997354535338231 
-0.1085152718582505 -1.039145188218896 0.4484410078067697 0.4357911892001686 0.4896218171186179 -0.3570413107082880 0.1308477566598769 
0.5157404045204502 -0.9711533716101891 -0.4577018942678446 1.173716162114764 0.3955157178518799 0.1908407714160676 -0.8469577900251264 
0.6129610735212137 -0.5573152805325047 -1.986892902280388 0.1362200094955705 -1.320906770335674 1.058232102111365 2.057701768020424 
1.418232104840471 -0.7620105808796801 -0.8702082858491758 -0.7649003963260581 -0.06218825593115449 -0.5449101631931350 1.585985577338733 
-3.100068522793583 0.1408039307874353 -0.2592767651087781 1.249834761855924 -0.3698648370894231 1.687438424804060 0.6511330075443582 
2.020236981213829 1.167217324917622 -1.524722209441228 -0.4217856551025673 -0.5163792457606585 -0.2810653920493111 -0.4435018037776907 
-0.7013945081774072 -0.3822725908345521 0.1879925492162253 0.2496944221531046 0.3023098453595019 -0.001732501570947395 0.3454027838540708 
0.6110978168660107 -0.6949562407483773 -1.084247660181492 -1.296068840500820 2.169025337281561 0.7109709696030786 -0.4158213823199577 
-1.523689852781344 -0.1536983686250358 -1.268744054096550 1.461192797663320 1.512836465506357 0.1993468307247883 -0.2272438183915335 
-0.9101700653373521 -0.7997929488062787 1.093962676750818 1.264596375116880 -0.4083563812753583 -0.1803233829778365 -0.05991627347086505 
1.641788209021754 -0.3609060371583947 -0.2885640184544907 0.1230224794332580 -0.6769560696222203 -0.5632022695076119 0.1248177062877009 
1.523619132386137 0.4927048442023864 -1.281513579224890 -0.4446857340695390 -1.792584414119206 -0.2969261332060981 1.799385884031212 
-1.708950380721350 -0.4035925920436806 0.6417222199538666 -0.02149251146836911 0.5381657068002682 0.6268282097746387 0.3273193477046306 
-1.162127310635446 0.4413774184191555 1.413567048193146 -0.09369072016641396 0.6894336089793265 -0.7481956926008397 -0.5403643521889243 
0.4973573790244078 0.03574178912904952 0.6671905163506469 0.1835809236074043 0.5114310234184282 -1.013222236024408 -0.8820793955055365 
-1.487596886179506 0.9477620389854973 -0.4390527989138643 0.7688228629871933 0.8731133471321856 0.3168227921936003 -0.9798713562050980 
-1.250956939702452 -0.5310325307629506 -0.1139447104229222 1.355941697758365 -0.7293920762649925 0.7444317205277835 0.5249528388671765 
-0.6421842150615409 1.688387265706838 -0.2384057391894349 1.101904705629893 -0.8541388454601764 0.9968279518115303 -2.052391123437121 
1.660658547510908 0.2008293408184844 -1.539303200966021 1.150077400600934 -0.7120518104595628 -0.3583338281891274 -0.4018764493156170 
-2.009105394904086 0.7134893671056175 -0.2534692133084071 0.2535223889696714 0.1500714754411485 0.4563264823571742 0.6891648943388760 
0.3467443357529420 -0.3603530865300273 0.6820013132315000 -1.373647028117730 -1.584232138157292 0.3688592187418593 1.920627385078752 
-1.428631280880754 0.3610416954012981 -0.6062758583149233 0.2358753133557388 0.3093582904508226 0.9645356908664682 0.1640961491213502 
1.284187974515783 -1.211829603291446 0.4271006062473470 0.1477555228779165 -0.2337922242977970 -0.07367180622669550 -0.3397504698251129 
1.394895640433698 0.1416186127602006 -1.946978438802790 1.261112697913241 0.3698135931699821 -2.026980924690896 0.8065188192165761 
-0.8812217938101808 0.2167033860677300 0.5651327782497245 0.8229985317294326 -1.479895894740784 -0.4950317167369039 1.251314709240986 
0.08828640893256509 -0.1058581350207413 -1.303820756488850 -0.9228193385702392 0.009540559565722800 1.526811527126758 0.7078597344547867 
0.4771374075568702 -0.2587458253792503 0.4992903693202795 -0.5448660504828126 0.1082885053292458 0.5872858467784832 -0.8683902531228149 
-0.9959022261893341 0.4890690899962756 0.6985094864920939 0.0009561884576312586 0.07740644933382498 -0.5832980372146209 0.3132590491241304 
0.07081040176225449 0.1948058077917367 0.8531340164340414 -0.1012642072172858 -0.5762497573157652 -0.1123820582243182 -0.3288542032306637 
1.261221834235093 0.5616226474172593 -0.8721601502019545 0.2970546206733589 0.5119648934550237 -1.099717575639700 -0.6599862699390832 
-1.985611443808635 -0.7380205558710506 0.3004012570745602 1.075464493398046 1.200410373214303 -0.3935271323111905 0.5408830083039664 
0.7239890058410656 -0.2938419648840526 0.6519846873057855 -0.9188392454388247 -0.3383965980401866 0.002832194151584989 0.1722719210646259 
0.1181190710670435 -0.3434028057549004 -1.193480433935264 1.387994412787488 1.014040292436996 -1.077779323899675 0.09450878729831719 
1.858928663357357 0.06237668787360132 -0.3190158982455208 -0.08228402395501146 0.6098911991441935 -0.1950607595939335 -1.934835868580688 
1.275379940405916 -0.2994077127238641 0.04288245742678103 -0.8360480883631592 0.7880543882538983 -1.595106730875725 0.6242457458761494 
-0.3885995382865744 -0.1328338917128746 -0.006550620951829234 -0.9870293224135801 1.167712702686261 0.5421803522889159 -0.1948796816103151 
0.1074638926336498 0.3273241947626170 -1.034209930584566 -0.1407235236895921 0.5516700160893576 -0.7624128040163322 0.9508881548048626 
3.577046845608179 -1.721767441321390 -1.329096417097806 0.3735296348512137 -1.187908683702340 0.1533222137492491 0.1348738479128959 
1.329876873245911 -0.05869853009735792 -0.3302734669858574 -1.822273370786623 1.289007883954539 0.005388894400379575 -0.4130282837309844 
-1.352872704455163 1.065533900005073 -1.208511764195604 1.430141170836986 -0.5853933826659092 -0.05816869079029421 0.7092714712649066 
-0.5391034817451991 1.089293173092595 -1.070617704673909 -0.9524274637014838 0.5392384239987260 -0.3074999185719565 1.241116971601228 
-0.1758476874042523 -0.8036474315100950 1.206202613172331 -0.1535281562259425 -0.8242930595935940 0.7978720334623887 -0.04675831190083398 
-1.952193213290637 0.2822249525664682 0.3469424258207386 0.3225404768910355 -0.5229156892523047 1.264432989553110 0.2589680577115914 
-0.4791236345566824 0.6685426914637093 0.3265466225800424 0.003317969187413760 0.6612575964420812 -0.7735137419653637 -0.4070275031511995 
-1.356483399762045 0.4875849842449352 -0.2081797261396853 1.673930468445723 0.4876734666014911 0.09934954158721548 -1.183875334977640 
-2.293651869048352 0.1489433772074617 -0.5749250437462287 -0.9355237663410259 1.322123608483679 0.2632133365623144 2.069820356882153 
0.5990749227332286 -0.9321839060969442 -0.08756380783107510 0.6643578927141244 -0.4794540827141802 0.05115755821100651 0.1846114229838407 
-0.8868799787628140 -0.4758122053436394 1.188784734175598 -1.938880876900148 1.501094788738551 -0.2122377678838796 0.8239313059763328 
-0.07136614015523943 -0.1843599680830482 1.807217647549698 0.2931293218301011 -0.6083727315793069 -0.5313488299264048 -0.7048992996357998 
-1.586426431532750 0.4041192930228141 0.8598001045686353 -0.7797164597855843 0.6487488026449796 -0.4351856260047786 0.8886603170866870 
1.308670406570069 -0.7463916546414873 -0.001176053082574542 -1.194656103968074 -1.152456421130557 -0.5008413390647817 2.286851165317401 
0.3600125372519454 0.2275561148179348 -0.07951034448857575 0.1699326824608131 -0.3063007959584848 -1.369943993093635 0.9982537990100105 
-0.07927200565102255 -0.2974154963304355 -1.823235204770405 0.01265890502652259 1.146737342469806 0.5726713309576172 0.4678551282979248 
-0.5637722240292742 -0.1772536913993233 1.965807705778445 -1.375005622251108 1.037846889222392 -0.01516685875031948 -0.8724561985708164 
-1.288673919598959 -0.1892294360673974 -0.6814084186407663 0.8468927957267902 0.6514948663749441 0.5017663091448730 0.1591578030605137 
1.128908282645795 0.4776580237713435 0.5490658663604535 -0.3186426764320564 0.2230007899602745 -0.1848671563412503 -1.875123129964555 
-0.2270443446459952 0.1007805153572753 2.108075656903637 -0.07523106464325259 0.2360706955742742 -1.040333226965656 -1.102318231580270 
-1.127231107854001 -0.5632677534701191 -0.1334254703466577 1.329874554455506 0.5766525643882626 -0.4568264573011444 0.3742236701281520 
-1.087983034695747 0.7899181060133424 0.5744115118028813 0.4967330415122224 -0.4211920986017166 -0.7512061769308408 0.3993186508998600 
-0.3109629448645090 0.1785291462165247 -0.1476356812341020 0.3483886785409140 -0.1646075316936492 -0.7092044830514619 0.8054928160862823 
-1.890809368574608 -0.02719714119897725 -0.2340515778820798 1.146125972769161 -0.7454526173954844 0.7437405648442421 1.007644167437743 
2.610545242855287 -0.6486489313561452 0.6791378245773720 -0.5890596923446224 -1.024291427222702 -0.3042658399393476 -0.7234171765698442 
-0.9591322634449869 0.6360247394546984 -0.8514159502022244 0.4922805402011841 0.3070283933595116 -0.02683311935085262 0.4020476599826705 
0.3666214264665716 -0.6785487887571635 1.169718695422964 -0.4680951066234864 -1.190781834374572 -0.5272504001463678 1.328336008012056 
-0.07768051881429593 -1.265187485910234 0.05806044524891835 -0.4396281844396706 -0.2674527559007985 0.4792922752758968 1.512596224540181 
-1.333196247255642 0.03518475829979609 0.02615767193627541 -0.4331407322553512 0.6371865146323102 -0.5053118981708292 1.573119932813437 
1.101929584591576 0.2958787786001038 -1.097863668253666 1.321454880246687 -0.4189662724658698 -1.325286116002709 0.1228528132838840 
0.7620169411065233 0.1468075260936772 -0.3903632369542184 -0.8663226931597867 0.7818987395084714 0.5219718277871046 -0.9560091043817752 
0.5966747477334884 0.08250884576273530 0.8828171718232815 -1.614914946368838 -0.3541184334540219 0.2440049625102834 0.1630276519930757 
0.7794172943545309 -0.02579147435975251 0.4097295468387739 -1.045521461134928 -0.6977767466038367 -1.190732448080689 1.770675288985905 
-0.02891504533109775 0.1294638850519554 -0.3803323827281561 -0.2601845994338954 0.7505190458717990 -0.3714928344797259 0.1609419310491224 
-1.014192704586640 0.08804958008449625 0.9568208442856129 -0.2071342614354552 0.7234253960397213 -0.7735173223628208 0.2265484679750805 
0.2470359581769428 -0.08100713477720434 1.019839538550574 -0.5244854518755179 -0.8397307027132253 0.9381364290175574 -0.7597886363791220 
2.160374933671599 0.2242409878316936 -1.387545761487314 -1.469710175602511 1.057160951804525 -0.3096738001306857 -0.2748471360873165 
-3.081661903938346 -0.3408820597169225 1.848548757506417 -0.1766547279768328 0.3272937195177472 -0.5551255430285864 1.978481757636523 
0.7154909929355845 -0.1059886250981198 1.282109865557912 0.7295666186943748 -0.6638898812918609 -0.3745603794916854 -1.582728591306204 
0.1376150624019284 0.9962749122295321 -1.279130903808375 0.3785535892135739 0.4365014541455851 -1.344403473724353 0.6745893595421130 
-0.2016685598306751 0.8512086358902342 -0.9494548813006992 -0.1019834685502259 -0.9856341234514371 0.5878849674003497 0.7996474298424596 
-0.8453113867711045 0.3667836815130730 -0.02462013934198028 -0.2887637410719931 0.9934356191463914 0.4277492740536817 -0.6292733075280699 
0.9308057670384483 -0.3203935073416349 -1.050212837692659 0.07451228134707626 -0.6689133636131162 0.7285526768023551 0.3056489834595261 
-4.173309150206096 0.9029745992019971 2.110951396234219 0.7380057722635820 0.3971657330183165 -0.2681131224612794 0.2923247719492569 
0.09826355322524744 -1.801922012466150 0.2121342751593462 -0.5167211843063948 1.070598817086779 -0.004503081926486237 0.9421496332276592 
-1.605701791120495 0.8399385241040757 -0.3906832105496134 -0.04965343399784336 0.4598227023311424 0.2798324588309237 0.4664447504018092 
0.3134247046874106 0.6060818242863454 -0.6640547482669130 -0.1010095569382325 -0.9273202451900667 -0.6973237883018525 1.470201809723309 
-1.170119741789954 0.3606484900130242 0.3889978554399367 0.02503222966150850 -0.008506729363004176 -0.04517054753769672 0.4491184435761830 
1.194009551416881 -0.3001603499740184 -1.283266891226895 0.3899134299066402 -0.7213641836946019 -0.7060027094264794 1.426871152998469 
-0.2973206344031042 -0.4828739943974783 -1.116360531731527 0.2908978220006901 0.03258689372056838 0.1131022795482418 1.459968165262616 
0.1225597655173691 0.7786749978368188 -0.7601340245914976 -1.171466905888859 -0.2461379586804895 1.970326177658029 -0.6938220518513701 
1.192431623974232 -0.5826730884328131 -0.1982070753281650 1.191027489191849 0.1190264658651972 -0.9618164485627989 -0.7597889667075146 
-0.5031848364274922 -0.09669453859504835 0.4005293584884811 0.7770178779992223 0.5655884819995318 -1.224963836984798 0.08170749352010141 
1.685009672972113 0.1511233167006141 -0.6031202091802558 -1.170991534729375 -0.7826024321823359 0.01854804166248484 0.7020331447567533 
0.8115615030357244 -0.3456887613931444 -0.9086721449543932 0.5296546943488686 0.8354547565975471 -1.121277345771238 0.1989672981366337 
-2.400857304683576 -1.039657914895728 -0.6398332826994302 2.035502133198466 -0.7800497452945422 2.091756005911879 0.7331401084629329 
-1.251504153063189 -0.7259534374021337 0.3405802364143074 -0.2919864019677566 0.7703064648240348 1.025939565523186 0.1326177256715462 
0.6674912225728303 -0.6798957683445723 -1.202500685310492 -0.1257963887293929 -0.2811948669943293 0.8864467705131375 0.7354497162928264 
1.110312274841990 0.3570599935918350 -1.376226401140222 1.159795922884057 -0.6921074764394236 -0.5190610319029998 -0.03977328183523603 
-0.5189762124379382 0.5702597101655453 -0.2368470816997768 -0.4251100352318941 0.08705690001548551 -0.3979557189535964 0.9215724381421738 
-0.7200081229120565 0.007081047339228905 1.767319805942681 -1.205163044974426 -0.3068071920942638 -0.5732272662576914 1.030804772956522 
-0.3669368676513073 0.4117593147556566 -1.470935363042734 0.6879484657325605 0.004372030336111519 -0.4774375628029368 1.211229982672642 
0.4690544716215003 -1.188131355179231 0.7164678123296571 0.8154885229032859 -0.07058368765536467 0.3132621018158578 -1.055557865835710 
1.269264721195846 -0.2669347145236667 0.8114031053072646 -0.09123203616978710 -0.4417799418361214 0.4556295640731911 -1.736350698046728 
0.8910453434577910 0.02560478105973519 0.9639559274706978 -0.9899522950025809 -0.8505089501962311 0.9938370694688468 -1.033981876258269 
0.3218976835067013 -0.4763401382520247 1.020693726553483 0.7561399634920063 -0.4108388028425239 -1.304698142385350 0.09314570992771141 
0.006142393779071644 -0.8746374459274427 0.3871926247069632 0.9718918020163594 0.6076106281685097 0.7823675338974941 -1.880567536640952 
-1.884897467625906 0.08241322722120877 -0.008918678043441389 0.7793175728461914 0.3752121601902244 0.1644783699457462 0.4923948154659763 
-2.202902683180419 0.9993822390368021 0.8034086200196358 -0.2658645916979197 0.5565074168029881 0.2185566542905255 -0.1090876552716219 
0.7438687233065141 0.1218098846375912 1.567370828936836 -1.586380947458590 -0.1777009185294400 -0.2915560151386246 -0.3774115557542927 
-1.261170978574124 0.1820302583517590 -0.7595221781580456 0.04276959696986332 0.1767179299964694 0.8345521717412270 0.7846231996728493 
-0.2552831181704333 -0.1103486797466980 -1.142999251302890 -0.2365520690078311 1.110422818392379 -0.7116448137913609 1.346405113626839 
-1.584359074154128 -0.05855840842940348 -0.6346802593662568 0.3207276777267652 0.8978698726192188 1.379823449859688 -0.3208232582558824 
1.268695045156577 0.03707294541488160 1.162608301585926 0.3261552770572321 -0.1260607498069078 -0.6664994142388653 -2.001971405168860 
0.4865540710295303 -0.6457171061155967 -0.2248440086836355 0.7632959462014274 -0.7387784634528536 1.097939352137286 -0.7384497911161573 
-1.336978129065239 0.4354041233153811 -0.7915133664668298 1.538362897106390 0.5832414699823797 0.8331423241170840 -1.261659318989164 
-1.201370058264416 -0.2036352476537270 1.706280638654894 -0.3810446962262523 -0.2331065447386362 -0.7344496487017804 1.047325556929925 
-1.263720808891349 0.2804879768544223 -0.5077762884297401 -0.6680870202445218 0.6054137101807441 0.1391353470729444 1.414547083457511 
0.6610289298562506 0.8353189353072232 -0.2310973454918222 -1.561567286969867 -0.5281439785506039 0.7360835729314321 0.08837717291739128 
1.305245324145790 -1.171749415553240 -0.2782902533912338 0.6121985942830747 0.4265415245818967 -0.6787682041181395 -0.2151775699481507 
-0.1635308565375727 -0.8522773988517516 0.8573122670652754 -0.009728917360122444 -0.1698354351803486 0.4934768636804898 -0.1554165228159728 
-0.2464237495263901 -0.9728270568478204 -1.751805836182490 1.503620033080025 -0.2169080048836843 0.8801280944605336 0.8042165198998328 
2.489595713106170 0.3480390130355148 -1.536111474352630 -0.7324594472213342 -0.6619970880575236 0.2331190879444257 -0.1401858044546351 
0.3024225537220333 -0.1552168931407879 -0.3838368702910373 -0.8371082432197225 1.328679536106538 -1.600708234883958 1.345768151706933 
-0.4282065105494478 0.1264109013554609 -0.8299074630292517 0.4243350627598834 0.02583143909998790 -0.2635739593916494 0.9451105297550199 
-2.206972456131478 0.6108781520724774 -0.6911988431608516 -0.6715022762808163 0.1746038403287657 0.08045862257328420 2.703732960598616 
0.8735039752120372 -0.4429832289662304 -0.2989632517892913 0.2963325889898966 0.7841091675541504 0.5723805157810449 -1.784379766781607 
0.9946512172938364 0.01272462805827040 0.4309308769283204 0.6168747325064649 0.3622935382104034 0.05899436039869168 -2.476469353395989 
3.148574264581389 -0.4930891491704803 -0.7829271198633084 -0.1387278177839280 -0.9065263081016707 -0.4533911512080883 -0.3739127184539079 
0.3379781955037466 -0.7726627906972525 -0.6258163617811311 0.2513910922087833 -0.3315880888123155 0.1131100948925151 1.027587858685656 
0.7158051666633958 -0.5071533490271012 -1.009484635339071 -1.627970496480438 -0.3111280148179961 1.519089472848815 1.220841856152394 
0.5873009874847931 0.4578081361546068 -0.4119147828988182 -0.02731164693850777 0.5679558205674011 0.2206467041560242 -1.394485218525505 
0.9212973973599593 -0.8298340443450523 -0.3240155284716115 -0.1865968559142452 0.3565195859116284 0.1702208760576647 -0.1075914305983464 
-1.120472014183316 -0.6081071120664732 -0.1224469371290027 0.7002106447383062 -0.5594737080130519 0.5763531208417604 1.133936005811781 
2.250947826458723 -0.6901792950649602 -0.6079521642407423 0.2385800437816140 0.2522260331630166 -0.8458431801441537 -0.5977792639534996 
2.622814987362983 -0.4417184856489695 0.2012513939756548 0.3116729978937340 -1.175309810280034 -0.8608872240020559 -0.6578238593013181 
1.186232954721740 -0.9021158087551521 -0.3998579978024900 0.2308275223589165 -0.3061241822340290 0.3860008546488734 -0.1949633429378582 
2.346986575929308 0.7527855020898465 -1.119819742921300 -0.8177237276823922 0.5376967639072716 -0.5796799037994261 -1.120245467523293 
-1.119154638111545 0.08315950730134648 -0.6984156075475835 0.6606980848817419 0.8346364540008238 0.06397847957247019 0.1750977199027491 
-1.035691886210095 0.2617501453655813 0.9145699201158143 0.02923216310495983 0.1559861608727530 -0.1350690632292180 -0.1907774400197982 
-0.01898035042205811 -0.2704951498495010 0.02436941712541614 -0.2516456946452689 1.000346713206463 -0.02833681064588145 -0.4552581247691689 
0.7904308395278314 0.1773837309262559 -1.572274929722893 0.8975904088715407 -0.01129095822583521 0.6205595908539685 -0.9023986822308724 
-1.158137986648204 0.2481825086689613 0.6335780215017438 0.5470629409191281 0.2580524172205951 0.2146126154888464 -0.7433505171510697 
-1.802426676811848 0.1378186426808515 1.499049488365253 -0.2367700785510774 0.2555210028760181 0.04914293094136822 0.09766469049943163 
0.08243125387996461 -0.6537313250319800 -1.042258585608333 -0.05209215216015779 -0.6170262712329945 1.322896805124912 0.9597802750285860 
0.4983373274660334 -0.05360753236808416 -0.9475755430911507 0.3677417154407598 -0.2208830484535352 0.03041462035314619 0.3255724606528352 
0.7159190672866912 -0.3924106160022700 -0.9394689006915505 0.1628330831573017 0.4823301393761804 -0.4822797697174651 0.4530769965911098 
-1.841108582663716 -0.5013049231864134 1.715575827352990 -0.1596262583059476 -1.279683358037549 -0.9979712730364724 3.064118567877102 
1.443990343073202 -0.2540819741263521 -0.8750111477196060 0.6927447111209472 -1.053797352683657 -0.1677619845600910 0.2139174048955582 
0.3989342437381458 -0.6521231005510015 1.306958297099838 -1.082606457540457 -1.035529058197525 0.6887483556399694 0.3756177198110351 
-2.194231800170195 -0.3196803719668693 -0.3012700612066959 0.8746418555284182 0.5314950904832366 0.7234393978266508 0.6856058895054422 
0.5152783650659876 -0.8753648935539252 -0.1770581598932079 -0.5305455455022259 -0.2918347333029624 1.450612944602473 -0.09108797741613976 
-0.05832032262501037 0.3227548398451668 0.04850645899268515 -0.7339752315971642 0.4684331931788236 -0.2575051165271075 0.2101061787326077 
-0.4079999132302162 0.1125575604515503 0.9473564852143411 -0.5513203926951993 -0.01240268796422290 -1.225354877929983 1.137163826153723 
-1.716273873745871 1.242768271435201 -0.6736106460148547 2.086691833467584 0.03901103895078037 -1.099753269530352 0.1211666454375235 
1.402276586855358 0.1776064966926670 -1.586384211739709 0.6724220707165827 -0.2813063563316457 -0.4244004050167574 0.03978581882350479 
-1.010466346555977 -0.9143551217329229 1.431483002025031 1.041471360440555 -0.4677571836803962 0.1464500001522572 -0.2268257106485448 
0.7577032146100243 -0.3325677214727773 1.601812233700344 0.5533540338500884 -1.366586368096174 -0.3788965265434955 -0.8348188660480091 
0.7505532837984626 0.2776538657649745 -1.478087233086488 1.079498534163827 -0.3774515365566684 0.4779598754012478 -0.7301267894853518 
0.3622979898855444 0.1918716803368948 -1.338492404807426 0.1646723952096882 0.5348641574877112 0.2217798616265447 -0.1369936797389532 
-0.7454424277099955 -0.4213105844731168 -1.164825936481811 0.001842310295910599 -0.04555164437685929 1.149720756825451 1.225567525920427 
-2.668056562976135 1.447611598071077 -0.8064045789436162 0.01337921234175772 0.1843913536910965 0.9552815091882356 0.8737974686275809 
-1.511910403496792 1.013885197912423 0.9791397501742962 0.1133573498877150 -0.5771700504960504 -0.4001466734132591 0.3828448294316691 
-0.02537013318857344 -0.07072693482250986 -0.2507673342443445 -0.6386243874462311 0.9291196620463944 0.6841757488657260 -0.6278066212104628 
0.2414768807138382 -1.049176016655305 -0.3798783946953294 -0.5213411654985219 0.2153057780928360 0.4999296474850916 0.9936832705573898 
-0.9338072968914820 0.2382402472342429 -0.3574934673434944 0.8821562562213922 0.6195644819890058 -1.079330050461504 0.6306698292518422 
0.2572584357264474 0.5420165611492664 -0.6715416250271101 -0.07272734569338792 0.6146826395043650 0.6629528155681951 -1.332641481227773 
0.1012116790616195 -0.1137174728663572 -1.964796302864063 0.7155145965019604 1.105967220041988 -1.049224334218204 1.205044614343048 
1.449302665635171 0.5436799672785884 -0.7407379672744699 -0.2787078158618606 -0.3542367315895347 -0.8983913392003560 0.2790912210124639 
-1.668455636398893 0.1973342399414741 -0.2873468394273996 1.129841113664595 0.9976936776947534 0.4935133550820994 -0.8625799105566222 
-1.706603894766614 0.1367208043895212 0.6769899854051216 0.7967709258761113 -0.4703625857327389 -0.1847958918048139 0.7512806566334093 
-1.712249777848388 1.195968109856759 -0.7702396880156289 0.3588559935353690 0.3399691600658554 -0.01495082415794749 0.6026470265639794 
-0.7114439286682664 0.7964772439656153 -0.8367553180998433 0.3040160641218347 1.471593285405429 -0.2447725907300699 -0.7791147559946972 
-1.141873980311748 -1.263416506809512 0.2569686502062590 0.1161535323300861 0.1540682020775042 0.07404556914041661 1.804054533366992 
-1.797003903372218 0.003000069997768717 1.812587724140925 -0.03150714558941094 -0.04780047205608849 -0.8345708573893477 0.8952945842683654 
0.5256544370557741 -0.1137492241441238 -0.6134168746432962 0.7238118921910410 -0.2371120524560199 -0.2830964888732774 -0.002091689130096080 
-1.193492380021881 1.081630934351534 -0.4593508975498744 0.7571124335022853 -0.5372918578822602 1.607954679104404 -1.256562911504215 
2.219298968829585 0.3158322686514933 -0.5768038514023585 -1.328707753462555 0.2891480936309246 -1.485561609346001 0.5667938830989138 
-1.078045736161751 0.3748723069837868 0.7633958886411177 -0.4267859008565059 0.5217888840311935 0.5192326363800086 -0.6744580790178474 
-0.7567800704083145 0.1276021833683382 0.2144170309855567 0.6032774299373029 0.7661923154554126 -1.282393711694546 0.3276848223562533 
-1.440721494280985 -0.3557485740026170 0.04610902238088616 -0.9241509181574709 0.1215478179137182 0.2224978818024294 2.330466264344044 
-0.7433583779375607 0.1377468764259129 -0.4275790843671843 1.366339341820727 -0.7623480260529171 -0.2245972671636420 0.6537965372746644 
-0.1605345601229614 -0.4096310759029959 -0.6357582955885529 0.5525976659231919 -0.5047574358933686 -0.2626910192915977 1.420774720876288 
-0.008572070550764687 1.266199728949502 -0.5457987780261156 0.5695570159045262 -0.4433667819101935 -1.026957148566659 0.1889380341996979 
-0.2573121419904911 1.320527186088083 -1.173968174823790 -1.356062299546418 -0.6401580993263005 1.260407614130998 0.8465659154679165 
-0.6123505180129719 0.1992807684598791 -0.4162613085592747 1.025955971696143 0.4126948386351457 -0.7554940695927135 0.1461743173737972 
-1.468750796752395 -0.4961377074839163 0.7783087636337010 -0.1050920687209259 -0.5272440238768665 0.7410822915758700 1.077833541624534 
-2.371957087580550 0.4015141160475056 1.391133034255977 0.2759850469673570 0.2113693823911251 -0.8238088235124413 0.9157643314310235 
0.5951289699487391 0.3237638399096741 -1.056423925210651 -0.4805715760488453 -0.2507304144192186 1.215100337990772 -0.3462672321704665 
0.2444752517610798 0.6112939310863562 -1.156674382348279 -1.285597803142135 0.4103098383938499 0.3793073832922068 0.7968857809569142 
4.262303540033456 -0.6402396398910946 0.5117314798712062 -1.760908969036151 -1.107667385054553 -1.331314352122629 0.06609532619974327 
-0.4628284086854072 0.2666244760912576 -0.7599737828489540 1.638730941455801 -0.002278410429967005 -0.3010260155746415 -0.3792488000080889 
1.179418406578486 -0.1454707928869327 -0.1166283732610001 -0.4816736298166157 -0.3528282301086503 -1.256225289534191 1.173407909028910 
-0.7802306003652422 0.8652160424329024 0.4323280268200823 -1.175609845172544 0.3510872036049764 1.515876586847379 -1.208667414167559 
2.110288873192720 -0.2770748017954130 1.456390616728462 0.05041113083840496 -0.9193131310793545 -1.214238383857346 -1.206464304027469 
2.765513311371585 -0.3447725531987573 -0.5501018613790224 -0.5476955170205505 0.4824837464154870 0.6118496689723056 -2.417276795161037 
1.245588694167858 0.04558430555058417 -0.4212968213003532 -0.4388765937726064 -0.4948005560896213 0.4832908913379343 -0.4194899198937990 
0.2172306453073648 1.597524706251654 -0.4097196134772211 -0.9107213091461701 0.2037761364485123 -1.050189966272524 0.3520994008883820 
-0.3923098170902447 -0.07459719615295766 -0.9881002044735417 0.6433173049846678 0.4361057979731834 -0.1002238863597869 0.4758080011186823 
1.218468881618634 -1.091541772981146 -0.6975319489913957 0.7444284184750892 0.04239613338847589 -0.5879184096891164 0.3716986981794597 
-1.507434613019195 1.266179300616302 2.597230541484326 0.7372071501625422 -0.8654014516900329 0.5488311847610567 -2.776612112314998 
0.4233526825565459 -1.835611171797124 0.6858100133038864 -1.311435155273934 0.6625827101517031 -0.2076026501025435 1.582903571161459 
