2099 64
611 -0.73178416 -0.029355876 0.12874971 0.53174728 -0.266736 0.66791242 1.1127169 0.64162725 -0.081702493 0.87729597 0.25313646 0.54838866 0.67671108 0.65177727 -0.41193056 -0.30071414 -0.33178866 -0.61728483 0.068465665 -0.75748235 -0.58035994 0.040253334 0.1088505 -1.2775332 0.30904377 -0.12388594 -1.0954922 -0.22992693 0.016042365 0.060426638 -0.22624603 0.59059715 0.19109505 1.606972 0.19888933 0.84878671 -0.32486334 0.78582776 -1.0688035 -0.076206937 0.99333876 -0.21231678 -0.91980761 0.59500247 -0.2631408 0.46505862 -0.51149118 -0.21070528 -0.34523419 -0.94892424 -0.06717068 0.10164838 -0.12481016 -0.21188526 -0.93643743 -0.85830939 1.3519999 -0.015203618 -0.88662523 -0.19137809 -1.1464691 0.39896914 -1.0242609 0.57874995
2208 0.091314435 0.050480969 -0.081712626 0.62409782 0.48909584 1.2757671 0.29561681 0.65414894 -0.27769348 -0.53808779 1.4133226 -0.57232344 1.3110589 0.036967654 -0.88833052 0.46046579 0.56360871 -0.29198214 0.84565789 -1.0719353 -0.47512838 -0.21903025 0.44565427 0.20817308 -0.59767038 -0.48438001 -0.34739676 0.23905417 -0.52350718 1.077271 0.04573838 -0.63008374 0.45392486 0.57279807 0.092004612 -1.349656 0.71746117 -0.69884777 -0.56690806 -0.95927918 1.1605654 -0.34247667 0.18850882 0.19405644 -0.14067005 0.698488 0.67573446 0.23742256 -0.1090752 0.73644364 0.095311888 0.90729702 -1.2113914 1.4586103 0.4708975 0.34396073 -1.0530468 -0.59894079 0.7447319 1.1930636 0.41539013 0.62744081 0.54185253 0.09711913
1068 1.0935465 0.69773388 -0.0085932463 0.78644723 -0.43229318 1.0600995 1.4319451 -0.091727369 -0.70490557 -0.64797986 0.69140434 -0.60375535 0.83908588 0.47994545 -0.63771355 -0.22181843 0.75688362 0.30997962 0.89413595 -1.7540733 -0.44116539 0.070046984 -0.32505408 -0.33104637 -0.15839006 -0.67013305 -0.059249409 -0.22275698 0.29891858 0.26055744 0.35215357 -0.60108244 0.069637157 1.733961 -0.20380503 -0.10393392 0.9359138 0.39682969 0.09461081 -0.5589391 1.1582583 -0.48965091 0.47766179 0.31130213 0.59297603 0.88873529 0.2178494 -0.57047457 0.80258465 0.917463 -0.21824023 0.96234667 -0.38814291 1.2030627 0.5407064 0.28230065 0.31894854 0.072454996 -0.37558624 0.75194544 -0.30624765 0.62202281 0.38511252 -0.41269413
1338 0.43055561 0.3858223 -0.012098735 0.29570407 0.0077217068 0.17310394 -0.41377786 0.042999513 -0.8141644 -0.22258057 0.006947815 -1.1860864 0.57559001 0.55146015 -0.83573544 -0.49997267 0.49747667 -0.25499609 0.79425102 -0.98048258 -0.68734765 -0.38278031 -0.78325063 0.32559285 0.12294047 -0.7993229 0.39782748 -0.079241678 -0.26997736 0.41721022 0.095797159 0.39214388 0.20822118 0.90234834 0.22953059 -1.4439266 0.24608995 -0.82813811 -0.99071127 -0.76945722 2.3451502 -0.86896247 0.012127008 0.76943129 -0.12210236 0.83924872 0.42584187 -1.1362472 -0.25574774 0.37485492 -0.098182686 -0.50179893 0.11663531 0.19538914 -0.18633838 0.34668896 -0.70169419 -0.81160891 1.2008697 1.4244914 1.1110494 0.47714588 0.69561529 0.51471746
1117 0.73448884 0.10770942 0.086649537 0.28270683 0.3933228 1.2761525 -0.4104448 0.81390011 0.16292416 -0.23051547 0.14827333 -1.4671731 1.2591006 1.0039798 -0.046200156 -0.045220621 0.18328869 0.11949797 1.3824847 -0.87156343 0.47666708 0.1932402 0.72319037 0.29768229 -0.76474971 -0.10644315 -0.14627832 -0.66459817 -0.2094786 1.1224617 -0.42941195 -0.28104818 0.50130832 1.0981719 -0.25098372 -1.0671401 -0.098885857 -0.69897783 -0.44487026 -0.51561081 1.4702265 0.14883567 -0.82746494 0.947869 0.11662448 1.025206 0.018142894 0.038063493 0.37885159 0.73773748 -0.79136175 -0.62669307 -0.25189316 0.3023147 -0.71103811 -0.26719034 -1.1657592 -0.067110874 0.40619758 0.91496551 0.039186042 0.52341741 1.3129246 -0.11767625
1640 -0.72512209 -0.20002797 0.30059385 0.15297146 -0.90218258 -0.21247832 0.13615017 0.25575751 0.82360744 0.058521416 0.7038604 -0.32288596 0.75325233 -0.60826194 0.23711786 -0.39249802 -0.19017625 0.026588297 -0.096437365 0.2843684 -0.17923091 -0.31349954 -1.3322409 -1.1244 -0.40835434 -0.011786822 -0.097976625 1.4038253 -0.70853376 1.5349152 0.1229488 0.36389193 0.66865057 -0.10869692 -1.0156051 0.93555516 0.35175917 0.48234791 0.65918988 1.1271299 1.3228935 1.1093643 -0.48125744 0.19715695 -0.39660084 1.0851774 -0.46321476 0.14015788 -1.2848718 0.41748315 -1.0385691 -0.72673011 0.33138499 0.22454597 0.14565973 -1.2243679 0.59793156 0.21112947 0.42266148 1.0795083 -0.76285744 0.16963688 -0.17823271 0.10013939
518 -1.1364583 0.66331792 -0.39072916 0.40493533 -0.008906465 -0.13720641 0.54669929 0.88494658 -0.85703802 -0.79082268 -0.19137487 0.2505199 0.9224847 -0.45094985 -0.81935596 -0.22880037 0.50051206 0.19477515 0.54740822 -0.97387654 -0.62229055 -0.96831834 -1.7197312 -0.4077777 -0.48973522 -0.32054424 0.99276161 0.71895701 -1.3725595 0.60941219 0.66912067 -0.21117768 0.22120225 -0.16070719 -0.6371417 -0.32724375 -0.19045702 0.25806478 0.12131025 0.38774052 1.1437466 -0.10244171 -0.41169667 0.2211965 -0.13395409 0.74233514 -0.42243966 -0.077052556 -0.28128061 0.098700918 -0.41908178 -1.2554005 0.32209572 0.050818145 -0.68523782 -0.1887867 1.175945 -0.096582793 0.44865805 0.17316398 -1.3076469 0.087319478 -0.8033762 0.42021126
277 -2.0171957 0.012536928 0.83039397 -0.027927672 -0.21214736 0.2205677 -0.34480765 0.74533021 -0.32765886 0.23767468 -0.11747819 -0.021621278 1.0750356 -0.090960152 -0.57921726 -0.67006731 -0.3073436 -0.37208673 0.65804482 0.061591975 -0.029644329 0.37639764 -1.1108373 -0.52763021 -0.16222155 0.26253936 -0.38353258 -0.27336931 -0.74957258 -0.027211066 0.065322541 0.20481901 1.3867036 -0.41124389 0.45315871 -0.53293395 0.31877205 -0.39126503 -0.13813981 0.77059406 0.85805899 -0.52660483 -0.19672367 0.78475094 -0.94799346 0.86879826 0.15954173 -0.11483913 -0.96790493 -0.12528184 1.1789905 0.36950895 -0.53158998 -0.0021251151 0.4881416 0.18005288 0.3995018 -0.83625233 1.4305049 0.34963307 -0.8763901 0.29647812 0.10201326 0.44998121
391 -0.83031279 0.59560978 -0.23677592 -0.0076913116 -0.11954737 -0.44401714 0.18243612 0.71268213 -0.87533563 0.29527646 -0.65934962 -0.21983154 0.51946986 0.4796443 -0.27731928 -0.40336269 -0.033885337 -0.0019549029 1.2368876 -0.11371607 -0.62872565 0.27337888 -1.3044784 -0.55997473 0.01669506 0.58445001 -0.58353651 -1.3752104 -0.24243376 0.31451133 -0.66257161 0.88117021 -0.57728553 0.52587181 -1.296676 -0.31340402 0.45944494 -0.08878018 0.59020275 0.24948215 1.4495697 0.17880492 -0.71773165 0.72754943 1.1212418 0.68473679 -0.61649674 -0.91438162 -1.0376397 -0.37178114 -0.92789322 -0.21557078 -0.28728342 0.089175783 -1.1191314 -0.33119231 0.3835735 -0.46615306 -0.21133095 0.72659397 -0.41340446 -0.14528519 -0.89699638 0.58066535
1260 -0.75152355 -0.12573324 0.18578297 0.6637302 0.17271776 -0.92469442 0.40680671 0.91965121 0.52045929 -1.162863 0.29576969 -0.099541306 1.459504 0.2111633 -0.27035257 0.37445849 -0.15470015 0.5967288 0.28144181 -0.37236932 0.095082209 -0.68624705 -0.69814086 -0.77522689 -0.28417519 -0.33109808 -0.13336672 -1.5579749 -1.1669021 0.81572455 -0.055067759 0.84215713 0.25161687 -0.23684762 -1.0833954 -0.14976296 -0.1924409 0.091764815 0.064078845 0.25478393 0.36341578 0.46911365 0.033943117 0.95470822 0.48508728 1.5113163 -0.059427045 -0.52053684 0.30845991 0.54312325 -0.84811431 0.52971303 -0.22355905 0.70033157 -0.27974823 -0.8237949 0.49630967 -0.56867284 1.0267179 0.23007178 -0.50315881 -0.62916291 -0.27528486 0.57527965
1237 -1.310253 0.74580556 -0.14916641 0.31650868 0.04742606 0.10586376 -0.61191463 0.59563529 -0.36755002 -0.73614752 0.0099540688 0.70900959 0.88125628 0.76146114 0.72915125 -0.22227444 0.01835479 0.89490753 1.3370031 0.56518131 -0.29370466 -0.5953117 -1.0319669 0.054476194 -0.0045543569 -0.87391406 -0.80155224 -0.97364396 -1.5627823 -0.054324139 -0.41639867 -0.8667503 0.30649152 -0.032953292 -0.033160396 -0.26445189 0.06744761 0.44502908 0.4648273 0.45707989 1.2455907 -0.030798472 -1.1548029 0.64221203 1.0799295 0.71407831 -0.31818503 -0.24391802 -0.15867244 0.31851143 -0.47912219 -0.26134115 -0.1077921 0.99862438 -0.73076046 -0.59902406 -0.16656373 0.09772741 0.14564542 1.2144539 -0.082575589 -0.54489428 -0.1619264 1.2571164
1550 -1.877066 0.40236104 0.24337243 -0.75628978 0.20845489 0.24651423 -0.20184526 0.68473715 0.7083196 0.5152235 -0.67134839 -0.374221 1.4451835 -0.2423885 0.25047714 0.28101194 -0.067292929 0.060156249 1.0620372 0.02819638 0.24034657 0.88085377 -0.36004749 -0.32701591 0.28383759 0.09351474 -0.28250298 -0.76268619 -0.69282246 0.087500088 -0.36662942 0.2333605 0.15906186 0.027874298 -0.69653893 0.14804435 1.177623 0.21708491 0.31138033 0.87936878 1.0665163 -0.24488458 -0.71465391 -0.14697669 -1.161176 0.68755114 -0.74130172 0.15466194 -0.29958299 0.74478817 -0.46389604 0.20276701 0.26887709 -1.0060188 -0.4342615 -0.79843402 0.20081846 0.13442896 -0.26976621 -0.029670481 -0.16090216 -0.43938178 -0.35202876 1.0368369
2034 -0.93715709 0.41952682 0.068671972 -0.050891124 -0.051490594 0.17364728 0.18271548 0.10371908 1.1682826 -0.65377015 -0.2047331 0.58941722 0.14105898 -0.09370175 -0.54018855 0.11391825 -0.56311464 -0.35859632 -0.14412312 0.57504964 -0.29446101 -0.26280504 0.019875765 -0.94646078 0.86780298 0.069399737 -0.84279162 -0.3419821 -1.5886536 1.0977798 -0.96239483 1.6371132 0.28796902 -0.31016496 -0.27566403 -0.46903247 1.0297464 -0.37089008 -0.77380502 -0.62356102 0.79243439 0.49596387 -1.0113317 0.40949404 -0.058575351 0.86410159 -0.43533042 -0.23127194 -0.35267803 -0.19279329 0.015763598 -0.23687476 -0.83540154 1.0715263 -0.0076416088 -0.37025988 -0.011286201 -0.4273428 0.37119809 0.62761408 -0.081452496 0.1745467 -0.75452775 0.79920781
684 -1.8952451 0.045960061 -0.023229089 -0.66215712 0.42648396 0.31197503 -0.042383682 0.42178893 0.62389582 0.77248716 -0.62492651 -0.46730867 1.3766294 0.063972004 0.24499708 0.078817956 -0.53687692 -0.32842559 1.0018026 -0.071852289 0.3598372 0.83062708 -0.21148053 -0.34473416 0.20788604 -0.080714911 -0.20289397 -0.47471142 -0.33842161 -0.00039349491 -0.37372068 0.3853164 0.50555593 0.39672616 -0.41160265 0.049601354 0.73613721 -0.02517776 -0.0091028381 0.81274533 0.88937891 -0.019242194 -0.83863121 -0.37391022 -1.6537899 0.560601 -0.70701879 0.091762058 -0.37001774 0.5486089 -0.087229975 0.052210927 0.34115827 -1.0488394 -0.75323212 -0.53668201 0.51908976 0.62723905 -0.40898505 0.063969851 -0.45825806 -0.43781763 -0.58043826 1.1148322
115 -0.93852443 -0.44652265 -0.024939017 0.030721722 0.25153637 0.89643347 0.93627268 0.56205392 -0.80416614 -1.1521242 -0.63721281 0.13406408 0.86438245 -0.095932782 -0.84287524 0.17555316 0.18187165 0.76476663 0.62151945 -1.5340331 0.024101244 0.52612752 -0.50400239 -1.0656384 0.11699248 0.4617784 -0.10461131 -0.17821477 -0.11587735 -0.38306406 0.12664869 0.53840226 0.15866815 -0.088085376 0.38742095 -0.098259695 0.78777486 0.43052644 -0.95337474 0.31613639 1.259555 -0.18341936 -1.0995429 -0.59620726 -0.84535837 1.0016962 -0.46788162 0.26163357 0.39286005 0.69972402 0.097556084 -0.13373743 -0.7844497 0.56670439 0.051317692 0.96821541 -0.060570128 0.36675286 -1.4085468 -0.30122021 -0.37605077 0.67835242 -0.37751937 -0.1177508
1147 0.25258136 -0.22990608 0.021888962 -1.9934902 -0.34747922 0.15041544 -0.099397227 -0.38109338 -0.47472119 -0.14589766 1.075056 -0.27684298 1.0649108 0.38357791 0.42465165 -0.59263533 0.37783766 -0.29926166 0.066161409 -0.77919525 -0.12277509 0.46880826 -0.47407383 -0.54137135 -0.16696975 0.2236488 -0.050270911 1.2850487 -0.74609762 0.43016803 -0.17294034 0.24911225 1.0516962 0.52862769 -1.1826421 -0.41254121 0.19127391 -0.11478671 0.23917484 0.98676562 1.5408853 0.14969726 -2.0145564 0.61609501 -0.4468683 1.1091923 -0.53109378 0.39271685 -0.19847532 -0.45543146 -0.63278621 -0.29642719 -0.52736288 0.5810529 -0.54956758 0.023611689 -0.12820154 -0.071192972 -0.96343929 0.89155626 -0.88474178 0.53164554 -0.49756676 0.21006419
785 -0.26332632 0.69618511 0.0012388367 0.32257906 -0.30592278 -0.77898365 -0.36840835 -0.0035036497 0.085913926 0.33886799 0.21663982 -0.68797296 0.70252627 0.73222363 -0.31745526 -0.09939567 0.6083774 -0.20804873 0.39727452 0.14083825 0.53406125 0.580908 -0.47913408 -1.2275081 -0.12988447 0.37052673 -0.48069066 -1.604185 0.3842814 0.051284716 -0.27818701 -0.31455153 0.79757833 0.14649127 -0.65665472 -0.85324919 0.99851942 -0.63634986 0.21324953 0.62583828 0.94123298 0.25847673 -0.14397287 0.37365898 -0.090684302 0.63800001 -0.74913538 -0.86493033 -1.3193275 -0.012640853 -0.19060408 -0.28966191 -0.36297482 0.36713669 -1.0757071 -1.3918232 0.3804374 -0.67333889 1.1456867 1.7700731 -0.077134341 -0.32379627 0.70641369 1.6063696
1032 -0.68389475 -0.17294882 -0.42143396 -0.12178246 0.17047514 -0.30645451 -0.30182859 0.0022345399 -0.055073041 -1.1672146 0.032114774 -0.15932614 1.1389387 0.20178139 -0.77026993 -0.24303491 0.80133545 -1.0261955 0.35828739 -1.0194179 0.35405654 0.2407065 -0.5036329 -1.0872844 0.46543393 -0.755503 0.034869861 0.75392592 -0.32630309 -0.32943237 1.2018569 -0.52778435 1.5023869 0.00056091393 0.03752866 -0.84961176 0.50375444 -0.21836269 -1.0581692 1.3103995 1.4194026 0.12828992 -1.0783309 -0.32773352 -0.90745747 1.3534675 -0.79461563 0.51378065 -0.6118263 0.39303103 -0.1809448 -0.47477975 -0.59758967 1.1783528 -0.68400764 -0.61939186 0.15282103 0.23773745 -0.68907869 0.84353328 0.64757776 -0.087193884 -0.43042603 0.19415618
1105 0.12104344 0.60570538 -0.72818148 -0.33406213 1.3218776 -0.47691059 -0.047174633 -0.29548457 0.62894726 -0.77568185 0.99092716 -0.44505346 0.90508544 -0.50172526 -0.33784765 -0.42608151 0.70884311 0.3037535 -0.087903872 -0.35902026 0.1419379 0.319675 0.052316893 -1.761905 -0.18593445 1.3663969 -0.33746701 -0.98852676 -0.043270137 0.88388097 0.28363729 0.66732532 0.30268568 0.58920425 -0.22495618 -0.67665648 1.1812025 0.13025567 -0.19345248 0.32705525 0.6839413 -0.088259399 -0.85385126 0.18774147 -0.81531721 0.87732637 -1.149772 0.42760664 -0.13689506 0.38061547 -0.87053585 0.373027 -0.90638494 0.61518919 -0.39980713 -1.131423 -0.22241497 -0.5391537 -0.095274977 1.0373883 -0.32344034 0.6039353 0.27132815 0.23709504
211 0.44173759 0.77258641 -0.42033276 0.53049701 -0.31372347 0.41386244 0.52451009 -0.41097125 0.64186478 0.37232769 0.63017404 -0.13594803 0.55341321 -0.035590507 -0.22778797 -0.2029392 0.51498139 -1.1477307 -0.59097415 0.017066767 0.32472563 -0.12049785 0.22394753 -1.0528601 -0.64545166 -0.090574913 -0.59189171 0.32311094 -0.25249127 1.3407334 0.19653361 -0.46119785 1.4433064 0.43725324 -1.308303 -0.52100301 1.0419006 -0.15632041 0.35097256 0.61661869 1.5843838 0.097878218 -0.43451753 0.88897085 -0.89290315 0.46669695 -0.79531258 0.47276366 0.49132979 0.24519263 0.10332685 -1.2876276 -0.27776977 0.55767465 -0.36703157 -1.0646342 0.92362517 0.54407829 -0.72017145 0.71938419 -0.20229273 0.62247574 -0.16616058 0.75433809
1857 -0.60461098 0.44581866 0.28775725 -0.15855023 -0.5498389 0.32603863 0.032147039 0.92321527 0.055240817 -0.94863266 0.39350733 0.3995612 0.95039105 -0.46686542 -1.0552481 -0.27450818 0.73201895 0.21542157 0.35559413 -1.6141031 -0.66777235 -0.53949833 -0.52577245 0.069966622 1.4551742 -1.4355755 -0.88596821 0.50690985 -0.84165311 0.69877481 0.22771618 0.31282368 -0.15108982 0.078102902 -0.80176061 -0.64437419 0.90007305 0.45943621 -1.1288526 0.80008322 1.3774487 0.25392598 0.0050683054 0.010625144 0.80127984 1.2153771 -0.23581159 0.65818238 -0.52819031 0.11209013 -1.0217948 0.70551789 -0.26166955 0.30581793 -0.37304813 -0.98813552 0.13983254 -1.0151366 0.015893521 1.0380094 0.26193279 -0.24614061 -0.54452771 0.41522846
905 -0.49105844 0.16941287 0.60025555 0.043009371 -0.97171438 -0.63030845 0.026662769 0.055230536 -1.3637079 -0.41511276 0.68012351 0.80556822 0.71514106 0.45539537 -0.23198818 -0.16127868 0.47335401 -0.7972998 0.18404052 -0.887398 -1.4566478 -0.54131675 -0.59658223 -0.91238827 -0.046806566 -0.96985799 -0.76849347 0.16676296 -0.62926984 -0.5269258 0.099403165 -0.24648254 -0.063437261 0.09833657 -1.0924419 -0.26285425 0.99018139 0.16931388 -1.4399673 0.36876103 1.3621806 -0.57672364 -0.89128268 0.69272834 1.3233016 0.63926983 -0.05091884 -0.11648799 -0.24759227 -0.019284371 0.06020825 0.32332695 -1.161278 1.5291607 0.059809193 0.3734929 -0.1914088 -0.56209624 -0.16509062 1.3048528 0.60826594 -0.71656716 -0.6038 0.56744355
2029 -0.13441499 0.13351549 -0.14648117 -1.1435672 0.22352836 0.35864633 0.16307628 0.59228331 0.77414435 -0.112446 0.52768499 0.83188903 0.9837293 0.72761899 -0.45266572 -0.24020796 -0.38713506 -0.31525993 -0.3333967 -0.051935185 -0.88597751 0.17455471 -0.17435431 -0.96644783 1.3576865 -0.37278411 -0.91282541 -0.32945845 -1.0295914 0.7795251 0.94964123 -0.72108161 0.8859989 0.40894777 -0.70032102 -0.12030923 0.186508 -0.66066676 -0.35380006 0.37431967 1.2447822 -0.18949133 -1.2925304 0.48831514 -0.026699496 1.1005425 -0.43235558 0.77359867 0.24868409 -0.10262758 -0.039137542 1.1747994 -0.44519195 0.55293673 -0.55742884 -1.1843208 0.43997803 -1.0079799 -0.72423172 0.39116806 -0.12153243 -0.82308167 -0.29609457 0.55328715
1183 -0.31859237 0.17169818 -0.97690856 -0.43498755 0.83754891 0.067811951 -0.10098982 0.026307011 -0.73197168 -0.30464453 0.93815267 0.74914455 1.3824041 -0.13129002 -1.368634 0.092362367 0.59388334 0.47964907 -0.54707974 -0.85271055 -0.29232171 -0.52098978 0.40296757 -0.84773171 -0.14832775 0.35467583 0.70649236 0.66410184 -0.45747346 0.82359105 0.54827893 -0.54507631 0.19598448 0.85285878 -0.48102722 -0.4117806 0.17104506 -0.084717177 0.011290746 0.5895161 1.9735498 -0.12362956 -1.2793221 0.23983653 -0.56022835 0.98919654 -1.2096636 -0.19862154 0.3010444 -0.81251591 -0.60283113 0.24518184 -0.33874297 0.64918995 -0.72039497 0.24621189 -0.66633546 -1.346202 -0.37428698 0.47630742 0.0028499237 -0.44964072 -0.81940246 0.64554405
1161 0.54149383 -0.12680994 -0.76721358 -1.0695089 -0.31888947 -0.88791502 0.4680514 0.77362859 0.20957118 -0.57494229 0.56046557 -0.86422718 1.4229739 1.3965998 0.28529349 -0.21934073 -0.46007746 0.43362445 0.84966868 -0.29846713 -0.92065096 0.32108513 -1.2186562 -0.12355657 0.016222397 -0.091906637 0.028326882 -0.18887299 0.3821778 0.88568616 0.82386631 0.23384088 0.95860046 0.040986616 -0.92937303 -0.73637223 -0.42139009 -0.82760233 0.55852598 -0.40749884 1.3354673 0.37826928 -0.87094247 0.59061056 -0.32781476 2.0371525 0.16834053 -0.17557782 0.089869581 0.69481635 -0.39912364 0.127874 -0.79896694 0.39831984 0.041992497 -0.32376638 0.10625682 -0.65148073 -0.61048841 1.1874132 -0.84056485 -0.020480637 -0.041602485 0.22022693
1204 0.61260146 0.5721606 -1.1141728 0.061415531 -0.53650326 -0.094311737 0.70756686 0.1154662 0.8260352 -0.46349156 0.76548308 -0.093268737 0.99490565 0.044273004 -0.55679893 -1.5236353 0.046957798 0.57340896 -0.24163045 -0.31754339 -0.26670954 -0.54911596 -1.4134957 -0.075035468 -0.51755977 -0.77213717 -0.14116284 -0.10965199 0.18570946 0.44224229 0.70862186 -0.47212487 0.97499877 0.5954451 -1.0203243 0.26264656 0.46024626 0.37416703 1.4337125 0.61139005 1.557355 0.61420619 -0.25648361 0.52817047 -0.60754174 1.6541034 -0.036558494 0.51029629 -0.17883891 0.95921195 0.14117074 0.46260726 -0.11216391 -0.16421045 0.1055258 -0.94255698 0.47433364 0.058202967 -0.5661298 0.46137157 -0.99668533 -0.78128457 0.70657104 -0.21992694
46 -0.4868935 -0.20313954 -1.2530065 -0.02884087 -0.048860237 -0.31585091 0.63660461 0.042290844 1.3048831 0.70271915 -0.3890563 -1.039107 0.87321335 -0.32367402 -0.5543071 0.6797204 -0.40964469 0.6943965 -0.33618069 -0.1510561 -0.05180487 -0.35745394 -0.5934391 -0.526586 -1.0843104 0.39303583 0.39454141 0.26883817 -0.071594112 0.74903065 0.51804799 1.0661548 0.41064206 0.15554461 -1.1601641 -1.4490517 0.69396502 -0.77211922 0.36233237 0.63959473 1.6137434 0.62617135 -0.91740972 0.45232284 -0.42040926 1.3537086 0.21530627 0.064622954 0.80603993 0.33993644 0.50864661 -0.47773495 -0.12832081 -0.19067605 0.14699849 -0.5382725 0.055064552 0.085222103 -0.095028631 0.82668203 -0.64884239 -0.082105897 0.90083623 1.2205231
306 -1.4130964 -0.18363541 0.11425992 -0.45428666 0.1233702 0.8513149 0.50296158 0.9215402 0.14104308 -0.24217312 0.17502731 -0.30964968 0.93560946 0.78004169 -0.25835171 0.018479604 -0.33219385 0.94889706 0.21367356 -0.85217422 -0.44649956 0.0019425598 0.097605214 -0.74795258 0.87963325 -0.13445376 -0.7918427 -0.37277538 -1.1788545 -0.55960989 1.2138262 0.81780249 0.054311056 -0.0054073618 -0.26861793 -0.58977079 0.69997865 0.75304395 -1.2470604 0.36158821 -0.15433699 -1.2401683 -1.270018 0.50706732 -0.2775178 1.2426729 0.5882405 0.44451419 0.29377192 0.16236295 1.0060134 0.95631325 -0.12957962 0.44738165 0.031641833 -0.45948544 0.98279697 -0.27494943 -0.39332843 -0.033707034 -1.280905 -0.40813127 0.0682493 0.7670384
2030 -0.99907756 0.31006151 0.3820526 0.75389236 0.27832103 -0.43354884 0.83789915 0.72585547 0.71500224 0.24076071 0.68970805 0.57170635 1.1593 0.23898241 -0.48001635 0.022471979 -0.81472659 0.44422501 -0.14412239 0.0039953841 -1.2744223 -0.65816408 -1.5632043 -0.78911018 0.27366006 0.56962335 -0.2262252 -0.25680235 -1.1262227 -0.23025435 -0.17986465 0.42265758 0.30949906 -0.87764275 -0.6028384 -0.010104795 0.74722141 0.14281172 -0.3190783 0.5840233 0.74643558 0.79446787 -0.79194087 0.21557815 0.040908441 1.4917585 -0.19524692 0.23428102 -0.25773984 -0.20710662 0.61031455 -0.32460457 1.077063 -0.2234997 -0.60360569 0.23821765 -0.1355304 0.35880437 0.49136534 0.61465907 1.1480913 -1.1303049 -0.017386939 1.1573777
323 -0.30667943 0.1788764 0.15357375 0.77022558 -0.75716007 -0.30382285 0.073861241 -0.13806137 -0.80026352 -0.19374683 0.94588298 0.2372162 0.83540416 -0.022578282 -0.61550081 -0.38773531 0.43902293 0.42889652 0.88464278 -1.6805412 -0.13880099 -0.44180757 -0.74188203 -0.34860176 -1.0484899 -1.037648 -0.053813878 0.68334973 0.31243521 0.43688807 -0.16638751 -1.5919241 0.28201512 0.34941161 -0.39479077 -0.72594142 0.17469735 -0.79822862 -0.3780812 1.122521 2.3078618 -0.076929487 -0.59095353 0.15687795 -0.089261644 1.1605765 -0.15276136 0.14920379 -0.76786482 -0.2758778 -0.21188933 0.3674522 -0.44551286 0.82150966 0.41061962 0.16305722 -0.073595487 -0.90855855 0.11701739 1.4416766 -0.20855203 0.9992249 0.14756802 0.35863945
449 0.30753157 -0.25942463 -0.48760128 -0.19485909 -0.56224072 0.020280439 1.1095964 -0.48397058 -0.16999367 0.18675812 1.03935 0.20928815 0.64010942 -0.17739426 0.059402589 0.29976112 -0.12411895 0.49837348 -0.74819833 -0.25115007 -0.84140801 -0.72416335 -1.667598 -1.1820567 -0.66785675 -0.3479642 0.62142396 1.3646328 0.29631585 0.50557196 0.65296584 -0.012716883 0.20267591 0.36219284 0.10857459 -0.49728563 -0.18893254 0.0031876026 -0.2278765 0.6979683 1.6403507 -0.31410769 -1.8502233 -0.25624982 0.75108367 0.37845814 -0.060346976 0.12850761 -0.16153039 0.093419597 0.034438282 0.37460184 0.1454635 0.85512787 0.25738516 -0.29462025 0.23787363 0.49437293 -0.29415032 1.401438 -1.3372775 -0.35908327 -0.17024103 0.97099364
786 -1.1659268 0.0078159664 -0.49569315 0.093370564 0.64803517 0.37024572 1.4644817 0.82564199 -0.0042528119 -0.7198084 -0.15419811 -0.67884433 1.4003292 0.26515427 -0.73198938 0.90290785 0.31265047 0.95753455 1.0416541 -0.60885537 -0.86531633 -0.32301578 -0.91180092 -1.1845549 0.025844662 -0.5866397 1.2526001 1.1655855 -0.93277371 0.42382845 0.7366671 -0.74845403 0.29189712 0.1905155 -0.37922892 -0.25695094 0.56916094 0.65547788 0.14961585 0.79145223 0.80288553 -0.60544831 -2.1285121 0.17770317 0.229808 1.2032495 0.12093013 0.073208742 0.6229952 0.24544956 -0.14030099 -0.72852224 0.4029977 0.31942651 0.24923003 -0.73245907 0.47821835 0.1300478 -0.56538719 0.18159288 -0.067272611 0.077809714 0.2831398 -0.05297704
1308 -0.26471549 1.0718985 -0.67707533 -0.051512603 -0.70184535 -0.76737016 0.39083478 0.026934441 -1.4617964 -0.40392479 -0.30283681 -0.089373939 0.45036912 0.19999552 -1.6483028 -0.39048949 0.16220972 0.97997367 0.46294543 -1.180625 -0.92011052 -0.10593685 -1.1873211 -0.60898155 -0.37343866 -0.25863099 0.45616564 -0.48670873 0.71598476 0.43104583 1.0405022 -0.57980531 -0.63872451 0.46193692 -1.1105405 -0.52987927 1.2422148 -0.66865832 0.063199975 0.63976997 1.4212421 -0.37967137 -0.44764134 -0.23384258 0.1166615 1.2468078 -0.52402925 -0.7945798 0.61316502 1.330214 -0.84401667 0.029955743 -0.17940044 -0.08023078 -0.0026070147 0.39121357 -0.17538521 -1.063445 -0.40484691 0.75230843 0.006551316 -0.5358901 0.18792172 0.51025605
860 0.53993678 -0.036078922 0.004089823 0.52646995 -0.15816598 -0.073143639 0.99080426 0.10777245 0.18566076 -0.063910164 0.6330747 -0.68158615 0.75653082 -0.21213977 -1.6532946 -0.087187916 -0.48637137 0.34368941 -0.77536106 -0.65347564 0.12257744 -0.83404791 -1.2613854 -1.8386856 -1.1391757 0.99312025 0.10795406 0.3775928 -0.13871258 0.29393902 0.44097561 0.4167031 0.56858081 0.069815464 -0.33315015 -1.3566035 0.52137566 -0.51122177 -0.089065835 0.327566 0.39593178 0.19033527 -0.66149104 0.40381911 -0.13392244 0.63943189 -0.16363735 -0.17411876 -0.73406017 -0.42712522 1.1259761 -0.35656217 0.64444494 0.84239095 -0.52238393 0.49637651 0.31442702 -0.04323281 0.41411212 1.6270286 -1.1688555 0.035640419 0.59913218 0.92078769
1902 0.25832734 0.96848667 0.39258397 0.10994201 0.16739738 -0.20339637 1.1224539 0.038992357 -0.52902555 0.63016635 0.3842189 0.31933427 0.68634629 -0.85838872 -1.5289478 0.76811451 0.46608666 0.50732815 0.11108926 -0.43066883 -0.59236896 0.6937241 -0.84321034 -2.2031198 -0.42715231 0.42876521 -0.44755855 0.049271625 0.5251013 -0.092392474 1.0102345 0.96790344 0.0071567884 0.67695457 -1.4889013 -1.045957 1.4785199 0.38828868 0.296904 0.38601223 0.72159374 -0.087384 -0.15706219 0.37855956 0.069533587 0.37475961 -1.2787247 -0.85455972 -0.6911636 0.60431564 0.2968452 0.2753295 -0.28912866 0.79974258 -0.11872385 -0.45829642 0.53615636 -0.052672274 -0.57830715 1.0790679 0.29615864 0.061862029 -0.34665433 0.75278652
236 -1.1843352 -0.14037909 -0.59667188 0.59219468 -0.53939795 -0.042455185 0.86743093 0.28881454 -0.062457029 0.42054254 -0.45839646 -0.20067365 0.021939075 -0.13168222 0.21852185 -0.45343187 -0.2214099 0.80535656 0.57789189 -1.3476132 -0.46160206 -0.021014186 -0.87418628 -0.82321578 0.013671854 0.12700802 -0.92809457 -0.086136617 1.1817654 -0.55304974 0.53886354 0.64929497 -0.36915168 0.59904391 -0.047183726 -0.54526746 0.37321606 0.085028268 -0.8392269 0.80882043 1.4958566 0.39308494 -0.59409887 -0.82839733 -0.11066717 1.0406016 0.39841938 0.12651861 -0.33557874 0.2935687 0.18984017 0.58360517 -0.57182211 0.053077757 0.32933161 -0.59141344 0.58571494 0.25930941 -0.639301 1.3985288 -1.1461221 0.71763361 0.25434306 0.48372048
2694 -0.42956701 0.68026114 -1.4668586 -0.29023176 -0.027712207 -0.093602628 0.24465486 0.56193334 0.71322238 0.010966562 0.23174587 -0.45575613 1.468991 -0.45486528 -0.53374171 -0.35264626 0.37873381 0.60965186 -0.39016697 -0.23805036 -0.13176017 0.26173288 -0.02628698 -0.91407162 -0.49196458 0.57902628 -0.19270478 -0.39274365 0.33689025 0.81524462 0.30702239 0.42787197 0.45594695 1.6010964 0.17951572 -0.0776565 0.26142466 0.45394155 0.28854823 0.21652348 1.4908106 0.0092307469 -0.91599905 0.90884364 -0.46946895 1.0767243 -1.0234103 -0.16656335 0.098326921 -0.59635991 -0.35288885 0.20951487 -0.11209156 -0.59903318 -0.33825517 -1.5642515 -0.40463355 -1.294345 -0.27382278 -0.35653532 -1.4967052 -0.4960517 0.9236567 1.2259383
1060 -0.34065446 0.22312903 0.2792581 0.0045085102 0.13897377 1.2896352 0.54850686 1.0030568 -0.47309476 -0.54143852 0.16837437 0.12315018 0.28123102 0.81951809 -1.0971594 0.097908482 0.20433216 0.3867265 0.85720009 -1.3020021 -0.36051446 0.07422556 -0.69741255 -0.41645193 0.55707294 -1.2373937 -0.67384654 -1.1650764 -0.62144786 -0.22559138 0.4407911 0.0077600866 0.27396658 0.343954 -0.12345326 -1.0988997 -0.18806267 0.14445879 -0.51926565 -0.22012924 0.2191399 -0.54798448 -0.84418339 -0.37300688 0.66575396 1.0840317 -0.21123049 -0.37747535 -1.7516557 0.95161647 -0.26939258 -0.15885249 0.16005251 0.47762045 -1.4296905 0.071565442 0.62245262 0.48713934 -0.57440728 0.54105324 -0.78865099 -0.40114865 -0.17674987 0.81507623
1255 -0.67316127 0.17904761 -1.0691657 0.061835054 -0.15053543 -0.98085308 0.42150521 0.34423754 0.51096052 0.35177544 0.41839254 -0.84705174 1.0168142 0.45981094 -0.2640146 0.94917238 0.57648385 -0.29820436 0.58833379 -1.4077507 -0.66871279 0.10254844 0.20748745 -0.62710541 -0.51746744 -0.16236904 -0.43629569 -0.77872431 0.63879156 0.64699435 -0.63682944 0.40481064 -0.29344326 0.13280788 -1.2102231 -1.1283346 0.63883448 -0.79255766 -0.0079122009 -0.66076893 1.4694639 0.44139394 -0.58571118 0.2124138 -0.27873638 1.305694 -0.21894318 -0.41425368 -0.75124151 0.14532042 -0.99653429 0.24123716 -1.1973637 0.088574693 -0.25360054 -0.71799403 0.29131576 -1.0697103 -0.14293854 0.36645746 -0.74648678 0.47384036 -0.17281651 0.49026367
1855 -0.79623294 0.49184123 -1.3711369 0.45938504 0.024003401 0.36077324 0.30202714 0.094104432 0.65970987 0.10141487 -0.48436221 -0.1157252 0.48514766 0.44763646 -0.67896163 -0.054084446 -0.05067246 -1.0696312 0.058625855 -0.2900686 -0.18668744 0.60233653 -0.0020921405 -0.61163193 -0.11584806 -1.1658216 -0.51292402 -1.3763561 -0.085105635 -0.07287696 0.88513124 0.40296423 1.0248666 1.2244492 -0.71765065 -0.06525822 0.59351033 -0.055834781 -0.82224494 0.21055403 0.20266081 -0.66149712 -0.80319434 0.64225751 -0.147515 0.73956764 -0.01888999 -0.95102978 0.19924058 0.24765791 0.61943942 -0.27679664 -0.74409956 -0.23728706 -0.52350587 -0.70861149 1.8701918 -0.20344105 0.36733288 -0.43247914 -1.0317746 -0.57265562 0.24544021 0.74845624
1150 -0.95322019 1.3465451 -0.57198358 0.8205263 0.12747265 0.17284125 0.21942918 -0.35647243 0.4984282 -0.67964232 0.32151982 1.063094 0.22850701 -0.72356731 -0.31396434 -1.0059537 1.1493398 0.073782392 0.42213774 -0.36290848 -0.066357292 -0.029690303 -0.37042335 -0.9201442 -0.13245365 -0.80563051 -0.43656775 -0.24888372 -0.49300715 -0.11126807 -0.49558491 -0.15205754 0.066087455 0.96230119 -0.47819003 0.65529442 1.4674144 0.64795655 0.017542258 0.84316069 1.7782377 -0.22338814 -0.76759505 0.2731134 0.084356688 0.83488905 -1.0743811 -0.14515474 -0.2623513 -0.21135476 -0.46269241 -0.14280155 -0.72720373 0.11702754 -0.058807954 -1.3393847 0.12484529 -0.28291109 -0.037294563 -0.49165702 0.042541809 -0.3893916 0.084866427 0.12184556
204 -0.092665233 0.1068529 -1.0851141 0.38090464 -0.46624255 0.1066357 0.78093457 0.4517104 -0.6183126 -0.26465809 -0.066101395 -0.10312089 1.4056046 -0.054867793 -1.0559014 0.36318898 0.3419615 0.63762951 0.42652899 0.17220406 -0.73566478 0.19895627 -0.23483597 -1.0629042 -0.38381228 -0.56074446 -0.21974857 -0.61719859 0.86413604 0.89356738 1.1707885 0.5032807 1.0979905 0.8678112 -0.12742817 -0.59734291 -0.10348367 0.57559407 -0.25112092 0.18269467 0.39773971 -0.11923829 -0.93803436 0.89174587 0.59527761 1.3976943 -0.31127748 0.10205164 -0.096706048 0.63978308 0.43672943 0.32379663 -1.1480614 0.80264807 0.56601691 -0.34933308 -0.6589005 -0.23572701 -1.231512 1.5431468 0.016258247 0.891473 -0.11141321 0.26477405
1182 -0.54938412 -0.17052814 -0.57461393 0.49646112 -0.72435945 0.43923587 0.16687389 0.4139539 0.93653697 -0.24497418 0.49693909 0.16258861 0.82044482 0.39873007 -0.053427607 0.097675435 -0.67480302 0.31261215 0.8918373 0.37587807 -0.20924099 0.18450288 -0.40062901 -0.54138124 0.2515786 -1.7076077 -0.32876679 -0.078401871 0.25743547 0.4987036 0.78371179 -0.94260412 1.2666998 0.057549737 -0.02098776 0.19788407 0.29547668 -0.15890449 -0.61778337 0.098767862 1.1487854 0.40485269 -0.78929704 0.66093224 -0.44214234 1.865128 -0.11521962 -0.40853709 -0.57248706 0.77177709 0.16953608 0.19822407 -0.77149713 -0.022056041 0.55591029 -0.65196472 -0.23941211 0.48309273 0.073069461 1.0923655 0.846111 0.21621054 1.186323 -0.085000642
2400 -0.77864403 1.1251637 0.2465287 0.72285628 -1.4145437 -0.02444539 1.0391223 0.54679799 -0.2287045 -0.9317531 0.21166798 0.78986388 0.6753751 -0.14002097 -0.35585514 -1.1195732 0.59179944 -0.66686767 0.84670365 -1.2937733 0.37765819 -0.0052072047 -0.62451905 -0.42824537 -0.38175932 -0.66266972 -1.1753429 -0.16764826 -0.1767576 0.053694248 -0.090030216 0.56315929 0.74503112 0.27422693 -1.2654603 -0.39292896 -0.037664 0.11928845 0.18099006 -0.12691753 1.2823956 -0.17308906 0.22127028 0.2354323 -0.21387438 1.1935706 -0.062187016 0.17350177 -0.064071737 0.10837012 0.74841678 0.23483336 -0.91459441 0.93035239 -8.1470476e-05 -0.71649891 1.5613837 -0.21823464 -0.12473466 0.43399003 -1.5057247 0.42114148 -0.56912464 0.63702524
321 -0.38229737 0.1556887 -0.18189405 0.58002377 -0.28211665 1.3112465 0.38230664 0.87467343 0.96814281 -0.39016536 -0.062301446 -0.72483695 0.93212622 -0.25564373 -0.66962409 0.5258444 -0.21150903 0.39738452 -0.20001455 -0.80476522 0.91166413 -0.031956594 0.17610487 -0.073468953 -0.32429332 -0.90539497 -0.63351142 -0.3543258 -0.0038485571 0.67723006 0.52313751 -0.051692773 0.6645503 1.1272857 0.19630499 -1.3287413 0.14902629 0.13353512 -0.45063165 0.54889095 0.016706675 0.22927527 -0.63234121 -0.24827544 0.58926839 0.93661726 0.083731703 0.27205056 -0.58231729 0.66729844 0.052166101 0.04518152 -0.22106293 0.26344487 -0.18915103 -0.92007124 0.46194828 -0.25449839 -0.086407445 1.4872973 -1.7424097 -0.0012938605 0.77197677 0.91801423
519 -0.91878438 0.24951456 -0.18357818 -0.53643519 -0.45354494 -0.28029412 0.63615251 0.08062207 0.76461071 -1.2087032 0.55017531 -0.63142139 0.78414077 0.36187863 0.20249884 -0.52529889 -0.15308878 0.47935393 -0.11011004 -0.73486692 -0.41045961 0.027465926 -0.038439587 -0.82679486 0.4615775 0.47659481 -0.80608022 -1.5190139 -0.8382718 0.91291171 0.60448486 -0.15670541 0.073697962 0.4709692 -0.64690161 -0.46894851 0.90204442 -0.6136021 -0.2378803 0.10506007 0.3544983 -0.61596107 -0.96604908 0.14744212 0.49183217 1.9378757 0.22305101 0.031591054 0.57795459 1.2442852 -0.74171454 0.5876379 -0.46739861 0.26070407 0.80598849 -0.80596787 0.071711265 -0.85337758 -0.78063053 0.42858684 -0.84939981 -0.47795421 1.1044203 0.27291325
2259 -1.0618767 0.33034426 -0.67141312 0.0018809633 -0.41321281 0.21997182 0.17118979 1.3393564 0.203813 -0.069780558 0.50176549 0.034857672 1.0207741 -0.018529296 -1.3754323 -0.41424108 -0.61789602 0.78482533 -0.17744058 -1.0515093 -0.4560385 -0.34540614 -0.4692964 0.1221403 -0.46062782 0.32920924 -1.130415 -0.49631575 -0.21384043 0.39370373 0.16969931 -0.12288704 0.38494325 -0.54369098 0.3918463 -1.2655339 -0.34131825 -0.032493852 -0.52582872 0.19763978 1.8105084 0.40685833 0.36392009 0.16556258 -0.64041144 0.76384223 -0.4544276 0.30181727 -0.028067924 0.25767556 0.54579645 0.42170113 0.0045057596 -0.77168661 -0.50308609 0.71961915 0.03782592 -1.1383305 0.61919796 -0.17803878 -1.0724791 1.1192642 0.35003161 0.67899793
2053 -0.59682059 -1.0794283 -0.15371636 -0.26723522 0.56572407 0.8710205 0.83095074 -0.46463186 0.66094208 0.35475749 1.4415541 -0.079420775 0.72234398 0.67382157 -0.32903451 0.84732753 -0.24965268 0.41445529 -1.2354006 -0.72124672 -0.82118326 -0.54739851 1.06591 -0.78549767 0.018396877 -0.40679526 -0.30546761 0.17609656 -0.89130527 0.95484209 0.64549804 -0.0044552395 0.079556011 -0.24237254 -0.37554526 -1.1111896 0.71302223 0.23674561 -1.0923078 0.32211459 0.56882578 0.11847176 -1.5144919 -0.62993926 0.32430229 0.87942505 -0.29893583 0.64401907 -0.64484096 0.93938833 -0.37107745 0.30166283 -0.22665523 0.26402524 -0.13665451 -0.33601594 -0.71600294 0.092722416 0.23531878 0.64159971 -0.098189823 -0.36343229 0.53992206 0.94134265
970 -1.0546324 0.25502554 -0.89106661 0.12403228 0.39985606 0.29078382 0.31229061 0.65127891 0.83860201 -0.12567163 0.97851813 0.0014789252 1.1377256 0.12153569 0.34563655 0.4389779 -0.22203165 0.27201566 1.1740739 0.045869257 -0.46718511 0.09242364 -0.048455127 -1.2069417 -0.56528932 -0.43580872 -0.88425922 -0.025637029 -0.6568771 -0.59150219 -0.4833695 -0.87182212 -0.35396427 -0.052493695 -0.0077616572 -0.68359119 1.169265 0.1237931 -0.17082706 0.019810965 1.0707603 0.19422022 -1.9561901 1.1177206 0.43867892 0.38828236 -0.77848667 0.37046149 -0.48136598 -0.77904034 0.51673764 0.1822214 -0.26970646 1.1828529 0.1690474 -0.10271988 -0.46086943 0.19484197 -0.620139 0.58936584 -0.79215717 0.15967713 0.8074283 0.47607711
1582 -0.65739954 0.17875464 -0.56392998 0.53211874 0.42926615 0.61021191 0.98917878 -0.89583254 -0.38195869 0.68737435 0.078653052 -0.58499479 0.081924066 0.2810016 -0.20786455 -0.06822212 -0.0902531 -0.33433968 0.30164871 -1.327117 -0.63595337 -0.040665019 -0.59612411 -1.3671906 -1.0623801 0.56430686 0.30798343 -0.809838 1.0077471 -0.080412149 -0.45832485 0.11926852 0.25004247 1.1356238 0.039102398 -0.88899899 -0.27737314 -0.28295434 -0.88801146 0.41188145 1.3539066 -0.93654519 -1.6184024 -0.56709856 0.35306442 0.83865488 -0.073826566 -0.32286394 -0.10639718 -0.52426952 0.26238942 0.7391476 -0.64971441 0.23241395 -0.54299009 0.1065449 -0.011680091 -0.45342472 -0.17717089 0.9607572 -0.36482778 0.73625737 0.1471404 0.74477786
1825 -0.72294581 -0.45846739 -0.81816262 -0.43706596 0.1136598 0.10244844 0.73353934 1.2869022 0.20341381 0.219143 1.06339 -0.54031706 0.37086782 0.29955608 0.18770559 -0.61609793 0.020272825 -0.10682862 -0.32722279 -1.0356669 -1.5839401 -0.39263135 -0.39360589 0.37272877 -0.049890999 0.032166183 -0.91878963 -1.2110184 -0.84883088 1.2427055 0.145621 1.4181175 0.39769793 0.47462887 -0.77254218 -0.11868561 -0.24884322 0.4517349 -0.10008169 -0.34138322 0.59211659 0.38639086 -0.10556764 -0.061418492 -0.31811863 1.7268369 0.066480391 0.42042872 -1.0314934 0.49993142 -0.17493154 0.70508778 0.27194831 -0.80907887 -0.9009915 -0.58966762 0.34451729 -0.013484913 -0.051022653 0.40703699 -1.252991 0.20273912 -0.22742915 0.49171269
1483 -0.49388185 -0.14950407 0.002720607 1.2144936 -0.0031151462 0.36842084 1.083992 0.20675319 0.39876243 0.054427259 1.0948085 0.46770266 1.105476 0.57069111 -0.05800752 -0.20858258 -1.3158264 0.22402272 0.4030222 0.06966164 -0.12781489 -0.41383314 -0.063188568 -0.37500262 -1.24461 -0.94333273 0.55980128 0.65569788 -0.97045964 0.71588314 0.10843473 -0.36586368 0.24245806 -0.089778475 -1.2775342 0.72323912 0.34067902 0.18901704 -0.017440304 0.39835578 0.42446169 1.0758159 -0.33842126 0.30264208 -0.77447015 1.4199667 0.086750574 0.58478159 0.014597034 0.23310694 1.4180814 0.52430856 0.19147007 0.43031093 -0.046305288 -0.44348422 0.96543425 0.68143743 0.34012029 0.06436836 -1.0934756 -0.34511459 -0.4253332 0.5718357
1064 -0.96723258 -0.69172579 -0.27486631 -0.062529422 -0.43154874 0.15984736 0.13129359 0.066911817 0.33021146 0.40737781 1.1584938 0.44168913 0.77690345 -1.2775548 -0.58992422 -0.60580075 -0.057969593 0.020678081 0.15331461 -0.47889274 -0.84504682 -0.33952782 0.066363581 0.005631262 -0.80253351 -0.087374114 0.0015350088 0.39313233 -0.80448341 1.8670874 0.27936056 0.16878687 0.52013946 0.09952952 -1.0231512 -0.40350643 0.30080932 -1.1407961 -0.12502168 0.92204738 1.5961471 -0.52621639 -0.96818238 0.40069368 -0.50389081 1.4688826 -0.092313021 0.68896997 -0.70540839 -0.15903892 0.30289933 0.53227586 0.28763017 -0.32665849 0.40959635 -0.2317722 -0.15526432 -0.35242203 0.16584799 0.3969292 -0.59221888 -0.27973607 -0.031835489 0.95632994
1937 -1.0453647 -0.34655842 -0.35743845 0.33811882 -0.60762602 0.43653801 0.59538484 0.15544096 0.52368206 0.59124196 1.0147011 0.51111525 0.73270088 -1.361883 -0.61804384 -0.19441235 -0.13798794 0.1860663 -0.017928926 -0.46796599 -0.61831498 -0.3995896 0.0080106081 -0.011069295 -0.98037964 -0.091278866 0.00049138331 0.1997681 -0.85547704 1.8465644 0.33432901 0.29300961 0.31041026 0.2479244 -1.2512164 -0.30540249 0.39947736 -0.75017118 -0.0055747759 0.9940601 1.2780437 -0.49592075 -0.93836117 0.36569408 0.014511131 1.3727715 -0.31404388 0.46339777 -0.59400535 -0.028370079 0.22978514 0.17900483 0.70933014 -0.35797665 0.059917573 -0.45444915 -0.097355977 0.046752159 0.11461535 0.27241066 -0.50588942 -0.37799984 0.041020703 1.0992631
1212 -0.23472211 -0.27781436 -1.1042486 0.59437937 0.46871102 0.6335752 0.056207549 1.1023768 0.62673515 0.15206248 0.63324434 0.010474756 0.36073169 0.56901217 -0.6854794 0.23002942 -0.31820673 0.87456876 -0.12342171 -0.41279843 0.094273537 -0.48163807 0.7619099 -1.0386498 -0.13782273 0.54171228 -1.4351723 -1.0116305 -0.78489667 0.22051603 -0.30913112 0.4795768 0.031143418 0.23795052 0.051468737 -0.67391813 0.55938369 0.63849247 -1.153366 0.1168682 0.69388759 0.42043847 -1.0431137 1.0439479 -0.40524524 1.0202519 -0.78979719 0.63074261 0.036231134 -0.34280276 -0.34402281 -0.55516678 -0.54681718 0.22607702 -1.5215288 -0.97655714 0.025126351 0.5058952 -0.15923156 -0.037218094 -0.37702328 0.47274995 0.95743275 0.37461805
1557 -0.23156393 -0.16454528 0.47049394 0.54237932 -1.0914344 0.16458637 0.79782164 0.38899827 -0.96798414 -0.15262638 2.2856684 0.44016579 0.45148194 0.80626255 -0.75985503 -1.4876089 -0.20174456 -0.065766431 0.4686285 -0.47274843 -1.3140587 -0.52895892 -1.1883357 0.10542139 -0.53904897 -0.15565744 -0.77328444 -0.15867251 -0.32571334 0.53217399 -0.19392619 -0.19978589 0.5922336 0.44351444 0.12862022 -0.52850276 -0.3207137 -0.14718108 -1.0767049 0.075692147 1.1210326 -0.54023761 -0.27890065 0.64162481 -0.049752597 0.94656461 -0.35311353 -0.17439561 -0.45542032 -0.46990499 0.52760869 -0.22598293 0.68249375 -0.33768409 -0.25978944 -0.11106655 0.49724984 -0.087949648 0.011732661 0.55353701 -0.95174998 0.12473277 0.37270486 0.59921527
2316 -1.2437371 -0.074707255 0.11959034 0.69443625 0.14607316 -0.62438381 0.81723583 0.86440957 0.67678791 0.4649483 0.70414001 0.43121329 1.0897326 0.36772802 -0.21948311 -0.15331326 -0.94140738 0.50604713 0.12289545 0.077257708 -1.2497122 -0.63311064 -1.5459465 -0.66179383 0.22561309 0.5056867 -0.45149544 -0.13257682 -1.0948777 -0.11723056 0.015684428 0.59421372 0.28507173 -0.44821644 -0.36383709 0.22329441 0.61014658 0.2309871 -0.47677836 0.41348606 0.82511818 0.62079352 -0.66918159 0.3749924 -0.13118614 1.5561086 0.056807108 0.24271882 -0.054421049 -0.28597608 0.51599312 -0.28195009 1.1351801 -0.49748468 -0.70800906 0.27916402 0.001497435 0.55550724 0.025989618 0.7690075 1.1703832 -0.8699922 0.16599266 1.0221035
2485 -1.1217016 0.40628445 -0.40581828 0.18277733 0.28575757 1.2179937 0.50550717 0.43847829 0.41176492 0.17767082 0.60678661 -0.059772775 0.9910475 -0.30191731 0.36197656 -0.057464268 -0.5501439 0.0081620468 1.0283463 -0.10454871 -0.30677527 0.43653408 0.035582893 -0.74279332 -0.10890945 -0.12655263 -0.60920691 -0.29463321 -0.67210793 -0.90042084 -0.070495889 -0.30425608 -0.33530918 0.89875561 -0.28277239 -0.25209853 1.3858663 0.35553607 0.36750603 0.11487807 0.64574367 -0.020832751 -2.1810956 1.1089629 0.65250409 0.47369415 -0.60698944 -0.22074476 -0.65165472 -0.57147908 1.3752201 0.69046044 -0.037128143 0.97463006 -0.028681811 0.28528652 -0.49695292 0.71618605 -1.1243629 0.18501957 -0.89087391 -0.27819094 0.37927398 0.20879614
1067 -1.1298939 -0.19935654 -0.14326961 -0.156525 0.10654317 0.42282453 0.52490455 0.85917097 0.32173422 0.30098617 -0.54366755 -0.19611034 0.12251662 -0.36188376 -1.0856515 -0.31784981 -0.53443545 0.51697856 0.37625211 -0.379713 -0.74521732 -0.063995913 -1.267435 -0.78191322 0.49622545 -0.26989457 -0.2449991 -0.0047674109 -0.61277896 -0.15895475 0.022462761 0.95939213 -0.029000249 -0.1287851 0.60326672 -0.31849769 0.065703183 -0.32120979 0.03888737 -0.51368338 1.1188344 0.65324146 -0.65938604 0.5892567 -0.61262161 1.2932016 -0.2837176 -0.023738405 -1.7836529 -0.050070848 0.45430067 0.060096201 0.29982534 -0.33534539 -0.76734006 -0.617091 -0.10764475 0.44869393 0.33663619 -0.31841439 -0.8478967 -0.11657722 0.90402597 0.33059484
1684 -0.56260586 -0.31816849 -0.29216236 0.5017125 -0.52745879 0.59063488 0.23039922 0.2504234 0.68750978 -0.19153455 0.2455322 0.14658035 0.68028075 0.76871592 -0.28436944 0.054386154 -1.0027332 0.22478668 0.84506243 0.49739969 -0.36513716 0.19058309 -0.66867054 -0.67045969 0.38622266 -1.8417258 -0.11932372 -0.57410109 0.49844795 0.38192156 0.62244868 -0.61695689 1.2231665 0.39281389 0.17858815 0.5443958 -0.0035709983 -0.17638122 -0.86500204 0.064610042 0.89373374 0.11018462 -0.97609818 0.49793267 -0.30935517 1.6247717 0.0066561382 -0.76260763 -0.79557264 0.88764274 0.32936877 0.46389973 -0.59572184 -0.26426572 0.53121722 -0.59306937 -0.12699291 0.54949528 -0.066404097 0.70533758 0.71340209 0.023262629 0.86846191 -0.10597766
288 -1.1222551 -0.33875543 -0.33825594 1.1194408 1.2166804 1.1256459 0.32107377 0.79847145 0.073150493 -0.59516394 -0.62938207 -0.95993513 1.0847923 -0.41827947 0.21249683 0.90827703 -0.60214275 -0.28640243 0.50246173 0.40472373 0.019341145 0.060803417 -0.46707013 -1.3541098 -0.25198174 0.62872064 0.89880824 -0.67243284 -1.3566438 -0.047361638 -0.68503606 0.22592716 0.51797611 -0.26480201 0.18273185 0.45146158 1.8092729 0.7878812 -0.3132408 0.24746856 1.0659231 -0.087313294 -1.0316985 0.89592069 0.046639416 0.51834154 0.29912826 0.4142448 0.32786432 -0.11566892 0.29070088 0.68831182 -0.89649802 0.7415933 0.22224888 -0.058036167 -0.9135657 0.30218321 0.76245892 0.49800196 0.50319487 0.1294169 -0.063954435 -0.62379915
260 -0.91116685 -1.3464322 -0.25630569 -0.28186688 -0.86297518 0.47496358 0.98318005 0.1526356 0.0064421021 0.16994248 0.20459962 -0.48735937 0.49036139 0.066509187 -0.52848941 0.23265657 -0.029874716 0.62204301 -0.83275706 -0.28560403 -0.63964874 -0.13052076 -1.5062649 -1.2311882 -0.070733927 -0.52774125 0.29046839 0.22375903 -0.40447438 0.063258722 -0.12156554 0.92200577 0.45768854 -0.44253063 0.18419921 -0.67741919 0.011653828 0.67105353 -0.9515515 0.89088738 1.3313107 -0.070788078 -0.85142356 0.37481058 -0.3646549 1.03299 -0.3997339 -1.2726703 -0.97104162 -0.0061395122 0.094812609 -0.64295036 0.38292024 0.4144071 0.066307157 0.9547894 -0.18095329 0.91591907 -0.54230082 0.082759269 -0.48713499 0.57495522 -1.0191444 0.39753932
36 -0.94148266 -0.73184609 -0.34550583 0.064875439 0.57808197 0.28725436 0.63203853 -0.29819909 -0.01362691 0.11928866 0.069901183 -1.1169931 0.77739185 0.067082107 -0.93416476 -0.024288535 0.60093242 0.25261825 -0.047784757 -1.8277457 -0.54126602 -0.45231658 -0.14400485 -0.86475396 -1.0837206 -0.64674926 0.79616588 -0.35992542 -0.48658893 1.189261 -0.34384471 -0.2339336 0.51553166 0.641756 -0.87650973 0.1079298 0.8685984 0.61416453 0.19095311 1.005873 0.42081547 -0.58567607 -0.52119237 -0.28383553 -0.87643033 0.32222608 -0.20330207 0.33180413 -1.3469192 0.45241302 -0.074626416 0.10743234 -0.24766645 -0.74835652 0.23052208 0.44491696 1.0873139 -0.54690915 -0.43341726 0.062015213 -1.466699 0.95131648 -0.3985377 0.61917746
1759 0.33863261 -1.0400332 0.23315689 0.92624635 0.46538341 0.57207543 1.3760482 0.3847357 -0.27644604 -0.36816597 -0.56907994 -1.305136 1.3127596 0.75207728 -1.142522 1.1044879 0.39178199 0.48508012 -0.11917742 -0.2374891 0.19569735 -0.52273452 0.42686865 -1.2981246 -0.64633864 0.43663213 1.1626817 -0.30318141 -1.2655017 0.82734978 -0.68579686 -0.26048657 0.83332652 0.027903982 -0.81772357 -0.19629316 1.2909967 0.522385 0.18884717 0.51505512 0.77195364 0.9010188 -0.24237615 0.85134995 -0.14542505 1.3056108 -0.37856057 -0.095718019 0.083666697 0.45626941 -0.20554461 -1.1920718 0.16014174 0.43589634 -0.25612831 -0.0052259695 -1.1379358 0.6382333 0.18132699 0.93531549 0.6321913 0.26256055 0.14745571 0.013898772
2206 -0.57463264 -0.61001587 -0.5271287 0.24945492 -0.85458267 0.39665881 0.078980625 0.27137676 0.28473756 -0.34987736 -0.29737544 0.18376933 0.92287809 -0.21181929 -0.48366106 0.13783367 0.13350782 0.19893447 -0.55215096 0.76286083 0.93194914 -0.53126258 -0.27328685 -0.27321723 -1.28319 0.099171139 0.090791292 0.38635156 -1.0183015 0.93851811 -0.53461999 1.1609917 0.82481217 -0.046670292 -0.36078832 -0.15381606 -0.0089875385 0.26238114 -0.43888092 0.79575551 1.5121032 1.2447094 -1.1713057 1.2659672 0.40426192 0.87181532 -0.55252314 -0.29237887 0.91238815 -0.76373714 0.0069517414 -1.1926278 -0.68186861 0.64900744 -0.0082176896 -0.45518073 -0.59919029 -0.26525947 0.99198514 0.61260629 -1.4784557 -0.17968102 -0.076236665 1.0827179
2284 -0.10605202 0.37628603 0.34225315 0.43828294 -0.77725101 0.94521296 0.65020406 0.051599417 -0.33265635 -1.0948657 -0.50724471 0.10191245 0.95662946 -0.95270616 -0.57469296 -0.22083862 0.32229182 -0.48916382 -0.45646703 0.87487769 0.802028 0.31409633 -1.2427272 -0.99601263 -0.76175374 0.60987979 0.19718866 -0.098831177 -0.75697756 0.92934334 0.59119731 0.72487581 1.3753842 0.29043007 -0.35673732 -0.048067175 1.3429724 0.48853806 -0.48774147 1.0226555 0.38928103 -0.058730599 -0.81546074 0.89851809 0.68185043 0.35125598 -0.6084224 0.21536621 1.5604011 0.65962946 0.38494253 -0.94786799 -0.94226998 0.63639128 0.29867139 -0.70782381 -0.018337747 0.054480188 0.1158347 0.75622332 -0.9816764 -0.32229072 -0.15990223 0.33336508
867 -0.81398469 -0.16649289 -1.2477801 -0.032475479 0.0048659956 -0.50801975 0.8078779 -0.097099774 1.0664259 0.84304351 -0.25078571 -1.1021987 0.97863752 -0.32016551 -0.6061641 0.59982193 -0.60183924 0.83919996 -0.20604768 0.1067679 -0.4073773 -0.35371158 -0.79191858 -0.94406134 -1.1501908 0.40088043 0.44019929 0.39799562 -0.12762757 0.58050025 0.48666275 0.90969193 0.24514419 0.10628315 -1.2043985 -1.3919301 0.52616143 -0.35922125 0.56390005 0.50305998 1.6197523 0.41363251 -1.1768032 0.56236881 -0.48095539 1.1651449 0.011599855 -0.058358982 0.69649065 0.48668563 0.39557523 -0.41407534 0.010227906 -0.36327285 0.43189645 -0.71166873 -0.11568338 0.1673843 -0.5063442 0.36880368 -0.52912021 -0.095211864 0.88765579 1.1019113
1270 -1.2817597 -0.34623367 -0.24952096 0.51500392 -0.68869108 0.084044926 0.91552007 0.16412361 -0.063193604 0.67416757 -0.098606378 -0.084517822 0.30752975 -0.20290986 0.30505559 -0.38397667 -0.13240698 0.76706386 0.51429045 -1.5032425 -0.49379539 0.080851831 -0.92712545 -0.6885739 0.041501153 0.21143256 -0.77704531 0.30436456 1.3780183 -0.52026969 0.25101334 1.0138263 -0.19696179 0.5172869 0.29185915 -0.26635027 0.28092048 0.42450827 -0.9752661 0.52155626 1.3813444 0.56601548 -0.63679409 -0.91694111 -0.4789331 0.78883988 0.20443299 0.17629848 -0.54530197 0.20977207 0.32231992 0.39553368 -0.60466713 -0.17273483 0.39441752 -0.59737742 0.44760895 0.34157878 -0.40940326 1.2679956 -1.1850265 0.75689864 0.35191989 0.61913013
1192 -0.28736946 -0.019636048 0.049863752 0.6228143 -0.14820835 1.6725951 0.43451518 0.46853846 1.2100918 -0.34551537 0.12078168 -0.59564793 0.76382935 -0.097774595 -0.93601245 0.12026465 -0.086947158 0.23649333 -0.38369197 -0.80851996 0.71447402 -0.3796851 0.1364599 -0.12901822 -0.27734593 -1.0746212 -0.60718423 -0.33443341 0.075287461 0.44328067 0.13609427 0.067730077 1.138594 0.96198243 0.40594885 -1.1738724 0.18070775 0.53601575 -0.41656527 0.68096703 0.16007441 0.28298384 -0.4973909 0.015057171 0.61785239 0.75912243 -0.062052149 0.19964699 -1.0799217 0.68299919 0.25727448 -0.010546682 -0.31220099 0.2218698 -0.25748035 -0.70705914 0.28092697 -0.02762093 -0.054096151 1.1802913 -1.6994528 0.18291822 0.81359196 0.48235193
594 -1.2723882 0.82034242 0.14883609 -0.39316103 -1.2623632 -0.13340002 0.020875519 -0.07703542 -0.13501452 -0.66358781 -0.30402109 0.70409364 0.29841793 0.36914733 1.0356218 -0.41729921 -0.30497995 -0.30181733 0.039640248 0.33854476 0.49214378 -0.21461286 -0.83425802 -1.028487 -0.22560868 -0.23150395 -0.85817581 -0.32957613 -1.3015865 -0.30715236 0.24383543 0.87037361 -0.32326755 -0.27048397 -1.0194657 1.0922251 0.88414103 0.64641291 -0.24443154 0.29580307 0.95434755 -0.17528246 -1.2277588 0.22745964 0.61661857 0.84800643 -0.023731019 0.16192852 0.94189584 0.57411844 -0.51693106 0.66535485 -1.1531401 1.4682093 -0.20661286 -1.0382197 0.43351778 0.57629985 0.11084005 0.15216662 -1.0846289 -0.88297141 -0.16944301 1.0569409
276 -0.40668881 0.24821679 0.34900469 0.50439221 0.50368196 0.668028 -0.42855915 -0.32558039 -0.19483671 -0.43719202 0.31868789 -0.2351287 1.3778263 0.74954635 0.034088098 0.11869179 -0.41457242 0.82838237 0.70505089 0.43217877 0.28887829 -0.24022169 -0.27246025 -0.91286606 -1.1577811 0.40815744 1.4393655 1.0971615 -0.11622492 0.27826369 0.04415584 -1.186747 0.58488935 0.88551354 1.1687545 0.086337514 0.32688028 -0.21373558 -0.52224845 0.69282621 1.9614519 0.42338458 -1.8520024 0.2933284 -0.51772112 0.29035822 -0.32712299 -0.36457041 1.0920848 -0.23962201 -0.3155629 -0.14248888 -0.086291067 0.88022149 0.1382256 0.64680874 -1.0017267 0.13028942 0.84038305 0.48476341 -0.10688512 0.028957084 0.065538608 0.59419107
1964 -0.23256181 1.0296285 0.57887298 0.47616279 -0.5843401 1.1113092 0.23281977 -1.0029652 -0.364981 -0.081314974 -0.72295111 -0.56006312 0.14190805 0.46212083 -0.50882107 -0.16199231 0.088708974 0.081201054 -0.6836971 -0.71551436 1.3795145 0.76371807 -0.44580239 -1.5142455 -0.77224374 0.97046757 0.53520042 0.98548979 0.103004 0.053149384 0.86304396 -0.79444242 0.14624432 1.0303717 0.15694745 0.46150413 1.1947454 0.44663927 0.067201614 0.65860349 1.4422467 0.35106069 -0.79462057 -1.0184703 -0.35434684 0.36555406 -0.3922039 -0.86227727 1.2191898 1.0071781 -0.42709348 -0.41918656 -0.61313337 1.3009272 -0.13130473 0.35274875 0.17606622 0.25658378 -0.085172378 0.73469311 -0.36060625 -0.15231951 -0.10668238 0.27854735
541 -0.031480625 0.89510173 0.43412462 -0.077985436 -0.26570395 0.8694669 0.63023084 -0.18623227 -0.035659634 -0.087227523 -0.82678097 -0.012933052 0.43501082 1.0077353 -0.52403319 -0.58680427 -0.072561041 0.69473475 -0.18815097 -0.025632899 0.3676095 0.16788767 0.1234969 0.61312693 0.46915799 0.060522325 -0.40343356 -0.29460138 -0.26629293 0.22524369 0.49875855 0.62386602 -0.33688486 1.805666 -0.41852158 0.14163195 1.1793373 0.37238932 -0.088053457 0.32986334 1.1452464 0.57209891 -0.48562476 -0.40550351 0.31487668 0.9153443 -0.28750676 -0.89795721 1.7772279 1.6680429 -1.0430831 -0.2391689 -0.56066757 0.38680586 -0.67376369 -0.14030477 -0.1968284 0.27897078 -0.51083839 0.68130618 0.13892879 -1.6754822 -0.60102803 1.0033818
764 -0.68924516 0.37972489 0.2434949 -0.034462348 0.26096123 -0.13431607 0.11670867 0.17987044 -0.14724718 0.43101123 -0.74968952 -0.46608445 1.7755975 0.98826057 0.20914249 -0.56498867 -0.98450023 1.0634933 1.1887671 0.31284118 -0.25795206 0.23319039 -0.84727514 0.53132081 -0.22514556 0.68397522 0.57969761 -0.14252968 0.49872762 -0.19266036 -0.46796095 0.8961156 -0.13939136 1.7353613 -0.068776309 -0.29914376 0.14860961 -0.13493341 0.32027715 0.39257026 2.1804614 0.35047179 -1.0889781 0.69335097 0.018034631 0.80500478 0.042027436 -1.1693393 1.0464253 -0.18072385 0.20274626 0.33109057 -0.15182318 -0.11789559 -0.27834129 0.41542268 -0.67817283 -0.33599222 0.31587803 0.24560376 0.15702264 -0.87126023 -0.25243902 1.0779941
1383 -0.18158948 0.94352382 0.42396963 0.20190509 0.029984621 0.33654815 0.27744702 -0.67243534 0.17847222 0.15781677 -0.98110574 -0.057696488 0.63803953 1.4308025 0.22298089 0.086075582 -0.74891162 0.3827185 -0.31477416 -0.053633891 -0.081228115 -0.45045948 -0.2726348 -0.73286235 -0.11616934 -0.35687804 0.16666681 0.66603017 -1.4599364 -0.18470362 0.87563318 -0.199825 -0.22225338 1.1911079 -0.66432154 0.87677169 0.88263506 0.53718716 0.11918393 0.1662574 2.1329844 1.0082265 -0.69483519 -0.33524889 0.75857747 0.022022786 0.16719481 -0.72432554 1.4789057 1.1407454 -0.1469474 0.46811384 0.075851023 0.83074534 0.098291025 -0.58203709 -0.1160852 0.14177264 -0.20464094 -0.14340825 0.64206868 -1.4458134 -0.10309204 0.58305252
909 0.17042275 -0.21853742 0.66573328 -1.0203031 -0.091532983 0.79945219 -0.29391116 -0.38561997 0.22753876 0.95868212 0.3146649 -1.1424348 0.42582223 0.49587128 0.80936617 0.16890834 -0.29677215 -1.00962 -0.54499596 -0.31273177 -0.78163725 0.8000747 -0.62558496 -0.25273186 0.3647266 0.23524429 -0.61571598 0.49815989 -0.076085262 0.50359809 0.71980572 -0.22869515 0.83229965 0.003557479 -0.61283267 -0.25401673 1.451151 -0.28153065 0.2647759 0.12031034 2.0420749 0.67732155 -0.30293792 -0.46536484 0.28157046 0.093754038 0.40118548 -0.16632777 0.46506238 2.0588925 -0.59072822 0.59472567 -0.86673617 0.4015702 0.50144857 0.44474697 -0.41667473 -0.39486542 -0.27319741 2.0638695 0.34889805 0.060925927 -0.3884145 0.077853613
804 -0.52034086 0.85586327 -0.18166901 -0.13567062 0.077990107 0.27578402 -0.13363004 -0.602844 1.0918214 0.33924046 -0.041675735 -0.59884644 0.6705212 -0.69018805 0.16633774 0.84133714 -0.12743306 -0.30420241 -0.47014099 -0.5048148 0.27171114 0.20649204 -0.88004655 -0.75962538 -0.1887662 0.31650382 -0.11064088 0.36087021 -0.19327337 0.69461316 -0.82091665 0.24059936 -0.37450823 0.096672446 -1.1160589 -1.0860516 1.8746341 -0.33633855 0.92534018 0.57189357 2.5461075 -0.062840872 -1.4721417 -0.13995165 0.49843991 -0.32168466 -0.33103177 -1.0389751 -0.84724754 0.43180734 -1.0159603 -0.48686129 -0.63344204 0.68451774 -0.086845011 -0.14935417 -0.074756458 -0.61379188 0.17517342 0.75362229 -0.093259759 -0.20255487 -0.031315744 0.12846762
422 -0.39347678 -0.15458202 0.0088184597 0.003121994 -0.21005043 -0.061979074 1.0098108 -0.48433825 -1.0286285 0.69116789 -0.1311456 -0.32545522 1.1547813 0.89831346 -0.43128169 -0.13951452 -0.74035382 0.68763304 0.76403356 -0.30371743 -0.29531628 0.16968888 -1.3772022 0.131965 -0.37125793 1.0814385 0.43328077 0.3167499 -0.27541319 -0.78699911 -0.30477723 0.40506294 0.039990976 -0.32513192 -0.60055077 -0.4467735 0.68375278 -0.19799143 0.36657026 0.37184882 1.7646071 0.77585357 -1.0843872 0.14899433 -0.12085424 0.24943414 -0.077240728 -0.81505889 1.4398103 -0.23493829 1.5546178 0.14237779 0.11316885 0.38395068 -0.0015143806 1.0921906 -0.022836359 -0.17874102 0.69533271 1.0514979 -0.31569272 -0.93492705 -0.19326662 1.3510672
151 0.2623179 -0.15291171 0.60598415 -0.50321841 0.76713431 -0.048078749 -0.12382135 -0.13000448 0.22016089 0.48439723 0.75060648 0.0048985961 1.2559509 0.90466672 -0.13177259 0.013575899 -0.46888664 -0.20920305 0.011136921 0.79806584 -0.90385467 -0.093061507 -0.59255433 0.15576056 0.098711029 0.12204973 0.1747627 0.10061262 -0.2660093 0.098151453 0.036113203 0.25366661 0.8627013 -0.037664298 -0.23602976 -0.19610032 0.93237668 -0.2231613 -0.57717621 0.1727834 1.7368275 0.74294478 -0.58779335 0.52279186 -0.49722415 0.63472509 -0.22231892 0.12972772 1.0596952 0.56036305 0.28274059 0.83359313 -0.56071866 0.38025025 -0.020718951 -0.19548362 -1.2471713 -0.32262546 1.3281678 1.1498137 1.482945 -1.331368 0.25934428 0.78612494
435 -1.3254505 0.56215 0.3582609 1.2011421 0.050178122 0.80104864 1.3141431 0.17774731 0.64061493 0.11767869 -0.46847445 -0.02940225 0.53393382 0.26793462 -1.145869 0.19592151 -0.91532457 0.40770417 0.30123088 -1.0106803 -0.3496227 -0.62445253 -0.25074875 -1.0333341 -0.69606823 -0.068563737 0.072472803 -0.67498052 -1.6825831 0.59273624 0.25534981 0.48776761 -0.54660279 0.58321387 -0.69600022 -0.32702416 0.41064483 0.56729442 -0.055815272 -0.36570522 0.080922067 0.031820208 -0.75616717 -0.50909382 0.54268891 1.0772537 0.24787627 -0.59700364 -0.31944063 1.5858217 0.77300054 -0.64439285 1.0981064 -0.0011964821 -0.59146601 0.45094088 0.62532347 1.2775152 -0.93638462 -0.29413563 0.26078239 -0.40213722 0.22937311 0.7538054
821 -0.1480951 0.90023077 -0.04160377 1.0011867 -0.71452808 -0.16719607 0.2474196 -0.86332154 0.26498327 -0.65786362 -0.69431245 -0.3283385 0.87012738 -0.063184068 0.07134264 -0.57865775 -0.43303826 0.29100397 -0.62526709 0.39461604 1.3611306 -0.86317372 -0.46776706 -0.87197512 -1.2377783 0.14154114 -0.11275727 -0.24021871 -0.40807706 0.65221661 0.14664395 0.26226971 0.68598324 1.3720658 -0.047051512 -0.33034229 0.54220074 -0.23303556 -0.062287129 1.2178805 1.2852567 -0.034529433 -0.67757368 0.78263545 0.32300448 1.0705339 -0.090299852 -0.41639653 1.0102415 0.72814441 -0.17355569 -0.73428982 -0.72243059 1.1300458 0.57811755 -1.1721207 -0.63145256 0.25678256 0.7879799 1.0850044 -0.59242243 -0.25892565 1.3417975 0.76003158
924 0.073044233 0.47335944 -0.3146396 -0.89517158 -0.85099381 -0.38983309 0.60536176 0.12480495 -0.85975897 0.31143543 -0.47094616 0.1305618 0.53959465 -0.01868552 -0.37534475 -0.21040192 1.0750408 -0.06867221 -0.4802627 -0.18522491 -0.83337992 0.39971736 -1.1693823 -0.92261958 -0.64626878 0.87410557 -0.084722057 -0.56494659 -0.15243173 0.79035157 -0.042042803 1.0096117 -0.17403175 0.65529186 -0.81091428 0.89937663 1.5460197 0.83326769 0.88355523 0.34735268 1.1503478 -0.20484599 0.16994345 -0.11917277 0.6718145 -0.22323023 -0.91388881 -0.50960988 -0.39004856 0.83897477 -1.2559088 0.45571053 -1.2287015 0.41158384 -0.43560988 -1.0415521 0.037198629 -0.72367847 -0.23180474 0.71571392 -1.4720575 -0.19249804 -0.94779348 0.88112384
1927 -0.31932738 -0.34247762 0.5664891 -0.90168703 0.033369325 0.45793554 -0.059093278 -0.19080445 -0.3261486 -1.1298946 0.51200193 0.085598618 0.85045516 0.085865505 -0.049800277 -0.078356013 0.5482229 0.012320184 -0.15521462 -0.2216329 -0.19709802 0.16682073 -0.46954671 -0.60861886 0.64070821 0.400617 0.75908047 0.078565016 -0.046385467 -0.701244 0.28399801 0.49374565 -0.048698921 -0.2979534 0.29918107 0.45052359 1.8035728 0.41087586 -1.2399194 0.63585323 0.85178447 0.45004672 -1.4089969 -0.34604105 -0.4207091 0.29104257 -0.64456135 0.025158659 1.177281 0.59014267 0.45546693 1.0471677 -1.2098113 1.3500797 -0.46131435 0.078387983 -0.60403943 0.41655111 0.60814899 0.19950902 -0.096116751 -1.525194 -0.26591295 0.88996494
833 -1.0048939 -0.8237958 0.1061797 -0.56868613 -0.98915839 -0.35075906 0.082276538 0.14269999 0.032613289 -0.06825617 -0.16861571 0.018586326 0.78914934 0.43538752 0.81470388 0.024125978 -0.022256875 -0.39889687 0.342168 0.5852496 0.3810648 -0.12841479 -0.46457401 -0.85835719 -1.0806526 -0.089029133 -0.65492153 -0.4856801 -0.56129819 0.40702069 -0.96310526 0.041065775 1.0964 -1.0932983 -0.55534816 0.68964422 0.61647391 -0.15617943 0.74584866 0.70485723 1.6629363 0.58724886 -0.99106371 0.79324448 -0.51005632 1.0805479 -0.21858798 0.51927882 0.33046818 0.013600956 -0.38474688 0.48790747 -1.4850503 1.0832416 0.59985638 -0.3074466 -0.97699797 0.058808394 0.90765554 1.333715 -0.48810512 -0.20157391 0.24367411 0.62498307
213 0.72185612 -0.0051077702 0.32628867 -0.98458982 -0.91284007 0.78791016 -0.060244806 -0.38728455 -0.74185133 0.11802431 0.47061208 -0.3127155 0.85325968 1.4605943 0.65409154 -0.7845276 -0.30062065 0.021773096 0.16797478 0.40084684 0.09594214 1.2188451 -0.96243817 0.27878553 -0.46199277 0.18135023 -0.058600195 0.12434968 0.65600705 1.4287431 0.54235291 -0.52342445 1.2934562 0.5525701 0.28703287 0.38937333 -0.2014436 -0.36863068 0.34062204 -0.0470502 2.1847792 0.52214026 -0.58840299 -0.083877198 -0.073624507 0.31743741 -0.28234017 -0.71857959 0.7863546 1.8066542 -0.97050917 -0.10307246 -1.0176445 0.577654 0.3464435 0.37386423 -0.61069185 -0.042980604 0.24652329 1.0600312 -0.64600092 0.1278441 0.10881228 0.32970169
757 -0.47218814 0.019850925 -0.95495975 -0.54988432 0.0077026463 0.46810001 -0.10020088 0.14215167 -0.075617097 0.3190212 0.84326351 0.66866302 0.79896599 -0.80151731 -0.35203156 -0.40173772 1.3499156 0.10718144 -0.65330589 0.31460416 -0.22907749 0.74098611 -0.79234207 -0.21213175 -0.1909567 0.15885501 -0.80762172 -0.7704407 0.57113606 0.49219111 -0.20372614 0.44363901 0.71432126 -0.28732044 -0.84317142 0.6037479 2.1564102 0.89471513 0.82471269 1.1615648 1.8806839 0.39583945 -0.66026551 0.31075084 0.11589441 -0.14632747 -0.85725164 -0.17385735 0.52040297 0.17317751 -0.85853773 0.32098904 -1.2160761 -0.54301631 -0.2536163 -0.22751069 -0.051086433 -0.97671974 0.55434352 0.76263922 -0.63300663 -1.2445507 0.082856059 0.81355786
1598 -0.67696452 0.25577053 0.22019361 0.10046255 -0.57746297 0.67474377 0.68925208 0.15161911 -0.075722829 0.071279548 -0.78773046 0.26809981 0.37283245 -0.55331737 -0.6597442 0.48495892 1.0371341 0.034096189 -1.1449411 0.1129631 1.5090261 0.12955521 -0.34426868 -1.5423015 -0.52651131 0.48571697 -1.0692691 -0.23451321 -0.30193052 0.14117031 -0.21529326 0.53259474 0.78777301 -0.15967077 -0.79541457 0.51078534 1.2886457 1.3093458 0.17989968 1.5511687 1.4693582 1.00255 -0.35029253 -0.045608066 -0.40258506 0.56426251 -0.76910532 0.826684 0.69301081 0.25806695 -0.72954923 0.053912964 -0.87911093 0.53466767 -0.054397106 -1.1141452 0.14113922 -0.036560014 0.29435784 0.92472756 -1.0026866 -0.018011793 -0.19313422 0.84185046
20 -0.55279285 -0.058534451 0.090332083 -0.56436843 0.068914883 -0.30255359 0.067143023 -0.66459036 -0.31815201 0.36784393 0.02762132 -0.80112231 1.2310238 0.081060261 -0.32432082 -0.8108933 -0.12168209 0.075093478 0.48708051 0.064452566 -0.21707989 0.88986439 -1.5256596 -0.12339395 -0.33841762 0.24188618 1.1170266 0.52094442 0.57206845 -0.65892822 0.95815223 0.52895647 1.5141451 1.0041809 0.32741326 -0.17289238 0.86774409 -0.22168945 0.081844486 1.0044091 1.0778328 0.17637812 -0.73316073 0.014635568 -1.3976076 0.8632974 -0.35553786 -0.80518472 0.25462455 0.66848975 0.78343445 0.52522647 -0.01965435 -0.66529232 0.12154313 -0.21810485 0.19890931 0.28409141 1.0390776 0.89829773 -0.1402407 -0.77736092 0.66022784 0.76050168
2022 -0.58349699 0.42350772 0.51604372 -1.2985464 -0.51488543 0.67326581 0.24642247 -0.40926811 -0.39763352 0.15914816 -0.28798142 -0.36075562 0.35698202 1.3071934 0.40669563 -0.79702979 -0.63861442 -0.16149256 0.5683279 -0.45812652 -0.16299973 1.0009257 -0.77043146 -1.033831 0.19010101 0.56617516 0.10609887 0.12044967 -0.52660853 0.29119426 1.0236875 -0.13840754 0.034312937 0.46419108 -0.64107645 1.101284 1.0531141 0.031020194 0.69281602 0.14179973 0.98814273 0.030730663 -1.1096526 -0.96374935 -0.33863255 0.2861194 0.13065057 -0.44127175 0.74710524 1.75702 -0.71437407 0.63690174 -0.50949234 0.6741814 -0.49497029 0.21487457 0.89358038 0.0083641354 -1.2781518 0.092337556 -0.76943123 -0.32752514 -0.82300818 0.060701478
776 -0.25203142 0.050652005 -0.095305875 -0.97958583 0.47543252 0.80047572 -0.12392102 -0.18209633 0.20237297 -0.012517802 1.151701 -0.15298526 0.77880889 -0.45795399 0.32192269 -0.91856039 0.30899954 0.089237601 0.45941928 -0.4426792 -0.60574508 1.15432 -1.1694056 -0.4270373 -0.18880795 0.97223818 0.66630656 0.80996335 0.2636705 -0.25762779 0.35647792 0.47969252 -0.014240995 0.13504469 -0.15966432 1.1290296 1.6029526 0.41569489 0.2305678 0.47226238 1.5114815 0.10307646 -1.2931633 -0.70050544 -1.1027278 -0.0933806 -0.67480391 -0.24927039 0.73018414 0.4739978 0.20901056 1.1584861 -0.42157808 0.39004716 0.033383921 0.28507799 0.81414503 0.029068569 -0.139762 -0.047034752 -1.1905193 -0.98881173 -0.50539303 0.35234147
1042 -0.42952204 0.15586942 0.46444836 -1.1062429 0.31241569 -0.060672786 -0.15878867 -0.074943729 -0.031340137 -0.078297898 -0.11122938 -0.48055759 0.28310144 1.2986398 0.25623965 0.41778904 -0.10098843 -0.20891646 0.45939431 -0.80865079 -0.90730417 -0.27362907 -0.26281717 -0.28613725 0.67632884 -0.092984654 0.16530083 0.68331474 -0.9026413 0.645998 1.0834887 0.50986212 -0.25578639 -0.3782289 -0.81914228 -0.19976324 1.0426275 -0.19499227 -0.5186581 -0.65895593 1.6980039 0.59277487 -0.91842258 -0.80518079 -0.020976072 0.49930152 0.022332106 -0.43293267 0.31664753 1.9571509 -1.1718245 -0.28420943 -0.53773886 1.108103 -0.79377925 0.59294784 -0.043098055 0.4913553 -0.54814148 0.7385217 0.83144587 -0.059643518 -0.78305084 0.42111152
1466 -0.36409232 0.75521994 0.59368098 -1.2141654 -0.24282755 0.28078255 0.11140142 0.1128066 0.52811611 0.46680245 0.18896897 -0.27907187 0.70081055 1.0331429 1.1155879 -0.27115354 0.20428929 -0.6992926 -0.6579845 -0.26096234 -0.51436299 1.0410589 -0.72549373 -0.69837815 0.42009899 0.24503389 -0.74608308 -0.20774506 -0.23960108 0.16788717 0.87269181 -0.049471702 0.66740328 0.53932679 0.13081166 1.4831232 0.72133231 1.0836391 0.83369005 -0.11830016 0.89034414 0.71596193 0.47967818 -0.79970795 -0.46811903 0.70179629 -0.42126617 -0.29476762 -0.33473617 1.8423101 -0.76540321 1.4320449 -0.74767232 0.60546362 -0.21206392 -1.0414019 0.4154411 0.13767712 0.13548557 0.9915061 -0.74815392 -0.30688915 -0.56605989 1.0918928
1313 -0.77662951 0.68938684 -0.57824945 -0.47636709 -0.64687449 0.26380053 0.17268446 -0.26413903 0.29746127 -0.41458315 -0.43049797 0.011140093 0.59703523 -0.41048864 0.064586513 -0.63239235 0.48017734 0.24386843 -0.60145152 0.18557899 0.22270688 0.35073218 -0.76852137 -0.79483461 -0.21100119 0.24223515 -0.1627133 -0.40711123 0.12069225 0.49624568 0.35741773 0.45831174 0.25486428 1.025885 -0.78865069 1.030925 1.2846401 0.63869834 0.58426857 1.3058015 1.2018943 -0.0096960273 -1.5876464 0.10028058 0.84419143 0.19613619 -0.49243158 -0.88016045 0.38192615 0.99631697 -1.2234306 -1.097852 -0.62902313 0.023009535 -0.036630854 -0.38399208 0.31731081 0.13796458 -0.68111533 0.31381819 -1.5459797 -1.2096363 0.1108484 0.18205637
2365 -0.2709226 0.086696655 -0.31481048 -0.52625084 1.2141057 0.57182342 0.13053313 -0.091717504 0.91082305 -0.14657027 1.3416181 -0.59270221 1.7799916 0.57971638 0.95102054 -0.24294277 -0.91578579 0.87055939 0.72001362 0.516599 0.28632593 0.74303752 -0.93633103 0.13281776 -0.29442176 0.26541358 0.73268259 0.96500623 -0.32742488 0.73248482 0.53569734 0.024635388 0.43571833 0.44627142 0.046932559 0.1817982 -0.38245672 0.61288583 0.46858823 0.35728019 0.97174215 0.90865618 -1.761067 -0.21479477 -0.57141107 0.61768055 -0.46924868 -0.92140251 0.8725273 0.7454313 -0.22405204 -0.88646996 0.068567559 0.3907159 0.22087191 -0.14003468 0.051154997 0.30915338 0.84247553 0.76900005 -0.40452525 -0.42818862 0.1107134 0.36651462
2102 -0.0096513499 0.26778129 1.1959286 0.18927132 -0.62292594 0.93364036 -0.5025844 -0.059885543 0.14911579 0.13827237 -0.1052839 -0.50321239 0.48556435 0.27552918 -0.3791219 -0.32340628 0.22682492 -0.12957029 -0.36138132 -0.68412602 0.023794016 -0.61108345 -0.56219757 -0.1719892 -0.26786897 0.25953877 1.0098729 1.96457 -0.28576913 1.0746911 0.80226737 -0.47513321 0.28643763 0.81988907 0.082738847 0.29096785 0.21313661 -0.23873152 -0.35517576 0.71786726 2.0410402 0.82924736 -0.51843977 -1.1240717 -0.006752633 0.69366616 -0.036267266 -0.26489544 -0.34759194 1.0173801 -1.1033578 -0.47587413 0.50836092 0.33744594 -0.86836815 -0.080811605 -0.61931998 0.55791402 0.20569244 1.1415554 0.73066396 -0.83176434 -0.13475318 0.66027278
1078 0.2800051 1.1010014 0.77348959 0.8917864 0.48746726 0.4291997 -0.014044604 -1.0711478 0.75698858 0.61568642 0.91729778 -0.20528759 0.82303816 -0.16840969 -0.33482492 -0.45447728 -0.45062163 -0.42104 -0.44074684 0.23945986 0.078260548 -0.20978986 -0.37276524 -0.54573846 -0.45798972 0.64137983 0.32788074 0.90514559 0.43544 0.3951633 0.36014074 0.58870059 0.61928725 1.0425984 0.14396463 -0.47709581 0.96229911 -0.3359541 -0.6115365 0.12961787 1.9064766 0.80994087 -0.75359571 0.0012143789 -0.61372781 -0.099762164 -0.18266846 0.032323159 1.0757426 -0.10562275 1.4684401 0.83083558 -0.29734349 0.3942498 0.41421723 -0.50365371 -0.18707684 -0.67420292 1.19765 0.89976168 -0.3236545 -0.35816878 0.42800713 1.4142394
1095 -0.70757073 0.10794116 0.26777747 -0.1409391 -0.17317802 0.51903492 0.033729326 0.0011964217 -0.11557964 -0.48428175 -0.87038535 0.22017632 0.20539629 -0.34754425 -0.67897201 0.17843515 0.90437204 0.032662708 0.28278446 -0.57093596 -0.26596943 -0.13248746 -0.39860529 -0.4172655 -0.22979936 -0.12068137 -0.034047741 -0.57100183 -0.43574429 0.6958937 -0.068308815 0.35748234 -0.30044746 0.3591786 -0.91480577 0.16876513 2.305685 -0.48048389 -0.092588335 1.0488087 1.1444218 -0.38451272 -0.95233536 -0.54862487 1.3507628 -0.28503436 -0.32117003 -0.069890805 0.7717405 1.2789018 -1.5184404 0.30404067 -1.0656806 0.64722043 0.24704753 -0.11547857 0.067401603 -0.98085672 0.36742461 0.58741987 -0.69956797 -1.5037265 -0.18210223 0.51849669
2354 0.24173914 1.221204 -0.57187867 0.34797353 -0.12782316 0.038522124 0.3080709 0.20753039 0.0055655655 0.0097527215 0.58293003 1.2338786 0.91924816 -0.49117523 0.10530506 -0.60739988 -0.35781488 -0.079037629 -0.092856646 0.26208857 -1.0671844 -0.082051337 -1.4091026 0.55845171 -1.2558802 -0.97742718 -0.2135825 1.0762593 -0.60964495 1.0036956 0.78048688 0.37190488 0.25680456 0.18865244 -1.1495237 0.26994455 0.72283703 0.34976819 0.044973243 0.5132513 1.4047967 0.46177539 -0.80990225 -0.17121853 1.7379489 0.40694258 -0.35583523 0.33262298 0.19420733 1.1753249 -0.01058796 -0.7479319 -0.60116422 0.44427142 0.041041043 0.18141329 -0.413798 -0.17297901 0.52213901 1.0309256 -0.13390076 -1.216894 -0.42908648 0.61255914
1065 0.13942853 0.64253485 0.70219117 -1.5959232 -0.45177305 -0.07086923 0.21526626 -0.12113904 -0.73051399 0.52574992 0.15938415 0.33665419 0.73141861 1.4734445 0.32547987 -0.7426852 -0.088411443 -0.39130133 -0.48176733 0.83132082 -0.66691023 0.38080537 -0.4653987 -0.43162563 0.48113996 0.039077569 -0.43437642 0.0852414 -0.53837562 0.33250013 0.92769831 0.56991458 0.97813427 0.3002044 -0.63577884 1.4595158 0.69133312 0.81290424 -0.14993548 0.18024239 1.2934171 1.0828187 -0.35133469 0.22527891 -0.55766672 0.69598329 -0.63364184 0.046233416 1.4876876 1.9039038 -0.72114623 -0.037674379 -0.44438067 -0.21706955 -0.63607359 -0.34225217 -0.27522266 0.38362592 -0.40357512 0.82607627 0.1194239 -0.52748877 -0.41486657 0.61049658
1532 -0.13476859 0.3738735 0.4920294 0.10402502 -0.51503575 0.63960177 -0.4666076 0.4462333 0.035736535 -0.33094707 0.11068963 0.49199766 0.32552472 -0.47527498 -0.14787802 -0.50330806 1.2723883 -0.56842011 1.0392662 0.241328 -0.6835832 0.23804477 -1.2145007 -0.36853552 -0.5907988 -0.12370156 0.38379356 0.069998913 0.6580556 1.5279144 0.41002178 0.17299493 0.79451108 -0.013306291 0.24956673 -0.10756233 1.1884912 -0.72003424 -0.5690701 0.82855338 1.6805397 -0.25410572 -1.1045827 -0.58528137 1.2415217 -0.85955441 -0.44784024 -0.050714429 -0.82460123 1.0634767 -0.91460127 -0.6939342 -0.84834218 0.63027757 -0.10808855 -0.4755635 0.24511248 -0.33451903 0.45020908 1.3892796 -0.86253166 -0.079728231 -0.35742947 0.68570387
707 -0.5402956 0.3786712 0.33752322 -0.31476206 0.15464389 -0.33400753 -0.016913686 -0.74379766 0.35087723 0.086264968 -0.16270027 -1.5641729 0.6747269 1.9568111 1.2831675 0.2129194 -1.4478287 -0.23437256 0.053015709 0.10401725 0.69000858 -0.031874597 -0.0061987629 -1.6329539 -0.01260793 1.1047981 -0.024097957 0.051059242 -0.69020957 0.5804882 0.33868924 0.1817514 0.19830008 0.57112461 -0.81440312 -0.076313473 0.57618624 -0.67350703 0.16846848 -0.66631281 1.4989946 0.66257709 -0.93601543 0.1667096 -1.0775198 0.75141084 -0.32606313 -0.67098689 0.066743545 1.04255 -1.2570742 -0.20177224 -0.33504701 1.0788151 -0.5012567 -0.2169939 0.08347109 0.54989475 -0.30267936 0.24597314 0.059020828 0.30837095 0.073638618 0.3468869
464 -0.47005442 1.0847505 -0.36934793 0.10779078 -0.7006408 0.58935982 -0.72638124 0.45894071 1.0583758 -0.87640703 0.98330832 0.12087731 1.8368272 -0.59716731 0.85006374 0.37803447 -0.24148545 -0.17993259 -0.086469866 0.75338936 0.56949902 0.63884747 -1.3237567 -0.025964709 -0.85051537 -0.43734333 0.0084362375 0.0016218191 -0.15167515 1.3059896 -0.09872362 -0.9569366 0.66478783 -0.32574198 -0.12943034 0.14200599 0.46815112 -0.3329874 0.79899919 0.42150688 1.7847164 0.25844148 -1.2610013 0.25377226 0.53656483 0.44911999 -0.38439766 -0.60535014 0.29022476 1.0366732 -0.63848263 -0.90628582 0.038683128 0.57306212 0.011982871 0.27310941 -0.20208056 -0.027696174 0.16920356 0.88038635 -0.84627318 -0.20999594 0.020949973 0.17424971
1510 -0.61935127 0.32158452 0.53291774 -0.75877261 -0.44444481 0.26515755 0.19956012 -0.39928088 0.69337827 -0.16833374 -0.023402365 -0.079706304 0.15891664 -0.28555763 1.0995091 -0.479469 -0.40867165 -0.77354127 0.63153279 -0.24332523 0.32583746 0.39977023 -1.1404303 -0.75172061 -0.15016891 0.22973129 -0.70143437 0.55647004 -1.2882837 0.51572472 -0.7211017 0.79136372 0.34399962 -0.69913632 -1.3358834 -0.56958091 1.39421 -0.79974782 0.38426158 0.23248729 1.8790071 -0.58155316 -1.5722396 -0.37710297 -0.56942719 0.41761544 0.048438165 0.88607478 0.2119983 0.75049412 -0.6859526 0.37327194 -0.87466866 0.85753703 0.5345912 -1.1041024 0.57633036 0.68686861 0.46802247 1.1129552 -0.016946066 -0.46000418 0.44801068 0.51415473
2078 -0.40650743 -0.41676283 -0.36070365 -0.4439778 -0.19634931 -0.18732899 -0.28216463 0.47798255 -0.023701647 0.67384487 -0.097416408 0.41872567 1.0689762 -0.40930989 0.088930018 0.38774052 0.63075864 0.35002455 -0.46667165 0.70423871 -0.82819092 -0.49171883 -0.86593646 -0.43966711 -0.1557686 0.09619727 -0.0065428228 0.42367214 -0.28588867 0.47724187 -0.8822878 0.88394636 0.28214964 -0.24971358 -0.23261088 0.3216297 1.1639724 0.19656737 0.18256538 1.2494737 2.1174569 0.2751298 -0.95120388 0.47292358 0.6509186 0.22010583 -0.66548127 0.11219124 -0.79117578 0.013091313 -1.3497673 -0.18306407 -0.40741268 -0.0052169268 -0.6117878 -0.49366537 -0.99611264 0.23659427 0.95936012 1.5199226 0.060433876 -1.1505202 -0.47133356 1.0952104
2674 0.63720113 1.0866609 -0.49103269 0.55586469 -0.45090649 0.23046771 0.44042373 -0.027804727 0.17089359 0.37104747 0.034943357 -0.13235846 0.79876047 0.21619362 0.011150436 -0.23325197 0.27172258 0.72188091 0.22100176 0.34055999 0.13844275 0.24188399 -0.42849982 -0.33353135 -2.2236872 -0.047115911 0.20492698 0.079424389 0.49535632 1.3510476 -0.32462943 -0.098202676 0.05416967 1.4914507 -0.61831272 0.11481956 0.74716759 0.25259274 1.1666179 0.60112679 1.5641603 1.009847 -0.28072384 0.28492951 1.0138644 0.073062003 -0.92033154 -0.19320008 0.16005373 0.36793029 -0.56814986 -0.076393507 -0.66225946 0.33606908 0.0036921203 -1.081969 -0.72456223 -0.38896537 0.25657097 1.1002322 -1.503716 -0.28293407 0.1747843 0.90453088
688 -0.94301599 -0.41812953 0.08277864 0.71269375 0.18271972 0.95759922 -0.081738047 0.57160854 0.90401572 0.32137901 0.52381057 -0.9439798 1.0794111 -0.43342426 0.24834946 0.29077446 -0.80931193 -0.094360121 0.10378657 -0.69811475 -0.47768331 0.31669095 -0.57351559 -0.047915295 -0.23326671 0.049872775 -0.37534714 -0.67313558 -0.083272427 0.31215847 0.27737132 -0.018171925 0.41170025 0.71985382 1.0614672 -0.68479013 0.94197243 -0.53213042 -0.28685817 0.26206523 0.41183245 -0.67084831 -0.76157874 -0.2624521 0.043519456 0.62837315 0.62958562 -0.14438032 -1.8477753 -0.039046198 1.1674225 2.0318773 0.45350084 -0.18432988 -0.22381252 -0.027976654 0.15701656 -0.58492982 0.89328939 1.4322804 -1.8809639 -0.11349665 0.075475596 1.1686214
2082 -2.0930171 0.3839134 0.70626366 1.4178048 0.1687762 1.5946703 0.29865864 0.36866003 -0.28147268 -0.25834894 -0.051000632 0.87661046 0.67212707 -0.1620376 -0.64011258 -0.26842344 -0.16810079 0.024654396 0.994362 -0.47748014 0.013698735 0.52805763 0.27984023 -0.52407098 -0.11635579 -0.29123253 -0.92473531 -1.3572388 -0.57216734 0.11271653 -0.0098244837 -0.38097906 0.18613316 0.34050342 0.82185668 -0.20267938 1.0685242 0.044050977 -0.72244561 0.29683936 0.37729472 -0.62186766 -0.60978329 -0.47942162 0.22602683 0.76823676 -0.223276 -0.10318428 -0.4978615 1.1563942 0.79883689 0.29615214 -0.29299167 0.064145431 0.16037126 0.32660359 -0.23957987 0.29639778 -0.076715767 0.073738605 0.1832999 0.050519172 0.46438622 0.27676496
416 -0.79279125 -1.0555307 -0.78820705 0.42892045 1.0627911 1.0148939 1.111703 0.69137299 0.039351866 -1.0650102 0.30075312 -0.16102588 0.68902028 -0.35625121 -0.33536628 0.20251347 0.762703 0.59395826 0.66502923 -0.92287904 -0.60950863 0.37848797 -0.24883348 -0.83467108 -0.10151309 0.33276376 -0.080979891 0.01705068 -0.54661047 0.38964236 -0.091592811 0.50904214 0.095345974 -0.064140633 0.67359817 0.40251163 0.62201178 0.71210515 -0.66330403 -0.31776765 1.7662274 0.53405368 -0.87400997 -0.47695604 -0.7871443 1.04584 -0.44097617 0.52357024 0.91666895 0.76270455 -0.42813233 -0.23465081 -0.64729792 0.41245121 0.38210061 0.4382627 -0.20462358 0.59299183 -1.1545569 -0.13427533 0.099286541 0.72133613 0.041848611 -0.73968536
2157 -1.2797132 -0.61345148 -0.27018362 0.89723045 1.451982 1.0328889 0.066015296 0.4398151 0.16750115 -0.26064149 -0.84555531 -0.95956588 1.1188941 -0.36694157 0.26894972 0.97573507 -0.43530551 -0.13405636 0.50541365 0.6036129 -0.051789049 -0.046697617 -0.38865802 -1.3027558 -0.14767747 0.39999202 1.019146 -0.54883784 -1.4212683 -0.15611076 -0.32706866 0.14352889 0.47837996 -0.19964382 0.0087813651 0.52067977 1.8501006 0.83970714 -0.030064935 0.55461085 1.0477191 0.1246239 -0.9211657 0.78292423 -0.10817368 0.12876338 0.03993319 0.29470611 0.22547354 0.012799721 0.48209527 0.7336303 -0.84883422 0.8217274 0.0090497062 -0.31024233 -0.59102207 0.42028141 0.69154501 0.66144609 0.33291382 -0.10599117 -0.54970121 -0.21133506
1683 -1.4348204 0.31115505 0.23735094 1.5373657 0.91760617 0.88102794 -0.099804245 -0.28655767 0.20052405 0.32135278 0.37694955 -0.2066824 0.37491223 -0.95814222 -0.28236464 -0.30661106 0.50739968 -0.031915091 0.71277821 0.0052300878 -0.65338957 0.084440514 -0.098764069 -0.65254152 -0.083095975 0.58399057 0.20944221 -0.11012625 -0.42298427 0.94335121 0.11188118 -0.023965247 -0.25458792 0.49415582 0.72739118 -0.68232918 1.5029839 -0.4832224 -0.86241114 0.18333909 1.6698971 0.9222824 0.23994333 -0.049124267 -0.3685427 -0.013650486 -0.72819269 -0.10860404 -0.69104308 0.21429344 0.65370351 0.55583602 -0.07753589 0.49023142 0.50310099 -0.83024234 -0.64973938 -0.16405725 1.4469893 1.7681637 0.76536101 0.85234714 -0.1986825 0.73628885
2458 -1.7047536 0.36759871 0.29233143 1.4277892 0.88979584 0.62050349 0.062782906 -0.27300435 -0.23171173 0.2761642 -0.57829869 -0.6387946 1.2730663 -0.42298549 -0.43287849 -0.48996672 0.16244319 -0.30359203 1.232067 -0.2349167 0.038228039 -0.044780411 -1.4252721 -0.14649506 -0.0049252533 -0.28335795 1.1934173 -0.52121264 0.094266511 -0.66534233 0.68719143 -0.024392279 0.32592836 1.2029891 -0.13479151 -0.20462056 0.4201155 -0.04940423 -0.55797482 0.20992014 0.40516585 0.32709929 -0.90141428 0.05778465 0.56865561 0.48567536 -0.23126671 -0.60884279 -0.96888405 0.21987677 0.6455788 -0.13440803 0.31089306 -0.51847762 -1.1851028 -0.82448083 0.12151431 0.57334626 1.167627 1.4242971 0.26971984 -0.99760246 0.59906507 0.84591401
2583 -0.29422146 0.61402929 0.76742834 0.30949867 0.59508222 0.019055633 0.75046402 -0.10691853 -1.2414666 -0.42624229 0.1787979 0.44632766 0.61356986 1.399766 0.14324681 -0.75988442 0.095461592 -0.58275652 1.0528524 -0.31067955 -1.0441682 0.17483665 -1.0418319 -0.74505925 0.017487459 0.3470127 -0.11557615 -0.92628849 0.048658762 -0.052035771 -0.8874653 0.57631159 0.10651078 -0.32515958 0.2425054 -0.80766207 0.42806968 -0.36743525 -1.2662514 -0.063144624 1.4442042 -0.1731486 -0.52624029 -0.65315765 -0.13639988 0.38580331 -0.62526011 -0.1117238 -0.34165671 0.47134835 0.33181107 -0.18230768 -0.38566083 0.56371361 -0.46560729 0.31877598 -0.69313562 0.63810688 0.14204562 1.3921533 1.1660537 0.32232219 -1.6763004 1.3811971
2062 -1.2365384 -0.23572139 0.32792625 1.212281 0.15010564 0.59997934 0.95217222 -0.11843441 -0.014111488 0.20872085 0.49483052 0.55473435 1.2621871 0.3084822 0.21987218 -0.52536207 -0.96498609 0.16807452 0.70010006 0.10749098 -0.11939805 -0.24623874 -0.48108199 -0.1777727 -0.63652742 -0.76908481 0.61139458 0.64443088 -0.93295527 0.54057407 -0.1147228 -0.20028037 0.11621249 -0.028288215 -0.29253379 0.9940275 0.27900845 0.52605653 -0.27067688 0.43606162 1.0521286 1.194564 0.2160358 -0.098576017 -0.9183346 1.0044812 0.17009316 0.54002982 0.39920288 0.39505491 1.6311389 0.43045416 0.065419458 0.30970165 0.23741037 -0.47182769 0.37184051 0.80479199 0.67341787 0.25729877 -0.42027965 -0.055597655 -0.68500561 0.65518087
1471 -0.49224421 0.96683252 -0.0010415408 0.17861979 0.59478712 1.0252972 0.028665511 0.0466883 0.56891829 0.12841673 -0.36279857 -0.61273736 1.1643393 0.73249793 0.58964479 -0.73299378 -0.8432703 -0.51083404 0.6272611 -0.57427847 0.78262943 1.2443781 -0.62226987 -1.2655747 -0.04891707 0.34403253 -0.47564518 -0.96618545 0.83745664 -0.064981714 0.091792233 -1.2542185 1.4431411 0.16488978 0.021596555 0.014532598 0.56361669 -0.35004169 0.007918342 0.7553401 1.3268495 -0.24930531 -1.013407 -0.26646653 -1.5397655 0.97586989 -0.14379828 0.60612309 -0.11579839 1.1479528 0.19960351 0.18537967 -0.64475709 -0.1095589 -0.46139562 -0.33857092 -0.079174869 0.36743739 -0.37236542 0.6465776 0.27055058 0.55667651 0.60219371 0.038390864
2182 -0.52819031 0.50699347 1.2944391 0.15118158 1.1074151 1.1057564 -0.1116811 0.63021308 1.4187515 0.12908965 0.015321075 -0.46025726 0.68909538 1.0628871 -0.58577996 -0.64634991 -1.1309675 -0.62797821 0.74389255 -0.16216873 -0.65649283 0.08302246 -0.72025031 -0.65978283 0.13778432 0.23745647 0.11847645 -0.94039136 0.17858057 1.2691612 -0.58403629 0.25114495 0.69510168 -0.80617213 -0.51857376 -1.3764539 0.52865207 -0.046528365 -1.0577585 1.0678214 1.0639598 0.28345266 -0.42578539 -0.36833528 0.28526211 -0.079239346 -0.23931129 -0.23779698 -0.75576991 1.3749807 -0.0019279942 -0.42249119 -0.3487196 -0.27986804 -0.65873182 -0.53153265 -0.42327866 -0.37806618 0.6663413 0.17037585 0.82912457 -0.64358479 -0.73663026 0.49532178
2606 0.058333021 0.38298035 0.52555186 -0.30650955 0.1717488 0.44426578 0.0077857613 0.52656025 0.18645491 0.17099421 0.21989071 -0.012117757 1.2001023 0.15598427 -0.1853613 -0.49117777 -0.82681972 -0.52796119 0.93278855 -0.93032801 -0.88075489 0.48031697 -1.139127 -0.69737446 0.0135628 0.25064981 0.3450397 0.8304621 0.63831723 -0.28157502 0.3016752 -0.4730261 0.63837302 -0.26608363 0.15729366 0.22436722 1.2552723 -0.63982922 -0.13040431 0.53000474 1.9643584 0.096319474 -1.5042856 -0.56020111 -0.91689378 0.66240031 -0.0049114753 0.95676029 0.31700554 0.8485477 0.69070077 1.2540745 -0.14286479 0.33940753 -0.24931879 0.86196721 -0.40456593 0.13555159 -1.0668701 0.58618665 0.73956019 -0.91428787 -0.36903599 0.14206722
2114 -0.13747206 1.0399349 0.35351989 -0.44397172 0.19663082 -0.29228732 0.38175815 0.47019595 -0.11624901 0.62210739 -0.57561851 -0.31377396 1.1763382 1.1094332 -0.17193338 -0.4491691 -0.91543669 -0.3555246 0.62853914 0.23477291 -0.24402007 1.0204593 -1.744415 -0.43030554 0.31233546 1.0165182 -0.43218079 -0.90688699 0.97997069 -0.93261743 -0.033630438 0.59901774 0.55712456 0.0054152706 0.021136921 -0.64604855 0.38314 -0.37929693 0.2427392 0.02718816 1.325886 0.67983961 -0.50325555 -0.20910284 -0.44832447 0.78379339 0.11349066 -0.20036317 -0.20004436 0.68799859 1.0500706 0.95757604 -0.16293612 -0.10609297 -0.80783075 0.061241504 0.20392019 0.010681891 0.31540349 1.5993726 0.042932991 -0.62209702 -0.38503593 1.3989558
521 -0.23733267 0.78490472 0.99805295 0.44101214 0.49142954 0.82696629 0.27605283 0.23053111 1.0447156 -0.68549657 0.55291253 -0.051864225 1.4499682 0.15691708 0.086694121 -0.14639273 -1.0395886 0.32595587 -0.063398503 -0.89247775 -0.18458675 -0.58748353 -0.49961287 -0.73382783 0.81153584 -0.049840502 0.068321936 0.25600296 -0.29646015 -0.19129553 0.71954745 -0.52626127 -0.025869215 0.73966461 0.047323048 0.10394815 0.69881535 -0.69441718 -1.0079061 0.63972473 0.63505799 0.36260056 -0.90303123 -0.16827355 -0.28555644 1.9922433 0.4238154 0.43318579 0.75580525 1.2195574 0.48510358 1.0665245 0.34283373 0.96143818 -0.34457389 -0.17985044 -0.43709654 0.59739518 -0.88967985 0.47404543 0.57320595 -1.0466062 0.12408531 0.46643525
983 -1.4902092 1.343598 0.48305762 1.5214381 0.6988281 0.58001667 -0.27439684 0.080993764 1.6100978 -0.16031811 0.63027179 -0.31775242 1.8597263 0.71077025 0.54879409 -0.50864589 -0.57591355 -0.35105595 0.64720851 -0.37486583 0.1270691 -0.023337951 -0.099798769 -0.099374801 -0.83835608 -0.29934642 0.048173223 -0.83607441 0.34461889 0.95042354 -0.88143909 -0.92971206 0.77453524 0.83669895 0.37376237 -0.10240952 0.1066114 -0.37439662 -0.14294364 0.48545367 0.68171412 0.8872788 0.002508176 -0.48469272 0.081984617 1.2623571 -0.018521668 -0.59397531 -0.20496368 0.93545467 0.15092629 -0.086114384 -0.43633288 0.34001788 0.24323967 -0.35116267 -0.67447132 -0.80522585 1.0859698 0.91067541 0.33531013 0.092381485 0.18678129 0.5413115
1795 -1.9166327 0.55757755 0.6740889 1.3262544 0.19973971 1.5816289 0.2487004 0.40690657 -0.26375934 0.033336453 0.080671586 0.8889637 0.67080885 0.10024572 -0.66352642 -0.26006874 -0.31131858 0.18820184 0.92501187 -0.40815848 -0.0033510795 0.72163683 0.2996822 -0.49287045 -0.092306495 -0.046982232 -0.76900607 -1.1530291 -0.27356744 -0.11794736 -0.05429763 -0.34581289 0.053142209 0.38014099 1.0222627 -0.024235148 1.1752287 0.17741746 -0.43627432 0.26843634 0.37661904 -0.39481786 -0.56961995 -0.53941363 0.15322624 0.62972915 -0.32746431 -0.52316374 -0.58658749 0.98871899 0.86305314 0.24149054 -0.21510099 -0.0038772163 -0.12472708 0.63385892 -0.24152943 0.17190778 0.14377844 -0.13603863 0.097205922 0.11133055 0.43119264 0.17485958
1143 -0.58682841 -0.34343234 0.28597748 0.45173904 0.39690784 -0.68561137 0.35395768 -0.34256852 -0.057999134 -0.32854357 -0.74924725 -0.86729044 1.5562353 1.0258657 -0.55830187 -0.0049023498 -0.90233654 0.17479469 0.015741456 -0.14420579 0.28131029 -0.12136689 -0.99281961 -1.002234 -0.12363748 0.54372525 0.80687237 -0.94443709 0.18432507 -0.090330161 0.23215605 -0.92443526 0.58453184 0.22156446 0.51706976 -0.031812649 0.47488821 -0.81696886 0.51665395 0.27515197 1.2245623 0.9820146 -0.12364 -0.23321435 -0.98109418 1.6893705 0.33083519 -0.32068837 0.0096567897 0.69616634 1.0838039 0.95451534 -0.40509513 0.66491967 -0.21475397 -0.033027317 -1.0775373 -0.30377394 0.11495288 1.241087 0.60272712 -0.83631068 0.36902389 0.82054633
2277 -0.13163215 0.3336724 -0.31690684 0.038553361 0.64378953 0.86051428 0.3162742 -0.078839608 1.4396188 -0.16975011 0.49053621 -0.1469094 0.94936037 0.23800136 0.11773618 -0.44012985 -0.89741194 -0.39083466 -0.73514807 -0.22035459 -0.56261688 0.15412043 0.53656536 -0.25889966 -0.65281731 -0.12812546 0.069073834 0.63850635 0.37167495 0.36882558 0.48817629 0.4082787 0.90522754 0.94916636 -0.066644825 0.048827216 0.76125008 -0.35688391 -0.83187914 0.74097139 0.87770039 1.3996334 -1.1237541 -0.085707515 -0.097915493 1.7443517 -0.5227896 -0.10380263 0.72630376 0.55812538 0.82584453 -0.15280828 -0.63785303 0.76166856 0.33840314 0.80019844 -1.4433917 -0.21425809 -1.0115719 0.36569077 -0.011409672 -0.61610335 -0.7889899 0.28193909
1333 -1.0810486 -0.12683542 0.40967578 0.13979097 0.62830836 0.10045596 0.79743838 0.25604528 1.032279 -0.17418341 0.085077927 -0.76441544 1.4446421 1.4411217 -0.40882733 0.07201688 -0.74002802 -0.26045319 -0.22754547 0.90961707 -0.36497548 -0.028325442 -0.90239036 -1.5871766 0.45709553 0.60556781 -0.08583647 -0.90031284 -0.60617095 -0.053397175 0.167897 0.53598368 1.455409 0.10763723 0.91637981 -0.51258171 0.36186096 0.61773336 -0.43241921 -0.23967053 -0.77309632 0.70552111 -0.54484534 0.50223172 -0.16830494 0.93739235 -0.085890383 -0.39244461 0.17283031 0.65050977 1.316105 -0.34139249 -0.31138298 0.61396986 -0.17347054 -0.62676626 0.21613607 0.30291742 0.18687543 1.0423936 -0.17783509 -0.75421709 0.51047736 1.2364051
1244 -0.91227651 1.0719445 0.68578589 0.82378906 0.058466733 0.86030149 -0.15760127 -0.42421311 0.33483881 0.56224602 1.0624586 0.98522753 0.59565133 -0.031132907 -0.2297384 -0.60985136 -0.086383432 0.22509389 0.25922552 0.017585795 -1.1857897 -0.16473946 -0.11474458 -0.62073052 0.46794081 -0.89559537 -0.76459396 0.24094155 0.050079919 0.26364917 0.45983082 -0.84266925 0.13554917 0.92677516 0.43937212 0.47786885 1.2204083 0.1367529 -1.4503511 1.1158113 1.5138631 -0.29863888 -0.87649232 0.0037690331 0.0688527 0.16588996 -0.1578784 0.21614504 0.73231375 1.0101215 0.2098314 1.3337489 0.025354149 0.49330649 0.48371783 -0.7648313 -0.19492237 -0.046688624 0.4132126 0.35820064 1.0778549 -0.7297104 0.38017955 0.41000473
1797 0.030821795 0.69900334 -0.51616812 -0.25531277 0.3238962 0.10361753 -0.011687594 -0.078689031 0.37011486 0.65730959 0.48466092 0.13333097 1.2647749 0.57158452 -0.67898327 -0.67618817 -0.67680377 0.68960088 -0.75444633 0.060691603 -0.82463098 0.1688519 -0.95107597 0.093711331 0.87286526 -0.34803081 0.015818454 0.57121068 -0.017091701 -0.10305127 1.7860448 0.01962644 0.27336091 1.2177628 0.19504744 -0.079090029 0.44587442 0.19611 -0.6212554 0.54559052 1.6114266 -0.012782797 -0.96888006 -0.071306273 -0.19415112 0.75185245 0.18373525 -0.40572029 0.80740082 1.123994 0.46130407 0.32928306 0.57222056 -0.38221332 -0.62644863 -0.37495023 0.091728874 -0.40712255 -0.058060184 0.52000231 0.56302238 -1.7533437 0.55225551 1.0155445
1148 0.67356187 -0.15244503 -0.083732449 -0.040298324 0.38995963 0.48202974 -0.029856944 -0.33457997 0.78424436 0.52845687 1.9620692 -0.024573699 0.90473187 0.67537957 -0.44654334 0.090482697 -0.013265142 0.87933064 0.14279655 -0.52510661 -0.53202081 -0.051571637 0.084052883 -0.12696294 -0.33386543 -0.50643432 -0.10511104 0.92184085 0.98992771 0.41632459 0.97680628 -0.30798441 0.41242835 0.44979507 0.0042599882 -0.47366673 0.18814619 -0.36503223 -0.41464952 0.2915861 1.2651068 1.1378156 -1.2870034 -0.59425169 0.13206641 0.42012936 -0.55330467 -0.74933892 -0.83664161 0.70690298 -0.16090816 0.4671379 0.034229934 1.0437423 -0.28832728 0.54357189 0.14033969 -0.023331909 0.17886215 1.6842839 -0.061400495 -0.12091586 0.013654969 0.57181203
837 0.013326479 0.01412421 0.17415731 0.0049916818 0.53685176 0.11142918 0.59058249 -0.17839848 -0.50111741 1.1223017 1.6877472 -0.23017611 1.1727085 0.80794656 0.23266123 -0.47301385 -0.41775054 1.1180937 -0.057608292 -0.27537477 -1.08551 -0.58186585 -0.28176641 -0.81023908 -0.5963918 1.1972457 -0.20329908 0.19235933 -0.35009396 0.53514761 -0.31498361 -0.89790273 -0.2508333 0.53905523 0.61333698 -0.67407197 -0.30066237 0.2244435 -0.33604386 0.30663452 1.5957489 -0.44983572 -1.0590882 0.40803331 -0.63860917 0.28430408 -0.70300764 0.75938714 -0.32466274 0.1396361 -0.32807943 0.4902969 0.99629211 -0.15909055 -0.79619676 -0.76563859 -1.0430756 0.24619642 0.14538652 0.84308726 -0.057908144 0.14357163 0.44659877 1.0997034
2345 0.43761083 0.9236179 0.59394586 0.25000319 -0.34425968 0.94182134 0.35901704 -0.59819007 -0.083779037 0.10163687 1.3688563 0.46197861 0.60513508 0.92372125 -0.20793571 -0.85429108 0.36850652 0.74646151 0.25138056 -0.53966326 -0.27411661 0.5842998 -0.664379 -0.54971761 0.091493264 -0.20390652 -0.45844609 0.011943545 1.0428463 -0.54610783 0.63042176 -0.70913243 0.007113535 1.1643777 0.9997887 -0.24194935 0.46180099 0.54485816 -0.99638563 0.55698818 1.2449203 0.0064504175 -0.95171958 -0.96639144 0.38702926 -0.0095123723 -0.48454204 -0.40451294 0.066883974 0.66808915 0.28630033 1.2545066 -0.40600142 1.4092442 -0.17262787 -0.11164436 0.73289996 -0.089545004 -0.63209194 1.2262729 -0.60105526 -0.070198119 -0.60398906 1.2334279
712 -0.93798715 -0.26219812 0.85191542 -0.36534938 0.2493165 -0.12234631 -0.54728132 0.40996951 -0.13542794 0.21210758 1.4450684 0.66112006 0.97419494 0.96757907 -0.64661926 -0.29543188 0.13355173 0.55556321 -0.36487246 -0.12314231 -1.2680846 -0.67689162 -0.27049267 -0.70548755 0.98696244 -0.80764157 -0.61866766 -0.4428778 -1.2982129 0.35395506 -0.14682034 -0.16263558 -0.10471984 -0.68534905 0.88000154 -0.24984667 0.80671579 0.8600145 -1.7871276 -0.20290662 0.68011796 0.069589384 -0.25372106 0.08577361 -0.1594193 -0.065482669 -0.160886 0.46715373 -0.6083228 0.53266793 -0.3430011 1.0256277 -0.53318942 0.62784928 -0.55727822 -0.059043195 -0.24793373 -0.920331 1.1249021 1.0744802 0.33556548 -0.71308285 -0.38822705 1.373914
1451 -1.0337471 -0.040413067 -0.17223345 -0.21528438 0.29872057 -0.71042627 0.2368827 -0.075931244 0.046808071 0.36405849 0.96096319 -0.33369064 0.82550782 1.3584198 -0.16705053 -0.043588266 -0.3625598 0.71695012 1.0087999 -0.84238797 -1.1386271 0.10943801 -0.58777624 0.15115124 0.32857338 -0.14479741 -0.11087102 -0.81179541 -0.39943796 -0.46680441 0.39414436 -0.29831037 -0.41441762 0.24098913 -0.063022964 -1.2298628 0.24946789 -0.9272657 -0.69559306 -0.30228204 1.5480398 -0.35144335 -1.0595704 -0.55426443 -0.062028442 0.9894498 -0.00057338254 -0.49370688 -0.32579437 0.59865069 -0.18922368 1.0689647 0.48772442 -0.71349114 -0.47510773 -0.26861465 0.63093519 -0.52568364 0.83908808 0.51760226 0.060620252 -0.64890248 0.95886838 1.2441434
2245 -0.15388855 0.46352699 0.14944534 -0.24622001 0.85384494 -0.31888857 0.094336972 -0.30559158 0.72694337 0.3734974 1.9989893 0.23213449 0.61854416 0.70862252 0.14994428 -0.29909116 0.40418634 -0.18030889 0.66928691 -1.2669197 -1.1509674 -0.027677381 -0.54994303 -1.0781287 0.55580425 -0.14781125 -0.564188 -0.61802435 0.49959454 -0.13018848 0.079965241 0.13398658 -0.14703561 -0.4552114 -0.56867361 0.26359835 1.2790004 0.62149864 -1.0254626 -0.23885944 1.3725022 -0.061352033 -0.95907599 -0.79542178 -0.58303726 -0.24513495 -0.7912634 0.095506638 -0.21288995 1.0716598 -1.0992806 0.7732628 -0.81198967 0.39837304 -0.97926563 -0.4830294 1.2722054 -0.045594845 0.074266627 0.024640949 0.69862223 -0.41824773 0.083741747 0.024397857
1875 -1.311841 0.62053132 -0.13235942 -0.010587545 0.33279431 0.9533509 0.30996197 -0.24213302 -1.3488016 0.24682941 0.26544377 0.3035022 0.96327525 -0.13785201 -0.84205377 0.048917279 0.61001229 0.034543745 1.0002791 -1.0215267 -0.90038615 0.878977 -1.1787391 -0.26766965 0.024851095 -1.2530404 0.25412995 0.36191824 0.28766623 0.53642112 0.95117855 -1.2193871 -0.096551985 0.9546994 0.84948939 -0.14160649 0.77224177 0.27686259 -0.26295048 0.37175775 1.2180417 -0.90198445 -0.74452376 -0.87367529 -0.17398027 -0.30403382 -0.24104038 -0.31162623 -0.15575534 1.2056975 0.034628388 0.73021072 0.21338083 -0.17218739 0.16208731 0.042461161 0.3713865 -0.42389593 -0.1751174 0.41765401 0.065351561 0.28798515 -0.18080467 1.0132298
1456 0.0053653251 0.18622245 0.066807367 0.37609297 0.69972247 0.47438309 0.87891978 -0.33344761 0.52668667 1.2698382 0.72791618 0.29393563 0.33823222 0.42716622 -0.59682781 -0.051443074 -0.51689529 0.45448732 -0.31179261 -0.85203767 -1.1668156 0.23239657 0.09199065 -0.21185848 -0.10290375 0.2823301 0.096533075 0.51315868 0.18187934 0.86977959 1.3338318 0.25727761 -0.32571986 0.85271716 -0.86067444 -0.58744043 1.0949088 -0.80761278 -0.6050992 0.30739632 1.4631308 0.62873334 0.14536461 -0.95549011 -0.69854182 0.67295724 -0.054880258 0.3671014 0.68152124 0.68959814 0.58706427 1.0190573 0.010984517 -0.33622238 -0.063330539 -0.56412208 0.72465014 -0.44628406 0.18454267 0.89575869 0.062712483 -0.58800381 -0.55426842 1.4355979
136 0.14280663 0.44262403 -0.77252322 -0.55285704 0.91292721 0.07647343 -0.05798763 -0.088547848 0.50713539 0.29971498 0.89114594 -0.14968514 1.4252094 1.3096834 0.13551234 0.33190817 -0.55346084 0.94473583 -0.21254705 -0.31120232 -0.45822704 0.49720794 0.73370737 -0.69878483 0.020414224 -0.056773696 -0.32965595 -0.1734177 1.0352275 0.34659129 0.62295449 -0.4122583 -0.30952683 1.3830091 0.1036917 0.39817446 0.46543416 0.21163818 -0.28771868 0.61804593 1.2765828 1.1058095 -0.58036214 -0.24263051 -0.63401037 0.87293172 -0.65788662 -0.47164026 0.89596987 1.1397018 -0.63718671 0.99965239 -0.79363352 0.82769269 -0.19985929 -0.65103757 -0.56711119 -0.47476578 -0.4442082 -0.099082515 -0.21338573 -0.30082828 0.19834563 0.83425415
105 -0.76226681 -0.92710572 -0.50624293 -0.8253634 -0.25042781 0.64586598 0.32364157 0.21770562 0.82469726 0.10485438 1.3106586 -0.21349509 0.81631178 0.50967354 -0.14981924 -0.034380894 -0.29352516 0.87850851 -1.7486683 0.28946146 -0.28357691 0.22072212 -0.73492831 -1.5740145 0.21879287 -0.059705712 -0.24593924 0.3581309 -0.47696286 0.51303011 0.29569948 0.30435506 0.6817894 -0.70784158 0.85755372 0.03239369 0.3070899 1.4797965 -0.89445812 1.0323548 1.2831888 0.69315261 -0.81540012 0.26838458 -1.0709934 0.74356276 -0.72881818 -0.72978324 -0.21539518 0.58983707 -0.51755446 -0.39692885 -0.070591927 0.48783797 0.00023506727 0.32730332 -0.25469378 0.086695157 -0.22771195 -0.67201054 -0.8795923 0.59267539 -0.64927608 -0.15602276
2443 -0.86232704 -0.6760335 0.37003636 0.6374318 0.10895949 0.63091844 -0.03385352 0.41546452 0.2331513 0.24280679 0.82534498 -0.31612164 0.91033447 0.91460729 -0.06643492 0.94834691 0.47641617 0.22090915 0.22573321 -0.27108797 -0.376632 0.71068156 0.074939616 -1.7513896 0.096284784 -0.37201729 0.34504083 -0.46218017 0.62570441 0.71951729 0.23926908 -1.4642758 0.24766862 0.33948836 0.85880041 0.68410897 0.3976002 0.73109275 -1.2333955 1.1687905 1.2201164 0.070378467 -0.99155521 -0.7057001 -0.21470907 0.18313611 -0.88615185 -0.4708558 -0.19735219 0.85878444 -1.4941885 0.2895816 0.058578573 0.27510345 0.079386622 -1.0205584 0.38420486 0.16306627 0.18968134 0.15165371 0.19771254 -0.13911545 -0.11206917 0.45957375
