1.3617858533471327E-4 -0.01238944387307753 -0.004344885854277568 0.006872426423798342 -8.439381820373199E-4 0.0030926248350210744 -0.006856876031986242 -0.007502302609283849 -0.001237775814003693 0.005564606285023025 0.0026002546944391106 -0.008734589170102084 0.009458913879683702 0.010366639022817826 -0.009125424344561296 4.305886843612674E-4 -0.004925111878293043 -0.0094208886155242 0.01138865987291935 -0.0017864506518009116 0.005299768749996792 0.018652013934025966 0.0059965734947835594 -0.00492612751079777 -0.010104139672292045 0.0013084770861609702 0.007771589303570823 0.0038349100694551087 -0.0056344422314916045 3.226937124532676E-4 -0.015042325070959539 -0.0017423169592720605 -0.0032999645933391728 -0.011718653878610867 0.003384601292337992 -0.00582823797139552 -0.0033459556076994245 -0.004695418995746457 0.003419885167248619 -0.002346277708226707 -0.0031572348182368998 -0.005620907769129347 0.005923948485409285 0.015962653486272765 -0.010916212478557355 -0.015358375117436658 0.0017537227290058618 0.004850016837026946 6.774345993267415E-4 -0.0018540414016226252 -0.011702434465657543 -0.007470074158108811 -8.116977293402319E-4 0.007637749982451649 0.0019236181151162527 0.004373843386187383 -0.010742906846620316 -0.015051685121311411 0.001527069803020951 -0.0024123160753574775 -0.01115892582780336 0.009943462969156897 2.70128965803266E-4 0.005934956263529482 -0.001272250528839121 0.005003146214654902 0.003989524591177083 -0.007467701073216383 0.0014302905290171405 0.009660263236125592 -0.011117799886116806 -0.006158643964932094 -0.005354447665750814 0.014848445080456428 0.005487806417484543 0.001545081350963833 -0.0040543648961696545 -0.011032155005557267 -0.010092804183062897 -3.027712903578296E-4 0.0011456735205634333 -5.249617831198996E-4 -0.0026732458005410205 -0.00284247398519502 0.006364071360112424 -0.001688653228965077 -0.007042351412512219 0.0024903851498244522 0.017457010015712638 0.001370958154281167 -0.011332608241991044 4.172405930584721E-4 0.00155618089013171 0.008540635713069606 0.009423754652427218 0.017590183395408267 -0.007105161711522224 -1.8265488665040599E-4 0.002158617605129011 -0.01102602018597423 0.009011545120054358 0.0044843754859236 0.0014900776305834139 -0.008515682005137502 -0.004389466325921539 -0.001895648592667175 -0.0036003292896452884 1.8100024420195535E-4 0.007496516799725935 -0.004918337970438328 0.008148144455323336 -4.732140809620797E-4 -0.0014279141485675473 0.0034004697304230013 -6.098865171309622E-4 0.008199482773033303 0.0036061814346686496 -0.012986724035291223 -0.003380291351513764 0.009214626214865868 0.0018136643580926681 -0.007523998160889345 -0.002261473239782139 -0.00794345020058336 0.006029077278351781 0.0024904796650899778 -0.0010687496578203506 0.005957454866423829 0.017741023883660705 0.0014908970090317989 -0.004245034601644228 0.011929693181846175 -0.004629656085067297 2.400220892093382E-5 -0.005662106237425343 -0.0029182579714484283 0.001969451286628893 -0.005153806809085438 0.00960129981962348 0.008420136200418957 -6.078241112796091E-4 -0.0032446565426037296 0.008406108442731408 -0.0033045561485630782 -0.008639678301911374 -0.0058872558104276235 -0.0014856509607106794 0.00805864756315762 8.590859399546865E-4 0.01003353170779222 -0.004394336962295323 -0.005325341358252763 -0.0018219927138874508 -0.005109314580863297 0.0026708522543377224 0.0038555128335389668 0.0022668198192514533 -0.005887912921736402 0.0049718932035765885 0.0020415347261088152 -0.005035759066013013 0.003600883983526997 -0.0033909334189583416 -0.012516265180380222 0.0022104272478551024 -0.009436817147408752 -0.004566114903678087 6.437088707238773E-4 -0.0022380502943583607 -0.00569962561036089 -0.007152402872132424 -0.0016405429180799706 -0.00529718848036805 0.0028341189792528984 0.005726193325846601 -0.005745523669171092 0.001965203947200932 -0.011903614762553437 -0.0011252762013112558 -0.0050720151716762574 0.004862961360883378 -0.009992859839221747 4.6140689084333094E-4 -0.00950409690876317 0.006974126162189365 -0.009652963291469266 0.016119661125578454 0.0036508899197260523 -0.004236173733028175 -0.0072977078735807326 -0.007232369639850566 0.013103991378821867 -0.007581234786870379 0.007055556036556673 0.008386949425547411 -0.01164569057111773 0.007770033161195768 -0.009727688351641955 -4.014503750670479E-4 -1.8909243870142962E-4
-0.012291722056873981 -0.002177926761543937 -0.004516008000606364 0.006918182578441356 -0.003738798234611093 1.6324772237088716E-4 -0.01671571954870192 -0.005442558650451971 -0.01652348328398901 -0.011232742448908685 0.005622529974523527 0.023997579062409045 -0.009517293221957202 0.013357054292174769 -0.007445092407965735 -0.0014776454666996105 -0.022537577285455117 -0.013971667345884299 6.939957396018449E-4 4.435819651315793E-4 -0.011287786660188433 0.009354824860023264 0.0011015292640328895 -0.023540486150941217 -0.009716920407935955 -7.170974688371031E-4 -0.011812117062300604 0.002521254858115474 4.6497952720327905E-4 -0.02466387032365644 0.0018060382331147684 -0.007506976316470358 -0.030597591253563164 0.006189017144620997 0.004235089576256446 -0.013934875252166346 -0.021723308504863998 -0.01935242125209834 -0.01108841524928588 -0.03143937346738135 0.02392998096394875 0.005909336026444567 -0.0027184505506740674 -1.1547270173609571E-4 -0.014907221106375455 -0.015075627590209481 0.010160118883442483 -0.02089388712711668 -0.02488046331609623 0.006852746147328937 0.006683904533889522 -0.007291248570737545 0.026133968810618368 0.004743089564959701 -0.012062708594653708 0.01848749647029442 0.0013030045312343527 -0.004002545602854562 -0.024226554879293278 -0.013722630635953999 -0.007607605264212137 0.014209703604447366 -0.008821249683401406 0.010006116660773615 0.01900086528792659 -0.011339324180711107 0.01410349493512431 0.003311935986665308 0.023786521400744647 -0.001262945918940139 -0.018280032321682817 0.0032309053021504675 -0.002422545806330015 -0.025045357412486677 -0.034052536780390566 -0.02597269786737914 -0.00855944880552991 0.007094902348616513 0.021778476122222987 0.00789395945114552 0.00538876305185861 0.009100119892282515 0.02748337228530837 -0.01506238001186068 -0.012249249164805982 0.013969262897669293 0.011045776504672344 -0.012345549331307923 -0.012402074689397649 -0.021385341408706012 -0.005752208386558341 -0.014413435283106584 0.022396770759480676 -0.025759029254923047 0.03171004860735699 -0.011246566624428819 0.012790181981217112 -0.007863468609936827 0.02257301618172341 0.009092007649422133 0.00887037432368033 -0.022009828957969067 0.007488409960882483 -0.0076975651164537815 -0.0011865125957582707 0.005627801557214065 -0.0020042014897442115 -0.02864331567538621 0.008833205614885724 0.016720435222477684 0.028791233061758015 7.207206926817627E-4 -0.027280186515149685 0.012169476703813145 -0.02802522801950337 0.005623044286240083 0.020184182687579707 0.011940974192022858 0.0011301910936684307 0.0029641752853279413 0.003305288398034139 0.008480974569356132 -1.4876399654098455E-4 -0.02098488413134029 -0.014729411871204147 0.029288988188976715 0.009712885247397324 -0.007917405127552749 0.01571971626075672 -0.029391987074051662 0.002820642481805228 -0.025714769265299427 0.017302023743131077 0.0017511107185629292 0.01451707791981567 -0.018969199009568904 -0.011569916934609919 -0.00973153878640685 -0.011555564297673472 -0.00645153834879048 -0.0218920752861444 0.02048239971385394 0.0013145415028335287 0.002880436583461419 0.00579086925135636 -0.021843224669795915 0.0033878849928255356 -0.005120662428101681 -3.446653663827375E-4 0.025925761113116817 0.032548842775917644 -0.02919395594886948 -0.02328240113311678 -0.018228065915057805 -0.010336326882624152 -0.02033285074563656 -0.0016077287360390753 0.013263345551263508 5.510011868072659E-4 -0.0023731110335718625 -0.0018338110698841517 -0.003932707465554272 3.093693536130995E-4 -0.019048128765999314 -0.029545427858101367 0.007678965922449554 -0.004182448269842454 0.015161753216248906 0.014985459152469372 0.015092325183737218 0.013296282283262198 -0.011945841733258486 0.01171767094996117 -2.7943062662374204E-4 0.011498308458659403 0.004998895376696637 -0.001447169701809093 -0.004856653514687353 0.003259229186307927 0.0025531710162517898 0.012358767758776147 0.0168597099737723 -0.03812936590496463 -0.01934784590532211 -0.007604255140074674 -2.333797389861024E-4 0.0026925805732946964 0.030255935828681125 0.0076994166055486205 0.006083038350676244 0.0268756180639067 0.0026956926666286247 0.01652264644281264 0.008293398314541437 -1.0982481967551899E-4 0.014663000721602199 0.0016617903379476681 0.004973828107857178 0.011342360309668724 0.010680426043036793
0.0033364074441275663 -0.01508035269999033 0.007262557681177522 -0.007944016372149238 -0.01265590080971856 -0.0038075046631772433 0.028804912365754998 0.01757445743710355 6.669120097149918E-4 0.027928209027211364 0.016125170748026663 -5.791330102506966E-4 -0.010404884899647275 -0.016154340901717208 0.007649867773668605 -0.001710129195751196 -0.00414565856776713 0.027859472967315193 -0.0037878403749296453 0.00756606033248351 -0.010648347052535681 0.021122859899136537 -0.027736691117683943 0.003658059418014024 0.011186081625517303 0.0031426370918463536 -0.036454224385676776 0.014880208555321644 0.02046619635228573 0.03787034445282395 2.3741392664319058E-4 -0.008736685971889062 -0.012367401576927345 -0.011709578526273705 0.008381262531619242 0.02500061729370006 0.0036585806449607136 -0.008950486198890838 0.011754747595515624 0.007795660738131594 0.03936002285122608 0.006728314234469838 0.025749599276321717 0.016539154494780498 -6.742952913627787E-4 0.011330686531250316 -0.011176095309364153 0.010952799124406146 0.012043702738667074 -0.011885220440257608 -0.0224098293719639 0.005186183805369145 0.007394875543659092 -0.015857521120652047 0.028907663464728582 -0.005965571719142049 0.007966359251971679 0.024409168628221532 0.03731355802430405 0.010179893303251577 -0.012853296566359272 0.018835673964848074 0.0038076929462930787 -0.023677485912101642 0.0060406999339790894 0.02880742381438752 0.023554606235149916 -3.848847888907435E-4 -0.024865657615379087 -0.021944386556030843 -0.015795990005020667 -0.0010998842777882169 -0.011209851539681475 -1.4529944314259503E-5 -0.0036126834473754568 -0.009180977638879874 -0.006416087256718794 -0.007489714567681542 -0.00566760501565589 -0.008707006062090043 -0.008837625401390006 0.00814065847864436 -0.038879176693287436 0.0037343008895308442 -0.04261096082954649 -0.017442555219399775 0.004539872544428211 0.007591123963814259 -0.023841549202493224 -0.01644843097304146 0.024963002588694595 0.006764627900343439 -2.4598334073351613E-4 -0.03505516498587657 0.012147340862424987 0.009958260048066304 -0.017964958016468635 3.2596130859305475E-4 0.026600233685171865 5.79780837516737E-4 -0.010774764914276858 -0.02679654930583376 0.03715705616275517 -0.02122303766979385 -0.005393368867476689 0.014292228534650791 -0.013046164369331948 -0.0041013967569308125 0.020887163551113353 -0.004787347726899488 -0.02063065200412516 0.0284955505726881 -0.01257724346206777 -0.007310670260354623 0.004770067733825418 0.012226588917797307 -0.006880342502100227 -0.02742321556204995 0.006333575147952183 -0.008637066681487365 0.01210067264958149 -0.008288025485141114 0.001789709185455086 -0.01076122980270414 -0.001072332073488709 0.04497648551646487 0.001003153015951882 -0.019860628635717876 0.004189954647011298 -0.01693963154994438 -0.017577563799505435 1.435533588867877E-4 0.019066583169161065 -0.0072543543849574454 -0.00916126107530295 -0.048435951779508025 -0.0021438205116125378 0.0018384116884175557 0.019551903531599274 0.029767530292348205 0.00813382672148198 0.012136162181692469 0.03650960961472342 0.003142526985777143 0.035757757943026436 0.018294432848414845 0.027735717444368632 -0.005747021421103247 0.017810113705772544 -0.016958550872457675 0.02486629988121622 0.03383657044042226 -0.0037601150429883465 -0.035303416511816316 0.00915909617621914 0.01359933340655276 -0.012153716873975911 0.0012786862482917806 0.0065945685654672 0.004542682731812752 -0.011089573430805424 0.016539893505828535 0.012375521859134818 0.003208002127029711 -0.013949915018359283 0.007028838968697556 -0.01042728494715084 0.013170586020850897 -0.012680074266824942 -0.030474760887518198 -0.015742521395385307 -0.0014497717628827868 0.0011012293648836686 0.014903437507090563 -9.201855229963457E-5 -0.008254447579825824 0.004118265706552828 -0.006834158720794004 0.04846826282828181 0.043281969785116926 -0.009711138253480881 -0.012954131534767195 0.01600776203792805 -0.011092747289015941 0.01216064311508336 -0.0013728240682990508 -0.006608129295831372 -0.02974925826141493 -0.0018049821851200214 -0.01688473969963364 -0.0018606509711761362 -0.012151484440628245 0.013506793236356125 0.04268397959353514 6.631377343771078E-4 -0.002875118541228694 0.004081294144439714 -0.012478908549740424 -0.00318807765430586 -0.032564456136827215
-0.004202947687562415 -0.003388456732663706 2.5157721817871897E-4 -0.016877027832895374 -0.007737252429368588 -0.006345370618407647 -0.005537026067251023 -0.0047268640537132395 -0.0066883957407418825 -0.019111369789776116 0.0029410883208254336 -0.007167490658669781 -0.007345818719970171 0.003917258606865439 0.012402381592828275 0.014828977433295865 -0.007207510963448449 -7.490570108983832E-4 -0.024627808843537553 -0.008033557008695251 0.006069728633372817 -0.008390109939081727 -0.018528597601432314 0.006326670015474191 0.003800435439090722 -0.003625096258663671 0.009770301191358062 5.365147894432004E-4 0.0029221155495219777 -0.002775381835967546 0.010961340422411824 0.016748461965773342 0.0021439612224560104 -0.00645771510966244 0.007305769539927643 0.0135511623401362 -2.846161594341082E-4 -0.005789876734807685 -0.003925052055064957 -8.262639055864519E-4 -0.002427867359933795 -0.014028463000706171 0.006462659540192758 0.00817354475408959 -0.009389161284711916 0.0010956762051180942 -0.014558854724741662 0.0021043117085021734 -0.003042773302651487 -0.015233468163068066 0.006639215268991889 -0.0023539809161488867 0.008460289658553537 0.0018569442123518803 -0.026673324760685062 -0.014897033102400224 -0.018022518475649073 -0.007008837111133304 -0.01291373036304148 2.449387895062949E-4 0.007241191092564184 0.006206184537429702 0.0011283263236744729 -0.002700838683840754 0.004826118614240309 -0.0018024622040058941 0.007785520363007686 -0.0057223820559904335 -0.010622336398138458 0.003857595177237229 0.017081924721182664 0.02700669740528938 -0.010174018279496362 0.01799822629148557 -0.007456252477238922 0.012396667701915588 0.005909128090736 -0.006508929104262185 -0.01577755891085656 0.008718796107581323 0.002349529852338862 0.0035608246279987482 0.008802407195616726 -6.603218605310534E-4 -0.01558673175342667 0.003990129949192913 -0.003465680241457255 9.344037932072175E-4 0.014939309390023376 0.005679159138702088 -0.00812836515069873 -0.002630113717306985 -0.018120321109724297 -0.01610618425504949 0.006749991563518995 0.00491034546890265 0.0057281295577801695 -0.0011736435668402163 0.025420196979060866 0.003633548079364758 -0.009647045207071943 0.015342378071360368 -0.014769247885058515 0.0038885686784470947 -0.013573026192398134 0.004296287763177904 -0.010277656694101018 0.00702573762976145 -0.014198574470376028 -0.017005754438729936 -0.012006902316834336 -0.0021177423881523472 -2.4843571848710887E-4 -0.01230998471693507 0.0013957195872541025 -0.003729449513431 -7.621108983015973E-4 0.006616890757505878 -0.005696996331424641 -0.00345676795183695 0.0025467524748920894 0.004741156049603115 0.009068033936320124 -0.018599086232757137 -0.0011740516925027693 0.009073192148871504 0.016514755471030405 0.019178368695582683 0.003648004696022501 -0.006119469147704272 0.0019704374541120247 0.002029011450138106 0.017155492131605343 0.013931603135483844 6.122765476684343E-4 -0.021537931485258312 -0.004909103143020386 0.007962885693953554 -0.027870108465532745 -0.01694451066895486 -0.0039117195941957075 -3.020469099541579E-4 -0.011200259008470857 -0.013027158719775974 1.0349815491404933E-4 0.003694111754515129 0.0056569635418626165 -0.002408746369881903 0.0015824117337802596 -0.007505751876901129 -0.004997949469109348 -0.00331216784735297 0.0037776032801486925 9.957674589925474E-4 -0.008269306060583266 -0.013849663261493835 0.004009840146375735 -0.012076452529447276 -0.007782125199788198 -0.010543027700626042 -0.02061683424776586 0.0017969019721278644 -0.018003325767165606 -0.018186502974491904 0.006806199392770018 -0.006535102817691122 -0.0017197219696806112 -0.006519447831279059 0.007739530144485896 0.002905388125591541 -0.017904375981488398 0.009677402812187113 -0.012395068789409118 -0.005011164129569881 9.516978058783547E-5 -0.005655668412846709 -9.265754378248657E-4 -0.006281648002314106 -0.0037925579079109563 -0.012161437440994724 -0.001015905143987794 -0.002333211728637775 0.0047470690301622655 -0.0019123914147316477 -0.0024899205300443978 0.005489998211840741 -3.3638483125804553E-4 6.595476712005365E-4 -0.004844094545723158 -2.8554272056723333E-4 -0.01621735474154766 -0.009476262874771496 0.02266014554431415 0.012037511850777078 0.001333178396898038 0.0042024187910371606 -0.007838268618427435 -0.007728586396368018 0.011106446497809135 -0.019532552203848908
-3.2841067533099724E-4 0.006017705963131441 0.006682868561160711 0.010490486588918721 0.009775290856571457 -0.008790713444115627 0.004109588281337494 -0.0010475707212495137 0.014056229547130357 -0.01097957704059787 -5.66081433073076E-4 0.00718128871753351 0.011567232021315689 -0.008264200057325446 -0.0032108702190577067 -0.00177757376581212 0.010055956362375251 -9.079040625877029E-4 -9.985236694174291E-4 -0.003174053061530488 0.005615431970513953 0.012912829254221775 8.888986833406645E-4 -0.0028736394990759935 0.006297130774554101 -0.012709481580622657 -0.0074756577934635615 -0.007070765440139799 0.0011289953443674543 0.004947036750627856 -0.006189399368227371 -0.00444200556536604 0.003991873853837976 -1.1382033413740967E-4 -0.004016024575434834 0.0056391127150123175 -1.3718500978761555E-4 0.0036170120794675716 0.004082792152239629 0.01656169844902136 -0.004032313852722091 0.001361847972818698 0.002832785493122579 0.00273451233987303 -0.0062050438398163175 -0.00854900045293729 -0.008706327544559868 -0.01334567588887621 -0.005017119087420354 -0.0011623420170406816 -0.0019637690446369332 0.012664507543850878 -0.001913840408160231 -0.0012417450658304 3.790352570184177E-4 -1.8577962775682307E-4 0.00262479740772035 -0.007071466130956741 0.002729231758749191 -0.008368157990865332 -0.0035495510471003295 -0.0035551965339363735 0.003504480400617612 -0.00563898972657311 -5.150185641521679E-4 -0.0023076366655256793 6.577010321226548E-4 0.0073279212307450145 0.0049812790370511945 0.0011805354003436154 0.009056405097423255 0.004339892528773386 -3.022758363607015E-4 -0.0045253936934094375 -0.002277512187968367 -0.01175426299513322 -8.033094106681413E-4 0.008722043449629851 -0.0024563425797338003 -0.004985124216730649 0.0015716395180025021 -7.314507806616977E-4 -0.003406139934955269 -0.008893797036119191 0.009600999864743269 -0.0011287964374852245 0.007364827361174773 9.202762025559739E-4 -0.0021715429174083787 -0.0036848454059585454 -0.0018434778465682682 0.004460428791241381 -1.7703145992164847E-4 -0.005065096410558098 -0.003107646829882227 0.0013338490413982546 -0.00277834276811668 0.001976914272060412 0.0027221449660672532 -0.0064102412635182 0.00554758496822019 1.7834847898334923E-4 0.002325126233539837 -0.007586264095705681 -1.4957325450291844E-5 -0.0030181144504509284 -0.004003047149971414 0.0016619329162253947 -0.008603677963474277 -0.004841915814764982 2.883939274960885E-5 0.005970744378574706 0.004745545431526696 -0.010925805888046612 -0.008157125400250213 -0.004431805609146067 -0.009909456273616507 0.0069838533387226245 0.0040228607003680705 0.0024153696506511715 0.005058786694061014 0.004324098838480264 0.0021178286487815875 -0.005118005705999246 0.012030908532271773 0.009222724211631636 0.0021907073350053673 0.001154647637664387 5.467116662449554E-4 0.0028246645831505046 0.0022569839000650274 0.003343748600921925 0.00890156512054764 0.010496458511572911 -0.0032902133225849546 -0.0038456737676909603 -0.00306272630494361 -0.006410360501375147 4.4250113559582736E-5 0.005052876605700305 -0.007347064849352074 -0.0031312341843504096 0.0013990655934467554 -0.009010060207402007 -0.006851912871378925 -0.003001449181102399 -0.0032601597266263727 8.239487319369787E-4 -0.006252045143259954 -0.005499875720528051 -0.00599010142090741 -0.002626130237442093 -0.008944173444833902 0.010497333293731237 -8.96514541746642E-4 -0.007929933916776285 0.008920526532965855 0.0011939544932288789 -0.011974712520122891 -0.008072648356092208 -0.001989631038021497 -0.01409976656427761 -0.001293246915521719 -7.411681783777346E-4 8.234549504153597E-4 -0.001433590354628715 0.0025909650878124506 -0.004503622810120972 -0.008807075863818613 -0.0018064421202123476 0.00464859795851148 -0.0015416916288464861 -0.003134987308272664 -0.001931741362867235 0.0022347167663532516 -0.0030284420124271193 -0.005225589102664027 0.006042876229527347 -0.0037998848829988627 0.004629268099394014 -0.0013808702411918599 0.006085946812889709 -0.011149022334358348 0.0018165305432683231 0.008204440846757645 -0.0035772400951549228 0.007821780846095593 6.963498185684963E-4 0.012010433777495414 -0.005066678481948728 0.0071140556353802365 0.002092506816694035 0.0034842239413878937 0.01418292499989587 -0.006760209067132621 3.047815090114944E-4 0.0066009186542317026 -5.11714011712959E-4 0.003061560982421245 -0.002402065586233559
-0.00660589096343728 0.011238548294013998 5.004257222341387E-4 -0.001338433980566003 -0.003961325202353971 -0.004675683872611712 -0.002497346483876269 0.005640860766117067 0.0020715839907739964 -8.173450839820826E-4 0.01313636806155648 3.4466160738535866E-4 8.487608962011778E-4 0.0029394469927047436 -0.003731878848547977 0.013526130585252151 -0.011152066841147197 0.010768947705972245 0.005008092820416594 -0.005151707535373673 -0.010007820920646976 0.010344956426329335 -0.00603629679484824 -0.008169921587895637 -8.118179620888328E-4 0.005980385855294226 -0.024592009146761698 -0.006807485608946489 0.004795541769575271 0.005436910854442742 -0.0012010345712967756 -0.0025950777753800886 -0.001941044215877046 -0.003274886335783369 -0.0015800801470178517 0.02283191507275951 0.003257365271691519 -0.010844862710364035 0.004433973099319324 0.007507278585315342 0.0011534409865412236 -0.004248389790775341 0.005440170062761418 0.012214848235537286 -0.004060167203521127 -0.0020816900946289897 -0.004140176467620196 -0.00406945913759455 0.010802255274641319 -0.007634250117009096 -0.002188168296827104 -0.016576021773533636 0.00885799365587275 -0.025378114260950164 0.0033145111235753123 -0.005457636107057347 2.2261575952892278E-4 0.017693659955430433 0.015679346332686556 0.006100632174081841 -0.006469993288240017 0.010702693972384493 -0.012163459818506453 -0.01309496732539966 0.015219405388295117 0.015210635243115127 0.005431056239552853 -0.004823630361464133 -0.008507167165308076 0.003163238683895966 -2.886231324765175E-4 -0.010774430605104099 0.005578683051638175 0.009158796312360024 0.006591799760914854 0.005045856642620898 0.004949010137005712 -0.005998580637916313 -0.0019845481790058996 -0.002040957343447534 -0.0021457948873988167 0.003795557799605951 -2.8962602420489806E-5 -0.004114485105469167 -0.019812644679673464 -0.0015939084830397135 -0.0015820224782527024 0.007726065153911936 -0.023369403541303676 -0.001093102450609757 0.016309762625098912 -9.54423741301549E-4 -0.0044314949456741295 -0.00984541013777973 0.008963073360801746 0.004117970506605654 -0.013282630927540756 0.00614016061828239 0.017088579846256825 -5.718612962029219E-4 -8.515097335883106E-4 -0.0068101148338762935 0.02870362925205264 0.0014426892914979148 -0.0031102545287409154 -0.003706659471543375 -0.006602677791076799 0.0129304390874438 0.012032038744948556 -0.00472491604830504 -0.014391387263523469 -1.8904285849404687E-4 0.0015424087862364285 0.002332539154433118 0.002025881090041798 5.3007735177822377E-5 0.002418592578102024 -0.007681507312257779 0.006544782786264559 -0.013258618973857798 -0.004110147578646239 -0.011803264151306628 0.004920354425769589 -0.003862494498616553 -0.008452000441187374 0.015056419462062987 -0.010303191346492834 -0.008988707311197074 -0.008815979504272223 0.005494554228200119 -0.006882249209266444 -7.736206391871738E-4 0.0037180049388935567 0.006929841328087181 0.004018048358036699 -0.023588221725170083 0.0025044434360423735 -0.012488277753049962 -0.005199685817576116 0.005936593552308278 0.007460314501632554 0.0021055433765735905 -0.007267682147268718 -0.00531602089256118 0.0024058486326265296 0.007213912189922115 0.0014091270278796916 0.0045658642380579 0.005106855754014819 -7.150492058201072E-4 0.010188053737631883 0.007247294368318305 -0.0069224403146338495 -0.019455650183134096 0.011761855639963343 0.016298528005928892 0.006752343019011398 -0.0013061775090038796 -0.008677095144613924 -6.719356234605397E-4 0.007468038325451131 0.008135590678207514 8.541908543259046E-4 -0.003801335019376718 -4.6963655076666784E-4 -0.004361350350663042 -0.008995124244252696 -0.009194797084585244 -0.009103668382900236 -0.021501071661846775 -0.007115216291055483 -0.004264392226209158 0.0022701742349742794 -0.002529899612784287 9.748915187260294E-4 4.2175435987166793E-4 0.004178280681111943 0.00408965790975086 0.0017448831778730776 0.008392998036498657 -0.003940376609953109 -0.009363973516517842 0.011321192113893722 -0.00208455605247446 0.005256369059057693 -0.009475324826488751 -0.010424070427766236 -1.3981599855560789E-4 -0.008216734528066691 0.0012151248890963301 0.008803838550819724 0.006192672260598161 0.014542909341584889 0.005398738910289434 -0.007363415921082206 9.390260462399331E-4 0.005989148743548667 0.004401426341722282 0.012189404246801972 -0.004376715840973416
-0.0035187666493913037 0.007354983518618708 -0.008815964711699197 -0.00521029160597718 0.00800024256857361 -0.0033635818834698555 -0.001624009656836811 -0.0017971663218235173 -0.0025687802613478315 -7.839734334330702E-4 0.008785832803065415 -0.003749533653469269 0.004558500183701341 1.784365070811917E-5 -0.006653358231571452 1.641633399223494E-4 -0.002754213669623877 0.002159795848419053 0.0023329476016745185 0.0024477192147485003 -5.135253610436979E-4 0.007699411017391792 0.006856224771528263 0.008813328712957771 -8.598027856737687E-4 0.007128701329296226 -0.004698136502775086 -0.004685067069828232 0.007194047136220991 -0.003597913381754788 -4.733639816721371E-4 0.007445259416847293 -7.834345201863243E-4 0.006614991078304752 -0.010305644586627107 0.006267452810732634 0.0011323948701234792 0.003899472487164494 0.0033322778163183487 -0.0038677952586243054 0.003205665523810369 0.006740611478085906 -4.4687488832120077E-4 -5.094321114000786E-4 -0.002480116375996029 -0.0019202640989664438 -0.0030661888496150446 -0.006378676021363023 0.003770321376282988 -7.419110304697692E-4 -1.8353313474093452E-4 0.0022400153827068186 0.004026080320878256 0.002573477508362705 -0.008418342895612408 -0.0017715596795127224 -0.004320267231180604 0.0013314293614181852 0.003750699682813019 -0.007286435759804402 0.0047178330013881616 0.004942196999445394 0.008289531464813725 -0.007289661053305076 0.004902394214842608 0.004766859746161353 0.004657402654063634 0.004368060319407398 -0.0034412690325528604 -0.004362085527070618 -0.002523696265654263 0.007072909459376481 2.390505279608571E-4 -0.0012144933148848318 -0.003803682506306439 0.006064864193987839 -8.508612152237767E-6 -0.00632964145982689 -0.00409673518729258 0.009679325704203592 -0.0025502965496340562 0.009558048101516493 0.00639254785383348 -0.0027325535792895347 -7.199787724184614E-5 -0.007651018155044213 0.004982769244507077 0.011390096171789502 -8.492706721850847E-4 0.0037810556175522656 0.0017946570870593205 0.00276842815990421 -0.004154025548188158 0.0020260768511257622 -8.23520983655852E-4 0.0015918416062691968 -0.005874213295865578 -4.851472845694368E-4 0.005493388672051672 0.008998237927876967 -0.00197432840794387 -0.0011374206012324528 -0.007870325809482971 0.001902528447747333 -0.006407597779178938 0.003861384272651518 -0.006171743522991933 -0.002183656638760346 8.687038742866442E-4 0.005535078284704067 -0.001091705569737239 -0.006679985379540122 -2.1076940345807844E-4 -2.495151657142921E-5 3.9369493467303785E-5 0.006669605245260895 -0.002591141161001612 -0.0018470254575748207 -0.0017189753754634361 0.0098620736053666 0.003687247337042106 0.002095950387871577 -0.0018791968489819805 -9.842173160080237E-4 -0.006465615619835842 -0.013785676287947779 0.0023716631375194012 0.00705045889583456 -0.001844807494089515 -0.004608242655952099 -0.006243519882164216 0.0037216808096179506 0.0033665668495965065 -0.003338859513051755 3.203747346126876E-4 -0.003982386977037562 0.0012486494312094975 -0.0057027446342764925 -0.0069338633016924065 -8.835410339229591E-4 0.0021588749444528856 -3.7873107443031544E-5 0.0010196347104607496 0.006680401090021073 0.005255054003258386 0.006675907734489044 -0.0010373006889735777 -0.007799286041145835 -0.0033550653965957146 -0.0014051480848370173 -0.006141595838651702 -0.005151033255442973 -0.0011027912912621835 0.004048003823591888 -7.35660908463743E-4 -0.002024583813909673 -0.003140845957605506 -0.004549433713809627 -0.0047196977308655895 -0.0010247650355836187 -0.004146964280973094 -0.0028666060146733227 0.004156620439449704 0.005925081605967578 -0.0041670585408898385 0.003240442095298994 0.0031475712218843144 0.007739051798361231 0.012280410666465211 -0.004458806651745776 -6.820720378777432E-4 0.005769204618667016 -0.004877976262329992 -0.0013337137684219778 -0.005851735268321693 -0.0033763656339977377 -0.011180366004415132 0.008471401689399692 3.241751513040399E-4 0.0038276789642842247 8.902842592934522E-4 -0.005440320239791336 -0.007461571186572216 9.835620187083982E-4 -0.0015588633261656882 -0.0021326939684877455 0.003332409443627514 0.0067451443793078965 -5.143393674593496E-4 -0.0022095421682631583 -0.0018090946227302478 -0.010692592111191493 -0.010156505530325708 1.9771345802149136E-4 -0.00369488704751597 -0.001356100198826487 0.0014027817467875256 0.010837162799104101 -0.0034244429121098583 0.0013467993692671853
0.005401079627896979 -9.375231080231335E-5 0.0033083888879290153 0.004453347144970263 0.002299853788149559 -0.0037033807081430746 0.0036362776100928506 -4.272859564924345E-4 0.002858545303179853 0.004834734649575667 0.0011954806467794194 0.001926663973768874 -0.0016769707104175421 0.0020100923840229946 -0.0015440414339443586 0.007364200050557255 0.0017939430974935246 0.0016035961800669558 -0.002194425801846577 -4.6189708002590426E-4 -0.006484641822161032 -0.0058418838978382135 -0.007182835196230405 -0.0011884100547710232 0.003940937243711273 0.007853957909708425 0.009534964131897411 -0.0013781432595203881 -0.001514625508842013 0.004092683028314094 0.00578244431917575 -0.0037186235846342337 -0.0024217624936622925 1.0342628950712369E-4 0.0054249054930856746 -0.00399200624725389 0.0013560033337276793 5.195783603202467E-4 0.002922904830142128 -0.006834492331995516 0.0045111512748048305 8.972369126101132E-4 0.0017429038510890897 0.008195732494448452 -0.005563211292073636 -0.0034636318519309177 -0.011480819196324623 0.006666214357100537 -0.0032175590870514924 -6.756270546099998E-4 -0.004378728687113383 0.0011983031795702506 -7.539599885096001E-4 -0.007722253103354724 -1.8434139167760507E-4 -0.004881960878250886 0.004907810487166677 0.005144528381305909 9.339140815529243E-4 0.0014920232593260817 0.003589205195595088 0.006645059525585957 0.003913298908447358 -0.0016368346032941466 0.006331693333792745 -0.0019167118497426616 -0.002753168560710099 -7.322110982368667E-4 1.2231217456163483E-4 -0.004214141908492175 -0.001493883286974324 -0.0023253489255119445 -0.0015597674969366512 -8.152419701537119E-4 -1.583125726175473E-4 0.0018866290322531794 0.0012425538943611565 -0.0010289499671681092 -5.248612758953897E-4 -0.0031752715602955455 1.9013245971479588E-4 0.0018425858330556458 0.004356381109498909 -9.688738923257147E-4 5.191787394529091E-4 -0.004698178857039696 4.572909937841211E-4 -0.0068086828853431555 -0.004890201157246377 0.001818391480721027 3.7611898717464877E-4 0.0026977825251723016 -0.0017891139590694436 -0.0038760971309818545 0.0030886300438557274 -3.204311621680005E-6 -6.010898172123206E-4 -0.001265842965236563 0.007042892596420563 -0.002164142313637361 0.0016417231473078186 0.004972802415234612 -0.0022920016950978106 -4.5572332071515067E-4 2.476878184700142E-4 -8.282205825316311E-4 -0.0012888798310325212 -0.002214662018253825 9.748404368021578E-4 0.00448276814355943 -0.004677618980853737 0.0056547259772061365 -0.0012034873951135491 -0.008933588477959494 -0.002574456449159133 -5.106097591588583E-5 0.003744732329422954 -0.00454117265187312 0.002575771688029994 -0.00635398257214447 -0.0011362779122425705 0.002626824279863377 0.0037790185676283873 -0.010011610543650287 0.004072344237572502 0.005005961403262723 0.00575093251628519 0.0010448991449721699 -0.0015683733226335747 -0.004590089405297555 0.0025812638531192015 0.001976940994947854 4.242197553975517E-4 2.7660868111753902E-5 -0.0017497249196364272 -3.241936752191709E-4 -0.002405952743007174 -0.0025487148762344224 -0.00208325717428346 -0.001007123805862555 -0.008293249610547306 0.002746885171014007 0.0030328477483707638 0.006044262268894231 9.91870564015872E-4 -0.0026742708839364083 -0.003367577479777319 -0.0074981984865317005 -0.006423138691903633 0.004317695799989989 0.003529138365706263 0.003309144099317108 -0.0052200313772783466 -0.0018733478681453664 -0.00671232264650753 -1.8077410702242746E-4 -7.427911316712374E-4 0.0016559908103708438 -0.0027941547389091033 -7.789324307228494E-4 0.0016994508886728655 0.004247166137047324 0.0037498477310628484 6.873597310692504E-4 -0.0012535400473410712 -0.00534229483844853 -0.005579945415251107 -0.005257974019332109 -0.004614687079865359 8.166099052567777E-4 -0.004819462356902866 0.002778809413409864 -0.0011312277920536799 -2.8286527806209146E-4 0.0017703970480520495 -3.7766812559322045E-4 -0.0068594949293733784 -0.0026339504602743953 -0.003960422750469798 -0.004003827813331016 0.005040633488432717 0.0034033749292950092 -0.003043683592972385 -0.006264810155775222 0.0020312161689894775 0.004205714114883105 0.002726806713394864 0.0028532950676137237 0.006691376289458535 -0.003011702042731539 0.0013698819796956604 3.869903966220374E-6 0.0044829349767722786 0.003709225501939504 0.008434877061410549 3.8040068658251245E-4 0.0010323686522917992 0.0015600875577388958 -0.0026660989969003648 7.344293426327307E-4
0.005984254100369374 -0.009463680004573259 0.025469212732220033 0.017778091072982168 0.01372822801483542 -0.009723462164143352 0.002971875351248198 0.02724185971513019 0.005775472355813738 0.018994674911531017 0.011884076188333212 0.003860152481038177 -0.002521591343112094 -0.0108048286483332 0.013391720007700522 -0.002874111360406963 0.02000127421046419 -0.013751973361472929 0.016827607787061206 2.1219921208711284E-5 -0.01982325381086044 -0.0018690413358948802 -0.006287205367253018 0.0057796707794465305 -0.028461827268698864 0.02054182158935592 0.012989306476773984 0.0036284184811727787 -0.012952819082036316 -0.017606176654662287 -0.014225936636760103 0.00604107414406377 -0.004762717463374976 -0.028916965030872707 -0.025460054785288993 0.005491179179496591 -0.020346112896582266 -0.012464669374950362 -0.0021327646272894935 0.009494318312185659 0.020653388437407584 0.021369568162369203 -0.01579817122364537 -0.0016356496288117515 -0.003352753774852848 0.01940729959041968 0.008191294975539769 -0.006609789856638268 0.017926823249839453 -0.0012917655342593519 -0.024058808819873524 0.009009968466709272 -0.02013925095860273 0.01675452457825345 0.007825951351818877 0.015997608104431602 0.004834557287069319 0.014223580960756509 0.0049225792522710615 0.004362964609701626 0.020430776199407728 0.013425764919522016 -0.01905595333616996 -0.011346450441264507 -0.015166355139006667 0.008161294005832435 0.009609334959482366 0.004182272303129554 0.018771613622349026 0.006776884191499762 0.012209058192991193 -0.023008536278682136 0.029249395871935126 0.007249753061985297 -0.01243055210146278 7.185791999638606E-4 0.010733316924645896 -0.013379172370207448 -0.009773375827641987 0.00934029102205919 -0.01823286798622136 -0.006163982954952174 0.002411818689447807 -0.011556683675214275 -0.0060934425279319014 -0.0031853991585675387 -0.0037755905596102584 -0.014287666553611042 0.005825972608745944 -0.00936304417261677 0.023048572478677143 -0.003904725435209602 0.018768042741489747 -0.007605995070856748 -0.015738239190681264 0.006562318828397376 0.00593805821915976 0.006395151961713732 0.01166431674943183 -9.632244802135486E-4 -0.029680566545531698 0.01654423455463379 0.0011922270863444105 -0.008693871079152676 -0.02163980255113517 -0.0027152415739952447 0.03589401126065711 0.02040265957799687 -0.005266841010188664 -0.016718858055848364 -0.020008349879101738 -0.03520718222598426 -0.0032119490926763106 0.012833059369631654 -0.009343881627273506 0.01749005881155752 0.016602647872962843 0.004761640189453778 -0.025241744380505724 -0.0075129049814249525 0.030205089187736216 -0.006873920125956852 0.005367967406234916 -0.008706676713937178 7.709594719613665E-4 0.0017826429070063154 -0.025468791120312646 -0.004221127877420638 -1.8914788044638517E-4 -0.018406966351946556 -5.26603450705928E-4 0.0069255647355116225 -0.0015036260143181958 -0.015310170676331974 0.03080113643897523 0.007875434313640343 0.002770153643524955 -0.007449951605338712 0.012186941739022296 -0.010976933917661308 0.010811121708463186 -0.0039237091128004374 -0.007166759412991116 0.018009542410785236 -0.013137227502914652 0.0013349491842590743 -5.006208692159777E-4 0.012694935351171652 -0.01491334653892499 -0.025081092253619718 0.006529290102923246 -0.006624270074362128 0.01638002063769082 0.010408286317589006 0.013433608689140376 -0.013292470037836018 0.027154867742120715 -0.01904184328042351 -0.0269856282023688 0.0044151568194393765 -0.014544641054543452 -0.021486052298239168 -0.010032885958096972 -0.012112142291215813 -0.011650434435834767 -0.007112729826572556 -0.018142031619586583 -0.001774405661500923 -8.363784005364199E-4 0.019051466055306387 -0.025440528124323774 -0.002130174697137024 0.007970178862025076 0.007666770570968397 0.016209578929542296 0.03570026804033266 -0.013453909316676614 -0.01223206432536776 -8.076174778357036E-4 0.011835903361758039 -0.020244765132465817 0.028181159165859903 -0.028690037594359136 0.002694252544592746 0.0033119108075839103 0.0035132269359345685 0.0142511324498523 0.006261977270289579 9.384308456262384E-4 0.017704295371958056 -0.02615478640740446 -0.014511248594788152 0.009136190996269788 0.005471926382875246 0.01726616963140555 0.011761892538325163 -0.0056921221625186565 -0.004759685501450146 -0.005284356440125901 -0.012223663876006622
-0.006477413794062799 -0.002048558912419535 -0.009689804938020402 0.04005501293709613 0.01807944098152897 -0.08670074318563661 -0.025414966873607215 -0.030063472587753635 -0.05294840001024462 0.006768234069939627 -0.06106201405454877 -0.02737589736253686 -0.07779483521782388 -0.07952614495885052 -0.05355335311755916 -0.02086910851068234 0.09081641726951381 -0.028855356579102584 0.06310606679071713 -0.09461281820210325 -0.018692831632389995 0.020073882567898795 -0.081264500289363 -0.012251348523475454 -0.03103562950387062 0.02248784675751135 -0.012129445927910288 0.05595332119411157 -0.020027773779276694 0.0408797235713797 -0.07179530248844275 0.02925881587268811 -0.006259056693609671 -0.0214757173261633 0.023255251094127228 -0.014374717813427612 -0.020646211161453674 0.07095869086734984 0.048128673537727214 -0.0893146148010136 -0.09902072355331656 0.08914256230112663 -0.09522980340284731 0.05340152770333332 0.12226661455908835 -0.0049775164438007275 -0.02589302857967331 -0.07546491470165266 0.006886617483229098 0.043918822223233865 0.03707403166079256 0.09385164045184106 -0.0894211707388934 -0.06481284286256248 -0.011164330762505465 0.01394053735985785 0.04225971032560051 0.0176356757737999 0.0679177595928314 -0.114359791069379 -0.023824208278658544 -0.04942292869578056 -0.004454379890674885 0.06616901043627763 -0.048968965052914676 -0.040891248859683434 -0.0734110463066284 0.04646192999128351 -0.03136182611923055 0.053507816009657864 -0.04585956668059344 0.05280692688866907 0.00670963326996172 0.00886603521229897 -0.039716407909159125 -0.10639651573873524 -0.027085252856509246 0.00765438945131805 -0.012560565923702997 -0.020142000796712464 -0.024890698110556563 0.023277449170585475 -0.02739979103803731 -0.06538722704366251 0.01908933946871257 -0.01857497381017075 -0.08450980287264599 -0.02927890492641747 -0.005815778425144854 0.0338529857491406 -0.041586129991542764 -0.058051575287270465 -0.02568953312161781 -0.004624815003526717 0.024573467720512304 0.08470346879430186 0.11579435312499703 0.007581485517098838 0.011935510904013683 -0.004444261501427569 0.005253847615106717 -0.01712728011786986 -0.023233004527485557 0.013478336035219375 0.06526215394015512 0.06189752506821198 0.014290614578990446 0.05430346012810407 4.213347443357692E-4 -0.03782117769260325 -0.02266498237364612 -0.04561508616326024 -0.04365216732556313 0.04310360533457815 0.013964812949924106 0.012645164960509213 0.011886766103597656 -0.005859657558150473 -0.05802794220246853 0.018393724473284048 -0.0665794793849141 0.05643435374785088 0.08565112992885006 -0.08688607112617341 -0.05033668864440838 -0.016494184051306718 -0.044619780011402 -0.026003581624050906 -0.045468563515869774 0.03937447142534522 -0.023737609734066512 -6.905267842617774E-4 -0.004261120611652175 0.015236456777071208 -0.07308166682757503 -0.13692547877691338 -0.08346531821716406 -0.044597016185628245 -0.020351395493377052 -0.1252438300298493 -0.05006917103200416 -0.07830047952347484 0.10009183583272402 0.030062884657659873 0.08650048094263922 0.04421305213725772 0.023218008521244254 0.017492843842103555 0.06323045868532712 -0.09039668928123278 -0.0135693010008924 0.023509948953427322 -0.031603602623208306 -0.10985012747522238 -0.04833625261586729 0.02775172980532369 0.023583288566968553 0.053342124396117956 0.06360330802653211 -0.07542427913111453 -0.031683633708640004 0.026191674779755994 -0.009841196233393853 0.05178803795478088 -0.07807416623354475 -0.014674595985607853 0.0318945050288056 -0.022241493713429615 -0.07011548244292205 0.006083614933942836 -0.09463430032664902 -0.0023477459989461936 -0.06229034665243419 -0.041886412989948156 -0.009948446543023773 0.0015066358321672315 0.021098462713035896 0.02735273069348548 0.00608738107144673 -0.051154928442582764 0.021527777051626226 -0.11329368980395299 -0.03803335650692248 0.008501966076478787 0.059193691209245544 -0.11269743249699186 -0.07793826070804309 0.0634418291070088 -0.033028451899465135 0.09161354585825161 -0.025438846124144328 0.03913438290228841 -0.03554398941751458 -0.08580578730398299 0.014500673276086872 0.08453240365551408 -0.020090569453999153 0.01606506717198058 0.0014139069094163375 -0.015645196074380155
0.005801311539796233 0.0036983005589583994 0.006689962932802091 -0.0020909818730225466 0.010292671501231528 -0.008690136213791123 0.004436957818898638 0.0020052667291749777 -0.002438048665884763 -0.006282626067711715 0.0017514508169882562 0.0018548717257190173 0.0068261296461242195 -0.002987272078695606 -0.002768452729069079 -0.0010117215466334674 -0.004437913087567054 -0.004457120122234177 -0.0013608575461930522 0.008948989038447151 -0.00151166243012075 0.008071319164169472 -0.003933054723813334 0.0026477096427482264 0.016775618689968717 -0.01020189855698144 8.69016973167805E-4 -0.005477167490434895 -0.00623213678955336 0.0024777195051249013 -1.6551081406950552E-5 -0.003737364372363314 -0.001349170645881895 -0.0020966461861321264 0.0016625243320025542 0.007985829678462833 -2.0554613021128967E-4 0.0026529650050446094 0.003727251545184886 0.006529786967560071 -0.00916745978434774 0.0011778256144496515 0.009086745359710787 -7.985067403856461E-4 -0.0031201346252495658 -0.005671907986858468 -0.00892399056142226 -0.014265115365320161 0.00419063507039097 0.007549621484410576 0.008736083747171105 0.00811429509643267 0.0044734373474491764 -0.00219187839369001 -0.0010627515782955764 -0.001982651875952609 0.00814251275705256 -0.008720600142550702 0.008498069614307154 -8.95617003427684E-4 -0.007139429238409765 -0.006259322430502734 0.0014050295977941977 -0.00519847382280664 -0.00443303038715449 -0.002269733302943077 -0.001816565543508763 -0.004267466001638783 -6.679065437637442E-4 0.003964870041242993 0.010009673584620984 -0.0011536253090094458 -8.120875725016703E-4 -0.008135909555948697 -6.598013722351498E-5 -0.010666620685366576 0.007559714534614001 0.0019210396951998266 0.005431112186798011 -0.002523420591137388 4.830039565401792E-4 -0.0012491728690509094 -0.006750350360601937 -0.0010872387511637659 -9.127507980381742E-4 0.00496751699916186 -6.092692230351776E-4 0.0030149732216909263 0.0011559284855100387 -0.0026099194399169735 -0.004458283400575736 -0.004586160289882441 0.008793689400416024 -0.003653045992170165 0.002628898114004201 0.006234167785687583 -0.0063302917337879775 -0.009991859873375494 -0.005417662248486196 5.539913515472997E-4 -1.229499484225467E-4 0.008674653285940956 0.002885303688202296 0.006736795009095906 0.0013549114701138702 -0.007883954431827675 0.0039154570068343055 0.005354068116786484 -7.941337602996091E-4 -0.007148056480008242 0.005892772892946021 -0.010247657114703466 0.005550649212023727 -0.010018336406677012 0.002889293647223486 -0.0060554294296401925 0.0043286300086543975 0.004799988351978457 0.004418844710223507 1.0792021346102197E-4 0.004541065308179967 0.0024517620424380827 0.004315213352626671 -0.00618312564558163 0.007349976331413626 0.0065660852159932824 -0.002702959108345121 -0.003356174548291094 0.014569946835053344 0.009617049913375713 -0.004748451239558914 3.913987921032016E-4 0.0106655628869077 0.013828566894945575 -0.007672417156343683 0.00959148193134309 -0.003159725147431139 -0.007234395240250409 0.005028256007912169 0.0033071372364562304 -0.006973498962243801 -0.00592560152480395 -0.00212623374123932 0.003194668579439307 0.007715228626747998 -0.008288580725708126 0.004348993664128914 9.726881746576195E-4 -0.009720162537379276 0.0077103724709398115 -0.0030690776838082226 3.8874170630004564E-4 -0.012176605523542085 0.0019218921903447258 -0.003717325710318366 -0.007212094755795273 -4.178699520883327E-4 -8.042249448922062E-4 -0.003582099114327608 -0.0037217823785287213 0.010140842300763474 -0.00551686263204608 0.006484643274604742 -0.005089567364285758 -0.0014919828264383615 0.003894374322082819 0.0020024439334592544 -0.006454455184721962 -0.005977285359028159 -0.003727829426104508 -0.00874243589311111 -0.0018191856474508489 -0.003941697340793546 0.003104648453403648 -0.0034738889163584965 0.01335111326774008 -0.006878300991388908 0.0032748170546073314 -0.001358078494228715 -0.006544292047918392 0.002238098005569919 0.005864728247200157 -0.0012515370893759522 0.006972296911336978 0.0061884203442613825 0.004201815540605272 0.00800337273397959 0.003328217383435797 0.013111409336932861 0.00235256183582852 0.007528348345385202 -0.007491005001106505 0.006700279701071997 0.016356757757610196 -3.238291001128045E-4 0.0025019786597631163 -7.629765092941353E-6 0.0031380723897233244 -0.004821840871993161 -0.009675183120363825
-0.0019153141716003077 0.007500732924556643 0.0010149534718502343 1.2923694176860916E-5 0.004881062472468469 9.89724980267534E-4 -0.0011155835967478606 4.9847755596267E-4 -0.003658086345768658 0.007998624718264605 0.007618139186271698 0.004472738158192213 -0.003632707337890064 0.00483294478736141 0.0024507958247759467 0.006784907713500496 -5.99424577237001E-4 0.005109619753641011 0.0027713291396444678 0.0010121256345533881 -0.0016681267506083602 -0.004016786656020727 -0.00419780952764739 0.007403789408149491 0.005034005468057477 0.005879807117137172 -0.002726674205909671 0.0035718428083397727 -0.00347622879817234 0.003370725157127934 -6.921801855665904E-4 0.0042421795105227235 -0.004269022256703399 7.484757099394294E-4 0.0028280999673169376 0.0025890075950778255 -0.006756781492172732 -0.008947350072302088 0.005118568769434944 -5.761077345779766E-4 0.0048422552596503856 -0.011084619490888733 3.1545030297346137E-4 3.0589404643035394E-4 -0.0025472260552969277 0.0023952106827917104 -0.012607695399203376 -4.875664837955811E-4 -0.009922175546483822 0.006421018498087559 -0.00616279219319051 0.0034066254166317473 -0.0022338770793445288 -0.001061714944529652 -0.010058320862950018 -0.003921841785153102 -6.907725226797503E-5 1.8162803031584473E-4 0.003959363784138847 -0.0068521372804522095 -0.0012477002216335297 0.013908781783069363 0.0040617296489450444 0.003603050564657814 -0.002221009793149385 0.0038052011700438373 -0.0023356089580626946 0.0017114356317823615 -8.274495813148259E-4 -0.006915367164510994 -0.005814484670821442 -0.001874279214233854 -0.010236438236814888 0.001299755982966008 0.0012139474145215579 -0.008372111766555751 -0.0013089583190045572 0.0038211820685985494 2.4407421728209422E-4 -0.007645791577198941 -0.00736662839621202 0.005343879712408165 -7.717692377217803E-4 -0.004073090480392049 -0.0018120278127040572 -0.006211197379736069 0.006160508894286752 0.003896903822222817 -7.598047865061013E-4 0.0063949172525615185 5.329103267705103E-4 -0.005396487518785975 0.001991744223165119 0.0017647590255720675 0.001740896925816803 0.008469606029859822 0.005443927449379738 -3.095384020332034E-4 -0.005183093122235354 0.012104181515713769 0.006362535627771935 0.00427113578302855 0.0024190391004547227 0.001893616036649967 0.003965293025183864 0.007466914258764969 -1.0425963930401539E-4 -0.009173389211960361 0.0035433099059254693 0.0037264461317070797 -0.0014826479876565764 0.0014409234655782335 0.00806551312489944 -0.0018836014817643898 -0.002935480846790421 0.00848448968512511 -9.25178085503262E-4 8.23147939224634E-4 0.004250809056861491 -3.6669412555161103E-4 -0.005978615753096817 -0.002538637000580134 0.00962632320223136 -0.002770923762736319 0.0021743982198370263 0.0045550375630913605 0.003760047782496863 5.820168991529665E-5 -0.0035503307265528994 -0.0017705935729309403 -5.283661860865952E-4 -0.0014990926056865478 0.0075167768755906765 0.005061818945486395 0.004864831686940707 -0.0015640210069624448 0.0049213586745076214 0.006788024944253546 -0.0011089607301616523 0.008723786178729601 -0.006764291747084826 -0.0010070149278445064 -0.009254874480489969 0.004467921152567317 -0.0031421759868240804 0.0015896822447653413 0.0012823176994490133 -0.002768262558051816 -0.002818309541552271 0.0027240806598243755 -0.010023370829626142 0.0033747047838720615 0.009057606173162954 0.0066879307986445645 -3.4170257717541997E-4 0.002798010570748563 0.00215627031203429 -0.004225317904483385 -0.00278737787947888 -0.0030712439153806666 0.004865574518204096 -0.0024548399478918595 0.0011242305116233309 0.011567724560523377 0.0018862812017663023 -9.72059439840157E-4 -0.0077408877220913495 -0.006114201182390924 -0.002844963435952055 0.006512751266032329 -0.004797411692675544 -9.042235696071049E-4 -0.0035634330767990536 2.10616856401457E-5 0.00646710800787475 -0.005355904109768094 -0.020217072861039083 0.0021368747851500747 -0.0031306264962341884 -9.593927882535157E-4 0.007431286154163844 0.002761156844934067 -0.0068549921003207785 0.003692560170711541 -5.26329934467255E-4 -0.0028411221421743398 0.004579465382415085 -9.615150468481554E-4 0.0010001287088439092 0.0027215313210980545 -9.302086073797351E-4 -8.661991941851751E-4 -0.003845381879203683 -4.2585971718775146E-4 0.008364732221113358 -0.005896839220925469 -0.002699110748206236 0.006227279077430637 0.0019098335260142013 -2.424797382406253E-4
0.004642147404101073 0.0037121285801751504 -0.003670546421904222 0.007279287789144883 0.005569493670041927 -0.0027392669607108544 0.003763251964474317 0.005493317623498943 -0.005447833925269126 -0.002612814638658533 -0.0010424161086852503 -0.0037587128089066574 0.005868326256136847 0.001353503981018206 -9.319148828436983E-4 -0.0011984567158142177 -0.011717241741454498 -6.621530468331305E-4 -0.006258664201542315 -0.005741237287739505 3.1518575559577903E-4 0.013041300915626886 0.0038907215795257314 -9.681235785808051E-4 0.0013864380746765141 0.006785503342142995 0.0036793514233128713 -0.0031279391705889142 7.992241973378897E-4 -0.001465941451451806 9.495170236495022E-5 -0.0023781466040164053 -8.9333662814375E-4 0.0028156542754863363 -0.00332763679057151 0.005117284963448403 0.0024615072658809804 -0.002431760663511567 0.004578263249108393 0.0020794954910719255 0.0033057898708682303 0.005437235068505865 -0.0021279778991488453 -3.27724486682342E-5 0.0011936327455888108 -0.006894822213081101 2.6197302522371557E-4 0.003958308710718752 0.005708441968093981 -0.002541914411027665 -1.2308893956489294E-4 0.013135591971309002 0.005963808394556438 -0.0040824826110244395 -0.00645897142409505 -0.004223879257566728 -0.007026274455029916 -0.0026978376550559715 0.003941846282967931 -0.004935916286378051 -0.0024532614737182096 0.0072008174423177215 -0.0075840953939591 -0.006127005997939043 0.0025988147670461194 0.005866938568439651 0.0071533360920682295 -0.002782179114965995 -0.003991552337370415 -0.0015101342768716667 0.00899914703051041 0.001748987447667532 0.007459260935299448 -0.0015645082720381676 4.891288721985644E-4 0.0060411891354954835 -0.009663626289933802 -0.00783702229350299 -9.465312180872405E-4 -0.003914243281729124 0.0010206062775242413 0.0013078871964150517 0.0015254342280536094 0.0035077422669854462 0.007834709148529587 0.00707980394255415 0.010702899710592656 0.004202945589413324 1.1173466319153844E-4 0.004170678154783895 4.905445247311041E-4 0.011978932212555589 0.003437397543665696 1.86647429676735E-4 0.0011492435620656597 -0.005402721401133193 0.0010387608121573135 0.006969411162823046 0.006920184833151921 0.0052038724952392975 -0.005080368230283776 0.0033379046740649536 -0.008255978634415219 0.006539180752598776 -0.0013708868943585186 -1.722586366413017E-4 -4.531821876970313E-4 -0.0029134704497298888 0.0033067070974452505 0.002896370687496252 -0.002448442992038216 -0.006602577085140704 -0.0014062236338074534 -0.006550361027049426 -2.2488200861336453E-4 0.009701593884253951 -0.008016229912032293 -0.00222920380044735 -8.175093197429147E-4 0.010486186772706775 -0.0018973249858639592 0.007253651185480504 -0.002302901153006704 0.005388547388641092 -0.007900129835860378 -0.010782419779545084 0.001376131993708353 0.0040212232732511665 0.001816174631947732 0.005447158901136013 -0.004354023418937716 -0.002760941719628629 0.0028348826729255243 -0.0038022142768199597 0.002747299571680449 0.0031555924385531418 0.001610966344829192 0.0012217231098307555 4.529653555803517E-4 0.0025234012804605755 -0.006522684511860043 0.0026333206431021837 0.006332687866693386 0.009094226461149534 0.003156051909589185 0.012745429594056343 0.008353123030654809 0.0032912347486049437 0.005858673407639983 0.0013757302083248434 0.0017377828309858854 0.001637055276130238 -0.00843236191253928 -2.4270249594113066E-4 -0.002216103258522499 -4.834633164938854E-4 5.408893025204863E-4 2.2888652186481924E-4 4.76621378259981E-4 -8.418416916031168E-4 -0.003169301352043248 -0.003287723561555385 -0.0011891383032064133 -6.183127804269184E-4 -0.008883271434376833 0.007420081564617444 -0.0010271238661367951 -0.012899948803804113 0.007830950117637419 0.0023280542143160926 -1.2584527881937048E-4 0.006310909423381506 0.0038398788513782757 -0.003530168544803205 -0.004668648289986982 -0.006276921787526441 -0.00745568580606381 0.003775675153050572 0.0048512028890726625 0.010786729766029107 0.006391588181177957 -0.004295480534334918 -0.004817185443135632 -1.1435584154077417E-4 4.2704803381454515E-4 -0.0035994157326362506 -4.487024506841763E-4 0.004976870199104372 -7.914075802231285E-4 -0.0018127630447343876 -8.320566809440025E-4 -0.006838953740774921 0.0013097609183834028 -0.012175318654726928 -0.0011891904743345906 2.316219483782385E-4 0.002718083223281771 5.305363573066558E-4 -0.011679159594720864 0.009971324603518803
-0.0024379074302953033 0.003707801243314144 -0.002898792045435829 -0.0011637856886526888 0.004538354282245939 9.89948977864048E-4 3.81670594862637E-4 -0.0031231169672530667 -0.00879203182882753 0.0031249464525116163 0.015536679120531381 0.001213339918016614 -5.217862508324988E-4 0.004710706106996082 0.003217133011482938 0.005642404368351716 -0.0016706987163425998 0.013113298368591876 0.004526537821360322 0.01161178084037189 -0.002078036431268549 -0.001223016788860399 0.0019327231343747521 0.015484684811311414 0.009288186318830625 0.009601355010936154 -0.013582599446628816 -0.005154464102700858 0.0031931714114581977 -0.0028494921809102693 6.035577300840104E-4 0.010879199468731423 -0.00976623662853506 0.007236945134995368 -0.009885231355578512 0.0010430621487831522 -0.0010239936353668355 -0.0062326416501907785 0.004479551768688483 -0.002426366700148848 0.0018357824522698572 -0.013995013267020942 -0.003457507855600453 0.00911454909677503 0.0064829054971658 0.005972345769952194 -0.009346626598288952 0.002506172704135078 -0.01597687323422853 7.163693145129986E-5 -0.0014393114304898055 0.004965605333573991 0.007047668391973986 -0.0028812310456634957 -0.015185472544326853 0.006253890229904045 -0.00851606561035151 0.004581808588080169 0.0064998682195793085 -0.01086369106249479 -1.38942297765321E-4 0.01693250218020206 0.0029322247537112286 -0.0024200514375758344 -0.004609381378637992 -0.004357277249705071 -0.002791011196946849 0.006432281531834742 -7.733266108837967E-5 -0.012160140811541126 -0.0015924823073773975 -0.0010797313240376613 -0.011934818508885288 0.005313807309056555 -0.0034990855856215472 -0.004303075404410448 0.005594475266731598 0.003981552820735372 -0.005724511970212797 -0.0136420225727025 -1.340157716435524E-4 0.005021514389086067 -0.0018016198838626176 -2.0346318589845917E-4 -0.00804538819296883 -0.0022333264560823783 0.0029942129524973297 0.0059245844677013595 -0.002991056443819416 0.008863257392022691 0.007395538479706554 -0.011199538137788324 0.003726981072668669 0.005423135501684294 -0.0025793990132350043 0.00893565111016855 6.337086394409616E-4 -0.01126599146728225 -0.013120362927602103 0.007629133634469297 0.011401046321263753 -0.0023163750564624387 -0.0053503704915820495 0.011992987955493762 0.00372307026551774 0.010048252543098218 -5.775349359703758E-4 -0.00485769232381238 -0.0010688226152558147 0.002156899306302489 -0.0069739252245697115 -0.0023369190812012447 0.008293666325357534 0.013376105235074365 -0.0075180418048490984 -0.005458529582413407 -0.006683645609130272 0.003064464614950171 -0.0059079349088112364 0.011427455262053427 0.004302183317221701 -0.0076133231440297005 0.005408781083115987 -0.00966974939128391 0.009015948299937971 -0.003397042693095246 -0.003961059279500043 0.006539544015320598 -0.0012543282569212123 -0.004404963136861292 -0.003674282589832622 -9.80170871343206E-4 0.007599594831587023 0.006953869362558954 0.004680165391865271 -7.246580611306337E-4 0.0025293013889209734 -0.009228366359410272 -0.003472646038902148 7.802005135472757E-4 -6.56621877339331E-4 0.0028826964076875687 -0.003439534062707077 0.004259291607531588 0.002250610223917644 -6.017731588902141E-4 0.001677619250285315 -0.0036334137742248026 -0.0020218872366675584 -0.0020173761167028514 -0.016610109894003612 -0.015150578517524263 0.01111364687587701 0.003977856496906278 0.004572311986711782 0.006159790082297166 0.004022592707725002 -0.0013575439431556546 0.004329213159983573 -0.010999618224091198 0.004953038341067726 -0.003911741946568949 -0.003105181116542643 0.01427001468216944 0.005160160077544528 -3.687932177432575E-4 -0.004043205490180478 0.009968624985495004 0.005548625243524871 -9.427779435369604E-4 -0.0010146938107443186 4.4975842082614666E-5 -0.001273794548444164 0.003937935442935248 0.003945818811490475 -0.010951271403876386 -0.020027726153050315 0.007624347785819042 0.001171041591256518 0.0025957072690340577 0.009720170591918861 0.004087081256382679 -0.013559277658378707 3.237674508648645E-5 -4.723961991591927E-4 9.430575697020699E-4 -0.0032294888205587225 -0.003620518849429589 -0.007563257581045697 0.0012214799106168173 -0.00348601376825244 -0.008316573871353412 -1.2670808827173016E-4 -0.007446588122811061 0.011614743490871954 -0.016040310900585976 0.014125745352338489 0.007332726973337109 0.00637475156305745 -0.011092636267107254
-0.006248139243980676 0.008517111843967909 -0.005526621773248706 -0.0041113010818039026 0.011347311421560122 0.0027738950814075007 -0.010711564087844076 0.0011702712975708693 0.006452025566546566 0.006002418050213273 0.002073040126624342 0.003974442197504015 -0.004013172418290491 0.00807025558173686 -0.0010640222861511717 0.004625973996575415 -0.0012665936959879785 0.001867355979694272 -5.904767519318137E-4 -0.013208027944883764 0.001039975886604573 0.0030766901273271154 -0.007279194258675831 2.8409170179623505E-4 -4.913204388801965E-4 -0.0039048511123430355 0.0057203025128201215 0.016770651204807425 -0.00817460316067022 0.008356624419560891 -0.009011318996129078 2.494541689885262E-4 0.010315584160794334 -0.014659153276769631 0.011448250908150218 0.008774382193425261 -0.006260553121233263 -0.006121397945199033 -0.009721737563518781 0.013243379589867238 -0.001374996916928163 -0.009579515552524811 0.0072644570519431 -0.01706937090518795 -0.007805524056633519 -0.001495165079408636 -0.006617640559344862 -0.008989783584343942 0.006992139373884603 0.018419382678206343 6.790329395903909E-4 0.0033930947645447436 -0.004454832141752242 0.0033007555986742814 -0.01068895876256189 -0.018835074095714936 0.003317797899529234 -0.002781410860438284 -0.002194107316517068 -0.011724577313096552 -0.006611658854892095 0.01681566930633259 0.007479974269654284 0.01675872523835866 0.0050855025633204974 0.016587530420202366 0.006536688664270599 -0.005914424947063835 1.4082209452466818E-4 0.0020721120463842446 -0.006979020116086954 0.0064552427308768616 -0.006640258181835083 -0.0043532143972513345 0.011348046159803223 -0.015504198200526374 -0.0027997024431174983 0.0063367012193989904 0.00684671961041911 -0.004709278150584875 -0.02365518014704242 0.007625218898982908 -0.004628621216957566 -0.002736830477662819 -0.009686807868229275 -0.008396198098386036 0.012376476354815381 0.008181409958671549 0.00949612343510284 -0.006268728838967066 -0.008905272418998264 -0.005735464935131777 0.007285008687398665 -0.008017555176661079 0.0047632038430222715 0.008693170485024637 0.009949390663434199 0.004449395602017084 -0.005872346198609069 0.02365483578459615 -0.004841208093508575 0.0011278265268570946 0.008495322138437652 -0.005390307131684781 0.008052125647091693 0.00751630658223332 0.0029818420147779885 -0.008885571373799759 0.013152450208976537 0.004658407935584942 0.007910261684525194 -0.0011977246917163295 0.01261897885955805 -0.011215663074488577 0.005875098639025822 0.024972807020677366 0.005098371649974771 -0.001342220139315159 0.009374957633731678 -0.005434145947753077 -0.011336622854947567 0.0013728546006901712 0.012293683567075362 0.010764362095321766 3.2591545690826044E-4 0.01198261598262443 0.0020129269248664013 -0.0025863863156238617 0.0032586911735259572 -1.8516344761161714E-4 -0.0019647699488556515 -0.0035870729361824876 0.013201356559743803 0.0015577957270340437 0.010131791685291058 -0.002279466933927183 0.016327073526833446 0.02130823227615781 0.007201816459124372 0.007508804485600878 -0.00793839469377135 -0.0020056302093534187 -0.025574488768517624 0.001148458367778454 -0.0073337505943209015 6.078881048304497E-4 0.007249565222848054 -0.00587811415506059 0.0103995065632392 0.008198431936215151 -0.01223245996346631 0.015925419742285365 0.017040950753607658 0.004442601235471267 -8.380231705003332E-4 1.5621738907298276E-4 -0.003935010492096337 -0.012130034886063885 -0.008277115006838753 -0.003603116881626453 0.0025841164431029623 -0.0037594347839915573 0.01189145516912329 0.01713810202492243 0.0075989751685002094 -0.008442950118736327 -0.007049526967668723 -0.017541250475085 -0.0016816880356332364 0.016847297598876026 -0.004588909611462248 0.0025618961255435215 -0.009078662204061378 -0.006914677966467651 0.014703226463358142 0.0030971302942747587 -0.020293502184590043 0.002066756597066587 -0.010748019298647448 -0.006344771529659273 0.0012880699505100819 -0.007005504167801677 -0.006234660127660261 0.0011172193852084036 0.002872318672767633 -0.012544041131647657 0.006234413409632827 0.003875017967769098 0.012401024314274148 0.006801315830985845 0.006819904015301592 0.014489559030295552 -0.009396266250158561 0.007310775881484688 0.00890556484702899 -0.0034246116286765116 -0.016019798755028295 -0.0019684585586013954 0.002710747269189321 -0.0037063934536611222
0.008805200788593188 -0.005528929159892702 6.701580198985438E-4 0.00748152395043159 -5.733043880917927E-5 -0.005024610473983952 0.006878642748228258 -0.0023119532947922196 0.009473035971250217 0.005414799325834665 5.569014513731314E-4 0.011610096482270613 -9.624058182349074E-4 0.010430887203452503 0.0018887203926938954 0.0026570516238775673 -0.0011239520225190718 -0.003569823138719413 0.002472462386700091 -0.0020840696738651816 0.0038141291216699322 -0.003906719962008144 0.0037183849074379303 0.004362274519044502 -0.0028240191273756297 -0.005144065619225357 0.004202086922424999 0.005019590014645215 -0.0030753403872915436 0.0026740415898578052 -0.0051051538734309 -0.009544790123756496 -5.687755101243696E-4 0.015383469520741103 0.005132021543952445 1.914914392539391E-4 -0.006691600179771519 -0.004407132872629801 0.009125387048112442 -0.012267191316654593 -0.007109706186862971 0.007747667684044238 0.0024380977943627216 0.009287147473029923 -6.086743639919882E-4 0.005037355264262068 0.010661263217784699 -0.006776735864724518 0.004008310864627352 -0.0072980216132405 -0.007197259434348192 2.850902237441836E-4 -0.009239408793149316 -0.012304581975792307 -0.003078900914164371 0.0036065935624283296 0.0014917832780124449 0.0068986682417876595 0.004495749719692608 0.0037786334095533153 -0.0061899527614009365 0.015996370829311428 -0.0052399814650869545 -0.004910695798439417 0.006173868038759192 -0.008399973526315904 0.00207704112024217 0.008818886762714227 -0.009142696907948321 -0.007078995427046253 -0.0025442893689424165 0.0073124438288469165 0.013235816664240934 0.00931834230258138 -0.009700004612036036 -0.0014445622295934043 6.656616342793382E-4 0.007014853320705136 -0.012550376982075383 -0.004023201889148349 -0.005629327762698885 7.286402050686564E-4 0.006743301002075241 0.0021020958139943455 0.006171687105186318 0.003785452668000611 -0.008376595067887729 -0.011970430175726524 7.572202896726047E-5 0.008022992815322833 0.003037139225082322 -0.011376123301718204 -0.011471859988294896 -0.003422745036044044 0.00630010133771538 -0.003371201023843385 -0.0014183073337763871 -0.010229788176751934 0.008913127328639938 0.008299929414868725 -0.005547995010813493 0.0036826486149927726 -0.012480763547488824 -0.010231910031494594 9.078968009916927E-4 -0.0076658821515580115 -0.004520828636620071 7.666767099266469E-4 1.2739891364515942E-4 -0.003021876699919485 9.170056685007397E-4 0.005879753132288486 0.004527767866599569 -0.004831210281560983 0.006532541584382593 0.004519443457469666 -0.0033456461257478413 -0.012456776340665117 0.013570851326407488 0.00531490662259824 -8.584468537017274E-5 0.008553553682993995 0.0024349932807347556 -0.007913238206942869 0.00608867652206557 0.004080607933449717 0.009427825136882326 1.3046914619364598E-4 -0.003315218659510684 -0.007227392708190518 -0.002599025581758629 0.009053569254812419 -0.0057767026584313146 -0.010592322374812469 0.0022022035223230015 0.006747822705818231 -0.004491774599355998 0.011013838729347209 -0.00483336706064187 -0.0031406349151412946 -0.010837208354736956 0.0075359080296155635 -0.0012458274557695988 0.008993418532494156 0.003462663910492479 -0.009432773052568167 -0.011740494827573746 -0.012645072465345604 4.249978673548423E-4 0.010228826909050467 0.0065921065414108 0.009765237718791328 -0.00702380824369462 0.007039554167336157 0.0017664738442716137 -0.008741270134944764 -0.004876738534417845 -0.011778014219965492 -1.2714595521940298E-4 -0.0031673831782892984 0.008331948793769516 -0.006883716339603968 0.0024932691818867958 -0.005505418345829898 0.01979572312016458 -0.004478287692239838 0.012097142673830465 -0.0036283080003433614 -0.010350381508758931 -0.005541074316611269 -0.009633996399893627 0.002153253412713916 4.8249795416887767E-4 -0.013946463341095967 0.004260599060465377 0.008638266393788285 -0.009922502084297522 0.007713904172392321 -0.00434385156198598 0.003920212386301694 0.0010850993171784866 -0.0022905214375777126 0.0025106916448398996 -0.0014292680002763241 -0.0045702166652658105 0.002496618984681618 -0.00513517576142257 -0.008631375719496742 -0.004732111711080558 3.660606386624838E-4 0.009707668710148717 -0.001607973247970836 0.013734931329120643 0.006041543696503101 -0.004271041487437373 0.0014183238331204127 0.0035108424064326793 0.0034326385148578512 -0.013916831599990126 -0.004912769008518042
0.004910880773674631 0.004496185202219103 0.0070670439583834736 0.0021637119297996657 0.00960450145821508 -0.010091265826789564 0.0034975696256434787 7.602199667482721E-4 -0.0021027338675894676 -0.0083145123095669 0.001473754839807493 0.006131984499066089 0.005741829913307715 -0.0029211371457128718 -0.0025284108044248093 6.230137594480302E-4 -0.0037489641132131563 -0.0037353358503976913 0.004957193664924767 0.007072330955496342 -3.370234962476975E-4 0.008815001420280402 -3.0988900300867647E-4 0.004402447320204603 0.014826664261468447 -0.008235644620340337 0.00450878652980981 -0.0032944125691118592 -9.874696057411007E-4 0.0018801518687847213 0.0015578445233685608 -0.0037149296766563 -0.0015813629297716759 -3.6794664818581016E-4 0.002817663789078305 0.0070961147812935435 -1.7249919288146346E-4 8.391583727820885E-4 0.003492669866714747 0.008110930911769731 -0.005230136776323959 0.0015456021178244677 0.010119368649576486 0.001429473367582063 -0.0028775803135427437 -0.0017000723537264164 -0.0050659010829083055 -0.01332662863635681 0.004642708553641757 0.004751902559897509 0.0022175774445998245 0.010113192678139264 0.003602338967231955 -0.002436389254784319 -0.00155989192596327 -0.0014203886866272207 0.005927760061459447 -0.008831952271055354 0.007344453005586138 -0.004338563208197611 -0.0033298529588013017 -0.0048881289421287165 0.0036724103536566006 -0.003416160151822006 -0.0019299958688663694 7.491603119246864E-4 3.884797825991357E-6 -7.128499364158442E-4 -8.524708356485548E-4 0.003263889086362423 0.0028513205879700273 0.0019314556993911107 -0.0017553211951721246 -0.004390277636595137 0.001174247106898121 -0.009411233843431193 0.007012030984561943 0.003509804708087375 0.003163863598676315 -4.6329869196128586E-4 0.0037917168932946753 0.0015792226739586074 -0.003453872236669227 -8.497021711941085E-4 0.0022055282123618312 2.334141674697206E-4 0.002085935472145528 0.0025823270356989227 0.0020104833983835536 7.669452142271842E-4 -0.0059891855291907825 -0.005549895736938459 0.0060325121528767775 -0.005221579102882711 0.0012387506657120363 0.007611189879135871 -0.004369976317541993 -0.008559036339584826 -0.004194830891390301 -6.644077552923066E-5 0.002649229492313939 0.011924949833684147 0.0020864977123783864 0.003914282233259737 -9.92457607317619E-4 -0.008317815621610821 -0.0014248160582740193 0.004116896077209476 -0.002659769753294034 -0.007037636787811182 0.0053805147525082106 -0.005262316574347294 0.005452518585044284 -0.009046458951607847 6.705206811858118E-4 -0.0026027939524031142 0.0020086283803756135 0.004100714320702209 0.0012779899257298283 0.0012178238463795236 0.0020405098099317447 1.651983649634626E-4 0.0017098474567597522 -0.006394455009058533 0.005814420906002567 0.0076705717140538665 -2.0273429305901833E-5 -7.921242990144861E-5 0.012225993036844093 0.008751208948450783 -0.0023563575650909817 -7.575138965010251E-4 0.01101535759458683 0.010923056908911405 -0.002859706965922184 0.00932604052592923 -0.00493923938946644 -0.00487229984935822 0.006560802145077962 0.004260276597448364 -0.006994804333330342 -0.006578755385573977 -0.006042871494829885 0.0023380897018900875 0.011772502709653817 -0.007022612293601112 0.002649526221724771 -1.2093706194529291E-4 -0.008509356412742397 0.0038105581685492847 -0.002590735963757237 -2.520439390483187E-4 -0.01074062976054798 2.3056678134333406E-4 -0.004398411757033064 -0.002247214703252357 0.002549901265324534 -2.700046149873075E-4 -0.00881792267408297 -0.0057994362613384125 0.006015028607665977 -0.003901711708344228 0.004838144413024128 -0.0071024639682664165 4.101599475052342E-6 0.004370659213028735 0.003614964371549356 -0.0027911056498803 -0.006196341406144933 -0.0035342059220402314 -0.0048556201899379835 -3.9016999448223544E-4 -0.0018957722142047175 2.9782059289285316E-4 -0.0017069983588129164 0.01245828488706051 -0.00930638039337616 0.003257820262690904 2.991504266750998E-4 -0.004735623066964252 0.002030574447425555 0.004001969174670248 -7.621324312381718E-4 0.007297340754188411 0.001183854482438665 -7.165816214958327E-4 0.007930756314880858 0.003112558332531954 0.011029289255436421 6.83516177747019E-4 0.002509388678949162 -0.007295035149140442 0.005751873995072925 0.011321021765694425 -0.0017934837170951491 7.353495701263894E-4 -2.564375628301868E-4 0.0034508009273514157 5.098367060245901E-4 -0.005155041712843075
0.01620961065072786 -0.0024416140999942914 -0.0029405563310335395 7.307626372482657E-4 -3.295234076445447E-4 -0.010151974726616402 -0.0010638217622171817 -0.003368927403305054 0.009539557642583185 -0.0030801903300792088 -0.011210673605987102 -0.0029620817860455512 -0.01131743052771936 0.005616354791952638 -0.0031947874821709314 0.0054866407177853824 -0.002144373306360015 -0.01054176667327399 -0.005526130125320436 0.004712980521943557 0.0023145667361487736 -0.005614446857369907 -0.012824889492190792 0.006595542864778408 -0.008067858373751258 0.002589597467498747 -0.0036669876127299727 0.01391635534891687 -0.013726890461568714 0.007600445914642957 0.005414620551034128 -0.001746778910828909 0.00876166096715982 0.001260120049000952 -0.001359905646630794 0.009360854812083009 -0.012070202330550117 0.0024891450796199876 0.01302881491159422 -0.0047343376244283805 -0.00553242912322562 -0.0068387163680478855 0.0058244706700991454 -0.014406782419829161 -1.8704785442978108E-4 -0.001085973917866095 -0.010921935012127048 0.011309200096959285 0.0019060066516505031 0.012717387955742142 -0.0012769793716560784 0.0019773948550895638 0.0024878699951424678 -0.002228019214897783 -0.004746955183990217 -0.011928538688751213 0.010599920148655285 -0.004269244642109289 -0.010064564454750648 -0.01151305855505343 -0.0023981000476530753 0.006000597314013061 0.011317207405117023 0.0032043547501896725 0.0035824993621372675 0.005097883384560302 0.0017446592473264223 -0.0046855686434099505 0.00870343039505694 0.008882215740374113 -0.005512643067729782 0.0030879331609315703 0.005583104681879862 -0.006107642485042601 0.008147753007277965 -0.015790793618787376 -0.008742904875325617 0.007581000862651896 0.009931838234866597 0.0028417744097408897 -0.022301045576171838 -0.007200440991128228 -0.004177606982305928 -0.009659849357946972 -0.0022884999434363835 -0.004822068943585081 0.012217557161942425 5.324161135753355E-4 -0.0045228535551852375 0.007191054738135962 -0.0011564609388844866 0.005420800399027274 0.0013010940645063452 0.0019194379489457824 0.011310662847381855 0.003574665989562335 0.007250570887327297 0.0023857641753270826 0.003492232562679594 0.02778125072030831 -0.002091902194596183 0.006883565482443401 0.01085152911900768 -0.016205093501694672 -0.007484061896182352 0.010111864304592693 0.004213548729929853 7.106323317404131E-4 -0.002480205357798489 0.009144165049084654 0.006408116761715528 0.002221168627517638 0.003428795928920813 -0.01090345801642729 -0.0021813204397038493 0.008275250196988214 0.014175092550242584 3.855892540197918E-4 0.01135588324423806 -0.005591356237825345 -0.0051463635001383025 -0.002257681864788566 0.0014933374706964965 -0.00863581518176388 -0.011718035766870137 -0.0015553173943413455 7.618113393973535E-4 3.3222272429649736E-4 5.872980290650679E-4 0.0017810827530763541 0.01236470017495262 0.006506331014476622 0.003283647859950776 -5.798258231543867E-4 0.012048414092745112 0.0016551403521972547 0.01958085846942326 0.020484296489377354 -0.004410711518206505 0.016922111430687708 0.0038228673163669606 0.0055680352302512216 -0.007603780813800719 -0.00451213060685459 0.0021155692006307567 -0.0038293747608088035 -0.00731935341386193 -9.152255065313419E-4 0.005367792915520524 0.007081385509586252 -0.0019440607709690914 0.009411775878082946 0.004807231839109308 0.0111772186334993 0.003479621168584015 0.009413621228161938 1.3613028696934386E-4 -0.002731374501777274 -0.00416885074610588 0.002038937341318667 0.0022393211244587444 0.0022763585132190844 0.006872293399355968 0.010594267695157783 -5.10792902547816E-4 -0.010210192178244683 -3.014888931570317E-4 -0.015099147564960011 0.004492735154064287 0.0039040545950296125 -0.0054383313135761965 -3.594514637517783E-4 -0.0032360750650852997 -0.002692141322203629 0.008316258450493177 -0.006693398489454017 -0.01078088410646365 0.008629409597680254 -0.0018830153883786483 0.001360007086456201 -0.004445741344153546 -0.007404536755394793 -0.010329732350096052 0.002311107678907977 -0.004955989616585013 -0.01347031705939292 0.011524751146857968 0.0021962621877027006 0.007009262936188287 0.003930731695461839 0.00454816740794652 0.010240674475693675 0.005397394343062708 -0.004500276721384866 0.007261416018494977 -0.004877661816217564 -0.0027057527543958124 -0.0059151848571380745 -0.0021958206523268542 -0.004902371575194913
0.004256267246286535 0.001701515964795974 -0.007275949514340515 0.00514234976575017 0.008740367096159723 -0.003217510414510209 0.0023827244759678946 0.004380913889273615 -0.0041208083255990765 -0.0026334454831055025 7.266560001421277E-4 -0.0024366809835382635 0.009086190937137592 0.003330169440686709 -0.002986933931905236 -0.0034053798702719544 -0.00861430882640928 -4.1795229976962885E-4 -0.006393650629212433 -0.003979256685554581 2.2481227062044295E-4 0.012064824978319994 5.172715331405052E-4 0.002717796582058721 -2.843848640662944E-4 0.009473522756605205 -2.284489159477032E-4 -0.004998159808993831 4.049099822941133E-4 -0.003521794694635956 -6.239630296835368E-5 -0.0018587954593229587 -1.717599894697883E-4 0.0037164634960848877 -0.00789078963943007 0.006997998501617252 -5.7476497194114753E-5 4.4996896981113263E-4 0.006040934763174745 -3.279145421152268E-5 0.00412563829567826 0.007182184132603998 -7.035232048194248E-4 0.0022999249781589437 1.6492551384789244E-4 -0.006919629484109017 0.003303552094381407 0.0027479389031878775 0.006061216242735887 -0.00446468118531039 -2.5196559706604937E-4 0.010837757820751788 0.00510674837597668 -0.0029009556532927283 -0.006864912341204177 -0.001956635049574596 -0.006201301698570713 -0.0032623611538644772 0.0029513765557472333 -0.005313577550088978 6.326945387725938E-5 0.0025570463077340243 -0.0011055269122771788 -0.003538605366501505 0.005940885304048008 0.006227542212999587 0.006607359425723768 -0.0018282425021000585 -0.002140293146431282 4.760385100255536E-5 0.0063310602285235355 0.0015887806039849579 0.002808422572104952 -0.002013205619535485 -4.161841456081009E-4 0.008051373577188183 -0.00539415289122616 -0.005039996911637539 5.961960604503711E-4 -0.0014416687220857114 -0.001977277214989383 0.0028104870794674816 0.004040253880326266 8.936054358091927E-4 0.004847322041698038 0.0032446349509274498 0.010653597644200988 0.007413736670084958 -0.0010007345363641628 0.0010625833212876774 2.460556077519853E-4 0.008227039565062927 -0.0012106233052014902 0.001966141080738931 0.0013496243281603732 -0.0012125082384702402 6.43349689552564E-5 0.005756341628892896 0.006029884192785334 0.0033127969747692543 -0.006623736596498735 -0.0014312660857390646 -0.007775955124651196 0.004202482250984642 -0.005905651829466631 0.0031391248453735998 -1.426435972225594E-4 -0.0021042557603936332 0.003878393390733947 0.006195550279870695 -3.7105860975593504E-4 -0.007592151938218126 -0.0013008160987358858 -0.004429284993264124 7.047684816525334E-4 0.008436426148331663 -0.0050908135486439935 -0.004219808756027605 0.0028402487678545504 0.009863979056117947 -1.9487406449588803E-4 0.005410809981567879 -1.2007860250093502E-4 0.0065354010955219425 -0.007102414184345632 -0.015309691894336003 0.0012892891831557402 0.003272444384258898 0.0034540592899409274 4.209524243727823E-4 -0.002353512626592607 0.001774251638887069 0.001551046997144817 -0.0023383946376639 0.0014009511014159222 -0.0011517279743984486 7.040965936408852E-4 -0.00104478162331457 -0.0040275109264954825 4.344517252314016E-4 -0.004250301700286882 1.5382193107614923E-4 0.0067081108751961835 0.00769294006910809 0.002016520380963788 0.012262738144928361 0.004002093220703293 1.0313735827182425E-4 1.1285341645012812E-4 0.003583073229742058 -7.390280176685164E-4 0.0015202662991846425 -0.004587151476134348 0.0030037106970734256 -0.0029771302012352903 1.144447796686692E-4 -0.0018656163361564784 -0.0027067781563318207 -2.3813402867359042E-4 8.68665223178806E-4 -2.648866681599026E-4 -1.656277000350935E-5 0.001352899299558693 0.002673894400361716 -0.008214427013042458 0.005545200497880402 0.002271085286102865 -0.006310709959070174 0.008665091458332967 -0.0012851308878967496 -0.00416938895864271 0.006061745228448873 1.588788949940715E-4 -0.0020663141803716777 -0.006963710407897902 -0.001857385582621493 -0.00790070956982433 0.007286823632231841 0.007236037278396841 0.00803487543747777 0.004681721898673658 -0.00307451999878174 -0.004241793344549967 0.002054694093572522 0.001677824709174629 -0.003218957758956472 0.001143776722382508 0.006374001060920978 0.002328357810311319 -0.003140141431516279 9.299616898784698E-4 -0.007308735234825016 -0.002229189490471388 -0.006854795868637235 -0.0016374649062757814 0.0024620373741088817 0.00241360395426466 0.0034948994346251155 -0.01044505798122244 0.007698704527587077
0.0039127483906912395 0.003074903867909901 -0.009007517219469697 0.003602344930654288 0.009253391799789706 -0.004834957846169542 0.0017879524269354408 0.00418266185987978 -0.0031025091904319066 -0.0015961356636953398 0.0013389573345252675 -0.001018928968517129 0.009661807938958208 0.0032467424431893528 -0.0034671540643424143 -0.004760446677677503 -0.007472605419773653 0.0012659835764710207 -0.005368748185186739 -0.0017708990817968024 -4.870457691992191E-4 0.011113255612749172 -2.693320050056531E-4 0.003476032781970261 -0.0010738252586969463 0.010145163723675027 -0.001309722249658494 -0.004607895440127543 6.35639533125919E-5 -0.005105571582237296 2.3765129448860678E-4 -0.0012628018025828537 1.0012716249976236E-4 0.00405660281370013 -0.009533523796751067 0.006262021540987548 -1.4030154085889384E-4 0.002003577718634592 0.006332668071240456 -7.997826599742028E-4 0.0042053310316160575 0.008825894407462391 2.510308356897064E-4 0.002232137380417637 1.8674213291405622E-4 -0.006239485348908095 0.0036110851080215795 0.0010994990188794875 0.005621517234332801 -0.003668885591670542 7.906253988336214E-4 0.009555534216785738 0.0038549349439059373 -0.0022061867304146946 -0.007085628747809176 -4.29614323400393E-4 -0.005146556185777605 -0.0027248763256084137 5.50187077821157E-4 -0.0055363264409886434 0.002073429672116354 0.0014097524490751807 0.0011284512517122554 -0.003257208649485985 0.007406197214109635 0.006673175782062307 0.0068935344259516826 -0.0019518014735570698 -0.0028678694407446356 0.0027966333507199012 0.004736538495745986 0.001639369853941337 0.0016576047318155526 -0.0011792165056033208 -2.8904435539565856E-4 0.00797188417066014 -0.003258725167415931 -0.004623948368789861 5.882916914492849E-4 -7.611194620494571E-4 -0.0029960889939855194 0.00430513851215007 0.00570454181092617 -7.808103288537648E-4 0.002899316682499641 0.00291237532058741 0.010059275462783608 0.008590530355310244 -0.0015019932535979713 -0.001269874301016178 -2.830506429915908E-4 0.007645410183950277 -0.002461689524571541 0.0025596554837288743 4.4331653826802376E-4 -1.1022402645067899E-4 -0.0012532483662786268 0.005026829710783727 0.00596268089707558 0.0028025012645775675 -0.006889197608677091 -0.0018279984616258263 -0.006440890288741866 0.002358684271236313 -0.00795375513959211 0.0030409791351004643 -0.001595527893303806 -0.0016315659682819923 0.0019396908050273577 0.007309875647262502 8.497289019335195E-4 -0.007209289303343611 -0.0010595318739498652 -0.004204310021458358 0.0014002767925399755 0.008371127951691601 -0.004496550224352377 -0.00506220800793015 0.0045371376568107405 0.011209054927561883 2.575079650989486E-4 0.0043691206421235486 -3.164534321241111E-4 0.006303871249859209 -0.007427481968998069 -0.016724223572834204 0.002743857585213543 0.0023575191260872567 0.0035088816183267697 -0.0010545424774586326 -0.002363213879104846 0.003564654203480586 0.0015659228389368527 -0.002924733302052002 0.0010973805626004066 -0.0017747980719154787 1.8853166785087882E-4 -0.002968054643147428 -0.005804293786154645 -2.2594231230345737E-4 -0.0038598083221600844 -8.85676272479588E-5 0.0070682747472720076 0.00714331073796108 0.0015085106667862259 0.012993208196766928 0.0024709678534305525 3.70003622471703E-5 -9.716085943016737E-4 0.003915855895521403 -0.0016990133386214413 0.0010099949562331993 -0.002037686568134112 0.0031346876290074214 -0.0031895848020723414 0.0014838357396089847 -0.00359842413750314 -0.003299646236733221 -3.570173062816643E-4 0.0021332722710819805 -0.001089582727911184 -0.0013628038368658179 0.0032575138632052695 0.0028094261415811564 -0.008049815913922558 0.003949855079165289 0.003349101190153555 -0.002823492501769287 0.008915381755396181 -0.0022948122741929425 -0.004654319835922877 0.005859828177966216 -9.974890204484525E-4 -0.0017499174614960084 -0.007862730712726541 -8.523278958956037E-4 -0.008904019831282094 0.008980771239251735 0.0074725482371712304 0.007520068809801903 0.0027864884759468884 -0.004374430186586994 -0.00434522536532473 0.0016249705025740476 0.001219011120222679 -0.0033042227430145066 5.907900661479338E-4 0.006593543134523951 0.003566653398225212 -0.004231460995580289 4.2293508923013815E-5 -0.007410145606461407 -0.0022663172021049464 -0.005353409797284167 -0.0031849091273435603 0.0036677140841464752 0.00223872616646444 0.005708419698043138 -0.010189220896550898 0.007501588992873034
3.711488918684513E-4 7.020829397135127E-4 -0.005332446475710271 0.0033079357341167085 0.007756093920167603 -0.0025322682242156203 1.6042756997739814E-4 0.003747995014349135 -0.002487683095982128 -2.416756507001163E-4 0.003153394464278926 3.202144894248432E-4 0.009109093055631911 0.004764504560182752 -0.002346857181197234 -0.002263682173725802 -0.0042948119550880945 0.0023473698496208313 -0.004005593070294336 8.987948989327831E-4 9.133182049378732E-4 0.0067328327199918285 -0.001846283012844257 0.002094851323912505 0.0028559513436693714 0.00801958678441352 -0.0016397238967426964 -0.004478570014488313 -2.370723540720233E-4 -0.0036915626872186086 -0.0016732713261067957 3.8136630482552494E-5 -0.0023160963694488297 0.003082059404759637 -0.005103627961869081 0.004586832262454859 -0.0027673152962824302 -0.0023831725479075876 0.005577779369909381 6.860711624879148E-4 0.0038564251743920205 0.005734202527759147 0.0020849286520577158 0.004039227834763402 5.98239151420777E-4 -0.003297916348581862 8.569546764382682E-4 0.001972817629386701 0.002237900122167229 -0.0025624256617491873 -3.273304131019676E-4 0.008197197571734927 0.0029015710119992357 -0.0013995860944754973 -0.006851613247721248 0.0011226097883371814 -0.003737629596171445 -0.0024524602010092328 0.0038776934075552766 -0.004090618346100535 0.0017211758434625096 8.429634675984535E-4 -1.5504263100584863E-4 -0.0015416891136089876 0.0022362149366893977 0.004783978548508307 0.0036199009192529885 -3.112092334611503E-4 -0.002445587662839606 -0.0014798158510631542 0.002173901188087044 -2.945773970819865E-4 -0.0011557841554805587 -0.00101776486413014 -0.002299155530604244 0.003177503663100953 3.6988406799670756E-4 -8.841645619538599E-4 2.2037133247308427E-4 -0.002594805530753528 -2.168294816342551E-4 0.004162426357234947 0.0043317572345096065 -2.0702159484545268E-4 0.0014228769362873866 2.976672351081685E-4 0.006919648601724986 0.007348240160449184 -0.0025391652963631215 0.0014107058560601216 2.7392926364677673E-4 0.0018733014609154538 -9.298699264980025E-4 0.0032889873623295454 -6.0495706662793246E-5 0.0010354436285951102 -2.4781126151383274E-4 0.002787927401334621 0.0015431930295453182 0.0010187596941253797 -0.0025440762391544343 -0.0016419439351886278 -0.004702720053987846 0.004880150463587817 -0.004609730796437397 0.0027409184834507523 -0.002480977876035198 -0.0018062034017330391 0.001336172088514259 0.0047597111636187035 3.862797527911165E-4 -0.00595605999237971 0.0027332131078117404 6.020971037810357E-4 2.9093200460970656E-5 0.004704702822919931 -0.005679999268310928 -0.002145197119871063 0.0029368494428932057 0.007499510409993802 -8.977113534374441E-4 0.002257463854719333 0.0031416666122631356 0.004867654963819929 -0.0022432181777114093 -0.010243384168221419 0.0010039483200367022 0.001380794188058624 0.003312789090616083 -0.001840720846330888 -0.002048036956279845 0.002406699617512141 0.0016384125553207823 5.952497366115203E-4 0.0014280821947712519 -2.4632727792753517E-4 0.001158616628165996 -0.0020186934996402808 -0.004135700532558832 6.860003052531627E-4 -0.0036348249380380613 -0.0016495530334230072 0.0032985936433774813 0.00545163140597663 0.00328691931434215 0.00788651706402836 9.729940809824005E-4 4.5109882147151097E-4 -0.0015449452263334986 0.002050198115675076 -0.0029761823718209247 9.472644569021155E-4 -3.3137525985587406E-5 0.0037015373798330226 -2.0237133960371135E-4 4.494475173627163E-4 -6.704210384715351E-4 -0.0023275292478100477 0.00140019931154381 -5.827547886663941E-4 0.0025579770048421795 -1.3120944014227247E-5 0.0014934960390696821 0.004373916801819132 -0.005360574760767722 0.0045571755276130575 9.055879527689493E-4 3.0547055398495155E-5 0.006337334531014015 -0.0014379716577586441 -0.004991369392374059 0.0033582224530424 -8.204601525329795E-4 9.840273058386302E-4 -0.004316240344837321 -0.0017370071395112906 -0.008491997555914484 0.0077828694819085725 0.005381814822159939 0.002688149817493485 0.0052106086931271835 -5.044875870694414E-4 -0.0036226652723293676 0.0032496612476389003 0.0015555915329058259 -9.357689401308952E-4 3.171061926245161E-4 0.003938225142261564 0.0017357779326461526 -0.00243985267266921 1.3912494308967343E-4 -0.007523855312300339 -0.0031882408820153156 -0.0033395133163026847 -1.6426044897285515E-4 0.0027875963738358154 0.002809715721921417 0.006008281591662992 -0.004162347395505724 0.0039967045041435795
-0.015324662472247154 -0.00422361744221574 -0.004858608396573086 0.0079151834612774 -0.005246017197230499 8.508914270250072E-5 -0.019543082898194626 -0.00577596272814586 -0.019026006536693358 -0.011900301101262384 0.007365853842913473 0.026543898802792173 -0.011288192174746367 0.014340436188299785 -0.007611905689162926 -0.002830938144402722 -0.025211106412058766 -0.01669636687847994 -9.944541730059675E-5 4.999127742939767E-4 -0.013167587428150326 0.011410353166468623 4.305095556658701E-4 -0.02683037896966203 -0.010142557447114895 1.5359403201015438E-4 -0.012835170869093856 0.002979726029874501 0.0013097307619786744 -0.027977284367083292 0.002421143334166923 -0.006791596015858846 -0.03375746459277948 0.006585111803794743 0.005647604719718774 -0.014916031940701938 -0.025030544387649685 -0.022788679411843274 -0.01088259904137653 -0.036118706837800794 0.026545551714545677 0.0061585132987257004 -0.004400938235964128 8.576875456830462E-5 -0.0174358977132464 -0.017254122598790046 0.01170620770587535 -0.024176335938249832 -0.028802603660016125 0.00911162508446406 0.008948114835676497 -0.008805602628053301 0.030685042323826506 0.004607857371183563 -0.014330058250924477 0.02190301308687856 0.002453718795972325 -0.004265457978264935 -0.027562419697315498 -0.014463844567137039 -0.007454154109006225 0.015739323669166014 -0.010653881275885905 0.01122992113027258 0.02167210552315365 -0.012026345568174562 0.016186311762868 0.004174215887513084 0.027343339695945112 -0.002852684945443486 -0.020921580810603916 0.003474010307244681 -0.0019415350037613303 -0.029431576269731828 -0.03651172909013482 -0.030723699574729136 -0.009751604046333568 0.0073125443760244605 0.024933663527507914 0.008844199074934904 0.004442622675973657 0.010387576222214968 0.03181283076604869 -0.015848896864874996 -0.013157574017554883 0.014858058601010244 0.013416914480723522 -0.013654826232482247 -0.01327591628325109 -0.023000447750803118 -0.006858446986763982 -0.017135874648371473 0.024789271447947615 -0.029290380081229157 0.03576417872038132 -0.012405644031121363 0.014091636091722518 -0.008821288644673676 0.02600874513607926 0.009507329852796547 0.010659427541262988 -0.025093952963663152 0.009732179704865632 -0.00798315208889944 -8.09150905077175E-4 0.005787901818147616 -0.002879231765396785 -0.033107157861368815 0.009498110428839083 0.018830181619081017 0.03376634778490438 0.0015292546941006937 -0.030399798768537677 0.013297920126584357 -0.03297177181417307 0.005540143986391497 0.02225187036949574 0.012408923719010928 0.0017755386727179188 0.004572990484046757 0.003581421524350051 0.008857231543407606 -7.909020064456933E-4 -0.02270432816433723 -0.016107180971265293 0.032718671815595575 0.01105343086929128 -0.010103964830730377 0.01817547007146163 -0.03522399064044638 0.002431649676031777 -0.030811399958707887 0.01818886974696697 0.0021322276772838254 0.016477276600136773 -0.0227662574877362 -0.013574725292602566 -0.011708411611652621 -0.012799532521799446 -0.007846861928783797 -0.024878992779500456 0.0253016728195506 0.0020846548318270977 0.003356028328943639 0.004710683904198056 -0.023742771081992315 0.003662738728833971 -0.004833479696685921 -5.547868226157254E-4 0.030276987149766163 0.03774987065376123 -0.03315503129539009 -0.02590766247448915 -0.020298555603660944 -0.011890979397155815 -0.024530156208086924 -0.0010236503095556204 0.014867071581331397 0.0015131548408542608 -0.003066572505133418 -0.0030303324778057196 -0.002826321200831686 3.122844213272475E-4 -0.02251789237200111 -0.03319386768979279 0.009869242477687702 -0.004648523037820771 0.01677189734925866 0.016982359747620995 0.019187761505910707 0.014643575929519424 -0.01248026120554151 0.012877227830975042 -0.0027189382498480404 0.01413260303046306 0.006829521980442563 -0.0012861058261304052 -0.006172468236137339 0.0043337462325949705 0.0031428127081563834 0.012632320544084343 0.019254976116936457 -0.042427789597059534 -0.021181679727080415 -0.006922125863441089 -3.701832391936001E-4 0.002417455663845243 0.03458775733957212 0.008975957686490345 0.0064330673842288855 0.031167484738064414 0.002892743709638489 0.01808610730226153 0.009388399042528337 2.11407942835532E-5 0.017354806203004242 0.0015394846716987876 0.0050187364905563666 0.014021966849702205 0.012253531707391628
-0.0027363893422106744 0.004110412396994565 -0.003453123522478638 -0.0092624857707829 0.015663082854102176 0.004171334712622674 -8.135551036256917E-4 -0.015869290796090642 0.009527309570291333 -0.00483316582437778 0.008671124150661876 -0.005113447922447618 0.0025273119417125577 0.0039878634795880346 -0.00991870240342668 0.0060263309175092854 0.005812349331508836 -0.01260611109735632 -0.01827166305464304 0.013848830563706095 -0.0035729046493278745 0.017886437366118058 -0.009229252366482617 0.022539198175152993 0.00989084126052558 0.01941720555731803 -0.008071374984029864 -0.01101741149387726 -0.0024580134566289584 -0.022271306312943457 -0.004609006071148119 0.012490555758595654 0.003298528299009788 0.02493491527178622 0.009848376372012824 -0.014299050565805955 -0.01678215999132769 -0.015777328155381593 0.0073813402319037056 -0.011718947095734376 -0.003587219513412309 -0.007880204914425067 0.022201257708047532 0.0011941658902495686 0.007549023223970797 0.019124692034157578 -0.02026330650385127 0.0017938452920271525 -0.018416638625205966 0.017700375258099442 0.001976860106108091 -0.00569879324329485 0.004905924545585438 -0.007285154469971982 0.001573561778587698 -3.0138289901254875E-4 -0.005812388517153224 -0.022623776515568808 0.011611458471376616 -0.01578385693513743 -0.00484171348436359 -3.8396930195411904E-5 -0.00358554411393728 0.007479735164023852 -0.002863212587674555 3.8453202323023727E-4 4.0362304324414517E-4 0.008525246521423852 -0.002053527010852177 -0.0034074475248469975 -3.694161704405974E-4 -0.015872970898926576 -0.0027091160967217167 0.015903951214460286 0.002677191905874335 -0.01688688244441434 -0.002293592172421827 -0.015305922092372292 -8.72586250861809E-4 0.0036643643813246197 -0.00492007042888031 0.008086345984745147 0.010289801900003693 0.003124471394346888 0.002775232501218774 -0.013642732972188772 -0.018556425848082453 0.002996754687085794 -0.013020821816928903 -0.004352659474645446 0.015609246713467488 -0.018676676003736504 0.006236509910605588 0.003220916652236294 -0.02203163403306246 3.683203067358345E-4 0.005910498473444775 -0.0025162936464148936 3.11769854051871E-5 -0.004033016290476586 -0.005172583473120087 -0.005770212828335775 0.009530022207226967 0.014841615748128423 0.025738312119820965 0.0039436374251864545 0.0028638982328058945 -0.012975643345567316 0.00391311185177429 -9.641685791182286E-4 0.004762344117835825 0.0054890177368296595 -0.0023375442957011576 0.010153617483856124 -0.007160375139584967 -0.019542815426990608 -0.018088920408919094 0.008742881023996599 0.01360139459579573 -0.0034034338858862866 -0.005817969480206407 -0.003728168691506122 0.006543339879948666 -0.018394752349267962 -0.006301720075517466 8.26848639087447E-4 -0.00703545921416148 0.007664081206050204 -0.009449166708437382 -8.377153643223094E-4 -0.005222311440108786 -0.008682047504892997 0.0018002624332086265 -0.015348972105277168 -0.01679364781095613 0.034255839303811694 0.004337755165426959 -0.0066758865335555815 -0.008392028099803996 -0.009650694522397512 -0.005267853608669247 -0.015421137244912609 0.008427010395153067 -0.010318653182790034 -0.017845325590321058 0.018854571895516266 -0.00242139340870307 0.01765739990385049 -0.007445207850999323 7.089781173957902E-5 -0.004002427925693863 0.019967666096439175 -0.0017773562828141307 -0.0012412012665719604 0.02610555512180017 0.012766887814390643 -0.0025921874924867533 -0.0062388518399026 -0.0011883271961932156 0.008293016991496378 0.014717994657059915 -0.011136774815534075 -0.03130307043808481 0.008457979848804647 -0.008897274419466025 -0.006174138003524785 -0.0011869855461660837 0.0032655140871269443 0.003676769256639883 0.02075403248295035 0.0073621287884821545 -0.005074318451091437 -0.004866422142023799 -0.004257270414995358 -0.004484317312959196 0.001969112892045937 -0.023445195762609738 -0.003925730819285787 0.011826605879460907 0.005374243469189436 0.012041535116235607 0.020997460841277016 -0.001389919324205476 -0.014534340664027522 0.00799067678102568 0.008810624265081618 -1.5544361341834317E-4 -0.014829888691701803 -0.008821259568979226 -0.0017832368671542916 -0.013980527222477107 -0.01170459276850131 -0.010091318986890491 0.0077531122983615 0.009013131555973782 -0.004207347243637384 -0.0027585330672326392 0.021545420863444707 -5.4933440170312706E-5 0.014767126490378403
