0.005677997843712743 0.016906601592080656 -0.012751482071280044 -0.008514045864557866 -0.005029885204922855 0.0038948309464815582 0.006953011264032464 -0.009451135760299389 -0.014219502848485216 -0.03310408174470178 0.0013447922542832481 -0.007546208933643257 -0.016047346009876978 0.0026952470453264405 0.005098059271343427 0.0018086927778680228 -0.012623236463540147 -0.00298710249817754 -0.022168344397126734 0.0067002608814525876 -0.0024392911469952095 -0.01752242601033697 -0.018419370687846392 0.01589312107803611 0.001933887644068781 -0.01616693538418275 0.019472137291169807 0.003263076488286309 0.014947570365243038 -9.477467482255822E-6 -0.002258073614670707 0.03414305539359272 -0.006191193429525932 -0.01092235524228146 0.02768691406210928 0.007053065423242933 -0.011581290134140968 -0.011964831167764497 0.025974611760815888 -9.225161789514491E-4 -0.006247867582943392 -0.01133856784059818 0.006140082374996833 -0.012439353052890319 -0.010037050193351736 0.0040859132289609475 -0.019642283935994344 -0.0017393933895910375 -0.0054105567411751295 -0.03220966739523456 0.015552689121041336 -0.010529143540002138 0.007989406851303353 0.015686451845644912 -0.025474757020512984 -0.008940374509528469 -0.027850614306491116 -0.012629271609941916 -0.022561748015429834 -0.009696620053736183 0.0012799495634682786 -0.004673923056020626 5.062778182839755E-4 -0.012618882325817786 0.007887427635284515 0.008010936212914708 0.01751800605188011 -0.005020266271109406 -0.01004925269039304 0.014094738079437754 0.00982438975689195 0.026802875096290642 -0.0263127281215805 0.03254160863300934 -0.013393844946546827 0.016526968715000586 0.008828779775299217 0.005680956039192551 -0.02791316178979079 0.007775055200080631 -0.0010857402451139278 -0.00604300971939491 0.011628537796874802 -0.0055901402268257105 -0.005193503930825022 -0.006186146950571569 0.007340079688261917 0.008440968015100293 0.020878294946504512 0.022835544048950145 -0.006683374677286965 0.008038614720282354 -0.015123102008523619 -0.022953770834548904 -0.005534662296514744 0.01285447520913137 -0.001500784638840097 0.019965359355540033 0.04023466592239964 0.012587981020884138 -0.011571449498862588 0.015588856776340695 -0.0064023317621434706 0.023595916180744164 -0.016674026185664482 0.00118081783359862 -0.03003043526768764 -0.001688892315413517 -0.007343276182262361 -0.005893473838366218 -0.018760321098019596 -1.1126979721588084E-4 -0.012095067706206166 -7.987108987500579E-4 -0.0034045127004579388 -0.010059421657249197 0.013907673562707541 0.004815585398992763 -0.018835607958120993 7.764966138720799E-4 0.022392738304777036 0.0027463813421966976 0.01853132090995731 -0.0256682883853754 -0.014254486898159039 8.684841017240545E-5 0.019245113120919623 0.021383051931680087 -0.001187952045006288 -0.01609199499545405 6.217175467541081E-5 5.741039094740544E-4 0.013740724140493078 0.009265536728802343 0.011497538265931244 -0.013884513917706799 -0.010966641369234637 4.399191579807762E-4 -0.03278037901260944 -0.019720499712317395 -7.831689915785539E-4 -0.01678970746696591 -0.03342602876400653 -0.007320184167182933 0.011783258951328942 0.0025802799847084133 0.011204125792863376 -0.01105646660456315 0.004579306186936088 -0.035652156883024984 -0.010314066880677524 0.007447315021404986 0.005981921775255768 0.007786659269097002 -0.009308918571528442 -0.03801538671582034 0.0036310297515556172 -0.005234790457074802 0.009903314726828368 -0.010352690248956013 -0.039007817349178374 -0.004838836491698386 -0.017369157581443875 -0.029838755266108127 0.012880227215089812 -6.337319667699715E-4 0.01034641707194955 -0.010402131377550824 0.019430176118760318 0.00931408506706886 -0.007430409440786998 0.002959771905330477 -0.031002645092142005 0.006552860329447011 -0.0020084748208865186 -0.01694480288071456 -0.009194032345907056 -0.004499662983479317 -0.007454919407863596 0.0025950878726864112 -0.012269704651490469 -0.005818752101896908 0.015059651103153708 -0.013184064640769304 -0.016960071886757844 -0.00931644683113025 0.0027169519123358267 4.809143966852573E-4 -0.029156072132332 -0.00356546418387791 -0.004596170313245899 -0.008850342083092252 0.02955011766153372 0.03380485693879328 -0.005812910551551689 0.013547196816793249 -0.021918809314307158 -0.007439214041951224 0.006172385164865351 -0.02292365521882745
-8.166250246081498E-4 -0.012643535664129048 -0.003523551899367252 0.007091273846926744 0.0011701192633953566 0.00440942504309903 -0.006160827037811857 -0.006047217078302488 0.0020924111258352777 0.0053341701551915975 0.004203706057438698 -0.00866686300841147 0.006951546916665185 0.013398603849515597 -0.011274096648684742 -3.703365745292425E-4 -0.004354952643899956 -0.00852716701339958 0.01099454222564051 4.192169368457251E-5 0.003517101538605637 0.01687485337633995 0.0051775682076874155 -0.0038621919202210366 -0.00978597639170077 4.7611458844937964E-4 0.008389266673387703 0.0019458521836520205 -0.007793758234551987 3.8553161013922993E-4 -0.01260059489923366 -0.002317035213938685 -0.004320660397956662 -0.010627802018240252 0.002359088699721123 -0.005066024850249623 -0.0030522549358943047 -0.0030455522500056095 0.0029644234639790326 -4.528800879822225E-4 -0.0019152023136986948 -0.0033829890637395894 0.005743938393025007 0.01790283190515328 -0.009305172431001702 -0.013617835444720987 9.32847648794978E-4 0.005705907644758288 0.0013007577008708783 -0.0011344809665455578 -0.009879226416155627 -0.008783534969743165 -8.732687278746182E-4 0.006501710273311789 0.0016712303483796733 0.003005602223237612 -0.01026138473393702 -0.012809897971126024 0.0015887471444802972 -0.006992471564744433 -0.01077664681695729 0.008302975276614848 -3.6850565785299775E-4 0.003202585028899489 -0.0027959631727898704 0.005479346562301435 0.0032013095707364506 -0.007096637950200589 0.0013387763671097192 0.005079984134340265 -0.012438932720074087 -0.005872411351774166 -0.004931569446741845 0.013725204114340648 0.006231805076246693 3.311139030867735E-4 -0.00424925702364618 -0.009376622954893629 -0.008879166763067475 0.0010627191187803841 0.0012508386244955787 -0.0010320207967399254 -0.0023134065252550504 -0.0033640666990601806 0.007762033597193915 -0.0010005037542004257 -0.006455206601275664 0.005574730929439765 0.018062334381858912 0.0020606336165115867 -0.010695997761252851 -0.001553953018366081 1.528421182455105E-4 0.007451933176179313 0.010564311464638007 0.014580763735743999 -0.0057400415566686 -0.0011906214497188533 0.0017193890771555315 -0.008927238580519765 0.007754163339903175 0.004842918257990892 0.0019474938007600128 -0.007840819351465517 -0.004141763007829963 -0.0034993607314585755 -0.004283888605555544 -7.036306109389998E-4 0.006532201255070427 -0.0052554790512238814 0.006724463381891658 -0.001992211274656069 -9.933493476818841E-5 0.00582053738914893 -8.356637788127365E-5 0.007452805689839815 0.002873346082236066 -0.011712561909558085 -0.0023874364741996923 0.008201970112980345 0.0028295129975983856 -0.005042832867186153 -0.0023808418894046683 -0.00884940137107394 0.0067608499130308725 0.003114074922326336 -0.002116106866369419 0.0034022392681866635 0.01612156266556631 0.003808728166355726 -0.0019810770684655053 0.01261459827932991 -0.005230306944774996 0.001675543630583006 -0.004027647102035513 -0.0032236554852679176 0.0038833039279868526 -0.00576606214307522 0.009511180949277633 0.006683543919789299 0.0010780218214015878 -1.535177815054711E-4 0.009978466878794598 -0.002185794364869108 -0.007919161233702768 -0.006940637977145198 -0.0039057327221468036 0.006421121661455747 7.608118486435925E-4 0.01246145135562115 -0.003133531086244522 -0.007017852061549214 -0.0021765725659127024 -0.004467604830622395 0.0026114187062715013 0.002416418293457029 0.0028498285963599016 -0.005401634325272559 0.006349495778566422 4.63615144099464E-4 -0.0049871061377936635 0.0038460860177489476 -0.0038241433624062776 -0.01014232100710336 0.0024504338303130042 -0.007191112666930549 -0.004448437335495261 8.780182832169547E-4 8.446456891338519E-4 -0.0025755533876459197 -0.006375705014511969 -0.0013467778422757981 -0.003676203695888537 0.001896572532868108 0.005974972173697163 -0.007941277135255874 0.0013635040264280542 -0.009091928691678287 -5.591466484756984E-4 -0.0038588804035186745 0.005261898823666925 -0.010791934629369535 -3.9194327659930884E-4 -0.01018419867149085 0.008130949974012805 -0.00981016446643836 0.016073451695451157 0.0035365570976863565 -0.004754243252417019 -0.007964162177064476 -0.009191511883841355 0.013593636107644193 -0.0096346191896245 0.007173023627264891 0.008026731941104094 -0.011954740583514683 0.007539808608143562 -0.009379533057208699 -1.2808275991674823E-5 -3.970168143740782E-4
-0.007879902050853945 -0.014233568115717639 0.005675683925846487 -0.0252803484335315 -0.012765780268494654 -0.011525896079418068 -0.013132980434386526 -0.007821087287073194 0.003169986498201977 -0.008897696370627624 0.0012846116192405685 -0.003644746215070224 -0.0034418058338393635 0.00743988323826101 0.020107823840988095 0.0275274596297627 -0.011996902323816267 0.00922833978445338 -0.027649776065976316 -0.022956937195958465 0.008079540025412535 -0.007807953687547517 -0.01895338376567691 4.870287656588218E-4 0.00278256741004948 0.0042020374483541295 -6.353926819445686E-4 -8.897155315639578E-4 -0.007432570606021912 -0.003961522113371764 0.020591072087911704 0.015901371620970894 0.002133062733364323 -0.004286008990806432 -0.01034984190946152 0.025880655783559275 0.009050358797731414 -0.004968802801225311 -0.02078211562807861 -7.252807222102023E-5 0.00594224726043745 -0.015933404208933404 -0.0025440587189171043 0.02484029282332681 -0.005765458508631287 -4.7793383372036374E-4 -0.004449633157753477 -1.7269058416597518E-5 -0.004171941703373919 -0.007960693362956572 -0.0016254392234734967 0.004913858180512187 0.008758157474779057 -0.003960110618289999 -0.02948631223732242 -0.01585976268250284 -0.015365230793626141 -0.0061868376348034335 -0.0038740057296059453 0.010388163183489391 0.0066737679549148015 0.006800403017774085 0.005854573724207927 -7.131103720228877E-5 -0.003200418775839249 -0.0067335041719950185 0.00636413785956499 -0.009354321029279945 -0.01220777980680439 -2.964728818177347E-4 0.018795038708712863 0.030903442753231015 -0.006396058670443601 0.0165339140146555 -0.005714980871253985 0.010855753568426059 9.85515227753675E-4 -0.012241188611166546 -0.012002908774494867 0.007236424562976953 0.006500130850512769 0.015059186576359247 0.006596116670956336 0.004207844565055215 -0.02552503655025518 0.011000266026151876 -0.001351937799944339 -0.007144935608352987 0.01631618227143204 -0.003831043261992628 -0.012218747812973094 -0.009837099328824404 -0.015617234437263249 -0.013924446742927898 0.015283090862677795 0.008272958644262696 0.012118921711194866 -0.014888708667066342 0.012939319403453036 -0.003521111886407844 -0.010443817403850274 0.011024342436446769 -0.027244125929087964 -0.0064543460294029745 -0.0200433754297189 0.013889065685849931 0.0015957495272634105 0.010323549643610404 -0.023981236572373107 -0.025062061843889146 -7.043724659160991E-5 -0.008770023812082802 0.005476009348286116 -0.022552415511698856 -1.6825107209122441E-4 0.003582730427013835 -0.017313475144211884 0.007830749870854196 -0.0012724008949268721 -0.008296922336109132 -0.01238602242533229 0.0070883485989158635 0.006675232708928118 -0.004907174166384746 0.007657496636142434 0.0157813888798907 0.01407075706176158 0.01878041155498206 0.00953686953743469 -0.0021705793549478248 0.00800573751987085 0.005707703862244341 0.019822103121464298 0.018896122219225875 -0.0011034731856709027 -0.027836773348386665 0.0023718942161170117 0.01491459703948613 -0.021879518366890293 -0.01247627401625159 5.793423211647289E-4 0.00805196321709059 -1.855355322107913E-4 -0.01505042791021035 -0.01234126290990558 0.0043758091575816175 0.003039204475867736 0.010580974202066176 0.0017375174156835458 0.012027996114230815 -0.005137896339024346 -0.013022478284653775 0.006280339727343282 -0.007796720023600103 -0.008993666743896976 -0.002111155971435242 0.0039694457598124806 -0.017117038038304732 -0.012348216783251466 -0.014388056777735247 -0.005605345504869306 -9.323108860995941E-4 -0.024444783070593168 -0.004733700990216371 0.0019151365433777783 -0.010836677750569903 -0.01173626895843557 -0.0019996208039865277 0.004000178112841862 -0.004829665479688616 -0.022508274426826805 0.013620333754516604 0.003590630794169319 -0.013139349453357952 6.282356895416053E-4 0.0014970403922143125 0.003645424775338875 -0.0089582385662081 -8.472289441698674E-5 -0.020892236240230642 0.003228357537385076 -0.0037772477291788554 0.0018030777462237832 0.0021173966530025168 0.005706057230813514 0.014979685255131416 -6.178140630904857E-4 0.00540890677665157 -0.003934944442352424 0.005735458312641916 -0.030572391096148434 -0.006570324690467688 0.018094929760652398 -0.006784181254373181 0.005254727433677777 -0.004766769952964723 0.002226629167358837 -0.015350299746306138 0.013155301553752542 -0.014466553801814568
0.015189872759184216 0.0062266190456478085 -0.001702549688240379 -0.006477745662816536 0.0223885141634829 0.012471578142346021 0.0037749535402191877 -0.024083328392801823 0.029582725742757165 -0.005075061570843712 0.00992629476479548 -0.002426343116745215 0.00911543550505026 0.009865245527161103 -0.021360153289189224 0.0015969350832462127 0.014207491099819256 -0.014177527500438953 -0.028846691841659708 0.013351451511536128 -0.008343886932067265 0.02823506851573168 -0.011649885326575425 0.01988625346892615 0.011853675560043783 0.02112321002460776 -0.0032900867088451274 -0.012635385863892026 -0.007444819776414993 -0.0244419176194032 -0.002070361507577068 0.016779800281539033 0.008901596698629756 0.04036359118904276 0.017779598377344157 -0.021160937633870103 -0.02207528099435959 -0.010299610512653185 0.010451365665753653 -0.020976957021203717 -0.008747224400110205 0.006952134260656034 0.02722150514795021 0.004045556167389875 0.0089919005461224 0.01737610029174919 -0.010771399324994286 -0.007811418431238992 -0.01648678400574354 0.018292626901603864 0.009582470788472746 -0.009565268066455348 0.0014874725182812685 -0.012603611693755006 0.004412771745569483 -4.1417439940439635E-5 3.749496938717322E-4 -0.03933982217546516 0.004071268624666582 -0.01220053688159612 -0.014148756025031097 -0.0066377723867424125 -0.0016563975489886067 -3.225210679499437E-4 -0.0022939043799946658 0.004063283637297924 0.012932577335496699 -9.544956308124692E-4 -0.005554793461871698 -0.0030531401596108638 0.0012462063207461418 -0.020482020974863117 0.005274172639997222 0.022520916907926944 0.006557296456915882 -0.024660311796977787 -0.01402439025655268 -0.022830159895279763 -3.399647518960446E-4 0.0014177265860814826 -0.0066549311984235955 0.006064085986053183 0.010671183983014077 0.0023651570044483554 0.009567331636000587 -0.012040235233816834 -0.016673611719116393 0.006906760751165279 -0.009027374932468944 -0.02062762184317634 0.00841331750245349 -0.026160004555183865 0.010502258690691288 0.0019760692326949085 -0.03032293676007616 -0.0010195166122705214 0.006845796996168319 0.010799610169919439 0.00571579422873343 -0.006564310538828237 -0.020752126975216827 -0.013204450934268808 0.006916091570240088 0.017870287144615554 0.02671231194193159 -0.007670903442059681 -9.95764160389178E-4 -0.012151232123822417 0.0050361752245547745 -0.0025879372156927534 0.017082281574869688 -0.002818120380663988 -0.008659920472115555 -8.271381212840997E-4 -0.004642671080536313 -0.02112223670599435 -0.023090413466963625 0.014572428783673824 0.019426159817813236 -0.009386024724660984 -0.007625531876894648 6.347453540437679E-4 0.005589696497886254 -0.005626317904369227 -0.012107991276067166 0.0059254098025546525 -0.013166039353036783 0.006112584171916631 -0.016171808163165723 -0.005765474265097573 4.055562690451682E-4 -0.009364898865834807 -0.0054702742476050855 -0.025270477972901224 -0.01649046206688428 0.05370681021663432 0.018112423810844522 -0.01487222732049029 -0.0063231023555945925 -0.021355023316495553 -0.00436130233004321 -0.016831077106393966 0.019100573936655593 -0.018333412291692688 -0.022855891789384387 0.03160422656285652 0.001265816755226259 0.02609530805626604 -0.018390213051116516 0.009526248629135656 0.0017764037577775388 0.040045483596074384 -0.006385246070579884 -0.013880023816502282 0.02879289163595731 0.014395982906233165 -0.006904479520187677 -0.008957559310655838 5.821198956737948E-5 0.01008181175530978 0.018212041278167328 -0.020731553403401732 -0.047909429801124344 0.015453686153802704 -0.009734300716026533 -0.004227050248731329 0.005866787470780872 0.007281439837066503 0.00640820167522524 0.04150176509479691 0.00652093790538659 -0.01376968108699836 -0.005719923800071234 -0.011311549862349154 -0.014079137547604556 0.01279627715566969 -0.019123386285538075 -0.0036951700309550005 0.017490289669873833 0.003903444431397469 0.00655112725256808 0.02787293219064574 0.010647544090841945 -0.03459705341092748 0.013428221856516433 0.011462494208472965 -0.0029232693984727505 -0.016436629131440488 -0.01644449926464877 2.1249123895563697E-4 -0.01792660570257303 -0.0041863484824161 -0.01261598407042713 0.011574975582589589 0.011847293714945376 -0.00299729920762069 -0.012373565860080626 0.020390584320939 -0.015630553716525473 0.02296308270783174
0.003121415790399277 -0.019896708156007723 -0.009984586936832686 -0.00782037380827357 0.010626847361199277 0.004922387715319798 -0.01020422806531769 -0.009010435339457959 0.022763695974497542 -0.009049132577897974 0.008652255055903257 -0.015576714027707904 0.007893916116002096 0.009238038097881023 0.00705908276913888 0.007431572867052758 0.01391761939256355 -0.022582122789138466 -0.020952864672110796 7.500430015908621E-4 -0.0028491986455687762 -9.388501078678102E-4 -0.0055607497163482605 0.03399316211191165 0.008681090374463496 0.013490662113574418 0.0012320632206454473 -0.018891759453343017 0.006706766627860267 -0.020803421176175743 0.008363903999343732 0.02000918007887704 0.0030926029249781863 0.03148263822227826 -0.0033415187520736086 -5.690667424193477E-4 0.001350692442081082 -0.020309320847358127 0.0029169227920374245 -0.002592863899135991 0.004146487516045233 -0.005606793456997717 0.021468233881365352 4.786545625724927E-5 0.0038820831387002892 -0.0039365888686286755 0.010193577996313204 2.9311961317200644E-4 0.023698999909720842 0.008927649488347325 0.009503968186621675 -0.03029331064448267 -0.007999117508765464 -0.006470663745441298 0.0031334010529691257 0.0038936985235611715 5.8023962387593374E-5 -0.02054927185133932 0.01670707692959115 -0.04284044530992151 -0.007396972169784918 -0.008520320026229022 -0.02110496410667126 0.005505696619439425 -0.005698558853754477 0.010897057351057884 -0.0023777805946448697 0.005844053725510657 0.00944211756351824 -0.006941812654418128 -0.008548871840255854 0.007697340769103046 -0.002581524315454452 0.015793979192136282 0.004320254685670348 -0.00498766584269118 -0.029571996441990885 -0.010635573979155493 -0.012912092220786561 -4.777675298156573E-4 -0.0033729479033656772 -0.00826029483378459 0.015834741679984915 0.012876227257364594 0.022004654594681913 -0.014621082953624796 -0.009254591078587079 0.01661171483221783 -0.02258157762586211 -0.006241710121816023 0.023905896411392485 -0.020652941795429685 0.024652640515007023 -0.017292428702236864 -0.00908850381902069 0.0037000522602832204 0.024817450352192932 -0.0044895707415902476 -0.018554823116084345 -0.014408953815061494 -0.02672623538022385 8.362006823498822E-4 0.016925775699483003 0.003161142193796791 0.017933086129118134 0.008406809286501126 0.019759832399987205 -0.01517705244363754 0.004987074713573086 0.002622112605181373 3.0543934706634156E-4 0.01727971309019201 -0.0019766086696852247 0.01282759429091721 -0.0015882803699939802 -0.021805237344519553 -0.012023545855583514 -0.0016684790599818006 0.013684479604677675 0.00784353235417627 9.508456762705296E-4 -0.006690944724968245 -0.0035861708627984443 -0.022658137110779335 0.01627798006932324 0.005172667114436673 -0.002021197004770629 0.00151746931107263 -0.0178787055208582 0.004168176741064481 -0.002852926814778643 -0.013879428899160308 0.004170460811147092 -0.01546896655467414 -0.028297761420489703 0.014213089381319367 6.367231623205355E-4 -0.0027513307398209035 0.005274800124819954 0.0034645020352749496 -0.004828186170927686 -0.03203542140823016 0.003741850282176799 -0.013175698702738459 -0.016203415748618544 0.010689861047553506 -0.0071619460849952936 -0.009565117993993125 -0.014752468815570007 0.009037427664668654 -0.0038143383958855527 0.019661502424894534 -0.0047310330206918995 -0.016599342565537745 0.003705455962983558 -0.006767071814047714 -0.0057550236786449716 0.003297982478260548 -8.131346067067928E-4 0.003036385412435745 0.0031508017664608054 -0.01565248430829389 -0.016609945256816746 0.011837077274014937 -0.01826491502562831 -0.010673067050540155 0.0010858801721515647 -0.03729586676075677 0.013157748421169806 0.0024765755594769023 0.005393846426590063 -0.0020423377960987897 0.0028750134439367247 -0.007885063055723784 -0.00795914129751554 0.007914478764479125 -0.012692919196623518 -0.007522301114905264 0.025519015488103824 0.004543127543307793 0.003134798694374549 0.012171533438686 -0.007474037520287765 -0.009827360791356411 -0.019954863436623897 0.016536276329932292 0.0038003540396150813 0.013310273823622487 -0.008821131460565856 0.0068853326578809495 -0.009103886542506752 -0.016927480101090405 -0.009454920993690262 2.577015140218104E-4 -0.011085853799131651 -0.010303098823691828 -0.0068205602694560155 0.01765839186725695 -0.005034957551349329 0.0028590796742887295
0.005688706243693765 0.01699336712409798 -0.01278212074860578 -0.008527941696203653 -0.005001106775716133 0.003909956496736828 0.0069934464642542465 -0.009483218755999947 -0.014231105366609341 -0.033177209098233386 0.0013126617533611065 -0.00752360803459315 -0.016070450084377564 0.0026443385444279957 0.0051013068449583115 0.0018201406264615695 -0.012672358722155247 -0.0029416052693173704 -0.022154849063312203 0.006700615284504491 -0.002476462670022676 -0.017584036880480335 -0.018478592431796722 0.015925100117336874 0.0019731807689998236 -0.01617059606352656 0.019517774268052922 0.003240661254056602 0.014965870665558007 -4.553196509987673E-5 -0.0022680336749298716 0.03423817450636712 -0.00620767177771761 -0.0109466248680861 0.02775280382035079 0.0070777388323460125 -0.01158697136823807 -0.012014823615647707 0.025971919324893167 -8.967399706893342E-4 -0.006255913718910396 -0.011308654908085414 0.006113327824648382 -0.012463042145644707 -0.010023318847804058 0.004126114306848674 -0.019647309334880878 -0.0017515245782986247 -0.005473055171683221 -0.03225723469093358 0.015538300710952946 -0.010529079065438178 0.008032445624513556 0.015689043443715016 -0.025493181254839042 -0.008945687759692221 -0.02791960870778153 -0.012665882617519013 -0.02260802259050791 -0.009693994242010501 0.0012904653476874736 -0.004658501129285084 5.275058931051347E-4 -0.01268896716731209 0.00792067267586276 0.008049689195412005 0.017535424200345377 -0.00504959899084745 -0.010073109004455115 0.014154707085947954 0.009834101695250686 0.02689832749065243 -0.026381378991912802 0.032569199023839715 -0.013351263354203445 0.01656337058083006 0.008828388564501664 0.005695267121938207 -0.027996688626008837 0.007808791902424498 -0.001074579506135556 -0.006034116856628263 0.011612784905060016 -0.005580372036163896 -0.005190075343292909 -0.00622846979296912 0.0073413248552905794 0.008413669020083801 0.02093235647222795 0.022856875611498212 -0.006692468999422581 0.008050304725429532 -0.015145158251708339 -0.02302617483106387 -0.005534942974444634 0.012884359602657776 -0.001564613486543405 0.02000089636708346 0.040260286149446156 0.01256940405935182 -0.011574268955235053 0.015611277021214742 -0.006412523555651171 0.023633221017901503 -0.016713808054970594 0.0012640498836322634 -0.030055065271449227 -0.0017072233544386487 -0.007375586030485896 -0.005878793619182385 -0.01880255986389814 -1.2348596650532347E-4 -0.012112393714883178 -8.620443784201875E-4 -0.003402978066102393 -0.010106426526268291 0.013915212486098156 0.0048118248403480664 -0.018908525315616126 7.725120950964268E-4 0.022414889215528117 0.0027230641092087105 0.01854107169203762 -0.02574607733985188 -0.014271392710986852 9.855565784693373E-5 0.019289441868604835 0.021435501334573042 -0.0011708714939935548 -0.016152417980666522 4.87886201604783E-5 5.743150768264397E-4 0.013761582119660833 0.009272798396101088 0.011525459788850608 -0.013898647015517527 -0.010985382639063518 4.378620926814576E-4 -0.03281167040856985 -0.019689712969048267 -7.74151515150792E-4 -0.016813905945083456 -0.03349323717466636 -0.007329219762980586 0.011818762523105918 0.002534214627727485 0.011212322397804888 -0.011036691133226766 0.00456239524912834 -0.03569968283536231 -0.010349863699833138 0.007473929674059845 0.006004403806649364 0.007788367216577083 -0.009322239214744055 -0.03809821501999882 0.0036215351864592503 -0.005226620013213858 0.00988872235302121 -0.010371709639040284 -0.03911931270255633 -0.004871169799532238 -0.017386037275959543 -0.029919650407559704 0.012865582449502639 -6.350669764833868E-4 0.010384810417105485 -0.010415235778687415 0.01946775110829943 0.009301746544077543 -0.007422959454262333 0.0030236667511635545 -0.031060925086890245 0.006533734260722966 -0.0020345111729704003 -0.016950633222220898 -0.009237265464326511 -0.004506174827963324 -0.007451259603234446 0.002574582620686999 -0.012296234626997027 -0.00584077671937383 0.0150779343597151 -0.013202862965492465 -0.016996749664236675 -0.009398287936813248 0.0027204835046186595 5.49492099986025E-4 -0.029253708448361806 -0.0035745851956461615 -0.004574554226748413 -0.008853075737587139 0.029604160869648705 0.03382357984416826 -0.005837201135890671 0.01359952773707191 -0.021957002164576595 -0.0074661968070180475 0.0061660027072485725 -0.022928337816951666
-0.014727269490360042 -0.0018275873627551112 -0.005916913832509346 0.006278907643870734 -0.003863469041468239 -9.713009529685498E-4 -0.017604701166154164 -0.0047227741350191 -0.01815715716275724 -0.010776649730653171 0.005779067030865337 0.023312918151708148 -0.009208572665153899 0.013512135633192366 -0.006637333150604255 -9.434162667478803E-4 -0.022608170157649925 -0.013001483903721476 4.118989632364624E-4 2.783815584162045E-4 -0.01166811796080322 0.008378483822020751 -5.763470918704092E-4 -0.022960474220834734 -0.009210092764720797 3.2834735462493125E-4 -0.013891445150518458 0.003329927129392568 0.0019017805303822325 -0.022852559173062646 5.668379498267871E-4 -0.007051185268686821 -0.03304328604419817 0.006586202888202044 0.004643674772543473 -0.015051345220916395 -0.022419243242424662 -0.020302402945143697 -0.011282610307291942 -0.03175386072428115 0.024291886285629807 0.005279946661226392 -0.003814422012877024 -6.429105776204848E-4 -0.014777396626293368 -0.014119291004304096 0.009089286097626449 -0.020907864683404737 -0.025567757163047416 0.005136220629926492 0.0050736923219980665 -0.008551055686437459 0.026397398826102557 0.003456335492194987 -0.012511018354677782 0.018753522823319508 0.001522543581035672 -0.0019324010860950294 -0.023580554002297017 -0.013323465268957103 -0.0079009390031219 0.01340467356549676 -0.008034693060937329 0.010357946454873115 0.019423877225369278 -0.012345847447746828 0.013484983900800688 0.002976057487401119 0.02420616601982827 -0.0018554952158442287 -0.019635655114507485 0.0026733280248502924 -0.002761195941954017 -0.024087720557011222 -0.03419998413965277 -0.026447817941709372 -0.008248498621119022 0.005883690333917976 0.021208631628890775 0.0078714389926039 0.0049679150392423896 0.010229234869743992 0.027007839472000066 -0.015020997412257044 -0.012988787333722112 0.01330388052765284 0.011908694586958937 -0.013656866987929896 -0.013784819577839487 -0.019565178687393735 -0.0035441176890376115 -0.01380866634406749 0.021957599780077802 -0.025526264377626055 0.031293205954913854 -0.010194193404185979 0.013900006401060146 -0.008072507649523927 0.02090858583946444 0.008338722228797469 0.009981744046410355 -0.022345343820198746 0.008306828254775979 -0.005954368159587108 5.236841349678465E-4 0.0053884594935322125 -0.003496136668993619 -0.02964787113389364 0.009987765136992583 0.017216233664469477 0.02804969036414649 0.0024842069392646627 -0.026119383913872977 0.013528394701663535 -0.029178087792871777 0.004699610892367711 0.018466355762756903 0.011495487461471075 4.185109779386062E-4 0.00242883072512172 0.003448116141399823 0.007661505225045485 -3.6342830924660294E-4 -0.021644134278310804 -0.013612555386757846 0.029398907828549228 0.011131699078136171 -0.00831553801553262 0.013610919230393216 -0.030271799431730556 0.0038395062311530905 -0.02691431391008935 0.015502469300353162 0.001956219113042783 0.014011871907690512 -0.01935153363234476 -0.011445455186894493 -0.010130045429236024 -0.011430944921524064 -0.007366811566789513 -0.021816668231434917 0.02108066285616231 -0.001296382737640433 0.003259117728627341 0.004373798830088449 -0.020468064780681434 0.004516394615619139 -0.003485278429069706 -4.074830780344132E-4 0.023788154888616353 0.03182412397623077 -0.028498889409350674 -0.022740126337116515 -0.01921362423782451 -0.010081117538139088 -0.01927752791704841 -0.0026333485461188994 0.013112129188177018 0.0014717742219996863 -0.004116235403810808 -0.0014413374919065665 -0.00418025802772408 -4.799845946631533E-4 -0.018602895278025517 -0.030287862265010432 0.007548298517180312 -0.0046645918415041685 0.015212346404951654 0.014553087147454357 0.013768737717466945 0.013254509570442607 -0.012071755379783578 0.011822108853619255 5.623273903334148E-4 0.01156110007231963 0.004689081817602574 -7.120542665175161E-4 -0.005366627633547358 0.0019107136253242838 0.0019746542616127303 0.01206802834104029 0.017448403573141532 -0.039055251992187894 -0.019323615135545695 -0.008197061638542233 0.0012891451136709878 0.0012819606567779879 0.029210384213272746 0.007216276478493256 0.0051031918807735235 0.025898147702745046 0.0017993197598680614 0.018676638741155008 0.008071581407587075 -5.443111660223569E-4 0.014148533987429776 0.0021996153330647713 0.005555969989667682 0.01412910811806659 0.010881853971164566
0.005620075625915335 -0.015056508242054683 0.007287647387931445 -0.009038622553378716 -0.011127504451571223 -0.0018792174062323829 0.029809674857855014 0.01430407357103149 0.0032643574350679255 0.02842109785181212 0.017568402002997488 -0.00108980823967822 -0.011231754969496363 -0.01581130604313222 0.007641311854186442 -0.0011572672930317298 -0.004396563950934131 0.02848444411608011 -0.005630314033764265 0.007117806388403602 -0.011165154031238612 0.020875627469794194 -0.026815423616632687 0.004617975514340968 0.007637855191753398 0.004009965748789117 -0.03763714720391464 0.013730364938228783 0.02197818122677552 0.03834906730716235 -7.198132490521167E-4 -0.006491403057178966 -0.013641241512285235 -0.009376119234713936 0.00799021436794505 0.02517305902697035 0.0032673603108253624 -0.008271459301696297 0.012547497079451984 0.007196151085710362 0.03871668820718285 0.007795052606543991 0.024427246826723998 0.017272182236669563 2.3943222080309223E-4 0.011720093840981858 -0.009328809792935721 0.011220569238664109 0.01215350127354479 -0.012195891131314125 -0.0214539350085006 0.005251866242461274 0.006276602614320485 -0.01327525385448471 0.029766554880268397 -0.006217994997186211 0.008273259497184417 0.022353214022454423 0.03768897886985258 0.01057034843856233 -0.014058603226094658 0.01789627715471341 0.004506878397593986 -0.024209189556265026 0.0032668304659258618 0.03031935067705849 0.026591343809071844 3.303891902778588E-4 -0.02807202610061122 -0.02249258381895184 -0.015549653113162074 -7.224269770416222E-4 -0.01271370273305716 8.346611661547168E-4 -0.004748678365375539 -0.009152417896910917 -0.005964758160861579 -0.0065279698620353795 -0.006261830830403487 -0.008623325156393184 -0.009215198775934762 0.009137312934138093 -0.038949771599084165 0.004600964481836218 -0.04281580452190522 -0.01613077529205496 0.004921734741288866 0.007783501909375106 -0.023154021445332466 -0.01766369427499626 0.023689024595528563 0.006214844538215596 0.0017360185434204562 -0.03423747584372135 0.013262157039545032 0.01149575202598105 -0.017906532799536422 -3.641412663363953E-4 0.02690310562803676 0.0015048853541383509 -0.01220135729329859 -0.026078179053759636 0.033489291428549436 -0.020310165709711732 -0.006958962552099004 0.015727492694825283 -0.01335625197572274 -0.0036588999135427677 0.019735334955562334 -0.005343279992776751 -0.018486004564902948 0.02678650387980692 -0.013349162882008178 -0.008521195224440047 0.007333561385480212 0.014141003613414365 -0.009085685558484718 -0.02623444495136147 0.007829332981842711 -0.00939631338629288 0.009928530896118606 -0.007538588935737628 0.0023303972764766004 -0.008165436696200698 -0.002526080235462172 0.04420779941697235 0.0013049190799917785 -0.019651876259958848 0.004836708241463979 -0.017371475151769834 -0.017585409169408747 2.8846122070156374E-4 0.01805173915663648 -0.007132538831614519 -0.009445748397970815 -0.046841105791596976 5.075573079970143E-4 0.0023750104304716014 0.01916123319591815 0.03017749554204201 0.009478366813634787 0.01009930982933229 0.037978637307912136 0.00211049410057924 0.0361776884631794 0.0207400780997858 0.027685319134470476 -0.007084735266301627 0.016000315141620883 -0.01725159092156078 0.024554094996884213 0.034052713786523144 -0.004296405572229594 -0.03616723445350621 0.010084958736392199 0.012666323049347866 -0.01383517698026787 1.3647050503390432E-5 0.006870157604511353 0.006216354484724742 -0.010170492367744807 0.015910183448335252 0.01088631523609115 0.004817884856754141 -0.01450853357172407 0.007047072436034939 -0.011481671676192191 0.014334599772940475 -0.012345761767851833 -0.02845019911941235 -0.016089830276808104 -0.002275926950759482 0.003979137469479496 0.014708289540807147 -1.298684157705651E-4 -0.00826543575489646 0.003528244669736071 -0.005721209020885739 0.0479435319648434 0.04414613469793224 -0.011303056176747059 -0.010516722621992583 0.015263382937129862 -0.01272895660033601 0.013054865234255694 1.9025807228618136E-4 -0.007843381543491408 -0.02986882491175014 -0.004846838251485905 -0.017717862000399272 -0.003770628016171567 -0.012955881328398073 0.010632850767041041 0.04126004940246253 0.0017202577143798348 -0.002123964016983729 0.005454990929648499 -0.0139839464276481 -0.003636324688140742 -0.03204893792432404
0.0029759227067013058 0.0014986132891819128 0.004826555626204505 4.407946237129225E-4 0.0055647570966921925 -0.012885298818536351 0.0016609664408099316 0.0021642224185657185 -0.0017591715197433223 -0.007261908613048281 -0.001640285510750734 0.0067617558089775875 0.006019477052053006 -0.0027458933844092836 -1.344047626487038E-4 0.001637486605138663 -0.00491368687159488 -0.004865462763388255 0.001151676869007377 0.007043725260912628 -0.0023765786875270148 0.005814959500545874 -3.6416823147892354E-4 0.004070434961237139 0.013112051422535626 -0.006904893260470414 0.004287760135640449 -0.0014838410047447693 -0.001058872402448285 0.00317137487352659 0.0035094465222879254 -0.0034890412920168387 -0.002318512899967501 2.4926439499268777E-4 0.004437422192139289 0.008230870228137168 -6.539682279588061E-4 0.0010053600566940005 0.003216766214303802 0.00812443955994313 -0.0015047053733757275 0.002043778249793971 0.008148278870211677 0.003026676608426875 -0.004041967182685687 -0.0032861866208961353 -0.006073938224295467 -0.012334190960083138 0.006556932809104211 0.0021575646163632806 -2.521150172797951E-4 0.007220766590760346 0.0017914212707947788 -0.004537419391491421 -0.0029670039134519367 -0.0028402841160837583 0.004256811531310045 -0.005246432959333904 0.005736823231744449 -0.003014964957334445 -0.004335796111685624 -0.0054930794013341435 0.003439087044101715 -0.0023545229388977473 -0.0030861899261331815 -0.0021146039624760815 -6.209658593665119E-4 -0.0032459516940477793 0.002429316260656076 0.00517471091121807 0.003057232144986677 0.002083216125378778 -0.0014705772234127488 -0.0020485951482289485 0.004849348395863573 -0.010526044745460532 0.004297147326933958 0.0010434692135320284 0.003944865412049491 -8.38276201121695E-4 0.004222067418140286 -0.0016847933547471593 -0.0027974398892272427 -0.0010832300869108135 -0.0019334157277279896 0.0010634546007764541 0.00549574601021167 -2.9505891597463046E-4 -1.097980268608863E-4 0.00512854806024334 -0.004128358618775091 -0.003931714454236055 0.003409741197303625 -0.00783404548359433 -0.0018362162695299384 0.007645075851816306 -8.467950335060527E-4 -0.00978175763123053 -0.003356179412130643 2.3280914788925276E-4 0.0035420022339208864 0.010264502507582781 0.0016411275202619182 0.002737670464644797 -0.001988334539289334 -0.009701790526931032 -0.004350513959193128 0.004251565012637742 -0.0024447575456432555 -0.005412605971152448 0.003103441110982578 -0.001848549509898144 0.005603726851398388 -0.004996551774113481 -0.0021933812834207212 -0.0019832493941309556 -3.7173115178622577E-4 0.002382811941784914 -7.175878938400398E-5 -3.2063957797139677E-4 0.004847835499885128 4.867568103674572E-4 0.003445356030534576 -0.004348282939820898 0.005777324986609197 0.0056845133659410895 0.00591238162203717 0.0013270538810287087 0.007750158245966015 0.004400357970766979 -0.0023227965088546115 -8.399976082443509E-4 0.006319563615592653 0.012789326111160642 -0.0011332739795255386 0.0069957781181627845 -0.004649165745927929 -0.0047277479531118455 0.0035091345328664963 0.00313081299738579 -0.008597202783008885 -0.005898206294521707 -0.006533966715403596 1.2217849475176044E-4 0.010481632471023818 -0.00664280571876145 0.00549199233817824 0.003299476763963468 -0.007117469864026586 0.0028271153092099283 1.4702518214193484E-4 -0.001575444722514381 -0.00949321813100461 -4.094061386655245E-5 -0.006586233575796782 -2.901936538802152E-4 0.002113248077036698 -0.0026464619051776933 -0.007001356187432319 -0.006399391053524177 0.0026255087177351954 3.648234719839407E-4 0.003033091561873657 -0.0073383599752384066 3.0163370930705395E-4 0.004581504992079364 0.0038220210171135294 -0.0017208082540685489 -0.008249992794095566 -0.0058152476851081655 -0.004858926451473167 -0.004060452859783835 -0.002614319309892411 8.716561675488316E-4 -0.0013140375221092316 0.010721350808823044 -0.006432084538677696 -9.27367511545706E-4 -0.002785081839650973 -0.005931893636655 -3.445545982969336E-4 0.002229631082019728 -6.255204101441879E-4 0.004503227120984536 0.0011969293295517288 -3.8547089754391957E-4 0.004870334532928098 0.001980177773229838 0.013648907641482867 -0.0011148929648740575 3.6805503748306396E-4 -0.007149914589367373 0.010407420261488077 0.009183513659611158 0.002718125014542236 -5.019103109762431E-4 8.571916087801997E-4 0.006595233024782313 0.002367529911304985 -0.004979782083756446
-0.004416665418953346 -0.0033156875585290254 -0.001455859857479466 -0.017416407279470202 -0.006261251472566506 -0.00690313576547628 -0.004899452333995208 -0.006557968388054398 -0.004915652995525713 -0.019703160252959352 0.003964995656116168 -0.007564605866538681 -0.007304702474741769 0.004262892282453857 0.011056266748339877 0.01487427871791795 -0.008171633630497645 -2.4224189974069522E-4 -0.02593501524313417 -0.008517379771605965 0.005057555791904776 -0.008560818479283278 -0.018411132859045408 0.007264633925725914 0.0018030797629844824 -0.0036766942445183755 0.009099228043721444 7.944729617708201E-4 0.0034484568102967996 -0.0013353034226393893 0.009507741624455808 0.017668040785912983 -2.6044659990521264E-4 -0.006628529611351817 0.00840839281367725 0.013944499174364845 -0.0012107052883003405 -0.005177092535227764 -0.002812962976386476 -6.515211068575299E-4 -0.0015407210861662773 -0.012439954070215161 0.00501050932177787 0.007982853563734202 -0.009714999676298079 8.53923729178512E-4 -0.013305793682473475 0.001763996795084289 -0.0022048497161623387 -0.01658880701419556 0.005920125851553613 -0.002828230403763013 0.007245539638615549 0.003171415580770321 -0.027148544113401594 -0.015030080636116836 -0.018792519439907604 -0.008209101410166729 -0.013671037130422309 -0.0010020249482486068 0.006068477094642354 0.004713103793137095 0.0018714836148861597 -0.0033269491653911657 0.002918354985646237 -1.4635525065566347E-4 0.009442010662640485 -0.004968120745000722 -0.011708701895647594 0.0041819895522680105 0.016710948136808776 0.025586006509424313 -0.011557920048275352 0.019998507166114315 -0.006821093449686574 0.012761198849381438 0.005100530130043765 -0.006350969602074054 -0.015190356777509953 0.009668283339372053 0.0029826525047682052 0.0035127916709992856 0.008572386022886907 -3.6890593540955254E-4 -0.01602912240632192 0.0033442244736936566 -0.0013348319900608348 -3.2457915275033546E-4 0.01658370629468356 0.006257913835568664 -0.00813933749371222 -0.0017791537463187413 -0.017656602390154128 -0.015486274458601327 0.006994303710277704 0.0058404110365146075 0.0069212282819377385 -0.0016004880885924274 0.025417557200894527 0.004898850820571891 -0.00971359323715382 0.01507387856661608 -0.016618540261519703 0.003886576769552669 -0.013691727889526918 0.00344885930732744 -0.012657404832628316 0.006713557046147466 -0.013680986241763771 -0.016945789146300485 -0.01168396271296438 -0.002562871142921627 -3.2649252053502763E-4 -0.011703284993365287 0.001756525508745237 -0.0016755301425406004 -0.0025889423740703024 0.006793686698719063 -0.006324508489758225 -0.004638166861541965 0.002021608349380565 0.005333919030299313 0.008470364497566293 -0.017866190334209935 -0.001885914808812355 0.008719672178303956 0.0179431350129545 0.01909099700415619 0.004508153427437594 -0.00646646654580556 0.0021827672522593653 0.0019317432924211022 0.014665445403317441 0.013468053341678695 0.00114230553003738 -0.020212394384508187 -0.003637264681629689 0.007753068832841306 -0.02814335339093668 -0.017281417780274654 -0.003117363698772254 -0.001814495012303848 -0.012086501824222088 -0.013799701346520133 -6.569626831735732E-4 0.004812756608327162 0.006685053845834093 -0.00219585294901249 0.0012595967362057936 -0.008865063565507258 -0.0039952032785312225 -0.004406912239649491 0.002716002209777807 1.5835054633242147E-4 -0.008169937633567935 -0.014566444526016102 0.0027149941190479387 -0.013906309936757524 -0.007026617420984544 -0.01128234254048022 -0.020478448711161786 0.0016025868551355087 -0.018660655765377072 -0.017430671353433656 0.005953143347373025 -0.006695673135699306 -0.003204353877124251 -0.005761353947841903 0.007032963136038497 0.004064499635939281 -0.017718413048063365 0.009128420833529665 -0.011829481396376258 -0.004826934244568921 -3.0498763886041883E-4 -0.00539084714292129 -0.0018322056147663261 -0.006427058912525532 -0.0054495403741214345 -0.01147101760688525 -0.0014849909864704538 -0.0016922293596252772 0.0049045248548294515 -0.003914334276772352 -0.0023594185544111657 0.006293145035457249 -7.538283679012388E-4 -9.25789451452531E-5 -0.006264216060268994 -0.0016124433601133763 -0.01808213583279902 -0.009961859292886814 0.021023888500434487 0.012396250856551733 0.002642945418644496 0.004131690146499823 -0.006608426883061343 -0.008603588794627201 0.010733469661117032 -0.017127664963138944
-0.0042244190726805925 0.0166126061308624 0.003722911083188091 -0.014659922397553656 -0.014217132688753863 -0.002905982440063315 -0.007321824550657098 0.008823904100135466 0.006110817095450778 -0.0049572743371787695 -0.005327557583708529 -0.0060458289555507935 -0.006137699200322334 0.00979765494104109 -0.00719717618466611 -0.0029088348160755074 0.007143030848656498 0.013920708345907567 -0.006969872776486837 -0.00542797031278145 0.003178070475954341 -0.003224356991696255 -0.017637522619555916 0.01793784358018137 -0.014456466226897701 -0.008829353980246292 0.0066403044564587255 -0.01270503503505076 0.003460995562692077 0.01670694078645485 -0.015895863879469917 0.002531939059686295 -0.007316146252689625 -0.004642563694869089 5.682633964091432E-4 -0.010230882025765753 -0.009171461907804879 -0.0019470833859307585 0.0021829143747179995 -0.013517038110868835 -0.007685104020726859 -0.0014102889400294204 -0.003993613657485893 -0.0018624709984139975 0.01880995077370086 -0.009328288184731632 -0.013470279104510959 0.004741617484752354 0.009500521662345622 0.02041104504499739 -0.010968389442619476 0.011091894093424294 0.008067260994138296 -0.012003252861009187 0.008997451132478972 0.006117284273807573 0.012474194905401656 0.010472996862777497 0.004227750354276122 8.893090794877828E-4 -0.015337548830383843 -0.0025470309315447034 -0.003206417393953333 -0.004550705908150278 0.023745407816934638 0.021107776766380017 -0.0032669333578555205 0.0034980730819964643 0.005246942367339025 -0.02333252626836506 -0.012603093289507452 -0.01777118161236432 0.004010684295732087 0.013356195163699198 -0.019639163305085354 4.602311682921431E-4 0.002756260917522839 -0.0023717815804099166 -0.011389250114232337 -0.021177871851555678 0.013087960860186279 0.024871722582330138 0.01542688114116597 0.008092587976985666 0.00870154006015426 -0.0030352967258536795 0.0034212037224879933 -2.895338624854128E-4 0.011147309845793978 0.002569918342910049 -0.009124504583993321 -0.00874766211886399 0.002627411218662411 -0.01027547453143863 -0.004861571713363431 -0.004880881606955089 -0.012647447733499465 0.008035281655622822 0.008801911241489649 -0.013313440714530235 2.283999289642284E-4 0.01616276864497132 -0.005320097900206744 0.017506380641558485 0.011611088124012785 -0.00394750609390111 -2.85633440390694E-4 0.004039649757184027 -0.006521430251044314 -0.007711960626735032 -0.023185680499574743 0.029826883586664122 -0.00112492942881213 -0.00510918055912004 0.002694947903078948 -0.01885058189986421 -4.535841795996769E-4 -7.003113434418254E-4 -0.006168269907477519 0.009754070989049306 -0.002501103052033389 0.01799722742519701 -0.016495801654754113 0.015221821749346004 0.01007484522145008 -0.022665784257337156 -0.008750250019659664 -0.009654907640165 0.01985040892133509 -0.004600421824307163 0.015437500660490898 0.003021892138997707 -7.930505405958552E-4 0.0023351239431653797 -0.012359541635902187 -0.003787316771224891 -0.01990028598442445 0.030919010056253547 -0.006224246889981669 -6.056457317682118E-4 0.00885580946181831 0.005101206481533319 -0.03189491322981376 -0.009798023216957078 0.0063924869827314814 0.009872561225152838 -0.015326197288893955 0.030272330120125993 -0.0239345670456592 0.001321784777422809 0.003379089936499367 -0.0028227605301589993 0.007275952472956947 0.0014970093108538289 -0.003314678870273265 0.0061908123344793405 -0.02558236932442163 -0.017577901572328764 0.002167886659676477 0.002443040967264804 -5.979266946274538E-5 -0.003433932607876028 0.0038092629381195732 0.002065242998517775 -0.029377341198581746 0.014717262818652552 0.00505213444884207 0.009777526160490914 -6.574144259767873E-5 -8.648454444717633E-4 -0.008252722696488558 -0.004764980610275707 0.015215172712599718 -0.010047294281727183 -0.012518708418540794 0.011444954849327029 0.013342323937431153 4.55743412132717E-4 -0.014336215844547018 0.025405412036469267 -0.015109207483770641 -0.014173494287866817 -0.017255599488410288 -0.0019573739775623 -0.0032436089442846555 0.015139741302418313 0.022029956487997035 0.010807666139662792 0.022687674264922904 4.5004092913758655E-4 -1.5861153869488724E-4 0.017161419803393425 0.004718856429871228 -0.011149396053653515 0.03062851204967913 -0.009021194430259998 -0.011381410711240927 -0.010620534667179882 0.014313369414242987 -0.005796670887817304
0.005544591902265097 0.0010377555063838173 -0.006912278089558679 0.008289938728745623 0.008313262497634132 -0.004028268414047588 0.0038478864014550064 0.006030750359876876 -0.00444927629391362 -0.005473503422894076 -0.002413190626375885 0.0035530968230686718 0.011955315067422492 0.0022685109112604547 -0.0034800005732742306 -0.0055609220998780315 -0.0071778589320386985 -0.0015086093023960049 -0.005718464665085296 -0.003403298813817911 0.001260855788969215 0.012189171920416146 -6.45559375252675E-4 0.00312732618202699 0.00286811667837516 0.012365010940211451 -8.228698100758415E-4 -0.0025946744194056044 -4.2674900782961E-4 -0.005402109766701114 0.0014865620227453628 -0.003095817798286119 9.315720941789442E-4 0.001069499848554979 -0.007747625419812442 0.0075906329340931005 -0.0017171440122366014 0.0035396307099485706 0.00947309431037087 -1.1987776228020135E-4 0.007179828889348935 0.008542627959472438 0.0012205665260067906 0.004673814899863326 0.0010019908187088374 -0.01107854950852326 0.005892821689469771 0.0033897606842056764 0.004431881356857654 -0.004084147595221675 0.0010379970090423248 0.013472488771426136 0.005734064150580223 -0.00397396428114535 -0.008506451739724662 0.001312772373762897 -0.00801429721384415 -0.005252444784048847 -7.603009706493531E-4 -0.004589651474388759 0.004089786141028228 0.002014348580201997 -0.003770722608997702 -8.727825755271466E-4 0.008752311822591329 0.009165851102549008 0.006092907347730171 -0.0021316870603679083 -0.003542518419751905 0.0038072920558818763 0.007668904834846659 5.381458448827231E-4 -1.48876811720001E-4 -0.0016881788073207491 8.301206767530263E-4 0.011725574667850194 -0.007355157629013642 -0.005972530513060331 0.0032963349814345284 -0.00449773075370041 -0.001123594486926181 0.003694748958622566 0.005340949002769932 -6.137082801107407E-4 0.0031757787838446886 0.006150708798162521 0.01099025515488307 0.009131424527071353 -5.601700300421444E-4 5.302183320062558E-4 0.0027471264663633975 0.006977870487485949 -0.003722059110784462 0.005099785906702988 -0.0010884399143331086 -0.001733112175179289 -0.0013214555434548291 0.0062747516912789085 0.0102211840632352 0.0015199186125583362 -0.007518324166316605 -0.0027166813803224865 -0.008385567480388672 0.005122009799041947 -0.010054845350774567 0.002348218617713575 9.977323414187042E-4 -0.0037206730902481044 0.005262681911405909 0.008715891048525957 -9.637370946057138E-4 -0.010344268193567067 -0.002338358670020598 -0.006595800283138677 0.0024916776467224537 0.009176852811571762 -0.0030447626081359694 -0.006049536080064005 0.003685810176816153 0.01025208481664846 0.0014877029373146589 0.0046639413242332995 0.0021568454185812353 0.00858667527111693 -0.00516232337845078 -0.018165388030902927 6.726057618925248E-4 0.0022059037384630125 0.006738061380076479 -0.0013456345878202795 -0.007194446388051692 0.004994588505971176 0.0018528361150081888 -0.0014053533825991189 0.00123258045181207 -0.004298201226630978 -4.296522651916759E-4 -0.0015877896214356502 -0.005110837039703562 -0.0015572353153258482 -0.008395796490057316 0.0019888986848155647 0.00819678343074694 0.004650108304747922 0.0023663721353921743 0.015219543401101958 0.002712389170030886 -3.847727730673983E-4 1.7678548829161536E-4 0.007194540796187735 -5.517409350876496E-4 -3.3269852097438096E-4 0.001038774151948602 0.0053874983967606 -0.004373352159123741 0.0026375125202242945 -0.003005407483663328 -0.004164162351621148 -0.001056668349585368 0.006129027088784628 -4.396580286352369E-4 -0.002723334551498532 0.0011995596898801743 5.275549866641379E-4 -0.009615620798078236 0.005191793296983096 0.0023036686983481137 -0.0059654107150677585 0.0071431913847815965 -0.0012128302191245827 -0.003766918206078838 0.007700975450410981 -0.001807180531774832 -0.0018781218523491034 -0.010982804511014516 3.216765541278286E-4 -0.005872619905585939 0.008120469432511665 0.0079982096163399 0.009076803555673198 0.007607724691162002 -0.004556629930862415 -0.0034418081810770112 0.00320962466710537 0.0013335192005240954 -0.005337531810351361 2.6090330331738834E-4 0.007306952788975084 0.0016259095387107126 -0.004926528298628408 0.0034783352387490877 -0.008918530171922585 -0.0032817164718960397 -0.007964960976358574 -0.0013611960784364616 0.005062985585858139 0.0017726177127866032 0.0020654812502223646 -0.01308033049542016 0.010621004473086684
-0.002144151375385054 0.006161434054639191 0.004620005802922827 0.010573566666667877 0.009795714338348934 -0.009815589814015277 0.00419417618378286 -8.676592186658981E-4 0.013283541341203763 -0.0114437465345591 -0.0010024328834495138 0.0068683693810933566 0.012560234634377906 -0.008559608125688586 -0.003527347933528205 -0.0017481149913563128 0.009465001076571035 -7.072966324919299E-4 -0.001520530293604735 -0.0037577365955620726 0.0054182508360920085 0.012393017994757605 -2.5647845423504154E-4 -0.002379095409741101 0.007496735696322822 -0.01254459424500979 -0.008647163745488861 -0.0065697969924176 0.001885788034010087 0.0066001915791382955 -0.007277150071925404 -0.004134804710392153 0.001308654517343694 -8.519166066540361E-4 -0.0032629971335406383 0.004891926552916104 -5.18525516094327E-4 0.003773142084241398 0.003784053230582063 0.016844476350338117 -0.003158764448476019 0.002102079658534962 0.0021030819902058584 0.0021047174098365483 -0.0065309819080544675 -0.008575217366041046 -0.00909006440367617 -0.01395840226634556 -0.004627409246783488 -0.0031759226156120065 -0.0032569183079621342 0.012116588040517347 -0.0018047956057287125 -0.0014900776295565495 -6.513799243708742E-4 -7.26059567433809E-4 0.0017988237932145621 -0.006407530263375298 0.00271353016233446 -0.008600377118985598 -0.0037629409643101267 -0.004019034306360119 0.003759384636272407 -0.0048748796543570455 -3.7956664933862374E-4 -0.002468545900737133 1.818071507651127E-4 0.007085721209723593 0.006195266676128632 0.001983558566321362 0.008732955184503908 0.002898864684994249 -4.58068839059974E-4 -0.0036505670292162258 -0.0014718387504804515 -0.011791336981113842 -0.0015405006968228602 0.00787876863296181 -0.0020567645258939933 -0.004765458987832156 0.0017220628104459067 -6.187491236592011E-4 -0.0038738570312697902 -0.008926518379325458 0.00875320607010111 -0.002150009824482666 0.009368108979645474 -2.875087017998142E-4 -0.0023585667742099217 -0.0017413966942488646 1.5293124146575565E-4 0.005349522879292771 -8.124955042413272E-4 -0.00465313659127213 -0.0037347826689390186 0.002234846311682316 -0.0019502337961631246 0.0025517124763110833 0.0019454609528102406 -0.006048031539401864 0.006119472255296549 -0.0011381824537041204 0.0027711494684017368 -0.00703762763915669 6.808427256044166E-4 -0.004170634432471414 -0.005664074410169507 7.175499929219627E-4 -0.006833078783241351 -0.004071051995790893 -0.0011618295434588511 0.00667647437807798 0.005295750265324575 -0.009671186838300599 -0.009605391001756274 -0.004263533860122169 -0.01049791641806502 0.006448709392211533 0.002785825094226676 0.0022127590958863313 0.0060259737814346665 0.0038798161798538145 0.0022668698956625974 -0.005443703781561886 0.012901816747934057 0.008501561297581775 0.003828651110437092 9.622319605149176E-4 2.5836130693398037E-5 0.0017646338793435188 0.0027148152613304397 0.0029574679265759202 0.00739433796972597 0.010075649384799915 -0.0035199620832382333 -0.004018138562422282 -0.0029295209096576276 -0.006901431203888571 8.179777288343273E-5 0.004621678561112016 -0.007724963571747779 -0.003156523142807491 -9.246594752535676E-4 -0.009189122820207085 -0.008062903758621051 -0.002151210291187613 -0.002089550143353531 0.0018356032425720147 -0.005581451570506692 -0.007415536278305056 -0.00564897345039122 -0.002679508430672765 -0.008394731198829945 0.01024262525506921 -0.0012123383802314315 -0.007724221859360643 0.008672033343502089 8.475110747107545E-4 -0.011183625838619643 -0.009723752475902502 -0.002003557145163519 -0.014192670936307593 -9.165350557938135E-4 -9.526079345666219E-4 -2.992257368325769E-4 -0.0011506568697059135 0.002130582514610519 -0.004332601794559764 -0.009874835513971171 -0.0023873625438825524 0.005059130544671241 -0.0017177672500250736 -0.004466417872592229 -9.252109740352811E-4 0.0014024929096853776 -0.0028128757869861176 -0.004691543760693424 0.005231988028885284 -0.0050687855983513825 0.004515207160841321 -0.001116915194035007 0.005953029018339517 -0.010776689751747724 0.0012905323439151384 0.007226993753415058 -0.0028986820048618124 0.007365124326410574 2.8759356815936347E-4 0.012229641179091963 -0.006290900909955105 0.006950241313384157 0.0014893296507484186 0.005125472791568188 0.014651335898373117 -0.006351801393583134 4.176293933229219E-4 0.007384637915986282 -3.188303733247953E-4 0.004270099621118163 -0.0011563036310616559
0.004211070293287446 0.00298349190718709 -0.0041040876927262646 -4.603155503275915E-5 -2.0347831480054017E-4 -0.005580358567582987 -0.004932717084702053 0.0040107544811155745 0.003470736902903748 0.00402437669774943 -0.006341471483784675 0.00749064408122382 -0.0027071845096322167 0.011219848807943434 0.012810119557106633 0.007651913590386272 0.006879684525978303 -0.004900942142597039 -0.00847187303056457 -0.0031553642195188856 0.00486020470514734 -0.008555180750818125 0.008605943414183265 0.003428248327644297 0.004597766696136464 0.0029924448814239077 0.003906104091029956 -6.833928225766527E-4 -0.0030519767562261005 0.009210186320005267 0.0010777528498370854 0.0030730928947537584 0.00408965892983384 0.011888837481632164 9.418297804345273E-4 -7.262088875741997E-4 0.006410980847250471 -0.010343463213385796 0.013335230106201234 -0.0016901388340593226 -0.0014429595044303226 -0.005565849745164063 -0.0020751907750395896 0.009689798047601932 -0.0011416868889846951 -2.1034781654870484E-4 -0.0028744944296715696 -0.011563123855470694 0.01055185661337117 -0.01103798838640081 -0.0072799556148490175 -0.0068016629676437785 -0.009531009401337826 -0.006975514784686444 0.0015492626200734403 -7.713089680626361E-4 -0.001478536923161611 0.0015184243275079565 0.010450801584052432 -0.00482625389435247 6.191231599454964E-4 0.003675193844194568 -0.009474723613612438 0.0025199919849198914 4.8236989164809495E-4 -0.0038732289360767194 0.005179797741805487 -0.0028870035645051743 0.006747214609016232 -0.0029816950268299505 -0.005973517256329768 0.011413652724335225 0.001969232701583443 0.0013283966358510549 -0.007224866145807986 3.064909371330197E-4 -0.002853346580945473 1.119614346237348E-4 -0.0019072095103525118 -0.010743308411359079 -0.010913502311638576 0.0027532011163695835 -0.004566251538803663 0.0017036325090877729 0.002338701293265607 -0.004587805318815897 0.0031022266596092366 0.006732377273143214 -0.004664097008668948 0.004753104949099581 0.005710061612530681 -0.002532215510128752 0.011987759548245018 -0.004404216028747594 -0.004336632773541813 -0.0011183083823018535 0.002855844441774299 -8.066729599088446E-4 -0.004468072957332708 -0.006017415520166533 -0.0015039057939608116 -0.00972694513132211 0.0017046567003257602 0.002132271645849531 0.005054155693085961 -2.380978374521749E-4 -0.00871012022062079 -0.004165877972887706 -0.006755729062523871 0.00938377121970309 0.0016060073031413827 -0.0013835612577272447 -0.005883351002919 -7.359776570806028E-4 -0.004260392784538584 -0.0043313081682161 -0.0021184945884270127 -0.0015918407461094268 -0.0023026757177024636 -0.0033405799762081943 -0.0014939479305931642 7.700708734052184E-4 -0.004863591476704322 0.0028186892493010742 0.0032117184874756715 -0.0036818361051753957 -0.0019451324757461677 0.0032486422048306983 -0.011041289579898047 -0.0014335416145677884 -0.003301743090316336 0.003762198257204537 0.004511071076251737 -0.0018228386829276509 -0.0028352905544627403 0.005233995767629051 -8.028423466499273E-4 0.004062529413031897 -1.818602498198244E-4 0.004044817890712467 -0.002508563545097584 -0.012857350324431647 -0.003917029841392515 0.00796031050982428 -0.0050351667153944865 -0.007826549828904386 0.001110370083555102 -0.009191896856161268 -0.008947286989532085 0.007464983022336059 0.0014282760053487915 0.005468306510257046 -0.0034135105682698 -0.0024744498032706784 -0.005663720544754543 -0.009261884169528459 0.005487416016377257 -0.005541928589252914 8.003878400499634E-4 0.008363789273008487 0.005884688048948899 0.004864127022642925 -0.0028708838671029735 0.002939364770787827 -0.0010596603137590934 -0.00566761940648423 4.0788588437131953E-4 0.0023755106131334103 -0.0067882148409184285 -0.001698230102054399 -0.0015763531614099429 1.1283427575305659E-4 -0.004140591903810027 -0.010577070348660584 0.0017409325549064118 0.001956864378720684 -0.011949034474009874 -0.00731882954614848 0.003021299092967771 -0.0019661031296803948 5.361073937420713E-5 0.004089024586635201 -4.5964762709132514E-4 -0.0013902654465440193 -8.40643587444552E-4 0.00734125092782201 0.0054015742220739 0.008734254338159055 -0.0023584671990045927 0.010372784510865828 -0.0038793826036972712 -0.0026115824017005425 0.0035019474878403615 -0.004121342770604079 0.004505691104240522 -0.0015537653976102966 -0.0022580224615829933 0.011175303087022597 -0.0038137911930192767 0.002556099940926906
-0.004794932974067988 0.011668526959731652 7.040974615242572E-4 -0.003291381748076636 -0.0029355936248664995 -0.0036798678549494466 -0.002267040311138468 0.0031050821011316975 0.003878513221452802 -3.310579487624537E-4 0.014799234209146726 -9.020133611283599E-4 -4.289213213503719E-4 0.0038672167031249525 -0.00296324507490155 0.014415280080310854 -0.011280446444344637 0.0109278910300974 0.003789422984347814 -0.005703857371628819 -0.010641026827674259 0.01028543727706413 -0.006296055506106917 -0.008122279587971501 -0.004906860957225214 0.006849373115369245 -0.025645191897616087 -0.0064839367104652405 0.006627437502152265 0.00674074607635789 -0.0029218983019638285 -7.546010292019655E-4 -0.003051914623563232 -0.0015543061546455525 -0.0019888727946394402 0.022782067423521447 0.002195438032700113 -0.0110246100494873 0.0038741771267221145 0.007347762200603774 -6.347299713567558E-4 -0.0037996222311622494 0.004296703370504739 0.012690989704919376 -0.003821951692757585 -0.0022103388009859933 -0.002633537201177095 -0.004410429382135855 0.01130395788958544 -0.00807245271523477 -0.0016162300688215758 -0.016690782664379636 0.008013725144427174 -0.024561947436928768 0.005702304706535912 -0.005608751086045805 0.0011372383326945363 0.01730281197582599 0.015649994934836146 0.006758214879474415 -0.007597266719816019 0.010004319265597545 -0.011293187567948695 -0.013943700520538413 0.014162015547807454 0.015876899240655894 0.008588964048801096 -0.005279624318338935 -0.011373746542870725 0.0024853471721905367 2.3955119261297641E-4 -0.010128234045457941 0.004471559049385365 0.009915146893447448 0.005413551385900824 0.005808089926816464 0.005241366515413391 -0.005613488876835885 -0.002875412063610158 -0.0022504944604762617 -0.0037258884311696205 0.005710749787160092 -5.162335572401351E-4 -0.003236478341419454 -0.02036461032207147 -2.813298035039028E-4 -0.0019977005636507457 0.0067478760462642545 -0.023156260113555736 -0.0025726380397113426 0.014689908400328716 -0.001195051230851164 -0.003227654634056478 -0.010062563837193575 0.010159615336915059 0.00518111355409317 -0.013148807981041552 0.005560059344425327 0.017312122442014542 -3.901244616030267E-4 -0.0021686916999893117 -0.006057853639803398 0.02689202138304378 0.0029949918778248608 -0.0036701809013999806 -0.0024068274895066564 -0.007127284556298262 0.013980557483612628 0.01041925702179142 -0.005772667026427947 -0.01216149602757195 -4.914739946404848E-4 8.147874357613589E-4 5.44445199047068E-4 0.0053082780146807736 0.0016141109853936642 2.8040445787841465E-4 -0.006445780386262437 0.00778609583404415 -0.0153216023698366 -0.0065619059494727286 -0.011044698652342283 0.004549461961280101 -0.001712584158790439 -0.0096067656695781 0.01584307409465475 -0.010812803105008637 -0.008970260550933388 -0.009206317822557394 0.005215162659371747 -0.006325454292614659 -0.0013362944354141143 0.0016420132955676943 0.006815549794883792 0.003397210381823579 -0.022773910425315964 0.003435027994121499 -0.011555862454625065 -0.004881911878398661 0.005494342646795464 0.008883178311448216 0.0020320234765121925 -0.006806172153318294 -0.00558107813196772 0.0021937659253864136 0.009705570157473854 0.001658527813379748 0.0048888811619974895 0.0027983644806497234 -0.00171399767530056 0.010102162494467142 0.008368626169293876 -0.008512582155691884 -0.021864077056156152 0.012640475438215414 0.015600794318101583 0.004462154344207336 -0.0031834270675315805 -0.00919523885323925 5.636833123145485E-4 0.008783008072725466 0.007519236311756662 -7.421593473173065E-4 -0.0023061663995114267 -7.899891644388391E-4 -0.004865337032950327 -0.0100624286410689 -0.008554534585640063 -0.008461884266879766 -0.02003877219157061 -0.008721723646238492 -0.004780743301423236 0.005416994353612102 -0.003767948646952691 0.0012090379231814246 2.537517439555954E-5 0.003998468916805911 0.005101018051102976 0.001243073188670604 0.008273453435326584 -0.005947316405160456 -0.007026730836518636 0.010718995981113456 -0.0038019396867816023 0.007430300911701915 -0.007138090381639989 -0.011983874707128736 -7.319682914901284E-4 -0.011011689723805727 -2.849425979832187E-4 0.006406963533689735 0.005989935567970066 0.013469357156836797 0.0034838357814792847 -0.006234052321860872 0.001439700305936615 0.006560133482766248 0.0023342604066671634 0.013669979672002043 -0.00407191554193744
0.0034111439550588655 -0.0050775691540975165 0.004878790699738476 0.0040752613065889185 -9.717024843786374E-5 -0.004612871706009199 -0.005231774540047728 -4.357082799395109E-4 0.0033950372836247565 5.886447083241892E-4 -0.004824833118014616 -0.0017670894854427608 0.004857962941470781 0.007797949414503762 -0.0011160566099392896 0.0066740630831445625 -0.0028737256076474802 -0.007286131531009031 -0.006286578519484168 -0.007082784802116396 0.005038682795217613 0.0011023430316638462 0.005528029163898979 -0.006235489244128832 0.009920307230612935 0.0013276805982070988 0.011153560054317837 0.0012240785421453394 -0.004960192749552997 0.0024586480819768705 0.0011768472346822328 -2.1009747543918592E-4 -0.0016083690330145376 0.004699636737733187 9.380086765823042E-4 0.004174476571043715 0.003179016077452534 0.0014633470071677716 0.007626107897494931 0.002912592464253179 -0.004321470081171979 0.00566859702550943 -0.004664322708213645 0.0027853759784649667 -0.005835333700478669 -6.738304652545863E-4 -0.002210569107854475 0.0025848526282080046 0.0067840367070225545 -0.007413576261903312 -0.0026265954970528006 -0.0035675221716736 9.666511102359737E-4 5.519481688691964E-4 -0.00164038086940069 -0.004698430003265846 3.6996749094234425E-4 -0.004225802766619607 0.004962506542443823 -0.008864315137081804 -1.3306595903427764E-4 0.001310989373306791 -0.005759033310688796 9.74399709928802E-4 -0.003776527016040806 -0.0019846629048575182 0.0051512450747463944 -0.0057938451142389175 0.005758999761854207 -0.0011061604387497136 -0.011335752897506091 0.002827906929622178 -8.33255954292193E-4 0.00201344482957107 -0.007450901710638175 -0.001037165836406843 0.0025009585401878282 -0.0022020408105619276 -3.758515791721527E-4 -0.003351608752631486 -0.005610217118825666 0.0040460643944762575 -0.005869041888210439 -0.006001169120932549 -0.002953287441630656 -0.007283974832747569 0.0050412301770860375 0.003968569426427053 -1.357804646354093E-4 -0.0026256195197173586 -9.796004336500115E-4 0.0034113211760421285 7.245947144767715E-4 -0.00650846018017042 -0.0063044545230570214 0.0020945974835492763 -0.004111931340045902 0.0011267861426365767 2.749450275900367E-4 -0.0026533291519557412 0.0018659172099512987 -0.012065952057880587 1.7454093040598665E-4 -7.096517036644538E-4 0.005917234436210785 -0.004986367181990721 -0.006803833236059612 0.0055637690903654925 -0.004603790827797085 0.004304918432790904 0.00844420627280959 -0.00359870113323705 -0.0034433642263658813 0.003258327929937026 -0.0035915447686758876 -0.011077512650962794 -0.003253340355403878 -3.4117091813780305E-4 -0.003345499883926822 -0.0024131894743016514 0.004868552108374564 8.532857907003339E-4 -0.010863782813410557 0.0021260481282737477 -0.005290089007089963 2.884307281394945E-4 -0.004978540290640672 0.001560606067628982 -0.00319320318058477 -7.533925703287595E-4 -0.0019271764329015497 0.004673099373525422 -0.005037613231552404 4.1370807405564165E-4 -0.0023744501901945135 0.00295025179197705 0.003430755397881242 0.0019401687300523588 0.003454991220769635 -1.727648985091973E-5 0.0067564407827830734 -0.007258500898767977 -0.0021173378083554064 0.0076144920481937455 0.0029072034584208778 -0.0028515693459538064 -8.577880940854709E-4 0.0022846440539895717 -0.0015591534178006942 0.005505553545744048 -1.9963848499867965E-4 -0.0011550188299591763 0.0018774544143256562 -0.00488888386158537 -0.0019483768941998018 -0.0042996191132762904 4.954741159105606E-4 -0.005794887701856438 4.2234865394124346E-4 0.005161393015765676 0.003287273875057761 0.0016126035592906223 9.40677173747522E-5 -0.0020955957260825895 -0.0011219630295534382 -0.006041667528171485 0.0022921810454532825 0.0020924234954787005 0.001919798698246579 -0.001430379029612385 -0.0010811452250974606 0.0018360707914689932 -5.216470223395261E-4 -0.004425888531229411 0.009170491765378107 -0.003987251711350794 -0.003794708213403292 0.0022270352481508367 6.334245616482648E-4 -0.0014196396588924398 0.0015939958772396017 -0.0021214249660055826 -0.005847601331243864 -0.003268268305746544 0.0016653250625534271 4.973558837859669E-4 0.0044605547994222 0.001090127768327774 -0.005754383984517543 0.0013039474479561316 -0.003232487859976887 -0.0020368649751181965 -0.0021794440567890886 -0.0033145931692395826 0.00925035142131287 -0.003944990788798916 0.003134473587963437 8.686787829204407E-4 0.0014143608346090684 -0.003796552561124247
-0.002956982514123551 0.007457544335269125 -0.008129922828806788 -0.00454806932144323 0.006708297833791741 -0.0035171122747998853 -0.0016811397347568386 -0.0011535918828222658 -0.0036849764102268616 -0.0020767345108181185 0.0073300053434784355 -0.002411331385307726 0.004473182714954082 -0.0011187093104426393 -0.006043513501720826 -2.3269426257790588E-4 -0.0019085866900727588 0.001441053322056116 0.003028572025729738 0.0026449441955728905 3.5077202673824054E-4 0.008294754596711034 0.0074319061186862686 0.008812125406578991 6.933052730948692E-4 0.007029594253910948 -0.004414026416930175 -0.003905976163064762 0.007502278868417908 -0.003864057070452924 5.316379429029478E-4 0.007040635945729257 0.001147281154182586 0.0067098915767229315 -0.01041378857379898 0.00650383920638837 0.0010250366001962974 0.004090148563638305 0.0034672126148529332 -0.004383624740953852 0.0038788274013513238 0.006277440957149474 4.312943572913706E-4 -3.427932055709188E-4 -0.0026876337004292958 -0.0026536761186807755 -0.0032174019504872093 -0.006027981565303254 0.003035768126866583 2.2506618413204547E-4 2.0003674239354197E-4 0.00298496776848959 0.0044451020489899825 0.0016408411195500709 -0.008328645849671927 -0.001047914586746932 -0.0040975566135820225 0.001061582368598998 0.003399973255937181 -0.005949309232969476 0.005593831564275265 0.005763456628754091 0.00762730378168183 -0.0064643832565591 0.005610212594101236 0.00409455924784351 0.003862738806717626 0.0037412342640590394 -0.00278009844060488 -0.003671887942031896 -0.0022027180211286646 0.007052666533868965 9.829254646200193E-4 -0.0018352080379914282 -0.002994356043287531 0.0065298123052579095 -1.0332588914164176E-4 -0.006948289028950009 -0.003309765817257586 0.009293931078892015 -0.0028718115484041734 0.009758318579981913 0.0062790224849302665 -0.003210087787007163 6.184484799133962E-4 -0.006983735208955641 0.004381595483030316 0.011482207525540241 -0.0012601721658724414 0.0037090671017020608 0.002074463520327828 0.0030156106158669193 -0.004733566747074106 0.002115553829838295 -0.001893212595254138 9.786356484604312E-4 -0.006045871317756805 1.0512947260206466E-5 0.007051272413802305 0.008265651097040123 -0.0014406823659004506 -0.002079564123999365 -0.0075016648941650605 0.0014520527672286158 -0.00717867927047353 0.003529493407945335 -0.0045281297658235865 -0.0023496118102706966 0.0013221426500085373 0.0059004233718585476 -0.0018206102105677937 -0.007369620618922423 -0.001630548434853659 -3.520988088192095E-5 6.858297624076463E-5 0.00570676883169062 -0.0012001012818908486 -0.0021115171384139602 -0.0020669623655315927 0.00991065210738226 0.0040948275356569456 0.001834341922132911 -0.0014473178808767008 -0.0013172706004057093 -0.0059141544794692165 -0.014379569700258322 0.0016811640110123466 0.007697036508647691 -0.001859754346887813 -0.004976901784097065 -0.007474605314911454 0.003756993674587538 0.004756185512353249 -0.0026391765025100726 -2.7057070482157126E-4 -0.004483269260015134 4.2755298660332274E-4 -0.005058054136288494 -0.006165037524829649 -1.9907643575626984E-4 0.0014539403660460489 7.031009638530722E-4 9.693237605913979E-4 0.006155803891968971 0.0056032633780348715 0.006687074882249308 -0.0014670221574699057 -0.007922293039641459 -0.0033255348688867752 -4.935385613712955E-4 -0.0067248014263478016 -0.005000942604645032 -4.8421705990708374E-4 0.004432530615763997 -9.89718481045249E-4 -0.0018451631107160417 -0.0025868820437756476 -0.004384393437972991 -0.005393046801652733 8.876021932392351E-4 -0.0040190976680731525 -0.002924249976814316 0.004167635256917243 0.0051253555435810776 -0.004206365165309652 0.0033359437787222846 0.0033121908392876893 0.006809978749208061 0.011672476981099729 -0.005881831515956825 -4.16053019644142E-4 0.006344138325755418 -0.005981498433115645 -0.001468664318345996 -0.005718453641795084 -0.0025060741650201903 -0.010224685357063818 0.0081694112457327 9.004306467528992E-5 0.0041058811886821815 0.0025647674007640824 -0.006109639898804569 -0.006940260911447035 0.0022838337904713376 -0.00204763348463544 -0.0024400546116941997 0.003206426021021618 0.007254053480902584 4.3571716965233343E-4 -0.00109241395717671 6.878272197751498E-5 -0.01099220748105171 -0.009593056807697935 -4.3321008629753374E-4 -0.0036011551953646762 -0.0015440805706485004 0.0012420612197905911 0.010876592926159286 -0.0038662288265582444 8.472860095324387E-4
-0.0026646266157255233 -0.022024934861275356 -0.010074088144381406 -0.005711711726043025 0.02596169742471591 0.014235055384772499 -0.01401336069249988 -0.02661262933861611 -0.01818425804585577 -0.00462273642261997 -0.0038171770449116084 0.008507948002008414 0.0058796904300168346 0.02061252933048425 -0.014272201826858195 -0.005648671031330596 -0.024903689929740788 0.0029777674135863202 -4.962230246911951E-4 0.0027782719948178055 0.01703318388901393 -0.009378449290718224 0.0013574283117091283 -0.00255706161260678 0.003387571942258641 0.017290246518392723 -0.023146749563761074 -0.011281956308020395 -0.021074649830339635 0.009549228061849144 -0.020563697278450626 0.015722508141087572 0.001133111879902641 0.00973050305286666 0.005646597434476021 -0.0021953057849501112 -0.010762649989020675 0.046863873144429365 0.025055496052245253 0.007616632325478155 0.014872311884579523 0.02450451584703831 0.04072500146050235 1.2500603922368822E-4 0.01036237651214623 -0.01401481322132395 -0.008362973273480295 1.4939689683535911E-4 -0.02710025186325036 0.013779005020352505 -0.011726218212103717 -0.018411269373528542 -0.0074126009999014334 -0.011164410336656657 8.695560986407037E-4 0.013117137617825111 -0.006072883303068846 0.040971837913460575 0.011974863688723336 -0.028080366868701943 -4.083662574490408E-5 0.013216809981273133 -0.003497933446504029 0.019606184275445707 0.019218996665256467 0.0016385310544513132 0.008354304720773458 0.03422920649150645 -0.002963663694922519 0.004003838555699266 0.02375770416694215 -0.014450637622984812 0.02302401719483264 -0.025317433615110248 -0.0049710383634240796 0.017191603838866993 0.01824274943667047 -0.0019971509581514827 0.0013794838295547226 -0.010297352776234068 0.012369253723515428 0.003201894902877925 0.0013911473646821243 0.0068802087278117905 -0.018957974985078816 -0.01012663076304393 -0.006696040582752067 -0.021804307908485115 0.024045953914043582 0.016688739206498097 -0.0095700125571806 -0.012500592741336143 0.013739272178017256 0.016368210134774058 0.01106508098074012 -0.04092601458964205 3.057640810840195E-4 -0.0264474444633324 -0.013122098360123983 0.02390445887548314 0.011416053403376581 9.90466462985288E-4 -0.004947029451224239 -0.015098437047806019 0.023472352151076584 -0.02220591722259412 0.0013061590800190275 -0.021080582678810144 -0.0029755215380726633 -0.0314921950991009 -0.023632280784248342 0.011065227855972028 -0.00923910053897478 0.013789461475431714 0.005575645513969633 0.005892256154945806 -0.01093501617267187 0.0014834331395323314 0.009237422049519843 0.04711135971701119 -0.009311154784793269 -0.02772810431043095 -0.021792358153319227 -0.007447643194871844 -0.006073398578432405 0.006419241039499125 -0.007208775942454108 0.019233156738636542 -0.0016514869279304666 -0.020280593319039072 -0.004084582757999945 -0.007875695627421356 -0.006098545987150921 0.01758675312867515 -4.0046827145363693E-4 -0.005680883249446511 0.009413085808440162 8.238831145275772E-4 -0.013745873976237822 0.008314094860820477 0.01638213941146805 -0.042754417148505544 -0.002786230321376188 0.0032335093473538704 0.006947879205078231 -0.010516371807599657 -0.0012871074405035184 -0.009847601707922891 0.02697567296390545 -0.004384921455723997 -0.018795449586269147 -0.005098158742725041 0.0035610642543387155 0.0029629784101149657 0.0028169695099605698 -0.008694315456411724 -0.01471188207746407 -0.02524468211770979 -0.024102140259285965 -0.008936756086073784 -0.019267059600001822 0.005622101962311014 -0.007484675264036414 -0.0030249452118001384 0.008169288820688354 -0.011141948422943464 0.0045754593788441605 -0.00890406084285116 -0.02149185971102687 0.01993150940586851 0.017437510651033748 0.006933832608365709 -0.004919344849966283 -0.009953406094730204 -0.011024423934109113 0.022373942091438427 -0.003530247149994124 0.008605532963251812 0.004235847677332765 0.007998749249373356 -0.024691835118162194 0.018243947491180326 4.5176650900150244E-4 0.010865266425435076 0.004873252555460365 5.047173376681555E-5 -0.007918617739282515 -0.011792048951077664 -0.02798144592457922 0.014389008962446666 0.013343439630926652 -0.021280572264117656 0.015443066980344857 -0.0034793726932075037 0.019689624961516397 -0.005943131626280232 0.034516450016494823 -0.00561569851231048 -0.012846710838789542 -0.015662891540529276
-7.417953859096193E-4 0.005405776624010852 0.005272320988889952 0.004015090056560523 0.004306972300491585 0.003460593718852268 3.2283313682356384E-4 0.004937551880517597 -0.005322338169787491 0.01374288001828149 0.00979966693359428 0.001026246421536167 0.0012199528755828292 0.01020338501925023 2.705047072088346E-4 0.006631255189216365 0.005063316979241721 -0.0010302081663385119 -0.0020565270195980357 8.555100066773205E-5 0.0013679458067921127 -0.011302761268016989 -0.001472441995391672 -9.127336047267888E-4 0.0023856020248218045 0.001111595141361367 0.0029879886051000647 -0.008266052176078351 -0.004406995620160278 -0.001811729700093674 -0.0010174531614816366 -0.005168103704410816 -0.006840855889626991 0.007510884243818837 5.276400672947379E-4 -1.77375142759541E-4 -0.0018312656507447947 -0.002989402520515561 0.009948646658602463 -0.006010483276649232 0.0024601007408264364 6.445379582226407E-5 -0.0018845658834879813 0.005466403771249053 -0.005377099982959247 -0.0065982772037910175 -0.009185589397218155 0.0032511238064017417 -0.005112479429377369 -0.0012307832131484306 -0.0034167126837031945 -0.002478537768668 -0.004640367189082996 -0.005165593959149099 -0.0025909775350369275 -0.0011052243148378222 0.002585537734582678 0.006657189386982128 -9.686571140773414E-4 -0.0012929953830392842 -0.002624221751918471 0.006608308803696488 0.004321395751594165 -0.008220578699212631 0.004295872137922902 -0.00999976638934376 -0.00709160714786856 0.0013017002413276352 -0.0017905109865330394 -0.015135839771678003 0.0014436887441746913 -0.009073187235682414 0.0035054644638828447 0.002742052554412075 -0.0033660884687514436 -0.0028387844385729098 0.0011057903919935988 -4.641840753893695E-4 -0.0023045994488363458 -0.005065800014535814 -0.0032741105013001184 0.006554770743665015 0.003370584556857895 -0.008876012893765219 -0.005172095466017453 0.0010254669948523516 -0.004537035125785688 -0.002433695153225032 -0.0028648241336518675 0.00979493945843385 0.003183739845903703 0.005608843900892103 -0.010021241292567474 0.006122062214427718 0.005331933141066172 0.007549181242197221 -0.0030397974056902547 0.00364267737116593 0.002642452633484469 0.0017441464012817548 0.006620963513085902 0.010156140847552394 -0.006569324243418183 -0.008572871089335004 4.5069968267646613E-4 -0.001757289820342383 0.0018534445980888993 0.0014028723319353105 0.005884578543089906 0.0027183310629084 -0.005561125079218324 0.006709069507428464 0.0033588148776882284 -0.0013633743074964464 0.008640222364813719 -3.295163276505475E-4 -0.0025108335337349396 -0.004130907865451519 0.006747216788996996 -0.0034526292539591155 0.005329996119989806 0.002093817372172123 0.010210756152667318 -0.010134496770977918 0.004091700608401516 0.0029866045717025303 0.0028179062582288847 0.004151668756223807 -0.0053888044157836225 -0.002358503200179942 -0.002037826492776498 -3.642381119650912E-4 6.255230201299745E-4 -0.003043849592646612 -0.005087106435880444 5.818557225819445E-4 -6.39582972925777E-4 -0.003967605303481868 0.005197338931265277 0.006274741408206608 -0.011562538484264643 0.005735508944785222 0.00790142953569316 0.010029404262809351 7.683850956998646E-4 -1.5042247663858916E-4 -0.007234809212765575 -0.0024426121101016308 -0.0099968511723163 0.0017039081463662968 -3.897051377101158E-4 0.002813843419527309 -0.0056987452073757215 -0.0014131454470809874 -0.002331175727604553 -0.0023839337177249446 -0.006000003217847213 0.0012492287922626492 0.007790737698326899 0.00403349960869635 0.004266364579171429 0.007574836430391569 -0.004470580794275584 0.0075844849387864165 -0.0025052431257266156 -2.34876077979681E-4 -0.004529864465660451 -0.00929228985152783 2.906947675633433E-5 0.0041972491964077496 -0.009527443115881712 -7.004396689151886E-4 -0.004032480343741833 0.001251106656493864 0.004541727215039704 -0.006498924139593148 -0.008860932408862725 -0.002116926261398683 -0.008695709903679788 -0.0022389234467768884 0.008393512085244857 0.006770476811219486 -0.005930336901479553 -8.181363473221539E-4 -0.0033517393133688273 0.00663024975555826 5.356136439263238E-4 -9.133688182588344E-4 0.001181683139439515 -0.003771758401702137 0.0031643675662771766 -0.003388487828846157 -0.0027979513053773956 -0.00214926070528232 4.1146439735782086E-4 -0.004821748758128616 -0.0016594629102597439 0.0023481529159117207 -0.0034070811771356136 -0.0016272228925350238
0.005047836234962669 -4.05784057966528E-5 0.0022242961442699516 0.004559970459704891 0.0031130799551055094 -0.004035450718968483 0.0038234364802946777 -0.0010608721244036747 0.0027955779829379724 0.0044269701916207676 0.0014326893294165218 0.0018802553157611314 -0.0015357184503062482 0.0014594452285042606 -0.00188797999887242 0.007233562234674588 9.854909482240092E-4 0.0018156435376311339 -0.0029835339986298676 -4.228939161034383E-4 -0.006725423684835374 -0.006153528828579516 -0.00751797858766549 -6.672654206308367E-4 0.0035834030482604093 0.008017563772766937 0.008658806753205723 -0.001214955553035165 -7.267810910124499E-4 0.005068246664291566 0.004894257522583694 -0.0029548745327433092 -0.004006457923244582 5.257005609852953E-4 0.005736427986360965 -0.004039200845671335 0.0012519061142962733 0.0011951723088551242 0.0029642878700372587 -0.006748154724672066 0.004895737953262314 0.002043382013689908 0.0012421734877048043 0.007814430663499954 -0.005713973699594408 -0.003044678088443915 -0.011231176946893162 0.006101953023295805 -0.0026071362492797023 -0.0016565326976092994 -0.004888393785143657 4.1893600708753945E-4 -0.0012345605867650474 -0.007184252049324445 -8.019018068364669E-4 -0.00516253856478996 0.004554409531443992 0.005067892682072529 0.0010293302032834053 0.0012553795247299358 0.0030952282887168774 0.006000019160510684 0.004150801223965448 -0.0010897098327387854 0.005669413037844202 -0.0018314193606242862 -0.002239392317392702 -5.659208651506902E-4 3.3715929804346216E-4 -0.0038595269462661096 -0.001962454882916724 -0.0027642270734173947 -0.001680496695056207 2.556135349960798E-4 6.375218327761766E-5 0.0017549007104747032 0.0011265190031147867 -0.001075729016060517 -1.1062288032937577E-4 -0.0027169036444644338 2.1985094135791353E-4 0.001926719624645757 0.004024368035768006 -9.993076157604488E-4 -3.373004566535913E-5 -0.005031036033926418 0.0015773567563249465 -0.007621548489170062 -0.004712886936108401 0.0026439789700188217 0.0010359924195839547 0.0033418952564637783 -0.0014486009371305578 -0.0036663839526128996 0.0031435423162944494 8.105706858850671E-4 -7.059733886117958E-5 -0.0013574321398577274 0.006610129746699769 -0.001509550738228686 0.00159269786553476 0.005209721857901479 -0.002767732758527301 -6.6508555243637E-5 4.424424193091585E-4 -0.0011787944907280122 -0.0020224654848686532 -0.0026093910919326186 0.00178246594280752 0.004964981965301571 -0.0046123151388291804 0.006085428799403571 -9.101829922451584E-4 -0.008452008157464944 -0.0029301275367631108 8.06866375641825E-4 0.0028501810490282674 -0.004689057744852279 0.0025339831946309117 -0.006395464028312343 -0.001391470111908117 0.0024815519897529795 0.003705140783129032 -0.009896859713266088 0.004274351326880686 0.004806435986776745 0.006808753917061967 0.001070206120151021 -0.0016001555018879897 -0.005097138441482362 0.002881376401798969 0.001803000363451026 -5.570814060760367E-4 -4.142097560740443E-4 -0.0020002798388995355 1.373188021814481E-4 -0.0019249597408003045 -0.002800857567469903 -0.0016600006447550113 -0.0010630230462310162 -0.008385348580834194 0.0022017502089221055 0.0016180787829924517 0.0053718040670990876 4.570825945540672E-4 -0.0021134559571382573 -0.00237930888215755 -0.00728675672509809 -0.006251704149707375 0.0031672327739631174 0.0035267624529917536 0.003347620279677815 -0.0052178295261597575 -0.002246069710284334 -0.00699821199345452 -2.485564524177523E-4 -0.0013022207451144124 7.124209643544683E-4 -0.00251526877546627 -0.001299046958579494 0.0015953330549000225 0.0040678004579524805 0.003682199014608403 0.0010674621970146274 -0.001803668122946534 -0.005579242605807506 -0.006093833430366362 -0.005469799754388119 -0.005074001175171363 0.0010465899829436424 -0.004656627647509512 0.002484468587289032 -0.001497146739517281 5.6360866895873034E-5 0.0015076096999522698 -5.867638001400433E-5 -0.006815760200019062 -0.0026873431163335726 -0.004854947653576117 -0.003873473171185385 0.0046216117438259985 0.003978658482979788 -0.0030398462543513613 -0.006611260255492468 0.0015367635135759522 0.004405756855501474 0.002123545755357866 0.002696287900312226 0.006374551042944925 -0.0036624000057645695 7.400440678904617E-4 -5.012916573757192E-4 0.004808561829051641 0.003977621052215038 0.008697135412370993 6.845461456667869E-4 0.0016905996347653524 0.0011523896925699478 -0.0021377042136275634 0.0015714868764034964
0.004225273883361395 -0.008043476102258343 0.02739276117009457 0.017286650843854803 0.014113128570338862 -0.0112842944905747 0.0019285717014985084 0.028751661550424905 0.005159112504924082 0.022758637386355522 0.01192822752062668 0.002946308360929631 -0.0014000510855420826 -0.011148132189091862 0.014074161433065557 -0.0015192484201313379 0.01936212196611214 -0.015051896682734133 0.017146238195159178 -8.613773320527701E-4 -0.018704198506838767 -0.002784997293680638 -0.00550708428762865 0.0032069487241376533 -0.027376960085962986 0.02024174279173222 0.012993881193043993 0.0022878103370041385 -0.014331770540657313 -0.020621337880176695 -0.011810452419185841 0.003940566562530876 -0.004657622367149416 -0.030948298435064036 -0.025427389228850038 0.005675228688766861 -0.01941776481022592 -0.0130845718760978 -8.193285613650561E-4 0.009098859311625905 0.017646949975249206 0.0174559573724675 -0.016218080071272553 -0.0035051657147393586 -0.003097781632279674 0.018436748370942634 0.006705622234589404 -0.007444013311504535 0.018408647090094352 -0.0018795587595006214 -0.024070791971445748 0.010489738408643196 -0.017845622366329965 0.01615019722849313 0.00806192432661924 0.01564295261235055 0.0033614788289016385 0.014314354557617565 0.007541106044864254 0.0058632727503816085 0.020761150468261394 0.014267992996055953 -0.018697585509497492 -0.01038929746793406 -0.014507714001322364 0.0079689094078617 0.008105805815083108 0.006135014943414156 0.019550096591224843 0.007009907136825466 0.013225826398210168 -0.022538861677403398 0.03090860693808999 0.006403457629071772 -0.01552950945866757 0.0014394268746403271 0.010841936108241796 -0.013299347327261804 -0.011061452710745311 0.008384488096709546 -0.01627310183200532 -0.008712246644932368 0.004526977677760981 -0.012131134170704725 -0.00790532035239132 -0.0023477395876822203 -0.004460254662906182 -0.014553344272654955 0.004993887064282058 -0.010146292410416402 0.021410199494917414 -0.0054767706517954455 0.020099127622977934 -0.006457873174261403 -0.01567395906689743 0.007848951922953299 0.0037077743951181978 0.005340482371916578 0.011451296732606087 7.641888448386418E-4 -0.028692415959454386 0.017746400061406483 8.629197527760298E-4 -0.010617544491269972 -0.020163226623770673 -0.003160370116205293 0.03584084371502744 0.02124302982992757 -0.004629050499566724 -0.016229127934138332 -0.021369685395131417 -0.0333285705733884 -0.0019623836415983086 0.00981776841336322 -0.011993153745134015 0.01831563163284611 0.016430722298067343 0.0053632907610558 -0.027498153007581436 -0.006372221855513016 0.03079547481508711 -0.005157410658129637 0.006512549469959542 -0.008732096976308721 -0.001132770600899695 0.002943317352420118 -0.026662259411474282 -0.0022348473184959305 0.0010129419255737373 -0.019462792913932138 -6.049444998024546E-4 0.008127348207848831 -4.310497818480484E-4 -0.01679080042169447 0.03206037911033598 0.008059538935309224 0.001920781637222889 -0.00884301803872643 0.009910388943488497 -0.011610550959662751 0.010153356445006085 -0.003665435783999391 -0.006864058957078794 0.018162942162511148 -0.01134191131703239 -5.757206531767833E-4 -8.137549629368314E-4 0.01299842802030746 -0.012570967466371385 -0.02577828191550404 0.006793236068819244 -0.006752248181496458 0.015932647828650247 0.013454968854226652 0.014098388820472206 -0.013085445654308244 0.026816629444426327 -0.017300263059531484 -0.025737851092160004 0.002336108567725474 -0.015375402540901813 -0.020078846135664265 -0.00880111178805732 -0.011165724051488364 -0.010292198335640056 -0.005472140199932542 -0.017524554057233462 4.4616699592025226E-4 -6.245548133021552E-4 0.020283310728046844 -0.02495222412214563 -0.00345134562103901 0.00793772608797397 0.00872271722623646 0.013679883101939518 0.03655836916107152 -0.014758423138410562 -0.012395433455163987 0.0016245968102498079 0.013632202299435108 -0.020669337307567034 0.02865388764736584 -0.02977777637940386 0.004953865608961705 0.0031241651447674094 7.022329065569249E-4 0.013011265739786525 0.004112676009363282 0.002626357908109879 0.017087329376132956 -0.02432668528596859 -0.015370363832597142 0.008453865967775944 0.006991351250973553 0.015111457358456386 0.011675655405537692 -0.006868349851004544 -0.004322187953090022 -0.007560349500578345 -0.01079043613851067
0.011865328517941458 -0.014681447858798921 -0.004562864264415524 -0.008007750431468806 -0.005583433949275396 -0.003767607108390156 0.00685369720165138 -0.005758521324859284 0.011280500898223474 0.00799655208098709 0.0032899562161175597 0.008916213059232965 -0.0064254732759122715 0.00465558921714719 0.012815781024581762 0.008932628223096062 -0.017291494221653488 -0.002477585744413592 -0.0036193780368059553 -0.02154703445857412 -0.001942787776350731 6.413508860569437E-6 -0.0073181257085155865 0.0030268171803995068 -0.0030602288127342366 -0.004938630819929181 0.004969922355048781 0.0014771886224573274 -0.0034151077201184663 -7.90687385878666E-6 0.005346086417397751 -0.007654505654080541 2.1733574807673763E-4 -0.0012209619605529336 -0.015462030619794575 2.9896692453336914E-4 2.635763021958978E-4 -0.0079154332581454 0.0029030690915248683 -0.004551265967936425 -0.0015278762211514882 0.01319285912693809 -7.87695285269255E-4 0.011523018123149474 0.010536473997463379 -7.442880988104699E-4 0.009504692179238201 -0.0033676655361113464 -0.003622511885444885 0.0016409089761798422 -0.005453284882858816 0.004350668750030524 -0.005701494423721874 -0.006602088942972237 -0.005558524764257503 -0.012015357263944431 0.0013830358589430622 0.012504840586495317 0.003943320991473916 0.0044218700219445925 -0.003277392515744346 0.01323961346047607 0.008989325307631314 -6.57504868756044E-4 -0.0036906971370943846 -0.01108131643648923 3.301692305328084E-5 0.002305237918183201 -0.007111228771506478 -0.01634818423047945 0.002643495240689551 -6.494403226233094E-4 0.015107908894789234 0.016512749485804813 -0.01413887350440768 0.010615081647277435 0.012408994998746271 -7.578078308105418E-4 -0.024820322583543303 -0.001837998761823806 -0.0035003848984020884 0.010358713750312741 0.011928164192195546 0.0019661802144420653 -0.003627789906290672 -0.00485736839280139 -0.002370733550518855 -0.022680459824410106 0.0032848228535569974 0.011817190437690774 0.00784228817482752 -0.020699229583693038 -0.006929141805586496 -0.005127832954794829 0.007506433188038412 0.012514526314460107 0.009454955256699395 -0.02430009127874831 0.021372960420240863 -0.0011462246610079174 -0.005428379097573848 -0.0047446146175086305 -0.02688715607186858 -0.0098024858864148 5.75319493527025E-4 -2.5413448815247004E-4 -0.00707607495635001 0.007501852063001007 -0.010528067403535717 -0.010397964949339943 0.008018262139384315 0.008508149927140616 0.00126393503251833 -0.027829673131503977 2.9044436837288347E-4 0.0025700519699610514 -0.011509320611277575 -0.007732849454126747 0.01268595614201422 -0.0036020293206252634 0.005975032031405985 0.007833415491113457 0.0028844631424494033 -0.0034392138462062474 -4.2381633355132825E-4 0.010203015079187076 0.017719819411794274 -0.0020032894157369775 0.0015159986544756086 -0.0025422502923606906 -0.00347157212318245 0.008633530862413365 -0.002740642111764505 0.008943266220752097 0.011649182840980592 -3.077201415237411E-4 -0.0074421416243480665 0.008948864724967268 -3.9770604316942057E-4 -0.008944761616373103 -0.016987279416954965 0.006460797947882903 0.0011909470403702327 0.004932228276033193 -0.011099228076025362 0.00636947509623129 -0.018816909614247306 -0.013918714759436636 0.007024297857480788 0.02303610310306458 0.0029560856317951438 0.0074741039917834845 -0.0034560601491154205 0.003692232029673308 0.004110075932927397 -0.005032022535980667 -0.011911652909732263 -0.010354617000006236 0.008341916099301494 -0.014612330495826 0.014162650157480153 -0.013319782262837166 0.004679582681769178 0.0073021134242981095 0.01544351517316186 -0.0159643802336728 -0.004999200933226327 -0.012827625789788587 0.00878863454065399 -0.01126828993779073 -0.006487065507123273 0.004279864132113152 0.0015536654331868346 -5.097800322066216E-4 0.00457481491869106 0.004401137956068685 -0.005901334691718445 -0.0034707211815617964 -0.01273312933850973 -0.007602428549964164 0.004811405501835936 -0.002886452565721744 -3.057371538453196E-4 -0.008818634394826021 -0.003719890277924355 0.01725934930099861 -0.002913646759517869 -0.015794990415515176 -0.013722937467450416 8.995066975222538E-4 0.006889250039665334 -0.005530569522762752 0.007450506825754069 -0.005051647853765742 -0.006855405939553304 0.009893655137085022 0.0032873841609943172 -0.008056253506459339 7.616359653441914E-4 -0.0039346959264086
0.017559351485591387 0.013432549253758145 -0.044049133224998885 -0.016061650532167845 0.015219689269776777 0.021163034224064403 0.019981780690822546 0.005696813182653421 -0.03148800232854389 0.02208385778856381 0.0013258582967833412 -0.026750786888542794 -0.018106962700594066 0.03850740054586805 -0.01971574344609812 0.022178965527122077 0.013396029074690953 -0.003635831649337286 0.03832461307320865 0.02463476720053841 -0.07124649217460646 -0.0026049390916591812 0.006631776975771798 -0.02881919156898518 0.010165042658717453 -0.0013065299247158864 0.008265595710333508 0.03157776914724417 -0.02709824509587217 -0.03881142179784223 -0.04365215283253417 0.02367491313151246 0.05245944497661457 -0.03515578146950554 0.00967493553697278 -0.0043717456198908025 0.005137130446468744 -0.053977468303824924 0.01001158121847139 0.008438458000151451 0.013446007341956646 -0.006367871145963845 -0.006538482497729027 0.050862600793810955 0.031224896111682776 0.007299365064440528 0.03498780865009285 -0.04581251927943885 -0.010813416581528358 -0.04468977746109183 -0.08155956034503667 0.022794684893326346 0.01278276964793813 -0.006694302074697346 0.0034882164269868735 0.0016412787273745273 0.027836838530340333 -0.017716719869355368 -0.06107829548159027 -0.031296928191232344 -0.0035325894023872082 0.06265740936828644 -0.0035354664049424673 0.00426557330371477 -0.0509879739901603 -0.03509732704679075 0.007436561473722098 0.013853792394524337 0.02612143841620539 0.04902296829603679 -0.024828369838009443 -0.005160427381017453 -0.002764887557722993 -0.04625262330161291 0.00980020252602248 0.03990599812760146 -0.042345703508684496 0.0399819961830218 -0.030152463970831222 -0.027575181982393664 0.015017377749867056 -0.019927540624756424 0.04038903594107145 -0.02998456149332258 -0.03383276498522695 -0.01502553218299074 0.039912546139347686 0.03910740600792462 -0.002174308910334491 0.008171701981348102 0.04226036673412876 0.02252840363629917 -0.054004321344721794 -0.035044223494061354 -0.058192297716267175 0.03731036505430263 0.059109399540449796 -0.021524651094445256 0.009947471185441318 -0.028860517828563078 -0.014244745061975348 -0.007609782280035564 0.02000364181348436 0.013031941526466032 -0.025581704565493094 -0.03224844080582817 -0.01988096622031605 -0.02963720286175308 0.03161447784712467 0.02107012662322469 -0.015709473166071183 0.03573635082132899 0.0036294965949652033 0.011407298581842295 -0.00832636075744013 -0.024869079631943222 -0.02797883009945352 0.03644559987316773 -0.004438533605596936 -0.013289450575632265 0.03896196853183389 -0.0016903128888165516 -0.025426490657199062 0.03919532695310755 -0.023359154368644976 -0.003181797469529184 0.03202436872286711 0.009269963536090638 0.002403005023503296 0.06350305783956409 0.020795207499352403 0.0071801108292181256 -0.0072925739575581145 0.03271984922423341 -0.01862799727673082 0.04735164878710067 0.014738552287448355 0.0392273246636401 -5.263208385038851E-4 0.028455527283242636 -0.0591969226845084 -0.006710979178116229 -0.011244213482313407 -0.023485700224768053 0.026367325242644155 -0.0020255542094465796 -0.025744482639944284 0.07447707495899694 0.048115857895994124 -0.01339664317774364 -1.995799963506661E-5 0.014210060853649441 -0.021299172124274336 -0.0015669829625610259 0.009201516799981298 0.020834874580842586 -0.07618636299590484 -0.036923937974753664 -0.010807017422244552 -0.012187827145205244 -0.04141958496515531 0.057271036842259565 -0.0010005098357215275 0.0034635176262139563 -0.00836698607599274 0.02340069688138106 0.021866148922744556 0.003148661258865409 -0.005701072870222438 0.005381952929333693 -0.040563172794561037 0.00305703377585147 0.013805158431845137 -0.00827385755299718 -0.006438856484324621 -0.0011133741263891967 0.021046121629943296 -0.012641568953766991 0.010714697048013505 -0.02305451691375828 -0.045674072935867116 0.03806295410059374 -0.018595103577454444 5.916869908811473E-4 0.00871121618115005 -0.00751154776290385 -0.07880053047217021 -0.003495814520401831 0.041063265316849375 -0.013676674222651874 0.01705946608147848 -0.02593117077171481 -0.04198410960603515 -0.00747811342167418 -0.01079933554181593 -0.005611051700322567 0.02982671386890848 0.039268200608018236 0.008117744339894003 -0.01621792943534124
